
net {
  name = unnamedBN;
  software = "aGrUM 0.17.0";
  node_size = (50 50);
}

node Pregnancies {
   states = ("(0.0000, 15.0000]" "(15.0000, 16.9000]" );
   label = "Pregnancies";
   ID = "Pregnancies";
}

node Glucose {
   states = ("(3.0000, 71.7000]" "(71.00000, 196.9000]" );
   label = "Glucose";
   ID = "Glucose";
}

node BloodPressure {
   states = ("(13.8700, 78.7000]" "(78.000, 86.0000]" "(86.0000, 121.5000]" );
   label = "BloodPressure";
   ID = "BloodPressure";
}

node SkinThickness {
   states = ("(-0.0000, 16.4000]" "(16.000, 59.0000]" );
   label = "SkinThickness";
   ID = "SkinThickness";
}

node Insulin {
   states = ("(-0.00000, 131.9000]" "(131.00000, 465.8000]" );
   label = "Insulin";
   ID = "Insulin";
}

node BMI {
   states = ("(1.000, 28.0000]" "(28.000, 47.1000]" "(47.000, 65.0000]" );
   label = "BMI";
   ID = "BMI";
}

node DiabetesPedigreeFunction {
   states = ("(0.000, 1.5000]" "(0.0000, 0.2000]" );
   label = "DiabetesPedigreeFunction";
   ID = "DiabetesPedigreeFunction";
}

node Age {
   states = ("(22.1699, 57.7000]" );
   label = "Age";
   ID = "Age";
}

node Diabetes? {
   states = (No Yes );
   label = "Diabetes?";
   ID = "Diabetes?";
}

potential ( Pregnancies | Glucose   Diabetes?   ) {
   data = 
   (((   0.999244   0.00075643)   % Glucose="(3.0000, 71.7000]"   Diabetes?=No   
   (   0.996552   0.00344828))   % Glucose="(71.00000, 196.9000]"   Diabetes?=No   
   ((   0.998294   0.00170648)   % Glucose="(3.0000, 71.7000]"   Diabetes?=Yes   
   (   0.804   0.196)));   % Glucose="(71.00000, 196.9000]"   Diabetes?=Yes   
}

potential ( Glucose | BloodPressure   ) {
   data = 
   ((   0.999211   0.000788644)   % BloodPressure="(13.8700, 78.7000]"   
   (   0.1639   0.8361)   % BloodPressure="(78.000, 86.0000]"   
   (   0.988372   0.0116279));   % BloodPressure="(86.0000, 121.5000]"   
}

potential ( BloodPressure | BMI   ) {
   data = 
   ((   0.534322   0.395936   0.0697419)   % BMI="(1.000, 28.0000]"   
   (   0.997669   0.0011655   0.0011655)   % BMI="(28.000, 47.1000]"   
   (   0.973333   0.0133333   0.0133333));   % BMI="(47.000, 65.0000]"   
}

potential ( SkinThickness | BMI   BloodPressure   ) {
   data = 
   (((   0.731244   0.268756)   % BMI="(1.000, 28.0000]"   BloodPressure="(13.8700, 78.7000]"   
   (   0.999416   0.000584112)   % BMI="(28.000, 47.1000]"   BloodPressure="(13.8700, 78.7000]"   
   (   0.993151   0.00684932))   % BMI="(47.000, 65.0000]"   BloodPressure="(13.8700, 78.7000]"   
   ((   0.999307   0.000693481)   % BMI="(1.000, 28.0000]"   BloodPressure="(78.000, 86.0000]"   
   (   0.5   0.5)   % BMI="(28.000, 47.1000]"   BloodPressure="(78.000, 86.0000]"   
   (   0.5   0.5))   % BMI="(47.000, 65.0000]"   BloodPressure="(78.000, 86.0000]"   
   ((   0.996063   0.00393701)   % BMI="(1.000, 28.0000]"   BloodPressure="(86.0000, 121.5000]"   
   (   0.5   0.5)   % BMI="(28.000, 47.1000]"   BloodPressure="(86.0000, 121.5000]"   
   (   0.5   0.5)));   % BMI="(47.000, 65.0000]"   BloodPressure="(86.0000, 121.5000]"   
}

potential ( Insulin | SkinThickness   BMI   BloodPressure   Diabetes?   DiabetesPedigreeFunction   ) {
   data = 
   ((((((   0.5   0.5)   % SkinThickness="(-0.0000, 16.4000]"   BMI="(1.000, 28.0000]"   BloodPressure="(13.8700, 78.7000]"   Diabetes?=No   DiabetesPedigreeFunction="(0.000, 1.5000]"   
   (   0.5   0.5))   % SkinThickness="(16.000, 59.0000]"   BMI="(1.000, 28.0000]"   BloodPressure="(13.8700, 78.7000]"   Diabetes?=No   DiabetesPedigreeFunction="(0.000, 1.5000]"   
   ((   0.996552   0.00344828)   % SkinThickness="(-0.0000, 16.4000]"   BMI="(28.000, 47.1000]"   BloodPressure="(13.8700, 78.7000]"   Diabetes?=No   DiabetesPedigreeFunction="(0.000, 1.5000]"   
   (   0.5   0.5))   % SkinThickness="(16.000, 59.0000]"   BMI="(28.000, 47.1000]"   BloodPressure="(13.8700, 78.7000]"   Diabetes?=No   DiabetesPedigreeFunction="(0.000, 1.5000]"   
   ((   0.5   0.5)   % SkinThickness="(-0.0000, 16.4000]"   BMI="(47.000, 65.0000]"   BloodPressure="(13.8700, 78.7000]"   Diabetes?=No   DiabetesPedigreeFunction="(0.000, 1.5000]"   
   (   0.5   0.5)))   % SkinThickness="(16.000, 59.0000]"   BMI="(47.000, 65.0000]"   BloodPressure="(13.8700, 78.7000]"   Diabetes?=No   DiabetesPedigreeFunction="(0.000, 1.5000]"   
   (((   0.5   0.5)   % SkinThickness="(-0.0000, 16.4000]"   BMI="(1.000, 28.0000]"   BloodPressure="(78.000, 86.0000]"   Diabetes?=No   DiabetesPedigreeFunction="(0.000, 1.5000]"   
   (   0.5   0.5))   % SkinThickness="(16.000, 59.0000]"   BMI="(1.000, 28.0000]"   BloodPressure="(78.000, 86.0000]"   Diabetes?=No   DiabetesPedigreeFunction="(0.000, 1.5000]"   
   ((   0.5   0.5)   % SkinThickness="(-0.0000, 16.4000]"   BMI="(28.000, 47.1000]"   BloodPressure="(78.000, 86.0000]"   Diabetes?=No   DiabetesPedigreeFunction="(0.000, 1.5000]"   
   (   0.5   0.5))   % SkinThickness="(16.000, 59.0000]"   BMI="(28.000, 47.1000]"   BloodPressure="(78.000, 86.0000]"   Diabetes?=No   DiabetesPedigreeFunction="(0.000, 1.5000]"   
   ((   0.5   0.5)   % SkinThickness="(-0.0000, 16.4000]"   BMI="(47.000, 65.0000]"   BloodPressure="(78.000, 86.0000]"   Diabetes?=No   DiabetesPedigreeFunction="(0.000, 1.5000]"   
   (   0.5   0.5)))   % SkinThickness="(16.000, 59.0000]"   BMI="(47.000, 65.0000]"   BloodPressure="(78.000, 86.0000]"   Diabetes?=No   DiabetesPedigreeFunction="(0.000, 1.5000]"   
   (((   0.5   0.5)   % SkinThickness="(-0.0000, 16.4000]"   BMI="(1.000, 28.0000]"   BloodPressure="(86.0000, 121.5000]"   Diabetes?=No   DiabetesPedigreeFunction="(0.000, 1.5000]"   
   (   0.5   0.5))   % SkinThickness="(16.000, 59.0000]"   BMI="(1.000, 28.0000]"   BloodPressure="(86.0000, 121.5000]"   Diabetes?=No   DiabetesPedigreeFunction="(0.000, 1.5000]"   
   ((   0.5   0.5)   % SkinThickness="(-0.0000, 16.4000]"   BMI="(28.000, 47.1000]"   BloodPressure="(86.0000, 121.5000]"   Diabetes?=No   DiabetesPedigreeFunction="(0.000, 1.5000]"   
   (   0.5   0.5))   % SkinThickness="(16.000, 59.0000]"   BMI="(28.000, 47.1000]"   BloodPressure="(86.0000, 121.5000]"   Diabetes?=No   DiabetesPedigreeFunction="(0.000, 1.5000]"   
   ((   0.5   0.5)   % SkinThickness="(-0.0000, 16.4000]"   BMI="(47.000, 65.0000]"   BloodPressure="(86.0000, 121.5000]"   Diabetes?=No   DiabetesPedigreeFunction="(0.000, 1.5000]"   
   (   0.5   0.5))))   % SkinThickness="(16.000, 59.0000]"   BMI="(47.000, 65.0000]"   BloodPressure="(86.0000, 121.5000]"   Diabetes?=No   DiabetesPedigreeFunction="(0.000, 1.5000]"   
   ((((   0.5   0.5)   % SkinThickness="(-0.0000, 16.4000]"   BMI="(1.000, 28.0000]"   BloodPressure="(13.8700, 78.7000]"   Diabetes?=Yes   DiabetesPedigreeFunction="(0.000, 1.5000]"   
   (   0.5   0.5))   % SkinThickness="(16.000, 59.0000]"   BMI="(1.000, 28.0000]"   BloodPressure="(13.8700, 78.7000]"   Diabetes?=Yes   DiabetesPedigreeFunction="(0.000, 1.5000]"   
   ((   0.999898   0.000102103)   % SkinThickness="(-0.0000, 16.4000]"   BMI="(28.000, 47.1000]"   BloodPressure="(13.8700, 78.7000]"   Diabetes?=Yes   DiabetesPedigreeFunction="(0.000, 1.5000]"   
   (   0.5   0.5))   % SkinThickness="(16.000, 59.0000]"   BMI="(28.000, 47.1000]"   BloodPressure="(13.8700, 78.7000]"   Diabetes?=Yes   DiabetesPedigreeFunction="(0.000, 1.5000]"   
   ((   0.5   0.5)   % SkinThickness="(-0.0000, 16.4000]"   BMI="(47.000, 65.0000]"   BloodPressure="(13.8700, 78.7000]"   Diabetes?=Yes   DiabetesPedigreeFunction="(0.000, 1.5000]"   
   (   0.5   0.5)))   % SkinThickness="(16.000, 59.0000]"   BMI="(47.000, 65.0000]"   BloodPressure="(13.8700, 78.7000]"   Diabetes?=Yes   DiabetesPedigreeFunction="(0.000, 1.5000]"   
   (((   0.5   0.5)   % SkinThickness="(-0.0000, 16.4000]"   BMI="(1.000, 28.0000]"   BloodPressure="(78.000, 86.0000]"   Diabetes?=Yes   DiabetesPedigreeFunction="(0.000, 1.5000]"   
   (   0.5   0.5))   % SkinThickness="(16.000, 59.0000]"   BMI="(1.000, 28.0000]"   BloodPressure="(78.000, 86.0000]"   Diabetes?=Yes   DiabetesPedigreeFunction="(0.000, 1.5000]"   
   ((   0.5   0.5)   % SkinThickness="(-0.0000, 16.4000]"   BMI="(28.000, 47.1000]"   BloodPressure="(78.000, 86.0000]"   Diabetes?=Yes   DiabetesPedigreeFunction="(0.000, 1.5000]"   
   (   0.5   0.5))   % SkinThickness="(16.000, 59.0000]"   BMI="(28.000, 47.1000]"   BloodPressure="(78.000, 86.0000]"   Diabetes?=Yes   DiabetesPedigreeFunction="(0.000, 1.5000]"   
   ((   0.5   0.5)   % SkinThickness="(-0.0000, 16.4000]"   BMI="(47.000, 65.0000]"   BloodPressure="(78.000, 86.0000]"   Diabetes?=Yes   DiabetesPedigreeFunction="(0.000, 1.5000]"   
   (   0.5   0.5)))   % SkinThickness="(16.000, 59.0000]"   BMI="(47.000, 65.0000]"   BloodPressure="(78.000, 86.0000]"   Diabetes?=Yes   DiabetesPedigreeFunction="(0.000, 1.5000]"   
   (((   0.5   0.5)   % SkinThickness="(-0.0000, 16.4000]"   BMI="(1.000, 28.0000]"   BloodPressure="(86.0000, 121.5000]"   Diabetes?=Yes   DiabetesPedigreeFunction="(0.000, 1.5000]"   
   (   0.5   0.5))   % SkinThickness="(16.000, 59.0000]"   BMI="(1.000, 28.0000]"   BloodPressure="(86.0000, 121.5000]"   Diabetes?=Yes   DiabetesPedigreeFunction="(0.000, 1.5000]"   
   ((   0.5   0.5)   % SkinThickness="(-0.0000, 16.4000]"   BMI="(28.000, 47.1000]"   BloodPressure="(86.0000, 121.5000]"   Diabetes?=Yes   DiabetesPedigreeFunction="(0.000, 1.5000]"   
   (   0.5   0.5))   % SkinThickness="(16.000, 59.0000]"   BMI="(28.000, 47.1000]"   BloodPressure="(86.0000, 121.5000]"   Diabetes?=Yes   DiabetesPedigreeFunction="(0.000, 1.5000]"   
   ((   0.5   0.5)   % SkinThickness="(-0.0000, 16.4000]"   BMI="(47.000, 65.0000]"   BloodPressure="(86.0000, 121.5000]"   Diabetes?=Yes   DiabetesPedigreeFunction="(0.000, 1.5000]"   
   (   0.5   0.5)))))   % SkinThickness="(16.000, 59.0000]"   BMI="(47.000, 65.0000]"   BloodPressure="(86.0000, 121.5000]"   Diabetes?=Yes   DiabetesPedigreeFunction="(0.000, 1.5000]"   
   (((((   0.645544   0.354456)   % SkinThickness="(-0.0000, 16.4000]"   BMI="(1.000, 28.0000]"   BloodPressure="(13.8700, 78.7000]"   Diabetes?=No   DiabetesPedigreeFunction="(0.0000, 0.2000]"   
   (   0.999761   0.000239349))   % SkinThickness="(16.000, 59.0000]"   BMI="(1.000, 28.0000]"   BloodPressure="(13.8700, 78.7000]"   Diabetes?=No   DiabetesPedigreeFunction="(0.0000, 0.2000]"   
   ((   0.999722   0.000277624)   % SkinThickness="(-0.0000, 16.4000]"   BMI="(28.000, 47.1000]"   BloodPressure="(13.8700, 78.7000]"   Diabetes?=No   DiabetesPedigreeFunction="(0.0000, 0.2000]"   
   (   0.5   0.5))   % SkinThickness="(16.000, 59.0000]"   BMI="(28.000, 47.1000]"   BloodPressure="(13.8700, 78.7000]"   Diabetes?=No   DiabetesPedigreeFunction="(0.0000, 0.2000]"   
   ((   0.997696   0.00230415)   % SkinThickness="(-0.0000, 16.4000]"   BMI="(47.000, 65.0000]"   BloodPressure="(13.8700, 78.7000]"   Diabetes?=No   DiabetesPedigreeFunction="(0.0000, 0.2000]"   
   (   0.5   0.5)))   % SkinThickness="(16.000, 59.0000]"   BMI="(47.000, 65.0000]"   BloodPressure="(13.8700, 78.7000]"   Diabetes?=No   DiabetesPedigreeFunction="(0.0000, 0.2000]"   
   (((   0.999858   0.000141683)   % SkinThickness="(-0.0000, 16.4000]"   BMI="(1.000, 28.0000]"   BloodPressure="(78.000, 86.0000]"   Diabetes?=No   DiabetesPedigreeFunction="(0.0000, 0.2000]"   
   (   0.5   0.5))   % SkinThickness="(16.000, 59.0000]"   BMI="(1.000, 28.0000]"   BloodPressure="(78.000, 86.0000]"   Diabetes?=No   DiabetesPedigreeFunction="(0.0000, 0.2000]"   
   ((   0.5   0.5)   % SkinThickness="(-0.0000, 16.4000]"   BMI="(28.000, 47.1000]"   BloodPressure="(78.000, 86.0000]"   Diabetes?=No   DiabetesPedigreeFunction="(0.0000, 0.2000]"   
   (   0.5   0.5))   % SkinThickness="(16.000, 59.0000]"   BMI="(28.000, 47.1000]"   BloodPressure="(78.000, 86.0000]"   Diabetes?=No   DiabetesPedigreeFunction="(0.0000, 0.2000]"   
   ((   0.5   0.5)   % SkinThickness="(-0.0000, 16.4000]"   BMI="(47.000, 65.0000]"   BloodPressure="(78.000, 86.0000]"   Diabetes?=No   DiabetesPedigreeFunction="(0.0000, 0.2000]"   
   (   0.5   0.5)))   % SkinThickness="(16.000, 59.0000]"   BMI="(47.000, 65.0000]"   BloodPressure="(78.000, 86.0000]"   Diabetes?=No   DiabetesPedigreeFunction="(0.0000, 0.2000]"   
   (((   0.999504   0.00049554)   % SkinThickness="(-0.0000, 16.4000]"   BMI="(1.000, 28.0000]"   BloodPressure="(86.0000, 121.5000]"   Diabetes?=No   DiabetesPedigreeFunction="(0.0000, 0.2000]"   
   (   0.5   0.5))   % SkinThickness="(16.000, 59.0000]"   BMI="(1.000, 28.0000]"   BloodPressure="(86.0000, 121.5000]"   Diabetes?=No   DiabetesPedigreeFunction="(0.0000, 0.2000]"   
   ((   0.5   0.5)   % SkinThickness="(-0.0000, 16.4000]"   BMI="(28.000, 47.1000]"   BloodPressure="(86.0000, 121.5000]"   Diabetes?=No   DiabetesPedigreeFunction="(0.0000, 0.2000]"   
   (   0.5   0.5))   % SkinThickness="(16.000, 59.0000]"   BMI="(28.000, 47.1000]"   BloodPressure="(86.0000, 121.5000]"   Diabetes?=No   DiabetesPedigreeFunction="(0.0000, 0.2000]"   
   ((   0.5   0.5)   % SkinThickness="(-0.0000, 16.4000]"   BMI="(47.000, 65.0000]"   BloodPressure="(86.0000, 121.5000]"   Diabetes?=No   DiabetesPedigreeFunction="(0.0000, 0.2000]"   
   (   0.5   0.5))))   % SkinThickness="(16.000, 59.0000]"   BMI="(47.000, 65.0000]"   BloodPressure="(86.0000, 121.5000]"   Diabetes?=No   DiabetesPedigreeFunction="(0.0000, 0.2000]"   
   ((((   0.5   0.5)   % SkinThickness="(-0.0000, 16.4000]"   BMI="(1.000, 28.0000]"   BloodPressure="(13.8700, 78.7000]"   Diabetes?=Yes   DiabetesPedigreeFunction="(0.0000, 0.2000]"   
   (   0.5   0.5))   % SkinThickness="(16.000, 59.0000]"   BMI="(1.000, 28.0000]"   BloodPressure="(13.8700, 78.7000]"   Diabetes?=Yes   DiabetesPedigreeFunction="(0.0000, 0.2000]"   
   ((   0.5   0.5)   % SkinThickness="(-0.0000, 16.4000]"   BMI="(28.000, 47.1000]"   BloodPressure="(13.8700, 78.7000]"   Diabetes?=Yes   DiabetesPedigreeFunction="(0.0000, 0.2000]"   
   (   0.5   0.5))   % SkinThickness="(16.000, 59.0000]"   BMI="(28.000, 47.1000]"   BloodPressure="(13.8700, 78.7000]"   Diabetes?=Yes   DiabetesPedigreeFunction="(0.0000, 0.2000]"   
   ((   0.998615   0.00138504)   % SkinThickness="(-0.0000, 16.4000]"   BMI="(47.000, 65.0000]"   BloodPressure="(13.8700, 78.7000]"   Diabetes?=Yes   DiabetesPedigreeFunction="(0.0000, 0.2000]"   
   (   0.5   0.5)))   % SkinThickness="(16.000, 59.0000]"   BMI="(47.000, 65.0000]"   BloodPressure="(13.8700, 78.7000]"   Diabetes?=Yes   DiabetesPedigreeFunction="(0.0000, 0.2000]"   
   (((   0.999776   0.000223914)   % SkinThickness="(-0.0000, 16.4000]"   BMI="(1.000, 28.0000]"   BloodPressure="(78.000, 86.0000]"   Diabetes?=Yes   DiabetesPedigreeFunction="(0.0000, 0.2000]"   
   (   0.5   0.5))   % SkinThickness="(16.000, 59.0000]"   BMI="(1.000, 28.0000]"   BloodPressure="(78.000, 86.0000]"   Diabetes?=Yes   DiabetesPedigreeFunction="(0.0000, 0.2000]"   
   ((   0.5   0.5)   % SkinThickness="(-0.0000, 16.4000]"   BMI="(28.000, 47.1000]"   BloodPressure="(78.000, 86.0000]"   Diabetes?=Yes   DiabetesPedigreeFunction="(0.0000, 0.2000]"   
   (   0.5   0.5))   % SkinThickness="(16.000, 59.0000]"   BMI="(28.000, 47.1000]"   BloodPressure="(78.000, 86.0000]"   Diabetes?=Yes   DiabetesPedigreeFunction="(0.0000, 0.2000]"   
   ((   0.5   0.5)   % SkinThickness="(-0.0000, 16.4000]"   BMI="(47.000, 65.0000]"   BloodPressure="(78.000, 86.0000]"   Diabetes?=Yes   DiabetesPedigreeFunction="(0.0000, 0.2000]"   
   (   0.5   0.5)))   % SkinThickness="(16.000, 59.0000]"   BMI="(47.000, 65.0000]"   BloodPressure="(78.000, 86.0000]"   Diabetes?=Yes   DiabetesPedigreeFunction="(0.0000, 0.2000]"   
   (((   0.5   0.5)   % SkinThickness="(-0.0000, 16.4000]"   BMI="(1.000, 28.0000]"   BloodPressure="(86.0000, 121.5000]"   Diabetes?=Yes   DiabetesPedigreeFunction="(0.0000, 0.2000]"   
   (   0.5   0.5))   % SkinThickness="(16.000, 59.0000]"   BMI="(1.000, 28.0000]"   BloodPressure="(86.0000, 121.5000]"   Diabetes?=Yes   DiabetesPedigreeFunction="(0.0000, 0.2000]"   
   ((   0.5   0.5)   % SkinThickness="(-0.0000, 16.4000]"   BMI="(28.000, 47.1000]"   BloodPressure="(86.0000, 121.5000]"   Diabetes?=Yes   DiabetesPedigreeFunction="(0.0000, 0.2000]"   
   (   0.5   0.5))   % SkinThickness="(16.000, 59.0000]"   BMI="(28.000, 47.1000]"   BloodPressure="(86.0000, 121.5000]"   Diabetes?=Yes   DiabetesPedigreeFunction="(0.0000, 0.2000]"   
   ((   0.5   0.5)   % SkinThickness="(-0.0000, 16.4000]"   BMI="(47.000, 65.0000]"   BloodPressure="(86.0000, 121.5000]"   Diabetes?=Yes   DiabetesPedigreeFunction="(0.0000, 0.2000]"   
   (   0.5   0.5))))));   % SkinThickness="(16.000, 59.0000]"   BMI="(47.000, 65.0000]"   BloodPressure="(86.0000, 121.5000]"   Diabetes?=Yes   DiabetesPedigreeFunction="(0.0000, 0.2000]"   
}

potential (BMI) {
   data = (  0.66122 0.311547 0.0272331);
}

potential ( DiabetesPedigreeFunction | BMI   ) {
   data = 
   ((   0.000823723   0.999176)   % BMI="(1.000, 28.0000]"   
   (   0.736014   0.263986)   % BMI="(28.000, 47.1000]"   
   (   0.02   0.98));   % BMI="(47.000, 65.0000]"   
}

potential ( Age | Pregnancies   DiabetesPedigreeFunction   ) {
   data = 
   (((   1)   % Pregnancies="(0.0000, 15.0000]"   DiabetesPedigreeFunction="(0.000, 1.5000]"   
   (   1))   % Pregnancies="(15.0000, 16.9000]"   DiabetesPedigreeFunction="(0.000, 1.5000]"   
   ((   1)   % Pregnancies="(0.0000, 15.0000]"   DiabetesPedigreeFunction="(0.0000, 0.2000]"   
   (   1)));   % Pregnancies="(15.0000, 16.9000]"   DiabetesPedigreeFunction="(0.0000, 0.2000]"   
}

potential ( Diabetes? | Glucose   BMI   DiabetesPedigreeFunction   ) {
   data = 
   ((((   0.5   0.5)   % Glucose="(3.0000, 71.7000]"   BMI="(1.000, 28.0000]"   DiabetesPedigreeFunction="(0.000, 1.5000]"   
   (   0.5   0.5))   % Glucose="(71.00000, 196.9000]"   BMI="(1.000, 28.0000]"   DiabetesPedigreeFunction="(0.000, 1.5000]"   
   ((   0.029132   0.970868)   % Glucose="(3.0000, 71.7000]"   BMI="(28.000, 47.1000]"   DiabetesPedigreeFunction="(0.000, 1.5000]"   
   (   0.5   0.5))   % Glucose="(71.00000, 196.9000]"   BMI="(28.000, 47.1000]"   DiabetesPedigreeFunction="(0.000, 1.5000]"   
   ((   0.5   0.5)   % Glucose="(3.0000, 71.7000]"   BMI="(47.000, 65.0000]"   DiabetesPedigreeFunction="(0.000, 1.5000]"   
   (   0.5   0.5)))   % Glucose="(71.00000, 196.9000]"   BMI="(47.000, 65.0000]"   DiabetesPedigreeFunction="(0.000, 1.5000]"   
   (((   0.999692   0.000308452)   % Glucose="(3.0000, 71.7000]"   BMI="(1.000, 28.0000]"   DiabetesPedigreeFunction="(0.0000, 0.2000]"   
   (   0.537267   0.462733))   % Glucose="(71.00000, 196.9000]"   BMI="(1.000, 28.0000]"   DiabetesPedigreeFunction="(0.0000, 0.2000]"   
   ((   0.998339   0.00166113)   % Glucose="(3.0000, 71.7000]"   BMI="(28.000, 47.1000]"   DiabetesPedigreeFunction="(0.0000, 0.2000]"   
   (   0.5   0.5))   % Glucose="(71.00000, 196.9000]"   BMI="(28.000, 47.1000]"   DiabetesPedigreeFunction="(0.0000, 0.2000]"   
   ((   0.376289   0.623711)   % Glucose="(3.0000, 71.7000]"   BMI="(47.000, 65.0000]"   DiabetesPedigreeFunction="(0.0000, 0.2000]"   
   (   0.5   0.5))));   % Glucose="(71.00000, 196.9000]"   BMI="(47.000, 65.0000]"   DiabetesPedigreeFunction="(0.0000, 0.2000]"   
}


