
net {
  name = unnamedBN;
  software = "aGrUM 0.17.0";
  node_size = (50 50);
}

node Pregnancies {
   states = ("(0.0000, 15.0000]" "(15.0000, 16.9000]" );
   label = "Pregnancies";
   ID = "Pregnancies";
}

node Glucose {
   states = ("(3.000, 71.0000]" "(71.0000, 196.9000]" );
   label = "Glucose";
   ID = "Glucose";
}

node BloodPressure {
   states = ("(1.00, 60.0000]" "(60.000, 73.6000]" "(73.00000, 121.4000]" );
   label = "BloodPressure";
   ID = "BloodPressure";
}

node SkinThickness {
   states = ("(0.000, 23.1000]" "(23.000, 24.0000]" "(24.000, 82.8000]" );
   label = "SkinThickness";
   ID = "SkinThickness";
}

node Insulin {
   states = ("(-0.00000, 131.9000]" "(131.00000, 465.8000]" );
   label = "Insulin";
   ID = "Insulin";
}

node BMI {
   states = ("(1.000, 26.0000]" "(26.000, 46.8000]" "(46.0000, 64.8000]" );
   label = "BMI";
   ID = "BMI";
}

node DiabetesPedigreeFunction {
   states = ("(0.000, 1.5000]" "(0.0000, 0.2000]" );
   label = "DiabetesPedigreeFunction";
   ID = "DiabetesPedigreeFunction";
}

node Age {
   states = ("(22.0000, 30.4000]" "(30.0000, 65.8000]" );
   label = "Age";
   ID = "Age";
}

node Diabetes? {
   states = (No Yes );
   label = "Diabetes?";
   ID = "Diabetes?";
}

potential ( Pregnancies | Glucose   ) {
   data = 
   ((   0.998952   0.00104822)   % Glucose="(3.000, 71.0000]"   
   (   0.907407   0.0925926));   % Glucose="(71.0000, 196.9000]"   
}

potential ( Glucose | BloodPressure   ) {
   data = 
   ((   0.295455   0.704545)   % BloodPressure="(1.00, 60.0000]"   
   (   0.999138   0.000862069)   % BloodPressure="(60.000, 73.6000]"   
   (   0.990385   0.00961538));   % BloodPressure="(73.00000, 121.4000]"   
}

potential ( BloodPressure | SkinThickness   ) {
   data = 
   ((   0.000688705   0.998623   0.000688705)   % SkinThickness="(0.000, 23.1000]"   
   (   0.824663   0.026975   0.148362)   % SkinThickness="(23.000, 24.0000]"   
   (   0.00378788   0.992424   0.00378788));   % SkinThickness="(24.000, 82.8000]"   
}

potential ( SkinThickness | BMI   Insulin   ) {
   data = 
   (((   0.172568   0.660606   0.166826)   % BMI="(1.000, 26.0000]"   Insulin="(-0.00000, 131.9000]"   
   (   0.998832   0.000583771   0.000583771)   % BMI="(26.000, 46.8000]"   Insulin="(-0.00000, 131.9000]"   
   (   0.986395   0.00680272   0.00680272))   % BMI="(46.0000, 64.8000]"   Insulin="(-0.00000, 131.9000]"   
   ((   0.996055   0.00197239   0.00197239)   % BMI="(1.000, 26.0000]"   Insulin="(131.00000, 465.8000]"   
   (   0.333333   0.333333   0.333333)   % BMI="(26.000, 46.8000]"   Insulin="(131.00000, 465.8000]"   
   (   0.333333   0.333333   0.333333)));   % BMI="(46.0000, 64.8000]"   Insulin="(131.00000, 465.8000]"   
}

potential ( Insulin | BMI   ) {
   data = 
   ((   0.860791   0.139209)   % BMI="(1.000, 26.0000]"   
   (   0.998252   0.00174825)   % BMI="(26.000, 46.8000]"   
   (   0.98   0.02));   % BMI="(46.0000, 64.8000]"   
}

potential ( BMI | DiabetesPedigreeFunction   ) {
   data = 
   ((   0.00239808   0.995204   0.00239808)   % DiabetesPedigreeFunction="(0.000, 1.5000]"   
   (   0.854827   0.110641   0.0345314));   % DiabetesPedigreeFunction="(0.0000, 0.2000]"   
}

potential ( DiabetesPedigreeFunction | Age   ) {
   data = 
   ((   0.14557   0.85443)   % Age="(22.0000, 30.4000]"   
   (   0.991525   0.00847458));   % Age="(30.0000, 65.8000]"   
}

potential (Age) {
   data = (  0.903595 0.0964052);
}

potential ( Diabetes? | BMI   Glucose   SkinThickness   Pregnancies   DiabetesPedigreeFunction   ) {
   data = 
   ((((((   0.5   0.5)   % BMI="(1.000, 26.0000]"   Glucose="(3.000, 71.0000]"   SkinThickness="(0.000, 23.1000]"   Pregnancies="(0.0000, 15.0000]"   DiabetesPedigreeFunction="(0.000, 1.5000]"   
   (   0.000100624   0.999899)   % BMI="(26.000, 46.8000]"   Glucose="(3.000, 71.0000]"   SkinThickness="(0.000, 23.1000]"   Pregnancies="(0.0000, 15.0000]"   DiabetesPedigreeFunction="(0.000, 1.5000]"   
   (   0.5   0.5))   % BMI="(46.0000, 64.8000]"   Glucose="(3.000, 71.0000]"   SkinThickness="(0.000, 23.1000]"   Pregnancies="(0.0000, 15.0000]"   DiabetesPedigreeFunction="(0.000, 1.5000]"   
   ((   0.5   0.5)   % BMI="(1.000, 26.0000]"   Glucose="(71.0000, 196.9000]"   SkinThickness="(0.000, 23.1000]"   Pregnancies="(0.0000, 15.0000]"   DiabetesPedigreeFunction="(0.000, 1.5000]"   
   (   0.5   0.5)   % BMI="(26.000, 46.8000]"   Glucose="(71.0000, 196.9000]"   SkinThickness="(0.000, 23.1000]"   Pregnancies="(0.0000, 15.0000]"   DiabetesPedigreeFunction="(0.000, 1.5000]"   
   (   0.5   0.5)))   % BMI="(46.0000, 64.8000]"   Glucose="(71.0000, 196.9000]"   SkinThickness="(0.000, 23.1000]"   Pregnancies="(0.0000, 15.0000]"   DiabetesPedigreeFunction="(0.000, 1.5000]"   
   (((   0.5   0.5)   % BMI="(1.000, 26.0000]"   Glucose="(3.000, 71.0000]"   SkinThickness="(23.000, 24.0000]"   Pregnancies="(0.0000, 15.0000]"   DiabetesPedigreeFunction="(0.000, 1.5000]"   
   (   0.5   0.5)   % BMI="(26.000, 46.8000]"   Glucose="(3.000, 71.0000]"   SkinThickness="(23.000, 24.0000]"   Pregnancies="(0.0000, 15.0000]"   DiabetesPedigreeFunction="(0.000, 1.5000]"   
   (   0.5   0.5))   % BMI="(46.0000, 64.8000]"   Glucose="(3.000, 71.0000]"   SkinThickness="(23.000, 24.0000]"   Pregnancies="(0.0000, 15.0000]"   DiabetesPedigreeFunction="(0.000, 1.5000]"   
   ((   0.5   0.5)   % BMI="(1.000, 26.0000]"   Glucose="(71.0000, 196.9000]"   SkinThickness="(23.000, 24.0000]"   Pregnancies="(0.0000, 15.0000]"   DiabetesPedigreeFunction="(0.000, 1.5000]"   
   (   0.5   0.5)   % BMI="(26.000, 46.8000]"   Glucose="(71.0000, 196.9000]"   SkinThickness="(23.000, 24.0000]"   Pregnancies="(0.0000, 15.0000]"   DiabetesPedigreeFunction="(0.000, 1.5000]"   
   (   0.5   0.5)))   % BMI="(46.0000, 64.8000]"   Glucose="(71.0000, 196.9000]"   SkinThickness="(23.000, 24.0000]"   Pregnancies="(0.0000, 15.0000]"   DiabetesPedigreeFunction="(0.000, 1.5000]"   
   (((   0.5   0.5)   % BMI="(1.000, 26.0000]"   Glucose="(3.000, 71.0000]"   SkinThickness="(24.000, 82.8000]"   Pregnancies="(0.0000, 15.0000]"   DiabetesPedigreeFunction="(0.000, 1.5000]"   
   (   0.5   0.5)   % BMI="(26.000, 46.8000]"   Glucose="(3.000, 71.0000]"   SkinThickness="(24.000, 82.8000]"   Pregnancies="(0.0000, 15.0000]"   DiabetesPedigreeFunction="(0.000, 1.5000]"   
   (   0.5   0.5))   % BMI="(46.0000, 64.8000]"   Glucose="(3.000, 71.0000]"   SkinThickness="(24.000, 82.8000]"   Pregnancies="(0.0000, 15.0000]"   DiabetesPedigreeFunction="(0.000, 1.5000]"   
   ((   0.5   0.5)   % BMI="(1.000, 26.0000]"   Glucose="(71.0000, 196.9000]"   SkinThickness="(24.000, 82.8000]"   Pregnancies="(0.0000, 15.0000]"   DiabetesPedigreeFunction="(0.000, 1.5000]"   
   (   0.5   0.5)   % BMI="(26.000, 46.8000]"   Glucose="(71.0000, 196.9000]"   SkinThickness="(24.000, 82.8000]"   Pregnancies="(0.0000, 15.0000]"   DiabetesPedigreeFunction="(0.000, 1.5000]"   
   (   0.5   0.5))))   % BMI="(46.0000, 64.8000]"   Glucose="(71.0000, 196.9000]"   SkinThickness="(24.000, 82.8000]"   Pregnancies="(0.0000, 15.0000]"   DiabetesPedigreeFunction="(0.000, 1.5000]"   
   ((((   0.5   0.5)   % BMI="(1.000, 26.0000]"   Glucose="(3.000, 71.0000]"   SkinThickness="(0.000, 23.1000]"   Pregnancies="(15.0000, 16.9000]"   DiabetesPedigreeFunction="(0.000, 1.5000]"   
   (   0.5   0.5)   % BMI="(26.000, 46.8000]"   Glucose="(3.000, 71.0000]"   SkinThickness="(0.000, 23.1000]"   Pregnancies="(15.0000, 16.9000]"   DiabetesPedigreeFunction="(0.000, 1.5000]"   
   (   0.5   0.5))   % BMI="(46.0000, 64.8000]"   Glucose="(3.000, 71.0000]"   SkinThickness="(0.000, 23.1000]"   Pregnancies="(15.0000, 16.9000]"   DiabetesPedigreeFunction="(0.000, 1.5000]"   
   ((   0.5   0.5)   % BMI="(1.000, 26.0000]"   Glucose="(71.0000, 196.9000]"   SkinThickness="(0.000, 23.1000]"   Pregnancies="(15.0000, 16.9000]"   DiabetesPedigreeFunction="(0.000, 1.5000]"   
   (   0.5   0.5)   % BMI="(26.000, 46.8000]"   Glucose="(71.0000, 196.9000]"   SkinThickness="(0.000, 23.1000]"   Pregnancies="(15.0000, 16.9000]"   DiabetesPedigreeFunction="(0.000, 1.5000]"   
   (   0.5   0.5)))   % BMI="(46.0000, 64.8000]"   Glucose="(71.0000, 196.9000]"   SkinThickness="(0.000, 23.1000]"   Pregnancies="(15.0000, 16.9000]"   DiabetesPedigreeFunction="(0.000, 1.5000]"   
   (((   0.5   0.5)   % BMI="(1.000, 26.0000]"   Glucose="(3.000, 71.0000]"   SkinThickness="(23.000, 24.0000]"   Pregnancies="(15.0000, 16.9000]"   DiabetesPedigreeFunction="(0.000, 1.5000]"   
   (   0.5   0.5)   % BMI="(26.000, 46.8000]"   Glucose="(3.000, 71.0000]"   SkinThickness="(23.000, 24.0000]"   Pregnancies="(15.0000, 16.9000]"   DiabetesPedigreeFunction="(0.000, 1.5000]"   
   (   0.5   0.5))   % BMI="(46.0000, 64.8000]"   Glucose="(3.000, 71.0000]"   SkinThickness="(23.000, 24.0000]"   Pregnancies="(15.0000, 16.9000]"   DiabetesPedigreeFunction="(0.000, 1.5000]"   
   ((   0.5   0.5)   % BMI="(1.000, 26.0000]"   Glucose="(71.0000, 196.9000]"   SkinThickness="(23.000, 24.0000]"   Pregnancies="(15.0000, 16.9000]"   DiabetesPedigreeFunction="(0.000, 1.5000]"   
   (   0.5   0.5)   % BMI="(26.000, 46.8000]"   Glucose="(71.0000, 196.9000]"   SkinThickness="(23.000, 24.0000]"   Pregnancies="(15.0000, 16.9000]"   DiabetesPedigreeFunction="(0.000, 1.5000]"   
   (   0.5   0.5)))   % BMI="(46.0000, 64.8000]"   Glucose="(71.0000, 196.9000]"   SkinThickness="(23.000, 24.0000]"   Pregnancies="(15.0000, 16.9000]"   DiabetesPedigreeFunction="(0.000, 1.5000]"   
   (((   0.5   0.5)   % BMI="(1.000, 26.0000]"   Glucose="(3.000, 71.0000]"   SkinThickness="(24.000, 82.8000]"   Pregnancies="(15.0000, 16.9000]"   DiabetesPedigreeFunction="(0.000, 1.5000]"   
   (   0.5   0.5)   % BMI="(26.000, 46.8000]"   Glucose="(3.000, 71.0000]"   SkinThickness="(24.000, 82.8000]"   Pregnancies="(15.0000, 16.9000]"   DiabetesPedigreeFunction="(0.000, 1.5000]"   
   (   0.5   0.5))   % BMI="(46.0000, 64.8000]"   Glucose="(3.000, 71.0000]"   SkinThickness="(24.000, 82.8000]"   Pregnancies="(15.0000, 16.9000]"   DiabetesPedigreeFunction="(0.000, 1.5000]"   
   ((   0.5   0.5)   % BMI="(1.000, 26.0000]"   Glucose="(71.0000, 196.9000]"   SkinThickness="(24.000, 82.8000]"   Pregnancies="(15.0000, 16.9000]"   DiabetesPedigreeFunction="(0.000, 1.5000]"   
   (   0.5   0.5)   % BMI="(26.000, 46.8000]"   Glucose="(71.0000, 196.9000]"   SkinThickness="(24.000, 82.8000]"   Pregnancies="(15.0000, 16.9000]"   DiabetesPedigreeFunction="(0.000, 1.5000]"   
   (   0.5   0.5)))))   % BMI="(46.0000, 64.8000]"   Glucose="(71.0000, 196.9000]"   SkinThickness="(24.000, 82.8000]"   Pregnancies="(15.0000, 16.9000]"   DiabetesPedigreeFunction="(0.000, 1.5000]"   
   (((((   0.99988   0.000119703)   % BMI="(1.000, 26.0000]"   Glucose="(3.000, 71.0000]"   SkinThickness="(0.000, 23.1000]"   Pregnancies="(0.0000, 15.0000]"   DiabetesPedigreeFunction="(0.0000, 0.2000]"   
   (   0.999733   0.000266951)   % BMI="(26.000, 46.8000]"   Glucose="(3.000, 71.0000]"   SkinThickness="(0.000, 23.1000]"   Pregnancies="(0.0000, 15.0000]"   DiabetesPedigreeFunction="(0.0000, 0.2000]"   
   (   0.250433   0.749567))   % BMI="(46.0000, 64.8000]"   Glucose="(3.000, 71.0000]"   SkinThickness="(0.000, 23.1000]"   Pregnancies="(0.0000, 15.0000]"   DiabetesPedigreeFunction="(0.0000, 0.2000]"   
   ((   0.5   0.5)   % BMI="(1.000, 26.0000]"   Glucose="(71.0000, 196.9000]"   SkinThickness="(0.000, 23.1000]"   Pregnancies="(0.0000, 15.0000]"   DiabetesPedigreeFunction="(0.0000, 0.2000]"   
   (   0.5   0.5)   % BMI="(26.000, 46.8000]"   Glucose="(71.0000, 196.9000]"   SkinThickness="(0.000, 23.1000]"   Pregnancies="(0.0000, 15.0000]"   DiabetesPedigreeFunction="(0.0000, 0.2000]"   
   (   0.5   0.5)))   % BMI="(46.0000, 64.8000]"   Glucose="(71.0000, 196.9000]"   SkinThickness="(0.000, 23.1000]"   Pregnancies="(0.0000, 15.0000]"   DiabetesPedigreeFunction="(0.0000, 0.2000]"   
   (((   0.999855   0.000144634)   % BMI="(1.000, 26.0000]"   Glucose="(3.000, 71.0000]"   SkinThickness="(23.000, 24.0000]"   Pregnancies="(0.0000, 15.0000]"   DiabetesPedigreeFunction="(0.0000, 0.2000]"   
   (   0.5   0.5)   % BMI="(26.000, 46.8000]"   Glucose="(3.000, 71.0000]"   SkinThickness="(23.000, 24.0000]"   Pregnancies="(0.0000, 15.0000]"   DiabetesPedigreeFunction="(0.0000, 0.2000]"   
   (   0.5   0.5))   % BMI="(46.0000, 64.8000]"   Glucose="(3.000, 71.0000]"   SkinThickness="(23.000, 24.0000]"   Pregnancies="(0.0000, 15.0000]"   DiabetesPedigreeFunction="(0.0000, 0.2000]"   
   ((   0.590143   0.409857)   % BMI="(1.000, 26.0000]"   Glucose="(71.0000, 196.9000]"   SkinThickness="(23.000, 24.0000]"   Pregnancies="(0.0000, 15.0000]"   DiabetesPedigreeFunction="(0.0000, 0.2000]"   
   (   0.5   0.5)   % BMI="(26.000, 46.8000]"   Glucose="(71.0000, 196.9000]"   SkinThickness="(23.000, 24.0000]"   Pregnancies="(0.0000, 15.0000]"   DiabetesPedigreeFunction="(0.0000, 0.2000]"   
   (   0.5   0.5)))   % BMI="(46.0000, 64.8000]"   Glucose="(71.0000, 196.9000]"   SkinThickness="(23.000, 24.0000]"   Pregnancies="(0.0000, 15.0000]"   DiabetesPedigreeFunction="(0.0000, 0.2000]"   
   (((   0.999761   0.000239349)   % BMI="(1.000, 26.0000]"   Glucose="(3.000, 71.0000]"   SkinThickness="(24.000, 82.8000]"   Pregnancies="(0.0000, 15.0000]"   DiabetesPedigreeFunction="(0.0000, 0.2000]"   
   (   0.5   0.5)   % BMI="(26.000, 46.8000]"   Glucose="(3.000, 71.0000]"   SkinThickness="(24.000, 82.8000]"   Pregnancies="(0.0000, 15.0000]"   DiabetesPedigreeFunction="(0.0000, 0.2000]"   
   (   0.5   0.5))   % BMI="(46.0000, 64.8000]"   Glucose="(3.000, 71.0000]"   SkinThickness="(24.000, 82.8000]"   Pregnancies="(0.0000, 15.0000]"   DiabetesPedigreeFunction="(0.0000, 0.2000]"   
   ((   0.5   0.5)   % BMI="(1.000, 26.0000]"   Glucose="(71.0000, 196.9000]"   SkinThickness="(24.000, 82.8000]"   Pregnancies="(0.0000, 15.0000]"   DiabetesPedigreeFunction="(0.0000, 0.2000]"   
   (   0.5   0.5)   % BMI="(26.000, 46.8000]"   Glucose="(71.0000, 196.9000]"   SkinThickness="(24.000, 82.8000]"   Pregnancies="(0.0000, 15.0000]"   DiabetesPedigreeFunction="(0.0000, 0.2000]"   
   (   0.5   0.5))))   % BMI="(46.0000, 64.8000]"   Glucose="(71.0000, 196.9000]"   SkinThickness="(24.000, 82.8000]"   Pregnancies="(0.0000, 15.0000]"   DiabetesPedigreeFunction="(0.0000, 0.2000]"   
   ((((   0.5   0.5)   % BMI="(1.000, 26.0000]"   Glucose="(3.000, 71.0000]"   SkinThickness="(0.000, 23.1000]"   Pregnancies="(15.0000, 16.9000]"   DiabetesPedigreeFunction="(0.0000, 0.2000]"   
   (   0.5   0.5)   % BMI="(26.000, 46.8000]"   Glucose="(3.000, 71.0000]"   SkinThickness="(0.000, 23.1000]"   Pregnancies="(15.0000, 16.9000]"   DiabetesPedigreeFunction="(0.0000, 0.2000]"   
   (   0.5   0.5))   % BMI="(46.0000, 64.8000]"   Glucose="(3.000, 71.0000]"   SkinThickness="(0.000, 23.1000]"   Pregnancies="(15.0000, 16.9000]"   DiabetesPedigreeFunction="(0.0000, 0.2000]"   
   ((   0.5   0.5)   % BMI="(1.000, 26.0000]"   Glucose="(71.0000, 196.9000]"   SkinThickness="(0.000, 23.1000]"   Pregnancies="(15.0000, 16.9000]"   DiabetesPedigreeFunction="(0.0000, 0.2000]"   
   (   0.5   0.5)   % BMI="(26.000, 46.8000]"   Glucose="(71.0000, 196.9000]"   SkinThickness="(0.000, 23.1000]"   Pregnancies="(15.0000, 16.9000]"   DiabetesPedigreeFunction="(0.0000, 0.2000]"   
   (   0.5   0.5)))   % BMI="(46.0000, 64.8000]"   Glucose="(71.0000, 196.9000]"   SkinThickness="(0.000, 23.1000]"   Pregnancies="(15.0000, 16.9000]"   DiabetesPedigreeFunction="(0.0000, 0.2000]"   
   (((   0.5   0.5)   % BMI="(1.000, 26.0000]"   Glucose="(3.000, 71.0000]"   SkinThickness="(23.000, 24.0000]"   Pregnancies="(15.0000, 16.9000]"   DiabetesPedigreeFunction="(0.0000, 0.2000]"   
   (   0.5   0.5)   % BMI="(26.000, 46.8000]"   Glucose="(3.000, 71.0000]"   SkinThickness="(23.000, 24.0000]"   Pregnancies="(15.0000, 16.9000]"   DiabetesPedigreeFunction="(0.0000, 0.2000]"   
   (   0.5   0.5))   % BMI="(46.0000, 64.8000]"   Glucose="(3.000, 71.0000]"   SkinThickness="(23.000, 24.0000]"   Pregnancies="(15.0000, 16.9000]"   DiabetesPedigreeFunction="(0.0000, 0.2000]"   
   ((   0.00115473   0.998845)   % BMI="(1.000, 26.0000]"   Glucose="(71.0000, 196.9000]"   SkinThickness="(23.000, 24.0000]"   Pregnancies="(15.0000, 16.9000]"   DiabetesPedigreeFunction="(0.0000, 0.2000]"   
   (   0.5   0.5)   % BMI="(26.000, 46.8000]"   Glucose="(71.0000, 196.9000]"   SkinThickness="(23.000, 24.0000]"   Pregnancies="(15.0000, 16.9000]"   DiabetesPedigreeFunction="(0.0000, 0.2000]"   
   (   0.5   0.5)))   % BMI="(46.0000, 64.8000]"   Glucose="(71.0000, 196.9000]"   SkinThickness="(23.000, 24.0000]"   Pregnancies="(15.0000, 16.9000]"   DiabetesPedigreeFunction="(0.0000, 0.2000]"   
   (((   0.5   0.5)   % BMI="(1.000, 26.0000]"   Glucose="(3.000, 71.0000]"   SkinThickness="(24.000, 82.8000]"   Pregnancies="(15.0000, 16.9000]"   DiabetesPedigreeFunction="(0.0000, 0.2000]"   
   (   0.5   0.5)   % BMI="(26.000, 46.8000]"   Glucose="(3.000, 71.0000]"   SkinThickness="(24.000, 82.8000]"   Pregnancies="(15.0000, 16.9000]"   DiabetesPedigreeFunction="(0.0000, 0.2000]"   
   (   0.5   0.5))   % BMI="(46.0000, 64.8000]"   Glucose="(3.000, 71.0000]"   SkinThickness="(24.000, 82.8000]"   Pregnancies="(15.0000, 16.9000]"   DiabetesPedigreeFunction="(0.0000, 0.2000]"   
   ((   0.5   0.5)   % BMI="(1.000, 26.0000]"   Glucose="(71.0000, 196.9000]"   SkinThickness="(24.000, 82.8000]"   Pregnancies="(15.0000, 16.9000]"   DiabetesPedigreeFunction="(0.0000, 0.2000]"   
   (   0.5   0.5)   % BMI="(26.000, 46.8000]"   Glucose="(71.0000, 196.9000]"   SkinThickness="(24.000, 82.8000]"   Pregnancies="(15.0000, 16.9000]"   DiabetesPedigreeFunction="(0.0000, 0.2000]"   
   (   0.5   0.5))))));   % BMI="(46.0000, 64.8000]"   Glucose="(71.0000, 196.9000]"   SkinThickness="(24.000, 82.8000]"   Pregnancies="(15.0000, 16.9000]"   DiabetesPedigreeFunction="(0.0000, 0.2000]"   
}


