
net {
  name = unnamedBN;
  software = "aGrUM 0.17.0";
  node_size = (50 50);
}

node Pregnancies {
   states = ("(0.0000, 15.0000]" "(15.0000, 16.9000]" );
   label = "Pregnancies";
   ID = "Pregnancies";
}

node Glucose {
   states = ("(3.000, 71.0000]" "(71.0000, 196.9000]" );
   label = "Glucose";
   ID = "Glucose";
}

node BloodPressure {
   states = ("(-0.000, 44.0000]" "(44.000, 72.8000]" );
   label = "BloodPressure";
   ID = "BloodPressure";
}

node SkinThickness {
   states = ("(-0.0000, 16.4000]" "(16.000, 59.0000]" );
   label = "SkinThickness";
   ID = "SkinThickness";
}

node Insulin {
   states = ("(-0.00000, 131.9000]" "(131.00000, 465.8000]" );
   label = "Insulin";
   ID = "Insulin";
}

node BMI {
   states = ("(-0.0000, 28.2000]" "(28.0000, 39.1000]" );
   label = "BMI";
   ID = "BMI";
}

node DiabetesPedigreeFunction {
   states = ("(0.000, 1.5000]" "(0.0000, 0.2000]" );
   label = "DiabetesPedigreeFunction";
   ID = "DiabetesPedigreeFunction";
}

node Age {
   states = ("(22.6899, 31.5000]" "(31.0000, 67.0000]" );
   label = "Age";
   ID = "Age";
}

node Diabetes? {
   states = (No Yes );
   label = "Diabetes?";
   ID = "Diabetes?";
}

potential ( Pregnancies | Glucose   ) {
   data = 
   ((   0.998952   0.00104822)   % Glucose="(3.000, 71.0000]"   
   (   0.907407   0.0925926));   % Glucose="(71.0000, 196.9000]"   
}

potential ( Glucose | Diabetes?   ) {
   data = 
   ((   0.742105   0.257895)   % Diabetes?=No   
   (   0.908759   0.0912409));   % Diabetes?=Yes   
}

potential ( BloodPressure | DiabetesPedigreeFunction   Insulin   Glucose   SkinThickness   Age   ) {
   data = 
   ((((((   0.999619   0.000380807)   % DiabetesPedigreeFunction="(0.000, 1.5000]"   Insulin="(-0.00000, 131.9000]"   Glucose="(3.000, 71.0000]"   SkinThickness="(-0.0000, 16.4000]"   Age="(22.6899, 31.5000]"   
   (   0.846749   0.153251))   % DiabetesPedigreeFunction="(0.0000, 0.2000]"   Insulin="(-0.00000, 131.9000]"   Glucose="(3.000, 71.0000]"   SkinThickness="(-0.0000, 16.4000]"   Age="(22.6899, 31.5000]"   
   ((   0.5   0.5)   % DiabetesPedigreeFunction="(0.000, 1.5000]"   Insulin="(131.00000, 465.8000]"   Glucose="(3.000, 71.0000]"   SkinThickness="(-0.0000, 16.4000]"   Age="(22.6899, 31.5000]"   
   (   0.999443   0.000557414)))   % DiabetesPedigreeFunction="(0.0000, 0.2000]"   Insulin="(131.00000, 465.8000]"   Glucose="(3.000, 71.0000]"   SkinThickness="(-0.0000, 16.4000]"   Age="(22.6899, 31.5000]"   
   (((   0.5   0.5)   % DiabetesPedigreeFunction="(0.000, 1.5000]"   Insulin="(-0.00000, 131.9000]"   Glucose="(71.0000, 196.9000]"   SkinThickness="(-0.0000, 16.4000]"   Age="(22.6899, 31.5000]"   
   (   0.999767   0.0002331))   % DiabetesPedigreeFunction="(0.0000, 0.2000]"   Insulin="(-0.00000, 131.9000]"   Glucose="(71.0000, 196.9000]"   SkinThickness="(-0.0000, 16.4000]"   Age="(22.6899, 31.5000]"   
   ((   0.5   0.5)   % DiabetesPedigreeFunction="(0.000, 1.5000]"   Insulin="(131.00000, 465.8000]"   Glucose="(71.0000, 196.9000]"   SkinThickness="(-0.0000, 16.4000]"   Age="(22.6899, 31.5000]"   
   (   0.5   0.5))))   % DiabetesPedigreeFunction="(0.0000, 0.2000]"   Insulin="(131.00000, 465.8000]"   Glucose="(71.0000, 196.9000]"   SkinThickness="(-0.0000, 16.4000]"   Age="(22.6899, 31.5000]"   
   ((((   0.5   0.5)   % DiabetesPedigreeFunction="(0.000, 1.5000]"   Insulin="(-0.00000, 131.9000]"   Glucose="(3.000, 71.0000]"   SkinThickness="(16.000, 59.0000]"   Age="(22.6899, 31.5000]"   
   (   0.999462   0.000538213))   % DiabetesPedigreeFunction="(0.0000, 0.2000]"   Insulin="(-0.00000, 131.9000]"   Glucose="(3.000, 71.0000]"   SkinThickness="(16.000, 59.0000]"   Age="(22.6899, 31.5000]"   
   ((   0.5   0.5)   % DiabetesPedigreeFunction="(0.000, 1.5000]"   Insulin="(131.00000, 465.8000]"   Glucose="(3.000, 71.0000]"   SkinThickness="(16.000, 59.0000]"   Age="(22.6899, 31.5000]"   
   (   0.5   0.5)))   % DiabetesPedigreeFunction="(0.0000, 0.2000]"   Insulin="(131.00000, 465.8000]"   Glucose="(3.000, 71.0000]"   SkinThickness="(16.000, 59.0000]"   Age="(22.6899, 31.5000]"   
   (((   0.5   0.5)   % DiabetesPedigreeFunction="(0.000, 1.5000]"   Insulin="(-0.00000, 131.9000]"   Glucose="(71.0000, 196.9000]"   SkinThickness="(16.000, 59.0000]"   Age="(22.6899, 31.5000]"   
   (   0.5   0.5))   % DiabetesPedigreeFunction="(0.0000, 0.2000]"   Insulin="(-0.00000, 131.9000]"   Glucose="(71.0000, 196.9000]"   SkinThickness="(16.000, 59.0000]"   Age="(22.6899, 31.5000]"   
   ((   0.5   0.5)   % DiabetesPedigreeFunction="(0.000, 1.5000]"   Insulin="(131.00000, 465.8000]"   Glucose="(71.0000, 196.9000]"   SkinThickness="(16.000, 59.0000]"   Age="(22.6899, 31.5000]"   
   (   0.5   0.5)))))   % DiabetesPedigreeFunction="(0.0000, 0.2000]"   Insulin="(131.00000, 465.8000]"   Glucose="(71.0000, 196.9000]"   SkinThickness="(16.000, 59.0000]"   Age="(22.6899, 31.5000]"   
   (((((   0.999462   0.000538213)   % DiabetesPedigreeFunction="(0.000, 1.5000]"   Insulin="(-0.00000, 131.9000]"   Glucose="(3.000, 71.0000]"   SkinThickness="(-0.0000, 16.4000]"   Age="(31.0000, 67.0000]"   
   (   0.5   0.5))   % DiabetesPedigreeFunction="(0.0000, 0.2000]"   Insulin="(-0.00000, 131.9000]"   Glucose="(3.000, 71.0000]"   SkinThickness="(-0.0000, 16.4000]"   Age="(31.0000, 67.0000]"   
   ((   0.5   0.5)   % DiabetesPedigreeFunction="(0.000, 1.5000]"   Insulin="(131.00000, 465.8000]"   Glucose="(3.000, 71.0000]"   SkinThickness="(-0.0000, 16.4000]"   Age="(31.0000, 67.0000]"   
   (   0.5   0.5)))   % DiabetesPedigreeFunction="(0.0000, 0.2000]"   Insulin="(131.00000, 465.8000]"   Glucose="(3.000, 71.0000]"   SkinThickness="(-0.0000, 16.4000]"   Age="(31.0000, 67.0000]"   
   (((   0.5   0.5)   % DiabetesPedigreeFunction="(0.000, 1.5000]"   Insulin="(-0.00000, 131.9000]"   Glucose="(71.0000, 196.9000]"   SkinThickness="(-0.0000, 16.4000]"   Age="(31.0000, 67.0000]"   
   (   0.5   0.5))   % DiabetesPedigreeFunction="(0.0000, 0.2000]"   Insulin="(-0.00000, 131.9000]"   Glucose="(71.0000, 196.9000]"   SkinThickness="(-0.0000, 16.4000]"   Age="(31.0000, 67.0000]"   
   ((   0.5   0.5)   % DiabetesPedigreeFunction="(0.000, 1.5000]"   Insulin="(131.00000, 465.8000]"   Glucose="(71.0000, 196.9000]"   SkinThickness="(-0.0000, 16.4000]"   Age="(31.0000, 67.0000]"   
   (   0.5   0.5))))   % DiabetesPedigreeFunction="(0.0000, 0.2000]"   Insulin="(131.00000, 465.8000]"   Glucose="(71.0000, 196.9000]"   SkinThickness="(-0.0000, 16.4000]"   Age="(31.0000, 67.0000]"   
   ((((   0.5   0.5)   % DiabetesPedigreeFunction="(0.000, 1.5000]"   Insulin="(-0.00000, 131.9000]"   Glucose="(3.000, 71.0000]"   SkinThickness="(16.000, 59.0000]"   Age="(31.0000, 67.0000]"   
   (   0.5   0.5))   % DiabetesPedigreeFunction="(0.0000, 0.2000]"   Insulin="(-0.00000, 131.9000]"   Glucose="(3.000, 71.0000]"   SkinThickness="(16.000, 59.0000]"   Age="(31.0000, 67.0000]"   
   ((   0.5   0.5)   % DiabetesPedigreeFunction="(0.000, 1.5000]"   Insulin="(131.00000, 465.8000]"   Glucose="(3.000, 71.0000]"   SkinThickness="(16.000, 59.0000]"   Age="(31.0000, 67.0000]"   
   (   0.5   0.5)))   % DiabetesPedigreeFunction="(0.0000, 0.2000]"   Insulin="(131.00000, 465.8000]"   Glucose="(3.000, 71.0000]"   SkinThickness="(16.000, 59.0000]"   Age="(31.0000, 67.0000]"   
   (((   0.5   0.5)   % DiabetesPedigreeFunction="(0.000, 1.5000]"   Insulin="(-0.00000, 131.9000]"   Glucose="(71.0000, 196.9000]"   SkinThickness="(16.000, 59.0000]"   Age="(31.0000, 67.0000]"   
   (   0.5   0.5))   % DiabetesPedigreeFunction="(0.0000, 0.2000]"   Insulin="(-0.00000, 131.9000]"   Glucose="(71.0000, 196.9000]"   SkinThickness="(16.000, 59.0000]"   Age="(31.0000, 67.0000]"   
   ((   0.5   0.5)   % DiabetesPedigreeFunction="(0.000, 1.5000]"   Insulin="(131.00000, 465.8000]"   Glucose="(71.0000, 196.9000]"   SkinThickness="(16.000, 59.0000]"   Age="(31.0000, 67.0000]"   
   (   0.5   0.5))))));   % DiabetesPedigreeFunction="(0.0000, 0.2000]"   Insulin="(131.00000, 465.8000]"   Glucose="(71.0000, 196.9000]"   SkinThickness="(16.000, 59.0000]"   Age="(31.0000, 67.0000]"   
}

potential ( SkinThickness | Glucose   DiabetesPedigreeFunction   Insulin   ) {
   data = 
   ((((   0.999109   0.000891266)   % Glucose="(3.000, 71.0000]"   DiabetesPedigreeFunction="(0.000, 1.5000]"   Insulin="(-0.00000, 131.9000]"   
   (   0.5   0.5))   % Glucose="(71.0000, 196.9000]"   DiabetesPedigreeFunction="(0.000, 1.5000]"   Insulin="(-0.00000, 131.9000]"   
   ((   0.792596   0.207404)   % Glucose="(3.000, 71.0000]"   DiabetesPedigreeFunction="(0.0000, 0.2000]"   Insulin="(-0.00000, 131.9000]"   
   (   0.999069   0.000931099)))   % Glucose="(71.0000, 196.9000]"   DiabetesPedigreeFunction="(0.0000, 0.2000]"   Insulin="(-0.00000, 131.9000]"   
   (((   0.5   0.5)   % Glucose="(3.000, 71.0000]"   DiabetesPedigreeFunction="(0.000, 1.5000]"   Insulin="(131.00000, 465.8000]"   
   (   0.5   0.5))   % Glucose="(71.0000, 196.9000]"   DiabetesPedigreeFunction="(0.000, 1.5000]"   Insulin="(131.00000, 465.8000]"   
   ((   0.997778   0.00222222)   % Glucose="(3.000, 71.0000]"   DiabetesPedigreeFunction="(0.0000, 0.2000]"   Insulin="(131.00000, 465.8000]"   
   (   0.5   0.5))));   % Glucose="(71.0000, 196.9000]"   DiabetesPedigreeFunction="(0.0000, 0.2000]"   Insulin="(131.00000, 465.8000]"   
}

potential ( Insulin | Glucose   DiabetesPedigreeFunction   ) {
   data = 
   (((   0.998221   0.00177936)   % Glucose="(3.000, 71.0000]"   DiabetesPedigreeFunction="(0.000, 1.5000]"   
   (   0.5   0.5))   % Glucose="(71.0000, 196.9000]"   DiabetesPedigreeFunction="(0.000, 1.5000]"   
   ((   0.832838   0.167162)   % Glucose="(3.000, 71.0000]"   DiabetesPedigreeFunction="(0.0000, 0.2000]"   
   (   0.998141   0.00185874)));   % Glucose="(71.0000, 196.9000]"   DiabetesPedigreeFunction="(0.0000, 0.2000]"   
}

potential ( BMI | DiabetesPedigreeFunction   Insulin   BloodPressure   Glucose   SkinThickness   ) {
   data = 
   ((((((   0.999777   0.000223115)   % DiabetesPedigreeFunction="(0.000, 1.5000]"   Insulin="(-0.00000, 131.9000]"   BloodPressure="(-0.000, 44.0000]"   Glucose="(3.000, 71.0000]"   SkinThickness="(-0.0000, 16.4000]"   
   (   0.914756   0.0852443))   % DiabetesPedigreeFunction="(0.0000, 0.2000]"   Insulin="(-0.00000, 131.9000]"   BloodPressure="(-0.000, 44.0000]"   Glucose="(3.000, 71.0000]"   SkinThickness="(-0.0000, 16.4000]"   
   ((   0.5   0.5)   % DiabetesPedigreeFunction="(0.000, 1.5000]"   Insulin="(131.00000, 465.8000]"   BloodPressure="(-0.000, 44.0000]"   Glucose="(3.000, 71.0000]"   SkinThickness="(-0.0000, 16.4000]"   
   (   0.999443   0.000557414)))   % DiabetesPedigreeFunction="(0.0000, 0.2000]"   Insulin="(131.00000, 465.8000]"   BloodPressure="(-0.000, 44.0000]"   Glucose="(3.000, 71.0000]"   SkinThickness="(-0.0000, 16.4000]"   
   (((   0.5   0.5)   % DiabetesPedigreeFunction="(0.000, 1.5000]"   Insulin="(-0.00000, 131.9000]"   BloodPressure="(44.000, 72.8000]"   Glucose="(3.000, 71.0000]"   SkinThickness="(-0.0000, 16.4000]"   
   (   0.999083   0.000917431))   % DiabetesPedigreeFunction="(0.0000, 0.2000]"   Insulin="(-0.00000, 131.9000]"   BloodPressure="(44.000, 72.8000]"   Glucose="(3.000, 71.0000]"   SkinThickness="(-0.0000, 16.4000]"   
   ((   0.5   0.5)   % DiabetesPedigreeFunction="(0.000, 1.5000]"   Insulin="(131.00000, 465.8000]"   BloodPressure="(44.000, 72.8000]"   Glucose="(3.000, 71.0000]"   SkinThickness="(-0.0000, 16.4000]"   
   (   0.5   0.5))))   % DiabetesPedigreeFunction="(0.0000, 0.2000]"   Insulin="(131.00000, 465.8000]"   BloodPressure="(44.000, 72.8000]"   Glucose="(3.000, 71.0000]"   SkinThickness="(-0.0000, 16.4000]"   
   ((((   0.5   0.5)   % DiabetesPedigreeFunction="(0.000, 1.5000]"   Insulin="(-0.00000, 131.9000]"   BloodPressure="(-0.000, 44.0000]"   Glucose="(71.0000, 196.9000]"   SkinThickness="(-0.0000, 16.4000]"   
   (   0.999767   0.0002331))   % DiabetesPedigreeFunction="(0.0000, 0.2000]"   Insulin="(-0.00000, 131.9000]"   BloodPressure="(-0.000, 44.0000]"   Glucose="(71.0000, 196.9000]"   SkinThickness="(-0.0000, 16.4000]"   
   ((   0.5   0.5)   % DiabetesPedigreeFunction="(0.000, 1.5000]"   Insulin="(131.00000, 465.8000]"   BloodPressure="(-0.000, 44.0000]"   Glucose="(71.0000, 196.9000]"   SkinThickness="(-0.0000, 16.4000]"   
   (   0.5   0.5)))   % DiabetesPedigreeFunction="(0.0000, 0.2000]"   Insulin="(131.00000, 465.8000]"   BloodPressure="(-0.000, 44.0000]"   Glucose="(71.0000, 196.9000]"   SkinThickness="(-0.0000, 16.4000]"   
   (((   0.5   0.5)   % DiabetesPedigreeFunction="(0.000, 1.5000]"   Insulin="(-0.00000, 131.9000]"   BloodPressure="(44.000, 72.8000]"   Glucose="(71.0000, 196.9000]"   SkinThickness="(-0.0000, 16.4000]"   
   (   0.5   0.5))   % DiabetesPedigreeFunction="(0.0000, 0.2000]"   Insulin="(-0.00000, 131.9000]"   BloodPressure="(44.000, 72.8000]"   Glucose="(71.0000, 196.9000]"   SkinThickness="(-0.0000, 16.4000]"   
   ((   0.5   0.5)   % DiabetesPedigreeFunction="(0.000, 1.5000]"   Insulin="(131.00000, 465.8000]"   BloodPressure="(44.000, 72.8000]"   Glucose="(71.0000, 196.9000]"   SkinThickness="(-0.0000, 16.4000]"   
   (   0.5   0.5)))))   % DiabetesPedigreeFunction="(0.0000, 0.2000]"   Insulin="(131.00000, 465.8000]"   BloodPressure="(44.000, 72.8000]"   Glucose="(71.0000, 196.9000]"   SkinThickness="(-0.0000, 16.4000]"   
   (((((   0.5   0.5)   % DiabetesPedigreeFunction="(0.000, 1.5000]"   Insulin="(-0.00000, 131.9000]"   BloodPressure="(-0.000, 44.0000]"   Glucose="(3.000, 71.0000]"   SkinThickness="(16.000, 59.0000]"   
   (   0.999462   0.000538213))   % DiabetesPedigreeFunction="(0.0000, 0.2000]"   Insulin="(-0.00000, 131.9000]"   BloodPressure="(-0.000, 44.0000]"   Glucose="(3.000, 71.0000]"   SkinThickness="(16.000, 59.0000]"   
   ((   0.5   0.5)   % DiabetesPedigreeFunction="(0.000, 1.5000]"   Insulin="(131.00000, 465.8000]"   BloodPressure="(-0.000, 44.0000]"   Glucose="(3.000, 71.0000]"   SkinThickness="(16.000, 59.0000]"   
   (   0.5   0.5)))   % DiabetesPedigreeFunction="(0.0000, 0.2000]"   Insulin="(131.00000, 465.8000]"   BloodPressure="(-0.000, 44.0000]"   Glucose="(3.000, 71.0000]"   SkinThickness="(16.000, 59.0000]"   
   (((   0.5   0.5)   % DiabetesPedigreeFunction="(0.000, 1.5000]"   Insulin="(-0.00000, 131.9000]"   BloodPressure="(44.000, 72.8000]"   Glucose="(3.000, 71.0000]"   SkinThickness="(16.000, 59.0000]"   
   (   0.5   0.5))   % DiabetesPedigreeFunction="(0.0000, 0.2000]"   Insulin="(-0.00000, 131.9000]"   BloodPressure="(44.000, 72.8000]"   Glucose="(3.000, 71.0000]"   SkinThickness="(16.000, 59.0000]"   
   ((   0.5   0.5)   % DiabetesPedigreeFunction="(0.000, 1.5000]"   Insulin="(131.00000, 465.8000]"   BloodPressure="(44.000, 72.8000]"   Glucose="(3.000, 71.0000]"   SkinThickness="(16.000, 59.0000]"   
   (   0.5   0.5))))   % DiabetesPedigreeFunction="(0.0000, 0.2000]"   Insulin="(131.00000, 465.8000]"   BloodPressure="(44.000, 72.8000]"   Glucose="(3.000, 71.0000]"   SkinThickness="(16.000, 59.0000]"   
   ((((   0.5   0.5)   % DiabetesPedigreeFunction="(0.000, 1.5000]"   Insulin="(-0.00000, 131.9000]"   BloodPressure="(-0.000, 44.0000]"   Glucose="(71.0000, 196.9000]"   SkinThickness="(16.000, 59.0000]"   
   (   0.5   0.5))   % DiabetesPedigreeFunction="(0.0000, 0.2000]"   Insulin="(-0.00000, 131.9000]"   BloodPressure="(-0.000, 44.0000]"   Glucose="(71.0000, 196.9000]"   SkinThickness="(16.000, 59.0000]"   
   ((   0.5   0.5)   % DiabetesPedigreeFunction="(0.000, 1.5000]"   Insulin="(131.00000, 465.8000]"   BloodPressure="(-0.000, 44.0000]"   Glucose="(71.0000, 196.9000]"   SkinThickness="(16.000, 59.0000]"   
   (   0.5   0.5)))   % DiabetesPedigreeFunction="(0.0000, 0.2000]"   Insulin="(131.00000, 465.8000]"   BloodPressure="(-0.000, 44.0000]"   Glucose="(71.0000, 196.9000]"   SkinThickness="(16.000, 59.0000]"   
   (((   0.5   0.5)   % DiabetesPedigreeFunction="(0.000, 1.5000]"   Insulin="(-0.00000, 131.9000]"   BloodPressure="(44.000, 72.8000]"   Glucose="(71.0000, 196.9000]"   SkinThickness="(16.000, 59.0000]"   
   (   0.5   0.5))   % DiabetesPedigreeFunction="(0.0000, 0.2000]"   Insulin="(-0.00000, 131.9000]"   BloodPressure="(44.000, 72.8000]"   Glucose="(71.0000, 196.9000]"   SkinThickness="(16.000, 59.0000]"   
   ((   0.5   0.5)   % DiabetesPedigreeFunction="(0.000, 1.5000]"   Insulin="(131.00000, 465.8000]"   BloodPressure="(44.000, 72.8000]"   Glucose="(71.0000, 196.9000]"   SkinThickness="(16.000, 59.0000]"   
   (   0.5   0.5))))));   % DiabetesPedigreeFunction="(0.0000, 0.2000]"   Insulin="(131.00000, 465.8000]"   BloodPressure="(44.000, 72.8000]"   Glucose="(71.0000, 196.9000]"   SkinThickness="(16.000, 59.0000]"   
}

potential ( DiabetesPedigreeFunction | Diabetes?   Glucose   ) {
   data = 
   (((   0.0460993   0.953901)   % Diabetes?=No   Glucose="(3.000, 71.0000]"   
   (   0.997992   0.00200803))   % Diabetes?=Yes   Glucose="(3.000, 71.0000]"   
   ((   0.00204082   0.997959)   % Diabetes?=No   Glucose="(71.0000, 196.9000]"   
   (   0.02   0.98)));   % Diabetes?=Yes   Glucose="(71.0000, 196.9000]"   
}

potential ( Age | DiabetesPedigreeFunction   Diabetes?   ) {
   data = 
   (((   0.984848   0.0151515)   % DiabetesPedigreeFunction="(0.000, 1.5000]"   Diabetes?=No   
   (   0.999455   0.000545256))   % DiabetesPedigreeFunction="(0.0000, 0.2000]"   Diabetes?=No   
   ((   0.532129   0.467871)   % DiabetesPedigreeFunction="(0.000, 1.5000]"   Diabetes?=Yes   
   (   0.98   0.02)));   % DiabetesPedigreeFunction="(0.0000, 0.2000]"   Diabetes?=Yes   
}

potential (Diabetes?) {
   data = (  0.776144 0.223856);
}


