
net {
  name = unnamedBN;
  software = "aGrUM 0.17.0";
  node_size = (50 50);
}

node Pregnancies {
   states = ("(0.0000, 12.5000]" "(12.0000, 14.1000]" );
   label = "Pregnancies";
   ID = "Pregnancies";
}

node Glucose {
   states = ("(17.0000, 80.7000]" "(80.00000, 197.0000]" );
   label = "Glucose";
   ID = "Glucose";
}

node BloodPressure {
   states = ("(1.00, 72.0000]" "(72.000, 73.6000]" "(73.00000, 121.4000]" );
   label = "BloodPressure";
   ID = "BloodPressure";
}

node SkinThickness {
   states = ("(-0.0000, 16.4000]" "(16.000, 59.0000]" );
   label = "SkinThickness";
   ID = "SkinThickness";
}

node Insulin {
   states = ("(-0.00000, 131.9000]" "(131.00000, 465.8000]" );
   label = "Insulin";
   ID = "Insulin";
}

node BMI {
   states = ("(1.000, 23.0000]" "(23.000, 44.9000]" "(44.0000, 62.2000]" );
   label = "BMI";
   ID = "BMI";
}

node DiabetesPedigreeFunction {
   states = ("(0.000, 1.5000]" "(0.0000, 0.2000]" );
   label = "DiabetesPedigreeFunction";
   ID = "DiabetesPedigreeFunction";
}

node Age {
   states = ("(32.000, 66.8000]" "(66.0000, 80.3000]" );
   label = "Age";
   ID = "Age";
}

node Diabetes? {
   states = (No Yes );
   label = "Diabetes?";
   ID = "Diabetes?";
}

potential ( Pregnancies | Glucose   Diabetes?   ) {
   data = 
   (((   0.997608   0.00239234)   % Glucose="(17.0000, 80.7000]"   Diabetes?=No   
   (   0.992754   0.00724638))   % Glucose="(80.00000, 197.0000]"   Diabetes?=No   
   ((   0.999329   0.000671141)   % Glucose="(17.0000, 80.7000]"   Diabetes?=Yes   
   (   0.878109   0.121891)));   % Glucose="(80.00000, 197.0000]"   Diabetes?=Yes   
}

potential ( Glucose | BloodPressure   Diabetes?   ) {
   data = 
   (((   0.58502   0.41498)   % BloodPressure="(1.00, 72.0000]"   Diabetes?=No   
   (   0.995652   0.00434783)   % BloodPressure="(72.000, 73.6000]"   Diabetes?=No   
   (   0.990909   0.00909091))   % BloodPressure="(73.00000, 121.4000]"   Diabetes?=No   
   ((   0.108309   0.891691)   % BloodPressure="(1.00, 72.0000]"   Diabetes?=Yes   
   (   0.999516   0.000484027)   % BloodPressure="(72.000, 73.6000]"   Diabetes?=Yes   
   (   0.989796   0.0102041)));   % BloodPressure="(73.00000, 121.4000]"   Diabetes?=Yes   
}

potential (BloodPressure) {
   data = (  0.318083 0.625272 0.0566449);
}

potential ( SkinThickness | BMI   BloodPressure   Insulin   ) {
   data = 
   ((((   0.999714   0.000286205)   % BMI="(1.000, 23.0000]"   BloodPressure="(1.00, 72.0000]"   Insulin="(-0.00000, 131.9000]"   
   (   0.5   0.5)   % BMI="(23.000, 44.9000]"   BloodPressure="(1.00, 72.0000]"   Insulin="(-0.00000, 131.9000]"   
   (   0.5   0.5))   % BMI="(44.0000, 62.2000]"   BloodPressure="(1.00, 72.0000]"   Insulin="(-0.00000, 131.9000]"   
   ((   0.508467   0.491533)   % BMI="(1.000, 23.0000]"   BloodPressure="(72.000, 73.6000]"   Insulin="(-0.00000, 131.9000]"   
   (   0.999711   0.000289184)   % BMI="(23.000, 44.9000]"   BloodPressure="(72.000, 73.6000]"   Insulin="(-0.00000, 131.9000]"   
   (   0.996552   0.00344828))   % BMI="(44.0000, 62.2000]"   BloodPressure="(72.000, 73.6000]"   Insulin="(-0.00000, 131.9000]"   
   ((   0.998371   0.00162866)   % BMI="(1.000, 23.0000]"   BloodPressure="(73.00000, 121.4000]"   Insulin="(-0.00000, 131.9000]"   
   (   0.5   0.5)   % BMI="(23.000, 44.9000]"   BloodPressure="(73.00000, 121.4000]"   Insulin="(-0.00000, 131.9000]"   
   (   0.5   0.5)))   % BMI="(44.0000, 62.2000]"   BloodPressure="(73.00000, 121.4000]"   Insulin="(-0.00000, 131.9000]"   
   (((   0.5   0.5)   % BMI="(1.000, 23.0000]"   BloodPressure="(1.00, 72.0000]"   Insulin="(131.00000, 465.8000]"   
   (   0.5   0.5)   % BMI="(23.000, 44.9000]"   BloodPressure="(1.00, 72.0000]"   Insulin="(131.00000, 465.8000]"   
   (   0.5   0.5))   % BMI="(44.0000, 62.2000]"   BloodPressure="(1.00, 72.0000]"   Insulin="(131.00000, 465.8000]"   
   ((   0.99901   0.000990099)   % BMI="(1.000, 23.0000]"   BloodPressure="(72.000, 73.6000]"   Insulin="(131.00000, 465.8000]"   
   (   0.5   0.5)   % BMI="(23.000, 44.9000]"   BloodPressure="(72.000, 73.6000]"   Insulin="(131.00000, 465.8000]"   
   (   0.5   0.5))   % BMI="(44.0000, 62.2000]"   BloodPressure="(72.000, 73.6000]"   Insulin="(131.00000, 465.8000]"   
   ((   0.5   0.5)   % BMI="(1.000, 23.0000]"   BloodPressure="(73.00000, 121.4000]"   Insulin="(131.00000, 465.8000]"   
   (   0.5   0.5)   % BMI="(23.000, 44.9000]"   BloodPressure="(73.00000, 121.4000]"   Insulin="(131.00000, 465.8000]"   
   (   0.5   0.5))));   % BMI="(44.0000, 62.2000]"   BloodPressure="(73.00000, 121.4000]"   Insulin="(131.00000, 465.8000]"   
}

potential ( Insulin | BMI   BloodPressure   ) {
   data = 
   (((   0.999428   0.000572082)   % BMI="(1.000, 23.0000]"   BloodPressure="(1.00, 72.0000]"   
   (   0.5   0.5)   % BMI="(23.000, 44.9000]"   BloodPressure="(1.00, 72.0000]"   
   (   0.5   0.5))   % BMI="(44.0000, 62.2000]"   BloodPressure="(1.00, 72.0000]"   
   ((   0.677934   0.322066)   % BMI="(1.000, 23.0000]"   BloodPressure="(72.000, 73.6000]"   
   (   0.999422   0.000578035)   % BMI="(23.000, 44.9000]"   BloodPressure="(72.000, 73.6000]"   
   (   0.993151   0.00684932))   % BMI="(44.0000, 62.2000]"   BloodPressure="(72.000, 73.6000]"   
   ((   0.996753   0.00324675)   % BMI="(1.000, 23.0000]"   BloodPressure="(73.00000, 121.4000]"   
   (   0.5   0.5)   % BMI="(23.000, 44.9000]"   BloodPressure="(73.00000, 121.4000]"   
   (   0.5   0.5)));   % BMI="(44.0000, 62.2000]"   BloodPressure="(73.00000, 121.4000]"   
}

potential ( BMI | BloodPressure   DiabetesPedigreeFunction   ) {
   data = 
   (((   0.333333   0.333333   0.333333)   % BloodPressure="(1.00, 72.0000]"   DiabetesPedigreeFunction="(0.000, 1.5000]"   
   (   0.000791766   0.998416   0.000791766)   % BloodPressure="(72.000, 73.6000]"   DiabetesPedigreeFunction="(0.000, 1.5000]"   
   (   0.333333   0.333333   0.333333))   % BloodPressure="(73.00000, 121.4000]"   DiabetesPedigreeFunction="(0.000, 1.5000]"   
   ((   0.998856   0.000571755   0.000571755)   % BloodPressure="(1.00, 72.0000]"   DiabetesPedigreeFunction="(0.0000, 0.2000]"   
   (   0.718478   0.215039   0.0664833)   % BloodPressure="(72.000, 73.6000]"   DiabetesPedigreeFunction="(0.0000, 0.2000]"   
   (   0.993528   0.00323625   0.00323625)));   % BloodPressure="(73.00000, 121.4000]"   DiabetesPedigreeFunction="(0.0000, 0.2000]"   
}

potential ( DiabetesPedigreeFunction | BloodPressure   ) {
   data = 
   ((   0.00171233   0.998288)   % BloodPressure="(1.00, 72.0000]"   
   (   0.366725   0.633275)   % BloodPressure="(72.000, 73.6000]"   
   (   0.00961538   0.990385));   % BloodPressure="(73.00000, 121.4000]"   
}

potential ( Age | DiabetesPedigreeFunction   ) {
   data = 
   ((   0.897163   0.102837)   % DiabetesPedigreeFunction="(0.000, 1.5000]"   
   (   0.998938   0.00106157));   % DiabetesPedigreeFunction="(0.0000, 0.2000]"   
}

potential ( Diabetes? | SkinThickness   BMI   ) {
   data = 
   (((   0.401258   0.598742)   % SkinThickness="(-0.0000, 16.4000]"   BMI="(1.000, 23.0000]"   
   (   0.00285714   0.997143))   % SkinThickness="(16.000, 59.0000]"   BMI="(1.000, 23.0000]"   
   ((   0.000866551   0.999133)   % SkinThickness="(-0.0000, 16.4000]"   BMI="(23.000, 44.9000]"   
   (   0.5   0.5))   % SkinThickness="(16.000, 59.0000]"   BMI="(23.000, 44.9000]"   
   ((   0.0102041   0.989796)   % SkinThickness="(-0.0000, 16.4000]"   BMI="(44.0000, 62.2000]"   
   (   0.5   0.5)));   % SkinThickness="(16.000, 59.0000]"   BMI="(44.0000, 62.2000]"   
}


