
net {
  name = unnamedBN;
  software = "aGrUM 0.17.0";
  node_size = (50 50);
}

node Pregnancies {
   states = ("(-0.000, 9.0000]" "(9.0000, 10.1000]" );
   label = "Pregnancies";
   ID = "Pregnancies";
}

node Glucose {
   states = ("(3.000, 71.0000]" "(71.0000, 196.9000]" );
   label = "Glucose";
   ID = "Glucose";
}

node BloodPressure {
   states = ("(1.00, 62.0000]" "(62.000, 73.6000]" "(73.00000, 121.4000]" );
   label = "BloodPressure";
   ID = "BloodPressure";
}

node SkinThickness {
   states = ("(0.0000, 24.7000]" "(24.000, 30.0000]" "(30.00, 88.0000]" );
   label = "SkinThickness";
   ID = "SkinThickness";
}

node Insulin {
   states = ("(151.00000, 533.8000]" "(2.6100, 74.0000]" "(74.00000, 151.1000]" );
   label = "Insulin";
   ID = "Insulin";
}

node BMI {
   states = ("(1.000, 36.0000]" "(36.000, 47.1000]" "(47.000, 65.0000]" );
   label = "BMI";
   ID = "BMI";
}

node DiabetesPedigreeFunction {
   states = ("(0.000, 1.9000]" "(0.0860, 0.7000]" );
   label = "DiabetesPedigreeFunction";
   ID = "DiabetesPedigreeFunction";
}

node Age {
   states = ("(22.4799, 25.0000]" "(25.000, 61.2000]" );
   label = "Age";
   ID = "Age";
}

node Diabetes? {
   states = (No Yes );
   label = "Diabetes?";
   ID = "Diabetes?";
}

potential ( Pregnancies | Glucose   Diabetes?   ) {
   data = 
   (((   0.999287   0.000713267)   % Glucose="(3.000, 71.0000]"   Diabetes?=No   
   (   0.994118   0.00588235))   % Glucose="(71.0000, 196.9000]"   Diabetes?=No   
   ((   0.998024   0.00197628)   % Glucose="(3.000, 71.0000]"   Diabetes?=Yes   
   (   0.867568   0.132432)));   % Glucose="(71.0000, 196.9000]"   Diabetes?=Yes   
}

potential ( Glucose | BloodPressure   ) {
   data = 
   ((   0.295455   0.704545)   % BloodPressure="(1.00, 62.0000]"   
   (   0.999138   0.000862069)   % BloodPressure="(62.000, 73.6000]"   
   (   0.990385   0.00961538));   % BloodPressure="(73.00000, 121.4000]"   
}

potential ( BloodPressure | SkinThickness   ) {
   data = 
   ((   0.000688705   0.998623   0.000688705)   % SkinThickness="(0.0000, 24.7000]"   
   (   0.810606   0.0435606   0.145833)   % SkinThickness="(24.000, 30.0000]"   
   (   0.00406504   0.99187   0.00406504));   % SkinThickness="(30.00, 88.0000]"   
}

potential (SkinThickness) {
   data = (  0.527233 0.383442 0.0893246);
}

potential ( Insulin | SkinThickness   ) {
   data = 
   ((   0.174242   0.0750689   0.750689)   % SkinThickness="(0.0000, 24.7000]"   
   (   0.00094697   0.998106   0.00094697)   % SkinThickness="(24.000, 30.0000]"   
   (   0.00406504   0.99187   0.00406504));   % SkinThickness="(30.00, 88.0000]"   
}

potential ( BMI | Insulin   ) {
   data = 
   ((   0.992157   0.00392157   0.00392157)   % Insulin="(151.00000, 533.8000]"   
   (   0.998579   0.000710732   0.000710732)   % Insulin="(2.6100, 74.0000]"   
   (   0.239927   0.693223   0.0668498));   % Insulin="(74.00000, 151.1000]"   
}

potential ( DiabetesPedigreeFunction | BMI   ) {
   data = 
   ((   0.00078125   0.999219)   % BMI="(1.000, 36.0000]"   
   (   0.796443   0.203557)   % BMI="(36.000, 47.1000]"   
   (   0.02   0.98));   % BMI="(47.000, 65.0000]"   
}

potential ( Age | Diabetes?   DiabetesPedigreeFunction   ) {
   data = 
   (((   0.98   0.02)   % Diabetes?=No   DiabetesPedigreeFunction="(0.000, 1.9000]"   
   (   0.442857   0.557143))   % Diabetes?=Yes   DiabetesPedigreeFunction="(0.000, 1.9000]"   
   ((   0.999343   0.00065703)   % Diabetes?=No   DiabetesPedigreeFunction="(0.0860, 0.7000]"   
   (   0.997409   0.00259067)));   % Diabetes?=Yes   DiabetesPedigreeFunction="(0.0860, 0.7000]"   
}

potential ( Diabetes? | Glucose   BMI   DiabetesPedigreeFunction   ) {
   data = 
   ((((   0.5   0.5)   % Glucose="(3.000, 71.0000]"   BMI="(1.000, 36.0000]"   DiabetesPedigreeFunction="(0.000, 1.9000]"   
   (   0.5   0.5))   % Glucose="(71.0000, 196.9000]"   BMI="(1.000, 36.0000]"   DiabetesPedigreeFunction="(0.000, 1.9000]"   
   ((   0.0900621   0.909938)   % Glucose="(3.000, 71.0000]"   BMI="(36.000, 47.1000]"   DiabetesPedigreeFunction="(0.000, 1.9000]"   
   (   0.5   0.5))   % Glucose="(71.0000, 196.9000]"   BMI="(36.000, 47.1000]"   DiabetesPedigreeFunction="(0.000, 1.9000]"   
   ((   0.5   0.5)   % Glucose="(3.000, 71.0000]"   BMI="(47.000, 65.0000]"   DiabetesPedigreeFunction="(0.000, 1.9000]"   
   (   0.5   0.5)))   % Glucose="(71.0000, 196.9000]"   BMI="(47.000, 65.0000]"   DiabetesPedigreeFunction="(0.000, 1.9000]"   
   (((   0.999715   0.000285225)   % Glucose="(3.000, 71.0000]"   BMI="(1.000, 36.0000]"   DiabetesPedigreeFunction="(0.0860, 0.7000]"   
   (   0.313665   0.686335))   % Glucose="(71.0000, 196.9000]"   BMI="(1.000, 36.0000]"   DiabetesPedigreeFunction="(0.0860, 0.7000]"   
   ((   0.997561   0.00243902)   % Glucose="(3.000, 71.0000]"   BMI="(36.000, 47.1000]"   DiabetesPedigreeFunction="(0.0860, 0.7000]"   
   (   0.5   0.5))   % Glucose="(71.0000, 196.9000]"   BMI="(36.000, 47.1000]"   DiabetesPedigreeFunction="(0.0860, 0.7000]"   
   ((   0.747423   0.252577)   % Glucose="(3.000, 71.0000]"   BMI="(47.000, 65.0000]"   DiabetesPedigreeFunction="(0.0860, 0.7000]"   
   (   0.5   0.5))));   % Glucose="(71.0000, 196.9000]"   BMI="(47.000, 65.0000]"   DiabetesPedigreeFunction="(0.0860, 0.7000]"   
}


