
net {
  name = unnamedBN;
  software = "aGrUM 0.17.0";
  node_size = (50 50);
}

node Pregnancies {
   states = ("(0.0000, 15.1000]" "(15.0000, 16.9000]" );
   label = "Pregnancies";
   ID = "Pregnancies";
}

node Glucose {
   states = ("(18.0000, 81.4000]" "(81.00000, 197.0000]" );
   label = "Glucose";
   ID = "Glucose";
}

node BloodPressure {
   states = ("(-0.000, 44.0000]" "(44.000, 72.8000]" );
   label = "BloodPressure";
   ID = "BloodPressure";
}

node SkinThickness {
   states = ("(-0.0000, 16.4000]" "(16.000, 59.0000]" );
   label = "SkinThickness";
   ID = "SkinThickness";
}

node Insulin {
   states = ("(-0.00000, 131.9000]" "(131.00000, 465.8000]" );
   label = "Insulin";
   ID = "Insulin";
}

node BMI {
   states = ("(13.000, 50.0000]" "(50.00, 52.0000]" "(52.000, 65.5000]" );
   label = "BMI";
   ID = "BMI";
}

node DiabetesPedigreeFunction {
   states = ("(0.000, 1.8000]" "(0.0000, 0.5000]" );
   label = "DiabetesPedigreeFunction";
   ID = "DiabetesPedigreeFunction";
}

node Age {
   states = ("(23.1199, 43.3000]" "(43.0000, 78.6000]" );
   label = "Age";
   ID = "Age";
}

node Diabetes? {
   states = (No Yes );
   label = "Diabetes?";
   ID = "Diabetes?";
}

potential ( Pregnancies | Glucose   ) {
   data = 
   ((   0.998952   0.00104822)   % Glucose="(18.0000, 81.4000]"   
   (   0.907407   0.0925926));   % Glucose="(81.00000, 197.0000]"   
}

potential ( Glucose | Insulin   BMI   SkinThickness   ) {
   data = 
   ((((   0.999607   0.000392773)   % Insulin="(-0.00000, 131.9000]"   BMI="(13.000, 50.0000]"   SkinThickness="(-0.0000, 16.4000]"   
   (   0.5   0.5))   % Insulin="(131.00000, 465.8000]"   BMI="(13.000, 50.0000]"   SkinThickness="(-0.0000, 16.4000]"   
   ((   0.507348   0.492652)   % Insulin="(-0.00000, 131.9000]"   BMI="(50.00, 52.0000]"   SkinThickness="(-0.0000, 16.4000]"   
   (   0.998516   0.00148368))   % Insulin="(131.00000, 465.8000]"   BMI="(50.00, 52.0000]"   SkinThickness="(-0.0000, 16.4000]"   
   ((   0.993151   0.00684932)   % Insulin="(-0.00000, 131.9000]"   BMI="(52.000, 65.5000]"   SkinThickness="(-0.0000, 16.4000]"   
   (   0.5   0.5)))   % Insulin="(131.00000, 465.8000]"   BMI="(52.000, 65.5000]"   SkinThickness="(-0.0000, 16.4000]"   
   (((   0.5   0.5)   % Insulin="(-0.00000, 131.9000]"   BMI="(13.000, 50.0000]"   SkinThickness="(16.000, 59.0000]"   
   (   0.5   0.5))   % Insulin="(131.00000, 465.8000]"   BMI="(13.000, 50.0000]"   SkinThickness="(16.000, 59.0000]"   
   ((   0.998567   0.00143266)   % Insulin="(-0.00000, 131.9000]"   BMI="(50.00, 52.0000]"   SkinThickness="(16.000, 59.0000]"   
   (   0.5   0.5))   % Insulin="(131.00000, 465.8000]"   BMI="(50.00, 52.0000]"   SkinThickness="(16.000, 59.0000]"   
   ((   0.5   0.5)   % Insulin="(-0.00000, 131.9000]"   BMI="(52.000, 65.5000]"   SkinThickness="(16.000, 59.0000]"   
   (   0.5   0.5))));   % Insulin="(131.00000, 465.8000]"   BMI="(52.000, 65.5000]"   SkinThickness="(16.000, 59.0000]"   
}

potential ( BloodPressure | Insulin   Glucose   BMI   SkinThickness   ) {
   data = 
   (((((   0.999804   0.000196464)   % Insulin="(-0.00000, 131.9000]"   Glucose="(18.0000, 81.4000]"   BMI="(13.000, 50.0000]"   SkinThickness="(-0.0000, 16.4000]"   
   (   0.5   0.5))   % Insulin="(131.00000, 465.8000]"   Glucose="(18.0000, 81.4000]"   BMI="(13.000, 50.0000]"   SkinThickness="(-0.0000, 16.4000]"   
   ((   0.5   0.5)   % Insulin="(-0.00000, 131.9000]"   Glucose="(81.00000, 197.0000]"   BMI="(13.000, 50.0000]"   SkinThickness="(-0.0000, 16.4000]"   
   (   0.5   0.5)))   % Insulin="(131.00000, 465.8000]"   Glucose="(81.00000, 197.0000]"   BMI="(13.000, 50.0000]"   SkinThickness="(-0.0000, 16.4000]"   
   (((   0.75347   0.24653)   % Insulin="(-0.00000, 131.9000]"   Glucose="(18.0000, 81.4000]"   BMI="(50.00, 52.0000]"   SkinThickness="(-0.0000, 16.4000]"   
   (   0.999257   0.000742942))   % Insulin="(131.00000, 465.8000]"   Glucose="(18.0000, 81.4000]"   BMI="(50.00, 52.0000]"   SkinThickness="(-0.0000, 16.4000]"   
   ((   0.999689   0.000310752)   % Insulin="(-0.00000, 131.9000]"   Glucose="(81.00000, 197.0000]"   BMI="(50.00, 52.0000]"   SkinThickness="(-0.0000, 16.4000]"   
   (   0.5   0.5)))   % Insulin="(131.00000, 465.8000]"   Glucose="(81.00000, 197.0000]"   BMI="(50.00, 52.0000]"   SkinThickness="(-0.0000, 16.4000]"   
   (((   0.996552   0.00344828)   % Insulin="(-0.00000, 131.9000]"   Glucose="(18.0000, 81.4000]"   BMI="(52.000, 65.5000]"   SkinThickness="(-0.0000, 16.4000]"   
   (   0.5   0.5))   % Insulin="(131.00000, 465.8000]"   Glucose="(18.0000, 81.4000]"   BMI="(52.000, 65.5000]"   SkinThickness="(-0.0000, 16.4000]"   
   ((   0.5   0.5)   % Insulin="(-0.00000, 131.9000]"   Glucose="(81.00000, 197.0000]"   BMI="(52.000, 65.5000]"   SkinThickness="(-0.0000, 16.4000]"   
   (   0.5   0.5))))   % Insulin="(131.00000, 465.8000]"   Glucose="(81.00000, 197.0000]"   BMI="(52.000, 65.5000]"   SkinThickness="(-0.0000, 16.4000]"   
   ((((   0.5   0.5)   % Insulin="(-0.00000, 131.9000]"   Glucose="(18.0000, 81.4000]"   BMI="(13.000, 50.0000]"   SkinThickness="(16.000, 59.0000]"   
   (   0.5   0.5))   % Insulin="(131.00000, 465.8000]"   Glucose="(18.0000, 81.4000]"   BMI="(13.000, 50.0000]"   SkinThickness="(16.000, 59.0000]"   
   ((   0.5   0.5)   % Insulin="(-0.00000, 131.9000]"   Glucose="(81.00000, 197.0000]"   BMI="(13.000, 50.0000]"   SkinThickness="(16.000, 59.0000]"   
   (   0.5   0.5)))   % Insulin="(131.00000, 465.8000]"   Glucose="(81.00000, 197.0000]"   BMI="(13.000, 50.0000]"   SkinThickness="(16.000, 59.0000]"   
   (((   0.999283   0.00071736)   % Insulin="(-0.00000, 131.9000]"   Glucose="(18.0000, 81.4000]"   BMI="(50.00, 52.0000]"   SkinThickness="(16.000, 59.0000]"   
   (   0.5   0.5))   % Insulin="(131.00000, 465.8000]"   Glucose="(18.0000, 81.4000]"   BMI="(50.00, 52.0000]"   SkinThickness="(16.000, 59.0000]"   
   ((   0.5   0.5)   % Insulin="(-0.00000, 131.9000]"   Glucose="(81.00000, 197.0000]"   BMI="(50.00, 52.0000]"   SkinThickness="(16.000, 59.0000]"   
   (   0.5   0.5)))   % Insulin="(131.00000, 465.8000]"   Glucose="(81.00000, 197.0000]"   BMI="(50.00, 52.0000]"   SkinThickness="(16.000, 59.0000]"   
   (((   0.5   0.5)   % Insulin="(-0.00000, 131.9000]"   Glucose="(18.0000, 81.4000]"   BMI="(52.000, 65.5000]"   SkinThickness="(16.000, 59.0000]"   
   (   0.5   0.5))   % Insulin="(131.00000, 465.8000]"   Glucose="(18.0000, 81.4000]"   BMI="(52.000, 65.5000]"   SkinThickness="(16.000, 59.0000]"   
   ((   0.5   0.5)   % Insulin="(-0.00000, 131.9000]"   Glucose="(81.00000, 197.0000]"   BMI="(52.000, 65.5000]"   SkinThickness="(16.000, 59.0000]"   
   (   0.5   0.5)))));   % Insulin="(131.00000, 465.8000]"   Glucose="(81.00000, 197.0000]"   BMI="(52.000, 65.5000]"   SkinThickness="(16.000, 59.0000]"   
}

potential ( SkinThickness | BMI   Insulin   ) {
   data = 
   (((   0.999215   0.000784929)   % BMI="(13.000, 50.0000]"   Insulin="(-0.00000, 131.9000]"   
   (   0.823915   0.176085)   % BMI="(50.00, 52.0000]"   Insulin="(-0.00000, 131.9000]"   
   (   0.986486   0.0135135))   % BMI="(52.000, 65.5000]"   Insulin="(-0.00000, 131.9000]"   
   ((   0.5   0.5)   % BMI="(13.000, 50.0000]"   Insulin="(131.00000, 465.8000]"   
   (   0.997041   0.00295858)   % BMI="(50.00, 52.0000]"   Insulin="(131.00000, 465.8000]"   
   (   0.5   0.5)));   % BMI="(52.000, 65.5000]"   Insulin="(131.00000, 465.8000]"   
}

potential (Insulin) {
   data = (  0.906863 0.0931373);
}

potential ( BMI | Insulin   ) {
   data = 
   ((   0.382583   0.595195   0.0222222)   % Insulin="(-0.00000, 131.9000]"   
   (   0.00584795   0.988304   0.00584795));   % Insulin="(131.00000, 465.8000]"   
}

potential ( DiabetesPedigreeFunction | Diabetes?   BMI   ) {
   data = 
   (((   0.016129   0.983871)   % Diabetes?=No   BMI="(13.000, 50.0000]"   
   (   0.672982   0.327018))   % Diabetes?=Yes   BMI="(13.000, 50.0000]"   
   ((   0.02   0.98)   % Diabetes?=No   BMI="(50.00, 52.0000]"   
   (   0.000440529   0.999559))   % Diabetes?=Yes   BMI="(50.00, 52.0000]"   
   ((   0.5   0.5)   % Diabetes?=No   BMI="(52.000, 65.5000]"   
   (   0.0135135   0.986486)));   % Diabetes?=Yes   BMI="(52.000, 65.5000]"   
}

potential ( Age | DiabetesPedigreeFunction   ) {
   data = 
   ((   0.733577   0.266423)   % DiabetesPedigreeFunction="(0.000, 1.8000]"   
   (   0.998947   0.00105263));   % DiabetesPedigreeFunction="(0.0000, 0.5000]"   
}

potential ( Diabetes? | Glucose   SkinThickness   ) {
   data = 
   (((   0.0436081   0.956392)   % Glucose="(18.0000, 81.4000]"   SkinThickness="(-0.0000, 16.4000]"   
   (   0.00185874   0.998141))   % Glucose="(81.00000, 197.0000]"   SkinThickness="(-0.0000, 16.4000]"   
   ((   0.0042735   0.995726)   % Glucose="(18.0000, 81.4000]"   SkinThickness="(16.000, 59.0000]"   
   (   0.5   0.5)));   % Glucose="(81.00000, 197.0000]"   SkinThickness="(16.000, 59.0000]"   
}


