
net {
  name = unnamedBN;
  software = "aGrUM 0.17.0";
  node_size = (50 50);
}

node Pregnancies {
   states = ("(0.0000, 15.0000]" "(15.0000, 16.9000]" );
   label = "Pregnancies";
   ID = "Pregnancies";
}

node Glucose {
   states = ("(3.000, 71.0000]" "(71.0000, 196.9000]" );
   label = "Glucose";
   ID = "Glucose";
}

node BloodPressure {
   states = ("(-0.000, 44.0000]" "(44.000, 72.8000]" );
   label = "BloodPressure";
   ID = "BloodPressure";
}

node SkinThickness {
   states = ("(-0.0000, 16.4000]" "(16.000, 59.0000]" );
   label = "SkinThickness";
   ID = "SkinThickness";
}

node Insulin {
   states = ("(-0.00000, 131.9000]" "(131.00000, 465.8000]" );
   label = "Insulin";
   ID = "Insulin";
}

node BMI {
   states = ("(1.000, 30.0000]" "(30.000, 47.1000]" "(47.000, 65.0000]" );
   label = "BMI";
   ID = "BMI";
}

node DiabetesPedigreeFunction {
   states = ("(0.000, 1.7000]" "(0.0000, 0.4000]" );
   label = "DiabetesPedigreeFunction";
   ID = "DiabetesPedigreeFunction";
}

node Age {
   states = ("(22.7799, 33.9000]" "(33.0000, 69.3000]" );
   label = "Age";
   ID = "Age";
}

node Diabetes? {
   states = (No Yes );
   label = "Diabetes?";
   ID = "Diabetes?";
}

potential ( Pregnancies | Glucose   ) {
   data = 
   ((   0.998952   0.00104822)   % Glucose="(3.000, 71.0000]"   
   (   0.907407   0.0925926));   % Glucose="(71.0000, 196.9000]"   
}

potential ( Glucose | Diabetes?   BloodPressure   BMI   SkinThickness   ) {
   data = 
   (((((   0.984305   0.0156951)   % Diabetes?=No   BloodPressure="(-0.000, 44.0000]"   BMI="(1.000, 30.0000]"   SkinThickness="(-0.0000, 16.4000]"   
   (   0.274828   0.725172))   % Diabetes?=Yes   BloodPressure="(-0.000, 44.0000]"   BMI="(1.000, 30.0000]"   SkinThickness="(-0.0000, 16.4000]"   
   ((   0.5   0.5)   % Diabetes?=No   BloodPressure="(44.000, 72.8000]"   BMI="(1.000, 30.0000]"   SkinThickness="(-0.0000, 16.4000]"   
   (   0.998778   0.00122249)))   % Diabetes?=Yes   BloodPressure="(44.000, 72.8000]"   BMI="(1.000, 30.0000]"   SkinThickness="(-0.0000, 16.4000]"   
   (((   0.996552   0.00344828)   % Diabetes?=No   BloodPressure="(-0.000, 44.0000]"   BMI="(30.000, 47.1000]"   SkinThickness="(-0.0000, 16.4000]"   
   (   0.999766   0.000233973))   % Diabetes?=Yes   BloodPressure="(-0.000, 44.0000]"   BMI="(30.000, 47.1000]"   SkinThickness="(-0.0000, 16.4000]"   
   ((   0.5   0.5)   % Diabetes?=No   BloodPressure="(44.000, 72.8000]"   BMI="(30.000, 47.1000]"   SkinThickness="(-0.0000, 16.4000]"   
   (   0.5   0.5)))   % Diabetes?=Yes   BloodPressure="(44.000, 72.8000]"   BMI="(30.000, 47.1000]"   SkinThickness="(-0.0000, 16.4000]"   
   (((   0.5   0.5)   % Diabetes?=No   BloodPressure="(-0.000, 44.0000]"   BMI="(47.000, 65.0000]"   SkinThickness="(-0.0000, 16.4000]"   
   (   0.997409   0.00259067))   % Diabetes?=Yes   BloodPressure="(-0.000, 44.0000]"   BMI="(47.000, 65.0000]"   SkinThickness="(-0.0000, 16.4000]"   
   ((   0.5   0.5)   % Diabetes?=No   BloodPressure="(44.000, 72.8000]"   BMI="(47.000, 65.0000]"   SkinThickness="(-0.0000, 16.4000]"   
   (   0.5   0.5))))   % Diabetes?=Yes   BloodPressure="(44.000, 72.8000]"   BMI="(47.000, 65.0000]"   SkinThickness="(-0.0000, 16.4000]"   
   ((((   0.999168   0.000831947)   % Diabetes?=No   BloodPressure="(-0.000, 44.0000]"   BMI="(1.000, 30.0000]"   SkinThickness="(16.000, 59.0000]"   
   (   0.994845   0.00515464))   % Diabetes?=Yes   BloodPressure="(-0.000, 44.0000]"   BMI="(1.000, 30.0000]"   SkinThickness="(16.000, 59.0000]"   
   ((   0.5   0.5)   % Diabetes?=No   BloodPressure="(44.000, 72.8000]"   BMI="(1.000, 30.0000]"   SkinThickness="(16.000, 59.0000]"   
   (   0.5   0.5)))   % Diabetes?=Yes   BloodPressure="(44.000, 72.8000]"   BMI="(1.000, 30.0000]"   SkinThickness="(16.000, 59.0000]"   
   (((   0.5   0.5)   % Diabetes?=No   BloodPressure="(-0.000, 44.0000]"   BMI="(30.000, 47.1000]"   SkinThickness="(16.000, 59.0000]"   
   (   0.5   0.5))   % Diabetes?=Yes   BloodPressure="(-0.000, 44.0000]"   BMI="(30.000, 47.1000]"   SkinThickness="(16.000, 59.0000]"   
   ((   0.5   0.5)   % Diabetes?=No   BloodPressure="(44.000, 72.8000]"   BMI="(30.000, 47.1000]"   SkinThickness="(16.000, 59.0000]"   
   (   0.5   0.5)))   % Diabetes?=Yes   BloodPressure="(44.000, 72.8000]"   BMI="(30.000, 47.1000]"   SkinThickness="(16.000, 59.0000]"   
   (((   0.5   0.5)   % Diabetes?=No   BloodPressure="(-0.000, 44.0000]"   BMI="(47.000, 65.0000]"   SkinThickness="(16.000, 59.0000]"   
   (   0.5   0.5))   % Diabetes?=Yes   BloodPressure="(-0.000, 44.0000]"   BMI="(47.000, 65.0000]"   SkinThickness="(16.000, 59.0000]"   
   ((   0.5   0.5)   % Diabetes?=No   BloodPressure="(44.000, 72.8000]"   BMI="(47.000, 65.0000]"   SkinThickness="(16.000, 59.0000]"   
   (   0.5   0.5)))));   % Diabetes?=Yes   BloodPressure="(44.000, 72.8000]"   BMI="(47.000, 65.0000]"   SkinThickness="(16.000, 59.0000]"   
}

potential ( BloodPressure | Diabetes?   BMI   ) {
   data = 
   (((   0.999076   0.000924214)   % Diabetes?=No   BMI="(1.000, 30.0000]"   
   (   0.847697   0.152303))   % Diabetes?=Yes   BMI="(1.000, 30.0000]"   
   ((   0.986486   0.0135135)   % Diabetes?=No   BMI="(30.000, 47.1000]"   
   (   0.999065   0.000934579))   % Diabetes?=Yes   BMI="(30.000, 47.1000]"   
   ((   0.5   0.5)   % Diabetes?=No   BMI="(47.000, 65.0000]"   
   (   0.989796   0.0102041)));   % Diabetes?=Yes   BMI="(47.000, 65.0000]"   
}

potential ( SkinThickness | Diabetes?   ) {
   data = 
   ((   0.738342   0.261658)   % Diabetes?=No   
   (   0.979714   0.0202864));   % Diabetes?=Yes   
}

potential ( Insulin | SkinThickness   BMI   Diabetes?   ) {
   data = 
   ((((   0.569142   0.430858)   % SkinThickness="(-0.0000, 16.4000]"   BMI="(1.000, 30.0000]"   Diabetes?=No   
   (   0.998339   0.00166113))   % SkinThickness="(16.000, 59.0000]"   BMI="(1.000, 30.0000]"   Diabetes?=No   
   ((   0.993151   0.00684932)   % SkinThickness="(-0.0000, 16.4000]"   BMI="(30.000, 47.1000]"   Diabetes?=No   
   (   0.5   0.5))   % SkinThickness="(16.000, 59.0000]"   BMI="(30.000, 47.1000]"   Diabetes?=No   
   ((   0.5   0.5)   % SkinThickness="(-0.0000, 16.4000]"   BMI="(47.000, 65.0000]"   Diabetes?=No   
   (   0.5   0.5)))   % SkinThickness="(16.000, 59.0000]"   BMI="(47.000, 65.0000]"   Diabetes?=No   
   (((   0.999614   0.000385505)   % SkinThickness="(-0.0000, 16.4000]"   BMI="(1.000, 30.0000]"   Diabetes?=Yes   
   (   0.989796   0.0102041))   % SkinThickness="(16.000, 59.0000]"   BMI="(1.000, 30.0000]"   Diabetes?=Yes   
   ((   0.999532   0.000467727)   % SkinThickness="(-0.0000, 16.4000]"   BMI="(30.000, 47.1000]"   Diabetes?=Yes   
   (   0.5   0.5))   % SkinThickness="(16.000, 59.0000]"   BMI="(30.000, 47.1000]"   Diabetes?=Yes   
   ((   0.994845   0.00515464)   % SkinThickness="(-0.0000, 16.4000]"   BMI="(47.000, 65.0000]"   Diabetes?=Yes   
   (   0.5   0.5))));   % SkinThickness="(16.000, 59.0000]"   BMI="(47.000, 65.0000]"   Diabetes?=Yes   
}

potential ( BMI | Diabetes?   DiabetesPedigreeFunction   ) {
   data = 
   (((   0.333333   0.333333   0.333333)   % Diabetes?=No   DiabetesPedigreeFunction="(0.000, 1.7000]"   
   (   0.001221   0.997558   0.001221))   % Diabetes?=Yes   DiabetesPedigreeFunction="(0.000, 1.7000]"   
   ((   0.935931   0.0632035   0.000865801)   % Diabetes?=No   DiabetesPedigreeFunction="(0.0000, 0.4000]"   
   (   0.79351   0.149263   0.0572271)));   % Diabetes?=Yes   DiabetesPedigreeFunction="(0.0000, 0.4000]"   
}

potential ( DiabetesPedigreeFunction | Diabetes?   ) {
   data = 
   ((   0.00259067   0.997409)   % Diabetes?=No   
   (   0.325776   0.674224));   % Diabetes?=Yes   
}

potential ( Age | DiabetesPedigreeFunction   ) {
   data = 
   ((   0.631387   0.368613)   % DiabetesPedigreeFunction="(0.000, 1.7000]"   
   (   0.998947   0.00105263));   % DiabetesPedigreeFunction="(0.0000, 0.4000]"   
}

potential (Diabetes?) {
   data = (  0.315359 0.684641);
}


