
net {
  name = unnamedBN;
  software = "aGrUM 0.17.0";
  node_size = (50 50);
}

node Pregnancies {
   states = ("(-0.000, 9.0000]" "(9.0000, 10.1000]" );
   label = "Pregnancies";
   ID = "Pregnancies";
}

node Glucose {
   states = ("(110.00000, 197.5000]" "(62.00000, 110.2000]" );
   label = "Glucose";
   ID = "Glucose";
}

node BloodPressure {
   states = ("(17.0000, 80.3000]" "(80.000, 90.0000]" "(90.0000, 121.5000]" );
   label = "BloodPressure";
   ID = "BloodPressure";
}

node SkinThickness {
   states = ("(0.0000, 23.6000]" "(23.000, 26.0000]" "(26.000, 84.8000]" );
   label = "SkinThickness";
   ID = "SkinThickness";
}

node Insulin {
   states = ("(155.00000, 548.4000]" "(2.000, 90.0000]" "(90.00000, 155.3000]" );
   label = "Insulin";
   ID = "Insulin";
}

node BMI {
   states = ("(1.000, 36.0000]" "(36.000, 47.1000]" "(47.000, 65.0000]" );
   label = "BMI";
   ID = "BMI";
}

node DiabetesPedigreeFunction {
   states = ("(0.000, 1.5000]" "(0.0000, 0.3000]" );
   label = "DiabetesPedigreeFunction";
   ID = "DiabetesPedigreeFunction";
}

node Age {
   states = ("(22.000, 37.4000]" "(37.0000, 72.8000]" );
   label = "Age";
   ID = "Age";
}

node Diabetes? {
   states = (No Yes );
   label = "Diabetes?";
   ID = "Diabetes?";
}

potential ( Pregnancies | Glucose   ) {
   data = 
   ((   0.907407   0.0925926)   % Glucose="(110.00000, 197.5000]"   
   (   0.998952   0.00104822));   % Glucose="(62.00000, 110.2000]"   
}

potential ( Glucose | BloodPressure   ) {
   data = 
   ((   0.000788644   0.999211)   % BloodPressure="(17.0000, 80.3000]"   
   (   0.82582   0.17418)   % BloodPressure="(80.000, 90.0000]"   
   (   0.0125   0.9875));   % BloodPressure="(90.0000, 121.5000]"   
}

potential ( BloodPressure | SkinThickness   ) {
   data = 
   ((   0.998623   0.000688705   0.000688705)   % SkinThickness="(0.0000, 23.6000]"   
   (   0.183044   0.703276   0.11368)   % SkinThickness="(23.000, 26.0000]"   
   (   0.992424   0.00378788   0.00378788));   % SkinThickness="(26.000, 84.8000]"   
}

potential ( SkinThickness | Insulin   ) {
   data = 
   ((   0.992157   0.00392157   0.00392157)   % Insulin="(155.00000, 548.4000]"   
   (   0.0891228   0.727018   0.18386)   % Insulin="(2.000, 90.0000]"   
   (   0.998138   0.000931099   0.000931099));   % Insulin="(90.00000, 155.3000]"   
}

potential ( Insulin | BMI   ) {
   data = 
   ((   0.131771   0.741146   0.127083)   % BMI="(1.000, 36.0000]"   
   (   0.00131752   0.00131752   0.997365)   % BMI="(36.000, 47.1000]"   
   (   0.0133333   0.0133333   0.973333));   % BMI="(47.000, 65.0000]"   
}

potential ( BMI | DiabetesPedigreeFunction   ) {
   data = 
   ((   0.00239808   0.995204   0.00239808)   % DiabetesPedigreeFunction="(0.000, 1.5000]"   
   (   0.901339   0.0641297   0.0345314));   % DiabetesPedigreeFunction="(0.0000, 0.3000]"   
}

potential ( DiabetesPedigreeFunction | Age   ) {
   data = 
   ((   0.157754   0.842246)   % Age="(22.000, 37.4000]"   
   (   0.990196   0.00980392));   % Age="(37.0000, 72.8000]"   
}

potential (Age) {
   data = (  0.916667 0.0833333);
}

potential ( Diabetes? | DiabetesPedigreeFunction   Glucose   BMI   Insulin   Pregnancies   ) {
   data = 
   ((((((   0.5   0.5)   % DiabetesPedigreeFunction="(0.000, 1.5000]"   Glucose="(110.00000, 197.5000]"   BMI="(1.000, 36.0000]"   Insulin="(155.00000, 548.4000]"   Pregnancies="(-0.000, 9.0000]"   
   (   0.5   0.5))   % DiabetesPedigreeFunction="(0.0000, 0.3000]"   Glucose="(110.00000, 197.5000]"   BMI="(1.000, 36.0000]"   Insulin="(155.00000, 548.4000]"   Pregnancies="(-0.000, 9.0000]"   
   ((   0.5   0.5)   % DiabetesPedigreeFunction="(0.000, 1.5000]"   Glucose="(62.00000, 110.2000]"   BMI="(1.000, 36.0000]"   Insulin="(155.00000, 548.4000]"   Pregnancies="(-0.000, 9.0000]"   
   (   0.999752   0.000247893)))   % DiabetesPedigreeFunction="(0.0000, 0.3000]"   Glucose="(62.00000, 110.2000]"   BMI="(1.000, 36.0000]"   Insulin="(155.00000, 548.4000]"   Pregnancies="(-0.000, 9.0000]"   
   (((   0.5   0.5)   % DiabetesPedigreeFunction="(0.000, 1.5000]"   Glucose="(110.00000, 197.5000]"   BMI="(36.000, 47.1000]"   Insulin="(155.00000, 548.4000]"   Pregnancies="(-0.000, 9.0000]"   
   (   0.5   0.5))   % DiabetesPedigreeFunction="(0.0000, 0.3000]"   Glucose="(110.00000, 197.5000]"   BMI="(36.000, 47.1000]"   Insulin="(155.00000, 548.4000]"   Pregnancies="(-0.000, 9.0000]"   
   ((   0.5   0.5)   % DiabetesPedigreeFunction="(0.000, 1.5000]"   Glucose="(62.00000, 110.2000]"   BMI="(36.000, 47.1000]"   Insulin="(155.00000, 548.4000]"   Pregnancies="(-0.000, 9.0000]"   
   (   0.5   0.5)))   % DiabetesPedigreeFunction="(0.0000, 0.3000]"   Glucose="(62.00000, 110.2000]"   BMI="(36.000, 47.1000]"   Insulin="(155.00000, 548.4000]"   Pregnancies="(-0.000, 9.0000]"   
   (((   0.5   0.5)   % DiabetesPedigreeFunction="(0.000, 1.5000]"   Glucose="(110.00000, 197.5000]"   BMI="(47.000, 65.0000]"   Insulin="(155.00000, 548.4000]"   Pregnancies="(-0.000, 9.0000]"   
   (   0.5   0.5))   % DiabetesPedigreeFunction="(0.0000, 0.3000]"   Glucose="(110.00000, 197.5000]"   BMI="(47.000, 65.0000]"   Insulin="(155.00000, 548.4000]"   Pregnancies="(-0.000, 9.0000]"   
   ((   0.5   0.5)   % DiabetesPedigreeFunction="(0.000, 1.5000]"   Glucose="(62.00000, 110.2000]"   BMI="(47.000, 65.0000]"   Insulin="(155.00000, 548.4000]"   Pregnancies="(-0.000, 9.0000]"   
   (   0.5   0.5))))   % DiabetesPedigreeFunction="(0.0000, 0.3000]"   Glucose="(62.00000, 110.2000]"   BMI="(47.000, 65.0000]"   Insulin="(155.00000, 548.4000]"   Pregnancies="(-0.000, 9.0000]"   
   ((((   0.5   0.5)   % DiabetesPedigreeFunction="(0.000, 1.5000]"   Glucose="(110.00000, 197.5000]"   BMI="(1.000, 36.0000]"   Insulin="(2.000, 90.0000]"   Pregnancies="(-0.000, 9.0000]"   
   (   0.049283   0.950717))   % DiabetesPedigreeFunction="(0.0000, 0.3000]"   Glucose="(110.00000, 197.5000]"   BMI="(1.000, 36.0000]"   Insulin="(2.000, 90.0000]"   Pregnancies="(-0.000, 9.0000]"   
   ((   0.5   0.5)   % DiabetesPedigreeFunction="(0.000, 1.5000]"   Glucose="(62.00000, 110.2000]"   BMI="(1.000, 36.0000]"   Insulin="(2.000, 90.0000]"   Pregnancies="(-0.000, 9.0000]"   
   (   0.72524   0.27476)))   % DiabetesPedigreeFunction="(0.0000, 0.3000]"   Glucose="(62.00000, 110.2000]"   BMI="(1.000, 36.0000]"   Insulin="(2.000, 90.0000]"   Pregnancies="(-0.000, 9.0000]"   
   (((   0.5   0.5)   % DiabetesPedigreeFunction="(0.000, 1.5000]"   Glucose="(110.00000, 197.5000]"   BMI="(36.000, 47.1000]"   Insulin="(2.000, 90.0000]"   Pregnancies="(-0.000, 9.0000]"   
   (   0.5   0.5))   % DiabetesPedigreeFunction="(0.0000, 0.3000]"   Glucose="(110.00000, 197.5000]"   BMI="(36.000, 47.1000]"   Insulin="(2.000, 90.0000]"   Pregnancies="(-0.000, 9.0000]"   
   ((   0.5   0.5)   % DiabetesPedigreeFunction="(0.000, 1.5000]"   Glucose="(62.00000, 110.2000]"   BMI="(36.000, 47.1000]"   Insulin="(2.000, 90.0000]"   Pregnancies="(-0.000, 9.0000]"   
   (   0.5   0.5)))   % DiabetesPedigreeFunction="(0.0000, 0.3000]"   Glucose="(62.00000, 110.2000]"   BMI="(36.000, 47.1000]"   Insulin="(2.000, 90.0000]"   Pregnancies="(-0.000, 9.0000]"   
   (((   0.5   0.5)   % DiabetesPedigreeFunction="(0.000, 1.5000]"   Glucose="(110.00000, 197.5000]"   BMI="(47.000, 65.0000]"   Insulin="(2.000, 90.0000]"   Pregnancies="(-0.000, 9.0000]"   
   (   0.5   0.5))   % DiabetesPedigreeFunction="(0.0000, 0.3000]"   Glucose="(110.00000, 197.5000]"   BMI="(47.000, 65.0000]"   Insulin="(2.000, 90.0000]"   Pregnancies="(-0.000, 9.0000]"   
   ((   0.5   0.5)   % DiabetesPedigreeFunction="(0.000, 1.5000]"   Glucose="(62.00000, 110.2000]"   BMI="(47.000, 65.0000]"   Insulin="(2.000, 90.0000]"   Pregnancies="(-0.000, 9.0000]"   
   (   0.5   0.5))))   % DiabetesPedigreeFunction="(0.0000, 0.3000]"   Glucose="(62.00000, 110.2000]"   BMI="(47.000, 65.0000]"   Insulin="(2.000, 90.0000]"   Pregnancies="(-0.000, 9.0000]"   
   ((((   0.5   0.5)   % DiabetesPedigreeFunction="(0.000, 1.5000]"   Glucose="(110.00000, 197.5000]"   BMI="(1.000, 36.0000]"   Insulin="(90.00000, 155.3000]"   Pregnancies="(-0.000, 9.0000]"   
   (   0.5   0.5))   % DiabetesPedigreeFunction="(0.0000, 0.3000]"   Glucose="(110.00000, 197.5000]"   BMI="(1.000, 36.0000]"   Insulin="(90.00000, 155.3000]"   Pregnancies="(-0.000, 9.0000]"   
   ((   0.5   0.5)   % DiabetesPedigreeFunction="(0.000, 1.5000]"   Glucose="(62.00000, 110.2000]"   BMI="(1.000, 36.0000]"   Insulin="(90.00000, 155.3000]"   Pregnancies="(-0.000, 9.0000]"   
   (   0.999743   0.000257069)))   % DiabetesPedigreeFunction="(0.0000, 0.3000]"   Glucose="(62.00000, 110.2000]"   BMI="(1.000, 36.0000]"   Insulin="(90.00000, 155.3000]"   Pregnancies="(-0.000, 9.0000]"   
   (((   0.5   0.5)   % DiabetesPedigreeFunction="(0.000, 1.5000]"   Glucose="(110.00000, 197.5000]"   BMI="(36.000, 47.1000]"   Insulin="(90.00000, 155.3000]"   Pregnancies="(-0.000, 9.0000]"   
   (   0.5   0.5))   % DiabetesPedigreeFunction="(0.0000, 0.3000]"   Glucose="(110.00000, 197.5000]"   BMI="(36.000, 47.1000]"   Insulin="(90.00000, 155.3000]"   Pregnancies="(-0.000, 9.0000]"   
   ((   0.000100624   0.999899)   % DiabetesPedigreeFunction="(0.000, 1.5000]"   Glucose="(62.00000, 110.2000]"   BMI="(36.000, 47.1000]"   Insulin="(90.00000, 155.3000]"   Pregnancies="(-0.000, 9.0000]"   
   (   0.400093   0.599907)))   % DiabetesPedigreeFunction="(0.0000, 0.3000]"   Glucose="(62.00000, 110.2000]"   BMI="(36.000, 47.1000]"   Insulin="(90.00000, 155.3000]"   Pregnancies="(-0.000, 9.0000]"   
   (((   0.5   0.5)   % DiabetesPedigreeFunction="(0.000, 1.5000]"   Glucose="(110.00000, 197.5000]"   BMI="(47.000, 65.0000]"   Insulin="(90.00000, 155.3000]"   Pregnancies="(-0.000, 9.0000]"   
   (   0.5   0.5))   % DiabetesPedigreeFunction="(0.0000, 0.3000]"   Glucose="(110.00000, 197.5000]"   BMI="(47.000, 65.0000]"   Insulin="(90.00000, 155.3000]"   Pregnancies="(-0.000, 9.0000]"   
   ((   0.5   0.5)   % DiabetesPedigreeFunction="(0.000, 1.5000]"   Glucose="(62.00000, 110.2000]"   BMI="(47.000, 65.0000]"   Insulin="(90.00000, 155.3000]"   Pregnancies="(-0.000, 9.0000]"   
   (   0.000866551   0.999133)))))   % DiabetesPedigreeFunction="(0.0000, 0.3000]"   Glucose="(62.00000, 110.2000]"   BMI="(47.000, 65.0000]"   Insulin="(90.00000, 155.3000]"   Pregnancies="(-0.000, 9.0000]"   
   (((((   0.5   0.5)   % DiabetesPedigreeFunction="(0.000, 1.5000]"   Glucose="(110.00000, 197.5000]"   BMI="(1.000, 36.0000]"   Insulin="(155.00000, 548.4000]"   Pregnancies="(9.0000, 10.1000]"   
   (   0.5   0.5))   % DiabetesPedigreeFunction="(0.0000, 0.3000]"   Glucose="(110.00000, 197.5000]"   BMI="(1.000, 36.0000]"   Insulin="(155.00000, 548.4000]"   Pregnancies="(9.0000, 10.1000]"   
   ((   0.5   0.5)   % DiabetesPedigreeFunction="(0.000, 1.5000]"   Glucose="(62.00000, 110.2000]"   BMI="(1.000, 36.0000]"   Insulin="(155.00000, 548.4000]"   Pregnancies="(9.0000, 10.1000]"   
   (   0.5   0.5)))   % DiabetesPedigreeFunction="(0.0000, 0.3000]"   Glucose="(62.00000, 110.2000]"   BMI="(1.000, 36.0000]"   Insulin="(155.00000, 548.4000]"   Pregnancies="(9.0000, 10.1000]"   
   (((   0.5   0.5)   % DiabetesPedigreeFunction="(0.000, 1.5000]"   Glucose="(110.00000, 197.5000]"   BMI="(36.000, 47.1000]"   Insulin="(155.00000, 548.4000]"   Pregnancies="(9.0000, 10.1000]"   
   (   0.5   0.5))   % DiabetesPedigreeFunction="(0.0000, 0.3000]"   Glucose="(110.00000, 197.5000]"   BMI="(36.000, 47.1000]"   Insulin="(155.00000, 548.4000]"   Pregnancies="(9.0000, 10.1000]"   
   ((   0.5   0.5)   % DiabetesPedigreeFunction="(0.000, 1.5000]"   Glucose="(62.00000, 110.2000]"   BMI="(36.000, 47.1000]"   Insulin="(155.00000, 548.4000]"   Pregnancies="(9.0000, 10.1000]"   
   (   0.5   0.5)))   % DiabetesPedigreeFunction="(0.0000, 0.3000]"   Glucose="(62.00000, 110.2000]"   BMI="(36.000, 47.1000]"   Insulin="(155.00000, 548.4000]"   Pregnancies="(9.0000, 10.1000]"   
   (((   0.5   0.5)   % DiabetesPedigreeFunction="(0.000, 1.5000]"   Glucose="(110.00000, 197.5000]"   BMI="(47.000, 65.0000]"   Insulin="(155.00000, 548.4000]"   Pregnancies="(9.0000, 10.1000]"   
   (   0.5   0.5))   % DiabetesPedigreeFunction="(0.0000, 0.3000]"   Glucose="(110.00000, 197.5000]"   BMI="(47.000, 65.0000]"   Insulin="(155.00000, 548.4000]"   Pregnancies="(9.0000, 10.1000]"   
   ((   0.5   0.5)   % DiabetesPedigreeFunction="(0.000, 1.5000]"   Glucose="(62.00000, 110.2000]"   BMI="(47.000, 65.0000]"   Insulin="(155.00000, 548.4000]"   Pregnancies="(9.0000, 10.1000]"   
   (   0.5   0.5))))   % DiabetesPedigreeFunction="(0.0000, 0.3000]"   Glucose="(62.00000, 110.2000]"   BMI="(47.000, 65.0000]"   Insulin="(155.00000, 548.4000]"   Pregnancies="(9.0000, 10.1000]"   
   ((((   0.5   0.5)   % DiabetesPedigreeFunction="(0.000, 1.5000]"   Glucose="(110.00000, 197.5000]"   BMI="(1.000, 36.0000]"   Insulin="(2.000, 90.0000]"   Pregnancies="(9.0000, 10.1000]"   
   (   0.00115473   0.998845))   % DiabetesPedigreeFunction="(0.0000, 0.3000]"   Glucose="(110.00000, 197.5000]"   BMI="(1.000, 36.0000]"   Insulin="(2.000, 90.0000]"   Pregnancies="(9.0000, 10.1000]"   
   ((   0.5   0.5)   % DiabetesPedigreeFunction="(0.000, 1.5000]"   Glucose="(62.00000, 110.2000]"   BMI="(1.000, 36.0000]"   Insulin="(2.000, 90.0000]"   Pregnancies="(9.0000, 10.1000]"   
   (   0.5   0.5)))   % DiabetesPedigreeFunction="(0.0000, 0.3000]"   Glucose="(62.00000, 110.2000]"   BMI="(1.000, 36.0000]"   Insulin="(2.000, 90.0000]"   Pregnancies="(9.0000, 10.1000]"   
   (((   0.5   0.5)   % DiabetesPedigreeFunction="(0.000, 1.5000]"   Glucose="(110.00000, 197.5000]"   BMI="(36.000, 47.1000]"   Insulin="(2.000, 90.0000]"   Pregnancies="(9.0000, 10.1000]"   
   (   0.5   0.5))   % DiabetesPedigreeFunction="(0.0000, 0.3000]"   Glucose="(110.00000, 197.5000]"   BMI="(36.000, 47.1000]"   Insulin="(2.000, 90.0000]"   Pregnancies="(9.0000, 10.1000]"   
   ((   0.5   0.5)   % DiabetesPedigreeFunction="(0.000, 1.5000]"   Glucose="(62.00000, 110.2000]"   BMI="(36.000, 47.1000]"   Insulin="(2.000, 90.0000]"   Pregnancies="(9.0000, 10.1000]"   
   (   0.5   0.5)))   % DiabetesPedigreeFunction="(0.0000, 0.3000]"   Glucose="(62.00000, 110.2000]"   BMI="(36.000, 47.1000]"   Insulin="(2.000, 90.0000]"   Pregnancies="(9.0000, 10.1000]"   
   (((   0.5   0.5)   % DiabetesPedigreeFunction="(0.000, 1.5000]"   Glucose="(110.00000, 197.5000]"   BMI="(47.000, 65.0000]"   Insulin="(2.000, 90.0000]"   Pregnancies="(9.0000, 10.1000]"   
   (   0.5   0.5))   % DiabetesPedigreeFunction="(0.0000, 0.3000]"   Glucose="(110.00000, 197.5000]"   BMI="(47.000, 65.0000]"   Insulin="(2.000, 90.0000]"   Pregnancies="(9.0000, 10.1000]"   
   ((   0.5   0.5)   % DiabetesPedigreeFunction="(0.000, 1.5000]"   Glucose="(62.00000, 110.2000]"   BMI="(47.000, 65.0000]"   Insulin="(2.000, 90.0000]"   Pregnancies="(9.0000, 10.1000]"   
   (   0.5   0.5))))   % DiabetesPedigreeFunction="(0.0000, 0.3000]"   Glucose="(62.00000, 110.2000]"   BMI="(47.000, 65.0000]"   Insulin="(2.000, 90.0000]"   Pregnancies="(9.0000, 10.1000]"   
   ((((   0.5   0.5)   % DiabetesPedigreeFunction="(0.000, 1.5000]"   Glucose="(110.00000, 197.5000]"   BMI="(1.000, 36.0000]"   Insulin="(90.00000, 155.3000]"   Pregnancies="(9.0000, 10.1000]"   
   (   0.5   0.5))   % DiabetesPedigreeFunction="(0.0000, 0.3000]"   Glucose="(110.00000, 197.5000]"   BMI="(1.000, 36.0000]"   Insulin="(90.00000, 155.3000]"   Pregnancies="(9.0000, 10.1000]"   
   ((   0.5   0.5)   % DiabetesPedigreeFunction="(0.000, 1.5000]"   Glucose="(62.00000, 110.2000]"   BMI="(1.000, 36.0000]"   Insulin="(90.00000, 155.3000]"   Pregnancies="(9.0000, 10.1000]"   
   (   0.5   0.5)))   % DiabetesPedigreeFunction="(0.0000, 0.3000]"   Glucose="(62.00000, 110.2000]"   BMI="(1.000, 36.0000]"   Insulin="(90.00000, 155.3000]"   Pregnancies="(9.0000, 10.1000]"   
   (((   0.5   0.5)   % DiabetesPedigreeFunction="(0.000, 1.5000]"   Glucose="(110.00000, 197.5000]"   BMI="(36.000, 47.1000]"   Insulin="(90.00000, 155.3000]"   Pregnancies="(9.0000, 10.1000]"   
   (   0.5   0.5))   % DiabetesPedigreeFunction="(0.0000, 0.3000]"   Glucose="(110.00000, 197.5000]"   BMI="(36.000, 47.1000]"   Insulin="(90.00000, 155.3000]"   Pregnancies="(9.0000, 10.1000]"   
   ((   0.5   0.5)   % DiabetesPedigreeFunction="(0.000, 1.5000]"   Glucose="(62.00000, 110.2000]"   BMI="(36.000, 47.1000]"   Insulin="(90.00000, 155.3000]"   Pregnancies="(9.0000, 10.1000]"   
   (   0.5   0.5)))   % DiabetesPedigreeFunction="(0.0000, 0.3000]"   Glucose="(62.00000, 110.2000]"   BMI="(36.000, 47.1000]"   Insulin="(90.00000, 155.3000]"   Pregnancies="(9.0000, 10.1000]"   
   (((   0.5   0.5)   % DiabetesPedigreeFunction="(0.000, 1.5000]"   Glucose="(110.00000, 197.5000]"   BMI="(47.000, 65.0000]"   Insulin="(90.00000, 155.3000]"   Pregnancies="(9.0000, 10.1000]"   
   (   0.5   0.5))   % DiabetesPedigreeFunction="(0.0000, 0.3000]"   Glucose="(110.00000, 197.5000]"   BMI="(47.000, 65.0000]"   Insulin="(90.00000, 155.3000]"   Pregnancies="(9.0000, 10.1000]"   
   ((   0.5   0.5)   % DiabetesPedigreeFunction="(0.000, 1.5000]"   Glucose="(62.00000, 110.2000]"   BMI="(47.000, 65.0000]"   Insulin="(90.00000, 155.3000]"   Pregnancies="(9.0000, 10.1000]"   
   (   0.5   0.5))))));   % DiabetesPedigreeFunction="(0.0000, 0.3000]"   Glucose="(62.00000, 110.2000]"   BMI="(47.000, 65.0000]"   Insulin="(90.00000, 155.3000]"   Pregnancies="(9.0000, 10.1000]"   
}


