
net {
  name = unnamedBN;
  software = "aGrUM 0.17.0";
  node_size = (50 50);
}

node Pregnancies {
   states = ("(0.0000, 10.8000]" "(10.0000, 12.1000]" );
   label = "Pregnancies";
   ID = "Pregnancies";
}

node Glucose {
   states = ("(29.0000, 88.4000]" "(88.00000, 197.1000]" );
   label = "Glucose";
   ID = "Glucose";
}

node BloodPressure {
   states = ("(-0.000, 44.0000]" "(44.000, 72.8000]" );
   label = "BloodPressure";
   ID = "BloodPressure";
}

node SkinThickness {
   states = ("(-0.0000, 16.4000]" "(16.000, 59.0000]" );
   label = "SkinThickness";
   ID = "SkinThickness";
}

node Insulin {
   states = ("(-0.00000, 131.9000]" "(131.00000, 465.8000]" );
   label = "Insulin";
   ID = "Insulin";
}

node BMI {
   states = ("(1.000, 27.0000]" "(27.000, 47.1000]" "(47.000, 65.0000]" );
   label = "BMI";
   ID = "BMI";
}

node DiabetesPedigreeFunction {
   states = ("(0.00, 1.0000]" "(0.0000, 0.2000]" );
   label = "DiabetesPedigreeFunction";
   ID = "DiabetesPedigreeFunction";
}

node Age {
   states = ("(22.5999, 29.2000]" "(29.000, 64.0000]" );
   label = "Age";
   ID = "Age";
}

node Diabetes? {
   states = (No Yes );
   label = "Diabetes?";
   ID = "Diabetes?";
}

potential ( Pregnancies | Glucose   ) {
   data = 
   ((   0.998952   0.00104822)   % Glucose="(29.0000, 88.4000]"   
   (   0.907407   0.0925926));   % Glucose="(88.00000, 197.1000]"   
}

potential ( Glucose | Diabetes?   Insulin   BMI   SkinThickness   ) {
   data = 
   (((((   0.939538   0.0604616)   % Diabetes?=No   Insulin="(-0.00000, 131.9000]"   BMI="(1.000, 27.0000]"   SkinThickness="(-0.0000, 16.4000]"   
   (   0.000335796   0.999664))   % Diabetes?=Yes   Insulin="(-0.00000, 131.9000]"   BMI="(1.000, 27.0000]"   SkinThickness="(-0.0000, 16.4000]"   
   ((   0.999257   0.000742942)   % Diabetes?=No   Insulin="(131.00000, 465.8000]"   BMI="(1.000, 27.0000]"   SkinThickness="(-0.0000, 16.4000]"   
   (   0.5   0.5)))   % Diabetes?=Yes   Insulin="(131.00000, 465.8000]"   BMI="(1.000, 27.0000]"   SkinThickness="(-0.0000, 16.4000]"   
   (((   0.998778   0.00122249)   % Diabetes?=No   Insulin="(-0.00000, 131.9000]"   BMI="(27.000, 47.1000]"   SkinThickness="(-0.0000, 16.4000]"   
   (   0.999733   0.000266951))   % Diabetes?=Yes   Insulin="(-0.00000, 131.9000]"   BMI="(27.000, 47.1000]"   SkinThickness="(-0.0000, 16.4000]"   
   ((   0.5   0.5)   % Diabetes?=No   Insulin="(131.00000, 465.8000]"   BMI="(27.000, 47.1000]"   SkinThickness="(-0.0000, 16.4000]"   
   (   0.5   0.5)))   % Diabetes?=Yes   Insulin="(131.00000, 465.8000]"   BMI="(27.000, 47.1000]"   SkinThickness="(-0.0000, 16.4000]"   
   (((   0.5   0.5)   % Diabetes?=No   Insulin="(-0.00000, 131.9000]"   BMI="(47.000, 65.0000]"   SkinThickness="(-0.0000, 16.4000]"   
   (   0.997409   0.00259067))   % Diabetes?=Yes   Insulin="(-0.00000, 131.9000]"   BMI="(47.000, 65.0000]"   SkinThickness="(-0.0000, 16.4000]"   
   ((   0.5   0.5)   % Diabetes?=No   Insulin="(131.00000, 465.8000]"   BMI="(47.000, 65.0000]"   SkinThickness="(-0.0000, 16.4000]"   
   (   0.5   0.5))))   % Diabetes?=Yes   Insulin="(131.00000, 465.8000]"   BMI="(47.000, 65.0000]"   SkinThickness="(-0.0000, 16.4000]"   
   ((((   0.999283   0.00071736)   % Diabetes?=No   Insulin="(-0.00000, 131.9000]"   BMI="(1.000, 27.0000]"   SkinThickness="(16.000, 59.0000]"   
   (   0.5   0.5))   % Diabetes?=Yes   Insulin="(-0.00000, 131.9000]"   BMI="(1.000, 27.0000]"   SkinThickness="(16.000, 59.0000]"   
   ((   0.5   0.5)   % Diabetes?=No   Insulin="(131.00000, 465.8000]"   BMI="(1.000, 27.0000]"   SkinThickness="(16.000, 59.0000]"   
   (   0.5   0.5)))   % Diabetes?=Yes   Insulin="(131.00000, 465.8000]"   BMI="(1.000, 27.0000]"   SkinThickness="(16.000, 59.0000]"   
   (((   0.5   0.5)   % Diabetes?=No   Insulin="(-0.00000, 131.9000]"   BMI="(27.000, 47.1000]"   SkinThickness="(16.000, 59.0000]"   
   (   0.5   0.5))   % Diabetes?=Yes   Insulin="(-0.00000, 131.9000]"   BMI="(27.000, 47.1000]"   SkinThickness="(16.000, 59.0000]"   
   ((   0.5   0.5)   % Diabetes?=No   Insulin="(131.00000, 465.8000]"   BMI="(27.000, 47.1000]"   SkinThickness="(16.000, 59.0000]"   
   (   0.5   0.5)))   % Diabetes?=Yes   Insulin="(131.00000, 465.8000]"   BMI="(27.000, 47.1000]"   SkinThickness="(16.000, 59.0000]"   
   (((   0.5   0.5)   % Diabetes?=No   Insulin="(-0.00000, 131.9000]"   BMI="(47.000, 65.0000]"   SkinThickness="(16.000, 59.0000]"   
   (   0.5   0.5))   % Diabetes?=Yes   Insulin="(-0.00000, 131.9000]"   BMI="(47.000, 65.0000]"   SkinThickness="(16.000, 59.0000]"   
   ((   0.5   0.5)   % Diabetes?=No   Insulin="(131.00000, 465.8000]"   BMI="(47.000, 65.0000]"   SkinThickness="(16.000, 59.0000]"   
   (   0.5   0.5)))));   % Diabetes?=Yes   Insulin="(131.00000, 465.8000]"   BMI="(47.000, 65.0000]"   SkinThickness="(16.000, 59.0000]"   
}

potential ( BloodPressure | Diabetes?   Insulin   SkinThickness   BMI   Glucose   Age   ) {
   data = 
   (((((((   0.782014   0.217986)   % Diabetes?=No   Insulin="(-0.00000, 131.9000]"   SkinThickness="(-0.0000, 16.4000]"   BMI="(1.000, 27.0000]"   Glucose="(29.0000, 88.4000]"   Age="(22.5999, 29.2000]"   
   (   0.5   0.5))   % Diabetes?=Yes   Insulin="(-0.00000, 131.9000]"   SkinThickness="(-0.0000, 16.4000]"   BMI="(1.000, 27.0000]"   Glucose="(29.0000, 88.4000]"   Age="(22.5999, 29.2000]"   
   ((   0.999814   0.000185943)   % Diabetes?=No   Insulin="(131.00000, 465.8000]"   SkinThickness="(-0.0000, 16.4000]"   BMI="(1.000, 27.0000]"   Glucose="(29.0000, 88.4000]"   Age="(22.5999, 29.2000]"   
   (   0.5   0.5)))   % Diabetes?=Yes   Insulin="(131.00000, 465.8000]"   SkinThickness="(-0.0000, 16.4000]"   BMI="(1.000, 27.0000]"   Glucose="(29.0000, 88.4000]"   Age="(22.5999, 29.2000]"   
   (((   0.99982   0.000179533)   % Diabetes?=No   Insulin="(-0.00000, 131.9000]"   SkinThickness="(16.000, 59.0000]"   BMI="(1.000, 27.0000]"   Glucose="(29.0000, 88.4000]"   Age="(22.5999, 29.2000]"   
   (   0.5   0.5))   % Diabetes?=Yes   Insulin="(-0.00000, 131.9000]"   SkinThickness="(16.000, 59.0000]"   BMI="(1.000, 27.0000]"   Glucose="(29.0000, 88.4000]"   Age="(22.5999, 29.2000]"   
   ((   0.5   0.5)   % Diabetes?=No   Insulin="(131.00000, 465.8000]"   SkinThickness="(16.000, 59.0000]"   BMI="(1.000, 27.0000]"   Glucose="(29.0000, 88.4000]"   Age="(22.5999, 29.2000]"   
   (   0.5   0.5))))   % Diabetes?=Yes   Insulin="(131.00000, 465.8000]"   SkinThickness="(16.000, 59.0000]"   BMI="(1.000, 27.0000]"   Glucose="(29.0000, 88.4000]"   Age="(22.5999, 29.2000]"   
   ((((   0.999694   0.000306185)   % Diabetes?=No   Insulin="(-0.00000, 131.9000]"   SkinThickness="(-0.0000, 16.4000]"   BMI="(27.000, 47.1000]"   Glucose="(29.0000, 88.4000]"   Age="(22.5999, 29.2000]"   
   (   0.999894   0.00010627))   % Diabetes?=Yes   Insulin="(-0.00000, 131.9000]"   SkinThickness="(-0.0000, 16.4000]"   BMI="(27.000, 47.1000]"   Glucose="(29.0000, 88.4000]"   Age="(22.5999, 29.2000]"   
   ((   0.5   0.5)   % Diabetes?=No   Insulin="(131.00000, 465.8000]"   SkinThickness="(-0.0000, 16.4000]"   BMI="(27.000, 47.1000]"   Glucose="(29.0000, 88.4000]"   Age="(22.5999, 29.2000]"   
   (   0.5   0.5)))   % Diabetes?=Yes   Insulin="(131.00000, 465.8000]"   SkinThickness="(-0.0000, 16.4000]"   BMI="(27.000, 47.1000]"   Glucose="(29.0000, 88.4000]"   Age="(22.5999, 29.2000]"   
   (((   0.5   0.5)   % Diabetes?=No   Insulin="(-0.00000, 131.9000]"   SkinThickness="(16.000, 59.0000]"   BMI="(27.000, 47.1000]"   Glucose="(29.0000, 88.4000]"   Age="(22.5999, 29.2000]"   
   (   0.5   0.5))   % Diabetes?=Yes   Insulin="(-0.00000, 131.9000]"   SkinThickness="(16.000, 59.0000]"   BMI="(27.000, 47.1000]"   Glucose="(29.0000, 88.4000]"   Age="(22.5999, 29.2000]"   
   ((   0.5   0.5)   % Diabetes?=No   Insulin="(131.00000, 465.8000]"   SkinThickness="(16.000, 59.0000]"   BMI="(27.000, 47.1000]"   Glucose="(29.0000, 88.4000]"   Age="(22.5999, 29.2000]"   
   (   0.5   0.5))))   % Diabetes?=Yes   Insulin="(131.00000, 465.8000]"   SkinThickness="(16.000, 59.0000]"   BMI="(27.000, 47.1000]"   Glucose="(29.0000, 88.4000]"   Age="(22.5999, 29.2000]"   
   ((((   0.5   0.5)   % Diabetes?=No   Insulin="(-0.00000, 131.9000]"   SkinThickness="(-0.0000, 16.4000]"   BMI="(47.000, 65.0000]"   Glucose="(29.0000, 88.4000]"   Age="(22.5999, 29.2000]"   
   (   0.99935   0.000650195))   % Diabetes?=Yes   Insulin="(-0.00000, 131.9000]"   SkinThickness="(-0.0000, 16.4000]"   BMI="(47.000, 65.0000]"   Glucose="(29.0000, 88.4000]"   Age="(22.5999, 29.2000]"   
   ((   0.5   0.5)   % Diabetes?=No   Insulin="(131.00000, 465.8000]"   SkinThickness="(-0.0000, 16.4000]"   BMI="(47.000, 65.0000]"   Glucose="(29.0000, 88.4000]"   Age="(22.5999, 29.2000]"   
   (   0.5   0.5)))   % Diabetes?=Yes   Insulin="(131.00000, 465.8000]"   SkinThickness="(-0.0000, 16.4000]"   BMI="(47.000, 65.0000]"   Glucose="(29.0000, 88.4000]"   Age="(22.5999, 29.2000]"   
   (((   0.5   0.5)   % Diabetes?=No   Insulin="(-0.00000, 131.9000]"   SkinThickness="(16.000, 59.0000]"   BMI="(47.000, 65.0000]"   Glucose="(29.0000, 88.4000]"   Age="(22.5999, 29.2000]"   
   (   0.5   0.5))   % Diabetes?=Yes   Insulin="(-0.00000, 131.9000]"   SkinThickness="(16.000, 59.0000]"   BMI="(47.000, 65.0000]"   Glucose="(29.0000, 88.4000]"   Age="(22.5999, 29.2000]"   
   ((   0.5   0.5)   % Diabetes?=No   Insulin="(131.00000, 465.8000]"   SkinThickness="(16.000, 59.0000]"   BMI="(47.000, 65.0000]"   Glucose="(29.0000, 88.4000]"   Age="(22.5999, 29.2000]"   
   (   0.5   0.5)))))   % Diabetes?=Yes   Insulin="(131.00000, 465.8000]"   SkinThickness="(16.000, 59.0000]"   BMI="(47.000, 65.0000]"   Glucose="(29.0000, 88.4000]"   Age="(22.5999, 29.2000]"   
   (((((   0.99896   0.0010395)   % Diabetes?=No   Insulin="(-0.00000, 131.9000]"   SkinThickness="(-0.0000, 16.4000]"   BMI="(1.000, 27.0000]"   Glucose="(88.00000, 197.1000]"   Age="(22.5999, 29.2000]"   
   (   0.999916   8.39913e-05))   % Diabetes?=Yes   Insulin="(-0.00000, 131.9000]"   SkinThickness="(-0.0000, 16.4000]"   BMI="(1.000, 27.0000]"   Glucose="(88.00000, 197.1000]"   Age="(22.5999, 29.2000]"   
   ((   0.5   0.5)   % Diabetes?=No   Insulin="(131.00000, 465.8000]"   SkinThickness="(-0.0000, 16.4000]"   BMI="(1.000, 27.0000]"   Glucose="(88.00000, 197.1000]"   Age="(22.5999, 29.2000]"   
   (   0.5   0.5)))   % Diabetes?=Yes   Insulin="(131.00000, 465.8000]"   SkinThickness="(-0.0000, 16.4000]"   BMI="(1.000, 27.0000]"   Glucose="(88.00000, 197.1000]"   Age="(22.5999, 29.2000]"   
   (((   0.5   0.5)   % Diabetes?=No   Insulin="(-0.00000, 131.9000]"   SkinThickness="(16.000, 59.0000]"   BMI="(1.000, 27.0000]"   Glucose="(88.00000, 197.1000]"   Age="(22.5999, 29.2000]"   
   (   0.5   0.5))   % Diabetes?=Yes   Insulin="(-0.00000, 131.9000]"   SkinThickness="(16.000, 59.0000]"   BMI="(1.000, 27.0000]"   Glucose="(88.00000, 197.1000]"   Age="(22.5999, 29.2000]"   
   ((   0.5   0.5)   % Diabetes?=No   Insulin="(131.00000, 465.8000]"   SkinThickness="(16.000, 59.0000]"   BMI="(1.000, 27.0000]"   Glucose="(88.00000, 197.1000]"   Age="(22.5999, 29.2000]"   
   (   0.5   0.5))))   % Diabetes?=Yes   Insulin="(131.00000, 465.8000]"   SkinThickness="(16.000, 59.0000]"   BMI="(1.000, 27.0000]"   Glucose="(88.00000, 197.1000]"   Age="(22.5999, 29.2000]"   
   ((((   0.5   0.5)   % Diabetes?=No   Insulin="(-0.00000, 131.9000]"   SkinThickness="(-0.0000, 16.4000]"   BMI="(27.000, 47.1000]"   Glucose="(88.00000, 197.1000]"   Age="(22.5999, 29.2000]"   
   (   0.5   0.5))   % Diabetes?=Yes   Insulin="(-0.00000, 131.9000]"   SkinThickness="(-0.0000, 16.4000]"   BMI="(27.000, 47.1000]"   Glucose="(88.00000, 197.1000]"   Age="(22.5999, 29.2000]"   
   ((   0.5   0.5)   % Diabetes?=No   Insulin="(131.00000, 465.8000]"   SkinThickness="(-0.0000, 16.4000]"   BMI="(27.000, 47.1000]"   Glucose="(88.00000, 197.1000]"   Age="(22.5999, 29.2000]"   
   (   0.5   0.5)))   % Diabetes?=Yes   Insulin="(131.00000, 465.8000]"   SkinThickness="(-0.0000, 16.4000]"   BMI="(27.000, 47.1000]"   Glucose="(88.00000, 197.1000]"   Age="(22.5999, 29.2000]"   
   (((   0.5   0.5)   % Diabetes?=No   Insulin="(-0.00000, 131.9000]"   SkinThickness="(16.000, 59.0000]"   BMI="(27.000, 47.1000]"   Glucose="(88.00000, 197.1000]"   Age="(22.5999, 29.2000]"   
   (   0.5   0.5))   % Diabetes?=Yes   Insulin="(-0.00000, 131.9000]"   SkinThickness="(16.000, 59.0000]"   BMI="(27.000, 47.1000]"   Glucose="(88.00000, 197.1000]"   Age="(22.5999, 29.2000]"   
   ((   0.5   0.5)   % Diabetes?=No   Insulin="(131.00000, 465.8000]"   SkinThickness="(16.000, 59.0000]"   BMI="(27.000, 47.1000]"   Glucose="(88.00000, 197.1000]"   Age="(22.5999, 29.2000]"   
   (   0.5   0.5))))   % Diabetes?=Yes   Insulin="(131.00000, 465.8000]"   SkinThickness="(16.000, 59.0000]"   BMI="(27.000, 47.1000]"   Glucose="(88.00000, 197.1000]"   Age="(22.5999, 29.2000]"   
   ((((   0.5   0.5)   % Diabetes?=No   Insulin="(-0.00000, 131.9000]"   SkinThickness="(-0.0000, 16.4000]"   BMI="(47.000, 65.0000]"   Glucose="(88.00000, 197.1000]"   Age="(22.5999, 29.2000]"   
   (   0.5   0.5))   % Diabetes?=Yes   Insulin="(-0.00000, 131.9000]"   SkinThickness="(-0.0000, 16.4000]"   BMI="(47.000, 65.0000]"   Glucose="(88.00000, 197.1000]"   Age="(22.5999, 29.2000]"   
   ((   0.5   0.5)   % Diabetes?=No   Insulin="(131.00000, 465.8000]"   SkinThickness="(-0.0000, 16.4000]"   BMI="(47.000, 65.0000]"   Glucose="(88.00000, 197.1000]"   Age="(22.5999, 29.2000]"   
   (   0.5   0.5)))   % Diabetes?=Yes   Insulin="(131.00000, 465.8000]"   SkinThickness="(-0.0000, 16.4000]"   BMI="(47.000, 65.0000]"   Glucose="(88.00000, 197.1000]"   Age="(22.5999, 29.2000]"   
   (((   0.5   0.5)   % Diabetes?=No   Insulin="(-0.00000, 131.9000]"   SkinThickness="(16.000, 59.0000]"   BMI="(47.000, 65.0000]"   Glucose="(88.00000, 197.1000]"   Age="(22.5999, 29.2000]"   
   (   0.5   0.5))   % Diabetes?=Yes   Insulin="(-0.00000, 131.9000]"   SkinThickness="(16.000, 59.0000]"   BMI="(47.000, 65.0000]"   Glucose="(88.00000, 197.1000]"   Age="(22.5999, 29.2000]"   
   ((   0.5   0.5)   % Diabetes?=No   Insulin="(131.00000, 465.8000]"   SkinThickness="(16.000, 59.0000]"   BMI="(47.000, 65.0000]"   Glucose="(88.00000, 197.1000]"   Age="(22.5999, 29.2000]"   
   (   0.5   0.5))))))   % Diabetes?=Yes   Insulin="(131.00000, 465.8000]"   SkinThickness="(16.000, 59.0000]"   BMI="(47.000, 65.0000]"   Glucose="(88.00000, 197.1000]"   Age="(22.5999, 29.2000]"   
   ((((((   0.5   0.5)   % Diabetes?=No   Insulin="(-0.00000, 131.9000]"   SkinThickness="(-0.0000, 16.4000]"   BMI="(1.000, 27.0000]"   Glucose="(29.0000, 88.4000]"   Age="(29.000, 64.0000]"   
   (   0.5   0.5))   % Diabetes?=Yes   Insulin="(-0.00000, 131.9000]"   SkinThickness="(-0.0000, 16.4000]"   BMI="(1.000, 27.0000]"   Glucose="(29.0000, 88.4000]"   Age="(29.000, 64.0000]"   
   ((   0.5   0.5)   % Diabetes?=No   Insulin="(131.00000, 465.8000]"   SkinThickness="(-0.0000, 16.4000]"   BMI="(1.000, 27.0000]"   Glucose="(29.0000, 88.4000]"   Age="(29.000, 64.0000]"   
   (   0.5   0.5)))   % Diabetes?=Yes   Insulin="(131.00000, 465.8000]"   SkinThickness="(-0.0000, 16.4000]"   BMI="(1.000, 27.0000]"   Glucose="(29.0000, 88.4000]"   Age="(29.000, 64.0000]"   
   (((   0.5   0.5)   % Diabetes?=No   Insulin="(-0.00000, 131.9000]"   SkinThickness="(16.000, 59.0000]"   BMI="(1.000, 27.0000]"   Glucose="(29.0000, 88.4000]"   Age="(29.000, 64.0000]"   
   (   0.5   0.5))   % Diabetes?=Yes   Insulin="(-0.00000, 131.9000]"   SkinThickness="(16.000, 59.0000]"   BMI="(1.000, 27.0000]"   Glucose="(29.0000, 88.4000]"   Age="(29.000, 64.0000]"   
   ((   0.5   0.5)   % Diabetes?=No   Insulin="(131.00000, 465.8000]"   SkinThickness="(16.000, 59.0000]"   BMI="(1.000, 27.0000]"   Glucose="(29.0000, 88.4000]"   Age="(29.000, 64.0000]"   
   (   0.5   0.5))))   % Diabetes?=Yes   Insulin="(131.00000, 465.8000]"   SkinThickness="(16.000, 59.0000]"   BMI="(1.000, 27.0000]"   Glucose="(29.0000, 88.4000]"   Age="(29.000, 64.0000]"   
   ((((   0.5   0.5)   % Diabetes?=No   Insulin="(-0.00000, 131.9000]"   SkinThickness="(-0.0000, 16.4000]"   BMI="(27.000, 47.1000]"   Glucose="(29.0000, 88.4000]"   Age="(29.000, 64.0000]"   
   (   0.99982   0.000179533))   % Diabetes?=Yes   Insulin="(-0.00000, 131.9000]"   SkinThickness="(-0.0000, 16.4000]"   BMI="(27.000, 47.1000]"   Glucose="(29.0000, 88.4000]"   Age="(29.000, 64.0000]"   
   ((   0.5   0.5)   % Diabetes?=No   Insulin="(131.00000, 465.8000]"   SkinThickness="(-0.0000, 16.4000]"   BMI="(27.000, 47.1000]"   Glucose="(29.0000, 88.4000]"   Age="(29.000, 64.0000]"   
   (   0.5   0.5)))   % Diabetes?=Yes   Insulin="(131.00000, 465.8000]"   SkinThickness="(-0.0000, 16.4000]"   BMI="(27.000, 47.1000]"   Glucose="(29.0000, 88.4000]"   Age="(29.000, 64.0000]"   
   (((   0.5   0.5)   % Diabetes?=No   Insulin="(-0.00000, 131.9000]"   SkinThickness="(16.000, 59.0000]"   BMI="(27.000, 47.1000]"   Glucose="(29.0000, 88.4000]"   Age="(29.000, 64.0000]"   
   (   0.5   0.5))   % Diabetes?=Yes   Insulin="(-0.00000, 131.9000]"   SkinThickness="(16.000, 59.0000]"   BMI="(27.000, 47.1000]"   Glucose="(29.0000, 88.4000]"   Age="(29.000, 64.0000]"   
   ((   0.5   0.5)   % Diabetes?=No   Insulin="(131.00000, 465.8000]"   SkinThickness="(16.000, 59.0000]"   BMI="(27.000, 47.1000]"   Glucose="(29.0000, 88.4000]"   Age="(29.000, 64.0000]"   
   (   0.5   0.5))))   % Diabetes?=Yes   Insulin="(131.00000, 465.8000]"   SkinThickness="(16.000, 59.0000]"   BMI="(27.000, 47.1000]"   Glucose="(29.0000, 88.4000]"   Age="(29.000, 64.0000]"   
   ((((   0.5   0.5)   % Diabetes?=No   Insulin="(-0.00000, 131.9000]"   SkinThickness="(-0.0000, 16.4000]"   BMI="(47.000, 65.0000]"   Glucose="(29.0000, 88.4000]"   Age="(29.000, 64.0000]"   
   (   0.5   0.5))   % Diabetes?=Yes   Insulin="(-0.00000, 131.9000]"   SkinThickness="(-0.0000, 16.4000]"   BMI="(47.000, 65.0000]"   Glucose="(29.0000, 88.4000]"   Age="(29.000, 64.0000]"   
   ((   0.5   0.5)   % Diabetes?=No   Insulin="(131.00000, 465.8000]"   SkinThickness="(-0.0000, 16.4000]"   BMI="(47.000, 65.0000]"   Glucose="(29.0000, 88.4000]"   Age="(29.000, 64.0000]"   
   (   0.5   0.5)))   % Diabetes?=Yes   Insulin="(131.00000, 465.8000]"   SkinThickness="(-0.0000, 16.4000]"   BMI="(47.000, 65.0000]"   Glucose="(29.0000, 88.4000]"   Age="(29.000, 64.0000]"   
   (((   0.5   0.5)   % Diabetes?=No   Insulin="(-0.00000, 131.9000]"   SkinThickness="(16.000, 59.0000]"   BMI="(47.000, 65.0000]"   Glucose="(29.0000, 88.4000]"   Age="(29.000, 64.0000]"   
   (   0.5   0.5))   % Diabetes?=Yes   Insulin="(-0.00000, 131.9000]"   SkinThickness="(16.000, 59.0000]"   BMI="(47.000, 65.0000]"   Glucose="(29.0000, 88.4000]"   Age="(29.000, 64.0000]"   
   ((   0.5   0.5)   % Diabetes?=No   Insulin="(131.00000, 465.8000]"   SkinThickness="(16.000, 59.0000]"   BMI="(47.000, 65.0000]"   Glucose="(29.0000, 88.4000]"   Age="(29.000, 64.0000]"   
   (   0.5   0.5)))))   % Diabetes?=Yes   Insulin="(131.00000, 465.8000]"   SkinThickness="(16.000, 59.0000]"   BMI="(47.000, 65.0000]"   Glucose="(29.0000, 88.4000]"   Age="(29.000, 64.0000]"   
   (((((   0.5   0.5)   % Diabetes?=No   Insulin="(-0.00000, 131.9000]"   SkinThickness="(-0.0000, 16.4000]"   BMI="(1.000, 27.0000]"   Glucose="(88.00000, 197.1000]"   Age="(29.000, 64.0000]"   
   (   0.5   0.5))   % Diabetes?=Yes   Insulin="(-0.00000, 131.9000]"   SkinThickness="(-0.0000, 16.4000]"   BMI="(1.000, 27.0000]"   Glucose="(88.00000, 197.1000]"   Age="(29.000, 64.0000]"   
   ((   0.5   0.5)   % Diabetes?=No   Insulin="(131.00000, 465.8000]"   SkinThickness="(-0.0000, 16.4000]"   BMI="(1.000, 27.0000]"   Glucose="(88.00000, 197.1000]"   Age="(29.000, 64.0000]"   
   (   0.5   0.5)))   % Diabetes?=Yes   Insulin="(131.00000, 465.8000]"   SkinThickness="(-0.0000, 16.4000]"   BMI="(1.000, 27.0000]"   Glucose="(88.00000, 197.1000]"   Age="(29.000, 64.0000]"   
   (((   0.5   0.5)   % Diabetes?=No   Insulin="(-0.00000, 131.9000]"   SkinThickness="(16.000, 59.0000]"   BMI="(1.000, 27.0000]"   Glucose="(88.00000, 197.1000]"   Age="(29.000, 64.0000]"   
   (   0.5   0.5))   % Diabetes?=Yes   Insulin="(-0.00000, 131.9000]"   SkinThickness="(16.000, 59.0000]"   BMI="(1.000, 27.0000]"   Glucose="(88.00000, 197.1000]"   Age="(29.000, 64.0000]"   
   ((   0.5   0.5)   % Diabetes?=No   Insulin="(131.00000, 465.8000]"   SkinThickness="(16.000, 59.0000]"   BMI="(1.000, 27.0000]"   Glucose="(88.00000, 197.1000]"   Age="(29.000, 64.0000]"   
   (   0.5   0.5))))   % Diabetes?=Yes   Insulin="(131.00000, 465.8000]"   SkinThickness="(16.000, 59.0000]"   BMI="(1.000, 27.0000]"   Glucose="(88.00000, 197.1000]"   Age="(29.000, 64.0000]"   
   ((((   0.5   0.5)   % Diabetes?=No   Insulin="(-0.00000, 131.9000]"   SkinThickness="(-0.0000, 16.4000]"   BMI="(27.000, 47.1000]"   Glucose="(88.00000, 197.1000]"   Age="(29.000, 64.0000]"   
   (   0.5   0.5))   % Diabetes?=Yes   Insulin="(-0.00000, 131.9000]"   SkinThickness="(-0.0000, 16.4000]"   BMI="(27.000, 47.1000]"   Glucose="(88.00000, 197.1000]"   Age="(29.000, 64.0000]"   
   ((   0.5   0.5)   % Diabetes?=No   Insulin="(131.00000, 465.8000]"   SkinThickness="(-0.0000, 16.4000]"   BMI="(27.000, 47.1000]"   Glucose="(88.00000, 197.1000]"   Age="(29.000, 64.0000]"   
   (   0.5   0.5)))   % Diabetes?=Yes   Insulin="(131.00000, 465.8000]"   SkinThickness="(-0.0000, 16.4000]"   BMI="(27.000, 47.1000]"   Glucose="(88.00000, 197.1000]"   Age="(29.000, 64.0000]"   
   (((   0.5   0.5)   % Diabetes?=No   Insulin="(-0.00000, 131.9000]"   SkinThickness="(16.000, 59.0000]"   BMI="(27.000, 47.1000]"   Glucose="(88.00000, 197.1000]"   Age="(29.000, 64.0000]"   
   (   0.5   0.5))   % Diabetes?=Yes   Insulin="(-0.00000, 131.9000]"   SkinThickness="(16.000, 59.0000]"   BMI="(27.000, 47.1000]"   Glucose="(88.00000, 197.1000]"   Age="(29.000, 64.0000]"   
   ((   0.5   0.5)   % Diabetes?=No   Insulin="(131.00000, 465.8000]"   SkinThickness="(16.000, 59.0000]"   BMI="(27.000, 47.1000]"   Glucose="(88.00000, 197.1000]"   Age="(29.000, 64.0000]"   
   (   0.5   0.5))))   % Diabetes?=Yes   Insulin="(131.00000, 465.8000]"   SkinThickness="(16.000, 59.0000]"   BMI="(27.000, 47.1000]"   Glucose="(88.00000, 197.1000]"   Age="(29.000, 64.0000]"   
   ((((   0.5   0.5)   % Diabetes?=No   Insulin="(-0.00000, 131.9000]"   SkinThickness="(-0.0000, 16.4000]"   BMI="(47.000, 65.0000]"   Glucose="(88.00000, 197.1000]"   Age="(29.000, 64.0000]"   
   (   0.5   0.5))   % Diabetes?=Yes   Insulin="(-0.00000, 131.9000]"   SkinThickness="(-0.0000, 16.4000]"   BMI="(47.000, 65.0000]"   Glucose="(88.00000, 197.1000]"   Age="(29.000, 64.0000]"   
   ((   0.5   0.5)   % Diabetes?=No   Insulin="(131.00000, 465.8000]"   SkinThickness="(-0.0000, 16.4000]"   BMI="(47.000, 65.0000]"   Glucose="(88.00000, 197.1000]"   Age="(29.000, 64.0000]"   
   (   0.5   0.5)))   % Diabetes?=Yes   Insulin="(131.00000, 465.8000]"   SkinThickness="(-0.0000, 16.4000]"   BMI="(47.000, 65.0000]"   Glucose="(88.00000, 197.1000]"   Age="(29.000, 64.0000]"   
   (((   0.5   0.5)   % Diabetes?=No   Insulin="(-0.00000, 131.9000]"   SkinThickness="(16.000, 59.0000]"   BMI="(47.000, 65.0000]"   Glucose="(88.00000, 197.1000]"   Age="(29.000, 64.0000]"   
   (   0.5   0.5))   % Diabetes?=Yes   Insulin="(-0.00000, 131.9000]"   SkinThickness="(16.000, 59.0000]"   BMI="(47.000, 65.0000]"   Glucose="(88.00000, 197.1000]"   Age="(29.000, 64.0000]"   
   ((   0.5   0.5)   % Diabetes?=No   Insulin="(131.00000, 465.8000]"   SkinThickness="(16.000, 59.0000]"   BMI="(47.000, 65.0000]"   Glucose="(88.00000, 197.1000]"   Age="(29.000, 64.0000]"   
   (   0.5   0.5)))))));   % Diabetes?=Yes   Insulin="(131.00000, 465.8000]"   SkinThickness="(16.000, 59.0000]"   BMI="(47.000, 65.0000]"   Glucose="(88.00000, 197.1000]"   Age="(29.000, 64.0000]"   
}

potential (SkinThickness) {
   data = (  0.903595 0.0964052);
}

potential ( Insulin | SkinThickness   Diabetes?   ) {
   data = 
   (((   0.780702   0.219298)   % SkinThickness="(-0.0000, 16.4000]"   Diabetes?=No   
   (   0.995726   0.0042735))   % SkinThickness="(16.000, 59.0000]"   Diabetes?=No   
   ((   0.999157   0.00084317)   % SkinThickness="(-0.0000, 16.4000]"   Diabetes?=Yes   
   (   0.5   0.5)));   % SkinThickness="(16.000, 59.0000]"   Diabetes?=Yes   
}

potential ( BMI | Diabetes?   DiabetesPedigreeFunction   Insulin   SkinThickness   ) {
   data = 
   (((((   0.333333   0.333333   0.333333)   % Diabetes?=No   DiabetesPedigreeFunction="(0.00, 1.0000]"   Insulin="(-0.00000, 131.9000]"   SkinThickness="(-0.0000, 16.4000]"   
   (   0.000297354   0.999405   0.000297354))   % Diabetes?=Yes   DiabetesPedigreeFunction="(0.00, 1.0000]"   Insulin="(-0.00000, 131.9000]"   SkinThickness="(-0.0000, 16.4000]"   
   ((   0.82969   0.170102   0.000208203)   % Diabetes?=No   DiabetesPedigreeFunction="(0.0000, 0.2000]"   Insulin="(-0.00000, 131.9000]"   SkinThickness="(-0.0000, 16.4000]"   
   (   0.794502   0.102749   0.102749)))   % Diabetes?=Yes   DiabetesPedigreeFunction="(0.0000, 0.2000]"   Insulin="(-0.00000, 131.9000]"   SkinThickness="(-0.0000, 16.4000]"   
   (((   0.333333   0.333333   0.333333)   % Diabetes?=No   DiabetesPedigreeFunction="(0.00, 1.0000]"   Insulin="(131.00000, 465.8000]"   SkinThickness="(-0.0000, 16.4000]"   
   (   0.333333   0.333333   0.333333))   % Diabetes?=Yes   DiabetesPedigreeFunction="(0.00, 1.0000]"   Insulin="(131.00000, 465.8000]"   SkinThickness="(-0.0000, 16.4000]"   
   ((   0.998515   0.00074239   0.00074239)   % Diabetes?=No   DiabetesPedigreeFunction="(0.0000, 0.2000]"   Insulin="(131.00000, 465.8000]"   SkinThickness="(-0.0000, 16.4000]"   
   (   0.333333   0.333333   0.333333))))   % Diabetes?=Yes   DiabetesPedigreeFunction="(0.0000, 0.2000]"   Insulin="(131.00000, 465.8000]"   SkinThickness="(-0.0000, 16.4000]"   
   ((((   0.333333   0.333333   0.333333)   % Diabetes?=No   DiabetesPedigreeFunction="(0.00, 1.0000]"   Insulin="(-0.00000, 131.9000]"   SkinThickness="(16.000, 59.0000]"   
   (   0.333333   0.333333   0.333333))   % Diabetes?=Yes   DiabetesPedigreeFunction="(0.00, 1.0000]"   Insulin="(-0.00000, 131.9000]"   SkinThickness="(16.000, 59.0000]"   
   ((   0.998566   0.000716846   0.000716846)   % Diabetes?=No   DiabetesPedigreeFunction="(0.0000, 0.2000]"   Insulin="(-0.00000, 131.9000]"   SkinThickness="(16.000, 59.0000]"   
   (   0.333333   0.333333   0.333333)))   % Diabetes?=Yes   DiabetesPedigreeFunction="(0.0000, 0.2000]"   Insulin="(-0.00000, 131.9000]"   SkinThickness="(16.000, 59.0000]"   
   (((   0.333333   0.333333   0.333333)   % Diabetes?=No   DiabetesPedigreeFunction="(0.00, 1.0000]"   Insulin="(131.00000, 465.8000]"   SkinThickness="(16.000, 59.0000]"   
   (   0.333333   0.333333   0.333333))   % Diabetes?=Yes   DiabetesPedigreeFunction="(0.00, 1.0000]"   Insulin="(131.00000, 465.8000]"   SkinThickness="(16.000, 59.0000]"   
   ((   0.333333   0.333333   0.333333)   % Diabetes?=No   DiabetesPedigreeFunction="(0.0000, 0.2000]"   Insulin="(131.00000, 465.8000]"   SkinThickness="(16.000, 59.0000]"   
   (   0.333333   0.333333   0.333333)))));   % Diabetes?=Yes   DiabetesPedigreeFunction="(0.0000, 0.2000]"   Insulin="(131.00000, 465.8000]"   SkinThickness="(16.000, 59.0000]"   
}

potential ( DiabetesPedigreeFunction | Diabetes?   ) {
   data = 
   ((   0.0015873   0.998413)   % Diabetes?=No   
   (   0.473064   0.526936));   % Diabetes?=Yes   
}

potential ( Age | DiabetesPedigreeFunction   ) {
   data = 
   ((   0.585106   0.414894)   % DiabetesPedigreeFunction="(0.00, 1.0000]"   
   (   0.998938   0.00106157));   % DiabetesPedigreeFunction="(0.0000, 0.2000]"   
}

potential ( Diabetes? | SkinThickness   ) {
   data = 
   ((   0.463834   0.536166)   % SkinThickness="(-0.0000, 16.4000]"   
   (   0.991525   0.00847458));   % SkinThickness="(16.000, 59.0000]"   
}


