
net {
  name = unnamedBN;
  software = "aGrUM 0.17.0";
  node_size = (50 50);
}

node Pregnancies {
   states = ("(0.0000, 15.0000]" "(15.0000, 16.9000]" );
   label = "Pregnancies";
   ID = "Pregnancies";
}

node Glucose {
   states = ("(3.000, 71.0000]" "(71.0000, 196.9000]" );
   label = "Glucose";
   ID = "Glucose";
}

node BloodPressure {
   states = ("(1.00, 64.0000]" "(64.000, 73.6000]" "(73.00000, 121.4000]" );
   label = "BloodPressure";
   ID = "BloodPressure";
}

node SkinThickness {
   states = ("(-0.0000, 16.4000]" "(16.000, 59.0000]" );
   label = "SkinThickness";
   ID = "SkinThickness";
}

node Insulin {
   states = ("(-0.00000, 131.9000]" "(131.00000, 465.8000]" );
   label = "Insulin";
   ID = "Insulin";
}

node BMI {
   states = ("(1.000, 27.0000]" "(27.000, 47.1000]" "(47.000, 65.0000]" );
   label = "BMI";
   ID = "BMI";
}

node DiabetesPedigreeFunction {
   states = ("(0.000, 1.9000]" "(0.0000, 0.7000]" );
   label = "DiabetesPedigreeFunction";
   ID = "DiabetesPedigreeFunction";
}

node Age {
   states = ("(22.0000, 36.2000]" "(36.0000, 71.6000]" );
   label = "Age";
   ID = "Age";
}

node Diabetes? {
   states = (No Yes );
   label = "Diabetes?";
   ID = "Diabetes?";
}

potential ( Pregnancies | Glucose   ) {
   data = 
   ((   0.998952   0.00104822)   % Glucose="(3.000, 71.0000]"   
   (   0.907407   0.0925926));   % Glucose="(71.0000, 196.9000]"   
}

potential ( Glucose | BloodPressure   ) {
   data = 
   ((   0.295455   0.704545)   % BloodPressure="(1.00, 64.0000]"   
   (   0.999138   0.000862069)   % BloodPressure="(64.000, 73.6000]"   
   (   0.990385   0.00961538));   % BloodPressure="(73.00000, 121.4000]"   
}

potential ( BloodPressure | Insulin   ) {
   data = 
   ((   0.342943   0.595195   0.0618619)   % Insulin="(-0.00000, 131.9000]"   
   (   0.00584795   0.988304   0.00584795));   % Insulin="(131.00000, 465.8000]"   
}

potential ( SkinThickness | BloodPressure   Insulin   ) {
   data = 
   (((   0.999124   0.000875657)   % BloodPressure="(1.00, 64.0000]"   Insulin="(-0.00000, 131.9000]"   
   (   0.823915   0.176085)   % BloodPressure="(64.000, 73.6000]"   Insulin="(-0.00000, 131.9000]"   
   (   0.995146   0.00485437))   % BloodPressure="(73.00000, 121.4000]"   Insulin="(-0.00000, 131.9000]"   
   ((   0.5   0.5)   % BloodPressure="(1.00, 64.0000]"   Insulin="(131.00000, 465.8000]"   
   (   0.997041   0.00295858)   % BloodPressure="(64.000, 73.6000]"   Insulin="(131.00000, 465.8000]"   
   (   0.5   0.5)));   % BloodPressure="(73.00000, 121.4000]"   Insulin="(131.00000, 465.8000]"   
}

potential (Insulin) {
   data = (  0.906863 0.0931373);
}

potential ( BMI | BloodPressure   Insulin   SkinThickness   ) {
   data = 
   ((((   0.999416   0.000292141   0.000292141)   % BloodPressure="(1.00, 64.0000]"   Insulin="(-0.00000, 131.9000]"   SkinThickness="(-0.0000, 16.4000]"   
   (   0.242703   0.698306   0.0589916)   % BloodPressure="(64.000, 73.6000]"   Insulin="(-0.00000, 131.9000]"   SkinThickness="(-0.0000, 16.4000]"   
   (   0.996748   0.00162602   0.00162602))   % BloodPressure="(73.00000, 121.4000]"   Insulin="(-0.00000, 131.9000]"   SkinThickness="(-0.0000, 16.4000]"   
   ((   0.333333   0.333333   0.333333)   % BloodPressure="(1.00, 64.0000]"   Insulin="(131.00000, 465.8000]"   SkinThickness="(-0.0000, 16.4000]"   
   (   0.998022   0.00098912   0.00098912)   % BloodPressure="(64.000, 73.6000]"   Insulin="(131.00000, 465.8000]"   SkinThickness="(-0.0000, 16.4000]"   
   (   0.333333   0.333333   0.333333)))   % BloodPressure="(73.00000, 121.4000]"   Insulin="(131.00000, 465.8000]"   SkinThickness="(-0.0000, 16.4000]"   
   (((   0.333333   0.333333   0.333333)   % BloodPressure="(1.00, 64.0000]"   Insulin="(-0.00000, 131.9000]"   SkinThickness="(16.000, 59.0000]"   
   (   0.99809   0.00095511   0.00095511)   % BloodPressure="(64.000, 73.6000]"   Insulin="(-0.00000, 131.9000]"   SkinThickness="(16.000, 59.0000]"   
   (   0.333333   0.333333   0.333333))   % BloodPressure="(73.00000, 121.4000]"   Insulin="(-0.00000, 131.9000]"   SkinThickness="(16.000, 59.0000]"   
   ((   0.333333   0.333333   0.333333)   % BloodPressure="(1.00, 64.0000]"   Insulin="(131.00000, 465.8000]"   SkinThickness="(16.000, 59.0000]"   
   (   0.333333   0.333333   0.333333)   % BloodPressure="(64.000, 73.6000]"   Insulin="(131.00000, 465.8000]"   SkinThickness="(16.000, 59.0000]"   
   (   0.333333   0.333333   0.333333))));   % BloodPressure="(73.00000, 121.4000]"   Insulin="(131.00000, 465.8000]"   SkinThickness="(16.000, 59.0000]"   
}

potential ( DiabetesPedigreeFunction | BMI   ) {
   data = 
   ((   0.000823723   0.999176)   % BMI="(1.000, 27.0000]"   
   (   0.704545   0.295455)   % BMI="(27.000, 47.1000]"   
   (   0.02   0.98));   % BMI="(47.000, 65.0000]"   
}

potential ( Age | DiabetesPedigreeFunction   ) {
   data = 
   ((   0.625926   0.374074)   % DiabetesPedigreeFunction="(0.000, 1.9000]"   
   (   0.998952   0.00104822));   % DiabetesPedigreeFunction="(0.0000, 0.7000]"   
}

potential ( Diabetes? | Glucose   BloodPressure   DiabetesPedigreeFunction   Insulin   ) {
   data = 
   (((((   0.5   0.5)   % Glucose="(3.000, 71.0000]"   BloodPressure="(1.00, 64.0000]"   DiabetesPedigreeFunction="(0.000, 1.9000]"   Insulin="(-0.00000, 131.9000]"   
   (   0.5   0.5))   % Glucose="(71.0000, 196.9000]"   BloodPressure="(1.00, 64.0000]"   DiabetesPedigreeFunction="(0.000, 1.9000]"   Insulin="(-0.00000, 131.9000]"   
   ((   0.000310752   0.999689)   % Glucose="(3.000, 71.0000]"   BloodPressure="(64.000, 73.6000]"   DiabetesPedigreeFunction="(0.000, 1.9000]"   Insulin="(-0.00000, 131.9000]"   
   (   0.5   0.5))   % Glucose="(71.0000, 196.9000]"   BloodPressure="(64.000, 73.6000]"   DiabetesPedigreeFunction="(0.000, 1.9000]"   Insulin="(-0.00000, 131.9000]"   
   ((   0.5   0.5)   % Glucose="(3.000, 71.0000]"   BloodPressure="(73.00000, 121.4000]"   DiabetesPedigreeFunction="(0.000, 1.9000]"   Insulin="(-0.00000, 131.9000]"   
   (   0.5   0.5)))   % Glucose="(71.0000, 196.9000]"   BloodPressure="(73.00000, 121.4000]"   DiabetesPedigreeFunction="(0.000, 1.9000]"   Insulin="(-0.00000, 131.9000]"   
   (((   0.250371   0.749629)   % Glucose="(3.000, 71.0000]"   BloodPressure="(1.00, 64.0000]"   DiabetesPedigreeFunction="(0.0000, 0.7000]"   Insulin="(-0.00000, 131.9000]"   
   (   0.000310752   0.999689))   % Glucose="(71.0000, 196.9000]"   BloodPressure="(1.00, 64.0000]"   DiabetesPedigreeFunction="(0.0000, 0.7000]"   Insulin="(-0.00000, 131.9000]"   
   ((   0.10221   0.89779)   % Glucose="(3.000, 71.0000]"   BloodPressure="(64.000, 73.6000]"   DiabetesPedigreeFunction="(0.0000, 0.7000]"   Insulin="(-0.00000, 131.9000]"   
   (   0.5   0.5))   % Glucose="(71.0000, 196.9000]"   BloodPressure="(64.000, 73.6000]"   DiabetesPedigreeFunction="(0.0000, 0.7000]"   Insulin="(-0.00000, 131.9000]"   
   ((   0.646699   0.353301)   % Glucose="(3.000, 71.0000]"   BloodPressure="(73.00000, 121.4000]"   DiabetesPedigreeFunction="(0.0000, 0.7000]"   Insulin="(-0.00000, 131.9000]"   
   (   0.5   0.5))))   % Glucose="(71.0000, 196.9000]"   BloodPressure="(73.00000, 121.4000]"   DiabetesPedigreeFunction="(0.0000, 0.7000]"   Insulin="(-0.00000, 131.9000]"   
   ((((   0.5   0.5)   % Glucose="(3.000, 71.0000]"   BloodPressure="(1.00, 64.0000]"   DiabetesPedigreeFunction="(0.000, 1.9000]"   Insulin="(131.00000, 465.8000]"   
   (   0.5   0.5))   % Glucose="(71.0000, 196.9000]"   BloodPressure="(1.00, 64.0000]"   DiabetesPedigreeFunction="(0.000, 1.9000]"   Insulin="(131.00000, 465.8000]"   
   ((   0.5   0.5)   % Glucose="(3.000, 71.0000]"   BloodPressure="(64.000, 73.6000]"   DiabetesPedigreeFunction="(0.000, 1.9000]"   Insulin="(131.00000, 465.8000]"   
   (   0.5   0.5))   % Glucose="(71.0000, 196.9000]"   BloodPressure="(64.000, 73.6000]"   DiabetesPedigreeFunction="(0.000, 1.9000]"   Insulin="(131.00000, 465.8000]"   
   ((   0.5   0.5)   % Glucose="(3.000, 71.0000]"   BloodPressure="(73.00000, 121.4000]"   DiabetesPedigreeFunction="(0.000, 1.9000]"   Insulin="(131.00000, 465.8000]"   
   (   0.5   0.5)))   % Glucose="(71.0000, 196.9000]"   BloodPressure="(73.00000, 121.4000]"   DiabetesPedigreeFunction="(0.000, 1.9000]"   Insulin="(131.00000, 465.8000]"   
   (((   0.5   0.5)   % Glucose="(3.000, 71.0000]"   BloodPressure="(1.00, 64.0000]"   DiabetesPedigreeFunction="(0.0000, 0.7000]"   Insulin="(131.00000, 465.8000]"   
   (   0.5   0.5))   % Glucose="(71.0000, 196.9000]"   BloodPressure="(1.00, 64.0000]"   DiabetesPedigreeFunction="(0.0000, 0.7000]"   Insulin="(131.00000, 465.8000]"   
   ((   0.000742942   0.999257)   % Glucose="(3.000, 71.0000]"   BloodPressure="(64.000, 73.6000]"   DiabetesPedigreeFunction="(0.0000, 0.7000]"   Insulin="(131.00000, 465.8000]"   
   (   0.5   0.5))   % Glucose="(71.0000, 196.9000]"   BloodPressure="(64.000, 73.6000]"   DiabetesPedigreeFunction="(0.0000, 0.7000]"   Insulin="(131.00000, 465.8000]"   
   ((   0.5   0.5)   % Glucose="(3.000, 71.0000]"   BloodPressure="(73.00000, 121.4000]"   DiabetesPedigreeFunction="(0.0000, 0.7000]"   Insulin="(131.00000, 465.8000]"   
   (   0.5   0.5)))));   % Glucose="(71.0000, 196.9000]"   BloodPressure="(73.00000, 121.4000]"   DiabetesPedigreeFunction="(0.0000, 0.7000]"   Insulin="(131.00000, 465.8000]"   
}


