
net {
  name = unnamedBN;
  software = "aGrUM 0.17.0";
  node_size = (50 50);
}

node Pregnancies {
   states = ("(0.0000, 14.3000]" "(14.0000, 16.1000]" );
   label = "Pregnancies";
   ID = "Pregnancies";
}

node Glucose {
   states = ("(74.00000, 196.9000]" "(8.0000, 74.9000]" );
   label = "Glucose";
   ID = "Glucose";
}

node BloodPressure {
   states = ("(5.0000, 75.5000]" "(75.0000, 77.9000]" "(77.0000, 121.0000]" );
   label = "BloodPressure";
   ID = "BloodPressure";
}

node SkinThickness {
   states = ("(0.0000, 25.0000]" "(25.000, 31.0000]" "(31.000, 89.7000]" );
   label = "SkinThickness";
   ID = "SkinThickness";
}

node Insulin {
   states = ("(-0.00000, 131.9000]" "(131.00000, 465.8000]" );
   label = "Insulin";
   ID = "Insulin";
}

node BMI {
   states = ("(1.000, 27.0000]" "(27.000, 47.1000]" "(47.000, 65.0000]" );
   label = "BMI";
   ID = "BMI";
}

node DiabetesPedigreeFunction {
   states = ("(0.00, 1.0000]" "(0.0000, 0.5000]" );
   label = "DiabetesPedigreeFunction";
   ID = "DiabetesPedigreeFunction";
}

node Age {
   states = ("(23.0000, 53.9000]" "(53.0000, 80.2000]" );
   label = "Age";
   ID = "Age";
}

node Diabetes? {
   states = (No Yes );
   label = "Diabetes?";
   ID = "Diabetes?";
}

potential ( Pregnancies | Glucose   ) {
   data = 
   ((   0.907407   0.0925926)   % Glucose="(74.00000, 196.9000]"   
   (   0.998952   0.00104822));   % Glucose="(8.0000, 74.9000]"   
}

potential ( Glucose | BloodPressure   ) {
   data = 
   ((   0.000788644   0.999211)   % BloodPressure="(5.0000, 75.5000]"   
   (   0.857447   0.142553)   % BloodPressure="(75.0000, 77.9000]"   
   (   0.0102041   0.989796));   % BloodPressure="(77.0000, 121.0000]"   
}

potential ( BloodPressure | BMI   ) {
   data = 
   ((   0.534322   0.386052   0.0796266)   % BMI="(1.000, 27.0000]"   
   (   0.997669   0.0011655   0.0011655)   % BMI="(27.000, 47.1000]"   
   (   0.973333   0.0133333   0.0133333));   % BMI="(47.000, 65.0000]"   
}

potential ( SkinThickness | BMI   BloodPressure   ) {
   data = 
   (((   0.536828   0.213087   0.250086)   % BMI="(1.000, 27.0000]"   BloodPressure="(5.0000, 75.5000]"   
   (   0.999221   0.000389408   0.000389408)   % BMI="(27.000, 47.1000]"   BloodPressure="(5.0000, 75.5000]"   
   (   0.990868   0.00456621   0.00456621))   % BMI="(47.000, 65.0000]"   BloodPressure="(5.0000, 75.5000]"   
   ((   0.000474158   0.999052   0.000474158)   % BMI="(1.000, 27.0000]"   BloodPressure="(75.0000, 77.9000]"   
   (   0.333333   0.333333   0.333333)   % BMI="(27.000, 47.1000]"   BloodPressure="(75.0000, 77.9000]"   
   (   0.333333   0.333333   0.333333))   % BMI="(47.000, 65.0000]"   BloodPressure="(75.0000, 77.9000]"   
   ((   0.00229885   0.995402   0.00229885)   % BMI="(1.000, 27.0000]"   BloodPressure="(77.0000, 121.0000]"   
   (   0.333333   0.333333   0.333333)   % BMI="(27.000, 47.1000]"   BloodPressure="(77.0000, 121.0000]"   
   (   0.333333   0.333333   0.333333)));   % BMI="(47.000, 65.0000]"   BloodPressure="(77.0000, 121.0000]"   
}

potential ( Insulin | BMI   SkinThickness   Diabetes?   ) {
   data = 
   ((((   0.994505   0.00549451)   % BMI="(1.000, 27.0000]"   SkinThickness="(0.0000, 25.0000]"   Diabetes?=No   
   (   0.5   0.5)   % BMI="(27.000, 47.1000]"   SkinThickness="(0.0000, 25.0000]"   Diabetes?=No   
   (   0.5   0.5))   % BMI="(47.000, 65.0000]"   SkinThickness="(0.0000, 25.0000]"   Diabetes?=No   
   ((   0.998891   0.00110865)   % BMI="(1.000, 27.0000]"   SkinThickness="(25.000, 31.0000]"   Diabetes?=No   
   (   0.5   0.5)   % BMI="(27.000, 47.1000]"   SkinThickness="(25.000, 31.0000]"   Diabetes?=No   
   (   0.5   0.5))   % BMI="(47.000, 65.0000]"   SkinThickness="(25.000, 31.0000]"   Diabetes?=No   
   ((   0.997872   0.00212766)   % BMI="(1.000, 27.0000]"   SkinThickness="(31.000, 89.7000]"   Diabetes?=No   
   (   0.5   0.5)   % BMI="(27.000, 47.1000]"   SkinThickness="(31.000, 89.7000]"   Diabetes?=No   
   (   0.5   0.5)))   % BMI="(47.000, 65.0000]"   SkinThickness="(31.000, 89.7000]"   Diabetes?=No   
   (((   0.471728   0.528272)   % BMI="(1.000, 27.0000]"   SkinThickness="(0.0000, 25.0000]"   Diabetes?=Yes   
   (   0.999708   0.000292227)   % BMI="(27.000, 47.1000]"   SkinThickness="(0.0000, 25.0000]"   Diabetes?=Yes   
   (   0.996552   0.00344828))   % BMI="(47.000, 65.0000]"   SkinThickness="(0.0000, 25.0000]"   Diabetes?=Yes   
   ((   0.999698   0.00030175)   % BMI="(1.000, 27.0000]"   SkinThickness="(25.000, 31.0000]"   Diabetes?=Yes   
   (   0.5   0.5)   % BMI="(27.000, 47.1000]"   SkinThickness="(25.000, 31.0000]"   Diabetes?=Yes   
   (   0.5   0.5))   % BMI="(47.000, 65.0000]"   SkinThickness="(25.000, 31.0000]"   Diabetes?=Yes   
   ((   0.998024   0.00197628)   % BMI="(1.000, 27.0000]"   SkinThickness="(31.000, 89.7000]"   Diabetes?=Yes   
   (   0.5   0.5)   % BMI="(27.000, 47.1000]"   SkinThickness="(31.000, 89.7000]"   Diabetes?=Yes   
   (   0.5   0.5))));   % BMI="(47.000, 65.0000]"   SkinThickness="(31.000, 89.7000]"   Diabetes?=Yes   
}

potential (BMI) {
   data = (  0.66122 0.311547 0.0272331);
}

potential ( DiabetesPedigreeFunction | BMI   ) {
   data = 
   ((   0.000823723   0.999176)   % BMI="(1.000, 27.0000]"   
   (   0.715035   0.284965)   % BMI="(27.000, 47.1000]"   
   (   0.02   0.98));   % BMI="(47.000, 65.0000]"   
}

potential ( Age | DiabetesPedigreeFunction   ) {
   data = 
   ((   0.806569   0.193431)   % DiabetesPedigreeFunction="(0.00, 1.0000]"   
   (   0.998947   0.00105263));   % DiabetesPedigreeFunction="(0.0000, 0.5000]"   
}

potential ( Diabetes? | BMI   Glucose   SkinThickness   ) {
   data = 
   ((((   0.5   0.5)   % BMI="(1.000, 27.0000]"   Glucose="(74.00000, 196.9000]"   SkinThickness="(0.0000, 25.0000]"   
   (   0.5   0.5)   % BMI="(27.000, 47.1000]"   Glucose="(74.00000, 196.9000]"   SkinThickness="(0.0000, 25.0000]"   
   (   0.5   0.5))   % BMI="(47.000, 65.0000]"   Glucose="(74.00000, 196.9000]"   SkinThickness="(0.0000, 25.0000]"   
   ((   0.0866029   0.913397)   % BMI="(1.000, 27.0000]"   Glucose="(8.0000, 74.9000]"   SkinThickness="(0.0000, 25.0000]"   
   (   0.000292227   0.999708)   % BMI="(27.000, 47.1000]"   Glucose="(8.0000, 74.9000]"   SkinThickness="(0.0000, 25.0000]"   
   (   0.00344828   0.996552)))   % BMI="(47.000, 65.0000]"   Glucose="(8.0000, 74.9000]"   SkinThickness="(0.0000, 25.0000]"   
   (((   0.00041425   0.999586)   % BMI="(1.000, 27.0000]"   Glucose="(74.00000, 196.9000]"   SkinThickness="(25.000, 31.0000]"   
   (   0.5   0.5)   % BMI="(27.000, 47.1000]"   Glucose="(74.00000, 196.9000]"   SkinThickness="(25.000, 31.0000]"   
   (   0.5   0.5))   % BMI="(47.000, 65.0000]"   Glucose="(74.00000, 196.9000]"   SkinThickness="(25.000, 31.0000]"   
   ((   0.5   0.5)   % BMI="(1.000, 27.0000]"   Glucose="(8.0000, 74.9000]"   SkinThickness="(25.000, 31.0000]"   
   (   0.5   0.5)   % BMI="(27.000, 47.1000]"   Glucose="(8.0000, 74.9000]"   SkinThickness="(25.000, 31.0000]"   
   (   0.5   0.5)))   % BMI="(47.000, 65.0000]"   Glucose="(8.0000, 74.9000]"   SkinThickness="(25.000, 31.0000]"   
   (((   0.5   0.5)   % BMI="(1.000, 27.0000]"   Glucose="(74.00000, 196.9000]"   SkinThickness="(31.000, 89.7000]"   
   (   0.5   0.5)   % BMI="(27.000, 47.1000]"   Glucose="(74.00000, 196.9000]"   SkinThickness="(31.000, 89.7000]"   
   (   0.5   0.5))   % BMI="(47.000, 65.0000]"   Glucose="(74.00000, 196.9000]"   SkinThickness="(31.000, 89.7000]"   
   ((   0.48152   0.51848)   % BMI="(1.000, 27.0000]"   Glucose="(8.0000, 74.9000]"   SkinThickness="(31.000, 89.7000]"   
   (   0.5   0.5)   % BMI="(27.000, 47.1000]"   Glucose="(8.0000, 74.9000]"   SkinThickness="(31.000, 89.7000]"   
   (   0.5   0.5))));   % BMI="(47.000, 65.0000]"   Glucose="(8.0000, 74.9000]"   SkinThickness="(31.000, 89.7000]"   
}


