
net {
  name = unnamedBN;
  software = "aGrUM 0.17.0";
  node_size = (50 50);
}

node Pregnancies {
   states = ("(-0.000, 9.0000]" "(9.0000, 10.1000]" );
   label = "Pregnancies";
   ID = "Pregnancies";
}

node Glucose {
   states = ("(108.00000, 197.5000]" "(59.00000, 108.3000]" );
   label = "Glucose";
   ID = "Glucose";
}

node BloodPressure {
   states = ("(1.00, 60.0000]" "(60.000, 73.6000]" "(73.00000, 121.4000]" );
   label = "BloodPressure";
   ID = "BloodPressure";
}

node SkinThickness {
   states = ("(0.0000, 24.5000]" "(24.000, 29.0000]" "(29.000, 87.8000]" );
   label = "SkinThickness";
   ID = "SkinThickness";
}

node Insulin {
   states = ("(219.00000, 477.9000]" "(3.8000, 219.9000]" "(477.00000, 776.4000]" );
   label = "Insulin";
   ID = "Insulin";
}

node BMI {
   states = ("(1.000, 34.0000]" "(34.000, 47.1000]" "(47.000, 65.0000]" );
   label = "BMI";
   ID = "BMI";
}

node DiabetesPedigreeFunction {
   states = ("(0.0880, 1.0000]" "(1.000, 2.2000]" );
   label = "DiabetesPedigreeFunction";
   ID = "DiabetesPedigreeFunction";
}

node Age {
   states = ("(20.0000, 56.5000]" );
   label = "Age";
   ID = "Age";
}

node Diabetes? {
   states = (No Yes );
   label = "Diabetes?";
   ID = "Diabetes?";
}

potential ( Pregnancies | Glucose   ) {
   data = 
   ((   0.907407   0.0925926)   % Glucose="(108.00000, 197.5000]"   
   (   0.998952   0.00104822));   % Glucose="(59.00000, 108.3000]"   
}

potential ( Glucose | BloodPressure   ) {
   data = 
   ((   0.704545   0.295455)   % BloodPressure="(1.00, 60.0000]"   
   (   0.000862069   0.999138)   % BloodPressure="(60.000, 73.6000]"   
   (   0.00961538   0.990385));   % BloodPressure="(73.00000, 121.4000]"   
}

potential (BloodPressure) {
   data = (  0.311547 0.631808 0.0566449);
}

potential ( SkinThickness | BloodPressure   ) {
   data = 
   ((   0.0011655   0.997669   0.0011655)   % BloodPressure="(1.00, 60.0000]"   
   (   0.833333   0.0212644   0.145402)   % BloodPressure="(60.000, 73.6000]"   
   (   0.00641026   0.987179   0.00641026));   % BloodPressure="(73.00000, 121.4000]"   
}

potential ( Insulin | SkinThickness   ) {
   data = 
   ((   0.168044   0.769284   0.0626722)   % SkinThickness="(0.0000, 24.5000]"   
   (   0.99809   0.00095511   0.00095511)   % SkinThickness="(24.000, 29.0000]"   
   (   0.992157   0.00392157   0.00392157));   % SkinThickness="(29.000, 87.8000]"   
}

potential ( BMI | Insulin   ) {
   data = 
   ((   0.998703   0.000648508   0.000648508)   % Insulin="(219.00000, 477.9000]"   
   (   0.234138   0.700626   0.0652368)   % Insulin="(3.8000, 219.9000]"   
   (   0.978495   0.0107527   0.0107527));   % Insulin="(477.00000, 776.4000]"   
}

potential ( DiabetesPedigreeFunction | BMI   Diabetes?   ) {
   data = 
   (((   0.999418   0.000582072)   % BMI="(1.000, 34.0000]"   Diabetes?=No   
   (   0.988372   0.0116279)   % BMI="(34.000, 47.1000]"   Diabetes?=No   
   (   0.5   0.5))   % BMI="(47.000, 65.0000]"   Diabetes?=No   
   ((   0.998759   0.00124069)   % BMI="(1.000, 34.0000]"   Diabetes?=Yes   
   (   0.238046   0.761954)   % BMI="(34.000, 47.1000]"   Diabetes?=Yes   
   (   0.989796   0.0102041)));   % BMI="(47.000, 65.0000]"   Diabetes?=Yes   
}

potential ( Age | SkinThickness   DiabetesPedigreeFunction   ) {
   data = 
   (((   1)   % SkinThickness="(0.0000, 24.5000]"   DiabetesPedigreeFunction="(0.0880, 1.0000]"   
   (   1)   % SkinThickness="(24.000, 29.0000]"   DiabetesPedigreeFunction="(0.0880, 1.0000]"   
   (   1))   % SkinThickness="(29.000, 87.8000]"   DiabetesPedigreeFunction="(0.0880, 1.0000]"   
   ((   1)   % SkinThickness="(0.0000, 24.5000]"   DiabetesPedigreeFunction="(1.000, 2.2000]"   
   (   1)   % SkinThickness="(24.000, 29.0000]"   DiabetesPedigreeFunction="(1.000, 2.2000]"   
   (   1)));   % SkinThickness="(29.000, 87.8000]"   DiabetesPedigreeFunction="(1.000, 2.2000]"   
}

potential ( Diabetes? | BMI   Glucose   SkinThickness   ) {
   data = 
   ((((   0.5   0.5)   % BMI="(1.000, 34.0000]"   Glucose="(108.00000, 197.5000]"   SkinThickness="(0.0000, 24.5000]"   
   (   0.5   0.5)   % BMI="(34.000, 47.1000]"   Glucose="(108.00000, 197.5000]"   SkinThickness="(0.0000, 24.5000]"   
   (   0.5   0.5))   % BMI="(47.000, 65.0000]"   Glucose="(108.00000, 197.5000]"   SkinThickness="(0.0000, 24.5000]"   
   ((   0.651388   0.348612)   % BMI="(1.000, 34.0000]"   Glucose="(59.00000, 108.3000]"   SkinThickness="(0.0000, 24.5000]"   
   (   0.0807275   0.919272)   % BMI="(34.000, 47.1000]"   Glucose="(59.00000, 108.3000]"   SkinThickness="(0.0000, 24.5000]"   
   (   0.00344828   0.996552)))   % BMI="(47.000, 65.0000]"   Glucose="(59.00000, 108.3000]"   SkinThickness="(0.0000, 24.5000]"   
   (((   0.343413   0.656587)   % BMI="(1.000, 34.0000]"   Glucose="(108.00000, 197.5000]"   SkinThickness="(24.000, 29.0000]"   
   (   0.5   0.5)   % BMI="(34.000, 47.1000]"   Glucose="(108.00000, 197.5000]"   SkinThickness="(24.000, 29.0000]"   
   (   0.5   0.5))   % BMI="(47.000, 65.0000]"   Glucose="(108.00000, 197.5000]"   SkinThickness="(24.000, 29.0000]"   
   ((   0.999434   0.000566251)   % BMI="(1.000, 34.0000]"   Glucose="(59.00000, 108.3000]"   SkinThickness="(24.000, 29.0000]"   
   (   0.5   0.5)   % BMI="(34.000, 47.1000]"   Glucose="(59.00000, 108.3000]"   SkinThickness="(24.000, 29.0000]"   
   (   0.5   0.5)))   % BMI="(47.000, 65.0000]"   Glucose="(59.00000, 108.3000]"   SkinThickness="(24.000, 29.0000]"   
   (((   0.5   0.5)   % BMI="(1.000, 34.0000]"   Glucose="(108.00000, 197.5000]"   SkinThickness="(29.000, 87.8000]"   
   (   0.5   0.5)   % BMI="(34.000, 47.1000]"   Glucose="(108.00000, 197.5000]"   SkinThickness="(29.000, 87.8000]"   
   (   0.5   0.5))   % BMI="(47.000, 65.0000]"   Glucose="(108.00000, 197.5000]"   SkinThickness="(29.000, 87.8000]"   
   ((   0.99901   0.000990099)   % BMI="(1.000, 34.0000]"   Glucose="(59.00000, 108.3000]"   SkinThickness="(29.000, 87.8000]"   
   (   0.5   0.5)   % BMI="(34.000, 47.1000]"   Glucose="(59.00000, 108.3000]"   SkinThickness="(29.000, 87.8000]"   
   (   0.5   0.5))));   % BMI="(47.000, 65.0000]"   Glucose="(59.00000, 108.3000]"   SkinThickness="(29.000, 87.8000]"   
}


