
net {
  name = unnamedBN;
  software = "aGrUM 0.17.0";
  node_size = (50 50);
}

node Pregnancies {
   states = ("(0.0000, 15.0000]" "(15.0000, 16.9000]" );
   label = "Pregnancies";
   ID = "Pregnancies";
}

node Glucose {
   states = ("(3.000, 71.0000]" "(71.0000, 196.9000]" );
   label = "Glucose";
   ID = "Glucose";
}

node BloodPressure {
   states = ("(1.00, 66.0000]" "(66.000, 73.6000]" "(73.00000, 121.4000]" );
   label = "BloodPressure";
   ID = "BloodPressure";
}

node SkinThickness {
   states = ("(-0.0000, 16.4000]" "(16.000, 59.0000]" );
   label = "SkinThickness";
   ID = "SkinThickness";
}

node Insulin {
   states = ("(-0.00000, 131.9000]" "(131.00000, 465.8000]" );
   label = "Insulin";
   ID = "Insulin";
}

node BMI {
   states = ("(1.000, 32.0000]" "(32.000, 47.1000]" "(47.000, 65.0000]" );
   label = "BMI";
   ID = "BMI";
}

node DiabetesPedigreeFunction {
   states = ("(0.000, 1.5000]" "(0.0000, 0.2000]" );
   label = "DiabetesPedigreeFunction";
   ID = "DiabetesPedigreeFunction";
}

node Age {
   states = ("(23.0000, 45.7000]" "(45.0000, 80.2000]" );
   label = "Age";
   ID = "Age";
}

node Diabetes? {
   states = (No Yes );
   label = "Diabetes?";
   ID = "Diabetes?";
}

potential ( Pregnancies | Glucose   ) {
   data = 
   ((   0.998952   0.00104822)   % Glucose="(3.000, 71.0000]"   
   (   0.907407   0.0925926));   % Glucose="(71.0000, 196.9000]"   
}

potential ( Glucose | BloodPressure   ) {
   data = 
   ((   0.295455   0.704545)   % BloodPressure="(1.00, 66.0000]"   
   (   0.999138   0.000862069)   % BloodPressure="(66.000, 73.6000]"   
   (   0.990385   0.00961538));   % BloodPressure="(73.00000, 121.4000]"   
}

potential ( BloodPressure | SkinThickness   ) {
   data = 
   ((   0.344183   0.593731   0.0620856)   % SkinThickness="(-0.0000, 16.4000]"   
   (   0.00564972   0.988701   0.00564972));   % SkinThickness="(16.000, 59.0000]"   
}

potential (SkinThickness) {
   data = (  0.903595 0.0964052);
}

potential ( Insulin | BMI   BloodPressure   Diabetes?   ) {
   data = 
   ((((   0.998155   0.00184502)   % BMI="(1.000, 32.0000]"   BloodPressure="(1.00, 66.0000]"   Diabetes?=No   
   (   0.5   0.5)   % BMI="(32.000, 47.1000]"   BloodPressure="(1.00, 66.0000]"   Diabetes?=No   
   (   0.5   0.5))   % BMI="(47.000, 65.0000]"   BloodPressure="(1.00, 66.0000]"   Diabetes?=No   
   ((   0.999369   0.000630517)   % BMI="(1.000, 32.0000]"   BloodPressure="(66.000, 73.6000]"   Diabetes?=No   
   (   0.5   0.5)   % BMI="(32.000, 47.1000]"   BloodPressure="(66.000, 73.6000]"   Diabetes?=No   
   (   0.5   0.5))   % BMI="(47.000, 65.0000]"   BloodPressure="(66.000, 73.6000]"   Diabetes?=No   
   ((   0.998155   0.00184502)   % BMI="(1.000, 32.0000]"   BloodPressure="(73.00000, 121.4000]"   Diabetes?=No   
   (   0.5   0.5)   % BMI="(32.000, 47.1000]"   BloodPressure="(73.00000, 121.4000]"   Diabetes?=No   
   (   0.5   0.5)))   % BMI="(47.000, 65.0000]"   BloodPressure="(73.00000, 121.4000]"   Diabetes?=No   
   (((   0.999653   0.000346981)   % BMI="(1.000, 32.0000]"   BloodPressure="(1.00, 66.0000]"   Diabetes?=Yes   
   (   0.5   0.5)   % BMI="(32.000, 47.1000]"   BloodPressure="(1.00, 66.0000]"   Diabetes?=Yes   
   (   0.5   0.5))   % BMI="(47.000, 65.0000]"   BloodPressure="(1.00, 66.0000]"   Diabetes?=Yes   
   ((   0.451034   0.548966)   % BMI="(1.000, 32.0000]"   BloodPressure="(66.000, 73.6000]"   Diabetes?=Yes   
   (   0.999692   0.000308452)   % BMI="(32.000, 47.1000]"   BloodPressure="(66.000, 73.6000]"   Diabetes?=Yes   
   (   0.996552   0.00344828))   % BMI="(47.000, 65.0000]"   BloodPressure="(66.000, 73.6000]"   Diabetes?=Yes   
   ((   0.986486   0.0135135)   % BMI="(1.000, 32.0000]"   BloodPressure="(73.00000, 121.4000]"   Diabetes?=Yes   
   (   0.5   0.5)   % BMI="(32.000, 47.1000]"   BloodPressure="(73.00000, 121.4000]"   Diabetes?=Yes   
   (   0.5   0.5))));   % BMI="(47.000, 65.0000]"   BloodPressure="(73.00000, 121.4000]"   Diabetes?=Yes   
}

potential ( BMI | BloodPressure   SkinThickness   ) {
   data = 
   (((   0.998832   0.000583771   0.000583771)   % BloodPressure="(1.00, 66.0000]"   SkinThickness="(-0.0000, 16.4000]"   
   (   0.402369   0.548562   0.0490694)   % BloodPressure="(66.000, 73.6000]"   SkinThickness="(-0.0000, 16.4000]"   
   (   0.993528   0.00323625   0.00323625))   % BloodPressure="(73.00000, 121.4000]"   SkinThickness="(-0.0000, 16.4000]"   
   ((   0.333333   0.333333   0.333333)   % BloodPressure="(1.00, 66.0000]"   SkinThickness="(16.000, 59.0000]"   
   (   0.99619   0.00190476   0.00190476)   % BloodPressure="(66.000, 73.6000]"   SkinThickness="(16.000, 59.0000]"   
   (   0.333333   0.333333   0.333333)));   % BloodPressure="(73.00000, 121.4000]"   SkinThickness="(16.000, 59.0000]"   
}

potential ( DiabetesPedigreeFunction | BMI   ) {
   data = 
   ((   0.000803859   0.999196)   % BMI="(1.000, 32.0000]"   
   (   0.776753   0.223247)   % BMI="(32.000, 47.1000]"   
   (   0.02   0.98));   % BMI="(47.000, 65.0000]"   
}

potential ( Age | DiabetesPedigreeFunction   ) {
   data = 
   ((   0.755319   0.244681)   % DiabetesPedigreeFunction="(0.000, 1.5000]"   
   (   0.998938   0.00106157));   % DiabetesPedigreeFunction="(0.0000, 0.2000]"   
}

potential ( Diabetes? | BMI   SkinThickness   Glucose   BloodPressure   DiabetesPedigreeFunction   ) {
   data = 
   ((((((   0.5   0.5)   % BMI="(1.000, 32.0000]"   SkinThickness="(-0.0000, 16.4000]"   Glucose="(3.000, 71.0000]"   BloodPressure="(1.00, 66.0000]"   DiabetesPedigreeFunction="(0.000, 1.5000]"   
   (   0.5   0.5)   % BMI="(32.000, 47.1000]"   SkinThickness="(-0.0000, 16.4000]"   Glucose="(3.000, 71.0000]"   BloodPressure="(1.00, 66.0000]"   DiabetesPedigreeFunction="(0.000, 1.5000]"   
   (   0.5   0.5))   % BMI="(47.000, 65.0000]"   SkinThickness="(-0.0000, 16.4000]"   Glucose="(3.000, 71.0000]"   BloodPressure="(1.00, 66.0000]"   DiabetesPedigreeFunction="(0.000, 1.5000]"   
   ((   0.5   0.5)   % BMI="(1.000, 32.0000]"   SkinThickness="(16.000, 59.0000]"   Glucose="(3.000, 71.0000]"   BloodPressure="(1.00, 66.0000]"   DiabetesPedigreeFunction="(0.000, 1.5000]"   
   (   0.5   0.5)   % BMI="(32.000, 47.1000]"   SkinThickness="(16.000, 59.0000]"   Glucose="(3.000, 71.0000]"   BloodPressure="(1.00, 66.0000]"   DiabetesPedigreeFunction="(0.000, 1.5000]"   
   (   0.5   0.5)))   % BMI="(47.000, 65.0000]"   SkinThickness="(16.000, 59.0000]"   Glucose="(3.000, 71.0000]"   BloodPressure="(1.00, 66.0000]"   DiabetesPedigreeFunction="(0.000, 1.5000]"   
   (((   0.5   0.5)   % BMI="(1.000, 32.0000]"   SkinThickness="(-0.0000, 16.4000]"   Glucose="(71.0000, 196.9000]"   BloodPressure="(1.00, 66.0000]"   DiabetesPedigreeFunction="(0.000, 1.5000]"   
   (   0.5   0.5)   % BMI="(32.000, 47.1000]"   SkinThickness="(-0.0000, 16.4000]"   Glucose="(71.0000, 196.9000]"   BloodPressure="(1.00, 66.0000]"   DiabetesPedigreeFunction="(0.000, 1.5000]"   
   (   0.5   0.5))   % BMI="(47.000, 65.0000]"   SkinThickness="(-0.0000, 16.4000]"   Glucose="(71.0000, 196.9000]"   BloodPressure="(1.00, 66.0000]"   DiabetesPedigreeFunction="(0.000, 1.5000]"   
   ((   0.5   0.5)   % BMI="(1.000, 32.0000]"   SkinThickness="(16.000, 59.0000]"   Glucose="(71.0000, 196.9000]"   BloodPressure="(1.00, 66.0000]"   DiabetesPedigreeFunction="(0.000, 1.5000]"   
   (   0.5   0.5)   % BMI="(32.000, 47.1000]"   SkinThickness="(16.000, 59.0000]"   Glucose="(71.0000, 196.9000]"   BloodPressure="(1.00, 66.0000]"   DiabetesPedigreeFunction="(0.000, 1.5000]"   
   (   0.5   0.5))))   % BMI="(47.000, 65.0000]"   SkinThickness="(16.000, 59.0000]"   Glucose="(71.0000, 196.9000]"   BloodPressure="(1.00, 66.0000]"   DiabetesPedigreeFunction="(0.000, 1.5000]"   
   ((((   0.5   0.5)   % BMI="(1.000, 32.0000]"   SkinThickness="(-0.0000, 16.4000]"   Glucose="(3.000, 71.0000]"   BloodPressure="(66.000, 73.6000]"   DiabetesPedigreeFunction="(0.000, 1.5000]"   
   (   9.91867e-05   0.999901)   % BMI="(32.000, 47.1000]"   SkinThickness="(-0.0000, 16.4000]"   Glucose="(3.000, 71.0000]"   BloodPressure="(66.000, 73.6000]"   DiabetesPedigreeFunction="(0.000, 1.5000]"   
   (   0.5   0.5))   % BMI="(47.000, 65.0000]"   SkinThickness="(-0.0000, 16.4000]"   Glucose="(3.000, 71.0000]"   BloodPressure="(66.000, 73.6000]"   DiabetesPedigreeFunction="(0.000, 1.5000]"   
   ((   0.5   0.5)   % BMI="(1.000, 32.0000]"   SkinThickness="(16.000, 59.0000]"   Glucose="(3.000, 71.0000]"   BloodPressure="(66.000, 73.6000]"   DiabetesPedigreeFunction="(0.000, 1.5000]"   
   (   0.5   0.5)   % BMI="(32.000, 47.1000]"   SkinThickness="(16.000, 59.0000]"   Glucose="(3.000, 71.0000]"   BloodPressure="(66.000, 73.6000]"   DiabetesPedigreeFunction="(0.000, 1.5000]"   
   (   0.5   0.5)))   % BMI="(47.000, 65.0000]"   SkinThickness="(16.000, 59.0000]"   Glucose="(3.000, 71.0000]"   BloodPressure="(66.000, 73.6000]"   DiabetesPedigreeFunction="(0.000, 1.5000]"   
   (((   0.5   0.5)   % BMI="(1.000, 32.0000]"   SkinThickness="(-0.0000, 16.4000]"   Glucose="(71.0000, 196.9000]"   BloodPressure="(66.000, 73.6000]"   DiabetesPedigreeFunction="(0.000, 1.5000]"   
   (   0.5   0.5)   % BMI="(32.000, 47.1000]"   SkinThickness="(-0.0000, 16.4000]"   Glucose="(71.0000, 196.9000]"   BloodPressure="(66.000, 73.6000]"   DiabetesPedigreeFunction="(0.000, 1.5000]"   
   (   0.5   0.5))   % BMI="(47.000, 65.0000]"   SkinThickness="(-0.0000, 16.4000]"   Glucose="(71.0000, 196.9000]"   BloodPressure="(66.000, 73.6000]"   DiabetesPedigreeFunction="(0.000, 1.5000]"   
   ((   0.5   0.5)   % BMI="(1.000, 32.0000]"   SkinThickness="(16.000, 59.0000]"   Glucose="(71.0000, 196.9000]"   BloodPressure="(66.000, 73.6000]"   DiabetesPedigreeFunction="(0.000, 1.5000]"   
   (   0.5   0.5)   % BMI="(32.000, 47.1000]"   SkinThickness="(16.000, 59.0000]"   Glucose="(71.0000, 196.9000]"   BloodPressure="(66.000, 73.6000]"   DiabetesPedigreeFunction="(0.000, 1.5000]"   
   (   0.5   0.5))))   % BMI="(47.000, 65.0000]"   SkinThickness="(16.000, 59.0000]"   Glucose="(71.0000, 196.9000]"   BloodPressure="(66.000, 73.6000]"   DiabetesPedigreeFunction="(0.000, 1.5000]"   
   ((((   0.5   0.5)   % BMI="(1.000, 32.0000]"   SkinThickness="(-0.0000, 16.4000]"   Glucose="(3.000, 71.0000]"   BloodPressure="(73.00000, 121.4000]"   DiabetesPedigreeFunction="(0.000, 1.5000]"   
   (   0.5   0.5)   % BMI="(32.000, 47.1000]"   SkinThickness="(-0.0000, 16.4000]"   Glucose="(3.000, 71.0000]"   BloodPressure="(73.00000, 121.4000]"   DiabetesPedigreeFunction="(0.000, 1.5000]"   
   (   0.5   0.5))   % BMI="(47.000, 65.0000]"   SkinThickness="(-0.0000, 16.4000]"   Glucose="(3.000, 71.0000]"   BloodPressure="(73.00000, 121.4000]"   DiabetesPedigreeFunction="(0.000, 1.5000]"   
   ((   0.5   0.5)   % BMI="(1.000, 32.0000]"   SkinThickness="(16.000, 59.0000]"   Glucose="(3.000, 71.0000]"   BloodPressure="(73.00000, 121.4000]"   DiabetesPedigreeFunction="(0.000, 1.5000]"   
   (   0.5   0.5)   % BMI="(32.000, 47.1000]"   SkinThickness="(16.000, 59.0000]"   Glucose="(3.000, 71.0000]"   BloodPressure="(73.00000, 121.4000]"   DiabetesPedigreeFunction="(0.000, 1.5000]"   
   (   0.5   0.5)))   % BMI="(47.000, 65.0000]"   SkinThickness="(16.000, 59.0000]"   Glucose="(3.000, 71.0000]"   BloodPressure="(73.00000, 121.4000]"   DiabetesPedigreeFunction="(0.000, 1.5000]"   
   (((   0.5   0.5)   % BMI="(1.000, 32.0000]"   SkinThickness="(-0.0000, 16.4000]"   Glucose="(71.0000, 196.9000]"   BloodPressure="(73.00000, 121.4000]"   DiabetesPedigreeFunction="(0.000, 1.5000]"   
   (   0.5   0.5)   % BMI="(32.000, 47.1000]"   SkinThickness="(-0.0000, 16.4000]"   Glucose="(71.0000, 196.9000]"   BloodPressure="(73.00000, 121.4000]"   DiabetesPedigreeFunction="(0.000, 1.5000]"   
   (   0.5   0.5))   % BMI="(47.000, 65.0000]"   SkinThickness="(-0.0000, 16.4000]"   Glucose="(71.0000, 196.9000]"   BloodPressure="(73.00000, 121.4000]"   DiabetesPedigreeFunction="(0.000, 1.5000]"   
   ((   0.5   0.5)   % BMI="(1.000, 32.0000]"   SkinThickness="(16.000, 59.0000]"   Glucose="(71.0000, 196.9000]"   BloodPressure="(73.00000, 121.4000]"   DiabetesPedigreeFunction="(0.000, 1.5000]"   
   (   0.5   0.5)   % BMI="(32.000, 47.1000]"   SkinThickness="(16.000, 59.0000]"   Glucose="(71.0000, 196.9000]"   BloodPressure="(73.00000, 121.4000]"   DiabetesPedigreeFunction="(0.000, 1.5000]"   
   (   0.5   0.5)))))   % BMI="(47.000, 65.0000]"   SkinThickness="(16.000, 59.0000]"   Glucose="(71.0000, 196.9000]"   BloodPressure="(73.00000, 121.4000]"   DiabetesPedigreeFunction="(0.000, 1.5000]"   
   (((((   0.535697   0.464303)   % BMI="(1.000, 32.0000]"   SkinThickness="(-0.0000, 16.4000]"   Glucose="(3.000, 71.0000]"   BloodPressure="(1.00, 66.0000]"   DiabetesPedigreeFunction="(0.0000, 0.2000]"   
   (   0.5   0.5)   % BMI="(32.000, 47.1000]"   SkinThickness="(-0.0000, 16.4000]"   Glucose="(3.000, 71.0000]"   BloodPressure="(1.00, 66.0000]"   DiabetesPedigreeFunction="(0.0000, 0.2000]"   
   (   0.5   0.5))   % BMI="(47.000, 65.0000]"   SkinThickness="(-0.0000, 16.4000]"   Glucose="(3.000, 71.0000]"   BloodPressure="(1.00, 66.0000]"   DiabetesPedigreeFunction="(0.0000, 0.2000]"   
   ((   0.5   0.5)   % BMI="(1.000, 32.0000]"   SkinThickness="(16.000, 59.0000]"   Glucose="(3.000, 71.0000]"   BloodPressure="(1.00, 66.0000]"   DiabetesPedigreeFunction="(0.0000, 0.2000]"   
   (   0.5   0.5)   % BMI="(32.000, 47.1000]"   SkinThickness="(16.000, 59.0000]"   Glucose="(3.000, 71.0000]"   BloodPressure="(1.00, 66.0000]"   DiabetesPedigreeFunction="(0.0000, 0.2000]"   
   (   0.5   0.5)))   % BMI="(47.000, 65.0000]"   SkinThickness="(16.000, 59.0000]"   Glucose="(3.000, 71.0000]"   BloodPressure="(1.00, 66.0000]"   DiabetesPedigreeFunction="(0.0000, 0.2000]"   
   (((   0.000103627   0.999896)   % BMI="(1.000, 32.0000]"   SkinThickness="(-0.0000, 16.4000]"   Glucose="(71.0000, 196.9000]"   BloodPressure="(1.00, 66.0000]"   DiabetesPedigreeFunction="(0.0000, 0.2000]"   
   (   0.5   0.5)   % BMI="(32.000, 47.1000]"   SkinThickness="(-0.0000, 16.4000]"   Glucose="(71.0000, 196.9000]"   BloodPressure="(1.00, 66.0000]"   DiabetesPedigreeFunction="(0.0000, 0.2000]"   
   (   0.5   0.5))   % BMI="(47.000, 65.0000]"   SkinThickness="(-0.0000, 16.4000]"   Glucose="(71.0000, 196.9000]"   BloodPressure="(1.00, 66.0000]"   DiabetesPedigreeFunction="(0.0000, 0.2000]"   
   ((   0.5   0.5)   % BMI="(1.000, 32.0000]"   SkinThickness="(16.000, 59.0000]"   Glucose="(71.0000, 196.9000]"   BloodPressure="(1.00, 66.0000]"   DiabetesPedigreeFunction="(0.0000, 0.2000]"   
   (   0.5   0.5)   % BMI="(32.000, 47.1000]"   SkinThickness="(16.000, 59.0000]"   Glucose="(71.0000, 196.9000]"   BloodPressure="(1.00, 66.0000]"   DiabetesPedigreeFunction="(0.0000, 0.2000]"   
   (   0.5   0.5))))   % BMI="(47.000, 65.0000]"   SkinThickness="(16.000, 59.0000]"   Glucose="(71.0000, 196.9000]"   BloodPressure="(1.00, 66.0000]"   DiabetesPedigreeFunction="(0.0000, 0.2000]"   
   ((((   0.22733   0.77267)   % BMI="(1.000, 32.0000]"   SkinThickness="(-0.0000, 16.4000]"   Glucose="(3.000, 71.0000]"   BloodPressure="(66.000, 73.6000]"   DiabetesPedigreeFunction="(0.0000, 0.2000]"   
   (   0.000346981   0.999653)   % BMI="(32.000, 47.1000]"   SkinThickness="(-0.0000, 16.4000]"   Glucose="(3.000, 71.0000]"   BloodPressure="(66.000, 73.6000]"   DiabetesPedigreeFunction="(0.0000, 0.2000]"   
   (   0.000866551   0.999133))   % BMI="(47.000, 65.0000]"   SkinThickness="(-0.0000, 16.4000]"   Glucose="(3.000, 71.0000]"   BloodPressure="(66.000, 73.6000]"   DiabetesPedigreeFunction="(0.0000, 0.2000]"   
   ((   0.999761   0.000239349)   % BMI="(1.000, 32.0000]"   SkinThickness="(16.000, 59.0000]"   Glucose="(3.000, 71.0000]"   BloodPressure="(66.000, 73.6000]"   DiabetesPedigreeFunction="(0.0000, 0.2000]"   
   (   0.5   0.5)   % BMI="(32.000, 47.1000]"   SkinThickness="(16.000, 59.0000]"   Glucose="(3.000, 71.0000]"   BloodPressure="(66.000, 73.6000]"   DiabetesPedigreeFunction="(0.0000, 0.2000]"   
   (   0.5   0.5)))   % BMI="(47.000, 65.0000]"   SkinThickness="(16.000, 59.0000]"   Glucose="(3.000, 71.0000]"   BloodPressure="(66.000, 73.6000]"   DiabetesPedigreeFunction="(0.0000, 0.2000]"   
   (((   0.5   0.5)   % BMI="(1.000, 32.0000]"   SkinThickness="(-0.0000, 16.4000]"   Glucose="(71.0000, 196.9000]"   BloodPressure="(66.000, 73.6000]"   DiabetesPedigreeFunction="(0.0000, 0.2000]"   
   (   0.5   0.5)   % BMI="(32.000, 47.1000]"   SkinThickness="(-0.0000, 16.4000]"   Glucose="(71.0000, 196.9000]"   BloodPressure="(66.000, 73.6000]"   DiabetesPedigreeFunction="(0.0000, 0.2000]"   
   (   0.5   0.5))   % BMI="(47.000, 65.0000]"   SkinThickness="(-0.0000, 16.4000]"   Glucose="(71.0000, 196.9000]"   BloodPressure="(66.000, 73.6000]"   DiabetesPedigreeFunction="(0.0000, 0.2000]"   
   ((   0.5   0.5)   % BMI="(1.000, 32.0000]"   SkinThickness="(16.000, 59.0000]"   Glucose="(71.0000, 196.9000]"   BloodPressure="(66.000, 73.6000]"   DiabetesPedigreeFunction="(0.0000, 0.2000]"   
   (   0.5   0.5)   % BMI="(32.000, 47.1000]"   SkinThickness="(16.000, 59.0000]"   Glucose="(71.0000, 196.9000]"   BloodPressure="(66.000, 73.6000]"   DiabetesPedigreeFunction="(0.0000, 0.2000]"   
   (   0.5   0.5))))   % BMI="(47.000, 65.0000]"   SkinThickness="(16.000, 59.0000]"   Glucose="(71.0000, 196.9000]"   BloodPressure="(66.000, 73.6000]"   DiabetesPedigreeFunction="(0.0000, 0.2000]"   
   ((((   0.882041   0.117959)   % BMI="(1.000, 32.0000]"   SkinThickness="(-0.0000, 16.4000]"   Glucose="(3.000, 71.0000]"   BloodPressure="(73.00000, 121.4000]"   DiabetesPedigreeFunction="(0.0000, 0.2000]"   
   (   0.5   0.5)   % BMI="(32.000, 47.1000]"   SkinThickness="(-0.0000, 16.4000]"   Glucose="(3.000, 71.0000]"   BloodPressure="(73.00000, 121.4000]"   DiabetesPedigreeFunction="(0.0000, 0.2000]"   
   (   0.5   0.5))   % BMI="(47.000, 65.0000]"   SkinThickness="(-0.0000, 16.4000]"   Glucose="(3.000, 71.0000]"   BloodPressure="(73.00000, 121.4000]"   DiabetesPedigreeFunction="(0.0000, 0.2000]"   
   ((   0.5   0.5)   % BMI="(1.000, 32.0000]"   SkinThickness="(16.000, 59.0000]"   Glucose="(3.000, 71.0000]"   BloodPressure="(73.00000, 121.4000]"   DiabetesPedigreeFunction="(0.0000, 0.2000]"   
   (   0.5   0.5)   % BMI="(32.000, 47.1000]"   SkinThickness="(16.000, 59.0000]"   Glucose="(3.000, 71.0000]"   BloodPressure="(73.00000, 121.4000]"   DiabetesPedigreeFunction="(0.0000, 0.2000]"   
   (   0.5   0.5)))   % BMI="(47.000, 65.0000]"   SkinThickness="(16.000, 59.0000]"   Glucose="(3.000, 71.0000]"   BloodPressure="(73.00000, 121.4000]"   DiabetesPedigreeFunction="(0.0000, 0.2000]"   
   (((   0.5   0.5)   % BMI="(1.000, 32.0000]"   SkinThickness="(-0.0000, 16.4000]"   Glucose="(71.0000, 196.9000]"   BloodPressure="(73.00000, 121.4000]"   DiabetesPedigreeFunction="(0.0000, 0.2000]"   
   (   0.5   0.5)   % BMI="(32.000, 47.1000]"   SkinThickness="(-0.0000, 16.4000]"   Glucose="(71.0000, 196.9000]"   BloodPressure="(73.00000, 121.4000]"   DiabetesPedigreeFunction="(0.0000, 0.2000]"   
   (   0.5   0.5))   % BMI="(47.000, 65.0000]"   SkinThickness="(-0.0000, 16.4000]"   Glucose="(71.0000, 196.9000]"   BloodPressure="(73.00000, 121.4000]"   DiabetesPedigreeFunction="(0.0000, 0.2000]"   
   ((   0.5   0.5)   % BMI="(1.000, 32.0000]"   SkinThickness="(16.000, 59.0000]"   Glucose="(71.0000, 196.9000]"   BloodPressure="(73.00000, 121.4000]"   DiabetesPedigreeFunction="(0.0000, 0.2000]"   
   (   0.5   0.5)   % BMI="(32.000, 47.1000]"   SkinThickness="(16.000, 59.0000]"   Glucose="(71.0000, 196.9000]"   BloodPressure="(73.00000, 121.4000]"   DiabetesPedigreeFunction="(0.0000, 0.2000]"   
   (   0.5   0.5))))));   % BMI="(47.000, 65.0000]"   SkinThickness="(16.000, 59.0000]"   Glucose="(71.0000, 196.9000]"   BloodPressure="(73.00000, 121.4000]"   DiabetesPedigreeFunction="(0.0000, 0.2000]"   
}


