
net {
  name = unnamedBN;
  software = "aGrUM 0.17.0";
  node_size = (50 50);
}

node Pregnancies {
   states = ("(14.0000, 15.2000]" "(6.0000, 14.2000]" );
   label = "Pregnancies";
   ID = "Pregnancies";
}

node Glucose {
   states = ("(123.0000, 186.0000]" "(89.00000, 123.9000]" );
   label = "Glucose";
   ID = "Glucose";
}

node BloodPressure {
   states = ("(44.0000, 74.0000]" "(74.0000, 80.3000]" "(80.00000, 104.2000]" );
   label = "BloodPressure";
   ID = "BloodPressure";
}

node SkinThickness {
   states = ("(1.0000, 14.9000]" "(14.000, 26.0000]" "(26.000, 50.4000]" );
   label = "SkinThickness";
   ID = "SkinThickness";
}

node Insulin {
   states = ("(1.000, 92.3000]" "(143.0000, 326.0000]" "(92.00000, 143.9000]" );
   label = "Insulin";
   ID = "Insulin";
}

node BMI {
   states = ("(20.2799, 36.0000]" "(36.000, 42.8000]" "(42.0000, 51.9000]" );
   label = "BMI";
   ID = "BMI";
}

node DiabetesPedigreeFunction {
   states = ("(0.000, 1.0000]" "(0.0000, 0.5000]" );
   label = "DiabetesPedigreeFunction";
   ID = "DiabetesPedigreeFunction";
}

node Age {
   states = ("(41.000, 55.1000]" "(55.0000, 69.7000]" );
   label = "Age";
   ID = "Age";
}

node Diabetes? {
   states = (Yes );
   label = "Diabetes?";
   ID = "Diabetes?";
}

potential ( Pregnancies | Glucose   ) {
   data = 
   ((   0.0925926   0.907407)   % Glucose="(123.0000, 186.0000]"   
   (   0.00104822   0.998952));   % Glucose="(89.00000, 123.9000]"   
}

potential ( Glucose | BloodPressure   ) {
   data = 
   ((   0.704545   0.295455)   % BloodPressure="(44.0000, 74.0000]"   
   (   0.000862069   0.999138)   % BloodPressure="(74.0000, 80.3000]"   
   (   0.00961538   0.990385));   % BloodPressure="(80.00000, 104.2000]"   
}

potential ( BloodPressure | SkinThickness   ) {
   data = 
   ((   0.000688705   0.998623   0.000688705)   % SkinThickness="(1.0000, 14.9000]"   
   (   0.790397   0.0674054   0.142198)   % SkinThickness="(14.000, 26.0000]"   
   (   0.00456621   0.990868   0.00456621));   % SkinThickness="(26.000, 50.4000]"   
}

potential (SkinThickness) {
   data = (  0.527233 0.393246 0.0795207);
}

potential ( Insulin | SkinThickness   ) {
   data = 
   ((   0.769284   0.130854   0.0998623)   % SkinThickness="(1.0000, 14.9000]"   
   (   0.000923361   0.000923361   0.998153)   % SkinThickness="(14.000, 26.0000]"   
   (   0.00456621   0.00456621   0.990868));   % SkinThickness="(26.000, 50.4000]"   
}

potential ( BMI | Insulin   ) {
   data = 
   ((   0.218052   0.716711   0.0652368)   % Insulin="(1.000, 92.3000]"   
   (   0.989583   0.00520833   0.00520833)   % Insulin="(143.0000, 326.0000]"   
   (   0.998614   0.000693001   0.000693001));   % Insulin="(92.00000, 143.9000]"   
}

potential ( DiabetesPedigreeFunction | BMI   Age   ) {
   data = 
   (((   0.00040032   0.9996)   % BMI="(20.2799, 36.0000]"   Age="(41.000, 55.1000]"   
   (   0.297753   0.702247)   % BMI="(36.000, 42.8000]"   Age="(41.000, 55.1000]"   
   (   0.0102041   0.989796))   % BMI="(42.0000, 51.9000]"   Age="(41.000, 55.1000]"   
   ((   0.5   0.5)   % BMI="(20.2799, 36.0000]"   Age="(55.0000, 69.7000]"   
   (   0.00549451   0.994505)   % BMI="(36.000, 42.8000]"   Age="(55.0000, 69.7000]"   
   (   0.5   0.5)));   % BMI="(42.0000, 51.9000]"   Age="(55.0000, 69.7000]"   
}

potential ( Age | BMI   ) {
   data = 
   ((   0.9992   0.0008)   % BMI="(20.2799, 36.0000]"   
   (   0.830224   0.169776)   % BMI="(36.000, 42.8000]"   
   (   0.98   0.02));   % BMI="(42.0000, 51.9000]"   
}

potential ( Diabetes? | BloodPressure   Age   ) {
   data = 
   (((   1)   % BloodPressure="(44.0000, 74.0000]"   Age="(41.000, 55.1000]"   
   (   1)   % BloodPressure="(74.0000, 80.3000]"   Age="(41.000, 55.1000]"   
   (   1))   % BloodPressure="(80.00000, 104.2000]"   Age="(41.000, 55.1000]"   
   ((   1)   % BloodPressure="(44.0000, 74.0000]"   Age="(55.0000, 69.7000]"   
   (   1)   % BloodPressure="(74.0000, 80.3000]"   Age="(55.0000, 69.7000]"   
   (   1)));   % BloodPressure="(80.00000, 104.2000]"   Age="(55.0000, 69.7000]"   
}


