
net {
  name = unnamedBN;
  software = "aGrUM 0.17.0";
  node_size = (50 50);
}

node Pregnancies {
   states = ("(0.0000, 15.0000]" "(15.0000, 16.9000]" );
   label = "Pregnancies";
   ID = "Pregnancies";
}

node Glucose {
   states = ("(3.000, 71.0000]" "(71.0000, 196.9000]" );
   label = "Glucose";
   ID = "Glucose";
}

node BloodPressure {
   states = ("(1.00, 72.0000]" "(72.000, 73.6000]" "(73.00000, 121.4000]" );
   label = "BloodPressure";
   ID = "BloodPressure";
}

node SkinThickness {
   states = ("(-0.0000, 16.4000]" "(16.000, 59.0000]" );
   label = "SkinThickness";
   ID = "SkinThickness";
}

node Insulin {
   states = ("(-0.00000, 131.9000]" "(131.00000, 465.8000]" );
   label = "Insulin";
   ID = "Insulin";
}

node BMI {
   states = ("(1.000, 36.0000]" "(36.000, 47.1000]" "(47.000, 65.0000]" );
   label = "BMI";
   ID = "BMI";
}

node DiabetesPedigreeFunction {
   states = ("(0.000, 1.7000]" "(0.0000, 0.4000]" );
   label = "DiabetesPedigreeFunction";
   ID = "DiabetesPedigreeFunction";
}

node Age {
   states = ("(29.2999, 63.3000]" "(63.0000, 80.3000]" );
   label = "Age";
   ID = "Age";
}

node Diabetes? {
   states = (No Yes );
   label = "Diabetes?";
   ID = "Diabetes?";
}

potential ( Pregnancies | Glucose   ) {
   data = 
   ((   0.998952   0.00104822)   % Glucose="(3.000, 71.0000]"   
   (   0.907407   0.0925926));   % Glucose="(71.0000, 196.9000]"   
}

potential ( Glucose | BloodPressure   ) {
   data = 
   ((   0.309932   0.690068)   % BloodPressure="(1.00, 72.0000]"   
   (   0.999129   0.00087108)   % BloodPressure="(72.000, 73.6000]"   
   (   0.990385   0.00961538));   % BloodPressure="(73.00000, 121.4000]"   
}

potential (BloodPressure) {
   data = (  0.318083 0.625272 0.0566449);
}

potential ( SkinThickness | BloodPressure   BMI   Insulin   ) {
   data = 
   ((((   0.999714   0.000286205)   % BloodPressure="(1.00, 72.0000]"   BMI="(1.000, 36.0000]"   Insulin="(-0.00000, 131.9000]"   
   (   0.591478   0.408522)   % BloodPressure="(72.000, 73.6000]"   BMI="(1.000, 36.0000]"   Insulin="(-0.00000, 131.9000]"   
   (   0.998371   0.00162866))   % BloodPressure="(73.00000, 121.4000]"   BMI="(1.000, 36.0000]"   Insulin="(-0.00000, 131.9000]"   
   ((   0.5   0.5)   % BloodPressure="(1.00, 72.0000]"   BMI="(36.000, 47.1000]"   Insulin="(-0.00000, 131.9000]"   
   (   0.99967   0.000330469)   % BloodPressure="(72.000, 73.6000]"   BMI="(36.000, 47.1000]"   Insulin="(-0.00000, 131.9000]"   
   (   0.5   0.5))   % BloodPressure="(73.00000, 121.4000]"   BMI="(36.000, 47.1000]"   Insulin="(-0.00000, 131.9000]"   
   ((   0.5   0.5)   % BloodPressure="(1.00, 72.0000]"   BMI="(47.000, 65.0000]"   Insulin="(-0.00000, 131.9000]"   
   (   0.996552   0.00344828)   % BloodPressure="(72.000, 73.6000]"   BMI="(47.000, 65.0000]"   Insulin="(-0.00000, 131.9000]"   
   (   0.5   0.5)))   % BloodPressure="(73.00000, 121.4000]"   BMI="(47.000, 65.0000]"   Insulin="(-0.00000, 131.9000]"   
   (((   0.5   0.5)   % BloodPressure="(1.00, 72.0000]"   BMI="(1.000, 36.0000]"   Insulin="(131.00000, 465.8000]"   
   (   0.99901   0.000990099)   % BloodPressure="(72.000, 73.6000]"   BMI="(1.000, 36.0000]"   Insulin="(131.00000, 465.8000]"   
   (   0.5   0.5))   % BloodPressure="(73.00000, 121.4000]"   BMI="(1.000, 36.0000]"   Insulin="(131.00000, 465.8000]"   
   ((   0.5   0.5)   % BloodPressure="(1.00, 72.0000]"   BMI="(36.000, 47.1000]"   Insulin="(131.00000, 465.8000]"   
   (   0.5   0.5)   % BloodPressure="(72.000, 73.6000]"   BMI="(36.000, 47.1000]"   Insulin="(131.00000, 465.8000]"   
   (   0.5   0.5))   % BloodPressure="(73.00000, 121.4000]"   BMI="(36.000, 47.1000]"   Insulin="(131.00000, 465.8000]"   
   ((   0.5   0.5)   % BloodPressure="(1.00, 72.0000]"   BMI="(47.000, 65.0000]"   Insulin="(131.00000, 465.8000]"   
   (   0.5   0.5)   % BloodPressure="(72.000, 73.6000]"   BMI="(47.000, 65.0000]"   Insulin="(131.00000, 465.8000]"   
   (   0.5   0.5))));   % BloodPressure="(73.00000, 121.4000]"   BMI="(47.000, 65.0000]"   Insulin="(131.00000, 465.8000]"   
}

potential ( Insulin | BloodPressure   BMI   ) {
   data = 
   (((   0.999428   0.000572082)   % BloodPressure="(1.00, 72.0000]"   BMI="(1.000, 36.0000]"   
   (   0.716928   0.283072)   % BloodPressure="(72.000, 73.6000]"   BMI="(1.000, 36.0000]"   
   (   0.996753   0.00324675))   % BloodPressure="(73.00000, 121.4000]"   BMI="(1.000, 36.0000]"   
   ((   0.5   0.5)   % BloodPressure="(1.00, 72.0000]"   BMI="(36.000, 47.1000]"   
   (   0.999339   0.000660502)   % BloodPressure="(72.000, 73.6000]"   BMI="(36.000, 47.1000]"   
   (   0.5   0.5))   % BloodPressure="(73.00000, 121.4000]"   BMI="(36.000, 47.1000]"   
   ((   0.5   0.5)   % BloodPressure="(1.00, 72.0000]"   BMI="(47.000, 65.0000]"   
   (   0.993151   0.00684932)   % BloodPressure="(72.000, 73.6000]"   BMI="(47.000, 65.0000]"   
   (   0.5   0.5)));   % BloodPressure="(73.00000, 121.4000]"   BMI="(47.000, 65.0000]"   
}

potential ( BMI | BloodPressure   ) {
   data = 
   ((   0.997717   0.00114155   0.00114155)   % BloodPressure="(1.00, 72.0000]"   
   (   0.518002   0.439605   0.0423926)   % BloodPressure="(72.000, 73.6000]"   
   (   0.987179   0.00641026   0.00641026));   % BloodPressure="(73.00000, 121.4000]"   
}

potential ( DiabetesPedigreeFunction | BMI   ) {
   data = 
   ((   0.00078125   0.999219)   % BMI="(1.000, 36.0000]"   
   (   0.8083   0.1917)   % BMI="(36.000, 47.1000]"   
   (   0.02   0.98));   % BMI="(47.000, 65.0000]"   
}

potential ( Age | DiabetesPedigreeFunction   ) {
   data = 
   ((   0.850365   0.149635)   % DiabetesPedigreeFunction="(0.000, 1.7000]"   
   (   0.998947   0.00105263));   % DiabetesPedigreeFunction="(0.0000, 0.4000]"   
}

potential ( Diabetes? | BloodPressure   Glucose   ) {
   data = 
   (((   0.466851   0.533149)   % BloodPressure="(1.00, 72.0000]"   Glucose="(3.000, 71.0000]"   
   (   0.0265911   0.973409)   % BloodPressure="(72.000, 73.6000]"   Glucose="(3.000, 71.0000]"   
   (   0.121359   0.878641))   % BloodPressure="(73.00000, 121.4000]"   Glucose="(3.000, 71.0000]"   
   ((   0.105459   0.894541)   % BloodPressure="(1.00, 72.0000]"   Glucose="(71.0000, 196.9000]"   
   (   0.5   0.5)   % BloodPressure="(72.000, 73.6000]"   Glucose="(71.0000, 196.9000]"   
   (   0.5   0.5)));   % BloodPressure="(73.00000, 121.4000]"   Glucose="(71.0000, 196.9000]"   
}


