
net {
  name = unnamedBN;
  software = "aGrUM 0.17.0";
  node_size = (50 50);
}

node Pregnancies {
   states = ("(0.1699, 13.4000]" "(13.0000, 15.1000]" );
   label = "Pregnancies";
   ID = "Pregnancies";
}

node Glucose {
   states = ("(30.0000, 89.0000]" "(89.00000, 197.1000]" );
   label = "Glucose";
   ID = "Glucose";
}

node BloodPressure {
   states = ("(2.0000, 74.3000]" "(74.0000, 75.0000]" "(75.00000, 121.4000]" );
   label = "BloodPressure";
   ID = "BloodPressure";
}

node SkinThickness {
   states = ("(-0.0000, 16.4000]" "(16.000, 59.0000]" );
   label = "SkinThickness";
   ID = "SkinThickness";
}

node Insulin {
   states = ("(-0.00000, 131.9000]" "(131.00000, 465.8000]" );
   label = "Insulin";
   ID = "Insulin";
}

node BMI {
   states = ("(1.000, 29.0000]" "(29.000, 47.1000]" "(47.000, 65.0000]" );
   label = "BMI";
   ID = "BMI";
}

node DiabetesPedigreeFunction {
   states = ("(0.000, 1.6000]" "(0.0000, 0.4000]" );
   label = "DiabetesPedigreeFunction";
   ID = "DiabetesPedigreeFunction";
}

node Age {
   states = ("(22.5999, 29.2000]" "(29.000, 64.0000]" );
   label = "Age";
   ID = "Age";
}

node Diabetes? {
   states = (No Yes );
   label = "Diabetes?";
   ID = "Diabetes?";
}

potential ( Pregnancies | Glucose   ) {
   data = 
   ((   0.998952   0.00104822)   % Glucose="(30.0000, 89.0000]"   
   (   0.907407   0.0925926));   % Glucose="(89.00000, 197.1000]"   
}

potential ( Glucose | BloodPressure   ) {
   data = 
   ((   0.999211   0.000788644)   % BloodPressure="(2.0000, 74.3000]"   
   (   0.142553   0.857447)   % BloodPressure="(74.0000, 75.0000]"   
   (   0.989796   0.0102041));   % BloodPressure="(75.00000, 121.4000]"   
}

potential ( BloodPressure | BMI   ) {
   data = 
   ((   0.534322   0.386052   0.0796266)   % BMI="(1.000, 29.0000]"   
   (   0.997669   0.0011655   0.0011655)   % BMI="(29.000, 47.1000]"   
   (   0.973333   0.0133333   0.0133333));   % BMI="(47.000, 65.0000]"   
}

potential ( SkinThickness | BMI   BloodPressure   Diabetes?   ) {
   data = 
   ((((   0.65872   0.34128)   % BMI="(1.000, 29.0000]"   BloodPressure="(2.0000, 74.3000]"   Diabetes?=No   
   (   0.996552   0.00344828)   % BMI="(29.000, 47.1000]"   BloodPressure="(2.0000, 74.3000]"   Diabetes?=No   
   (   0.5   0.5))   % BMI="(47.000, 65.0000]"   BloodPressure="(2.0000, 74.3000]"   Diabetes?=No   
   ((   0.997696   0.00230415)   % BMI="(1.000, 29.0000]"   BloodPressure="(74.0000, 75.0000]"   Diabetes?=No   
   (   0.5   0.5)   % BMI="(29.000, 47.1000]"   BloodPressure="(74.0000, 75.0000]"   Diabetes?=No   
   (   0.5   0.5))   % BMI="(47.000, 65.0000]"   BloodPressure="(74.0000, 75.0000]"   Diabetes?=No   
   ((   0.99827   0.0017301)   % BMI="(1.000, 29.0000]"   BloodPressure="(75.00000, 121.4000]"   Diabetes?=No   
   (   0.5   0.5)   % BMI="(29.000, 47.1000]"   BloodPressure="(75.00000, 121.4000]"   Diabetes?=No   
   (   0.5   0.5)))   % BMI="(47.000, 65.0000]"   BloodPressure="(75.00000, 121.4000]"   Diabetes?=No   
   (((   0.998795   0.00120482)   % BMI="(1.000, 29.0000]"   BloodPressure="(2.0000, 74.3000]"   Diabetes?=Yes   
   (   0.999681   0.000319081)   % BMI="(29.000, 47.1000]"   BloodPressure="(2.0000, 74.3000]"   Diabetes?=Yes   
   (   0.996552   0.00344828))   % BMI="(47.000, 65.0000]"   BloodPressure="(2.0000, 74.3000]"   Diabetes?=Yes   
   ((   0.999579   0.000420521)   % BMI="(1.000, 29.0000]"   BloodPressure="(74.0000, 75.0000]"   Diabetes?=Yes   
   (   0.5   0.5)   % BMI="(29.000, 47.1000]"   BloodPressure="(74.0000, 75.0000]"   Diabetes?=Yes   
   (   0.5   0.5))   % BMI="(47.000, 65.0000]"   BloodPressure="(74.0000, 75.0000]"   Diabetes?=Yes   
   ((   0.5   0.5)   % BMI="(1.000, 29.0000]"   BloodPressure="(75.00000, 121.4000]"   Diabetes?=Yes   
   (   0.5   0.5)   % BMI="(29.000, 47.1000]"   BloodPressure="(75.00000, 121.4000]"   Diabetes?=Yes   
   (   0.5   0.5))));   % BMI="(47.000, 65.0000]"   BloodPressure="(75.00000, 121.4000]"   Diabetes?=Yes   
}

potential ( Insulin | BMI   SkinThickness   BloodPressure   ) {
   data = 
   ((((   0.645467   0.354533)   % BMI="(1.000, 29.0000]"   SkinThickness="(-0.0000, 16.4000]"   BloodPressure="(2.0000, 74.3000]"   
   (   0.999708   0.000292227)   % BMI="(29.000, 47.1000]"   SkinThickness="(-0.0000, 16.4000]"   BloodPressure="(2.0000, 74.3000]"   
   (   0.996552   0.00344828))   % BMI="(47.000, 65.0000]"   SkinThickness="(-0.0000, 16.4000]"   BloodPressure="(2.0000, 74.3000]"   
   ((   0.999044   0.000956023)   % BMI="(1.000, 29.0000]"   SkinThickness="(16.000, 59.0000]"   BloodPressure="(2.0000, 74.3000]"   
   (   0.5   0.5)   % BMI="(29.000, 47.1000]"   SkinThickness="(16.000, 59.0000]"   BloodPressure="(2.0000, 74.3000]"   
   (   0.5   0.5)))   % BMI="(47.000, 65.0000]"   SkinThickness="(16.000, 59.0000]"   BloodPressure="(2.0000, 74.3000]"   
   (((   0.999644   0.000355872)   % BMI="(1.000, 29.0000]"   SkinThickness="(-0.0000, 16.4000]"   BloodPressure="(74.0000, 75.0000]"   
   (   0.5   0.5)   % BMI="(29.000, 47.1000]"   SkinThickness="(-0.0000, 16.4000]"   BloodPressure="(74.0000, 75.0000]"   
   (   0.5   0.5))   % BMI="(47.000, 65.0000]"   SkinThickness="(-0.0000, 16.4000]"   BloodPressure="(74.0000, 75.0000]"   
   ((   0.5   0.5)   % BMI="(1.000, 29.0000]"   SkinThickness="(16.000, 59.0000]"   BloodPressure="(74.0000, 75.0000]"   
   (   0.5   0.5)   % BMI="(29.000, 47.1000]"   SkinThickness="(16.000, 59.0000]"   BloodPressure="(74.0000, 75.0000]"   
   (   0.5   0.5)))   % BMI="(47.000, 65.0000]"   SkinThickness="(16.000, 59.0000]"   BloodPressure="(74.0000, 75.0000]"   
   (((   0.99827   0.0017301)   % BMI="(1.000, 29.0000]"   SkinThickness="(-0.0000, 16.4000]"   BloodPressure="(75.00000, 121.4000]"   
   (   0.5   0.5)   % BMI="(29.000, 47.1000]"   SkinThickness="(-0.0000, 16.4000]"   BloodPressure="(75.00000, 121.4000]"   
   (   0.5   0.5))   % BMI="(47.000, 65.0000]"   SkinThickness="(-0.0000, 16.4000]"   BloodPressure="(75.00000, 121.4000]"   
   ((   0.5   0.5)   % BMI="(1.000, 29.0000]"   SkinThickness="(16.000, 59.0000]"   BloodPressure="(75.00000, 121.4000]"   
   (   0.5   0.5)   % BMI="(29.000, 47.1000]"   SkinThickness="(16.000, 59.0000]"   BloodPressure="(75.00000, 121.4000]"   
   (   0.5   0.5))));   % BMI="(47.000, 65.0000]"   SkinThickness="(16.000, 59.0000]"   BloodPressure="(75.00000, 121.4000]"   
}

potential (BMI) {
   data = (  0.66122 0.311547 0.0272331);
}

potential ( DiabetesPedigreeFunction | BMI   ) {
   data = 
   ((   0.000823723   0.999176)   % BMI="(1.000, 29.0000]"   
   (   0.725524   0.274476)   % BMI="(29.000, 47.1000]"   
   (   0.02   0.98));   % BMI="(47.000, 65.0000]"   
}

potential ( Age | DiabetesPedigreeFunction   ) {
   data = 
   ((   0.579137   0.420863)   % DiabetesPedigreeFunction="(0.000, 1.6000]"   
   (   0.998943   0.00105708));   % DiabetesPedigreeFunction="(0.0000, 0.4000]"   
}

potential ( Diabetes? | BMI   Glucose   DiabetesPedigreeFunction   ) {
   data = 
   ((((   0.5   0.5)   % BMI="(1.000, 29.0000]"   Glucose="(30.0000, 89.0000]"   DiabetesPedigreeFunction="(0.000, 1.6000]"   
   (   0.000603136   0.999397)   % BMI="(29.000, 47.1000]"   Glucose="(30.0000, 89.0000]"   DiabetesPedigreeFunction="(0.000, 1.6000]"   
   (   0.5   0.5))   % BMI="(47.000, 65.0000]"   Glucose="(30.0000, 89.0000]"   DiabetesPedigreeFunction="(0.000, 1.6000]"   
   ((   0.5   0.5)   % BMI="(1.000, 29.0000]"   Glucose="(89.00000, 197.1000]"   DiabetesPedigreeFunction="(0.000, 1.6000]"   
   (   0.5   0.5)   % BMI="(29.000, 47.1000]"   Glucose="(89.00000, 197.1000]"   DiabetesPedigreeFunction="(0.000, 1.6000]"   
   (   0.5   0.5)))   % BMI="(47.000, 65.0000]"   Glucose="(89.00000, 197.1000]"   DiabetesPedigreeFunction="(0.000, 1.6000]"   
   (((   0.829426   0.170574)   % BMI="(1.000, 29.0000]"   Glucose="(30.0000, 89.0000]"   DiabetesPedigreeFunction="(0.0000, 0.4000]"   
   (   0.308307   0.691693)   % BMI="(29.000, 47.1000]"   Glucose="(30.0000, 89.0000]"   DiabetesPedigreeFunction="(0.0000, 0.4000]"   
   (   0.00515464   0.994845))   % BMI="(47.000, 65.0000]"   Glucose="(30.0000, 89.0000]"   DiabetesPedigreeFunction="(0.0000, 0.4000]"   
   ((   0.015528   0.984472)   % BMI="(1.000, 29.0000]"   Glucose="(89.00000, 197.1000]"   DiabetesPedigreeFunction="(0.0000, 0.4000]"   
   (   0.5   0.5)   % BMI="(29.000, 47.1000]"   Glucose="(89.00000, 197.1000]"   DiabetesPedigreeFunction="(0.0000, 0.4000]"   
   (   0.5   0.5))));   % BMI="(47.000, 65.0000]"   Glucose="(89.00000, 197.1000]"   DiabetesPedigreeFunction="(0.0000, 0.4000]"   
}


