
net {
  name = unnamedBN;
  software = "aGrUM 0.18.2";
  node_size = (50 50);
}

node Pregnancies {
   states = ("(0.0000, 5.5000]" "(5.000, 6.2000]" );
   label = "Pregnancies";
   ID = "Pregnancies";
}

node Glucose {
   states = ("(33.9400, 67.9000]" "(67.0000, 130.0000]" );
   label = "Glucose";
   ID = "Glucose";
}

node BloodPressure {
   states = ("(22.0999, 52.0000]" "(52.000, 58.3000]" "(58.0000, 82.2000]" );
   label = "BloodPressure";
   ID = "BloodPressure";
}

node SkinThickness {
   states = ("(0.0489, 12.9000]" "(12.000, 22.0000]" "(22.000, 46.4000]" );
   label = "SkinThickness";
   ID = "SkinThickness";
}

node Insulin {
   states = ("(1.0000, 84.8000]" "(114.00000, 299.6000]" "(84.00000, 114.9000]" );
   label = "Insulin";
   ID = "Insulin";
}

node BMI {
   states = ("(12.000, 28.0000]" "(28.000, 35.2000]" "(35.0000, 44.3000]" );
   label = "BMI";
   ID = "BMI";
}

node DiabetesPedigreeFunction {
   states = ("(1.00, 1.0000]" "(1.00, 2.1000]" );
   label = "DiabetesPedigreeFunction";
   ID = "DiabetesPedigreeFunction";
}

node Age {
   states = ("(21.7099, 25.0000]" "(25.000, 40.4000]" );
   label = "Age";
   ID = "Age";
}

node Diabetes? {
   states = (No Yes );
   label = "Diabetes?";
   ID = "Diabetes?";
}

potential ( Pregnancies | Glucose   ) {
   data = 
   ((   0.998952   0.00104822)   % Glucose="(33.9400, 67.9000]"   
   (   0.907407   0.0925926));   % Glucose="(67.0000, 130.0000]"   
}

potential ( Glucose | BloodPressure   ) {
   data = 
   ((   0.295455   0.704545)   % BloodPressure="(22.0999, 52.0000]"   
   (   0.999138   0.000862069)   % BloodPressure="(52.000, 58.3000]"   
   (   0.990385   0.00961538));   % BloodPressure="(58.0000, 82.2000]"   
}

potential ( BloodPressure | SkinThickness   ) {
   data = 
   ((   0.000688705   0.998623   0.000688705)   % SkinThickness="(0.0489, 12.9000]"   
   (   0.790397   0.0674054   0.142198)   % SkinThickness="(12.000, 22.0000]"   
   (   0.00456621   0.990868   0.00456621));   % SkinThickness="(22.000, 46.4000]"   
}

potential (SkinThickness) {
   data = (  0.527233 0.393246 0.0795207);
}

potential ( Insulin | SkinThickness   ) {
   data = 
   ((   0.769284   0.155647   0.0750689)   % SkinThickness="(0.0489, 12.9000]"   
   (   0.000923361   0.000923361   0.998153)   % SkinThickness="(12.000, 22.0000]"   
   (   0.00456621   0.00456621   0.990868));   % SkinThickness="(22.000, 46.4000]"   
}

potential ( BMI | Insulin   ) {
   data = 
   ((   0.218052   0.716711   0.0652368)   % Insulin="(1.0000, 84.8000]"   
   (   0.991228   0.00438596   0.00438596)   % Insulin="(114.00000, 299.6000]"   
   (   0.998579   0.000710732   0.000710732));   % Insulin="(84.00000, 114.9000]"   
}

potential ( DiabetesPedigreeFunction | BMI   Age   Diabetes?   ) {
   data = 
   ((((   0.5   0.5)   % Diabetes?=No   Age="(21.7099, 25.0000]"   BMI="(12.000, 28.0000]"   
   (   0.9998   0.00020024))   % Diabetes?=Yes   Age="(21.7099, 25.0000]"   BMI="(12.000, 28.0000]"   
   ((   0.5   0.5)   % Diabetes?=No   Age="(25.000, 40.4000]"   BMI="(12.000, 28.0000]"   
   (   0.5   0.5)))   % Diabetes?=Yes   Age="(25.000, 40.4000]"   BMI="(12.000, 28.0000]"   
   (((   0.986486   0.0135135)   % Diabetes?=No   Age="(21.7099, 25.0000]"   BMI="(28.000, 35.2000]"   
   (   0.677715   0.322285))   % Diabetes?=Yes   Age="(21.7099, 25.0000]"   BMI="(28.000, 35.2000]"   
   ((   0.5   0.5)   % Diabetes?=No   Age="(25.000, 40.4000]"   BMI="(28.000, 35.2000]"   
   (   0.998462   0.00153846)))   % Diabetes?=Yes   Age="(25.000, 40.4000]"   BMI="(28.000, 35.2000]"   
   (((   0.5   0.5)   % Diabetes?=No   Age="(21.7099, 25.0000]"   BMI="(35.0000, 44.3000]"   
   (   0.994845   0.00515464))   % Diabetes?=Yes   Age="(21.7099, 25.0000]"   BMI="(35.0000, 44.3000]"   
   ((   0.5   0.5)   % Diabetes?=No   Age="(25.000, 40.4000]"   BMI="(35.0000, 44.3000]"   
   (   0.5   0.5))));   % Diabetes?=Yes   Age="(25.000, 40.4000]"   BMI="(35.0000, 44.3000]"   
}

potential ( Age | BMI   ) {
   data = 
   ((   0.9992   0.0008)   % BMI="(12.000, 28.0000]"   
   (   0.695896   0.304104)   % BMI="(28.000, 35.2000]"   
   (   0.98   0.02));   % BMI="(35.0000, 44.3000]"   
}

potential ( Diabetes? | BMI   ) {
   data = 
   ((   0.0008   0.9992)   % BMI="(12.000, 28.0000]"   
   (   0.0354478   0.964552)   % BMI="(28.000, 35.2000]"   
   (   0.02   0.98));   % BMI="(35.0000, 44.3000]"   
}


