
net {
  name = unnamedBN;
  software = "aGrUM 0.17.0";
  node_size = (50 50);
}

node Pregnancies {
   states = ("(0.0000, 4.6000]" "(4.000, 5.2000]" );
   label = "Pregnancies";
   ID = "Pregnancies";
}

node Glucose {
   states = ("(131.00000, 154.9000]" "(154.00000, 198.2000]" );
   label = "Glucose";
   ID = "Glucose";
}

node BloodPressure {
   states = ("(-0.0000, 18.4000]" "(18.0000, 30.3000]" );
   label = "BloodPressure";
   ID = "BloodPressure";
}

node SkinThickness {
   states = ("(-0.000, 6.8000]" "(6.0000, 24.5000]" );
   label = "SkinThickness";
   ID = "SkinThickness";
}

node Insulin {
   states = ("(-0.0000, 54.9000]" "(54.00000, 194.0000]" );
   label = "Insulin";
   ID = "Insulin";
}

node BMI {
   states = ("(27.4799, 43.0000]" "(43.000, 50.0000]" "(50.0000, 59.1000]" );
   label = "BMI";
   ID = "BMI";
}

node DiabetesPedigreeFunction {
   states = ("(0.00, 0.0000]" "(0.0000, 0.2000]" );
   label = "DiabetesPedigreeFunction";
   ID = "DiabetesPedigreeFunction";
}

node Age {
   states = ("(30.0000, 44.5000]" "(44.0000, 59.1000]" );
   label = "Age";
   ID = "Age";
}

node Diabetes? {
   states = (Yes );
   label = "Diabetes?";
   ID = "Diabetes?";
}

potential ( Pregnancies | Glucose   ) {
   data = 
   ((   0.998952   0.00104822)   % Glucose="(131.00000, 154.9000]"   
   (   0.907407   0.0925926));   % Glucose="(154.00000, 198.2000]"   
}

potential (Glucose) {
   data = (  0.779412 0.220588);
}

potential ( BloodPressure | Insulin   Glucose   BMI   ) {
   data = 
   ((((   0.8493   0.1507)   % Insulin="(-0.0000, 54.9000]"   Glucose="(131.00000, 154.9000]"   BMI="(27.4799, 43.0000]"   
   (   0.998516   0.00148368))   % Insulin="(54.00000, 194.0000]"   Glucose="(131.00000, 154.9000]"   BMI="(27.4799, 43.0000]"   
   ((   0.999379   0.000621118)   % Insulin="(-0.0000, 54.9000]"   Glucose="(154.00000, 198.2000]"   BMI="(27.4799, 43.0000]"   
   (   0.5   0.5)))   % Insulin="(54.00000, 194.0000]"   Glucose="(154.00000, 198.2000]"   BMI="(27.4799, 43.0000]"   
   (((   0.999532   0.000467727)   % Insulin="(-0.0000, 54.9000]"   Glucose="(131.00000, 154.9000]"   BMI="(43.000, 50.0000]"   
   (   0.5   0.5))   % Insulin="(54.00000, 194.0000]"   Glucose="(131.00000, 154.9000]"   BMI="(43.000, 50.0000]"   
   ((   0.5   0.5)   % Insulin="(-0.0000, 54.9000]"   Glucose="(154.00000, 198.2000]"   BMI="(43.000, 50.0000]"   
   (   0.5   0.5)))   % Insulin="(54.00000, 194.0000]"   Glucose="(154.00000, 198.2000]"   BMI="(43.000, 50.0000]"   
   (((   0.994845   0.00515464)   % Insulin="(-0.0000, 54.9000]"   Glucose="(131.00000, 154.9000]"   BMI="(50.0000, 59.1000]"   
   (   0.5   0.5))   % Insulin="(54.00000, 194.0000]"   Glucose="(131.00000, 154.9000]"   BMI="(50.0000, 59.1000]"   
   ((   0.5   0.5)   % Insulin="(-0.0000, 54.9000]"   Glucose="(154.00000, 198.2000]"   BMI="(50.0000, 59.1000]"   
   (   0.5   0.5))));   % Insulin="(54.00000, 194.0000]"   Glucose="(154.00000, 198.2000]"   BMI="(50.0000, 59.1000]"   
}

potential ( SkinThickness | Glucose   BMI   Insulin   BloodPressure   ) {
   data = 
   (((((   0.697831   0.302169)   % Glucose="(131.00000, 154.9000]"   BMI="(27.4799, 43.0000]"   Insulin="(-0.0000, 54.9000]"   BloodPressure="(-0.0000, 18.4000]"   
   (   0.999689   0.000310752))   % Glucose="(154.00000, 198.2000]"   BMI="(27.4799, 43.0000]"   Insulin="(-0.0000, 54.9000]"   BloodPressure="(-0.0000, 18.4000]"   
   ((   0.999766   0.000233973)   % Glucose="(131.00000, 154.9000]"   BMI="(43.000, 50.0000]"   Insulin="(-0.0000, 54.9000]"   BloodPressure="(-0.0000, 18.4000]"   
   (   0.5   0.5))   % Glucose="(154.00000, 198.2000]"   BMI="(43.000, 50.0000]"   Insulin="(-0.0000, 54.9000]"   BloodPressure="(-0.0000, 18.4000]"   
   ((   0.997409   0.00259067)   % Glucose="(131.00000, 154.9000]"   BMI="(50.0000, 59.1000]"   Insulin="(-0.0000, 54.9000]"   BloodPressure="(-0.0000, 18.4000]"   
   (   0.5   0.5)))   % Glucose="(154.00000, 198.2000]"   BMI="(50.0000, 59.1000]"   Insulin="(-0.0000, 54.9000]"   BloodPressure="(-0.0000, 18.4000]"   
   (((   0.999257   0.000742942)   % Glucose="(131.00000, 154.9000]"   BMI="(27.4799, 43.0000]"   Insulin="(54.00000, 194.0000]"   BloodPressure="(-0.0000, 18.4000]"   
   (   0.5   0.5))   % Glucose="(154.00000, 198.2000]"   BMI="(27.4799, 43.0000]"   Insulin="(54.00000, 194.0000]"   BloodPressure="(-0.0000, 18.4000]"   
   ((   0.5   0.5)   % Glucose="(131.00000, 154.9000]"   BMI="(43.000, 50.0000]"   Insulin="(54.00000, 194.0000]"   BloodPressure="(-0.0000, 18.4000]"   
   (   0.5   0.5))   % Glucose="(154.00000, 198.2000]"   BMI="(43.000, 50.0000]"   Insulin="(54.00000, 194.0000]"   BloodPressure="(-0.0000, 18.4000]"   
   ((   0.5   0.5)   % Glucose="(131.00000, 154.9000]"   BMI="(50.0000, 59.1000]"   Insulin="(54.00000, 194.0000]"   BloodPressure="(-0.0000, 18.4000]"   
   (   0.5   0.5))))   % Glucose="(154.00000, 198.2000]"   BMI="(50.0000, 59.1000]"   Insulin="(54.00000, 194.0000]"   BloodPressure="(-0.0000, 18.4000]"   
   ((((   0.998778   0.00122249)   % Glucose="(131.00000, 154.9000]"   BMI="(27.4799, 43.0000]"   Insulin="(-0.0000, 54.9000]"   BloodPressure="(18.0000, 30.3000]"   
   (   0.5   0.5))   % Glucose="(154.00000, 198.2000]"   BMI="(27.4799, 43.0000]"   Insulin="(-0.0000, 54.9000]"   BloodPressure="(18.0000, 30.3000]"   
   ((   0.5   0.5)   % Glucose="(131.00000, 154.9000]"   BMI="(43.000, 50.0000]"   Insulin="(-0.0000, 54.9000]"   BloodPressure="(18.0000, 30.3000]"   
   (   0.5   0.5))   % Glucose="(154.00000, 198.2000]"   BMI="(43.000, 50.0000]"   Insulin="(-0.0000, 54.9000]"   BloodPressure="(18.0000, 30.3000]"   
   ((   0.5   0.5)   % Glucose="(131.00000, 154.9000]"   BMI="(50.0000, 59.1000]"   Insulin="(-0.0000, 54.9000]"   BloodPressure="(18.0000, 30.3000]"   
   (   0.5   0.5)))   % Glucose="(154.00000, 198.2000]"   BMI="(50.0000, 59.1000]"   Insulin="(-0.0000, 54.9000]"   BloodPressure="(18.0000, 30.3000]"   
   (((   0.5   0.5)   % Glucose="(131.00000, 154.9000]"   BMI="(27.4799, 43.0000]"   Insulin="(54.00000, 194.0000]"   BloodPressure="(18.0000, 30.3000]"   
   (   0.5   0.5))   % Glucose="(154.00000, 198.2000]"   BMI="(27.4799, 43.0000]"   Insulin="(54.00000, 194.0000]"   BloodPressure="(18.0000, 30.3000]"   
   ((   0.5   0.5)   % Glucose="(131.00000, 154.9000]"   BMI="(43.000, 50.0000]"   Insulin="(54.00000, 194.0000]"   BloodPressure="(18.0000, 30.3000]"   
   (   0.5   0.5))   % Glucose="(154.00000, 198.2000]"   BMI="(43.000, 50.0000]"   Insulin="(54.00000, 194.0000]"   BloodPressure="(18.0000, 30.3000]"   
   ((   0.5   0.5)   % Glucose="(131.00000, 154.9000]"   BMI="(50.0000, 59.1000]"   Insulin="(54.00000, 194.0000]"   BloodPressure="(18.0000, 30.3000]"   
   (   0.5   0.5)))));   % Glucose="(154.00000, 198.2000]"   BMI="(50.0000, 59.1000]"   Insulin="(54.00000, 194.0000]"   BloodPressure="(18.0000, 30.3000]"   
}

potential ( Insulin | Glucose   BMI   ) {
   data = 
   (((   0.801063   0.198937)   % Glucose="(131.00000, 154.9000]"   BMI="(27.4799, 43.0000]"   
   (   0.998759   0.00124069))   % Glucose="(154.00000, 198.2000]"   BMI="(27.4799, 43.0000]"   
   ((   0.999065   0.000934579)   % Glucose="(131.00000, 154.9000]"   BMI="(43.000, 50.0000]"   
   (   0.5   0.5))   % Glucose="(154.00000, 198.2000]"   BMI="(43.000, 50.0000]"   
   ((   0.989796   0.0102041)   % Glucose="(131.00000, 154.9000]"   BMI="(50.0000, 59.1000]"   
   (   0.5   0.5)));   % Glucose="(154.00000, 198.2000]"   BMI="(50.0000, 59.1000]"   
}

potential ( BMI | Glucose   ) {
   data = 
   ((   0.591894   0.373864   0.0342418)   % Glucose="(131.00000, 154.9000]"   
   (   0.995062   0.00246914   0.00246914));   % Glucose="(154.00000, 198.2000]"   
}

potential ( DiabetesPedigreeFunction | BMI   ) {
   data = 
   ((   0.0008   0.9992)   % BMI="(27.4799, 43.0000]"   
   (   0.76306   0.23694)   % BMI="(43.000, 50.0000]"   
   (   0.02   0.98));   % BMI="(50.0000, 59.1000]"   
}

potential ( Age | DiabetesPedigreeFunction   ) {
   data = 
   ((   0.777372   0.222628)   % DiabetesPedigreeFunction="(0.00, 0.0000]"   
   (   0.998947   0.00105263));   % DiabetesPedigreeFunction="(0.0000, 0.2000]"   
}

potential ( Diabetes? | Pregnancies   ) {
   data = 
   ((   1)   % Pregnancies="(0.0000, 4.6000]"   
   (   1));   % Pregnancies="(4.000, 5.2000]"   
}


