
net {
  name = unnamedBN;
  software = "aGrUM 0.17.0";
  node_size = (50 50);
}

node Pregnancies {
   states = ("(10.0000, 11.2000]" "(2.8400, 10.2000]" );
   label = "Pregnancies";
   ID = "Pregnancies";
}

node Glucose {
   states = ("(145.0000, 163.0000]" "(163.0000, 198.4000]" );
   label = "Glucose";
   ID = "Glucose";
}

node BloodPressure {
   states = ("(38.00, 68.0000]" "(68.000, 74.3000]" "(74.0000, 98.2000]" );
   label = "BloodPressure";
   ID = "BloodPressure";
}

node SkinThickness {
   states = ("(16.000, 28.0000]" "(28.000, 52.4000]" "(3.0000, 16.9000]" );
   label = "SkinThickness";
   ID = "SkinThickness";
}

node Insulin {
   states = ("(-0.0000, 54.9000]" "(54.00000, 194.0000]" );
   label = "Insulin";
   ID = "Insulin";
}

node BMI {
   states = ("(20.000, 35.0000]" "(35.000, 42.6000]" "(42.0000, 51.7000]" );
   label = "BMI";
   ID = "BMI";
}

node DiabetesPedigreeFunction {
   states = ("(0.000, 0.7000]" "(0.000, 1.2000]" );
   label = "DiabetesPedigreeFunction";
   ID = "DiabetesPedigreeFunction";
}

node Age {
   states = ("(30.0000, 44.5000]" "(44.0000, 59.1000]" );
   label = "Age";
   ID = "Age";
}

node Diabetes? {
   states = (Yes );
   label = "Diabetes?";
   ID = "Diabetes?";
}

potential ( Pregnancies | Glucose   ) {
   data = 
   ((   0.00104822   0.998952)   % Glucose="(145.0000, 163.0000]"   
   (   0.0925926   0.907407));   % Glucose="(163.0000, 198.4000]"   
}

potential ( Glucose | BloodPressure   Diabetes?   ) {
   data = 
   (((   0.295455   0.704545)   % BloodPressure="(38.00, 68.0000]"   Diabetes?=Yes   
   (   0.999138   0.000862069)   % BloodPressure="(68.000, 74.3000]"   Diabetes?=Yes   
   (   0.990385   0.00961538)));   % BloodPressure="(74.0000, 98.2000]"   Diabetes?=Yes   
}

potential ( BloodPressure | SkinThickness   ) {
   data = 
   ((   0.790397   0.0674054   0.142198)   % SkinThickness="(16.000, 28.0000]"   
   (   0.00456621   0.990868   0.00456621)   % SkinThickness="(28.000, 52.4000]"   
   (   0.000688705   0.998623   0.000688705));   % SkinThickness="(3.0000, 16.9000]"   
}

potential ( SkinThickness | Insulin   BMI   ) {
   data = 
   (((   0.666358   0.133518   0.200123)   % Insulin="(-0.0000, 54.9000]"   BMI="(20.000, 35.0000]"   
   (   0.00197239   0.00197239   0.996055))   % Insulin="(54.00000, 194.0000]"   BMI="(20.000, 35.0000]"   
   ((   0.000623053   0.000623053   0.998754)   % Insulin="(-0.0000, 54.9000]"   BMI="(35.000, 42.6000]"   
   (   0.333333   0.333333   0.333333))   % Insulin="(54.00000, 194.0000]"   BMI="(35.000, 42.6000]"   
   ((   0.00680272   0.00680272   0.986395)   % Insulin="(-0.0000, 54.9000]"   BMI="(42.0000, 51.7000]"   
   (   0.333333   0.333333   0.333333)));   % Insulin="(54.00000, 194.0000]"   BMI="(42.0000, 51.7000]"   
}

potential (Insulin) {
   data = (  0.906863 0.0931373);
}

potential ( BMI | Insulin   ) {
   data = 
   ((   0.649249   0.321321   0.0294294)   % Insulin="(-0.0000, 54.9000]"   
   (   0.988304   0.00584795   0.00584795));   % Insulin="(54.00000, 194.0000]"   
}

potential ( DiabetesPedigreeFunction | BMI   Age   ) {
   data = 
   (((   0.9996   0.00040032)   % BMI="(20.000, 35.0000]"   Age="(30.0000, 44.5000]"   
   (   0.742697   0.257303)   % BMI="(35.000, 42.6000]"   Age="(30.0000, 44.5000]"   
   (   0.989796   0.0102041))   % BMI="(42.0000, 51.7000]"   Age="(30.0000, 44.5000]"   
   ((   0.5   0.5)   % BMI="(20.000, 35.0000]"   Age="(44.0000, 59.1000]"   
   (   0.994505   0.00549451)   % BMI="(35.000, 42.6000]"   Age="(44.0000, 59.1000]"   
   (   0.5   0.5)));   % BMI="(42.0000, 51.7000]"   Age="(44.0000, 59.1000]"   
}

potential ( Age | BMI   ) {
   data = 
   ((   0.9992   0.0008)   % BMI="(20.000, 35.0000]"   
   (   0.830224   0.169776)   % BMI="(35.000, 42.6000]"   
   (   0.98   0.02));   % BMI="(42.0000, 51.7000]"   
}

potential ( Diabetes? | Insulin   BloodPressure   ) {
   data = 
   (((   1)   % Insulin="(-0.0000, 54.9000]"   BloodPressure="(38.00, 68.0000]"   
   (   1))   % Insulin="(54.00000, 194.0000]"   BloodPressure="(38.00, 68.0000]"   
   ((   1)   % Insulin="(-0.0000, 54.9000]"   BloodPressure="(68.000, 74.3000]"   
   (   1))   % Insulin="(54.00000, 194.0000]"   BloodPressure="(68.000, 74.3000]"   
   ((   1)   % Insulin="(-0.0000, 54.9000]"   BloodPressure="(74.0000, 98.2000]"   
   (   1)));   % Insulin="(54.00000, 194.0000]"   BloodPressure="(74.0000, 98.2000]"   
}


