
net {
  name = unnamedBN;
  software = "aGrUM 0.17.0";
  node_size = (50 50);
}

node Pregnancies {
   states = ("(12.0000, 13.2000]" "(4.0000, 12.2000]" );
   label = "Pregnancies";
   ID = "Pregnancies";
}

node Glucose {
   states = ("(116.00000, 145.2000]" "(145.00000, 198.1000]" );
   label = "Glucose";
   ID = "Glucose";
}

node BloodPressure {
   states = ("(58.00, 88.0000]" "(88.000, 94.3000]" "(94.00000, 118.2000]" );
   label = "BloodPressure";
   ID = "BloodPressure";
}

node SkinThickness {
   states = ("(-0.000, 6.8000]" "(6.0000, 24.5000]" );
   label = "SkinThickness";
   ID = "SkinThickness";
}

node Insulin {
   states = ("(-0.0000, 54.9000]" "(54.00000, 194.0000]" );
   label = "Insulin";
   ID = "Insulin";
}

node BMI {
   states = ("(14.000, 30.0000]" "(30.000, 37.1000]" "(37.0000, 46.2000]" );
   label = "BMI";
   ID = "BMI";
}

node DiabetesPedigreeFunction {
   states = ("(0.00, 0.8000]" "(0.000, 0.0000]" );
   label = "DiabetesPedigreeFunction";
   ID = "DiabetesPedigreeFunction";
}

node Age {
   states = ("(40.0000, 53.9000]" "(53.0000, 68.5000]" );
   label = "Age";
   ID = "Age";
}

node Diabetes? {
   states = (Yes );
   label = "Diabetes?";
   ID = "Diabetes?";
}

potential ( Pregnancies | Glucose   ) {
   data = 
   ((   0.00104822   0.998952)   % Glucose="(116.00000, 145.2000]"   
   (   0.0925926   0.907407));   % Glucose="(145.00000, 198.1000]"   
}

potential ( Glucose | BloodPressure   ) {
   data = 
   ((   0.295455   0.704545)   % BloodPressure="(58.00, 88.0000]"   
   (   0.999138   0.000862069)   % BloodPressure="(88.000, 94.3000]"   
   (   0.990385   0.00961538));   % BloodPressure="(94.00000, 118.2000]"   
}

potential ( BloodPressure | Insulin   ) {
   data = 
   ((   0.342943   0.595195   0.0618619)   % Insulin="(-0.0000, 54.9000]"   
   (   0.00584795   0.988304   0.00584795));   % Insulin="(54.00000, 194.0000]"   
}

potential ( SkinThickness | BloodPressure   Insulin   ) {
   data = 
   (((   0.999124   0.000875657)   % BloodPressure="(58.00, 88.0000]"   Insulin="(-0.0000, 54.9000]"   
   (   0.823915   0.176085)   % BloodPressure="(88.000, 94.3000]"   Insulin="(-0.0000, 54.9000]"   
   (   0.995146   0.00485437))   % BloodPressure="(94.00000, 118.2000]"   Insulin="(-0.0000, 54.9000]"   
   ((   0.5   0.5)   % BloodPressure="(58.00, 88.0000]"   Insulin="(54.00000, 194.0000]"   
   (   0.997041   0.00295858)   % BloodPressure="(88.000, 94.3000]"   Insulin="(54.00000, 194.0000]"   
   (   0.5   0.5)));   % BloodPressure="(94.00000, 118.2000]"   Insulin="(54.00000, 194.0000]"   
}

potential (Insulin) {
   data = (  0.906863 0.0931373);
}

potential ( BMI | BloodPressure   Insulin   SkinThickness   ) {
   data = 
   ((((   0.999416   0.000292141   0.000292141)   % BloodPressure="(58.00, 88.0000]"   Insulin="(-0.0000, 54.9000]"   SkinThickness="(-0.000, 6.8000]"   
   (   0.286793   0.654215   0.0589916)   % BloodPressure="(88.000, 94.3000]"   Insulin="(-0.0000, 54.9000]"   SkinThickness="(-0.000, 6.8000]"   
   (   0.996748   0.00162602   0.00162602))   % BloodPressure="(94.00000, 118.2000]"   Insulin="(-0.0000, 54.9000]"   SkinThickness="(-0.000, 6.8000]"   
   ((   0.333333   0.333333   0.333333)   % BloodPressure="(58.00, 88.0000]"   Insulin="(54.00000, 194.0000]"   SkinThickness="(-0.000, 6.8000]"   
   (   0.998022   0.00098912   0.00098912)   % BloodPressure="(88.000, 94.3000]"   Insulin="(54.00000, 194.0000]"   SkinThickness="(-0.000, 6.8000]"   
   (   0.333333   0.333333   0.333333)))   % BloodPressure="(94.00000, 118.2000]"   Insulin="(54.00000, 194.0000]"   SkinThickness="(-0.000, 6.8000]"   
   (((   0.333333   0.333333   0.333333)   % BloodPressure="(58.00, 88.0000]"   Insulin="(-0.0000, 54.9000]"   SkinThickness="(6.0000, 24.5000]"   
   (   0.99809   0.00095511   0.00095511)   % BloodPressure="(88.000, 94.3000]"   Insulin="(-0.0000, 54.9000]"   SkinThickness="(6.0000, 24.5000]"   
   (   0.333333   0.333333   0.333333))   % BloodPressure="(94.00000, 118.2000]"   Insulin="(-0.0000, 54.9000]"   SkinThickness="(6.0000, 24.5000]"   
   ((   0.333333   0.333333   0.333333)   % BloodPressure="(58.00, 88.0000]"   Insulin="(54.00000, 194.0000]"   SkinThickness="(6.0000, 24.5000]"   
   (   0.333333   0.333333   0.333333)   % BloodPressure="(88.000, 94.3000]"   Insulin="(54.00000, 194.0000]"   SkinThickness="(6.0000, 24.5000]"   
   (   0.333333   0.333333   0.333333))));   % BloodPressure="(94.00000, 118.2000]"   Insulin="(54.00000, 194.0000]"   SkinThickness="(6.0000, 24.5000]"   
}

potential ( DiabetesPedigreeFunction | BMI   ) {
   data = 
   ((   0.0008   0.9992)   % BMI="(14.000, 30.0000]"   
   (   0.76306   0.23694)   % BMI="(30.000, 37.1000]"   
   (   0.02   0.98));   % BMI="(37.0000, 46.2000]"   
}

potential ( Age | DiabetesPedigreeFunction   ) {
   data = 
   ((   0.777372   0.222628)   % DiabetesPedigreeFunction="(0.00, 0.8000]"   
   (   0.998947   0.00105263));   % DiabetesPedigreeFunction="(0.000, 0.0000]"   
}

potential ( Diabetes? | Glucose   BMI   SkinThickness   BloodPressure   DiabetesPedigreeFunction   Pregnancies   ) {
   data = 
   (((((((   1)   % Glucose="(116.00000, 145.2000]"   BMI="(14.000, 30.0000]"   SkinThickness="(-0.000, 6.8000]"   BloodPressure="(58.00, 88.0000]"   DiabetesPedigreeFunction="(0.00, 0.8000]"   Pregnancies="(12.0000, 13.2000]"   
   (   1))   % Glucose="(145.00000, 198.1000]"   BMI="(14.000, 30.0000]"   SkinThickness="(-0.000, 6.8000]"   BloodPressure="(58.00, 88.0000]"   DiabetesPedigreeFunction="(0.00, 0.8000]"   Pregnancies="(12.0000, 13.2000]"   
   ((   1)   % Glucose="(116.00000, 145.2000]"   BMI="(30.000, 37.1000]"   SkinThickness="(-0.000, 6.8000]"   BloodPressure="(58.00, 88.0000]"   DiabetesPedigreeFunction="(0.00, 0.8000]"   Pregnancies="(12.0000, 13.2000]"   
   (   1))   % Glucose="(145.00000, 198.1000]"   BMI="(30.000, 37.1000]"   SkinThickness="(-0.000, 6.8000]"   BloodPressure="(58.00, 88.0000]"   DiabetesPedigreeFunction="(0.00, 0.8000]"   Pregnancies="(12.0000, 13.2000]"   
   ((   1)   % Glucose="(116.00000, 145.2000]"   BMI="(37.0000, 46.2000]"   SkinThickness="(-0.000, 6.8000]"   BloodPressure="(58.00, 88.0000]"   DiabetesPedigreeFunction="(0.00, 0.8000]"   Pregnancies="(12.0000, 13.2000]"   
   (   1)))   % Glucose="(145.00000, 198.1000]"   BMI="(37.0000, 46.2000]"   SkinThickness="(-0.000, 6.8000]"   BloodPressure="(58.00, 88.0000]"   DiabetesPedigreeFunction="(0.00, 0.8000]"   Pregnancies="(12.0000, 13.2000]"   
   (((   1)   % Glucose="(116.00000, 145.2000]"   BMI="(14.000, 30.0000]"   SkinThickness="(6.0000, 24.5000]"   BloodPressure="(58.00, 88.0000]"   DiabetesPedigreeFunction="(0.00, 0.8000]"   Pregnancies="(12.0000, 13.2000]"   
   (   1))   % Glucose="(145.00000, 198.1000]"   BMI="(14.000, 30.0000]"   SkinThickness="(6.0000, 24.5000]"   BloodPressure="(58.00, 88.0000]"   DiabetesPedigreeFunction="(0.00, 0.8000]"   Pregnancies="(12.0000, 13.2000]"   
   ((   1)   % Glucose="(116.00000, 145.2000]"   BMI="(30.000, 37.1000]"   SkinThickness="(6.0000, 24.5000]"   BloodPressure="(58.00, 88.0000]"   DiabetesPedigreeFunction="(0.00, 0.8000]"   Pregnancies="(12.0000, 13.2000]"   
   (   1))   % Glucose="(145.00000, 198.1000]"   BMI="(30.000, 37.1000]"   SkinThickness="(6.0000, 24.5000]"   BloodPressure="(58.00, 88.0000]"   DiabetesPedigreeFunction="(0.00, 0.8000]"   Pregnancies="(12.0000, 13.2000]"   
   ((   1)   % Glucose="(116.00000, 145.2000]"   BMI="(37.0000, 46.2000]"   SkinThickness="(6.0000, 24.5000]"   BloodPressure="(58.00, 88.0000]"   DiabetesPedigreeFunction="(0.00, 0.8000]"   Pregnancies="(12.0000, 13.2000]"   
   (   1))))   % Glucose="(145.00000, 198.1000]"   BMI="(37.0000, 46.2000]"   SkinThickness="(6.0000, 24.5000]"   BloodPressure="(58.00, 88.0000]"   DiabetesPedigreeFunction="(0.00, 0.8000]"   Pregnancies="(12.0000, 13.2000]"   
   ((((   1)   % Glucose="(116.00000, 145.2000]"   BMI="(14.000, 30.0000]"   SkinThickness="(-0.000, 6.8000]"   BloodPressure="(88.000, 94.3000]"   DiabetesPedigreeFunction="(0.00, 0.8000]"   Pregnancies="(12.0000, 13.2000]"   
   (   1))   % Glucose="(145.00000, 198.1000]"   BMI="(14.000, 30.0000]"   SkinThickness="(-0.000, 6.8000]"   BloodPressure="(88.000, 94.3000]"   DiabetesPedigreeFunction="(0.00, 0.8000]"   Pregnancies="(12.0000, 13.2000]"   
   ((   1)   % Glucose="(116.00000, 145.2000]"   BMI="(30.000, 37.1000]"   SkinThickness="(-0.000, 6.8000]"   BloodPressure="(88.000, 94.3000]"   DiabetesPedigreeFunction="(0.00, 0.8000]"   Pregnancies="(12.0000, 13.2000]"   
   (   1))   % Glucose="(145.00000, 198.1000]"   BMI="(30.000, 37.1000]"   SkinThickness="(-0.000, 6.8000]"   BloodPressure="(88.000, 94.3000]"   DiabetesPedigreeFunction="(0.00, 0.8000]"   Pregnancies="(12.0000, 13.2000]"   
   ((   1)   % Glucose="(116.00000, 145.2000]"   BMI="(37.0000, 46.2000]"   SkinThickness="(-0.000, 6.8000]"   BloodPressure="(88.000, 94.3000]"   DiabetesPedigreeFunction="(0.00, 0.8000]"   Pregnancies="(12.0000, 13.2000]"   
   (   1)))   % Glucose="(145.00000, 198.1000]"   BMI="(37.0000, 46.2000]"   SkinThickness="(-0.000, 6.8000]"   BloodPressure="(88.000, 94.3000]"   DiabetesPedigreeFunction="(0.00, 0.8000]"   Pregnancies="(12.0000, 13.2000]"   
   (((   1)   % Glucose="(116.00000, 145.2000]"   BMI="(14.000, 30.0000]"   SkinThickness="(6.0000, 24.5000]"   BloodPressure="(88.000, 94.3000]"   DiabetesPedigreeFunction="(0.00, 0.8000]"   Pregnancies="(12.0000, 13.2000]"   
   (   1))   % Glucose="(145.00000, 198.1000]"   BMI="(14.000, 30.0000]"   SkinThickness="(6.0000, 24.5000]"   BloodPressure="(88.000, 94.3000]"   DiabetesPedigreeFunction="(0.00, 0.8000]"   Pregnancies="(12.0000, 13.2000]"   
   ((   1)   % Glucose="(116.00000, 145.2000]"   BMI="(30.000, 37.1000]"   SkinThickness="(6.0000, 24.5000]"   BloodPressure="(88.000, 94.3000]"   DiabetesPedigreeFunction="(0.00, 0.8000]"   Pregnancies="(12.0000, 13.2000]"   
   (   1))   % Glucose="(145.00000, 198.1000]"   BMI="(30.000, 37.1000]"   SkinThickness="(6.0000, 24.5000]"   BloodPressure="(88.000, 94.3000]"   DiabetesPedigreeFunction="(0.00, 0.8000]"   Pregnancies="(12.0000, 13.2000]"   
   ((   1)   % Glucose="(116.00000, 145.2000]"   BMI="(37.0000, 46.2000]"   SkinThickness="(6.0000, 24.5000]"   BloodPressure="(88.000, 94.3000]"   DiabetesPedigreeFunction="(0.00, 0.8000]"   Pregnancies="(12.0000, 13.2000]"   
   (   1))))   % Glucose="(145.00000, 198.1000]"   BMI="(37.0000, 46.2000]"   SkinThickness="(6.0000, 24.5000]"   BloodPressure="(88.000, 94.3000]"   DiabetesPedigreeFunction="(0.00, 0.8000]"   Pregnancies="(12.0000, 13.2000]"   
   ((((   1)   % Glucose="(116.00000, 145.2000]"   BMI="(14.000, 30.0000]"   SkinThickness="(-0.000, 6.8000]"   BloodPressure="(94.00000, 118.2000]"   DiabetesPedigreeFunction="(0.00, 0.8000]"   Pregnancies="(12.0000, 13.2000]"   
   (   1))   % Glucose="(145.00000, 198.1000]"   BMI="(14.000, 30.0000]"   SkinThickness="(-0.000, 6.8000]"   BloodPressure="(94.00000, 118.2000]"   DiabetesPedigreeFunction="(0.00, 0.8000]"   Pregnancies="(12.0000, 13.2000]"   
   ((   1)   % Glucose="(116.00000, 145.2000]"   BMI="(30.000, 37.1000]"   SkinThickness="(-0.000, 6.8000]"   BloodPressure="(94.00000, 118.2000]"   DiabetesPedigreeFunction="(0.00, 0.8000]"   Pregnancies="(12.0000, 13.2000]"   
   (   1))   % Glucose="(145.00000, 198.1000]"   BMI="(30.000, 37.1000]"   SkinThickness="(-0.000, 6.8000]"   BloodPressure="(94.00000, 118.2000]"   DiabetesPedigreeFunction="(0.00, 0.8000]"   Pregnancies="(12.0000, 13.2000]"   
   ((   1)   % Glucose="(116.00000, 145.2000]"   BMI="(37.0000, 46.2000]"   SkinThickness="(-0.000, 6.8000]"   BloodPressure="(94.00000, 118.2000]"   DiabetesPedigreeFunction="(0.00, 0.8000]"   Pregnancies="(12.0000, 13.2000]"   
   (   1)))   % Glucose="(145.00000, 198.1000]"   BMI="(37.0000, 46.2000]"   SkinThickness="(-0.000, 6.8000]"   BloodPressure="(94.00000, 118.2000]"   DiabetesPedigreeFunction="(0.00, 0.8000]"   Pregnancies="(12.0000, 13.2000]"   
   (((   1)   % Glucose="(116.00000, 145.2000]"   BMI="(14.000, 30.0000]"   SkinThickness="(6.0000, 24.5000]"   BloodPressure="(94.00000, 118.2000]"   DiabetesPedigreeFunction="(0.00, 0.8000]"   Pregnancies="(12.0000, 13.2000]"   
   (   1))   % Glucose="(145.00000, 198.1000]"   BMI="(14.000, 30.0000]"   SkinThickness="(6.0000, 24.5000]"   BloodPressure="(94.00000, 118.2000]"   DiabetesPedigreeFunction="(0.00, 0.8000]"   Pregnancies="(12.0000, 13.2000]"   
   ((   1)   % Glucose="(116.00000, 145.2000]"   BMI="(30.000, 37.1000]"   SkinThickness="(6.0000, 24.5000]"   BloodPressure="(94.00000, 118.2000]"   DiabetesPedigreeFunction="(0.00, 0.8000]"   Pregnancies="(12.0000, 13.2000]"   
   (   1))   % Glucose="(145.00000, 198.1000]"   BMI="(30.000, 37.1000]"   SkinThickness="(6.0000, 24.5000]"   BloodPressure="(94.00000, 118.2000]"   DiabetesPedigreeFunction="(0.00, 0.8000]"   Pregnancies="(12.0000, 13.2000]"   
   ((   1)   % Glucose="(116.00000, 145.2000]"   BMI="(37.0000, 46.2000]"   SkinThickness="(6.0000, 24.5000]"   BloodPressure="(94.00000, 118.2000]"   DiabetesPedigreeFunction="(0.00, 0.8000]"   Pregnancies="(12.0000, 13.2000]"   
   (   1)))))   % Glucose="(145.00000, 198.1000]"   BMI="(37.0000, 46.2000]"   SkinThickness="(6.0000, 24.5000]"   BloodPressure="(94.00000, 118.2000]"   DiabetesPedigreeFunction="(0.00, 0.8000]"   Pregnancies="(12.0000, 13.2000]"   
   (((((   1)   % Glucose="(116.00000, 145.2000]"   BMI="(14.000, 30.0000]"   SkinThickness="(-0.000, 6.8000]"   BloodPressure="(58.00, 88.0000]"   DiabetesPedigreeFunction="(0.000, 0.0000]"   Pregnancies="(12.0000, 13.2000]"   
   (   1))   % Glucose="(145.00000, 198.1000]"   BMI="(14.000, 30.0000]"   SkinThickness="(-0.000, 6.8000]"   BloodPressure="(58.00, 88.0000]"   DiabetesPedigreeFunction="(0.000, 0.0000]"   Pregnancies="(12.0000, 13.2000]"   
   ((   1)   % Glucose="(116.00000, 145.2000]"   BMI="(30.000, 37.1000]"   SkinThickness="(-0.000, 6.8000]"   BloodPressure="(58.00, 88.0000]"   DiabetesPedigreeFunction="(0.000, 0.0000]"   Pregnancies="(12.0000, 13.2000]"   
   (   1))   % Glucose="(145.00000, 198.1000]"   BMI="(30.000, 37.1000]"   SkinThickness="(-0.000, 6.8000]"   BloodPressure="(58.00, 88.0000]"   DiabetesPedigreeFunction="(0.000, 0.0000]"   Pregnancies="(12.0000, 13.2000]"   
   ((   1)   % Glucose="(116.00000, 145.2000]"   BMI="(37.0000, 46.2000]"   SkinThickness="(-0.000, 6.8000]"   BloodPressure="(58.00, 88.0000]"   DiabetesPedigreeFunction="(0.000, 0.0000]"   Pregnancies="(12.0000, 13.2000]"   
   (   1)))   % Glucose="(145.00000, 198.1000]"   BMI="(37.0000, 46.2000]"   SkinThickness="(-0.000, 6.8000]"   BloodPressure="(58.00, 88.0000]"   DiabetesPedigreeFunction="(0.000, 0.0000]"   Pregnancies="(12.0000, 13.2000]"   
   (((   1)   % Glucose="(116.00000, 145.2000]"   BMI="(14.000, 30.0000]"   SkinThickness="(6.0000, 24.5000]"   BloodPressure="(58.00, 88.0000]"   DiabetesPedigreeFunction="(0.000, 0.0000]"   Pregnancies="(12.0000, 13.2000]"   
   (   1))   % Glucose="(145.00000, 198.1000]"   BMI="(14.000, 30.0000]"   SkinThickness="(6.0000, 24.5000]"   BloodPressure="(58.00, 88.0000]"   DiabetesPedigreeFunction="(0.000, 0.0000]"   Pregnancies="(12.0000, 13.2000]"   
   ((   1)   % Glucose="(116.00000, 145.2000]"   BMI="(30.000, 37.1000]"   SkinThickness="(6.0000, 24.5000]"   BloodPressure="(58.00, 88.0000]"   DiabetesPedigreeFunction="(0.000, 0.0000]"   Pregnancies="(12.0000, 13.2000]"   
   (   1))   % Glucose="(145.00000, 198.1000]"   BMI="(30.000, 37.1000]"   SkinThickness="(6.0000, 24.5000]"   BloodPressure="(58.00, 88.0000]"   DiabetesPedigreeFunction="(0.000, 0.0000]"   Pregnancies="(12.0000, 13.2000]"   
   ((   1)   % Glucose="(116.00000, 145.2000]"   BMI="(37.0000, 46.2000]"   SkinThickness="(6.0000, 24.5000]"   BloodPressure="(58.00, 88.0000]"   DiabetesPedigreeFunction="(0.000, 0.0000]"   Pregnancies="(12.0000, 13.2000]"   
   (   1))))   % Glucose="(145.00000, 198.1000]"   BMI="(37.0000, 46.2000]"   SkinThickness="(6.0000, 24.5000]"   BloodPressure="(58.00, 88.0000]"   DiabetesPedigreeFunction="(0.000, 0.0000]"   Pregnancies="(12.0000, 13.2000]"   
   ((((   1)   % Glucose="(116.00000, 145.2000]"   BMI="(14.000, 30.0000]"   SkinThickness="(-0.000, 6.8000]"   BloodPressure="(88.000, 94.3000]"   DiabetesPedigreeFunction="(0.000, 0.0000]"   Pregnancies="(12.0000, 13.2000]"   
   (   1))   % Glucose="(145.00000, 198.1000]"   BMI="(14.000, 30.0000]"   SkinThickness="(-0.000, 6.8000]"   BloodPressure="(88.000, 94.3000]"   DiabetesPedigreeFunction="(0.000, 0.0000]"   Pregnancies="(12.0000, 13.2000]"   
   ((   1)   % Glucose="(116.00000, 145.2000]"   BMI="(30.000, 37.1000]"   SkinThickness="(-0.000, 6.8000]"   BloodPressure="(88.000, 94.3000]"   DiabetesPedigreeFunction="(0.000, 0.0000]"   Pregnancies="(12.0000, 13.2000]"   
   (   1))   % Glucose="(145.00000, 198.1000]"   BMI="(30.000, 37.1000]"   SkinThickness="(-0.000, 6.8000]"   BloodPressure="(88.000, 94.3000]"   DiabetesPedigreeFunction="(0.000, 0.0000]"   Pregnancies="(12.0000, 13.2000]"   
   ((   1)   % Glucose="(116.00000, 145.2000]"   BMI="(37.0000, 46.2000]"   SkinThickness="(-0.000, 6.8000]"   BloodPressure="(88.000, 94.3000]"   DiabetesPedigreeFunction="(0.000, 0.0000]"   Pregnancies="(12.0000, 13.2000]"   
   (   1)))   % Glucose="(145.00000, 198.1000]"   BMI="(37.0000, 46.2000]"   SkinThickness="(-0.000, 6.8000]"   BloodPressure="(88.000, 94.3000]"   DiabetesPedigreeFunction="(0.000, 0.0000]"   Pregnancies="(12.0000, 13.2000]"   
   (((   1)   % Glucose="(116.00000, 145.2000]"   BMI="(14.000, 30.0000]"   SkinThickness="(6.0000, 24.5000]"   BloodPressure="(88.000, 94.3000]"   DiabetesPedigreeFunction="(0.000, 0.0000]"   Pregnancies="(12.0000, 13.2000]"   
   (   1))   % Glucose="(145.00000, 198.1000]"   BMI="(14.000, 30.0000]"   SkinThickness="(6.0000, 24.5000]"   BloodPressure="(88.000, 94.3000]"   DiabetesPedigreeFunction="(0.000, 0.0000]"   Pregnancies="(12.0000, 13.2000]"   
   ((   1)   % Glucose="(116.00000, 145.2000]"   BMI="(30.000, 37.1000]"   SkinThickness="(6.0000, 24.5000]"   BloodPressure="(88.000, 94.3000]"   DiabetesPedigreeFunction="(0.000, 0.0000]"   Pregnancies="(12.0000, 13.2000]"   
   (   1))   % Glucose="(145.00000, 198.1000]"   BMI="(30.000, 37.1000]"   SkinThickness="(6.0000, 24.5000]"   BloodPressure="(88.000, 94.3000]"   DiabetesPedigreeFunction="(0.000, 0.0000]"   Pregnancies="(12.0000, 13.2000]"   
   ((   1)   % Glucose="(116.00000, 145.2000]"   BMI="(37.0000, 46.2000]"   SkinThickness="(6.0000, 24.5000]"   BloodPressure="(88.000, 94.3000]"   DiabetesPedigreeFunction="(0.000, 0.0000]"   Pregnancies="(12.0000, 13.2000]"   
   (   1))))   % Glucose="(145.00000, 198.1000]"   BMI="(37.0000, 46.2000]"   SkinThickness="(6.0000, 24.5000]"   BloodPressure="(88.000, 94.3000]"   DiabetesPedigreeFunction="(0.000, 0.0000]"   Pregnancies="(12.0000, 13.2000]"   
   ((((   1)   % Glucose="(116.00000, 145.2000]"   BMI="(14.000, 30.0000]"   SkinThickness="(-0.000, 6.8000]"   BloodPressure="(94.00000, 118.2000]"   DiabetesPedigreeFunction="(0.000, 0.0000]"   Pregnancies="(12.0000, 13.2000]"   
   (   1))   % Glucose="(145.00000, 198.1000]"   BMI="(14.000, 30.0000]"   SkinThickness="(-0.000, 6.8000]"   BloodPressure="(94.00000, 118.2000]"   DiabetesPedigreeFunction="(0.000, 0.0000]"   Pregnancies="(12.0000, 13.2000]"   
   ((   1)   % Glucose="(116.00000, 145.2000]"   BMI="(30.000, 37.1000]"   SkinThickness="(-0.000, 6.8000]"   BloodPressure="(94.00000, 118.2000]"   DiabetesPedigreeFunction="(0.000, 0.0000]"   Pregnancies="(12.0000, 13.2000]"   
   (   1))   % Glucose="(145.00000, 198.1000]"   BMI="(30.000, 37.1000]"   SkinThickness="(-0.000, 6.8000]"   BloodPressure="(94.00000, 118.2000]"   DiabetesPedigreeFunction="(0.000, 0.0000]"   Pregnancies="(12.0000, 13.2000]"   
   ((   1)   % Glucose="(116.00000, 145.2000]"   BMI="(37.0000, 46.2000]"   SkinThickness="(-0.000, 6.8000]"   BloodPressure="(94.00000, 118.2000]"   DiabetesPedigreeFunction="(0.000, 0.0000]"   Pregnancies="(12.0000, 13.2000]"   
   (   1)))   % Glucose="(145.00000, 198.1000]"   BMI="(37.0000, 46.2000]"   SkinThickness="(-0.000, 6.8000]"   BloodPressure="(94.00000, 118.2000]"   DiabetesPedigreeFunction="(0.000, 0.0000]"   Pregnancies="(12.0000, 13.2000]"   
   (((   1)   % Glucose="(116.00000, 145.2000]"   BMI="(14.000, 30.0000]"   SkinThickness="(6.0000, 24.5000]"   BloodPressure="(94.00000, 118.2000]"   DiabetesPedigreeFunction="(0.000, 0.0000]"   Pregnancies="(12.0000, 13.2000]"   
   (   1))   % Glucose="(145.00000, 198.1000]"   BMI="(14.000, 30.0000]"   SkinThickness="(6.0000, 24.5000]"   BloodPressure="(94.00000, 118.2000]"   DiabetesPedigreeFunction="(0.000, 0.0000]"   Pregnancies="(12.0000, 13.2000]"   
   ((   1)   % Glucose="(116.00000, 145.2000]"   BMI="(30.000, 37.1000]"   SkinThickness="(6.0000, 24.5000]"   BloodPressure="(94.00000, 118.2000]"   DiabetesPedigreeFunction="(0.000, 0.0000]"   Pregnancies="(12.0000, 13.2000]"   
   (   1))   % Glucose="(145.00000, 198.1000]"   BMI="(30.000, 37.1000]"   SkinThickness="(6.0000, 24.5000]"   BloodPressure="(94.00000, 118.2000]"   DiabetesPedigreeFunction="(0.000, 0.0000]"   Pregnancies="(12.0000, 13.2000]"   
   ((   1)   % Glucose="(116.00000, 145.2000]"   BMI="(37.0000, 46.2000]"   SkinThickness="(6.0000, 24.5000]"   BloodPressure="(94.00000, 118.2000]"   DiabetesPedigreeFunction="(0.000, 0.0000]"   Pregnancies="(12.0000, 13.2000]"   
   (   1))))))   % Glucose="(145.00000, 198.1000]"   BMI="(37.0000, 46.2000]"   SkinThickness="(6.0000, 24.5000]"   BloodPressure="(94.00000, 118.2000]"   DiabetesPedigreeFunction="(0.000, 0.0000]"   Pregnancies="(12.0000, 13.2000]"   
   ((((((   1)   % Glucose="(116.00000, 145.2000]"   BMI="(14.000, 30.0000]"   SkinThickness="(-0.000, 6.8000]"   BloodPressure="(58.00, 88.0000]"   DiabetesPedigreeFunction="(0.00, 0.8000]"   Pregnancies="(4.0000, 12.2000]"   
   (   1))   % Glucose="(145.00000, 198.1000]"   BMI="(14.000, 30.0000]"   SkinThickness="(-0.000, 6.8000]"   BloodPressure="(58.00, 88.0000]"   DiabetesPedigreeFunction="(0.00, 0.8000]"   Pregnancies="(4.0000, 12.2000]"   
   ((   1)   % Glucose="(116.00000, 145.2000]"   BMI="(30.000, 37.1000]"   SkinThickness="(-0.000, 6.8000]"   BloodPressure="(58.00, 88.0000]"   DiabetesPedigreeFunction="(0.00, 0.8000]"   Pregnancies="(4.0000, 12.2000]"   
   (   1))   % Glucose="(145.00000, 198.1000]"   BMI="(30.000, 37.1000]"   SkinThickness="(-0.000, 6.8000]"   BloodPressure="(58.00, 88.0000]"   DiabetesPedigreeFunction="(0.00, 0.8000]"   Pregnancies="(4.0000, 12.2000]"   
   ((   1)   % Glucose="(116.00000, 145.2000]"   BMI="(37.0000, 46.2000]"   SkinThickness="(-0.000, 6.8000]"   BloodPressure="(58.00, 88.0000]"   DiabetesPedigreeFunction="(0.00, 0.8000]"   Pregnancies="(4.0000, 12.2000]"   
   (   1)))   % Glucose="(145.00000, 198.1000]"   BMI="(37.0000, 46.2000]"   SkinThickness="(-0.000, 6.8000]"   BloodPressure="(58.00, 88.0000]"   DiabetesPedigreeFunction="(0.00, 0.8000]"   Pregnancies="(4.0000, 12.2000]"   
   (((   1)   % Glucose="(116.00000, 145.2000]"   BMI="(14.000, 30.0000]"   SkinThickness="(6.0000, 24.5000]"   BloodPressure="(58.00, 88.0000]"   DiabetesPedigreeFunction="(0.00, 0.8000]"   Pregnancies="(4.0000, 12.2000]"   
   (   1))   % Glucose="(145.00000, 198.1000]"   BMI="(14.000, 30.0000]"   SkinThickness="(6.0000, 24.5000]"   BloodPressure="(58.00, 88.0000]"   DiabetesPedigreeFunction="(0.00, 0.8000]"   Pregnancies="(4.0000, 12.2000]"   
   ((   1)   % Glucose="(116.00000, 145.2000]"   BMI="(30.000, 37.1000]"   SkinThickness="(6.0000, 24.5000]"   BloodPressure="(58.00, 88.0000]"   DiabetesPedigreeFunction="(0.00, 0.8000]"   Pregnancies="(4.0000, 12.2000]"   
   (   1))   % Glucose="(145.00000, 198.1000]"   BMI="(30.000, 37.1000]"   SkinThickness="(6.0000, 24.5000]"   BloodPressure="(58.00, 88.0000]"   DiabetesPedigreeFunction="(0.00, 0.8000]"   Pregnancies="(4.0000, 12.2000]"   
   ((   1)   % Glucose="(116.00000, 145.2000]"   BMI="(37.0000, 46.2000]"   SkinThickness="(6.0000, 24.5000]"   BloodPressure="(58.00, 88.0000]"   DiabetesPedigreeFunction="(0.00, 0.8000]"   Pregnancies="(4.0000, 12.2000]"   
   (   1))))   % Glucose="(145.00000, 198.1000]"   BMI="(37.0000, 46.2000]"   SkinThickness="(6.0000, 24.5000]"   BloodPressure="(58.00, 88.0000]"   DiabetesPedigreeFunction="(0.00, 0.8000]"   Pregnancies="(4.0000, 12.2000]"   
   ((((   1)   % Glucose="(116.00000, 145.2000]"   BMI="(14.000, 30.0000]"   SkinThickness="(-0.000, 6.8000]"   BloodPressure="(88.000, 94.3000]"   DiabetesPedigreeFunction="(0.00, 0.8000]"   Pregnancies="(4.0000, 12.2000]"   
   (   1))   % Glucose="(145.00000, 198.1000]"   BMI="(14.000, 30.0000]"   SkinThickness="(-0.000, 6.8000]"   BloodPressure="(88.000, 94.3000]"   DiabetesPedigreeFunction="(0.00, 0.8000]"   Pregnancies="(4.0000, 12.2000]"   
   ((   1)   % Glucose="(116.00000, 145.2000]"   BMI="(30.000, 37.1000]"   SkinThickness="(-0.000, 6.8000]"   BloodPressure="(88.000, 94.3000]"   DiabetesPedigreeFunction="(0.00, 0.8000]"   Pregnancies="(4.0000, 12.2000]"   
   (   1))   % Glucose="(145.00000, 198.1000]"   BMI="(30.000, 37.1000]"   SkinThickness="(-0.000, 6.8000]"   BloodPressure="(88.000, 94.3000]"   DiabetesPedigreeFunction="(0.00, 0.8000]"   Pregnancies="(4.0000, 12.2000]"   
   ((   1)   % Glucose="(116.00000, 145.2000]"   BMI="(37.0000, 46.2000]"   SkinThickness="(-0.000, 6.8000]"   BloodPressure="(88.000, 94.3000]"   DiabetesPedigreeFunction="(0.00, 0.8000]"   Pregnancies="(4.0000, 12.2000]"   
   (   1)))   % Glucose="(145.00000, 198.1000]"   BMI="(37.0000, 46.2000]"   SkinThickness="(-0.000, 6.8000]"   BloodPressure="(88.000, 94.3000]"   DiabetesPedigreeFunction="(0.00, 0.8000]"   Pregnancies="(4.0000, 12.2000]"   
   (((   1)   % Glucose="(116.00000, 145.2000]"   BMI="(14.000, 30.0000]"   SkinThickness="(6.0000, 24.5000]"   BloodPressure="(88.000, 94.3000]"   DiabetesPedigreeFunction="(0.00, 0.8000]"   Pregnancies="(4.0000, 12.2000]"   
   (   1))   % Glucose="(145.00000, 198.1000]"   BMI="(14.000, 30.0000]"   SkinThickness="(6.0000, 24.5000]"   BloodPressure="(88.000, 94.3000]"   DiabetesPedigreeFunction="(0.00, 0.8000]"   Pregnancies="(4.0000, 12.2000]"   
   ((   1)   % Glucose="(116.00000, 145.2000]"   BMI="(30.000, 37.1000]"   SkinThickness="(6.0000, 24.5000]"   BloodPressure="(88.000, 94.3000]"   DiabetesPedigreeFunction="(0.00, 0.8000]"   Pregnancies="(4.0000, 12.2000]"   
   (   1))   % Glucose="(145.00000, 198.1000]"   BMI="(30.000, 37.1000]"   SkinThickness="(6.0000, 24.5000]"   BloodPressure="(88.000, 94.3000]"   DiabetesPedigreeFunction="(0.00, 0.8000]"   Pregnancies="(4.0000, 12.2000]"   
   ((   1)   % Glucose="(116.00000, 145.2000]"   BMI="(37.0000, 46.2000]"   SkinThickness="(6.0000, 24.5000]"   BloodPressure="(88.000, 94.3000]"   DiabetesPedigreeFunction="(0.00, 0.8000]"   Pregnancies="(4.0000, 12.2000]"   
   (   1))))   % Glucose="(145.00000, 198.1000]"   BMI="(37.0000, 46.2000]"   SkinThickness="(6.0000, 24.5000]"   BloodPressure="(88.000, 94.3000]"   DiabetesPedigreeFunction="(0.00, 0.8000]"   Pregnancies="(4.0000, 12.2000]"   
   ((((   1)   % Glucose="(116.00000, 145.2000]"   BMI="(14.000, 30.0000]"   SkinThickness="(-0.000, 6.8000]"   BloodPressure="(94.00000, 118.2000]"   DiabetesPedigreeFunction="(0.00, 0.8000]"   Pregnancies="(4.0000, 12.2000]"   
   (   1))   % Glucose="(145.00000, 198.1000]"   BMI="(14.000, 30.0000]"   SkinThickness="(-0.000, 6.8000]"   BloodPressure="(94.00000, 118.2000]"   DiabetesPedigreeFunction="(0.00, 0.8000]"   Pregnancies="(4.0000, 12.2000]"   
   ((   1)   % Glucose="(116.00000, 145.2000]"   BMI="(30.000, 37.1000]"   SkinThickness="(-0.000, 6.8000]"   BloodPressure="(94.00000, 118.2000]"   DiabetesPedigreeFunction="(0.00, 0.8000]"   Pregnancies="(4.0000, 12.2000]"   
   (   1))   % Glucose="(145.00000, 198.1000]"   BMI="(30.000, 37.1000]"   SkinThickness="(-0.000, 6.8000]"   BloodPressure="(94.00000, 118.2000]"   DiabetesPedigreeFunction="(0.00, 0.8000]"   Pregnancies="(4.0000, 12.2000]"   
   ((   1)   % Glucose="(116.00000, 145.2000]"   BMI="(37.0000, 46.2000]"   SkinThickness="(-0.000, 6.8000]"   BloodPressure="(94.00000, 118.2000]"   DiabetesPedigreeFunction="(0.00, 0.8000]"   Pregnancies="(4.0000, 12.2000]"   
   (   1)))   % Glucose="(145.00000, 198.1000]"   BMI="(37.0000, 46.2000]"   SkinThickness="(-0.000, 6.8000]"   BloodPressure="(94.00000, 118.2000]"   DiabetesPedigreeFunction="(0.00, 0.8000]"   Pregnancies="(4.0000, 12.2000]"   
   (((   1)   % Glucose="(116.00000, 145.2000]"   BMI="(14.000, 30.0000]"   SkinThickness="(6.0000, 24.5000]"   BloodPressure="(94.00000, 118.2000]"   DiabetesPedigreeFunction="(0.00, 0.8000]"   Pregnancies="(4.0000, 12.2000]"   
   (   1))   % Glucose="(145.00000, 198.1000]"   BMI="(14.000, 30.0000]"   SkinThickness="(6.0000, 24.5000]"   BloodPressure="(94.00000, 118.2000]"   DiabetesPedigreeFunction="(0.00, 0.8000]"   Pregnancies="(4.0000, 12.2000]"   
   ((   1)   % Glucose="(116.00000, 145.2000]"   BMI="(30.000, 37.1000]"   SkinThickness="(6.0000, 24.5000]"   BloodPressure="(94.00000, 118.2000]"   DiabetesPedigreeFunction="(0.00, 0.8000]"   Pregnancies="(4.0000, 12.2000]"   
   (   1))   % Glucose="(145.00000, 198.1000]"   BMI="(30.000, 37.1000]"   SkinThickness="(6.0000, 24.5000]"   BloodPressure="(94.00000, 118.2000]"   DiabetesPedigreeFunction="(0.00, 0.8000]"   Pregnancies="(4.0000, 12.2000]"   
   ((   1)   % Glucose="(116.00000, 145.2000]"   BMI="(37.0000, 46.2000]"   SkinThickness="(6.0000, 24.5000]"   BloodPressure="(94.00000, 118.2000]"   DiabetesPedigreeFunction="(0.00, 0.8000]"   Pregnancies="(4.0000, 12.2000]"   
   (   1)))))   % Glucose="(145.00000, 198.1000]"   BMI="(37.0000, 46.2000]"   SkinThickness="(6.0000, 24.5000]"   BloodPressure="(94.00000, 118.2000]"   DiabetesPedigreeFunction="(0.00, 0.8000]"   Pregnancies="(4.0000, 12.2000]"   
   (((((   1)   % Glucose="(116.00000, 145.2000]"   BMI="(14.000, 30.0000]"   SkinThickness="(-0.000, 6.8000]"   BloodPressure="(58.00, 88.0000]"   DiabetesPedigreeFunction="(0.000, 0.0000]"   Pregnancies="(4.0000, 12.2000]"   
   (   1))   % Glucose="(145.00000, 198.1000]"   BMI="(14.000, 30.0000]"   SkinThickness="(-0.000, 6.8000]"   BloodPressure="(58.00, 88.0000]"   DiabetesPedigreeFunction="(0.000, 0.0000]"   Pregnancies="(4.0000, 12.2000]"   
   ((   1)   % Glucose="(116.00000, 145.2000]"   BMI="(30.000, 37.1000]"   SkinThickness="(-0.000, 6.8000]"   BloodPressure="(58.00, 88.0000]"   DiabetesPedigreeFunction="(0.000, 0.0000]"   Pregnancies="(4.0000, 12.2000]"   
   (   1))   % Glucose="(145.00000, 198.1000]"   BMI="(30.000, 37.1000]"   SkinThickness="(-0.000, 6.8000]"   BloodPressure="(58.00, 88.0000]"   DiabetesPedigreeFunction="(0.000, 0.0000]"   Pregnancies="(4.0000, 12.2000]"   
   ((   1)   % Glucose="(116.00000, 145.2000]"   BMI="(37.0000, 46.2000]"   SkinThickness="(-0.000, 6.8000]"   BloodPressure="(58.00, 88.0000]"   DiabetesPedigreeFunction="(0.000, 0.0000]"   Pregnancies="(4.0000, 12.2000]"   
   (   1)))   % Glucose="(145.00000, 198.1000]"   BMI="(37.0000, 46.2000]"   SkinThickness="(-0.000, 6.8000]"   BloodPressure="(58.00, 88.0000]"   DiabetesPedigreeFunction="(0.000, 0.0000]"   Pregnancies="(4.0000, 12.2000]"   
   (((   1)   % Glucose="(116.00000, 145.2000]"   BMI="(14.000, 30.0000]"   SkinThickness="(6.0000, 24.5000]"   BloodPressure="(58.00, 88.0000]"   DiabetesPedigreeFunction="(0.000, 0.0000]"   Pregnancies="(4.0000, 12.2000]"   
   (   1))   % Glucose="(145.00000, 198.1000]"   BMI="(14.000, 30.0000]"   SkinThickness="(6.0000, 24.5000]"   BloodPressure="(58.00, 88.0000]"   DiabetesPedigreeFunction="(0.000, 0.0000]"   Pregnancies="(4.0000, 12.2000]"   
   ((   1)   % Glucose="(116.00000, 145.2000]"   BMI="(30.000, 37.1000]"   SkinThickness="(6.0000, 24.5000]"   BloodPressure="(58.00, 88.0000]"   DiabetesPedigreeFunction="(0.000, 0.0000]"   Pregnancies="(4.0000, 12.2000]"   
   (   1))   % Glucose="(145.00000, 198.1000]"   BMI="(30.000, 37.1000]"   SkinThickness="(6.0000, 24.5000]"   BloodPressure="(58.00, 88.0000]"   DiabetesPedigreeFunction="(0.000, 0.0000]"   Pregnancies="(4.0000, 12.2000]"   
   ((   1)   % Glucose="(116.00000, 145.2000]"   BMI="(37.0000, 46.2000]"   SkinThickness="(6.0000, 24.5000]"   BloodPressure="(58.00, 88.0000]"   DiabetesPedigreeFunction="(0.000, 0.0000]"   Pregnancies="(4.0000, 12.2000]"   
   (   1))))   % Glucose="(145.00000, 198.1000]"   BMI="(37.0000, 46.2000]"   SkinThickness="(6.0000, 24.5000]"   BloodPressure="(58.00, 88.0000]"   DiabetesPedigreeFunction="(0.000, 0.0000]"   Pregnancies="(4.0000, 12.2000]"   
   ((((   1)   % Glucose="(116.00000, 145.2000]"   BMI="(14.000, 30.0000]"   SkinThickness="(-0.000, 6.8000]"   BloodPressure="(88.000, 94.3000]"   DiabetesPedigreeFunction="(0.000, 0.0000]"   Pregnancies="(4.0000, 12.2000]"   
   (   1))   % Glucose="(145.00000, 198.1000]"   BMI="(14.000, 30.0000]"   SkinThickness="(-0.000, 6.8000]"   BloodPressure="(88.000, 94.3000]"   DiabetesPedigreeFunction="(0.000, 0.0000]"   Pregnancies="(4.0000, 12.2000]"   
   ((   1)   % Glucose="(116.00000, 145.2000]"   BMI="(30.000, 37.1000]"   SkinThickness="(-0.000, 6.8000]"   BloodPressure="(88.000, 94.3000]"   DiabetesPedigreeFunction="(0.000, 0.0000]"   Pregnancies="(4.0000, 12.2000]"   
   (   1))   % Glucose="(145.00000, 198.1000]"   BMI="(30.000, 37.1000]"   SkinThickness="(-0.000, 6.8000]"   BloodPressure="(88.000, 94.3000]"   DiabetesPedigreeFunction="(0.000, 0.0000]"   Pregnancies="(4.0000, 12.2000]"   
   ((   1)   % Glucose="(116.00000, 145.2000]"   BMI="(37.0000, 46.2000]"   SkinThickness="(-0.000, 6.8000]"   BloodPressure="(88.000, 94.3000]"   DiabetesPedigreeFunction="(0.000, 0.0000]"   Pregnancies="(4.0000, 12.2000]"   
   (   1)))   % Glucose="(145.00000, 198.1000]"   BMI="(37.0000, 46.2000]"   SkinThickness="(-0.000, 6.8000]"   BloodPressure="(88.000, 94.3000]"   DiabetesPedigreeFunction="(0.000, 0.0000]"   Pregnancies="(4.0000, 12.2000]"   
   (((   1)   % Glucose="(116.00000, 145.2000]"   BMI="(14.000, 30.0000]"   SkinThickness="(6.0000, 24.5000]"   BloodPressure="(88.000, 94.3000]"   DiabetesPedigreeFunction="(0.000, 0.0000]"   Pregnancies="(4.0000, 12.2000]"   
   (   1))   % Glucose="(145.00000, 198.1000]"   BMI="(14.000, 30.0000]"   SkinThickness="(6.0000, 24.5000]"   BloodPressure="(88.000, 94.3000]"   DiabetesPedigreeFunction="(0.000, 0.0000]"   Pregnancies="(4.0000, 12.2000]"   
   ((   1)   % Glucose="(116.00000, 145.2000]"   BMI="(30.000, 37.1000]"   SkinThickness="(6.0000, 24.5000]"   BloodPressure="(88.000, 94.3000]"   DiabetesPedigreeFunction="(0.000, 0.0000]"   Pregnancies="(4.0000, 12.2000]"   
   (   1))   % Glucose="(145.00000, 198.1000]"   BMI="(30.000, 37.1000]"   SkinThickness="(6.0000, 24.5000]"   BloodPressure="(88.000, 94.3000]"   DiabetesPedigreeFunction="(0.000, 0.0000]"   Pregnancies="(4.0000, 12.2000]"   
   ((   1)   % Glucose="(116.00000, 145.2000]"   BMI="(37.0000, 46.2000]"   SkinThickness="(6.0000, 24.5000]"   BloodPressure="(88.000, 94.3000]"   DiabetesPedigreeFunction="(0.000, 0.0000]"   Pregnancies="(4.0000, 12.2000]"   
   (   1))))   % Glucose="(145.00000, 198.1000]"   BMI="(37.0000, 46.2000]"   SkinThickness="(6.0000, 24.5000]"   BloodPressure="(88.000, 94.3000]"   DiabetesPedigreeFunction="(0.000, 0.0000]"   Pregnancies="(4.0000, 12.2000]"   
   ((((   1)   % Glucose="(116.00000, 145.2000]"   BMI="(14.000, 30.0000]"   SkinThickness="(-0.000, 6.8000]"   BloodPressure="(94.00000, 118.2000]"   DiabetesPedigreeFunction="(0.000, 0.0000]"   Pregnancies="(4.0000, 12.2000]"   
   (   1))   % Glucose="(145.00000, 198.1000]"   BMI="(14.000, 30.0000]"   SkinThickness="(-0.000, 6.8000]"   BloodPressure="(94.00000, 118.2000]"   DiabetesPedigreeFunction="(0.000, 0.0000]"   Pregnancies="(4.0000, 12.2000]"   
   ((   1)   % Glucose="(116.00000, 145.2000]"   BMI="(30.000, 37.1000]"   SkinThickness="(-0.000, 6.8000]"   BloodPressure="(94.00000, 118.2000]"   DiabetesPedigreeFunction="(0.000, 0.0000]"   Pregnancies="(4.0000, 12.2000]"   
   (   1))   % Glucose="(145.00000, 198.1000]"   BMI="(30.000, 37.1000]"   SkinThickness="(-0.000, 6.8000]"   BloodPressure="(94.00000, 118.2000]"   DiabetesPedigreeFunction="(0.000, 0.0000]"   Pregnancies="(4.0000, 12.2000]"   
   ((   1)   % Glucose="(116.00000, 145.2000]"   BMI="(37.0000, 46.2000]"   SkinThickness="(-0.000, 6.8000]"   BloodPressure="(94.00000, 118.2000]"   DiabetesPedigreeFunction="(0.000, 0.0000]"   Pregnancies="(4.0000, 12.2000]"   
   (   1)))   % Glucose="(145.00000, 198.1000]"   BMI="(37.0000, 46.2000]"   SkinThickness="(-0.000, 6.8000]"   BloodPressure="(94.00000, 118.2000]"   DiabetesPedigreeFunction="(0.000, 0.0000]"   Pregnancies="(4.0000, 12.2000]"   
   (((   1)   % Glucose="(116.00000, 145.2000]"   BMI="(14.000, 30.0000]"   SkinThickness="(6.0000, 24.5000]"   BloodPressure="(94.00000, 118.2000]"   DiabetesPedigreeFunction="(0.000, 0.0000]"   Pregnancies="(4.0000, 12.2000]"   
   (   1))   % Glucose="(145.00000, 198.1000]"   BMI="(14.000, 30.0000]"   SkinThickness="(6.0000, 24.5000]"   BloodPressure="(94.00000, 118.2000]"   DiabetesPedigreeFunction="(0.000, 0.0000]"   Pregnancies="(4.0000, 12.2000]"   
   ((   1)   % Glucose="(116.00000, 145.2000]"   BMI="(30.000, 37.1000]"   SkinThickness="(6.0000, 24.5000]"   BloodPressure="(94.00000, 118.2000]"   DiabetesPedigreeFunction="(0.000, 0.0000]"   Pregnancies="(4.0000, 12.2000]"   
   (   1))   % Glucose="(145.00000, 198.1000]"   BMI="(30.000, 37.1000]"   SkinThickness="(6.0000, 24.5000]"   BloodPressure="(94.00000, 118.2000]"   DiabetesPedigreeFunction="(0.000, 0.0000]"   Pregnancies="(4.0000, 12.2000]"   
   ((   1)   % Glucose="(116.00000, 145.2000]"   BMI="(37.0000, 46.2000]"   SkinThickness="(6.0000, 24.5000]"   BloodPressure="(94.00000, 118.2000]"   DiabetesPedigreeFunction="(0.000, 0.0000]"   Pregnancies="(4.0000, 12.2000]"   
   (   1)))))));   % Glucose="(145.00000, 198.1000]"   BMI="(37.0000, 46.2000]"   SkinThickness="(6.0000, 24.5000]"   BloodPressure="(94.00000, 118.2000]"   DiabetesPedigreeFunction="(0.000, 0.0000]"   Pregnancies="(4.0000, 12.2000]"   
}


