
net {
  name = unnamedBN;
  software = "aGrUM 0.17.0";
  node_size = (50 50);
}

node radius_mean {
   states = ("(8.0000, 27.2000]" );
   label = "radius_mean";
   ID = "radius_mean";
}

node texture_mean {
   states = ("(14.000, 34.0000]" "(34.000, 38.8000]" );
   label = "texture_mean";
   ID = "texture_mean";
}

node perimeter_mean {
   states = ("(163.00000, 188.4000]" "(62.00000, 163.4000]" );
   label = "perimeter_mean";
   ID = "perimeter_mean";
}

node area_mean {
   states = ("(1835.000000, 2235.5000]" "(197.8900, 1835.3000]" );
   label = "area_mean";
   ID = "area_mean";
}

node smoothness_mean {
   states = ("(0.000, 0.1000]" "(0.0000, 0.1000]" );
   label = "smoothness_mean";
   ID = "smoothness_mean";
}

node compactness_mean {
   states = ("(0.000, 0.3000]" "(0.0000, 0.2000]" );
   label = "compactness_mean";
   ID = "compactness_mean";
}

node concavity_mean {
   states = ("(0.0000, 0.4000]" );
   label = "concavity_mean";
   ID = "concavity_mean";
}

node concave points_mean {
   states = ("(-0.0059, 0.0000]" "(0.0000, 0.0900]" "(0.0000, 0.1000]" );
   label = "concave points_mean";
   ID = "concave points_mean";
}

node symmetry_mean {
   states = ("(0.00, 0.1000]" "(0.000, 0.2000]" );
   label = "symmetry_mean";
   ID = "symmetry_mean";
}

node fractal_dimension_mean {
   states = ("(0.00000, 0.0500]" "(0.00000, 0.0900]" "(0.0419, 0.0500]" );
   label = "fractal_dimension_mean";
   ID = "fractal_dimension_mean";
}

node radius_se {
   states = ("(0.000, 0.2000]" "(0.000, 2.8000]" );
   label = "radius_se";
   ID = "radius_se";
}

node texture_se {
   states = ("(0.000, 0.8000]" "(0.000, 2.2000]" "(2.000, 3.7000]" );
   label = "texture_se";
   ID = "texture_se";
}

node perimeter_se {
   states = ("(1.000, 8.3000]" "(8.0000, 21.8000]" );
   label = "perimeter_se";
   ID = "perimeter_se";
}

node area_se {
   states = ("(12.0000, 22.1000]" "(22.00000, 482.0000]" "(482.00000, 534.1000]" );
   label = "area_se";
   ID = "area_se";
}

node smoothness_se {
   states = ("(-0.0063, 0.0200]" "(0.0000, 0.0000]" );
   label = "smoothness_se";
   ID = "smoothness_se";
}

node compactness_se {
   states = ("(-0.0002, 0.0600]" "(0.0000, 0.1000]" );
   label = "compactness_se";
   ID = "compactness_se";
}

node concavity_se {
   states = ("(0.00, 0.2000]" );
   label = "concavity_se";
   ID = "concavity_se";
}

node concave points_se {
   states = ("(-0.00000, 0.0300]" );
   label = "concave points_se";
   ID = "concave points_se";
}

node symmetry_se {
   states = ("(-0.0017, 0.0000]" "(0.0000, 0.0200]" "(0.00000, 0.0500]" );
   label = "symmetry_se";
   ID = "symmetry_se";
}

node fractal_dimension_se {
   states = ("(-0.0089, 0.0060]" "(0.0064, 0.0090]" );
   label = "fractal_dimension_se";
   ID = "fractal_dimension_se";
}

node radius_worst {
   states = ("(11.0000, 17.9000]" "(17.0000, 33.4000]" "(33.0000, 35.2000]" );
   label = "radius_worst";
   ID = "radius_worst";
}

node texture_worst {
   states = ("(15.0000, 31.6000]" "(31.000, 31.0000]" "(31.000, 40.7000]" );
   label = "texture_worst";
   ID = "texture_worst";
}

node perimeter_worst {
   states = ("(115.00000, 144.5000]" "(144.00000, 236.5000]" );
   label = "perimeter_worst";
   ID = "perimeter_worst";
}

node area_worst {
   states = ("(257.00000, 988.5000]" "(988.000000, 3893.2000]" );
   label = "area_worst";
   ID = "area_worst";
}

node smoothness_worst {
   states = ("(0.000, 0.2000]" "(0.0750, 0.1000]" );
   label = "smoothness_worst";
   ID = "smoothness_worst";
}

node compactness_worst {
   states = ("(0.00, 0.0000]" "(0.00, 0.9000]" );
   label = "compactness_worst";
   ID = "compactness_worst";
}

node concavity_worst {
   states = ("(0.000, 1.1000]" "(0.0029, 0.2000]" );
   label = "concavity_worst";
   ID = "concavity_worst";
}

node concave points_worst {
   states = ("(0.000, 0.0000]" "(0.0009, 0.0800]" );
   label = "concave points_worst";
   ID = "concave points_worst";
}

node symmetry_worst {
   states = ("(0.000, 0.2000]" "(0.000, 0.6000]" );
   label = "symmetry_worst";
   ID = "symmetry_worst";
}

node fractal_dimension_worst {
   states = ("(0.0000, 0.1000]" );
   label = "fractal_dimension_worst";
   ID = "fractal_dimension_worst";
}

node diagnosis {
   states = (No Yes );
   label = "diagnosis";
   ID = "diagnosis";
}

potential ( radius_mean | texture_se   concave points_worst   perimeter_worst   concavity_worst   texture_worst   smoothness_worst   ) {
   data = 
   (((((((   1)   % texture_se="(0.000, 0.8000]"   concave points_worst="(0.000, 0.0000]"   perimeter_worst="(115.00000, 144.5000]"   concavity_worst="(0.000, 1.1000]"   texture_worst="(15.0000, 31.6000]"   smoothness_worst="(0.000, 0.2000]"   
   (   1)   % texture_se="(0.000, 2.2000]"   concave points_worst="(0.000, 0.0000]"   perimeter_worst="(115.00000, 144.5000]"   concavity_worst="(0.000, 1.1000]"   texture_worst="(15.0000, 31.6000]"   smoothness_worst="(0.000, 0.2000]"   
   (   1))   % texture_se="(2.000, 3.7000]"   concave points_worst="(0.000, 0.0000]"   perimeter_worst="(115.00000, 144.5000]"   concavity_worst="(0.000, 1.1000]"   texture_worst="(15.0000, 31.6000]"   smoothness_worst="(0.000, 0.2000]"   
   ((   1)   % texture_se="(0.000, 0.8000]"   concave points_worst="(0.0009, 0.0800]"   perimeter_worst="(115.00000, 144.5000]"   concavity_worst="(0.000, 1.1000]"   texture_worst="(15.0000, 31.6000]"   smoothness_worst="(0.000, 0.2000]"   
   (   1)   % texture_se="(0.000, 2.2000]"   concave points_worst="(0.0009, 0.0800]"   perimeter_worst="(115.00000, 144.5000]"   concavity_worst="(0.000, 1.1000]"   texture_worst="(15.0000, 31.6000]"   smoothness_worst="(0.000, 0.2000]"   
   (   1)))   % texture_se="(2.000, 3.7000]"   concave points_worst="(0.0009, 0.0800]"   perimeter_worst="(115.00000, 144.5000]"   concavity_worst="(0.000, 1.1000]"   texture_worst="(15.0000, 31.6000]"   smoothness_worst="(0.000, 0.2000]"   
   (((   1)   % texture_se="(0.000, 0.8000]"   concave points_worst="(0.000, 0.0000]"   perimeter_worst="(144.00000, 236.5000]"   concavity_worst="(0.000, 1.1000]"   texture_worst="(15.0000, 31.6000]"   smoothness_worst="(0.000, 0.2000]"   
   (   1)   % texture_se="(0.000, 2.2000]"   concave points_worst="(0.000, 0.0000]"   perimeter_worst="(144.00000, 236.5000]"   concavity_worst="(0.000, 1.1000]"   texture_worst="(15.0000, 31.6000]"   smoothness_worst="(0.000, 0.2000]"   
   (   1))   % texture_se="(2.000, 3.7000]"   concave points_worst="(0.000, 0.0000]"   perimeter_worst="(144.00000, 236.5000]"   concavity_worst="(0.000, 1.1000]"   texture_worst="(15.0000, 31.6000]"   smoothness_worst="(0.000, 0.2000]"   
   ((   1)   % texture_se="(0.000, 0.8000]"   concave points_worst="(0.0009, 0.0800]"   perimeter_worst="(144.00000, 236.5000]"   concavity_worst="(0.000, 1.1000]"   texture_worst="(15.0000, 31.6000]"   smoothness_worst="(0.000, 0.2000]"   
   (   1)   % texture_se="(0.000, 2.2000]"   concave points_worst="(0.0009, 0.0800]"   perimeter_worst="(144.00000, 236.5000]"   concavity_worst="(0.000, 1.1000]"   texture_worst="(15.0000, 31.6000]"   smoothness_worst="(0.000, 0.2000]"   
   (   1))))   % texture_se="(2.000, 3.7000]"   concave points_worst="(0.0009, 0.0800]"   perimeter_worst="(144.00000, 236.5000]"   concavity_worst="(0.000, 1.1000]"   texture_worst="(15.0000, 31.6000]"   smoothness_worst="(0.000, 0.2000]"   
   ((((   1)   % texture_se="(0.000, 0.8000]"   concave points_worst="(0.000, 0.0000]"   perimeter_worst="(115.00000, 144.5000]"   concavity_worst="(0.0029, 0.2000]"   texture_worst="(15.0000, 31.6000]"   smoothness_worst="(0.000, 0.2000]"   
   (   1)   % texture_se="(0.000, 2.2000]"   concave points_worst="(0.000, 0.0000]"   perimeter_worst="(115.00000, 144.5000]"   concavity_worst="(0.0029, 0.2000]"   texture_worst="(15.0000, 31.6000]"   smoothness_worst="(0.000, 0.2000]"   
   (   1))   % texture_se="(2.000, 3.7000]"   concave points_worst="(0.000, 0.0000]"   perimeter_worst="(115.00000, 144.5000]"   concavity_worst="(0.0029, 0.2000]"   texture_worst="(15.0000, 31.6000]"   smoothness_worst="(0.000, 0.2000]"   
   ((   1)   % texture_se="(0.000, 0.8000]"   concave points_worst="(0.0009, 0.0800]"   perimeter_worst="(115.00000, 144.5000]"   concavity_worst="(0.0029, 0.2000]"   texture_worst="(15.0000, 31.6000]"   smoothness_worst="(0.000, 0.2000]"   
   (   1)   % texture_se="(0.000, 2.2000]"   concave points_worst="(0.0009, 0.0800]"   perimeter_worst="(115.00000, 144.5000]"   concavity_worst="(0.0029, 0.2000]"   texture_worst="(15.0000, 31.6000]"   smoothness_worst="(0.000, 0.2000]"   
   (   1)))   % texture_se="(2.000, 3.7000]"   concave points_worst="(0.0009, 0.0800]"   perimeter_worst="(115.00000, 144.5000]"   concavity_worst="(0.0029, 0.2000]"   texture_worst="(15.0000, 31.6000]"   smoothness_worst="(0.000, 0.2000]"   
   (((   1)   % texture_se="(0.000, 0.8000]"   concave points_worst="(0.000, 0.0000]"   perimeter_worst="(144.00000, 236.5000]"   concavity_worst="(0.0029, 0.2000]"   texture_worst="(15.0000, 31.6000]"   smoothness_worst="(0.000, 0.2000]"   
   (   1)   % texture_se="(0.000, 2.2000]"   concave points_worst="(0.000, 0.0000]"   perimeter_worst="(144.00000, 236.5000]"   concavity_worst="(0.0029, 0.2000]"   texture_worst="(15.0000, 31.6000]"   smoothness_worst="(0.000, 0.2000]"   
   (   1))   % texture_se="(2.000, 3.7000]"   concave points_worst="(0.000, 0.0000]"   perimeter_worst="(144.00000, 236.5000]"   concavity_worst="(0.0029, 0.2000]"   texture_worst="(15.0000, 31.6000]"   smoothness_worst="(0.000, 0.2000]"   
   ((   1)   % texture_se="(0.000, 0.8000]"   concave points_worst="(0.0009, 0.0800]"   perimeter_worst="(144.00000, 236.5000]"   concavity_worst="(0.0029, 0.2000]"   texture_worst="(15.0000, 31.6000]"   smoothness_worst="(0.000, 0.2000]"   
   (   1)   % texture_se="(0.000, 2.2000]"   concave points_worst="(0.0009, 0.0800]"   perimeter_worst="(144.00000, 236.5000]"   concavity_worst="(0.0029, 0.2000]"   texture_worst="(15.0000, 31.6000]"   smoothness_worst="(0.000, 0.2000]"   
   (   1)))))   % texture_se="(2.000, 3.7000]"   concave points_worst="(0.0009, 0.0800]"   perimeter_worst="(144.00000, 236.5000]"   concavity_worst="(0.0029, 0.2000]"   texture_worst="(15.0000, 31.6000]"   smoothness_worst="(0.000, 0.2000]"   
   (((((   1)   % texture_se="(0.000, 0.8000]"   concave points_worst="(0.000, 0.0000]"   perimeter_worst="(115.00000, 144.5000]"   concavity_worst="(0.000, 1.1000]"   texture_worst="(31.000, 31.0000]"   smoothness_worst="(0.000, 0.2000]"   
   (   1)   % texture_se="(0.000, 2.2000]"   concave points_worst="(0.000, 0.0000]"   perimeter_worst="(115.00000, 144.5000]"   concavity_worst="(0.000, 1.1000]"   texture_worst="(31.000, 31.0000]"   smoothness_worst="(0.000, 0.2000]"   
   (   1))   % texture_se="(2.000, 3.7000]"   concave points_worst="(0.000, 0.0000]"   perimeter_worst="(115.00000, 144.5000]"   concavity_worst="(0.000, 1.1000]"   texture_worst="(31.000, 31.0000]"   smoothness_worst="(0.000, 0.2000]"   
   ((   1)   % texture_se="(0.000, 0.8000]"   concave points_worst="(0.0009, 0.0800]"   perimeter_worst="(115.00000, 144.5000]"   concavity_worst="(0.000, 1.1000]"   texture_worst="(31.000, 31.0000]"   smoothness_worst="(0.000, 0.2000]"   
   (   1)   % texture_se="(0.000, 2.2000]"   concave points_worst="(0.0009, 0.0800]"   perimeter_worst="(115.00000, 144.5000]"   concavity_worst="(0.000, 1.1000]"   texture_worst="(31.000, 31.0000]"   smoothness_worst="(0.000, 0.2000]"   
   (   1)))   % texture_se="(2.000, 3.7000]"   concave points_worst="(0.0009, 0.0800]"   perimeter_worst="(115.00000, 144.5000]"   concavity_worst="(0.000, 1.1000]"   texture_worst="(31.000, 31.0000]"   smoothness_worst="(0.000, 0.2000]"   
   (((   1)   % texture_se="(0.000, 0.8000]"   concave points_worst="(0.000, 0.0000]"   perimeter_worst="(144.00000, 236.5000]"   concavity_worst="(0.000, 1.1000]"   texture_worst="(31.000, 31.0000]"   smoothness_worst="(0.000, 0.2000]"   
   (   1)   % texture_se="(0.000, 2.2000]"   concave points_worst="(0.000, 0.0000]"   perimeter_worst="(144.00000, 236.5000]"   concavity_worst="(0.000, 1.1000]"   texture_worst="(31.000, 31.0000]"   smoothness_worst="(0.000, 0.2000]"   
   (   1))   % texture_se="(2.000, 3.7000]"   concave points_worst="(0.000, 0.0000]"   perimeter_worst="(144.00000, 236.5000]"   concavity_worst="(0.000, 1.1000]"   texture_worst="(31.000, 31.0000]"   smoothness_worst="(0.000, 0.2000]"   
   ((   1)   % texture_se="(0.000, 0.8000]"   concave points_worst="(0.0009, 0.0800]"   perimeter_worst="(144.00000, 236.5000]"   concavity_worst="(0.000, 1.1000]"   texture_worst="(31.000, 31.0000]"   smoothness_worst="(0.000, 0.2000]"   
   (   1)   % texture_se="(0.000, 2.2000]"   concave points_worst="(0.0009, 0.0800]"   perimeter_worst="(144.00000, 236.5000]"   concavity_worst="(0.000, 1.1000]"   texture_worst="(31.000, 31.0000]"   smoothness_worst="(0.000, 0.2000]"   
   (   1))))   % texture_se="(2.000, 3.7000]"   concave points_worst="(0.0009, 0.0800]"   perimeter_worst="(144.00000, 236.5000]"   concavity_worst="(0.000, 1.1000]"   texture_worst="(31.000, 31.0000]"   smoothness_worst="(0.000, 0.2000]"   
   ((((   1)   % texture_se="(0.000, 0.8000]"   concave points_worst="(0.000, 0.0000]"   perimeter_worst="(115.00000, 144.5000]"   concavity_worst="(0.0029, 0.2000]"   texture_worst="(31.000, 31.0000]"   smoothness_worst="(0.000, 0.2000]"   
   (   1)   % texture_se="(0.000, 2.2000]"   concave points_worst="(0.000, 0.0000]"   perimeter_worst="(115.00000, 144.5000]"   concavity_worst="(0.0029, 0.2000]"   texture_worst="(31.000, 31.0000]"   smoothness_worst="(0.000, 0.2000]"   
   (   1))   % texture_se="(2.000, 3.7000]"   concave points_worst="(0.000, 0.0000]"   perimeter_worst="(115.00000, 144.5000]"   concavity_worst="(0.0029, 0.2000]"   texture_worst="(31.000, 31.0000]"   smoothness_worst="(0.000, 0.2000]"   
   ((   1)   % texture_se="(0.000, 0.8000]"   concave points_worst="(0.0009, 0.0800]"   perimeter_worst="(115.00000, 144.5000]"   concavity_worst="(0.0029, 0.2000]"   texture_worst="(31.000, 31.0000]"   smoothness_worst="(0.000, 0.2000]"   
   (   1)   % texture_se="(0.000, 2.2000]"   concave points_worst="(0.0009, 0.0800]"   perimeter_worst="(115.00000, 144.5000]"   concavity_worst="(0.0029, 0.2000]"   texture_worst="(31.000, 31.0000]"   smoothness_worst="(0.000, 0.2000]"   
   (   1)))   % texture_se="(2.000, 3.7000]"   concave points_worst="(0.0009, 0.0800]"   perimeter_worst="(115.00000, 144.5000]"   concavity_worst="(0.0029, 0.2000]"   texture_worst="(31.000, 31.0000]"   smoothness_worst="(0.000, 0.2000]"   
   (((   1)   % texture_se="(0.000, 0.8000]"   concave points_worst="(0.000, 0.0000]"   perimeter_worst="(144.00000, 236.5000]"   concavity_worst="(0.0029, 0.2000]"   texture_worst="(31.000, 31.0000]"   smoothness_worst="(0.000, 0.2000]"   
   (   1)   % texture_se="(0.000, 2.2000]"   concave points_worst="(0.000, 0.0000]"   perimeter_worst="(144.00000, 236.5000]"   concavity_worst="(0.0029, 0.2000]"   texture_worst="(31.000, 31.0000]"   smoothness_worst="(0.000, 0.2000]"   
   (   1))   % texture_se="(2.000, 3.7000]"   concave points_worst="(0.000, 0.0000]"   perimeter_worst="(144.00000, 236.5000]"   concavity_worst="(0.0029, 0.2000]"   texture_worst="(31.000, 31.0000]"   smoothness_worst="(0.000, 0.2000]"   
   ((   1)   % texture_se="(0.000, 0.8000]"   concave points_worst="(0.0009, 0.0800]"   perimeter_worst="(144.00000, 236.5000]"   concavity_worst="(0.0029, 0.2000]"   texture_worst="(31.000, 31.0000]"   smoothness_worst="(0.000, 0.2000]"   
   (   1)   % texture_se="(0.000, 2.2000]"   concave points_worst="(0.0009, 0.0800]"   perimeter_worst="(144.00000, 236.5000]"   concavity_worst="(0.0029, 0.2000]"   texture_worst="(31.000, 31.0000]"   smoothness_worst="(0.000, 0.2000]"   
   (   1)))))   % texture_se="(2.000, 3.7000]"   concave points_worst="(0.0009, 0.0800]"   perimeter_worst="(144.00000, 236.5000]"   concavity_worst="(0.0029, 0.2000]"   texture_worst="(31.000, 31.0000]"   smoothness_worst="(0.000, 0.2000]"   
   (((((   1)   % texture_se="(0.000, 0.8000]"   concave points_worst="(0.000, 0.0000]"   perimeter_worst="(115.00000, 144.5000]"   concavity_worst="(0.000, 1.1000]"   texture_worst="(31.000, 40.7000]"   smoothness_worst="(0.000, 0.2000]"   
   (   1)   % texture_se="(0.000, 2.2000]"   concave points_worst="(0.000, 0.0000]"   perimeter_worst="(115.00000, 144.5000]"   concavity_worst="(0.000, 1.1000]"   texture_worst="(31.000, 40.7000]"   smoothness_worst="(0.000, 0.2000]"   
   (   1))   % texture_se="(2.000, 3.7000]"   concave points_worst="(0.000, 0.0000]"   perimeter_worst="(115.00000, 144.5000]"   concavity_worst="(0.000, 1.1000]"   texture_worst="(31.000, 40.7000]"   smoothness_worst="(0.000, 0.2000]"   
   ((   1)   % texture_se="(0.000, 0.8000]"   concave points_worst="(0.0009, 0.0800]"   perimeter_worst="(115.00000, 144.5000]"   concavity_worst="(0.000, 1.1000]"   texture_worst="(31.000, 40.7000]"   smoothness_worst="(0.000, 0.2000]"   
   (   1)   % texture_se="(0.000, 2.2000]"   concave points_worst="(0.0009, 0.0800]"   perimeter_worst="(115.00000, 144.5000]"   concavity_worst="(0.000, 1.1000]"   texture_worst="(31.000, 40.7000]"   smoothness_worst="(0.000, 0.2000]"   
   (   1)))   % texture_se="(2.000, 3.7000]"   concave points_worst="(0.0009, 0.0800]"   perimeter_worst="(115.00000, 144.5000]"   concavity_worst="(0.000, 1.1000]"   texture_worst="(31.000, 40.7000]"   smoothness_worst="(0.000, 0.2000]"   
   (((   1)   % texture_se="(0.000, 0.8000]"   concave points_worst="(0.000, 0.0000]"   perimeter_worst="(144.00000, 236.5000]"   concavity_worst="(0.000, 1.1000]"   texture_worst="(31.000, 40.7000]"   smoothness_worst="(0.000, 0.2000]"   
   (   1)   % texture_se="(0.000, 2.2000]"   concave points_worst="(0.000, 0.0000]"   perimeter_worst="(144.00000, 236.5000]"   concavity_worst="(0.000, 1.1000]"   texture_worst="(31.000, 40.7000]"   smoothness_worst="(0.000, 0.2000]"   
   (   1))   % texture_se="(2.000, 3.7000]"   concave points_worst="(0.000, 0.0000]"   perimeter_worst="(144.00000, 236.5000]"   concavity_worst="(0.000, 1.1000]"   texture_worst="(31.000, 40.7000]"   smoothness_worst="(0.000, 0.2000]"   
   ((   1)   % texture_se="(0.000, 0.8000]"   concave points_worst="(0.0009, 0.0800]"   perimeter_worst="(144.00000, 236.5000]"   concavity_worst="(0.000, 1.1000]"   texture_worst="(31.000, 40.7000]"   smoothness_worst="(0.000, 0.2000]"   
   (   1)   % texture_se="(0.000, 2.2000]"   concave points_worst="(0.0009, 0.0800]"   perimeter_worst="(144.00000, 236.5000]"   concavity_worst="(0.000, 1.1000]"   texture_worst="(31.000, 40.7000]"   smoothness_worst="(0.000, 0.2000]"   
   (   1))))   % texture_se="(2.000, 3.7000]"   concave points_worst="(0.0009, 0.0800]"   perimeter_worst="(144.00000, 236.5000]"   concavity_worst="(0.000, 1.1000]"   texture_worst="(31.000, 40.7000]"   smoothness_worst="(0.000, 0.2000]"   
   ((((   1)   % texture_se="(0.000, 0.8000]"   concave points_worst="(0.000, 0.0000]"   perimeter_worst="(115.00000, 144.5000]"   concavity_worst="(0.0029, 0.2000]"   texture_worst="(31.000, 40.7000]"   smoothness_worst="(0.000, 0.2000]"   
   (   1)   % texture_se="(0.000, 2.2000]"   concave points_worst="(0.000, 0.0000]"   perimeter_worst="(115.00000, 144.5000]"   concavity_worst="(0.0029, 0.2000]"   texture_worst="(31.000, 40.7000]"   smoothness_worst="(0.000, 0.2000]"   
   (   1))   % texture_se="(2.000, 3.7000]"   concave points_worst="(0.000, 0.0000]"   perimeter_worst="(115.00000, 144.5000]"   concavity_worst="(0.0029, 0.2000]"   texture_worst="(31.000, 40.7000]"   smoothness_worst="(0.000, 0.2000]"   
   ((   1)   % texture_se="(0.000, 0.8000]"   concave points_worst="(0.0009, 0.0800]"   perimeter_worst="(115.00000, 144.5000]"   concavity_worst="(0.0029, 0.2000]"   texture_worst="(31.000, 40.7000]"   smoothness_worst="(0.000, 0.2000]"   
   (   1)   % texture_se="(0.000, 2.2000]"   concave points_worst="(0.0009, 0.0800]"   perimeter_worst="(115.00000, 144.5000]"   concavity_worst="(0.0029, 0.2000]"   texture_worst="(31.000, 40.7000]"   smoothness_worst="(0.000, 0.2000]"   
   (   1)))   % texture_se="(2.000, 3.7000]"   concave points_worst="(0.0009, 0.0800]"   perimeter_worst="(115.00000, 144.5000]"   concavity_worst="(0.0029, 0.2000]"   texture_worst="(31.000, 40.7000]"   smoothness_worst="(0.000, 0.2000]"   
   (((   1)   % texture_se="(0.000, 0.8000]"   concave points_worst="(0.000, 0.0000]"   perimeter_worst="(144.00000, 236.5000]"   concavity_worst="(0.0029, 0.2000]"   texture_worst="(31.000, 40.7000]"   smoothness_worst="(0.000, 0.2000]"   
   (   1)   % texture_se="(0.000, 2.2000]"   concave points_worst="(0.000, 0.0000]"   perimeter_worst="(144.00000, 236.5000]"   concavity_worst="(0.0029, 0.2000]"   texture_worst="(31.000, 40.7000]"   smoothness_worst="(0.000, 0.2000]"   
   (   1))   % texture_se="(2.000, 3.7000]"   concave points_worst="(0.000, 0.0000]"   perimeter_worst="(144.00000, 236.5000]"   concavity_worst="(0.0029, 0.2000]"   texture_worst="(31.000, 40.7000]"   smoothness_worst="(0.000, 0.2000]"   
   ((   1)   % texture_se="(0.000, 0.8000]"   concave points_worst="(0.0009, 0.0800]"   perimeter_worst="(144.00000, 236.5000]"   concavity_worst="(0.0029, 0.2000]"   texture_worst="(31.000, 40.7000]"   smoothness_worst="(0.000, 0.2000]"   
   (   1)   % texture_se="(0.000, 2.2000]"   concave points_worst="(0.0009, 0.0800]"   perimeter_worst="(144.00000, 236.5000]"   concavity_worst="(0.0029, 0.2000]"   texture_worst="(31.000, 40.7000]"   smoothness_worst="(0.000, 0.2000]"   
   (   1))))))   % texture_se="(2.000, 3.7000]"   concave points_worst="(0.0009, 0.0800]"   perimeter_worst="(144.00000, 236.5000]"   concavity_worst="(0.0029, 0.2000]"   texture_worst="(31.000, 40.7000]"   smoothness_worst="(0.000, 0.2000]"   
   ((((((   1)   % texture_se="(0.000, 0.8000]"   concave points_worst="(0.000, 0.0000]"   perimeter_worst="(115.00000, 144.5000]"   concavity_worst="(0.000, 1.1000]"   texture_worst="(15.0000, 31.6000]"   smoothness_worst="(0.0750, 0.1000]"   
   (   1)   % texture_se="(0.000, 2.2000]"   concave points_worst="(0.000, 0.0000]"   perimeter_worst="(115.00000, 144.5000]"   concavity_worst="(0.000, 1.1000]"   texture_worst="(15.0000, 31.6000]"   smoothness_worst="(0.0750, 0.1000]"   
   (   1))   % texture_se="(2.000, 3.7000]"   concave points_worst="(0.000, 0.0000]"   perimeter_worst="(115.00000, 144.5000]"   concavity_worst="(0.000, 1.1000]"   texture_worst="(15.0000, 31.6000]"   smoothness_worst="(0.0750, 0.1000]"   
   ((   1)   % texture_se="(0.000, 0.8000]"   concave points_worst="(0.0009, 0.0800]"   perimeter_worst="(115.00000, 144.5000]"   concavity_worst="(0.000, 1.1000]"   texture_worst="(15.0000, 31.6000]"   smoothness_worst="(0.0750, 0.1000]"   
   (   1)   % texture_se="(0.000, 2.2000]"   concave points_worst="(0.0009, 0.0800]"   perimeter_worst="(115.00000, 144.5000]"   concavity_worst="(0.000, 1.1000]"   texture_worst="(15.0000, 31.6000]"   smoothness_worst="(0.0750, 0.1000]"   
   (   1)))   % texture_se="(2.000, 3.7000]"   concave points_worst="(0.0009, 0.0800]"   perimeter_worst="(115.00000, 144.5000]"   concavity_worst="(0.000, 1.1000]"   texture_worst="(15.0000, 31.6000]"   smoothness_worst="(0.0750, 0.1000]"   
   (((   1)   % texture_se="(0.000, 0.8000]"   concave points_worst="(0.000, 0.0000]"   perimeter_worst="(144.00000, 236.5000]"   concavity_worst="(0.000, 1.1000]"   texture_worst="(15.0000, 31.6000]"   smoothness_worst="(0.0750, 0.1000]"   
   (   1)   % texture_se="(0.000, 2.2000]"   concave points_worst="(0.000, 0.0000]"   perimeter_worst="(144.00000, 236.5000]"   concavity_worst="(0.000, 1.1000]"   texture_worst="(15.0000, 31.6000]"   smoothness_worst="(0.0750, 0.1000]"   
   (   1))   % texture_se="(2.000, 3.7000]"   concave points_worst="(0.000, 0.0000]"   perimeter_worst="(144.00000, 236.5000]"   concavity_worst="(0.000, 1.1000]"   texture_worst="(15.0000, 31.6000]"   smoothness_worst="(0.0750, 0.1000]"   
   ((   1)   % texture_se="(0.000, 0.8000]"   concave points_worst="(0.0009, 0.0800]"   perimeter_worst="(144.00000, 236.5000]"   concavity_worst="(0.000, 1.1000]"   texture_worst="(15.0000, 31.6000]"   smoothness_worst="(0.0750, 0.1000]"   
   (   1)   % texture_se="(0.000, 2.2000]"   concave points_worst="(0.0009, 0.0800]"   perimeter_worst="(144.00000, 236.5000]"   concavity_worst="(0.000, 1.1000]"   texture_worst="(15.0000, 31.6000]"   smoothness_worst="(0.0750, 0.1000]"   
   (   1))))   % texture_se="(2.000, 3.7000]"   concave points_worst="(0.0009, 0.0800]"   perimeter_worst="(144.00000, 236.5000]"   concavity_worst="(0.000, 1.1000]"   texture_worst="(15.0000, 31.6000]"   smoothness_worst="(0.0750, 0.1000]"   
   ((((   1)   % texture_se="(0.000, 0.8000]"   concave points_worst="(0.000, 0.0000]"   perimeter_worst="(115.00000, 144.5000]"   concavity_worst="(0.0029, 0.2000]"   texture_worst="(15.0000, 31.6000]"   smoothness_worst="(0.0750, 0.1000]"   
   (   1)   % texture_se="(0.000, 2.2000]"   concave points_worst="(0.000, 0.0000]"   perimeter_worst="(115.00000, 144.5000]"   concavity_worst="(0.0029, 0.2000]"   texture_worst="(15.0000, 31.6000]"   smoothness_worst="(0.0750, 0.1000]"   
   (   1))   % texture_se="(2.000, 3.7000]"   concave points_worst="(0.000, 0.0000]"   perimeter_worst="(115.00000, 144.5000]"   concavity_worst="(0.0029, 0.2000]"   texture_worst="(15.0000, 31.6000]"   smoothness_worst="(0.0750, 0.1000]"   
   ((   1)   % texture_se="(0.000, 0.8000]"   concave points_worst="(0.0009, 0.0800]"   perimeter_worst="(115.00000, 144.5000]"   concavity_worst="(0.0029, 0.2000]"   texture_worst="(15.0000, 31.6000]"   smoothness_worst="(0.0750, 0.1000]"   
   (   1)   % texture_se="(0.000, 2.2000]"   concave points_worst="(0.0009, 0.0800]"   perimeter_worst="(115.00000, 144.5000]"   concavity_worst="(0.0029, 0.2000]"   texture_worst="(15.0000, 31.6000]"   smoothness_worst="(0.0750, 0.1000]"   
   (   1)))   % texture_se="(2.000, 3.7000]"   concave points_worst="(0.0009, 0.0800]"   perimeter_worst="(115.00000, 144.5000]"   concavity_worst="(0.0029, 0.2000]"   texture_worst="(15.0000, 31.6000]"   smoothness_worst="(0.0750, 0.1000]"   
   (((   1)   % texture_se="(0.000, 0.8000]"   concave points_worst="(0.000, 0.0000]"   perimeter_worst="(144.00000, 236.5000]"   concavity_worst="(0.0029, 0.2000]"   texture_worst="(15.0000, 31.6000]"   smoothness_worst="(0.0750, 0.1000]"   
   (   1)   % texture_se="(0.000, 2.2000]"   concave points_worst="(0.000, 0.0000]"   perimeter_worst="(144.00000, 236.5000]"   concavity_worst="(0.0029, 0.2000]"   texture_worst="(15.0000, 31.6000]"   smoothness_worst="(0.0750, 0.1000]"   
   (   1))   % texture_se="(2.000, 3.7000]"   concave points_worst="(0.000, 0.0000]"   perimeter_worst="(144.00000, 236.5000]"   concavity_worst="(0.0029, 0.2000]"   texture_worst="(15.0000, 31.6000]"   smoothness_worst="(0.0750, 0.1000]"   
   ((   1)   % texture_se="(0.000, 0.8000]"   concave points_worst="(0.0009, 0.0800]"   perimeter_worst="(144.00000, 236.5000]"   concavity_worst="(0.0029, 0.2000]"   texture_worst="(15.0000, 31.6000]"   smoothness_worst="(0.0750, 0.1000]"   
   (   1)   % texture_se="(0.000, 2.2000]"   concave points_worst="(0.0009, 0.0800]"   perimeter_worst="(144.00000, 236.5000]"   concavity_worst="(0.0029, 0.2000]"   texture_worst="(15.0000, 31.6000]"   smoothness_worst="(0.0750, 0.1000]"   
   (   1)))))   % texture_se="(2.000, 3.7000]"   concave points_worst="(0.0009, 0.0800]"   perimeter_worst="(144.00000, 236.5000]"   concavity_worst="(0.0029, 0.2000]"   texture_worst="(15.0000, 31.6000]"   smoothness_worst="(0.0750, 0.1000]"   
   (((((   1)   % texture_se="(0.000, 0.8000]"   concave points_worst="(0.000, 0.0000]"   perimeter_worst="(115.00000, 144.5000]"   concavity_worst="(0.000, 1.1000]"   texture_worst="(31.000, 31.0000]"   smoothness_worst="(0.0750, 0.1000]"   
   (   1)   % texture_se="(0.000, 2.2000]"   concave points_worst="(0.000, 0.0000]"   perimeter_worst="(115.00000, 144.5000]"   concavity_worst="(0.000, 1.1000]"   texture_worst="(31.000, 31.0000]"   smoothness_worst="(0.0750, 0.1000]"   
   (   1))   % texture_se="(2.000, 3.7000]"   concave points_worst="(0.000, 0.0000]"   perimeter_worst="(115.00000, 144.5000]"   concavity_worst="(0.000, 1.1000]"   texture_worst="(31.000, 31.0000]"   smoothness_worst="(0.0750, 0.1000]"   
   ((   1)   % texture_se="(0.000, 0.8000]"   concave points_worst="(0.0009, 0.0800]"   perimeter_worst="(115.00000, 144.5000]"   concavity_worst="(0.000, 1.1000]"   texture_worst="(31.000, 31.0000]"   smoothness_worst="(0.0750, 0.1000]"   
   (   1)   % texture_se="(0.000, 2.2000]"   concave points_worst="(0.0009, 0.0800]"   perimeter_worst="(115.00000, 144.5000]"   concavity_worst="(0.000, 1.1000]"   texture_worst="(31.000, 31.0000]"   smoothness_worst="(0.0750, 0.1000]"   
   (   1)))   % texture_se="(2.000, 3.7000]"   concave points_worst="(0.0009, 0.0800]"   perimeter_worst="(115.00000, 144.5000]"   concavity_worst="(0.000, 1.1000]"   texture_worst="(31.000, 31.0000]"   smoothness_worst="(0.0750, 0.1000]"   
   (((   1)   % texture_se="(0.000, 0.8000]"   concave points_worst="(0.000, 0.0000]"   perimeter_worst="(144.00000, 236.5000]"   concavity_worst="(0.000, 1.1000]"   texture_worst="(31.000, 31.0000]"   smoothness_worst="(0.0750, 0.1000]"   
   (   1)   % texture_se="(0.000, 2.2000]"   concave points_worst="(0.000, 0.0000]"   perimeter_worst="(144.00000, 236.5000]"   concavity_worst="(0.000, 1.1000]"   texture_worst="(31.000, 31.0000]"   smoothness_worst="(0.0750, 0.1000]"   
   (   1))   % texture_se="(2.000, 3.7000]"   concave points_worst="(0.000, 0.0000]"   perimeter_worst="(144.00000, 236.5000]"   concavity_worst="(0.000, 1.1000]"   texture_worst="(31.000, 31.0000]"   smoothness_worst="(0.0750, 0.1000]"   
   ((   1)   % texture_se="(0.000, 0.8000]"   concave points_worst="(0.0009, 0.0800]"   perimeter_worst="(144.00000, 236.5000]"   concavity_worst="(0.000, 1.1000]"   texture_worst="(31.000, 31.0000]"   smoothness_worst="(0.0750, 0.1000]"   
   (   1)   % texture_se="(0.000, 2.2000]"   concave points_worst="(0.0009, 0.0800]"   perimeter_worst="(144.00000, 236.5000]"   concavity_worst="(0.000, 1.1000]"   texture_worst="(31.000, 31.0000]"   smoothness_worst="(0.0750, 0.1000]"   
   (   1))))   % texture_se="(2.000, 3.7000]"   concave points_worst="(0.0009, 0.0800]"   perimeter_worst="(144.00000, 236.5000]"   concavity_worst="(0.000, 1.1000]"   texture_worst="(31.000, 31.0000]"   smoothness_worst="(0.0750, 0.1000]"   
   ((((   1)   % texture_se="(0.000, 0.8000]"   concave points_worst="(0.000, 0.0000]"   perimeter_worst="(115.00000, 144.5000]"   concavity_worst="(0.0029, 0.2000]"   texture_worst="(31.000, 31.0000]"   smoothness_worst="(0.0750, 0.1000]"   
   (   1)   % texture_se="(0.000, 2.2000]"   concave points_worst="(0.000, 0.0000]"   perimeter_worst="(115.00000, 144.5000]"   concavity_worst="(0.0029, 0.2000]"   texture_worst="(31.000, 31.0000]"   smoothness_worst="(0.0750, 0.1000]"   
   (   1))   % texture_se="(2.000, 3.7000]"   concave points_worst="(0.000, 0.0000]"   perimeter_worst="(115.00000, 144.5000]"   concavity_worst="(0.0029, 0.2000]"   texture_worst="(31.000, 31.0000]"   smoothness_worst="(0.0750, 0.1000]"   
   ((   1)   % texture_se="(0.000, 0.8000]"   concave points_worst="(0.0009, 0.0800]"   perimeter_worst="(115.00000, 144.5000]"   concavity_worst="(0.0029, 0.2000]"   texture_worst="(31.000, 31.0000]"   smoothness_worst="(0.0750, 0.1000]"   
   (   1)   % texture_se="(0.000, 2.2000]"   concave points_worst="(0.0009, 0.0800]"   perimeter_worst="(115.00000, 144.5000]"   concavity_worst="(0.0029, 0.2000]"   texture_worst="(31.000, 31.0000]"   smoothness_worst="(0.0750, 0.1000]"   
   (   1)))   % texture_se="(2.000, 3.7000]"   concave points_worst="(0.0009, 0.0800]"   perimeter_worst="(115.00000, 144.5000]"   concavity_worst="(0.0029, 0.2000]"   texture_worst="(31.000, 31.0000]"   smoothness_worst="(0.0750, 0.1000]"   
   (((   1)   % texture_se="(0.000, 0.8000]"   concave points_worst="(0.000, 0.0000]"   perimeter_worst="(144.00000, 236.5000]"   concavity_worst="(0.0029, 0.2000]"   texture_worst="(31.000, 31.0000]"   smoothness_worst="(0.0750, 0.1000]"   
   (   1)   % texture_se="(0.000, 2.2000]"   concave points_worst="(0.000, 0.0000]"   perimeter_worst="(144.00000, 236.5000]"   concavity_worst="(0.0029, 0.2000]"   texture_worst="(31.000, 31.0000]"   smoothness_worst="(0.0750, 0.1000]"   
   (   1))   % texture_se="(2.000, 3.7000]"   concave points_worst="(0.000, 0.0000]"   perimeter_worst="(144.00000, 236.5000]"   concavity_worst="(0.0029, 0.2000]"   texture_worst="(31.000, 31.0000]"   smoothness_worst="(0.0750, 0.1000]"   
   ((   1)   % texture_se="(0.000, 0.8000]"   concave points_worst="(0.0009, 0.0800]"   perimeter_worst="(144.00000, 236.5000]"   concavity_worst="(0.0029, 0.2000]"   texture_worst="(31.000, 31.0000]"   smoothness_worst="(0.0750, 0.1000]"   
   (   1)   % texture_se="(0.000, 2.2000]"   concave points_worst="(0.0009, 0.0800]"   perimeter_worst="(144.00000, 236.5000]"   concavity_worst="(0.0029, 0.2000]"   texture_worst="(31.000, 31.0000]"   smoothness_worst="(0.0750, 0.1000]"   
   (   1)))))   % texture_se="(2.000, 3.7000]"   concave points_worst="(0.0009, 0.0800]"   perimeter_worst="(144.00000, 236.5000]"   concavity_worst="(0.0029, 0.2000]"   texture_worst="(31.000, 31.0000]"   smoothness_worst="(0.0750, 0.1000]"   
   (((((   1)   % texture_se="(0.000, 0.8000]"   concave points_worst="(0.000, 0.0000]"   perimeter_worst="(115.00000, 144.5000]"   concavity_worst="(0.000, 1.1000]"   texture_worst="(31.000, 40.7000]"   smoothness_worst="(0.0750, 0.1000]"   
   (   1)   % texture_se="(0.000, 2.2000]"   concave points_worst="(0.000, 0.0000]"   perimeter_worst="(115.00000, 144.5000]"   concavity_worst="(0.000, 1.1000]"   texture_worst="(31.000, 40.7000]"   smoothness_worst="(0.0750, 0.1000]"   
   (   1))   % texture_se="(2.000, 3.7000]"   concave points_worst="(0.000, 0.0000]"   perimeter_worst="(115.00000, 144.5000]"   concavity_worst="(0.000, 1.1000]"   texture_worst="(31.000, 40.7000]"   smoothness_worst="(0.0750, 0.1000]"   
   ((   1)   % texture_se="(0.000, 0.8000]"   concave points_worst="(0.0009, 0.0800]"   perimeter_worst="(115.00000, 144.5000]"   concavity_worst="(0.000, 1.1000]"   texture_worst="(31.000, 40.7000]"   smoothness_worst="(0.0750, 0.1000]"   
   (   1)   % texture_se="(0.000, 2.2000]"   concave points_worst="(0.0009, 0.0800]"   perimeter_worst="(115.00000, 144.5000]"   concavity_worst="(0.000, 1.1000]"   texture_worst="(31.000, 40.7000]"   smoothness_worst="(0.0750, 0.1000]"   
   (   1)))   % texture_se="(2.000, 3.7000]"   concave points_worst="(0.0009, 0.0800]"   perimeter_worst="(115.00000, 144.5000]"   concavity_worst="(0.000, 1.1000]"   texture_worst="(31.000, 40.7000]"   smoothness_worst="(0.0750, 0.1000]"   
   (((   1)   % texture_se="(0.000, 0.8000]"   concave points_worst="(0.000, 0.0000]"   perimeter_worst="(144.00000, 236.5000]"   concavity_worst="(0.000, 1.1000]"   texture_worst="(31.000, 40.7000]"   smoothness_worst="(0.0750, 0.1000]"   
   (   1)   % texture_se="(0.000, 2.2000]"   concave points_worst="(0.000, 0.0000]"   perimeter_worst="(144.00000, 236.5000]"   concavity_worst="(0.000, 1.1000]"   texture_worst="(31.000, 40.7000]"   smoothness_worst="(0.0750, 0.1000]"   
   (   1))   % texture_se="(2.000, 3.7000]"   concave points_worst="(0.000, 0.0000]"   perimeter_worst="(144.00000, 236.5000]"   concavity_worst="(0.000, 1.1000]"   texture_worst="(31.000, 40.7000]"   smoothness_worst="(0.0750, 0.1000]"   
   ((   1)   % texture_se="(0.000, 0.8000]"   concave points_worst="(0.0009, 0.0800]"   perimeter_worst="(144.00000, 236.5000]"   concavity_worst="(0.000, 1.1000]"   texture_worst="(31.000, 40.7000]"   smoothness_worst="(0.0750, 0.1000]"   
   (   1)   % texture_se="(0.000, 2.2000]"   concave points_worst="(0.0009, 0.0800]"   perimeter_worst="(144.00000, 236.5000]"   concavity_worst="(0.000, 1.1000]"   texture_worst="(31.000, 40.7000]"   smoothness_worst="(0.0750, 0.1000]"   
   (   1))))   % texture_se="(2.000, 3.7000]"   concave points_worst="(0.0009, 0.0800]"   perimeter_worst="(144.00000, 236.5000]"   concavity_worst="(0.000, 1.1000]"   texture_worst="(31.000, 40.7000]"   smoothness_worst="(0.0750, 0.1000]"   
   ((((   1)   % texture_se="(0.000, 0.8000]"   concave points_worst="(0.000, 0.0000]"   perimeter_worst="(115.00000, 144.5000]"   concavity_worst="(0.0029, 0.2000]"   texture_worst="(31.000, 40.7000]"   smoothness_worst="(0.0750, 0.1000]"   
   (   1)   % texture_se="(0.000, 2.2000]"   concave points_worst="(0.000, 0.0000]"   perimeter_worst="(115.00000, 144.5000]"   concavity_worst="(0.0029, 0.2000]"   texture_worst="(31.000, 40.7000]"   smoothness_worst="(0.0750, 0.1000]"   
   (   1))   % texture_se="(2.000, 3.7000]"   concave points_worst="(0.000, 0.0000]"   perimeter_worst="(115.00000, 144.5000]"   concavity_worst="(0.0029, 0.2000]"   texture_worst="(31.000, 40.7000]"   smoothness_worst="(0.0750, 0.1000]"   
   ((   1)   % texture_se="(0.000, 0.8000]"   concave points_worst="(0.0009, 0.0800]"   perimeter_worst="(115.00000, 144.5000]"   concavity_worst="(0.0029, 0.2000]"   texture_worst="(31.000, 40.7000]"   smoothness_worst="(0.0750, 0.1000]"   
   (   1)   % texture_se="(0.000, 2.2000]"   concave points_worst="(0.0009, 0.0800]"   perimeter_worst="(115.00000, 144.5000]"   concavity_worst="(0.0029, 0.2000]"   texture_worst="(31.000, 40.7000]"   smoothness_worst="(0.0750, 0.1000]"   
   (   1)))   % texture_se="(2.000, 3.7000]"   concave points_worst="(0.0009, 0.0800]"   perimeter_worst="(115.00000, 144.5000]"   concavity_worst="(0.0029, 0.2000]"   texture_worst="(31.000, 40.7000]"   smoothness_worst="(0.0750, 0.1000]"   
   (((   1)   % texture_se="(0.000, 0.8000]"   concave points_worst="(0.000, 0.0000]"   perimeter_worst="(144.00000, 236.5000]"   concavity_worst="(0.0029, 0.2000]"   texture_worst="(31.000, 40.7000]"   smoothness_worst="(0.0750, 0.1000]"   
   (   1)   % texture_se="(0.000, 2.2000]"   concave points_worst="(0.000, 0.0000]"   perimeter_worst="(144.00000, 236.5000]"   concavity_worst="(0.0029, 0.2000]"   texture_worst="(31.000, 40.7000]"   smoothness_worst="(0.0750, 0.1000]"   
   (   1))   % texture_se="(2.000, 3.7000]"   concave points_worst="(0.000, 0.0000]"   perimeter_worst="(144.00000, 236.5000]"   concavity_worst="(0.0029, 0.2000]"   texture_worst="(31.000, 40.7000]"   smoothness_worst="(0.0750, 0.1000]"   
   ((   1)   % texture_se="(0.000, 0.8000]"   concave points_worst="(0.0009, 0.0800]"   perimeter_worst="(144.00000, 236.5000]"   concavity_worst="(0.0029, 0.2000]"   texture_worst="(31.000, 40.7000]"   smoothness_worst="(0.0750, 0.1000]"   
   (   1)   % texture_se="(0.000, 2.2000]"   concave points_worst="(0.0009, 0.0800]"   perimeter_worst="(144.00000, 236.5000]"   concavity_worst="(0.0029, 0.2000]"   texture_worst="(31.000, 40.7000]"   smoothness_worst="(0.0750, 0.1000]"   
   (   1)))))));   % texture_se="(2.000, 3.7000]"   concave points_worst="(0.0009, 0.0800]"   perimeter_worst="(144.00000, 236.5000]"   concavity_worst="(0.0029, 0.2000]"   texture_worst="(31.000, 40.7000]"   smoothness_worst="(0.0750, 0.1000]"   
}

potential ( texture_mean | radius_mean   ) {
   data = 
   ((   0.995033   0.00496689));   % radius_mean="(8.0000, 27.2000]"   
}

potential ( perimeter_mean | concave points_mean   ) {
   data = 
   ((   0.0283843   0.971616)   % concave points_mean="(-0.0059, 0.0000]"   
   (   0.000749625   0.99925)   % concave points_mean="(0.0000, 0.0900]"   
   (   0.05   0.95));   % concave points_mean="(0.0000, 0.1000]"   
}

potential ( area_mean | concave points_mean   ) {
   data = 
   ((   0.0414847   0.958515)   % concave points_mean="(-0.0059, 0.0000]"   
   (   0.000749625   0.99925)   % concave points_mean="(0.0000, 0.0900]"   
   (   0.05   0.95));   % concave points_mean="(0.0000, 0.1000]"   
}

potential ( smoothness_mean | diagnosis   concave points_mean   ) {
   data = 
   (((   0.00485437   0.995146)   % diagnosis=No   concave points_mean="(-0.0059, 0.0000]"   
   (   0.0859155   0.914085))   % diagnosis=Yes   concave points_mean="(-0.0059, 0.0000]"   
   ((   0.5   0.5)   % diagnosis=No   concave points_mean="(0.0000, 0.0900]"   
   (   0.000375094   0.999625))   % diagnosis=Yes   concave points_mean="(0.0000, 0.0900]"   
   ((   0.5   0.5)   % diagnosis=No   concave points_mean="(0.0000, 0.1000]"   
   (   0.0263158   0.973684)));   % diagnosis=Yes   concave points_mean="(0.0000, 0.1000]"   
}

potential ( compactness_mean | diagnosis   ) {
   data = 
   ((   0.242857   0.757143)   % diagnosis=No   
   (   0.000878735   0.999121));   % diagnosis=Yes   
}

potential ( concavity_mean | perimeter_worst   concavity_worst   texture_worst   smoothness_worst   texture_se   concave points_worst   ) {
   data = 
   (((((((   1)   % perimeter_worst="(115.00000, 144.5000]"   concavity_worst="(0.000, 1.1000]"   texture_worst="(15.0000, 31.6000]"   smoothness_worst="(0.000, 0.2000]"   texture_se="(0.000, 0.8000]"   concave points_worst="(0.000, 0.0000]"   
   (   1))   % perimeter_worst="(144.00000, 236.5000]"   concavity_worst="(0.000, 1.1000]"   texture_worst="(15.0000, 31.6000]"   smoothness_worst="(0.000, 0.2000]"   texture_se="(0.000, 0.8000]"   concave points_worst="(0.000, 0.0000]"   
   ((   1)   % perimeter_worst="(115.00000, 144.5000]"   concavity_worst="(0.0029, 0.2000]"   texture_worst="(15.0000, 31.6000]"   smoothness_worst="(0.000, 0.2000]"   texture_se="(0.000, 0.8000]"   concave points_worst="(0.000, 0.0000]"   
   (   1)))   % perimeter_worst="(144.00000, 236.5000]"   concavity_worst="(0.0029, 0.2000]"   texture_worst="(15.0000, 31.6000]"   smoothness_worst="(0.000, 0.2000]"   texture_se="(0.000, 0.8000]"   concave points_worst="(0.000, 0.0000]"   
   (((   1)   % perimeter_worst="(115.00000, 144.5000]"   concavity_worst="(0.000, 1.1000]"   texture_worst="(31.000, 31.0000]"   smoothness_worst="(0.000, 0.2000]"   texture_se="(0.000, 0.8000]"   concave points_worst="(0.000, 0.0000]"   
   (   1))   % perimeter_worst="(144.00000, 236.5000]"   concavity_worst="(0.000, 1.1000]"   texture_worst="(31.000, 31.0000]"   smoothness_worst="(0.000, 0.2000]"   texture_se="(0.000, 0.8000]"   concave points_worst="(0.000, 0.0000]"   
   ((   1)   % perimeter_worst="(115.00000, 144.5000]"   concavity_worst="(0.0029, 0.2000]"   texture_worst="(31.000, 31.0000]"   smoothness_worst="(0.000, 0.2000]"   texture_se="(0.000, 0.8000]"   concave points_worst="(0.000, 0.0000]"   
   (   1)))   % perimeter_worst="(144.00000, 236.5000]"   concavity_worst="(0.0029, 0.2000]"   texture_worst="(31.000, 31.0000]"   smoothness_worst="(0.000, 0.2000]"   texture_se="(0.000, 0.8000]"   concave points_worst="(0.000, 0.0000]"   
   (((   1)   % perimeter_worst="(115.00000, 144.5000]"   concavity_worst="(0.000, 1.1000]"   texture_worst="(31.000, 40.7000]"   smoothness_worst="(0.000, 0.2000]"   texture_se="(0.000, 0.8000]"   concave points_worst="(0.000, 0.0000]"   
   (   1))   % perimeter_worst="(144.00000, 236.5000]"   concavity_worst="(0.000, 1.1000]"   texture_worst="(31.000, 40.7000]"   smoothness_worst="(0.000, 0.2000]"   texture_se="(0.000, 0.8000]"   concave points_worst="(0.000, 0.0000]"   
   ((   1)   % perimeter_worst="(115.00000, 144.5000]"   concavity_worst="(0.0029, 0.2000]"   texture_worst="(31.000, 40.7000]"   smoothness_worst="(0.000, 0.2000]"   texture_se="(0.000, 0.8000]"   concave points_worst="(0.000, 0.0000]"   
   (   1))))   % perimeter_worst="(144.00000, 236.5000]"   concavity_worst="(0.0029, 0.2000]"   texture_worst="(31.000, 40.7000]"   smoothness_worst="(0.000, 0.2000]"   texture_se="(0.000, 0.8000]"   concave points_worst="(0.000, 0.0000]"   
   ((((   1)   % perimeter_worst="(115.00000, 144.5000]"   concavity_worst="(0.000, 1.1000]"   texture_worst="(15.0000, 31.6000]"   smoothness_worst="(0.0750, 0.1000]"   texture_se="(0.000, 0.8000]"   concave points_worst="(0.000, 0.0000]"   
   (   1))   % perimeter_worst="(144.00000, 236.5000]"   concavity_worst="(0.000, 1.1000]"   texture_worst="(15.0000, 31.6000]"   smoothness_worst="(0.0750, 0.1000]"   texture_se="(0.000, 0.8000]"   concave points_worst="(0.000, 0.0000]"   
   ((   1)   % perimeter_worst="(115.00000, 144.5000]"   concavity_worst="(0.0029, 0.2000]"   texture_worst="(15.0000, 31.6000]"   smoothness_worst="(0.0750, 0.1000]"   texture_se="(0.000, 0.8000]"   concave points_worst="(0.000, 0.0000]"   
   (   1)))   % perimeter_worst="(144.00000, 236.5000]"   concavity_worst="(0.0029, 0.2000]"   texture_worst="(15.0000, 31.6000]"   smoothness_worst="(0.0750, 0.1000]"   texture_se="(0.000, 0.8000]"   concave points_worst="(0.000, 0.0000]"   
   (((   1)   % perimeter_worst="(115.00000, 144.5000]"   concavity_worst="(0.000, 1.1000]"   texture_worst="(31.000, 31.0000]"   smoothness_worst="(0.0750, 0.1000]"   texture_se="(0.000, 0.8000]"   concave points_worst="(0.000, 0.0000]"   
   (   1))   % perimeter_worst="(144.00000, 236.5000]"   concavity_worst="(0.000, 1.1000]"   texture_worst="(31.000, 31.0000]"   smoothness_worst="(0.0750, 0.1000]"   texture_se="(0.000, 0.8000]"   concave points_worst="(0.000, 0.0000]"   
   ((   1)   % perimeter_worst="(115.00000, 144.5000]"   concavity_worst="(0.0029, 0.2000]"   texture_worst="(31.000, 31.0000]"   smoothness_worst="(0.0750, 0.1000]"   texture_se="(0.000, 0.8000]"   concave points_worst="(0.000, 0.0000]"   
   (   1)))   % perimeter_worst="(144.00000, 236.5000]"   concavity_worst="(0.0029, 0.2000]"   texture_worst="(31.000, 31.0000]"   smoothness_worst="(0.0750, 0.1000]"   texture_se="(0.000, 0.8000]"   concave points_worst="(0.000, 0.0000]"   
   (((   1)   % perimeter_worst="(115.00000, 144.5000]"   concavity_worst="(0.000, 1.1000]"   texture_worst="(31.000, 40.7000]"   smoothness_worst="(0.0750, 0.1000]"   texture_se="(0.000, 0.8000]"   concave points_worst="(0.000, 0.0000]"   
   (   1))   % perimeter_worst="(144.00000, 236.5000]"   concavity_worst="(0.000, 1.1000]"   texture_worst="(31.000, 40.7000]"   smoothness_worst="(0.0750, 0.1000]"   texture_se="(0.000, 0.8000]"   concave points_worst="(0.000, 0.0000]"   
   ((   1)   % perimeter_worst="(115.00000, 144.5000]"   concavity_worst="(0.0029, 0.2000]"   texture_worst="(31.000, 40.7000]"   smoothness_worst="(0.0750, 0.1000]"   texture_se="(0.000, 0.8000]"   concave points_worst="(0.000, 0.0000]"   
   (   1)))))   % perimeter_worst="(144.00000, 236.5000]"   concavity_worst="(0.0029, 0.2000]"   texture_worst="(31.000, 40.7000]"   smoothness_worst="(0.0750, 0.1000]"   texture_se="(0.000, 0.8000]"   concave points_worst="(0.000, 0.0000]"   
   (((((   1)   % perimeter_worst="(115.00000, 144.5000]"   concavity_worst="(0.000, 1.1000]"   texture_worst="(15.0000, 31.6000]"   smoothness_worst="(0.000, 0.2000]"   texture_se="(0.000, 2.2000]"   concave points_worst="(0.000, 0.0000]"   
   (   1))   % perimeter_worst="(144.00000, 236.5000]"   concavity_worst="(0.000, 1.1000]"   texture_worst="(15.0000, 31.6000]"   smoothness_worst="(0.000, 0.2000]"   texture_se="(0.000, 2.2000]"   concave points_worst="(0.000, 0.0000]"   
   ((   1)   % perimeter_worst="(115.00000, 144.5000]"   concavity_worst="(0.0029, 0.2000]"   texture_worst="(15.0000, 31.6000]"   smoothness_worst="(0.000, 0.2000]"   texture_se="(0.000, 2.2000]"   concave points_worst="(0.000, 0.0000]"   
   (   1)))   % perimeter_worst="(144.00000, 236.5000]"   concavity_worst="(0.0029, 0.2000]"   texture_worst="(15.0000, 31.6000]"   smoothness_worst="(0.000, 0.2000]"   texture_se="(0.000, 2.2000]"   concave points_worst="(0.000, 0.0000]"   
   (((   1)   % perimeter_worst="(115.00000, 144.5000]"   concavity_worst="(0.000, 1.1000]"   texture_worst="(31.000, 31.0000]"   smoothness_worst="(0.000, 0.2000]"   texture_se="(0.000, 2.2000]"   concave points_worst="(0.000, 0.0000]"   
   (   1))   % perimeter_worst="(144.00000, 236.5000]"   concavity_worst="(0.000, 1.1000]"   texture_worst="(31.000, 31.0000]"   smoothness_worst="(0.000, 0.2000]"   texture_se="(0.000, 2.2000]"   concave points_worst="(0.000, 0.0000]"   
   ((   1)   % perimeter_worst="(115.00000, 144.5000]"   concavity_worst="(0.0029, 0.2000]"   texture_worst="(31.000, 31.0000]"   smoothness_worst="(0.000, 0.2000]"   texture_se="(0.000, 2.2000]"   concave points_worst="(0.000, 0.0000]"   
   (   1)))   % perimeter_worst="(144.00000, 236.5000]"   concavity_worst="(0.0029, 0.2000]"   texture_worst="(31.000, 31.0000]"   smoothness_worst="(0.000, 0.2000]"   texture_se="(0.000, 2.2000]"   concave points_worst="(0.000, 0.0000]"   
   (((   1)   % perimeter_worst="(115.00000, 144.5000]"   concavity_worst="(0.000, 1.1000]"   texture_worst="(31.000, 40.7000]"   smoothness_worst="(0.000, 0.2000]"   texture_se="(0.000, 2.2000]"   concave points_worst="(0.000, 0.0000]"   
   (   1))   % perimeter_worst="(144.00000, 236.5000]"   concavity_worst="(0.000, 1.1000]"   texture_worst="(31.000, 40.7000]"   smoothness_worst="(0.000, 0.2000]"   texture_se="(0.000, 2.2000]"   concave points_worst="(0.000, 0.0000]"   
   ((   1)   % perimeter_worst="(115.00000, 144.5000]"   concavity_worst="(0.0029, 0.2000]"   texture_worst="(31.000, 40.7000]"   smoothness_worst="(0.000, 0.2000]"   texture_se="(0.000, 2.2000]"   concave points_worst="(0.000, 0.0000]"   
   (   1))))   % perimeter_worst="(144.00000, 236.5000]"   concavity_worst="(0.0029, 0.2000]"   texture_worst="(31.000, 40.7000]"   smoothness_worst="(0.000, 0.2000]"   texture_se="(0.000, 2.2000]"   concave points_worst="(0.000, 0.0000]"   
   ((((   1)   % perimeter_worst="(115.00000, 144.5000]"   concavity_worst="(0.000, 1.1000]"   texture_worst="(15.0000, 31.6000]"   smoothness_worst="(0.0750, 0.1000]"   texture_se="(0.000, 2.2000]"   concave points_worst="(0.000, 0.0000]"   
   (   1))   % perimeter_worst="(144.00000, 236.5000]"   concavity_worst="(0.000, 1.1000]"   texture_worst="(15.0000, 31.6000]"   smoothness_worst="(0.0750, 0.1000]"   texture_se="(0.000, 2.2000]"   concave points_worst="(0.000, 0.0000]"   
   ((   1)   % perimeter_worst="(115.00000, 144.5000]"   concavity_worst="(0.0029, 0.2000]"   texture_worst="(15.0000, 31.6000]"   smoothness_worst="(0.0750, 0.1000]"   texture_se="(0.000, 2.2000]"   concave points_worst="(0.000, 0.0000]"   
   (   1)))   % perimeter_worst="(144.00000, 236.5000]"   concavity_worst="(0.0029, 0.2000]"   texture_worst="(15.0000, 31.6000]"   smoothness_worst="(0.0750, 0.1000]"   texture_se="(0.000, 2.2000]"   concave points_worst="(0.000, 0.0000]"   
   (((   1)   % perimeter_worst="(115.00000, 144.5000]"   concavity_worst="(0.000, 1.1000]"   texture_worst="(31.000, 31.0000]"   smoothness_worst="(0.0750, 0.1000]"   texture_se="(0.000, 2.2000]"   concave points_worst="(0.000, 0.0000]"   
   (   1))   % perimeter_worst="(144.00000, 236.5000]"   concavity_worst="(0.000, 1.1000]"   texture_worst="(31.000, 31.0000]"   smoothness_worst="(0.0750, 0.1000]"   texture_se="(0.000, 2.2000]"   concave points_worst="(0.000, 0.0000]"   
   ((   1)   % perimeter_worst="(115.00000, 144.5000]"   concavity_worst="(0.0029, 0.2000]"   texture_worst="(31.000, 31.0000]"   smoothness_worst="(0.0750, 0.1000]"   texture_se="(0.000, 2.2000]"   concave points_worst="(0.000, 0.0000]"   
   (   1)))   % perimeter_worst="(144.00000, 236.5000]"   concavity_worst="(0.0029, 0.2000]"   texture_worst="(31.000, 31.0000]"   smoothness_worst="(0.0750, 0.1000]"   texture_se="(0.000, 2.2000]"   concave points_worst="(0.000, 0.0000]"   
   (((   1)   % perimeter_worst="(115.00000, 144.5000]"   concavity_worst="(0.000, 1.1000]"   texture_worst="(31.000, 40.7000]"   smoothness_worst="(0.0750, 0.1000]"   texture_se="(0.000, 2.2000]"   concave points_worst="(0.000, 0.0000]"   
   (   1))   % perimeter_worst="(144.00000, 236.5000]"   concavity_worst="(0.000, 1.1000]"   texture_worst="(31.000, 40.7000]"   smoothness_worst="(0.0750, 0.1000]"   texture_se="(0.000, 2.2000]"   concave points_worst="(0.000, 0.0000]"   
   ((   1)   % perimeter_worst="(115.00000, 144.5000]"   concavity_worst="(0.0029, 0.2000]"   texture_worst="(31.000, 40.7000]"   smoothness_worst="(0.0750, 0.1000]"   texture_se="(0.000, 2.2000]"   concave points_worst="(0.000, 0.0000]"   
   (   1)))))   % perimeter_worst="(144.00000, 236.5000]"   concavity_worst="(0.0029, 0.2000]"   texture_worst="(31.000, 40.7000]"   smoothness_worst="(0.0750, 0.1000]"   texture_se="(0.000, 2.2000]"   concave points_worst="(0.000, 0.0000]"   
   (((((   1)   % perimeter_worst="(115.00000, 144.5000]"   concavity_worst="(0.000, 1.1000]"   texture_worst="(15.0000, 31.6000]"   smoothness_worst="(0.000, 0.2000]"   texture_se="(2.000, 3.7000]"   concave points_worst="(0.000, 0.0000]"   
   (   1))   % perimeter_worst="(144.00000, 236.5000]"   concavity_worst="(0.000, 1.1000]"   texture_worst="(15.0000, 31.6000]"   smoothness_worst="(0.000, 0.2000]"   texture_se="(2.000, 3.7000]"   concave points_worst="(0.000, 0.0000]"   
   ((   1)   % perimeter_worst="(115.00000, 144.5000]"   concavity_worst="(0.0029, 0.2000]"   texture_worst="(15.0000, 31.6000]"   smoothness_worst="(0.000, 0.2000]"   texture_se="(2.000, 3.7000]"   concave points_worst="(0.000, 0.0000]"   
   (   1)))   % perimeter_worst="(144.00000, 236.5000]"   concavity_worst="(0.0029, 0.2000]"   texture_worst="(15.0000, 31.6000]"   smoothness_worst="(0.000, 0.2000]"   texture_se="(2.000, 3.7000]"   concave points_worst="(0.000, 0.0000]"   
   (((   1)   % perimeter_worst="(115.00000, 144.5000]"   concavity_worst="(0.000, 1.1000]"   texture_worst="(31.000, 31.0000]"   smoothness_worst="(0.000, 0.2000]"   texture_se="(2.000, 3.7000]"   concave points_worst="(0.000, 0.0000]"   
   (   1))   % perimeter_worst="(144.00000, 236.5000]"   concavity_worst="(0.000, 1.1000]"   texture_worst="(31.000, 31.0000]"   smoothness_worst="(0.000, 0.2000]"   texture_se="(2.000, 3.7000]"   concave points_worst="(0.000, 0.0000]"   
   ((   1)   % perimeter_worst="(115.00000, 144.5000]"   concavity_worst="(0.0029, 0.2000]"   texture_worst="(31.000, 31.0000]"   smoothness_worst="(0.000, 0.2000]"   texture_se="(2.000, 3.7000]"   concave points_worst="(0.000, 0.0000]"   
   (   1)))   % perimeter_worst="(144.00000, 236.5000]"   concavity_worst="(0.0029, 0.2000]"   texture_worst="(31.000, 31.0000]"   smoothness_worst="(0.000, 0.2000]"   texture_se="(2.000, 3.7000]"   concave points_worst="(0.000, 0.0000]"   
   (((   1)   % perimeter_worst="(115.00000, 144.5000]"   concavity_worst="(0.000, 1.1000]"   texture_worst="(31.000, 40.7000]"   smoothness_worst="(0.000, 0.2000]"   texture_se="(2.000, 3.7000]"   concave points_worst="(0.000, 0.0000]"   
   (   1))   % perimeter_worst="(144.00000, 236.5000]"   concavity_worst="(0.000, 1.1000]"   texture_worst="(31.000, 40.7000]"   smoothness_worst="(0.000, 0.2000]"   texture_se="(2.000, 3.7000]"   concave points_worst="(0.000, 0.0000]"   
   ((   1)   % perimeter_worst="(115.00000, 144.5000]"   concavity_worst="(0.0029, 0.2000]"   texture_worst="(31.000, 40.7000]"   smoothness_worst="(0.000, 0.2000]"   texture_se="(2.000, 3.7000]"   concave points_worst="(0.000, 0.0000]"   
   (   1))))   % perimeter_worst="(144.00000, 236.5000]"   concavity_worst="(0.0029, 0.2000]"   texture_worst="(31.000, 40.7000]"   smoothness_worst="(0.000, 0.2000]"   texture_se="(2.000, 3.7000]"   concave points_worst="(0.000, 0.0000]"   
   ((((   1)   % perimeter_worst="(115.00000, 144.5000]"   concavity_worst="(0.000, 1.1000]"   texture_worst="(15.0000, 31.6000]"   smoothness_worst="(0.0750, 0.1000]"   texture_se="(2.000, 3.7000]"   concave points_worst="(0.000, 0.0000]"   
   (   1))   % perimeter_worst="(144.00000, 236.5000]"   concavity_worst="(0.000, 1.1000]"   texture_worst="(15.0000, 31.6000]"   smoothness_worst="(0.0750, 0.1000]"   texture_se="(2.000, 3.7000]"   concave points_worst="(0.000, 0.0000]"   
   ((   1)   % perimeter_worst="(115.00000, 144.5000]"   concavity_worst="(0.0029, 0.2000]"   texture_worst="(15.0000, 31.6000]"   smoothness_worst="(0.0750, 0.1000]"   texture_se="(2.000, 3.7000]"   concave points_worst="(0.000, 0.0000]"   
   (   1)))   % perimeter_worst="(144.00000, 236.5000]"   concavity_worst="(0.0029, 0.2000]"   texture_worst="(15.0000, 31.6000]"   smoothness_worst="(0.0750, 0.1000]"   texture_se="(2.000, 3.7000]"   concave points_worst="(0.000, 0.0000]"   
   (((   1)   % perimeter_worst="(115.00000, 144.5000]"   concavity_worst="(0.000, 1.1000]"   texture_worst="(31.000, 31.0000]"   smoothness_worst="(0.0750, 0.1000]"   texture_se="(2.000, 3.7000]"   concave points_worst="(0.000, 0.0000]"   
   (   1))   % perimeter_worst="(144.00000, 236.5000]"   concavity_worst="(0.000, 1.1000]"   texture_worst="(31.000, 31.0000]"   smoothness_worst="(0.0750, 0.1000]"   texture_se="(2.000, 3.7000]"   concave points_worst="(0.000, 0.0000]"   
   ((   1)   % perimeter_worst="(115.00000, 144.5000]"   concavity_worst="(0.0029, 0.2000]"   texture_worst="(31.000, 31.0000]"   smoothness_worst="(0.0750, 0.1000]"   texture_se="(2.000, 3.7000]"   concave points_worst="(0.000, 0.0000]"   
   (   1)))   % perimeter_worst="(144.00000, 236.5000]"   concavity_worst="(0.0029, 0.2000]"   texture_worst="(31.000, 31.0000]"   smoothness_worst="(0.0750, 0.1000]"   texture_se="(2.000, 3.7000]"   concave points_worst="(0.000, 0.0000]"   
   (((   1)   % perimeter_worst="(115.00000, 144.5000]"   concavity_worst="(0.000, 1.1000]"   texture_worst="(31.000, 40.7000]"   smoothness_worst="(0.0750, 0.1000]"   texture_se="(2.000, 3.7000]"   concave points_worst="(0.000, 0.0000]"   
   (   1))   % perimeter_worst="(144.00000, 236.5000]"   concavity_worst="(0.000, 1.1000]"   texture_worst="(31.000, 40.7000]"   smoothness_worst="(0.0750, 0.1000]"   texture_se="(2.000, 3.7000]"   concave points_worst="(0.000, 0.0000]"   
   ((   1)   % perimeter_worst="(115.00000, 144.5000]"   concavity_worst="(0.0029, 0.2000]"   texture_worst="(31.000, 40.7000]"   smoothness_worst="(0.0750, 0.1000]"   texture_se="(2.000, 3.7000]"   concave points_worst="(0.000, 0.0000]"   
   (   1))))))   % perimeter_worst="(144.00000, 236.5000]"   concavity_worst="(0.0029, 0.2000]"   texture_worst="(31.000, 40.7000]"   smoothness_worst="(0.0750, 0.1000]"   texture_se="(2.000, 3.7000]"   concave points_worst="(0.000, 0.0000]"   
   ((((((   1)   % perimeter_worst="(115.00000, 144.5000]"   concavity_worst="(0.000, 1.1000]"   texture_worst="(15.0000, 31.6000]"   smoothness_worst="(0.000, 0.2000]"   texture_se="(0.000, 0.8000]"   concave points_worst="(0.0009, 0.0800]"   
   (   1))   % perimeter_worst="(144.00000, 236.5000]"   concavity_worst="(0.000, 1.1000]"   texture_worst="(15.0000, 31.6000]"   smoothness_worst="(0.000, 0.2000]"   texture_se="(0.000, 0.8000]"   concave points_worst="(0.0009, 0.0800]"   
   ((   1)   % perimeter_worst="(115.00000, 144.5000]"   concavity_worst="(0.0029, 0.2000]"   texture_worst="(15.0000, 31.6000]"   smoothness_worst="(0.000, 0.2000]"   texture_se="(0.000, 0.8000]"   concave points_worst="(0.0009, 0.0800]"   
   (   1)))   % perimeter_worst="(144.00000, 236.5000]"   concavity_worst="(0.0029, 0.2000]"   texture_worst="(15.0000, 31.6000]"   smoothness_worst="(0.000, 0.2000]"   texture_se="(0.000, 0.8000]"   concave points_worst="(0.0009, 0.0800]"   
   (((   1)   % perimeter_worst="(115.00000, 144.5000]"   concavity_worst="(0.000, 1.1000]"   texture_worst="(31.000, 31.0000]"   smoothness_worst="(0.000, 0.2000]"   texture_se="(0.000, 0.8000]"   concave points_worst="(0.0009, 0.0800]"   
   (   1))   % perimeter_worst="(144.00000, 236.5000]"   concavity_worst="(0.000, 1.1000]"   texture_worst="(31.000, 31.0000]"   smoothness_worst="(0.000, 0.2000]"   texture_se="(0.000, 0.8000]"   concave points_worst="(0.0009, 0.0800]"   
   ((   1)   % perimeter_worst="(115.00000, 144.5000]"   concavity_worst="(0.0029, 0.2000]"   texture_worst="(31.000, 31.0000]"   smoothness_worst="(0.000, 0.2000]"   texture_se="(0.000, 0.8000]"   concave points_worst="(0.0009, 0.0800]"   
   (   1)))   % perimeter_worst="(144.00000, 236.5000]"   concavity_worst="(0.0029, 0.2000]"   texture_worst="(31.000, 31.0000]"   smoothness_worst="(0.000, 0.2000]"   texture_se="(0.000, 0.8000]"   concave points_worst="(0.0009, 0.0800]"   
   (((   1)   % perimeter_worst="(115.00000, 144.5000]"   concavity_worst="(0.000, 1.1000]"   texture_worst="(31.000, 40.7000]"   smoothness_worst="(0.000, 0.2000]"   texture_se="(0.000, 0.8000]"   concave points_worst="(0.0009, 0.0800]"   
   (   1))   % perimeter_worst="(144.00000, 236.5000]"   concavity_worst="(0.000, 1.1000]"   texture_worst="(31.000, 40.7000]"   smoothness_worst="(0.000, 0.2000]"   texture_se="(0.000, 0.8000]"   concave points_worst="(0.0009, 0.0800]"   
   ((   1)   % perimeter_worst="(115.00000, 144.5000]"   concavity_worst="(0.0029, 0.2000]"   texture_worst="(31.000, 40.7000]"   smoothness_worst="(0.000, 0.2000]"   texture_se="(0.000, 0.8000]"   concave points_worst="(0.0009, 0.0800]"   
   (   1))))   % perimeter_worst="(144.00000, 236.5000]"   concavity_worst="(0.0029, 0.2000]"   texture_worst="(31.000, 40.7000]"   smoothness_worst="(0.000, 0.2000]"   texture_se="(0.000, 0.8000]"   concave points_worst="(0.0009, 0.0800]"   
   ((((   1)   % perimeter_worst="(115.00000, 144.5000]"   concavity_worst="(0.000, 1.1000]"   texture_worst="(15.0000, 31.6000]"   smoothness_worst="(0.0750, 0.1000]"   texture_se="(0.000, 0.8000]"   concave points_worst="(0.0009, 0.0800]"   
   (   1))   % perimeter_worst="(144.00000, 236.5000]"   concavity_worst="(0.000, 1.1000]"   texture_worst="(15.0000, 31.6000]"   smoothness_worst="(0.0750, 0.1000]"   texture_se="(0.000, 0.8000]"   concave points_worst="(0.0009, 0.0800]"   
   ((   1)   % perimeter_worst="(115.00000, 144.5000]"   concavity_worst="(0.0029, 0.2000]"   texture_worst="(15.0000, 31.6000]"   smoothness_worst="(0.0750, 0.1000]"   texture_se="(0.000, 0.8000]"   concave points_worst="(0.0009, 0.0800]"   
   (   1)))   % perimeter_worst="(144.00000, 236.5000]"   concavity_worst="(0.0029, 0.2000]"   texture_worst="(15.0000, 31.6000]"   smoothness_worst="(0.0750, 0.1000]"   texture_se="(0.000, 0.8000]"   concave points_worst="(0.0009, 0.0800]"   
   (((   1)   % perimeter_worst="(115.00000, 144.5000]"   concavity_worst="(0.000, 1.1000]"   texture_worst="(31.000, 31.0000]"   smoothness_worst="(0.0750, 0.1000]"   texture_se="(0.000, 0.8000]"   concave points_worst="(0.0009, 0.0800]"   
   (   1))   % perimeter_worst="(144.00000, 236.5000]"   concavity_worst="(0.000, 1.1000]"   texture_worst="(31.000, 31.0000]"   smoothness_worst="(0.0750, 0.1000]"   texture_se="(0.000, 0.8000]"   concave points_worst="(0.0009, 0.0800]"   
   ((   1)   % perimeter_worst="(115.00000, 144.5000]"   concavity_worst="(0.0029, 0.2000]"   texture_worst="(31.000, 31.0000]"   smoothness_worst="(0.0750, 0.1000]"   texture_se="(0.000, 0.8000]"   concave points_worst="(0.0009, 0.0800]"   
   (   1)))   % perimeter_worst="(144.00000, 236.5000]"   concavity_worst="(0.0029, 0.2000]"   texture_worst="(31.000, 31.0000]"   smoothness_worst="(0.0750, 0.1000]"   texture_se="(0.000, 0.8000]"   concave points_worst="(0.0009, 0.0800]"   
   (((   1)   % perimeter_worst="(115.00000, 144.5000]"   concavity_worst="(0.000, 1.1000]"   texture_worst="(31.000, 40.7000]"   smoothness_worst="(0.0750, 0.1000]"   texture_se="(0.000, 0.8000]"   concave points_worst="(0.0009, 0.0800]"   
   (   1))   % perimeter_worst="(144.00000, 236.5000]"   concavity_worst="(0.000, 1.1000]"   texture_worst="(31.000, 40.7000]"   smoothness_worst="(0.0750, 0.1000]"   texture_se="(0.000, 0.8000]"   concave points_worst="(0.0009, 0.0800]"   
   ((   1)   % perimeter_worst="(115.00000, 144.5000]"   concavity_worst="(0.0029, 0.2000]"   texture_worst="(31.000, 40.7000]"   smoothness_worst="(0.0750, 0.1000]"   texture_se="(0.000, 0.8000]"   concave points_worst="(0.0009, 0.0800]"   
   (   1)))))   % perimeter_worst="(144.00000, 236.5000]"   concavity_worst="(0.0029, 0.2000]"   texture_worst="(31.000, 40.7000]"   smoothness_worst="(0.0750, 0.1000]"   texture_se="(0.000, 0.8000]"   concave points_worst="(0.0009, 0.0800]"   
   (((((   1)   % perimeter_worst="(115.00000, 144.5000]"   concavity_worst="(0.000, 1.1000]"   texture_worst="(15.0000, 31.6000]"   smoothness_worst="(0.000, 0.2000]"   texture_se="(0.000, 2.2000]"   concave points_worst="(0.0009, 0.0800]"   
   (   1))   % perimeter_worst="(144.00000, 236.5000]"   concavity_worst="(0.000, 1.1000]"   texture_worst="(15.0000, 31.6000]"   smoothness_worst="(0.000, 0.2000]"   texture_se="(0.000, 2.2000]"   concave points_worst="(0.0009, 0.0800]"   
   ((   1)   % perimeter_worst="(115.00000, 144.5000]"   concavity_worst="(0.0029, 0.2000]"   texture_worst="(15.0000, 31.6000]"   smoothness_worst="(0.000, 0.2000]"   texture_se="(0.000, 2.2000]"   concave points_worst="(0.0009, 0.0800]"   
   (   1)))   % perimeter_worst="(144.00000, 236.5000]"   concavity_worst="(0.0029, 0.2000]"   texture_worst="(15.0000, 31.6000]"   smoothness_worst="(0.000, 0.2000]"   texture_se="(0.000, 2.2000]"   concave points_worst="(0.0009, 0.0800]"   
   (((   1)   % perimeter_worst="(115.00000, 144.5000]"   concavity_worst="(0.000, 1.1000]"   texture_worst="(31.000, 31.0000]"   smoothness_worst="(0.000, 0.2000]"   texture_se="(0.000, 2.2000]"   concave points_worst="(0.0009, 0.0800]"   
   (   1))   % perimeter_worst="(144.00000, 236.5000]"   concavity_worst="(0.000, 1.1000]"   texture_worst="(31.000, 31.0000]"   smoothness_worst="(0.000, 0.2000]"   texture_se="(0.000, 2.2000]"   concave points_worst="(0.0009, 0.0800]"   
   ((   1)   % perimeter_worst="(115.00000, 144.5000]"   concavity_worst="(0.0029, 0.2000]"   texture_worst="(31.000, 31.0000]"   smoothness_worst="(0.000, 0.2000]"   texture_se="(0.000, 2.2000]"   concave points_worst="(0.0009, 0.0800]"   
   (   1)))   % perimeter_worst="(144.00000, 236.5000]"   concavity_worst="(0.0029, 0.2000]"   texture_worst="(31.000, 31.0000]"   smoothness_worst="(0.000, 0.2000]"   texture_se="(0.000, 2.2000]"   concave points_worst="(0.0009, 0.0800]"   
   (((   1)   % perimeter_worst="(115.00000, 144.5000]"   concavity_worst="(0.000, 1.1000]"   texture_worst="(31.000, 40.7000]"   smoothness_worst="(0.000, 0.2000]"   texture_se="(0.000, 2.2000]"   concave points_worst="(0.0009, 0.0800]"   
   (   1))   % perimeter_worst="(144.00000, 236.5000]"   concavity_worst="(0.000, 1.1000]"   texture_worst="(31.000, 40.7000]"   smoothness_worst="(0.000, 0.2000]"   texture_se="(0.000, 2.2000]"   concave points_worst="(0.0009, 0.0800]"   
   ((   1)   % perimeter_worst="(115.00000, 144.5000]"   concavity_worst="(0.0029, 0.2000]"   texture_worst="(31.000, 40.7000]"   smoothness_worst="(0.000, 0.2000]"   texture_se="(0.000, 2.2000]"   concave points_worst="(0.0009, 0.0800]"   
   (   1))))   % perimeter_worst="(144.00000, 236.5000]"   concavity_worst="(0.0029, 0.2000]"   texture_worst="(31.000, 40.7000]"   smoothness_worst="(0.000, 0.2000]"   texture_se="(0.000, 2.2000]"   concave points_worst="(0.0009, 0.0800]"   
   ((((   1)   % perimeter_worst="(115.00000, 144.5000]"   concavity_worst="(0.000, 1.1000]"   texture_worst="(15.0000, 31.6000]"   smoothness_worst="(0.0750, 0.1000]"   texture_se="(0.000, 2.2000]"   concave points_worst="(0.0009, 0.0800]"   
   (   1))   % perimeter_worst="(144.00000, 236.5000]"   concavity_worst="(0.000, 1.1000]"   texture_worst="(15.0000, 31.6000]"   smoothness_worst="(0.0750, 0.1000]"   texture_se="(0.000, 2.2000]"   concave points_worst="(0.0009, 0.0800]"   
   ((   1)   % perimeter_worst="(115.00000, 144.5000]"   concavity_worst="(0.0029, 0.2000]"   texture_worst="(15.0000, 31.6000]"   smoothness_worst="(0.0750, 0.1000]"   texture_se="(0.000, 2.2000]"   concave points_worst="(0.0009, 0.0800]"   
   (   1)))   % perimeter_worst="(144.00000, 236.5000]"   concavity_worst="(0.0029, 0.2000]"   texture_worst="(15.0000, 31.6000]"   smoothness_worst="(0.0750, 0.1000]"   texture_se="(0.000, 2.2000]"   concave points_worst="(0.0009, 0.0800]"   
   (((   1)   % perimeter_worst="(115.00000, 144.5000]"   concavity_worst="(0.000, 1.1000]"   texture_worst="(31.000, 31.0000]"   smoothness_worst="(0.0750, 0.1000]"   texture_se="(0.000, 2.2000]"   concave points_worst="(0.0009, 0.0800]"   
   (   1))   % perimeter_worst="(144.00000, 236.5000]"   concavity_worst="(0.000, 1.1000]"   texture_worst="(31.000, 31.0000]"   smoothness_worst="(0.0750, 0.1000]"   texture_se="(0.000, 2.2000]"   concave points_worst="(0.0009, 0.0800]"   
   ((   1)   % perimeter_worst="(115.00000, 144.5000]"   concavity_worst="(0.0029, 0.2000]"   texture_worst="(31.000, 31.0000]"   smoothness_worst="(0.0750, 0.1000]"   texture_se="(0.000, 2.2000]"   concave points_worst="(0.0009, 0.0800]"   
   (   1)))   % perimeter_worst="(144.00000, 236.5000]"   concavity_worst="(0.0029, 0.2000]"   texture_worst="(31.000, 31.0000]"   smoothness_worst="(0.0750, 0.1000]"   texture_se="(0.000, 2.2000]"   concave points_worst="(0.0009, 0.0800]"   
   (((   1)   % perimeter_worst="(115.00000, 144.5000]"   concavity_worst="(0.000, 1.1000]"   texture_worst="(31.000, 40.7000]"   smoothness_worst="(0.0750, 0.1000]"   texture_se="(0.000, 2.2000]"   concave points_worst="(0.0009, 0.0800]"   
   (   1))   % perimeter_worst="(144.00000, 236.5000]"   concavity_worst="(0.000, 1.1000]"   texture_worst="(31.000, 40.7000]"   smoothness_worst="(0.0750, 0.1000]"   texture_se="(0.000, 2.2000]"   concave points_worst="(0.0009, 0.0800]"   
   ((   1)   % perimeter_worst="(115.00000, 144.5000]"   concavity_worst="(0.0029, 0.2000]"   texture_worst="(31.000, 40.7000]"   smoothness_worst="(0.0750, 0.1000]"   texture_se="(0.000, 2.2000]"   concave points_worst="(0.0009, 0.0800]"   
   (   1)))))   % perimeter_worst="(144.00000, 236.5000]"   concavity_worst="(0.0029, 0.2000]"   texture_worst="(31.000, 40.7000]"   smoothness_worst="(0.0750, 0.1000]"   texture_se="(0.000, 2.2000]"   concave points_worst="(0.0009, 0.0800]"   
   (((((   1)   % perimeter_worst="(115.00000, 144.5000]"   concavity_worst="(0.000, 1.1000]"   texture_worst="(15.0000, 31.6000]"   smoothness_worst="(0.000, 0.2000]"   texture_se="(2.000, 3.7000]"   concave points_worst="(0.0009, 0.0800]"   
   (   1))   % perimeter_worst="(144.00000, 236.5000]"   concavity_worst="(0.000, 1.1000]"   texture_worst="(15.0000, 31.6000]"   smoothness_worst="(0.000, 0.2000]"   texture_se="(2.000, 3.7000]"   concave points_worst="(0.0009, 0.0800]"   
   ((   1)   % perimeter_worst="(115.00000, 144.5000]"   concavity_worst="(0.0029, 0.2000]"   texture_worst="(15.0000, 31.6000]"   smoothness_worst="(0.000, 0.2000]"   texture_se="(2.000, 3.7000]"   concave points_worst="(0.0009, 0.0800]"   
   (   1)))   % perimeter_worst="(144.00000, 236.5000]"   concavity_worst="(0.0029, 0.2000]"   texture_worst="(15.0000, 31.6000]"   smoothness_worst="(0.000, 0.2000]"   texture_se="(2.000, 3.7000]"   concave points_worst="(0.0009, 0.0800]"   
   (((   1)   % perimeter_worst="(115.00000, 144.5000]"   concavity_worst="(0.000, 1.1000]"   texture_worst="(31.000, 31.0000]"   smoothness_worst="(0.000, 0.2000]"   texture_se="(2.000, 3.7000]"   concave points_worst="(0.0009, 0.0800]"   
   (   1))   % perimeter_worst="(144.00000, 236.5000]"   concavity_worst="(0.000, 1.1000]"   texture_worst="(31.000, 31.0000]"   smoothness_worst="(0.000, 0.2000]"   texture_se="(2.000, 3.7000]"   concave points_worst="(0.0009, 0.0800]"   
   ((   1)   % perimeter_worst="(115.00000, 144.5000]"   concavity_worst="(0.0029, 0.2000]"   texture_worst="(31.000, 31.0000]"   smoothness_worst="(0.000, 0.2000]"   texture_se="(2.000, 3.7000]"   concave points_worst="(0.0009, 0.0800]"   
   (   1)))   % perimeter_worst="(144.00000, 236.5000]"   concavity_worst="(0.0029, 0.2000]"   texture_worst="(31.000, 31.0000]"   smoothness_worst="(0.000, 0.2000]"   texture_se="(2.000, 3.7000]"   concave points_worst="(0.0009, 0.0800]"   
   (((   1)   % perimeter_worst="(115.00000, 144.5000]"   concavity_worst="(0.000, 1.1000]"   texture_worst="(31.000, 40.7000]"   smoothness_worst="(0.000, 0.2000]"   texture_se="(2.000, 3.7000]"   concave points_worst="(0.0009, 0.0800]"   
   (   1))   % perimeter_worst="(144.00000, 236.5000]"   concavity_worst="(0.000, 1.1000]"   texture_worst="(31.000, 40.7000]"   smoothness_worst="(0.000, 0.2000]"   texture_se="(2.000, 3.7000]"   concave points_worst="(0.0009, 0.0800]"   
   ((   1)   % perimeter_worst="(115.00000, 144.5000]"   concavity_worst="(0.0029, 0.2000]"   texture_worst="(31.000, 40.7000]"   smoothness_worst="(0.000, 0.2000]"   texture_se="(2.000, 3.7000]"   concave points_worst="(0.0009, 0.0800]"   
   (   1))))   % perimeter_worst="(144.00000, 236.5000]"   concavity_worst="(0.0029, 0.2000]"   texture_worst="(31.000, 40.7000]"   smoothness_worst="(0.000, 0.2000]"   texture_se="(2.000, 3.7000]"   concave points_worst="(0.0009, 0.0800]"   
   ((((   1)   % perimeter_worst="(115.00000, 144.5000]"   concavity_worst="(0.000, 1.1000]"   texture_worst="(15.0000, 31.6000]"   smoothness_worst="(0.0750, 0.1000]"   texture_se="(2.000, 3.7000]"   concave points_worst="(0.0009, 0.0800]"   
   (   1))   % perimeter_worst="(144.00000, 236.5000]"   concavity_worst="(0.000, 1.1000]"   texture_worst="(15.0000, 31.6000]"   smoothness_worst="(0.0750, 0.1000]"   texture_se="(2.000, 3.7000]"   concave points_worst="(0.0009, 0.0800]"   
   ((   1)   % perimeter_worst="(115.00000, 144.5000]"   concavity_worst="(0.0029, 0.2000]"   texture_worst="(15.0000, 31.6000]"   smoothness_worst="(0.0750, 0.1000]"   texture_se="(2.000, 3.7000]"   concave points_worst="(0.0009, 0.0800]"   
   (   1)))   % perimeter_worst="(144.00000, 236.5000]"   concavity_worst="(0.0029, 0.2000]"   texture_worst="(15.0000, 31.6000]"   smoothness_worst="(0.0750, 0.1000]"   texture_se="(2.000, 3.7000]"   concave points_worst="(0.0009, 0.0800]"   
   (((   1)   % perimeter_worst="(115.00000, 144.5000]"   concavity_worst="(0.000, 1.1000]"   texture_worst="(31.000, 31.0000]"   smoothness_worst="(0.0750, 0.1000]"   texture_se="(2.000, 3.7000]"   concave points_worst="(0.0009, 0.0800]"   
   (   1))   % perimeter_worst="(144.00000, 236.5000]"   concavity_worst="(0.000, 1.1000]"   texture_worst="(31.000, 31.0000]"   smoothness_worst="(0.0750, 0.1000]"   texture_se="(2.000, 3.7000]"   concave points_worst="(0.0009, 0.0800]"   
   ((   1)   % perimeter_worst="(115.00000, 144.5000]"   concavity_worst="(0.0029, 0.2000]"   texture_worst="(31.000, 31.0000]"   smoothness_worst="(0.0750, 0.1000]"   texture_se="(2.000, 3.7000]"   concave points_worst="(0.0009, 0.0800]"   
   (   1)))   % perimeter_worst="(144.00000, 236.5000]"   concavity_worst="(0.0029, 0.2000]"   texture_worst="(31.000, 31.0000]"   smoothness_worst="(0.0750, 0.1000]"   texture_se="(2.000, 3.7000]"   concave points_worst="(0.0009, 0.0800]"   
   (((   1)   % perimeter_worst="(115.00000, 144.5000]"   concavity_worst="(0.000, 1.1000]"   texture_worst="(31.000, 40.7000]"   smoothness_worst="(0.0750, 0.1000]"   texture_se="(2.000, 3.7000]"   concave points_worst="(0.0009, 0.0800]"   
   (   1))   % perimeter_worst="(144.00000, 236.5000]"   concavity_worst="(0.000, 1.1000]"   texture_worst="(31.000, 40.7000]"   smoothness_worst="(0.0750, 0.1000]"   texture_se="(2.000, 3.7000]"   concave points_worst="(0.0009, 0.0800]"   
   ((   1)   % perimeter_worst="(115.00000, 144.5000]"   concavity_worst="(0.0029, 0.2000]"   texture_worst="(31.000, 40.7000]"   smoothness_worst="(0.0750, 0.1000]"   texture_se="(2.000, 3.7000]"   concave points_worst="(0.0009, 0.0800]"   
   (   1)))))));   % perimeter_worst="(144.00000, 236.5000]"   concavity_worst="(0.0029, 0.2000]"   texture_worst="(31.000, 40.7000]"   smoothness_worst="(0.0750, 0.1000]"   texture_se="(2.000, 3.7000]"   concave points_worst="(0.0009, 0.0800]"   
}

potential ( concave points_mean | symmetry_mean   fractal_dimension_mean   ) {
   data = 
   (((   0.000276167   0.999448   0.000276167)   % symmetry_mean="(0.00, 0.1000]"   fractal_dimension_mean="(0.00000, 0.0500]"   
   (   0.333333   0.333333   0.333333))   % symmetry_mean="(0.000, 0.2000]"   fractal_dimension_mean="(0.00000, 0.0500]"   
   ((   0.00680272   0.986395   0.00680272)   % symmetry_mean="(0.00, 0.1000]"   fractal_dimension_mean="(0.00000, 0.0900]"   
   (   0.333333   0.333333   0.333333))   % symmetry_mean="(0.000, 0.2000]"   fractal_dimension_mean="(0.00000, 0.0900]"   
   ((   0.89302   0.0711024   0.0358774)   % symmetry_mean="(0.00, 0.1000]"   fractal_dimension_mean="(0.0419, 0.0500]"   
   (   0.00775194   0.984496   0.00775194)));   % symmetry_mean="(0.000, 0.2000]"   fractal_dimension_mean="(0.0419, 0.0500]"   
}

potential ( symmetry_mean | fractal_dimension_mean   ) {
   data = 
   ((   0.999172   0.000827815)   % fractal_dimension_mean="(0.00000, 0.0500]"   
   (   0.98   0.02)   % fractal_dimension_mean="(0.00000, 0.0900]"   
   (   0.922383   0.0776173));   % fractal_dimension_mean="(0.0419, 0.0500]"   
}

potential ( fractal_dimension_mean | radius_se   ) {
   data = 
   ((   0.0211382   0.0796748   0.899187)   % radius_se="(0.000, 0.2000]"   
   (   0.998329   0.000835422   0.000835422));   % radius_se="(0.000, 2.8000]"   
}

potential (radius_se) {
   data = (  0.339404 0.660596);
}

potential ( texture_se | radius_se   ) {
   data = 
   ((   0.996748   0.00162602   0.00162602)   % radius_se="(0.000, 0.2000]"   
   (   0.0559733   0.923141   0.0208855));   % radius_se="(0.000, 2.8000]"   
}

potential ( perimeter_se | area_se   texture_se   ) {
   data = 
   (((   0.999509   0.000491159)   % area_se="(12.0000, 22.1000]"   texture_se="(0.000, 0.8000]"   
   (   0.5   0.5)   % area_se="(22.00000, 482.0000]"   texture_se="(0.000, 0.8000]"   
   (   0.5   0.5))   % area_se="(482.00000, 534.1000]"   texture_se="(0.000, 0.8000]"   
   ((   0.466912   0.533088)   % area_se="(12.0000, 22.1000]"   texture_se="(0.000, 2.2000]"   
   (   0.99967   0.000330469)   % area_se="(22.00000, 482.0000]"   texture_se="(0.000, 2.2000]"   
   (   0.95   0.05))   % area_se="(482.00000, 534.1000]"   texture_se="(0.000, 2.2000]"   
   ((   0.986486   0.0135135)   % area_se="(12.0000, 22.1000]"   texture_se="(2.000, 3.7000]"   
   (   0.5   0.5)   % area_se="(22.00000, 482.0000]"   texture_se="(2.000, 3.7000]"   
   (   0.5   0.5)));   % area_se="(482.00000, 534.1000]"   texture_se="(2.000, 3.7000]"   
}

potential ( area_se | texture_se   ) {
   data = 
   ((   0.998039   0.000980392   0.000980392)   % texture_se="(0.000, 0.8000]"   
   (   0.0819771   0.911995   0.00602773)   % texture_se="(0.000, 2.2000]"   
   (   0.948718   0.025641   0.025641));   % texture_se="(2.000, 3.7000]"   
}

potential ( smoothness_se | radius_mean   ) {
   data = 
   ((   0.995033   0.00496689));   % radius_mean="(8.0000, 27.2000]"   
}

potential ( compactness_se | area_se   ) {
   data = 
   ((   0.998741   0.00125945)   % area_se="(12.0000, 22.1000]"   
   (   0.963366   0.0366337)   % area_se="(22.00000, 482.0000]"   
   (   0.875   0.125));   % area_se="(482.00000, 534.1000]"   
}

potential ( concavity_se | texture_se   diagnosis   symmetry_worst   concavity_worst   area_se   smoothness_worst   ) {
   data = 
   (((((((   1)   % texture_se="(0.000, 0.8000]"   diagnosis=No   symmetry_worst="(0.000, 0.2000]"   concavity_worst="(0.000, 1.1000]"   area_se="(12.0000, 22.1000]"   smoothness_worst="(0.000, 0.2000]"   
   (   1)   % texture_se="(0.000, 2.2000]"   diagnosis=No   symmetry_worst="(0.000, 0.2000]"   concavity_worst="(0.000, 1.1000]"   area_se="(12.0000, 22.1000]"   smoothness_worst="(0.000, 0.2000]"   
   (   1))   % texture_se="(2.000, 3.7000]"   diagnosis=No   symmetry_worst="(0.000, 0.2000]"   concavity_worst="(0.000, 1.1000]"   area_se="(12.0000, 22.1000]"   smoothness_worst="(0.000, 0.2000]"   
   ((   1)   % texture_se="(0.000, 0.8000]"   diagnosis=Yes   symmetry_worst="(0.000, 0.2000]"   concavity_worst="(0.000, 1.1000]"   area_se="(12.0000, 22.1000]"   smoothness_worst="(0.000, 0.2000]"   
   (   1)   % texture_se="(0.000, 2.2000]"   diagnosis=Yes   symmetry_worst="(0.000, 0.2000]"   concavity_worst="(0.000, 1.1000]"   area_se="(12.0000, 22.1000]"   smoothness_worst="(0.000, 0.2000]"   
   (   1)))   % texture_se="(2.000, 3.7000]"   diagnosis=Yes   symmetry_worst="(0.000, 0.2000]"   concavity_worst="(0.000, 1.1000]"   area_se="(12.0000, 22.1000]"   smoothness_worst="(0.000, 0.2000]"   
   (((   1)   % texture_se="(0.000, 0.8000]"   diagnosis=No   symmetry_worst="(0.000, 0.6000]"   concavity_worst="(0.000, 1.1000]"   area_se="(12.0000, 22.1000]"   smoothness_worst="(0.000, 0.2000]"   
   (   1)   % texture_se="(0.000, 2.2000]"   diagnosis=No   symmetry_worst="(0.000, 0.6000]"   concavity_worst="(0.000, 1.1000]"   area_se="(12.0000, 22.1000]"   smoothness_worst="(0.000, 0.2000]"   
   (   1))   % texture_se="(2.000, 3.7000]"   diagnosis=No   symmetry_worst="(0.000, 0.6000]"   concavity_worst="(0.000, 1.1000]"   area_se="(12.0000, 22.1000]"   smoothness_worst="(0.000, 0.2000]"   
   ((   1)   % texture_se="(0.000, 0.8000]"   diagnosis=Yes   symmetry_worst="(0.000, 0.6000]"   concavity_worst="(0.000, 1.1000]"   area_se="(12.0000, 22.1000]"   smoothness_worst="(0.000, 0.2000]"   
   (   1)   % texture_se="(0.000, 2.2000]"   diagnosis=Yes   symmetry_worst="(0.000, 0.6000]"   concavity_worst="(0.000, 1.1000]"   area_se="(12.0000, 22.1000]"   smoothness_worst="(0.000, 0.2000]"   
   (   1))))   % texture_se="(2.000, 3.7000]"   diagnosis=Yes   symmetry_worst="(0.000, 0.6000]"   concavity_worst="(0.000, 1.1000]"   area_se="(12.0000, 22.1000]"   smoothness_worst="(0.000, 0.2000]"   
   ((((   1)   % texture_se="(0.000, 0.8000]"   diagnosis=No   symmetry_worst="(0.000, 0.2000]"   concavity_worst="(0.0029, 0.2000]"   area_se="(12.0000, 22.1000]"   smoothness_worst="(0.000, 0.2000]"   
   (   1)   % texture_se="(0.000, 2.2000]"   diagnosis=No   symmetry_worst="(0.000, 0.2000]"   concavity_worst="(0.0029, 0.2000]"   area_se="(12.0000, 22.1000]"   smoothness_worst="(0.000, 0.2000]"   
   (   1))   % texture_se="(2.000, 3.7000]"   diagnosis=No   symmetry_worst="(0.000, 0.2000]"   concavity_worst="(0.0029, 0.2000]"   area_se="(12.0000, 22.1000]"   smoothness_worst="(0.000, 0.2000]"   
   ((   1)   % texture_se="(0.000, 0.8000]"   diagnosis=Yes   symmetry_worst="(0.000, 0.2000]"   concavity_worst="(0.0029, 0.2000]"   area_se="(12.0000, 22.1000]"   smoothness_worst="(0.000, 0.2000]"   
   (   1)   % texture_se="(0.000, 2.2000]"   diagnosis=Yes   symmetry_worst="(0.000, 0.2000]"   concavity_worst="(0.0029, 0.2000]"   area_se="(12.0000, 22.1000]"   smoothness_worst="(0.000, 0.2000]"   
   (   1)))   % texture_se="(2.000, 3.7000]"   diagnosis=Yes   symmetry_worst="(0.000, 0.2000]"   concavity_worst="(0.0029, 0.2000]"   area_se="(12.0000, 22.1000]"   smoothness_worst="(0.000, 0.2000]"   
   (((   1)   % texture_se="(0.000, 0.8000]"   diagnosis=No   symmetry_worst="(0.000, 0.6000]"   concavity_worst="(0.0029, 0.2000]"   area_se="(12.0000, 22.1000]"   smoothness_worst="(0.000, 0.2000]"   
   (   1)   % texture_se="(0.000, 2.2000]"   diagnosis=No   symmetry_worst="(0.000, 0.6000]"   concavity_worst="(0.0029, 0.2000]"   area_se="(12.0000, 22.1000]"   smoothness_worst="(0.000, 0.2000]"   
   (   1))   % texture_se="(2.000, 3.7000]"   diagnosis=No   symmetry_worst="(0.000, 0.6000]"   concavity_worst="(0.0029, 0.2000]"   area_se="(12.0000, 22.1000]"   smoothness_worst="(0.000, 0.2000]"   
   ((   1)   % texture_se="(0.000, 0.8000]"   diagnosis=Yes   symmetry_worst="(0.000, 0.6000]"   concavity_worst="(0.0029, 0.2000]"   area_se="(12.0000, 22.1000]"   smoothness_worst="(0.000, 0.2000]"   
   (   1)   % texture_se="(0.000, 2.2000]"   diagnosis=Yes   symmetry_worst="(0.000, 0.6000]"   concavity_worst="(0.0029, 0.2000]"   area_se="(12.0000, 22.1000]"   smoothness_worst="(0.000, 0.2000]"   
   (   1)))))   % texture_se="(2.000, 3.7000]"   diagnosis=Yes   symmetry_worst="(0.000, 0.6000]"   concavity_worst="(0.0029, 0.2000]"   area_se="(12.0000, 22.1000]"   smoothness_worst="(0.000, 0.2000]"   
   (((((   1)   % texture_se="(0.000, 0.8000]"   diagnosis=No   symmetry_worst="(0.000, 0.2000]"   concavity_worst="(0.000, 1.1000]"   area_se="(22.00000, 482.0000]"   smoothness_worst="(0.000, 0.2000]"   
   (   1)   % texture_se="(0.000, 2.2000]"   diagnosis=No   symmetry_worst="(0.000, 0.2000]"   concavity_worst="(0.000, 1.1000]"   area_se="(22.00000, 482.0000]"   smoothness_worst="(0.000, 0.2000]"   
   (   1))   % texture_se="(2.000, 3.7000]"   diagnosis=No   symmetry_worst="(0.000, 0.2000]"   concavity_worst="(0.000, 1.1000]"   area_se="(22.00000, 482.0000]"   smoothness_worst="(0.000, 0.2000]"   
   ((   1)   % texture_se="(0.000, 0.8000]"   diagnosis=Yes   symmetry_worst="(0.000, 0.2000]"   concavity_worst="(0.000, 1.1000]"   area_se="(22.00000, 482.0000]"   smoothness_worst="(0.000, 0.2000]"   
   (   1)   % texture_se="(0.000, 2.2000]"   diagnosis=Yes   symmetry_worst="(0.000, 0.2000]"   concavity_worst="(0.000, 1.1000]"   area_se="(22.00000, 482.0000]"   smoothness_worst="(0.000, 0.2000]"   
   (   1)))   % texture_se="(2.000, 3.7000]"   diagnosis=Yes   symmetry_worst="(0.000, 0.2000]"   concavity_worst="(0.000, 1.1000]"   area_se="(22.00000, 482.0000]"   smoothness_worst="(0.000, 0.2000]"   
   (((   1)   % texture_se="(0.000, 0.8000]"   diagnosis=No   symmetry_worst="(0.000, 0.6000]"   concavity_worst="(0.000, 1.1000]"   area_se="(22.00000, 482.0000]"   smoothness_worst="(0.000, 0.2000]"   
   (   1)   % texture_se="(0.000, 2.2000]"   diagnosis=No   symmetry_worst="(0.000, 0.6000]"   concavity_worst="(0.000, 1.1000]"   area_se="(22.00000, 482.0000]"   smoothness_worst="(0.000, 0.2000]"   
   (   1))   % texture_se="(2.000, 3.7000]"   diagnosis=No   symmetry_worst="(0.000, 0.6000]"   concavity_worst="(0.000, 1.1000]"   area_se="(22.00000, 482.0000]"   smoothness_worst="(0.000, 0.2000]"   
   ((   1)   % texture_se="(0.000, 0.8000]"   diagnosis=Yes   symmetry_worst="(0.000, 0.6000]"   concavity_worst="(0.000, 1.1000]"   area_se="(22.00000, 482.0000]"   smoothness_worst="(0.000, 0.2000]"   
   (   1)   % texture_se="(0.000, 2.2000]"   diagnosis=Yes   symmetry_worst="(0.000, 0.6000]"   concavity_worst="(0.000, 1.1000]"   area_se="(22.00000, 482.0000]"   smoothness_worst="(0.000, 0.2000]"   
   (   1))))   % texture_se="(2.000, 3.7000]"   diagnosis=Yes   symmetry_worst="(0.000, 0.6000]"   concavity_worst="(0.000, 1.1000]"   area_se="(22.00000, 482.0000]"   smoothness_worst="(0.000, 0.2000]"   
   ((((   1)   % texture_se="(0.000, 0.8000]"   diagnosis=No   symmetry_worst="(0.000, 0.2000]"   concavity_worst="(0.0029, 0.2000]"   area_se="(22.00000, 482.0000]"   smoothness_worst="(0.000, 0.2000]"   
   (   1)   % texture_se="(0.000, 2.2000]"   diagnosis=No   symmetry_worst="(0.000, 0.2000]"   concavity_worst="(0.0029, 0.2000]"   area_se="(22.00000, 482.0000]"   smoothness_worst="(0.000, 0.2000]"   
   (   1))   % texture_se="(2.000, 3.7000]"   diagnosis=No   symmetry_worst="(0.000, 0.2000]"   concavity_worst="(0.0029, 0.2000]"   area_se="(22.00000, 482.0000]"   smoothness_worst="(0.000, 0.2000]"   
   ((   1)   % texture_se="(0.000, 0.8000]"   diagnosis=Yes   symmetry_worst="(0.000, 0.2000]"   concavity_worst="(0.0029, 0.2000]"   area_se="(22.00000, 482.0000]"   smoothness_worst="(0.000, 0.2000]"   
   (   1)   % texture_se="(0.000, 2.2000]"   diagnosis=Yes   symmetry_worst="(0.000, 0.2000]"   concavity_worst="(0.0029, 0.2000]"   area_se="(22.00000, 482.0000]"   smoothness_worst="(0.000, 0.2000]"   
   (   1)))   % texture_se="(2.000, 3.7000]"   diagnosis=Yes   symmetry_worst="(0.000, 0.2000]"   concavity_worst="(0.0029, 0.2000]"   area_se="(22.00000, 482.0000]"   smoothness_worst="(0.000, 0.2000]"   
   (((   1)   % texture_se="(0.000, 0.8000]"   diagnosis=No   symmetry_worst="(0.000, 0.6000]"   concavity_worst="(0.0029, 0.2000]"   area_se="(22.00000, 482.0000]"   smoothness_worst="(0.000, 0.2000]"   
   (   1)   % texture_se="(0.000, 2.2000]"   diagnosis=No   symmetry_worst="(0.000, 0.6000]"   concavity_worst="(0.0029, 0.2000]"   area_se="(22.00000, 482.0000]"   smoothness_worst="(0.000, 0.2000]"   
   (   1))   % texture_se="(2.000, 3.7000]"   diagnosis=No   symmetry_worst="(0.000, 0.6000]"   concavity_worst="(0.0029, 0.2000]"   area_se="(22.00000, 482.0000]"   smoothness_worst="(0.000, 0.2000]"   
   ((   1)   % texture_se="(0.000, 0.8000]"   diagnosis=Yes   symmetry_worst="(0.000, 0.6000]"   concavity_worst="(0.0029, 0.2000]"   area_se="(22.00000, 482.0000]"   smoothness_worst="(0.000, 0.2000]"   
   (   1)   % texture_se="(0.000, 2.2000]"   diagnosis=Yes   symmetry_worst="(0.000, 0.6000]"   concavity_worst="(0.0029, 0.2000]"   area_se="(22.00000, 482.0000]"   smoothness_worst="(0.000, 0.2000]"   
   (   1)))))   % texture_se="(2.000, 3.7000]"   diagnosis=Yes   symmetry_worst="(0.000, 0.6000]"   concavity_worst="(0.0029, 0.2000]"   area_se="(22.00000, 482.0000]"   smoothness_worst="(0.000, 0.2000]"   
   (((((   1)   % texture_se="(0.000, 0.8000]"   diagnosis=No   symmetry_worst="(0.000, 0.2000]"   concavity_worst="(0.000, 1.1000]"   area_se="(482.00000, 534.1000]"   smoothness_worst="(0.000, 0.2000]"   
   (   1)   % texture_se="(0.000, 2.2000]"   diagnosis=No   symmetry_worst="(0.000, 0.2000]"   concavity_worst="(0.000, 1.1000]"   area_se="(482.00000, 534.1000]"   smoothness_worst="(0.000, 0.2000]"   
   (   1))   % texture_se="(2.000, 3.7000]"   diagnosis=No   symmetry_worst="(0.000, 0.2000]"   concavity_worst="(0.000, 1.1000]"   area_se="(482.00000, 534.1000]"   smoothness_worst="(0.000, 0.2000]"   
   ((   1)   % texture_se="(0.000, 0.8000]"   diagnosis=Yes   symmetry_worst="(0.000, 0.2000]"   concavity_worst="(0.000, 1.1000]"   area_se="(482.00000, 534.1000]"   smoothness_worst="(0.000, 0.2000]"   
   (   1)   % texture_se="(0.000, 2.2000]"   diagnosis=Yes   symmetry_worst="(0.000, 0.2000]"   concavity_worst="(0.000, 1.1000]"   area_se="(482.00000, 534.1000]"   smoothness_worst="(0.000, 0.2000]"   
   (   1)))   % texture_se="(2.000, 3.7000]"   diagnosis=Yes   symmetry_worst="(0.000, 0.2000]"   concavity_worst="(0.000, 1.1000]"   area_se="(482.00000, 534.1000]"   smoothness_worst="(0.000, 0.2000]"   
   (((   1)   % texture_se="(0.000, 0.8000]"   diagnosis=No   symmetry_worst="(0.000, 0.6000]"   concavity_worst="(0.000, 1.1000]"   area_se="(482.00000, 534.1000]"   smoothness_worst="(0.000, 0.2000]"   
   (   1)   % texture_se="(0.000, 2.2000]"   diagnosis=No   symmetry_worst="(0.000, 0.6000]"   concavity_worst="(0.000, 1.1000]"   area_se="(482.00000, 534.1000]"   smoothness_worst="(0.000, 0.2000]"   
   (   1))   % texture_se="(2.000, 3.7000]"   diagnosis=No   symmetry_worst="(0.000, 0.6000]"   concavity_worst="(0.000, 1.1000]"   area_se="(482.00000, 534.1000]"   smoothness_worst="(0.000, 0.2000]"   
   ((   1)   % texture_se="(0.000, 0.8000]"   diagnosis=Yes   symmetry_worst="(0.000, 0.6000]"   concavity_worst="(0.000, 1.1000]"   area_se="(482.00000, 534.1000]"   smoothness_worst="(0.000, 0.2000]"   
   (   1)   % texture_se="(0.000, 2.2000]"   diagnosis=Yes   symmetry_worst="(0.000, 0.6000]"   concavity_worst="(0.000, 1.1000]"   area_se="(482.00000, 534.1000]"   smoothness_worst="(0.000, 0.2000]"   
   (   1))))   % texture_se="(2.000, 3.7000]"   diagnosis=Yes   symmetry_worst="(0.000, 0.6000]"   concavity_worst="(0.000, 1.1000]"   area_se="(482.00000, 534.1000]"   smoothness_worst="(0.000, 0.2000]"   
   ((((   1)   % texture_se="(0.000, 0.8000]"   diagnosis=No   symmetry_worst="(0.000, 0.2000]"   concavity_worst="(0.0029, 0.2000]"   area_se="(482.00000, 534.1000]"   smoothness_worst="(0.000, 0.2000]"   
   (   1)   % texture_se="(0.000, 2.2000]"   diagnosis=No   symmetry_worst="(0.000, 0.2000]"   concavity_worst="(0.0029, 0.2000]"   area_se="(482.00000, 534.1000]"   smoothness_worst="(0.000, 0.2000]"   
   (   1))   % texture_se="(2.000, 3.7000]"   diagnosis=No   symmetry_worst="(0.000, 0.2000]"   concavity_worst="(0.0029, 0.2000]"   area_se="(482.00000, 534.1000]"   smoothness_worst="(0.000, 0.2000]"   
   ((   1)   % texture_se="(0.000, 0.8000]"   diagnosis=Yes   symmetry_worst="(0.000, 0.2000]"   concavity_worst="(0.0029, 0.2000]"   area_se="(482.00000, 534.1000]"   smoothness_worst="(0.000, 0.2000]"   
   (   1)   % texture_se="(0.000, 2.2000]"   diagnosis=Yes   symmetry_worst="(0.000, 0.2000]"   concavity_worst="(0.0029, 0.2000]"   area_se="(482.00000, 534.1000]"   smoothness_worst="(0.000, 0.2000]"   
   (   1)))   % texture_se="(2.000, 3.7000]"   diagnosis=Yes   symmetry_worst="(0.000, 0.2000]"   concavity_worst="(0.0029, 0.2000]"   area_se="(482.00000, 534.1000]"   smoothness_worst="(0.000, 0.2000]"   
   (((   1)   % texture_se="(0.000, 0.8000]"   diagnosis=No   symmetry_worst="(0.000, 0.6000]"   concavity_worst="(0.0029, 0.2000]"   area_se="(482.00000, 534.1000]"   smoothness_worst="(0.000, 0.2000]"   
   (   1)   % texture_se="(0.000, 2.2000]"   diagnosis=No   symmetry_worst="(0.000, 0.6000]"   concavity_worst="(0.0029, 0.2000]"   area_se="(482.00000, 534.1000]"   smoothness_worst="(0.000, 0.2000]"   
   (   1))   % texture_se="(2.000, 3.7000]"   diagnosis=No   symmetry_worst="(0.000, 0.6000]"   concavity_worst="(0.0029, 0.2000]"   area_se="(482.00000, 534.1000]"   smoothness_worst="(0.000, 0.2000]"   
   ((   1)   % texture_se="(0.000, 0.8000]"   diagnosis=Yes   symmetry_worst="(0.000, 0.6000]"   concavity_worst="(0.0029, 0.2000]"   area_se="(482.00000, 534.1000]"   smoothness_worst="(0.000, 0.2000]"   
   (   1)   % texture_se="(0.000, 2.2000]"   diagnosis=Yes   symmetry_worst="(0.000, 0.6000]"   concavity_worst="(0.0029, 0.2000]"   area_se="(482.00000, 534.1000]"   smoothness_worst="(0.000, 0.2000]"   
   (   1))))))   % texture_se="(2.000, 3.7000]"   diagnosis=Yes   symmetry_worst="(0.000, 0.6000]"   concavity_worst="(0.0029, 0.2000]"   area_se="(482.00000, 534.1000]"   smoothness_worst="(0.000, 0.2000]"   
   ((((((   1)   % texture_se="(0.000, 0.8000]"   diagnosis=No   symmetry_worst="(0.000, 0.2000]"   concavity_worst="(0.000, 1.1000]"   area_se="(12.0000, 22.1000]"   smoothness_worst="(0.0750, 0.1000]"   
   (   1)   % texture_se="(0.000, 2.2000]"   diagnosis=No   symmetry_worst="(0.000, 0.2000]"   concavity_worst="(0.000, 1.1000]"   area_se="(12.0000, 22.1000]"   smoothness_worst="(0.0750, 0.1000]"   
   (   1))   % texture_se="(2.000, 3.7000]"   diagnosis=No   symmetry_worst="(0.000, 0.2000]"   concavity_worst="(0.000, 1.1000]"   area_se="(12.0000, 22.1000]"   smoothness_worst="(0.0750, 0.1000]"   
   ((   1)   % texture_se="(0.000, 0.8000]"   diagnosis=Yes   symmetry_worst="(0.000, 0.2000]"   concavity_worst="(0.000, 1.1000]"   area_se="(12.0000, 22.1000]"   smoothness_worst="(0.0750, 0.1000]"   
   (   1)   % texture_se="(0.000, 2.2000]"   diagnosis=Yes   symmetry_worst="(0.000, 0.2000]"   concavity_worst="(0.000, 1.1000]"   area_se="(12.0000, 22.1000]"   smoothness_worst="(0.0750, 0.1000]"   
   (   1)))   % texture_se="(2.000, 3.7000]"   diagnosis=Yes   symmetry_worst="(0.000, 0.2000]"   concavity_worst="(0.000, 1.1000]"   area_se="(12.0000, 22.1000]"   smoothness_worst="(0.0750, 0.1000]"   
   (((   1)   % texture_se="(0.000, 0.8000]"   diagnosis=No   symmetry_worst="(0.000, 0.6000]"   concavity_worst="(0.000, 1.1000]"   area_se="(12.0000, 22.1000]"   smoothness_worst="(0.0750, 0.1000]"   
   (   1)   % texture_se="(0.000, 2.2000]"   diagnosis=No   symmetry_worst="(0.000, 0.6000]"   concavity_worst="(0.000, 1.1000]"   area_se="(12.0000, 22.1000]"   smoothness_worst="(0.0750, 0.1000]"   
   (   1))   % texture_se="(2.000, 3.7000]"   diagnosis=No   symmetry_worst="(0.000, 0.6000]"   concavity_worst="(0.000, 1.1000]"   area_se="(12.0000, 22.1000]"   smoothness_worst="(0.0750, 0.1000]"   
   ((   1)   % texture_se="(0.000, 0.8000]"   diagnosis=Yes   symmetry_worst="(0.000, 0.6000]"   concavity_worst="(0.000, 1.1000]"   area_se="(12.0000, 22.1000]"   smoothness_worst="(0.0750, 0.1000]"   
   (   1)   % texture_se="(0.000, 2.2000]"   diagnosis=Yes   symmetry_worst="(0.000, 0.6000]"   concavity_worst="(0.000, 1.1000]"   area_se="(12.0000, 22.1000]"   smoothness_worst="(0.0750, 0.1000]"   
   (   1))))   % texture_se="(2.000, 3.7000]"   diagnosis=Yes   symmetry_worst="(0.000, 0.6000]"   concavity_worst="(0.000, 1.1000]"   area_se="(12.0000, 22.1000]"   smoothness_worst="(0.0750, 0.1000]"   
   ((((   1)   % texture_se="(0.000, 0.8000]"   diagnosis=No   symmetry_worst="(0.000, 0.2000]"   concavity_worst="(0.0029, 0.2000]"   area_se="(12.0000, 22.1000]"   smoothness_worst="(0.0750, 0.1000]"   
   (   1)   % texture_se="(0.000, 2.2000]"   diagnosis=No   symmetry_worst="(0.000, 0.2000]"   concavity_worst="(0.0029, 0.2000]"   area_se="(12.0000, 22.1000]"   smoothness_worst="(0.0750, 0.1000]"   
   (   1))   % texture_se="(2.000, 3.7000]"   diagnosis=No   symmetry_worst="(0.000, 0.2000]"   concavity_worst="(0.0029, 0.2000]"   area_se="(12.0000, 22.1000]"   smoothness_worst="(0.0750, 0.1000]"   
   ((   1)   % texture_se="(0.000, 0.8000]"   diagnosis=Yes   symmetry_worst="(0.000, 0.2000]"   concavity_worst="(0.0029, 0.2000]"   area_se="(12.0000, 22.1000]"   smoothness_worst="(0.0750, 0.1000]"   
   (   1)   % texture_se="(0.000, 2.2000]"   diagnosis=Yes   symmetry_worst="(0.000, 0.2000]"   concavity_worst="(0.0029, 0.2000]"   area_se="(12.0000, 22.1000]"   smoothness_worst="(0.0750, 0.1000]"   
   (   1)))   % texture_se="(2.000, 3.7000]"   diagnosis=Yes   symmetry_worst="(0.000, 0.2000]"   concavity_worst="(0.0029, 0.2000]"   area_se="(12.0000, 22.1000]"   smoothness_worst="(0.0750, 0.1000]"   
   (((   1)   % texture_se="(0.000, 0.8000]"   diagnosis=No   symmetry_worst="(0.000, 0.6000]"   concavity_worst="(0.0029, 0.2000]"   area_se="(12.0000, 22.1000]"   smoothness_worst="(0.0750, 0.1000]"   
   (   1)   % texture_se="(0.000, 2.2000]"   diagnosis=No   symmetry_worst="(0.000, 0.6000]"   concavity_worst="(0.0029, 0.2000]"   area_se="(12.0000, 22.1000]"   smoothness_worst="(0.0750, 0.1000]"   
   (   1))   % texture_se="(2.000, 3.7000]"   diagnosis=No   symmetry_worst="(0.000, 0.6000]"   concavity_worst="(0.0029, 0.2000]"   area_se="(12.0000, 22.1000]"   smoothness_worst="(0.0750, 0.1000]"   
   ((   1)   % texture_se="(0.000, 0.8000]"   diagnosis=Yes   symmetry_worst="(0.000, 0.6000]"   concavity_worst="(0.0029, 0.2000]"   area_se="(12.0000, 22.1000]"   smoothness_worst="(0.0750, 0.1000]"   
   (   1)   % texture_se="(0.000, 2.2000]"   diagnosis=Yes   symmetry_worst="(0.000, 0.6000]"   concavity_worst="(0.0029, 0.2000]"   area_se="(12.0000, 22.1000]"   smoothness_worst="(0.0750, 0.1000]"   
   (   1)))))   % texture_se="(2.000, 3.7000]"   diagnosis=Yes   symmetry_worst="(0.000, 0.6000]"   concavity_worst="(0.0029, 0.2000]"   area_se="(12.0000, 22.1000]"   smoothness_worst="(0.0750, 0.1000]"   
   (((((   1)   % texture_se="(0.000, 0.8000]"   diagnosis=No   symmetry_worst="(0.000, 0.2000]"   concavity_worst="(0.000, 1.1000]"   area_se="(22.00000, 482.0000]"   smoothness_worst="(0.0750, 0.1000]"   
   (   1)   % texture_se="(0.000, 2.2000]"   diagnosis=No   symmetry_worst="(0.000, 0.2000]"   concavity_worst="(0.000, 1.1000]"   area_se="(22.00000, 482.0000]"   smoothness_worst="(0.0750, 0.1000]"   
   (   1))   % texture_se="(2.000, 3.7000]"   diagnosis=No   symmetry_worst="(0.000, 0.2000]"   concavity_worst="(0.000, 1.1000]"   area_se="(22.00000, 482.0000]"   smoothness_worst="(0.0750, 0.1000]"   
   ((   1)   % texture_se="(0.000, 0.8000]"   diagnosis=Yes   symmetry_worst="(0.000, 0.2000]"   concavity_worst="(0.000, 1.1000]"   area_se="(22.00000, 482.0000]"   smoothness_worst="(0.0750, 0.1000]"   
   (   1)   % texture_se="(0.000, 2.2000]"   diagnosis=Yes   symmetry_worst="(0.000, 0.2000]"   concavity_worst="(0.000, 1.1000]"   area_se="(22.00000, 482.0000]"   smoothness_worst="(0.0750, 0.1000]"   
   (   1)))   % texture_se="(2.000, 3.7000]"   diagnosis=Yes   symmetry_worst="(0.000, 0.2000]"   concavity_worst="(0.000, 1.1000]"   area_se="(22.00000, 482.0000]"   smoothness_worst="(0.0750, 0.1000]"   
   (((   1)   % texture_se="(0.000, 0.8000]"   diagnosis=No   symmetry_worst="(0.000, 0.6000]"   concavity_worst="(0.000, 1.1000]"   area_se="(22.00000, 482.0000]"   smoothness_worst="(0.0750, 0.1000]"   
