
net {
  name = unnamedBN;
  software = "aGrUM 0.17.0";
  node_size = (50 50);
}

node radius_mean {
   states = ("(8.0000, 27.2000]" );
   label = "radius_mean";
   ID = "radius_mean";
}

node texture_mean {
   states = ("(14.000, 34.0000]" "(34.000, 38.8000]" );
   label = "texture_mean";
   ID = "texture_mean";
}

node perimeter_mean {
   states = ("(163.00000, 188.4000]" "(62.00000, 163.4000]" );
   label = "perimeter_mean";
   ID = "perimeter_mean";
}

node area_mean {
   states = ("(1835.000000, 2235.5000]" "(197.8900, 1835.3000]" );
   label = "area_mean";
   ID = "area_mean";
}

node smoothness_mean {
   states = ("(0.000, 0.1000]" "(0.0000, 0.1000]" );
   label = "smoothness_mean";
   ID = "smoothness_mean";
}

node compactness_mean {
   states = ("(0.000, 0.3000]" "(0.0000, 0.2000]" );
   label = "compactness_mean";
   ID = "compactness_mean";
}

node concavity_mean {
   states = ("(0.0000, 0.4000]" );
   label = "concavity_mean";
   ID = "concavity_mean";
}

node concave points_mean {
   states = ("(-0.0059, 0.0900]" "(0.0000, 0.1000]" );
   label = "concave points_mean";
   ID = "concave points_mean";
}

node symmetry_mean {
   states = ("(0.0, 0.0000]" "(0.00, 0.2000]" );
   label = "symmetry_mean";
   ID = "symmetry_mean";
}

node fractal_dimension_mean {
   states = ("(0.00000, 0.0500]" "(0.00000, 0.0900]" "(0.0419, 0.0500]" );
   label = "fractal_dimension_mean";
   ID = "fractal_dimension_mean";
}

node radius_se {
   states = ("(0.000, 0.6000]" "(0.000, 2.8000]" );
   label = "radius_se";
   ID = "radius_se";
}

node texture_se {
   states = ("(0.000, 1.8000]" "(1.000, 2.2000]" "(2.000, 3.7000]" );
   label = "texture_se";
   ID = "texture_se";
}

node perimeter_se {
   states = ("(2.0100, 5.2000]" "(5.000, 8.3000]" "(8.0000, 21.8000]" );
   label = "perimeter_se";
   ID = "perimeter_se";
}

node area_se {
   states = ("(12.0000, 67.6000]" "(482.00000, 534.1000]" "(67.00000, 482.0000]" );
   label = "area_se";
   ID = "area_se";
}

node smoothness_se {
   states = ("(-0.0062, 0.0050]" "(0.0000, 0.0000]" "(0.0056, 0.0200]" );
   label = "smoothness_se";
   ID = "smoothness_se";
}

node compactness_se {
   states = ("(0.0000, 0.1000]" "(0.00000, 0.0600]" "(0.0119, 0.0300]" );
   label = "compactness_se";
   ID = "compactness_se";
}

node concavity_se {
   states = ("(0.0319, 0.0330]" "(0.0333, 0.2700]" );
   label = "concavity_se";
   ID = "concavity_se";
}

node concave points_se {
   states = ("(0.000, 0.0100]" "(0.00000, 0.0300]" );
   label = "concave points_se";
   ID = "concave points_se";
}

node symmetry_se {
   states = ("(-0.0017, 0.0200]" "(0.00000, 0.0300]" "(0.00000, 0.0500]" );
   label = "symmetry_se";
   ID = "symmetry_se";
}

node fractal_dimension_se {
   states = ("(-0.0088, 0.0010]" "(0.0019, 0.0060]" "(0.0064, 0.0090]" );
   label = "fractal_dimension_se";
   ID = "fractal_dimension_se";
}

node radius_worst {
   states = ("(11.0000, 22.7000]" "(22.0000, 33.4000]" "(33.0000, 35.2000]" );
   label = "radius_worst";
   ID = "radius_worst";
}

node texture_worst {
   states = ("(15.000, 31.0000]" "(31.000, 34.6000]" "(34.0000, 40.7000]" );
   label = "texture_worst";
   ID = "texture_worst";
}

node perimeter_worst {
   states = ("(121.0899, 157.6000]" "(157.00000, 236.5000]" );
   label = "perimeter_worst";
   ID = "perimeter_worst";
}

node area_worst {
   states = ("(1539.000000, 3893.2000]" "(257.000000, 1539.9000]" );
   label = "area_worst";
   ID = "area_worst";
}

node smoothness_worst {
   states = ("(0.000, 0.2000]" "(0.0750, 0.1000]" );
   label = "smoothness_worst";
   ID = "smoothness_worst";
}

node compactness_worst {
   states = ("(0.000, 0.3000]" "(0.000, 0.9000]" );
   label = "compactness_worst";
   ID = "compactness_worst";
}

node concavity_worst {
   states = ("(0.000, 1.1000]" "(0.0029, 0.5000]" );
   label = "concavity_worst";
   ID = "concavity_worst";
}

node concave points_worst {
   states = ("(0.0009, 0.2000]" );
   label = "concave points_worst";
   ID = "concave points_worst";
}

node symmetry_worst {
   states = ("(0.00, 0.0000]" "(0.00, 0.6000]" );
   label = "symmetry_worst";
   ID = "symmetry_worst";
}

node fractal_dimension_worst {
   states = ("(0.0000, 0.1000]" "(0.00000, 0.0700]" );
   label = "fractal_dimension_worst";
   ID = "fractal_dimension_worst";
}

node diagnosis {
   states = (Yes );
   label = "diagnosis";
   ID = "diagnosis";
}

potential ( radius_mean | perimeter_se   compactness_se   symmetry_se   area_se   ) {
   data = 
   (((((   1)   % perimeter_se="(2.0100, 5.2000]"   compactness_se="(0.0000, 0.1000]"   symmetry_se="(-0.0017, 0.0200]"   area_se="(12.0000, 67.6000]"   
   (   1)   % perimeter_se="(5.000, 8.3000]"   compactness_se="(0.0000, 0.1000]"   symmetry_se="(-0.0017, 0.0200]"   area_se="(12.0000, 67.6000]"   
   (   1))   % perimeter_se="(8.0000, 21.8000]"   compactness_se="(0.0000, 0.1000]"   symmetry_se="(-0.0017, 0.0200]"   area_se="(12.0000, 67.6000]"   
   ((   1)   % perimeter_se="(2.0100, 5.2000]"   compactness_se="(0.00000, 0.0600]"   symmetry_se="(-0.0017, 0.0200]"   area_se="(12.0000, 67.6000]"   
   (   1)   % perimeter_se="(5.000, 8.3000]"   compactness_se="(0.00000, 0.0600]"   symmetry_se="(-0.0017, 0.0200]"   area_se="(12.0000, 67.6000]"   
   (   1))   % perimeter_se="(8.0000, 21.8000]"   compactness_se="(0.00000, 0.0600]"   symmetry_se="(-0.0017, 0.0200]"   area_se="(12.0000, 67.6000]"   
   ((   1)   % perimeter_se="(2.0100, 5.2000]"   compactness_se="(0.0119, 0.0300]"   symmetry_se="(-0.0017, 0.0200]"   area_se="(12.0000, 67.6000]"   
   (   1)   % perimeter_se="(5.000, 8.3000]"   compactness_se="(0.0119, 0.0300]"   symmetry_se="(-0.0017, 0.0200]"   area_se="(12.0000, 67.6000]"   
   (   1)))   % perimeter_se="(8.0000, 21.8000]"   compactness_se="(0.0119, 0.0300]"   symmetry_se="(-0.0017, 0.0200]"   area_se="(12.0000, 67.6000]"   
   (((   1)   % perimeter_se="(2.0100, 5.2000]"   compactness_se="(0.0000, 0.1000]"   symmetry_se="(0.00000, 0.0300]"   area_se="(12.0000, 67.6000]"   
   (   1)   % perimeter_se="(5.000, 8.3000]"   compactness_se="(0.0000, 0.1000]"   symmetry_se="(0.00000, 0.0300]"   area_se="(12.0000, 67.6000]"   
   (   1))   % perimeter_se="(8.0000, 21.8000]"   compactness_se="(0.0000, 0.1000]"   symmetry_se="(0.00000, 0.0300]"   area_se="(12.0000, 67.6000]"   
   ((   1)   % perimeter_se="(2.0100, 5.2000]"   compactness_se="(0.00000, 0.0600]"   symmetry_se="(0.00000, 0.0300]"   area_se="(12.0000, 67.6000]"   
   (   1)   % perimeter_se="(5.000, 8.3000]"   compactness_se="(0.00000, 0.0600]"   symmetry_se="(0.00000, 0.0300]"   area_se="(12.0000, 67.6000]"   
   (   1))   % perimeter_se="(8.0000, 21.8000]"   compactness_se="(0.00000, 0.0600]"   symmetry_se="(0.00000, 0.0300]"   area_se="(12.0000, 67.6000]"   
   ((   1)   % perimeter_se="(2.0100, 5.2000]"   compactness_se="(0.0119, 0.0300]"   symmetry_se="(0.00000, 0.0300]"   area_se="(12.0000, 67.6000]"   
   (   1)   % perimeter_se="(5.000, 8.3000]"   compactness_se="(0.0119, 0.0300]"   symmetry_se="(0.00000, 0.0300]"   area_se="(12.0000, 67.6000]"   
   (   1)))   % perimeter_se="(8.0000, 21.8000]"   compactness_se="(0.0119, 0.0300]"   symmetry_se="(0.00000, 0.0300]"   area_se="(12.0000, 67.6000]"   
   (((   1)   % perimeter_se="(2.0100, 5.2000]"   compactness_se="(0.0000, 0.1000]"   symmetry_se="(0.00000, 0.0500]"   area_se="(12.0000, 67.6000]"   
   (   1)   % perimeter_se="(5.000, 8.3000]"   compactness_se="(0.0000, 0.1000]"   symmetry_se="(0.00000, 0.0500]"   area_se="(12.0000, 67.6000]"   
   (   1))   % perimeter_se="(8.0000, 21.8000]"   compactness_se="(0.0000, 0.1000]"   symmetry_se="(0.00000, 0.0500]"   area_se="(12.0000, 67.6000]"   
   ((   1)   % perimeter_se="(2.0100, 5.2000]"   compactness_se="(0.00000, 0.0600]"   symmetry_se="(0.00000, 0.0500]"   area_se="(12.0000, 67.6000]"   
   (   1)   % perimeter_se="(5.000, 8.3000]"   compactness_se="(0.00000, 0.0600]"   symmetry_se="(0.00000, 0.0500]"   area_se="(12.0000, 67.6000]"   
   (   1))   % perimeter_se="(8.0000, 21.8000]"   compactness_se="(0.00000, 0.0600]"   symmetry_se="(0.00000, 0.0500]"   area_se="(12.0000, 67.6000]"   
   ((   1)   % perimeter_se="(2.0100, 5.2000]"   compactness_se="(0.0119, 0.0300]"   symmetry_se="(0.00000, 0.0500]"   area_se="(12.0000, 67.6000]"   
   (   1)   % perimeter_se="(5.000, 8.3000]"   compactness_se="(0.0119, 0.0300]"   symmetry_se="(0.00000, 0.0500]"   area_se="(12.0000, 67.6000]"   
   (   1))))   % perimeter_se="(8.0000, 21.8000]"   compactness_se="(0.0119, 0.0300]"   symmetry_se="(0.00000, 0.0500]"   area_se="(12.0000, 67.6000]"   
   ((((   1)   % perimeter_se="(2.0100, 5.2000]"   compactness_se="(0.0000, 0.1000]"   symmetry_se="(-0.0017, 0.0200]"   area_se="(482.00000, 534.1000]"   
   (   1)   % perimeter_se="(5.000, 8.3000]"   compactness_se="(0.0000, 0.1000]"   symmetry_se="(-0.0017, 0.0200]"   area_se="(482.00000, 534.1000]"   
   (   1))   % perimeter_se="(8.0000, 21.8000]"   compactness_se="(0.0000, 0.1000]"   symmetry_se="(-0.0017, 0.0200]"   area_se="(482.00000, 534.1000]"   
   ((   1)   % perimeter_se="(2.0100, 5.2000]"   compactness_se="(0.00000, 0.0600]"   symmetry_se="(-0.0017, 0.0200]"   area_se="(482.00000, 534.1000]"   
   (   1)   % perimeter_se="(5.000, 8.3000]"   compactness_se="(0.00000, 0.0600]"   symmetry_se="(-0.0017, 0.0200]"   area_se="(482.00000, 534.1000]"   
   (   1))   % perimeter_se="(8.0000, 21.8000]"   compactness_se="(0.00000, 0.0600]"   symmetry_se="(-0.0017, 0.0200]"   area_se="(482.00000, 534.1000]"   
   ((   1)   % perimeter_se="(2.0100, 5.2000]"   compactness_se="(0.0119, 0.0300]"   symmetry_se="(-0.0017, 0.0200]"   area_se="(482.00000, 534.1000]"   
   (   1)   % perimeter_se="(5.000, 8.3000]"   compactness_se="(0.0119, 0.0300]"   symmetry_se="(-0.0017, 0.0200]"   area_se="(482.00000, 534.1000]"   
   (   1)))   % perimeter_se="(8.0000, 21.8000]"   compactness_se="(0.0119, 0.0300]"   symmetry_se="(-0.0017, 0.0200]"   area_se="(482.00000, 534.1000]"   
   (((   1)   % perimeter_se="(2.0100, 5.2000]"   compactness_se="(0.0000, 0.1000]"   symmetry_se="(0.00000, 0.0300]"   area_se="(482.00000, 534.1000]"   
   (   1)   % perimeter_se="(5.000, 8.3000]"   compactness_se="(0.0000, 0.1000]"   symmetry_se="(0.00000, 0.0300]"   area_se="(482.00000, 534.1000]"   
   (   1))   % perimeter_se="(8.0000, 21.8000]"   compactness_se="(0.0000, 0.1000]"   symmetry_se="(0.00000, 0.0300]"   area_se="(482.00000, 534.1000]"   
   ((   1)   % perimeter_se="(2.0100, 5.2000]"   compactness_se="(0.00000, 0.0600]"   symmetry_se="(0.00000, 0.0300]"   area_se="(482.00000, 534.1000]"   
   (   1)   % perimeter_se="(5.000, 8.3000]"   compactness_se="(0.00000, 0.0600]"   symmetry_se="(0.00000, 0.0300]"   area_se="(482.00000, 534.1000]"   
   (   1))   % perimeter_se="(8.0000, 21.8000]"   compactness_se="(0.00000, 0.0600]"   symmetry_se="(0.00000, 0.0300]"   area_se="(482.00000, 534.1000]"   
   ((   1)   % perimeter_se="(2.0100, 5.2000]"   compactness_se="(0.0119, 0.0300]"   symmetry_se="(0.00000, 0.0300]"   area_se="(482.00000, 534.1000]"   
   (   1)   % perimeter_se="(5.000, 8.3000]"   compactness_se="(0.0119, 0.0300]"   symmetry_se="(0.00000, 0.0300]"   area_se="(482.00000, 534.1000]"   
   (   1)))   % perimeter_se="(8.0000, 21.8000]"   compactness_se="(0.0119, 0.0300]"   symmetry_se="(0.00000, 0.0300]"   area_se="(482.00000, 534.1000]"   
   (((   1)   % perimeter_se="(2.0100, 5.2000]"   compactness_se="(0.0000, 0.1000]"   symmetry_se="(0.00000, 0.0500]"   area_se="(482.00000, 534.1000]"   
   (   1)   % perimeter_se="(5.000, 8.3000]"   compactness_se="(0.0000, 0.1000]"   symmetry_se="(0.00000, 0.0500]"   area_se="(482.00000, 534.1000]"   
   (   1))   % perimeter_se="(8.0000, 21.8000]"   compactness_se="(0.0000, 0.1000]"   symmetry_se="(0.00000, 0.0500]"   area_se="(482.00000, 534.1000]"   
   ((   1)   % perimeter_se="(2.0100, 5.2000]"   compactness_se="(0.00000, 0.0600]"   symmetry_se="(0.00000, 0.0500]"   area_se="(482.00000, 534.1000]"   
   (   1)   % perimeter_se="(5.000, 8.3000]"   compactness_se="(0.00000, 0.0600]"   symmetry_se="(0.00000, 0.0500]"   area_se="(482.00000, 534.1000]"   
   (   1))   % perimeter_se="(8.0000, 21.8000]"   compactness_se="(0.00000, 0.0600]"   symmetry_se="(0.00000, 0.0500]"   area_se="(482.00000, 534.1000]"   
   ((   1)   % perimeter_se="(2.0100, 5.2000]"   compactness_se="(0.0119, 0.0300]"   symmetry_se="(0.00000, 0.0500]"   area_se="(482.00000, 534.1000]"   
   (   1)   % perimeter_se="(5.000, 8.3000]"   compactness_se="(0.0119, 0.0300]"   symmetry_se="(0.00000, 0.0500]"   area_se="(482.00000, 534.1000]"   
   (   1))))   % perimeter_se="(8.0000, 21.8000]"   compactness_se="(0.0119, 0.0300]"   symmetry_se="(0.00000, 0.0500]"   area_se="(482.00000, 534.1000]"   
   ((((   1)   % perimeter_se="(2.0100, 5.2000]"   compactness_se="(0.0000, 0.1000]"   symmetry_se="(-0.0017, 0.0200]"   area_se="(67.00000, 482.0000]"   
   (   1)   % perimeter_se="(5.000, 8.3000]"   compactness_se="(0.0000, 0.1000]"   symmetry_se="(-0.0017, 0.0200]"   area_se="(67.00000, 482.0000]"   
   (   1))   % perimeter_se="(8.0000, 21.8000]"   compactness_se="(0.0000, 0.1000]"   symmetry_se="(-0.0017, 0.0200]"   area_se="(67.00000, 482.0000]"   
   ((   1)   % perimeter_se="(2.0100, 5.2000]"   compactness_se="(0.00000, 0.0600]"   symmetry_se="(-0.0017, 0.0200]"   area_se="(67.00000, 482.0000]"   
   (   1)   % perimeter_se="(5.000, 8.3000]"   compactness_se="(0.00000, 0.0600]"   symmetry_se="(-0.0017, 0.0200]"   area_se="(67.00000, 482.0000]"   
   (   1))   % perimeter_se="(8.0000, 21.8000]"   compactness_se="(0.00000, 0.0600]"   symmetry_se="(-0.0017, 0.0200]"   area_se="(67.00000, 482.0000]"   
   ((   1)   % perimeter_se="(2.0100, 5.2000]"   compactness_se="(0.0119, 0.0300]"   symmetry_se="(-0.0017, 0.0200]"   area_se="(67.00000, 482.0000]"   
   (   1)   % perimeter_se="(5.000, 8.3000]"   compactness_se="(0.0119, 0.0300]"   symmetry_se="(-0.0017, 0.0200]"   area_se="(67.00000, 482.0000]"   
   (   1)))   % perimeter_se="(8.0000, 21.8000]"   compactness_se="(0.0119, 0.0300]"   symmetry_se="(-0.0017, 0.0200]"   area_se="(67.00000, 482.0000]"   
   (((   1)   % perimeter_se="(2.0100, 5.2000]"   compactness_se="(0.0000, 0.1000]"   symmetry_se="(0.00000, 0.0300]"   area_se="(67.00000, 482.0000]"   
   (   1)   % perimeter_se="(5.000, 8.3000]"   compactness_se="(0.0000, 0.1000]"   symmetry_se="(0.00000, 0.0300]"   area_se="(67.00000, 482.0000]"   
   (   1))   % perimeter_se="(8.0000, 21.8000]"   compactness_se="(0.0000, 0.1000]"   symmetry_se="(0.00000, 0.0300]"   area_se="(67.00000, 482.0000]"   
   ((   1)   % perimeter_se="(2.0100, 5.2000]"   compactness_se="(0.00000, 0.0600]"   symmetry_se="(0.00000, 0.0300]"   area_se="(67.00000, 482.0000]"   
   (   1)   % perimeter_se="(5.000, 8.3000]"   compactness_se="(0.00000, 0.0600]"   symmetry_se="(0.00000, 0.0300]"   area_se="(67.00000, 482.0000]"   
   (   1))   % perimeter_se="(8.0000, 21.8000]"   compactness_se="(0.00000, 0.0600]"   symmetry_se="(0.00000, 0.0300]"   area_se="(67.00000, 482.0000]"   
   ((   1)   % perimeter_se="(2.0100, 5.2000]"   compactness_se="(0.0119, 0.0300]"   symmetry_se="(0.00000, 0.0300]"   area_se="(67.00000, 482.0000]"   
   (   1)   % perimeter_se="(5.000, 8.3000]"   compactness_se="(0.0119, 0.0300]"   symmetry_se="(0.00000, 0.0300]"   area_se="(67.00000, 482.0000]"   
   (   1)))   % perimeter_se="(8.0000, 21.8000]"   compactness_se="(0.0119, 0.0300]"   symmetry_se="(0.00000, 0.0300]"   area_se="(67.00000, 482.0000]"   
   (((   1)   % perimeter_se="(2.0100, 5.2000]"   compactness_se="(0.0000, 0.1000]"   symmetry_se="(0.00000, 0.0500]"   area_se="(67.00000, 482.0000]"   
   (   1)   % perimeter_se="(5.000, 8.3000]"   compactness_se="(0.0000, 0.1000]"   symmetry_se="(0.00000, 0.0500]"   area_se="(67.00000, 482.0000]"   
   (   1))   % perimeter_se="(8.0000, 21.8000]"   compactness_se="(0.0000, 0.1000]"   symmetry_se="(0.00000, 0.0500]"   area_se="(67.00000, 482.0000]"   
   ((   1)   % perimeter_se="(2.0100, 5.2000]"   compactness_se="(0.00000, 0.0600]"   symmetry_se="(0.00000, 0.0500]"   area_se="(67.00000, 482.0000]"   
   (   1)   % perimeter_se="(5.000, 8.3000]"   compactness_se="(0.00000, 0.0600]"   symmetry_se="(0.00000, 0.0500]"   area_se="(67.00000, 482.0000]"   
   (   1))   % perimeter_se="(8.0000, 21.8000]"   compactness_se="(0.00000, 0.0600]"   symmetry_se="(0.00000, 0.0500]"   area_se="(67.00000, 482.0000]"   
   ((   1)   % perimeter_se="(2.0100, 5.2000]"   compactness_se="(0.0119, 0.0300]"   symmetry_se="(0.00000, 0.0500]"   area_se="(67.00000, 482.0000]"   
   (   1)   % perimeter_se="(5.000, 8.3000]"   compactness_se="(0.0119, 0.0300]"   symmetry_se="(0.00000, 0.0500]"   area_se="(67.00000, 482.0000]"   
   (   1)))));   % perimeter_se="(8.0000, 21.8000]"   compactness_se="(0.0119, 0.0300]"   symmetry_se="(0.00000, 0.0500]"   area_se="(67.00000, 482.0000]"   
}

potential ( texture_mean | concave points_mean   ) {
   data = 
   ((   0.998901   0.0010989)   % concave points_mean="(-0.0059, 0.0900]"   
   (   0.983221   0.0167785));   % concave points_mean="(0.0000, 0.1000]"   
}

potential ( perimeter_mean | concave points_mean   ) {
   data = 
   ((   0.0010989   0.998901)   % concave points_mean="(-0.0059, 0.0900]"   
   (   0.0302013   0.969799));   % concave points_mean="(0.0000, 0.1000]"   
}

potential ( area_mean | concave points_mean   ) {
   data = 
   ((   0.0010989   0.998901)   % concave points_mean="(-0.0059, 0.0900]"   
   (   0.0436242   0.956376));   % concave points_mean="(0.0000, 0.1000]"   
}

potential ( smoothness_mean | concave points_mean   ) {
   data = 
   ((   0.0010989   0.998901)   % concave points_mean="(-0.0059, 0.0900]"   
   (   0.0704698   0.92953));   % concave points_mean="(0.0000, 0.1000]"   
}

potential ( compactness_mean | concave points_mean   ) {
   data = 
   ((   0.0010989   0.998901)   % concave points_mean="(-0.0059, 0.0900]"   
   (   0.057047   0.942953));   % concave points_mean="(0.0000, 0.1000]"   
}

potential ( concavity_mean | perimeter_se   compactness_se   texture_worst   area_se   smoothness_worst   ) {
   data = 
   ((((((   1)   % perimeter_se="(2.0100, 5.2000]"   compactness_se="(0.0000, 0.1000]"   texture_worst="(15.000, 31.0000]"   area_se="(12.0000, 67.6000]"   smoothness_worst="(0.000, 0.2000]"   
   (   1)   % perimeter_se="(5.000, 8.3000]"   compactness_se="(0.0000, 0.1000]"   texture_worst="(15.000, 31.0000]"   area_se="(12.0000, 67.6000]"   smoothness_worst="(0.000, 0.2000]"   
   (   1))   % perimeter_se="(8.0000, 21.8000]"   compactness_se="(0.0000, 0.1000]"   texture_worst="(15.000, 31.0000]"   area_se="(12.0000, 67.6000]"   smoothness_worst="(0.000, 0.2000]"   
   ((   1)   % perimeter_se="(2.0100, 5.2000]"   compactness_se="(0.00000, 0.0600]"   texture_worst="(15.000, 31.0000]"   area_se="(12.0000, 67.6000]"   smoothness_worst="(0.000, 0.2000]"   
   (   1)   % perimeter_se="(5.000, 8.3000]"   compactness_se="(0.00000, 0.0600]"   texture_worst="(15.000, 31.0000]"   area_se="(12.0000, 67.6000]"   smoothness_worst="(0.000, 0.2000]"   
   (   1))   % perimeter_se="(8.0000, 21.8000]"   compactness_se="(0.00000, 0.0600]"   texture_worst="(15.000, 31.0000]"   area_se="(12.0000, 67.6000]"   smoothness_worst="(0.000, 0.2000]"   
   ((   1)   % perimeter_se="(2.0100, 5.2000]"   compactness_se="(0.0119, 0.0300]"   texture_worst="(15.000, 31.0000]"   area_se="(12.0000, 67.6000]"   smoothness_worst="(0.000, 0.2000]"   
   (   1)   % perimeter_se="(5.000, 8.3000]"   compactness_se="(0.0119, 0.0300]"   texture_worst="(15.000, 31.0000]"   area_se="(12.0000, 67.6000]"   smoothness_worst="(0.000, 0.2000]"   
   (   1)))   % perimeter_se="(8.0000, 21.8000]"   compactness_se="(0.0119, 0.0300]"   texture_worst="(15.000, 31.0000]"   area_se="(12.0000, 67.6000]"   smoothness_worst="(0.000, 0.2000]"   
   (((   1)   % perimeter_se="(2.0100, 5.2000]"   compactness_se="(0.0000, 0.1000]"   texture_worst="(31.000, 34.6000]"   area_se="(12.0000, 67.6000]"   smoothness_worst="(0.000, 0.2000]"   
   (   1)   % perimeter_se="(5.000, 8.3000]"   compactness_se="(0.0000, 0.1000]"   texture_worst="(31.000, 34.6000]"   area_se="(12.0000, 67.6000]"   smoothness_worst="(0.000, 0.2000]"   
   (   1))   % perimeter_se="(8.0000, 21.8000]"   compactness_se="(0.0000, 0.1000]"   texture_worst="(31.000, 34.6000]"   area_se="(12.0000, 67.6000]"   smoothness_worst="(0.000, 0.2000]"   
   ((   1)   % perimeter_se="(2.0100, 5.2000]"   compactness_se="(0.00000, 0.0600]"   texture_worst="(31.000, 34.6000]"   area_se="(12.0000, 67.6000]"   smoothness_worst="(0.000, 0.2000]"   
   (   1)   % perimeter_se="(5.000, 8.3000]"   compactness_se="(0.00000, 0.0600]"   texture_worst="(31.000, 34.6000]"   area_se="(12.0000, 67.6000]"   smoothness_worst="(0.000, 0.2000]"   
   (   1))   % perimeter_se="(8.0000, 21.8000]"   compactness_se="(0.00000, 0.0600]"   texture_worst="(31.000, 34.6000]"   area_se="(12.0000, 67.6000]"   smoothness_worst="(0.000, 0.2000]"   
   ((   1)   % perimeter_se="(2.0100, 5.2000]"   compactness_se="(0.0119, 0.0300]"   texture_worst="(31.000, 34.6000]"   area_se="(12.0000, 67.6000]"   smoothness_worst="(0.000, 0.2000]"   
   (   1)   % perimeter_se="(5.000, 8.3000]"   compactness_se="(0.0119, 0.0300]"   texture_worst="(31.000, 34.6000]"   area_se="(12.0000, 67.6000]"   smoothness_worst="(0.000, 0.2000]"   
   (   1)))   % perimeter_se="(8.0000, 21.8000]"   compactness_se="(0.0119, 0.0300]"   texture_worst="(31.000, 34.6000]"   area_se="(12.0000, 67.6000]"   smoothness_worst="(0.000, 0.2000]"   
   (((   1)   % perimeter_se="(2.0100, 5.2000]"   compactness_se="(0.0000, 0.1000]"   texture_worst="(34.0000, 40.7000]"   area_se="(12.0000, 67.6000]"   smoothness_worst="(0.000, 0.2000]"   
   (   1)   % perimeter_se="(5.000, 8.3000]"   compactness_se="(0.0000, 0.1000]"   texture_worst="(34.0000, 40.7000]"   area_se="(12.0000, 67.6000]"   smoothness_worst="(0.000, 0.2000]"   
   (   1))   % perimeter_se="(8.0000, 21.8000]"   compactness_se="(0.0000, 0.1000]"   texture_worst="(34.0000, 40.7000]"   area_se="(12.0000, 67.6000]"   smoothness_worst="(0.000, 0.2000]"   
   ((   1)   % perimeter_se="(2.0100, 5.2000]"   compactness_se="(0.00000, 0.0600]"   texture_worst="(34.0000, 40.7000]"   area_se="(12.0000, 67.6000]"   smoothness_worst="(0.000, 0.2000]"   
   (   1)   % perimeter_se="(5.000, 8.3000]"   compactness_se="(0.00000, 0.0600]"   texture_worst="(34.0000, 40.7000]"   area_se="(12.0000, 67.6000]"   smoothness_worst="(0.000, 0.2000]"   
   (   1))   % perimeter_se="(8.0000, 21.8000]"   compactness_se="(0.00000, 0.0600]"   texture_worst="(34.0000, 40.7000]"   area_se="(12.0000, 67.6000]"   smoothness_worst="(0.000, 0.2000]"   
   ((   1)   % perimeter_se="(2.0100, 5.2000]"   compactness_se="(0.0119, 0.0300]"   texture_worst="(34.0000, 40.7000]"   area_se="(12.0000, 67.6000]"   smoothness_worst="(0.000, 0.2000]"   
   (   1)   % perimeter_se="(5.000, 8.3000]"   compactness_se="(0.0119, 0.0300]"   texture_worst="(34.0000, 40.7000]"   area_se="(12.0000, 67.6000]"   smoothness_worst="(0.000, 0.2000]"   
   (   1))))   % perimeter_se="(8.0000, 21.8000]"   compactness_se="(0.0119, 0.0300]"   texture_worst="(34.0000, 40.7000]"   area_se="(12.0000, 67.6000]"   smoothness_worst="(0.000, 0.2000]"   
   ((((   1)   % perimeter_se="(2.0100, 5.2000]"   compactness_se="(0.0000, 0.1000]"   texture_worst="(15.000, 31.0000]"   area_se="(482.00000, 534.1000]"   smoothness_worst="(0.000, 0.2000]"   
   (   1)   % perimeter_se="(5.000, 8.3000]"   compactness_se="(0.0000, 0.1000]"   texture_worst="(15.000, 31.0000]"   area_se="(482.00000, 534.1000]"   smoothness_worst="(0.000, 0.2000]"   
   (   1))   % perimeter_se="(8.0000, 21.8000]"   compactness_se="(0.0000, 0.1000]"   texture_worst="(15.000, 31.0000]"   area_se="(482.00000, 534.1000]"   smoothness_worst="(0.000, 0.2000]"   
   ((   1)   % perimeter_se="(2.0100, 5.2000]"   compactness_se="(0.00000, 0.0600]"   texture_worst="(15.000, 31.0000]"   area_se="(482.00000, 534.1000]"   smoothness_worst="(0.000, 0.2000]"   
   (   1)   % perimeter_se="(5.000, 8.3000]"   compactness_se="(0.00000, 0.0600]"   texture_worst="(15.000, 31.0000]"   area_se="(482.00000, 534.1000]"   smoothness_worst="(0.000, 0.2000]"   
   (   1))   % perimeter_se="(8.0000, 21.8000]"   compactness_se="(0.00000, 0.0600]"   texture_worst="(15.000, 31.0000]"   area_se="(482.00000, 534.1000]"   smoothness_worst="(0.000, 0.2000]"   
   ((   1)   % perimeter_se="(2.0100, 5.2000]"   compactness_se="(0.0119, 0.0300]"   texture_worst="(15.000, 31.0000]"   area_se="(482.00000, 534.1000]"   smoothness_worst="(0.000, 0.2000]"   
   (   1)   % perimeter_se="(5.000, 8.3000]"   compactness_se="(0.0119, 0.0300]"   texture_worst="(15.000, 31.0000]"   area_se="(482.00000, 534.1000]"   smoothness_worst="(0.000, 0.2000]"   
   (   1)))   % perimeter_se="(8.0000, 21.8000]"   compactness_se="(0.0119, 0.0300]"   texture_worst="(15.000, 31.0000]"   area_se="(482.00000, 534.1000]"   smoothness_worst="(0.000, 0.2000]"   
   (((   1)   % perimeter_se="(2.0100, 5.2000]"   compactness_se="(0.0000, 0.1000]"   texture_worst="(31.000, 34.6000]"   area_se="(482.00000, 534.1000]"   smoothness_worst="(0.000, 0.2000]"   
   (   1)   % perimeter_se="(5.000, 8.3000]"   compactness_se="(0.0000, 0.1000]"   texture_worst="(31.000, 34.6000]"   area_se="(482.00000, 534.1000]"   smoothness_worst="(0.000, 0.2000]"   
   (   1))   % perimeter_se="(8.0000, 21.8000]"   compactness_se="(0.0000, 0.1000]"   texture_worst="(31.000, 34.6000]"   area_se="(482.00000, 534.1000]"   smoothness_worst="(0.000, 0.2000]"   
   ((   1)   % perimeter_se="(2.0100, 5.2000]"   compactness_se="(0.00000, 0.0600]"   texture_worst="(31.000, 34.6000]"   area_se="(482.00000, 534.1000]"   smoothness_worst="(0.000, 0.2000]"   
   (   1)   % perimeter_se="(5.000, 8.3000]"   compactness_se="(0.00000, 0.0600]"   texture_worst="(31.000, 34.6000]"   area_se="(482.00000, 534.1000]"   smoothness_worst="(0.000, 0.2000]"   
   (   1))   % perimeter_se="(8.0000, 21.8000]"   compactness_se="(0.00000, 0.0600]"   texture_worst="(31.000, 34.6000]"   area_se="(482.00000, 534.1000]"   smoothness_worst="(0.000, 0.2000]"   
   ((   1)   % perimeter_se="(2.0100, 5.2000]"   compactness_se="(0.0119, 0.0300]"   texture_worst="(31.000, 34.6000]"   area_se="(482.00000, 534.1000]"   smoothness_worst="(0.000, 0.2000]"   
   (   1)   % perimeter_se="(5.000, 8.3000]"   compactness_se="(0.0119, 0.0300]"   texture_worst="(31.000, 34.6000]"   area_se="(482.00000, 534.1000]"   smoothness_worst="(0.000, 0.2000]"   
   (   1)))   % perimeter_se="(8.0000, 21.8000]"   compactness_se="(0.0119, 0.0300]"   texture_worst="(31.000, 34.6000]"   area_se="(482.00000, 534.1000]"   smoothness_worst="(0.000, 0.2000]"   
   (((   1)   % perimeter_se="(2.0100, 5.2000]"   compactness_se="(0.0000, 0.1000]"   texture_worst="(34.0000, 40.7000]"   area_se="(482.00000, 534.1000]"   smoothness_worst="(0.000, 0.2000]"   
   (   1)   % perimeter_se="(5.000, 8.3000]"   compactness_se="(0.0000, 0.1000]"   texture_worst="(34.0000, 40.7000]"   area_se="(482.00000, 534.1000]"   smoothness_worst="(0.000, 0.2000]"   
   (   1))   % perimeter_se="(8.0000, 21.8000]"   compactness_se="(0.0000, 0.1000]"   texture_worst="(34.0000, 40.7000]"   area_se="(482.00000, 534.1000]"   smoothness_worst="(0.000, 0.2000]"   
   ((   1)   % perimeter_se="(2.0100, 5.2000]"   compactness_se="(0.00000, 0.0600]"   texture_worst="(34.0000, 40.7000]"   area_se="(482.00000, 534.1000]"   smoothness_worst="(0.000, 0.2000]"   
   (   1)   % perimeter_se="(5.000, 8.3000]"   compactness_se="(0.00000, 0.0600]"   texture_worst="(34.0000, 40.7000]"   area_se="(482.00000, 534.1000]"   smoothness_worst="(0.000, 0.2000]"   
   (   1))   % perimeter_se="(8.0000, 21.8000]"   compactness_se="(0.00000, 0.0600]"   texture_worst="(34.0000, 40.7000]"   area_se="(482.00000, 534.1000]"   smoothness_worst="(0.000, 0.2000]"   
   ((   1)   % perimeter_se="(2.0100, 5.2000]"   compactness_se="(0.0119, 0.0300]"   texture_worst="(34.0000, 40.7000]"   area_se="(482.00000, 534.1000]"   smoothness_worst="(0.000, 0.2000]"   
   (   1)   % perimeter_se="(5.000, 8.3000]"   compactness_se="(0.0119, 0.0300]"   texture_worst="(34.0000, 40.7000]"   area_se="(482.00000, 534.1000]"   smoothness_worst="(0.000, 0.2000]"   
   (   1))))   % perimeter_se="(8.0000, 21.8000]"   compactness_se="(0.0119, 0.0300]"   texture_worst="(34.0000, 40.7000]"   area_se="(482.00000, 534.1000]"   smoothness_worst="(0.000, 0.2000]"   
   ((((   1)   % perimeter_se="(2.0100, 5.2000]"   compactness_se="(0.0000, 0.1000]"   texture_worst="(15.000, 31.0000]"   area_se="(67.00000, 482.0000]"   smoothness_worst="(0.000, 0.2000]"   
   (   1)   % perimeter_se="(5.000, 8.3000]"   compactness_se="(0.0000, 0.1000]"   texture_worst="(15.000, 31.0000]"   area_se="(67.00000, 482.0000]"   smoothness_worst="(0.000, 0.2000]"   
   (   1))   % perimeter_se="(8.0000, 21.8000]"   compactness_se="(0.0000, 0.1000]"   texture_worst="(15.000, 31.0000]"   area_se="(67.00000, 482.0000]"   smoothness_worst="(0.000, 0.2000]"   
   ((   1)   % perimeter_se="(2.0100, 5.2000]"   compactness_se="(0.00000, 0.0600]"   texture_worst="(15.000, 31.0000]"   area_se="(67.00000, 482.0000]"   smoothness_worst="(0.000, 0.2000]"   
   (   1)   % perimeter_se="(5.000, 8.3000]"   compactness_se="(0.00000, 0.0600]"   texture_worst="(15.000, 31.0000]"   area_se="(67.00000, 482.0000]"   smoothness_worst="(0.000, 0.2000]"   
   (   1))   % perimeter_se="(8.0000, 21.8000]"   compactness_se="(0.00000, 0.0600]"   texture_worst="(15.000, 31.0000]"   area_se="(67.00000, 482.0000]"   smoothness_worst="(0.000, 0.2000]"   
   ((   1)   % perimeter_se="(2.0100, 5.2000]"   compactness_se="(0.0119, 0.0300]"   texture_worst="(15.000, 31.0000]"   area_se="(67.00000, 482.0000]"   smoothness_worst="(0.000, 0.2000]"   
   (   1)   % perimeter_se="(5.000, 8.3000]"   compactness_se="(0.0119, 0.0300]"   texture_worst="(15.000, 31.0000]"   area_se="(67.00000, 482.0000]"   smoothness_worst="(0.000, 0.2000]"   
   (   1)))   % perimeter_se="(8.0000, 21.8000]"   compactness_se="(0.0119, 0.0300]"   texture_worst="(15.000, 31.0000]"   area_se="(67.00000, 482.0000]"   smoothness_worst="(0.000, 0.2000]"   
   (((   1)   % perimeter_se="(2.0100, 5.2000]"   compactness_se="(0.0000, 0.1000]"   texture_worst="(31.000, 34.6000]"   area_se="(67.00000, 482.0000]"   smoothness_worst="(0.000, 0.2000]"   
   (   1)   % perimeter_se="(5.000, 8.3000]"   compactness_se="(0.0000, 0.1000]"   texture_worst="(31.000, 34.6000]"   area_se="(67.00000, 482.0000]"   smoothness_worst="(0.000, 0.2000]"   
   (   1))   % perimeter_se="(8.0000, 21.8000]"   compactness_se="(0.0000, 0.1000]"   texture_worst="(31.000, 34.6000]"   area_se="(67.00000, 482.0000]"   smoothness_worst="(0.000, 0.2000]"   
   ((   1)   % perimeter_se="(2.0100, 5.2000]"   compactness_se="(0.00000, 0.0600]"   texture_worst="(31.000, 34.6000]"   area_se="(67.00000, 482.0000]"   smoothness_worst="(0.000, 0.2000]"   
   (   1)   % perimeter_se="(5.000, 8.3000]"   compactness_se="(0.00000, 0.0600]"   texture_worst="(31.000, 34.6000]"   area_se="(67.00000, 482.0000]"   smoothness_worst="(0.000, 0.2000]"   
   (   1))   % perimeter_se="(8.0000, 21.8000]"   compactness_se="(0.00000, 0.0600]"   texture_worst="(31.000, 34.6000]"   area_se="(67.00000, 482.0000]"   smoothness_worst="(0.000, 0.2000]"   
   ((   1)   % perimeter_se="(2.0100, 5.2000]"   compactness_se="(0.0119, 0.0300]"   texture_worst="(31.000, 34.6000]"   area_se="(67.00000, 482.0000]"   smoothness_worst="(0.000, 0.2000]"   
   (   1)   % perimeter_se="(5.000, 8.3000]"   compactness_se="(0.0119, 0.0300]"   texture_worst="(31.000, 34.6000]"   area_se="(67.00000, 482.0000]"   smoothness_worst="(0.000, 0.2000]"   
   (   1)))   % perimeter_se="(8.0000, 21.8000]"   compactness_se="(0.0119, 0.0300]"   texture_worst="(31.000, 34.6000]"   area_se="(67.00000, 482.0000]"   smoothness_worst="(0.000, 0.2000]"   
   (((   1)   % perimeter_se="(2.0100, 5.2000]"   compactness_se="(0.0000, 0.1000]"   texture_worst="(34.0000, 40.7000]"   area_se="(67.00000, 482.0000]"   smoothness_worst="(0.000, 0.2000]"   
   (   1)   % perimeter_se="(5.000, 8.3000]"   compactness_se="(0.0000, 0.1000]"   texture_worst="(34.0000, 40.7000]"   area_se="(67.00000, 482.0000]"   smoothness_worst="(0.000, 0.2000]"   
   (   1))   % perimeter_se="(8.0000, 21.8000]"   compactness_se="(0.0000, 0.1000]"   texture_worst="(34.0000, 40.7000]"   area_se="(67.00000, 482.0000]"   smoothness_worst="(0.000, 0.2000]"   
   ((   1)   % perimeter_se="(2.0100, 5.2000]"   compactness_se="(0.00000, 0.0600]"   texture_worst="(34.0000, 40.7000]"   area_se="(67.00000, 482.0000]"   smoothness_worst="(0.000, 0.2000]"   
   (   1)   % perimeter_se="(5.000, 8.3000]"   compactness_se="(0.00000, 0.0600]"   texture_worst="(34.0000, 40.7000]"   area_se="(67.00000, 482.0000]"   smoothness_worst="(0.000, 0.2000]"   
   (   1))   % perimeter_se="(8.0000, 21.8000]"   compactness_se="(0.00000, 0.0600]"   texture_worst="(34.0000, 40.7000]"   area_se="(67.00000, 482.0000]"   smoothness_worst="(0.000, 0.2000]"   
   ((   1)   % perimeter_se="(2.0100, 5.2000]"   compactness_se="(0.0119, 0.0300]"   texture_worst="(34.0000, 40.7000]"   area_se="(67.00000, 482.0000]"   smoothness_worst="(0.000, 0.2000]"   
   (   1)   % perimeter_se="(5.000, 8.3000]"   compactness_se="(0.0119, 0.0300]"   texture_worst="(34.0000, 40.7000]"   area_se="(67.00000, 482.0000]"   smoothness_worst="(0.000, 0.2000]"   
   (   1)))))   % perimeter_se="(8.0000, 21.8000]"   compactness_se="(0.0119, 0.0300]"   texture_worst="(34.0000, 40.7000]"   area_se="(67.00000, 482.0000]"   smoothness_worst="(0.000, 0.2000]"   
   (((((   1)   % perimeter_se="(2.0100, 5.2000]"   compactness_se="(0.0000, 0.1000]"   texture_worst="(15.000, 31.0000]"   area_se="(12.0000, 67.6000]"   smoothness_worst="(0.0750, 0.1000]"   
   (   1)   % perimeter_se="(5.000, 8.3000]"   compactness_se="(0.0000, 0.1000]"   texture_worst="(15.000, 31.0000]"   area_se="(12.0000, 67.6000]"   smoothness_worst="(0.0750, 0.1000]"   
   (   1))   % perimeter_se="(8.0000, 21.8000]"   compactness_se="(0.0000, 0.1000]"   texture_worst="(15.000, 31.0000]"   area_se="(12.0000, 67.6000]"   smoothness_worst="(0.0750, 0.1000]"   
   ((   1)   % perimeter_se="(2.0100, 5.2000]"   compactness_se="(0.00000, 0.0600]"   texture_worst="(15.000, 31.0000]"   area_se="(12.0000, 67.6000]"   smoothness_worst="(0.0750, 0.1000]"   
   (   1)   % perimeter_se="(5.000, 8.3000]"   compactness_se="(0.00000, 0.0600]"   texture_worst="(15.000, 31.0000]"   area_se="(12.0000, 67.6000]"   smoothness_worst="(0.0750, 0.1000]"   
   (   1))   % perimeter_se="(8.0000, 21.8000]"   compactness_se="(0.00000, 0.0600]"   texture_worst="(15.000, 31.0000]"   area_se="(12.0000, 67.6000]"   smoothness_worst="(0.0750, 0.1000]"   
   ((   1)   % perimeter_se="(2.0100, 5.2000]"   compactness_se="(0.0119, 0.0300]"   texture_worst="(15.000, 31.0000]"   area_se="(12.0000, 67.6000]"   smoothness_worst="(0.0750, 0.1000]"   
   (   1)   % perimeter_se="(5.000, 8.3000]"   compactness_se="(0.0119, 0.0300]"   texture_worst="(15.000, 31.0000]"   area_se="(12.0000, 67.6000]"   smoothness_worst="(0.0750, 0.1000]"   
   (   1)))   % perimeter_se="(8.0000, 21.8000]"   compactness_se="(0.0119, 0.0300]"   texture_worst="(15.000, 31.0000]"   area_se="(12.0000, 67.6000]"   smoothness_worst="(0.0750, 0.1000]"   
   (((   1)   % perimeter_se="(2.0100, 5.2000]"   compactness_se="(0.0000, 0.1000]"   texture_worst="(31.000, 34.6000]"   area_se="(12.0000, 67.6000]"   smoothness_worst="(0.0750, 0.1000]"   
   (   1)   % perimeter_se="(5.000, 8.3000]"   compactness_se="(0.0000, 0.1000]"   texture_worst="(31.000, 34.6000]"   area_se="(12.0000, 67.6000]"   smoothness_worst="(0.0750, 0.1000]"   
   (   1))   % perimeter_se="(8.0000, 21.8000]"   compactness_se="(0.0000, 0.1000]"   texture_worst="(31.000, 34.6000]"   area_se="(12.0000, 67.6000]"   smoothness_worst="(0.0750, 0.1000]"   
   ((   1)   % perimeter_se="(2.0100, 5.2000]"   compactness_se="(0.00000, 0.0600]"   texture_worst="(31.000, 34.6000]"   area_se="(12.0000, 67.6000]"   smoothness_worst="(0.0750, 0.1000]"   
   (   1)   % perimeter_se="(5.000, 8.3000]"   compactness_se="(0.00000, 0.0600]"   texture_worst="(31.000, 34.6000]"   area_se="(12.0000, 67.6000]"   smoothness_worst="(0.0750, 0.1000]"   
   (   1))   % perimeter_se="(8.0000, 21.8000]"   compactness_se="(0.00000, 0.0600]"   texture_worst="(31.000, 34.6000]"   area_se="(12.0000, 67.6000]"   smoothness_worst="(0.0750, 0.1000]"   
   ((   1)   % perimeter_se="(2.0100, 5.2000]"   compactness_se="(0.0119, 0.0300]"   texture_worst="(31.000, 34.6000]"   area_se="(12.0000, 67.6000]"   smoothness_worst="(0.0750, 0.1000]"   
   (   1)   % perimeter_se="(5.000, 8.3000]"   compactness_se="(0.0119, 0.0300]"   texture_worst="(31.000, 34.6000]"   area_se="(12.0000, 67.6000]"   smoothness_worst="(0.0750, 0.1000]"   
   (   1)))   % perimeter_se="(8.0000, 21.8000]"   compactness_se="(0.0119, 0.0300]"   texture_worst="(31.000, 34.6000]"   area_se="(12.0000, 67.6000]"   smoothness_worst="(0.0750, 0.1000]"   
   (((   1)   % perimeter_se="(2.0100, 5.2000]"   compactness_se="(0.0000, 0.1000]"   texture_worst="(34.0000, 40.7000]"   area_se="(12.0000, 67.6000]"   smoothness_worst="(0.0750, 0.1000]"   
   (   1)   % perimeter_se="(5.000, 8.3000]"   compactness_se="(0.0000, 0.1000]"   texture_worst="(34.0000, 40.7000]"   area_se="(12.0000, 67.6000]"   smoothness_worst="(0.0750, 0.1000]"   
   (   1))   % perimeter_se="(8.0000, 21.8000]"   compactness_se="(0.0000, 0.1000]"   texture_worst="(34.0000, 40.7000]"   area_se="(12.0000, 67.6000]"   smoothness_worst="(0.0750, 0.1000]"   
   ((   1)   % perimeter_se="(2.0100, 5.2000]"   compactness_se="(0.00000, 0.0600]"   texture_worst="(34.0000, 40.7000]"   area_se="(12.0000, 67.6000]"   smoothness_worst="(0.0750, 0.1000]"   
   (   1)   % perimeter_se="(5.000, 8.3000]"   compactness_se="(0.00000, 0.0600]"   texture_worst="(34.0000, 40.7000]"   area_se="(12.0000, 67.6000]"   smoothness_worst="(0.0750, 0.1000]"   
   (   1))   % perimeter_se="(8.0000, 21.8000]"   compactness_se="(0.00000, 0.0600]"   texture_worst="(34.0000, 40.7000]"   area_se="(12.0000, 67.6000]"   smoothness_worst="(0.0750, 0.1000]"   
   ((   1)   % perimeter_se="(2.0100, 5.2000]"   compactness_se="(0.0119, 0.0300]"   texture_worst="(34.0000, 40.7000]"   area_se="(12.0000, 67.6000]"   smoothness_worst="(0.0750, 0.1000]"   
   (   1)   % perimeter_se="(5.000, 8.3000]"   compactness_se="(0.0119, 0.0300]"   texture_worst="(34.0000, 40.7000]"   area_se="(12.0000, 67.6000]"   smoothness_worst="(0.0750, 0.1000]"   
   (   1))))   % perimeter_se="(8.0000, 21.8000]"   compactness_se="(0.0119, 0.0300]"   texture_worst="(34.0000, 40.7000]"   area_se="(12.0000, 67.6000]"   smoothness_worst="(0.0750, 0.1000]"   
   ((((   1)   % perimeter_se="(2.0100, 5.2000]"   compactness_se="(0.0000, 0.1000]"   texture_worst="(15.000, 31.0000]"   area_se="(482.00000, 534.1000]"   smoothness_worst="(0.0750, 0.1000]"   
   (   1)   % perimeter_se="(5.000, 8.3000]"   compactness_se="(0.0000, 0.1000]"   texture_worst="(15.000, 31.0000]"   area_se="(482.00000, 534.1000]"   smoothness_worst="(0.0750, 0.1000]"   
   (   1))   % perimeter_se="(8.0000, 21.8000]"   compactness_se="(0.0000, 0.1000]"   texture_worst="(15.000, 31.0000]"   area_se="(482.00000, 534.1000]"   smoothness_worst="(0.0750, 0.1000]"   
   ((   1)   % perimeter_se="(2.0100, 5.2000]"   compactness_se="(0.00000, 0.0600]"   texture_worst="(15.000, 31.0000]"   area_se="(482.00000, 534.1000]"   smoothness_worst="(0.0750, 0.1000]"   
   (   1)   % perimeter_se="(5.000, 8.3000]"   compactness_se="(0.00000, 0.0600]"   texture_worst="(15.000, 31.0000]"   area_se="(482.00000, 534.1000]"   smoothness_worst="(0.0750, 0.1000]"   
   (   1))   % perimeter_se="(8.0000, 21.8000]"   compactness_se="(0.00000, 0.0600]"   texture_worst="(15.000, 31.0000]"   area_se="(482.00000, 534.1000]"   smoothness_worst="(0.0750, 0.1000]"   
   ((   1)   % perimeter_se="(2.0100, 5.2000]"   compactness_se="(0.0119, 0.0300]"   texture_worst="(15.000, 31.0000]"   area_se="(482.00000, 534.1000]"   smoothness_worst="(0.0750, 0.1000]"   
   (   1)   % perimeter_se="(5.000, 8.3000]"   compactness_se="(0.0119, 0.0300]"   texture_worst="(15.000, 31.0000]"   area_se="(482.00000, 534.1000]"   smoothness_worst="(0.0750, 0.1000]"   
   (   1)))   % perimeter_se="(8.0000, 21.8000]"   compactness_se="(0.0119, 0.0300]"   texture_worst="(15.000, 31.0000]"   area_se="(482.00000, 534.1000]"   smoothness_worst="(0.0750, 0.1000]"   
   (((   1)   % perimeter_se="(2.0100, 5.2000]"   compactness_se="(0.0000, 0.1000]"   texture_worst="(31.000, 34.6000]"   area_se="(482.00000, 534.1000]"   smoothness_worst="(0.0750, 0.1000]"   
   (   1)   % perimeter_se="(5.000, 8.3000]"   compactness_se="(0.0000, 0.1000]"   texture_worst="(31.000, 34.6000]"   area_se="(482.00000, 534.1000]"   smoothness_worst="(0.0750, 0.1000]"   
   (   1))   % perimeter_se="(8.0000, 21.8000]"   compactness_se="(0.0000, 0.1000]"   texture_worst="(31.000, 34.6000]"   area_se="(482.00000, 534.1000]"   smoothness_worst="(0.0750, 0.1000]"   
   ((   1)   % perimeter_se="(2.0100, 5.2000]"   compactness_se="(0.00000, 0.0600]"   texture_worst="(31.000, 34.6000]"   area_se="(482.00000, 534.1000]"   smoothness_worst="(0.0750, 0.1000]"   
   (   1)   % perimeter_se="(5.000, 8.3000]"   compactness_se="(0.00000, 0.0600]"   texture_worst="(31.000, 34.6000]"   area_se="(482.00000, 534.1000]"   smoothness_worst="(0.0750, 0.1000]"   
   (   1))   % perimeter_se="(8.0000, 21.8000]"   compactness_se="(0.00000, 0.0600]"   texture_worst="(31.000, 34.6000]"   area_se="(482.00000, 534.1000]"   smoothness_worst="(0.0750, 0.1000]"   
   ((   1)   % perimeter_se="(2.0100, 5.2000]"   compactness_se="(0.0119, 0.0300]"   texture_worst="(31.000, 34.6000]"   area_se="(482.00000, 534.1000]"   smoothness_worst="(0.0750, 0.1000]"   
   (   1)   % perimeter_se="(5.000, 8.3000]"   compactness_se="(0.0119, 0.0300]"   texture_worst="(31.000, 34.6000]"   area_se="(482.00000, 534.1000]"   smoothness_worst="(0.0750, 0.1000]"   
   (   1)))   % perimeter_se="(8.0000, 21.8000]"   compactness_se="(0.0119, 0.0300]"   texture_worst="(31.000, 34.6000]"   area_se="(482.00000, 534.1000]"   smoothness_worst="(0.0750, 0.1000]"   
   (((   1)   % perimeter_se="(2.0100, 5.2000]"   compactness_se="(0.0000, 0.1000]"   texture_worst="(34.0000, 40.7000]"   area_se="(482.00000, 534.1000]"   smoothness_worst="(0.0750, 0.1000]"   
   (   1)   % perimeter_se="(5.000, 8.3000]"   compactness_se="(0.0000, 0.1000]"   texture_worst="(34.0000, 40.7000]"   area_se="(482.00000, 534.1000]"   smoothness_worst="(0.0750, 0.1000]"   
   (   1))   % perimeter_se="(8.0000, 21.8000]"   compactness_se="(0.0000, 0.1000]"   texture_worst="(34.0000, 40.7000]"   area_se="(482.00000, 534.1000]"   smoothness_worst="(0.0750, 0.1000]"   
   ((   1)   % perimeter_se="(2.0100, 5.2000]"   compactness_se="(0.00000, 0.0600]"   texture_worst="(34.0000, 40.7000]"   area_se="(482.00000, 534.1000]"   smoothness_worst="(0.0750, 0.1000]"   
   (   1)   % perimeter_se="(5.000, 8.3000]"   compactness_se="(0.00000, 0.0600]"   texture_worst="(34.0000, 40.7000]"   area_se="(482.00000, 534.1000]"   smoothness_worst="(0.0750, 0.1000]"   
   (   1))   % perimeter_se="(8.0000, 21.8000]"   compactness_se="(0.00000, 0.0600]"   texture_worst="(34.0000, 40.7000]"   area_se="(482.00000, 534.1000]"   smoothness_worst="(0.0750, 0.1000]"   
   ((   1)   % perimeter_se="(2.0100, 5.2000]"   compactness_se="(0.0119, 0.0300]"   texture_worst="(34.0000, 40.7000]"   area_se="(482.00000, 534.1000]"   smoothness_worst="(0.0750, 0.1000]"   
   (   1)   % perimeter_se="(5.000, 8.3000]"   compactness_se="(0.0119, 0.0300]"   texture_worst="(34.0000, 40.7000]"   area_se="(482.00000, 534.1000]"   smoothness_worst="(0.0750, 0.1000]"   
   (   1))))   % perimeter_se="(8.0000, 21.8000]"   compactness_se="(0.0119, 0.0300]"   texture_worst="(34.0000, 40.7000]"   area_se="(482.00000, 534.1000]"   smoothness_worst="(0.0750, 0.1000]"   
   ((((   1)   % perimeter_se="(2.0100, 5.2000]"   compactness_se="(0.0000, 0.1000]"   texture_worst="(15.000, 31.0000]"   area_se="(67.00000, 482.0000]"   smoothness_worst="(0.0750, 0.1000]"   
   (   1)   % perimeter_se="(5.000, 8.3000]"   compactness_se="(0.0000, 0.1000]"   texture_worst="(15.000, 31.0000]"   area_se="(67.00000, 482.0000]"   smoothness_worst="(0.0750, 0.1000]"   
   (   1))   % perimeter_se="(8.0000, 21.8000]"   compactness_se="(0.0000, 0.1000]"   texture_worst="(15.000, 31.0000]"   area_se="(67.00000, 482.0000]"   smoothness_worst="(0.0750, 0.1000]"   
   ((   1)   % perimeter_se="(2.0100, 5.2000]"   compactness_se="(0.00000, 0.0600]"   texture_worst="(15.000, 31.0000]"   area_se="(67.00000, 482.0000]"   smoothness_worst="(0.0750, 0.1000]"   
   (   1)   % perimeter_se="(5.000, 8.3000]"   compactness_se="(0.00000, 0.0600]"   texture_worst="(15.000, 31.0000]"   area_se="(67.00000, 482.0000]"   smoothness_worst="(0.0750, 0.1000]"   
   (   1))   % perimeter_se="(8.0000, 21.8000]"   compactness_se="(0.00000, 0.0600]"   texture_worst="(15.000, 31.0000]"   area_se="(67.00000, 482.0000]"   smoothness_worst="(0.0750, 0.1000]"   
   ((   1)   % perimeter_se="(2.0100, 5.2000]"   compactness_se="(0.0119, 0.0300]"   texture_worst="(15.000, 31.0000]"   area_se="(67.00000, 482.0000]"   smoothness_worst="(0.0750, 0.1000]"   
   (   1)   % perimeter_se="(5.000, 8.3000]"   compactness_se="(0.0119, 0.0300]"   texture_worst="(15.000, 31.0000]"   area_se="(67.00000, 482.0000]"   smoothness_worst="(0.0750, 0.1000]"   
   (   1)))   % perimeter_se="(8.0000, 21.8000]"   compactness_se="(0.0119, 0.0300]"   texture_worst="(15.000, 31.0000]"   area_se="(67.00000, 482.0000]"   smoothness_worst="(0.0750, 0.1000]"   
   (((   1)   % perimeter_se="(2.0100, 5.2000]"   compactness_se="(0.0000, 0.1000]"   texture_worst="(31.000, 34.6000]"   area_se="(67.00000, 482.0000]"   smoothness_worst="(0.0750, 0.1000]"   
   (   1)   % perimeter_se="(5.000, 8.3000]"   compactness_se="(0.0000, 0.1000]"   texture_worst="(31.000, 34.6000]"   area_se="(67.00000, 482.0000]"   smoothness_worst="(0.0750, 0.1000]"   
   (   1))   % perimeter_se="(8.0000, 21.8000]"   compactness_se="(0.0000, 0.1000]"   texture_worst="(31.000, 34.6000]"   area_se="(67.00000, 482.0000]"   smoothness_worst="(0.0750, 0.1000]"   
   ((   1)   % perimeter_se="(2.0100, 5.2000]"   compactness_se="(0.00000, 0.0600]"   texture_worst="(31.000, 34.6000]"   area_se="(67.00000, 482.0000]"   smoothness_worst="(0.0750, 0.1000]"   
   (   1)   % perimeter_se="(5.000, 8.3000]"   compactness_se="(0.00000, 0.0600]"   texture_worst="(31.000, 34.6000]"   area_se="(67.00000, 482.0000]"   smoothness_worst="(0.0750, 0.1000]"   
   (   1))   % perimeter_se="(8.0000, 21.8000]"   compactness_se="(0.00000, 0.0600]"   texture_worst="(31.000, 34.6000]"   area_se="(67.00000, 482.0000]"   smoothness_worst="(0.0750, 0.1000]"   
   ((   1)   % perimeter_se="(2.0100, 5.2000]"   compactness_se="(0.0119, 0.0300]"   texture_worst="(31.000, 34.6000]"   area_se="(67.00000, 482.0000]"   smoothness_worst="(0.0750, 0.1000]"   
   (   1)   % perimeter_se="(5.000, 8.3000]"   compactness_se="(0.0119, 0.0300]"   texture_worst="(31.000, 34.6000]"   area_se="(67.00000, 482.0000]"   smoothness_worst="(0.0750, 0.1000]"   
   (   1)))   % perimeter_se="(8.0000, 21.8000]"   compactness_se="(0.0119, 0.0300]"   texture_worst="(31.000, 34.6000]"   area_se="(67.00000, 482.0000]"   smoothness_worst="(0.0750, 0.1000]"   
   (((   1)   % perimeter_se="(2.0100, 5.2000]"   compactness_se="(0.0000, 0.1000]"   texture_worst="(34.0000, 40.7000]"   area_se="(67.00000, 482.0000]"   smoothness_worst="(0.0750, 0.1000]"   
   (   1)   % perimeter_se="(5.000, 8.3000]"   compactness_se="(0.0000, 0.1000]"   texture_worst="(34.0000, 40.7000]"   area_se="(67.00000, 482.0000]"   smoothness_worst="(0.0750, 0.1000]"   
   (   1))   % perimeter_se="(8.0000, 21.8000]"   compactness_se="(0.0000, 0.1000]"   texture_worst="(34.0000, 40.7000]"   area_se="(67.00000, 482.0000]"   smoothness_worst="(0.0750, 0.1000]"   
   ((   1)   % perimeter_se="(2.0100, 5.2000]"   compactness_se="(0.00000, 0.0600]"   texture_worst="(34.0000, 40.7000]"   area_se="(67.00000, 482.0000]"   smoothness_worst="(0.0750, 0.1000]"   
   (   1)   % perimeter_se="(5.000, 8.3000]"   compactness_se="(0.00000, 0.0600]"   texture_worst="(34.0000, 40.7000]"   area_se="(67.00000, 482.0000]"   smoothness_worst="(0.0750, 0.1000]"   
   (   1))   % perimeter_se="(8.0000, 21.8000]"   compactness_se="(0.00000, 0.0600]"   texture_worst="(34.0000, 40.7000]"   area_se="(67.00000, 482.0000]"   smoothness_worst="(0.0750, 0.1000]"   
   ((   1)   % perimeter_se="(2.0100, 5.2000]"   compactness_se="(0.0119, 0.0300]"   texture_worst="(34.0000, 40.7000]"   area_se="(67.00000, 482.0000]"   smoothness_worst="(0.0750, 0.1000]"   
   (   1)   % perimeter_se="(5.000, 8.3000]"   compactness_se="(0.0119, 0.0300]"   texture_worst="(34.0000, 40.7000]"   area_se="(67.00000, 482.0000]"   smoothness_worst="(0.0750, 0.1000]"   
   (   1))))));   % perimeter_se="(8.0000, 21.8000]"   compactness_se="(0.0119, 0.0300]"   texture_worst="(34.0000, 40.7000]"   area_se="(67.00000, 482.0000]"   smoothness_worst="(0.0750, 0.1000]"   
}

potential ( concave points_mean | symmetry_mean   fractal_dimension_mean   ) {
   data = 
   (((   0.999586   0.00041425)   % symmetry_mean="(0.0, 0.0000]"   fractal_dimension_mean="(0.00000, 0.0500]"   
   (   0.5   0.5))   % symmetry_mean="(0.00, 0.2000]"   fractal_dimension_mean="(0.00000, 0.0500]"   
   ((   0.989796   0.0102041)   % symmetry_mean="(0.0, 0.0000]"   fractal_dimension_mean="(0.00000, 0.0900]"   
   (   0.5   0.5))   % symmetry_mean="(0.00, 0.2000]"   fractal_dimension_mean="(0.00000, 0.0900]"   
   ((   0.187386   0.812614)   % symmetry_mean="(0.0, 0.0000]"   fractal_dimension_mean="(0.0419, 0.0500]"   
   (   0.928571   0.0714286)));   % symmetry_mean="(0.00, 0.2000]"   fractal_dimension_mean="(0.0419, 0.0500]"   
}

potential ( symmetry_mean | concavity_mean   ) {
   data = 
   ((   0.995033   0.00496689));   % concavity_mean="(0.0000, 0.4000]"   
}

potential ( fractal_dimension_mean | radius_se   ) {
   data = 
   ((   0.0211382   0.0796748   0.899187)   % radius_se="(0.000, 0.6000]"   
   (   0.998329   0.000835422   0.000835422));   % radius_se="(0.000, 2.8000]"   
}

potential ( radius_se | texture_se   ) {
   data = 
   ((   0.885838   0.114162)   % texture_se="(0.000, 1.8000]"   
   (   0.000914077   0.999086)   % texture_se="(1.000, 2.2000]"   
   (   0.0384615   0.961538));   % texture_se="(2.000, 3.7000]"   
}

potential ( texture_se | perimeter_se   ) {
   data = 
   ((   0.940963   0.0254314   0.0336058)   % perimeter_se="(2.0100, 5.2000]"   
   (   0.000648508   0.998703   0.000648508)   % perimeter_se="(5.000, 8.3000]"   
   (   0.0133333   0.973333   0.0133333));   % perimeter_se="(8.0000, 21.8000]"   
}

potential ( perimeter_se | area_se   ) {
   data = 
   ((   0.922754   0.015953   0.061293)   % area_se="(12.0000, 67.6000]"   
   (   0.0833333   0.833333   0.0833333)   % area_se="(482.00000, 534.1000]"   
   (   0.000660066   0.99868   0.000660066));   % area_se="(67.00000, 482.0000]"   
}

potential ( area_se | smoothness_se   ) {
   data = 
   ((   0.921705   0.00775194   0.0705426)   % smoothness_se="(-0.0062, 0.0050]"   
   (   0.0833333   0.0833333   0.833333)   % smoothness_se="(0.0000, 0.0000]"   
   (   0.000706215   0.000706215   0.998588));   % smoothness_se="(0.0056, 0.0200]"   
}

potential ( smoothness_se | compactness_se   ) {
   data = 
   ((   0.0175439   0.0175439   0.964912)   % compactness_se="(0.0000, 0.1000]"   
   (   0.000775194   0.000775194   0.99845)   % compactness_se="(0.00000, 0.0600]"   
   (   0.93946   0.00729395   0.0532458));   % compactness_se="(0.0119, 0.0300]"   
}

potential ( compactness_se | concavity_se   ) {
   data = 
   ((   0.0379487   0.025641   0.93641)   % concavity_se="(0.0319, 0.0330]"   
   (   0.00119474   0.997611   0.00119474));   % concavity_se="(0.0333, 0.2700]"   
}

potential (concavity_se) {
   data = (  0.538079 0.461921);
}

potential ( concave points_se | concavity_se   ) {
   data = 
   ((   0.998462   0.00153846)   % concavity_se="(0.0319, 0.0330]"   
   (   0.0878136   0.912186));   % concavity_se="(0.0333, 0.2700]"   
}

potential ( symmetry_se | concave points_se   ) {
   data = 
   ((   0.00095511   0.99809   0.00095511)   % concave points_se="(0.000, 0.0100]"   
   (   0.887582   0.0718954   0.0405229));   % concave points_se="(0.00000, 0.0300]"   
}

potential ( fractal_dimension_se | symmetry_se   ) {
   data = 
   ((   0.0362745   0.927451   0.0362745)   % symmetry_se="(-0.0017, 0.0200]"   
   (   0.998788   0.000606061   0.000606061)   % symmetry_se="(0.00000, 0.0300]"   
   (   0.958333   0.0208333   0.0208333));   % symmetry_se="(0.00000, 0.0500]"   
}

potential ( radius_worst | radius_mean   fractal_dimension_se   ) {
   data = 
   (((   0.998845   0.000577701   0.000577701))   % radius_mean="(8.0000, 27.2000]"   fractal_dimension_se="(-0.0088, 0.0010]"   
   ((   0.0770042   0.912447   0.0105485))   % radius_mean="(8.0000, 27.2000]"   fractal_dimension_se="(0.0019, 0.0060]"   
   ((   0.948718   0.025641   0.025641)));   % radius_mean="(8.0000, 27.2000]"   fractal_dimension_se="(0.0064, 0.0090]"   
}

potential ( texture_worst | radius_worst   ) {
   data = 
   ((   0.000543774   0.998912   0.000543774)   % radius_worst="(11.0000, 22.7000]"   
   (   0.893887   0.0634371   0.0426759)   % radius_worst="(22.0000, 33.4000]"   
   (   0.0833333   0.833333   0.0833333));   % radius_worst="(33.0000, 35.2000]"   
}

potential ( perimeter_worst | area_worst   texture_worst   ) {
   data = 
   (((   0.998778   0.00122249)   % area_worst="(1539.000000, 3893.2000]"   texture_worst="(15.000, 31.0000]"   
   (   0.665138   0.334862))   % area_worst="(257.000000, 1539.9000]"   texture_worst="(15.000, 31.0000]"   
   ((   0.5   0.5)   % area_worst="(1539.000000, 3893.2000]"   texture_worst="(31.000, 34.6000]"   
   (   0.999605   0.000394633))   % area_worst="(257.000000, 1539.9000]"   texture_worst="(31.000, 34.6000]"   
   ((   0.5   0.5)   % area_worst="(1539.000000, 3893.2000]"   texture_worst="(34.0000, 40.7000]"   
   (   0.98   0.02)));   % area_worst="(257.000000, 1539.9000]"   texture_worst="(34.0000, 40.7000]"   
}

potential ( area_worst | texture_worst   ) {
   data = 
   ((   0.789575   0.210425)   % texture_worst="(15.000, 31.0000]"   
   (   0.000788644   0.999211)   % texture_worst="(31.000, 34.6000]"   
   (   0.0384615   0.961538));   % texture_worst="(34.0000, 40.7000]"   
}

potential ( smoothness_worst | area_worst   ) {
   data = 
   ((   0.835766   0.164234)   % area_worst="(1539.000000, 3893.2000]"   
   (   0.00107066   0.998929));   % area_worst="(257.000000, 1539.9000]"   
}

potential ( compactness_worst | smoothness_worst   ) {
   data = 
   ((   0.143478   0.856522)   % smoothness_worst="(0.000, 0.2000]"   
   (   0.998978   0.00102249));   % smoothness_worst="(0.0750, 0.1000]"   
}

potential ( concavity_worst | compactness_worst   ) {
   data = 
   ((   0.000990099   0.99901)   % compactness_worst="(0.000, 0.3000]"   
   (   0.691919   0.308081));   % compactness_worst="(0.000, 0.9000]"   
}

potential ( concave points_worst | compactness_se   texture_worst   area_se   smoothness_worst   perimeter_se   ) {
   data = 
   ((((((   1)   % compactness_se="(0.0000, 0.1000]"   texture_worst="(15.000, 31.0000]"   area_se="(12.0000, 67.6000]"   smoothness_worst="(0.000, 0.2000]"   perimeter_se="(2.0100, 5.2000]"   
   (   1)   % compactness_se="(0.00000, 0.0600]"   texture_worst="(15.000, 31.0000]"   area_se="(12.0000, 67.6000]"   smoothness_worst="(0.000, 0.2000]"   perimeter_se="(2.0100, 5.2000]"   
   (   1))   % compactness_se="(0.0119, 0.0300]"   texture_worst="(15.000, 31.0000]"   area_se="(12.0000, 67.6000]"   smoothness_worst="(0.000, 0.2000]"   perimeter_se="(2.0100, 5.2000]"   
   ((   1)   % compactness_se="(0.0000, 0.1000]"   texture_worst="(31.000, 34.6000]"   area_se="(12.0000, 67.6000]"   smoothness_worst="(0.000, 0.2000]"   perimeter_se="(2.0100, 5.2000]"   
   (   1)   % compactness_se="(0.00000, 0.0600]"   texture_worst="(31.000, 34.6000]"   area_se="(12.0000, 67.6000]"   smoothness_worst="(0.000, 0.2000]"   perimeter_se="(2.0100, 5.2000]"   
   (   1))   % compactness_se="(0.0119, 0.0300]"   texture_worst="(31.000, 34.6000]"   area_se="(12.0000, 67.6000]"   smoothness_worst="(0.000, 0.2000]"   perimeter_se="(2.0100, 5.2000]"   
   ((   1)   % compactness_se="(0.0000, 0.1000]"   texture_worst="(34.0000, 40.7000]"   area_se="(12.0000, 67.6000]"   smoothness_worst="(0.000, 0.2000]"   perimeter_se="(2.0100, 5.2000]"   
   (   1)   % compactness_se="(0.00000, 0.0600]"   texture_worst="(34.0000, 40.7000]"   area_se="(12.0000, 67.6000]"   smoothness_worst="(0.000, 0.2000]"   perimeter_se="(2.0100, 5.2000]"   
   (   1)))   % compactness_se="(0.0119, 0.0300]"   texture_worst="(34.0000, 40.7000]"   area_se="(12.0000, 67.6000]"   smoothness_worst="(0.000, 0.2000]"   perimeter_se="(2.0100, 5.2000]"   
   (((   1)   % compactness_se="(0.0000, 0.1000]"   texture_worst="(15.000, 31.0000]"   area_se="(482.00000, 534.1000]"   smoothness_worst="(0.000, 0.2000]"   perimeter_se="(2.0100, 5.2000]"   
   (   1)   % compactness_se="(0.00000, 0.0600]"   texture_worst="(15.000, 31.0000]"   area_se="(482.00000, 534.1000]"   smoothness_worst="(0.000, 0.2000]"   perimeter_se="(2.0100, 5.2000]"   
   (   1))   % compactness_se="(0.0119, 0.0300]"   texture_worst="(15.000, 31.0000]"   area_se="(482.00000, 534.1000]"   smoothness_worst="(0.000, 0.2000]"   perimeter_se="(2.0100, 5.2000]"   
   ((   1)   % compactness_se="(0.0000, 0.1000]"   texture_worst="(31.000, 34.6000]"   area_se="(482.00000, 534.1000]"   smoothness_worst="(0.000, 0.2000]"   perimeter_se="(2.0100, 5.2000]"   
   (   1)   % compactness_se="(0.00000, 0.0600]"   texture_worst="(31.000, 34.6000]"   area_se="(482.00000, 534.1000]"   smoothness_worst="(0.000, 0.2000]"   perimeter_se="(2.0100, 5.2000]"   
   (   1))   % compactness_se="(0.0119, 0.0300]"   texture_worst="(31.000, 34.6000]"   area_se="(482.00000, 534.1000]"   smoothness_worst="(0.000, 0.2000]"   perimeter_se="(2.0100, 5.2000]"   
   ((   1)   % compactness_se="(0.0000, 0.1000]"   texture_worst="(34.0000, 40.7000]"   area_se="(482.00000, 534.1000]"   smoothness_worst="(0.000, 0.2000]"   perimeter_se="(2.0100, 5.2000]"   
   (   1)   % compactness_se="(0.00000, 0.0600]"   texture_worst="(34.0000, 40.7000]"   area_se="(482.00000, 534.1000]"   smoothness_worst="(0.000, 0.2000]"   perimeter_se="(2.0100, 5.2000]"   
   (   1)))   % compactness_se="(0.0119, 0.0300]"   texture_worst="(34.0000, 40.7000]"   area_se="(482.00000, 534.1000]"   smoothness_worst="(0.000, 0.2000]"   perimeter_se="(2.0100, 5.2000]"   
   (((   1)   % compactness_se="(0.0000, 0.1000]"   texture_worst="(15.000, 31.0000]"   area_se="(67.00000, 482.0000]"   smoothness_worst="(0.000, 0.2000]"   perimeter_se="(2.0100, 5.2000]"   
   (   1)   % compactness_se="(0.00000, 0.0600]"   texture_worst="(15.000, 31.0000]"   area_se="(67.00000, 482.0000]"   smoothness_worst="(0.000, 0.2000]"   perimeter_se="(2.0100, 5.2000]"   
   (   1))   % compactness_se="(0.0119, 0.0300]"   texture_worst="(15.000, 31.0000]"   area_se="(67.00000, 482.0000]"   smoothness_worst="(0.000, 0.2000]"   perimeter_se="(2.0100, 5.2000]"   
   ((   1)   % compactness_se="(0.0000, 0.1000]"   texture_worst="(31.000, 34.6000]"   area_se="(67.00000, 482.0000]"   smoothness_worst="(0.000, 0.2000]"   perimeter_se="(2.0100, 5.2000]"   
   (   1)   % compactness_se="(0.00000, 0.0600]"   texture_worst="(31.000, 34.6000]"   area_se="(67.00000, 482.0000]"   smoothness_worst="(0.000, 0.2000]"   perimeter_se="(2.0100, 5.2000]"   
   (   1))   % compactness_se="(0.0119, 0.0300]"   texture_worst="(31.000, 34.6000]"   area_se="(67.00000, 482.0000]"   smoothness_worst="(0.000, 0.2000]"   perimeter_se="(2.0100, 5.2000]"   
   ((   1)   % compactness_se="(0.0000, 0.1000]"   texture_worst="(34.0000, 40.7000]"   area_se="(67.00000, 482.0000]"   smoothness_worst="(0.000, 0.2000]"   perimeter_se="(2.0100, 5.2000]"   
   (   1)   % compactness_se="(0.00000, 0.0600]"   texture_worst="(34.0000, 40.7000]"   area_se="(67.00000, 482.0000]"   smoothness_worst="(0.000, 0.2000]"   perimeter_se="(2.0100, 5.2000]"   
   (   1))))   % compactness_se="(0.0119, 0.0300]"   texture_worst="(34.0000, 40.7000]"   area_se="(67.00000, 482.0000]"   smoothness_worst="(0.000, 0.2000]"   perimeter_se="(2.0100, 5.2000]"   
   ((((   1)   % compactness_se="(0.0000, 0.1000]"   texture_worst="(15.000, 31.0000]"   area_se="(12.0000, 67.6000]"   smoothness_worst="(0.0750, 0.1000]"   perimeter_se="(2.0100, 5.2000]"   
   (   1)   % compactness_se="(0.00000, 0.0600]"   texture_worst="(15.000, 31.0000]"   area_se="(12.0000, 67.6000]"   smoothness_worst="(0.0750, 0.1000]"   perimeter_se="(2.0100, 5.2000]"   
   (   1))   % compactness_se="(0.0119, 0.0300]"   texture_worst="(15.000, 31.0000]"   area_se="(12.0000, 67.6000]"   smoothness_worst="(0.0750, 0.1000]"   perimeter_se="(2.0100, 5.2000]"   
   ((   1)   % compactness_se="(0.0000, 0.1000]"   texture_worst="(31.000, 34.6000]"   area_se="(12.0000, 67.6000]"   smoothness_worst="(0.0750, 0.1000]"   perimeter_se="(2.0100, 5.2000]"   
   (   1)   % compactness_se="(0.00000, 0.0600]"   texture_worst="(31.000, 34.6000]"   area_se="(12.0000, 67.6000]"   smoothness_worst="(0.0750, 0.1000]"   perimeter_se="(2.0100, 5.2000]"   
   (   1))   % compactness_se="(0.0119, 0.0300]"   texture_worst="(31.000, 34.6000]"   area_se="(12.0000, 67.6000]"   smoothness_worst="(0.0750, 0.1000]"   perimeter_se="(2.0100, 5.2000]"   
   ((   1)   % compactness_se="(0.0000, 0.1000]"   texture_worst="(34.0000, 40.7000]"   area_se="(12.0000, 67.6000]"   smoothness_worst="(0.0750, 0.1000]"   perimeter_se="(2.0100, 5.2000]"   
   (   1)   % compactness_se="(0.00000, 0.0600]"   texture_worst="(34.0000, 40.7000]"   area_se="(12.0000, 67.6000]"   smoothness_worst="(0.0750, 0.1000]"   perimeter_se="(2.0100, 5.2000]"   
   (   1)))   % compactness_se="(0.0119, 0.0300]"   texture_worst="(34.0000, 40.7000]"   area_se="(12.0000, 67.6000]"   smoothness_worst="(0.0750, 0.1000]"   perimeter_se="(2.0100, 5.2000]"   
   (((   1)   % compactness_se="(0.0000, 0.1000]"   texture_worst="(15.000, 31.0000]"   area_se="(482.00000, 534.1000]"   smoothness_worst="(0.0750, 0.1000]"   perimeter_se="(2.0100, 5.2000]"   
   (   1)   % compactness_se="(0.00000, 0.0600]"   texture_worst="(15.000, 31.0000]"   area_se="(482.00000, 534.1000]"   smoothness_worst="(0.0750, 0.1000]"   perimeter_se="(2.0100, 5.2000]"   
   (   1))   % compactness_se="(0.0119, 0.0300]"   texture_worst="(15.000, 31.0000]"   area_se="(482.00000, 534.1000]"   smoothness_worst="(0.0750, 0.1000]"   perimeter_se="(2.0100, 5.2000]"   
   ((   1)   % compactness_se="(0.0000, 0.1000]"   texture_worst="(31.000, 34.6000]"   area_se="(482.00000, 534.1000]"   smoothness_worst="(0.0750, 0.1000]"   perimeter_se="(2.0100, 5.2000]"   
   (   1)   % compactness_se="(0.00000, 0.0600]"   texture_worst="(31.000, 34.6000]"   area_se="(482.00000, 534.1000]"   smoothness_worst="(0.0750, 0.1000]"   perimeter_se="(2.0100, 5.2000]"   
   (   1))   % compactness_se="(0.0119, 0.0300]"   texture_worst="(31.000, 34.6000]"   area_se="(482.00000, 534.1000]"   smoothness_worst="(0.0750, 0.1000]"   perimeter_se="(2.0100, 5.2000]"   
   ((   1)   % compactness_se="(0.0000, 0.1000]"   texture_worst="(34.0000, 40.7000]"   area_se="(482.00000, 534.1000]"   smoothness_worst="(0.0750, 0.1000]"   perimeter_se="(2.0100, 5.2000]"   
   (   1)   % compactness_se="(0.00000, 0.0600]"   texture_worst="(34.0000, 40.7000]"   area_se="(482.00000, 534.1000]"   smoothness_worst="(0.0750, 0.1000]"   perimeter_se="(2.0100, 5.2000]"   
   (   1)))   % compactness_se="(0.0119, 0.0300]"   texture_worst="(34.0000, 40.7000]"   area_se="(482.00000, 534.1000]"   smoothness_worst="(0.0750, 0.1000]"   perimeter_se="(2.0100, 5.2000]"   
   (((   1)   % compactness_se="(0.0000, 0.1000]"   texture_worst="(15.000, 31.0000]"   area_se="(67.00000, 482.0000]"   smoothness_worst="(0.0750, 0.1000]"   perimeter_se="(2.0100, 5.2000]"   
   (   1)   % compactness_se="(0.00000, 0.0600]"   texture_worst="(15.000, 31.0000]"   area_se="(67.00000, 482.0000]"   smoothness_worst="(0.0750, 0.1000]"   perimeter_se="(2.0100, 5.2000]"   
   (   1))   % compactness_se="(0.0119, 0.0300]"   texture_worst="(15.000, 31.0000]"   area_se="(67.00000, 482.0000]"   smoothness_worst="(0.0750, 0.1000]"   perimeter_se="(2.0100, 5.2000]"   
   ((   1)   % compactness_se="(0.0000, 0.1000]"   texture_worst="(31.000, 34.6000]"   area_se="(67.00000, 482.0000]"   smoothness_worst="(0.0750, 0.1000]"   perimeter_se="(2.0100, 5.2000]"   
   (   1)   % compactness_se="(0.00000, 0.0600]"   texture_worst="(31.000, 34.6000]"   area_se="(67.00000, 482.0000]"   smoothness_worst="(0.0750, 0.1000]"   perimeter_se="(2.0100, 5.2000]"   
   (   1))   % compactness_se="(0.0119, 0.0300]"   texture_worst="(31.000, 34.6000]"   area_se="(67.00000, 482.0000]"   smoothness_worst="(0.0750, 0.1000]"   perimeter_se="(2.0100, 5.2000]"   
   ((   1)   % compactness_se="(0.0000, 0.1000]"   texture_worst="(34.0000, 40.7000]"   area_se="(67.00000, 482.0000]"   smoothness_worst="(0.0750, 0.1000]"   perimeter_se="(2.0100, 5.2000]"   
   (   1)   % compactness_se="(0.00000, 0.0600]"   texture_worst="(34.0000, 40.7000]"   area_se="(67.00000, 482.0000]"   smoothness_worst="(0.0750, 0.1000]"   perimeter_se="(2.0100, 5.2000]"   
   (   1)))))   % compactness_se="(0.0119, 0.0300]"   texture_worst="(34.0000, 40.7000]"   area_se="(67.00000, 482.0000]"   smoothness_worst="(0.0750, 0.1000]"   perimeter_se="(2.0100, 5.2000]"   
   (((((   1)   % compactness_se="(0.0000, 0.1000]"   texture_worst="(15.000, 31.0000]"   area_se="(12.0000, 67.6000]"   smoothness_worst="(0.000, 0.2000]"   perimeter_se="(5.000, 8.3000]"   
   (   1)   % compactness_se="(0.00000, 0.0600]"   texture_worst="(15.000, 31.0000]"   area_se="(12.0000, 67.6000]"   smoothness_worst="(0.000, 0.2000]"   perimeter_se="(5.000, 8.3000]"   
   (   1))   % compactness_se="(0.0119, 0.0300]"   texture_worst="(15.000, 31.0000]"   area_se="(12.0000, 67.6000]"   smoothness_worst="(0.000, 0.2000]"   perimeter_se="(5.000, 8.3000]"   
   ((   1)   % compactness_se="(0.0000, 0.1000]"   texture_worst="(31.000, 34.6000]"   area_se="(12.0000, 67.6000]"   smoothness_worst="(0.000, 0.2000]"   perimeter_se="(5.000, 8.3000]"   
   (   1)   % compactness_se="(0.00000, 0.0600]"   texture_worst="(31.000, 34.6000]"   area_se="(12.0000, 67.6000]"   smoothness_worst="(0.000, 0.2000]"   perimeter_se="(5.000, 8.3000]"   
   (   1))   % compactness_se="(0.0119, 0.0300]"   texture_worst="(31.000, 34.6000]"   area_se="(12.0000, 67.6000]"   smoothness_worst="(0.000, 0.2000]"   perimeter_se="(5.000, 8.3000]"   
   ((   1)   % compactness_se="(0.0000, 0.1000]"   texture_worst="(34.0000, 40.7000]"   area_se="(12.0000, 67.6000]"   smoothness_worst="(0.000, 0.2000]"   perimeter_se="(5.000, 8.3000]"   
   (   1)   % compactness_se="(0.00000, 0.0600]"   texture_worst="(34.0000, 40.7000]"   area_se="(12.0000, 67.6000]"   smoothness_worst="(0.000, 0.2000]"   perimeter_se="(5.000, 8.3000]"   
   (   1)))   % compactness_se="(0.0119, 0.0300]"   texture_worst="(34.0000, 40.7000]"   area_se="(12.0000, 67.6000]"   smoothness_worst="(0.000, 0.2000]"   perimeter_se="(5.000, 8.3000]"   
   (((   1)   % compactness_se="(0.0000, 0.1000]"   texture_worst="(15.000, 31.0000]"   area_se="(482.00000, 534.1000]"   smoothness_worst="(0.000, 0.2000]"   perimeter_se="(5.000, 8.3000]"   
   (   1)   % compactness_se="(0.00000, 0.0600]"   texture_worst="(15.000, 31.0000]"   area_se="(482.00000, 534.1000]"   smoothness_worst="(0.000, 0.2000]"   perimeter_se="(5.000, 8.3000]"   
   (   1))   % compactness_se="(0.0119, 0.0300]"   texture_worst="(15.000, 31.0000]"   area_se="(482.00000, 534.1000]"   smoothness_worst="(0.000, 0.2000]"   perimeter_se="(5.000, 8.3000]"   
   ((   1)   % compactness_se="(0.0000, 0.1000]"   texture_worst="(31.000, 34.6000]"   area_se="(482.00000, 534.1000]"   smoothness_worst="(0.000, 0.2000]"   perimeter_se="(5.000, 8.3000]"   
   (   1)   % compactness_se="(0.00000, 0.0600]"   texture_worst="(31.000, 34.6000]"   area_se="(482.00000, 534.1000]"   smoothness_worst="(0.000, 0.2000]"   perimeter_se="(5.000, 8.3000]"   
   (   1))   % compactness_se="(0.0119, 0.0300]"   texture_worst="(31.000, 34.6000]"   area_se="(482.00000, 534.1000]"   smoothness_worst="(0.000, 0.2000]"   perimeter_se="(5.000, 8.3000]"   
   ((   1)   % compactness_se="(0.0000, 0.1000]"   texture_worst="(34.0000, 40.7000]"   area_se="(482.00000, 534.1000]"   smoothness_worst="(0.000, 0.2000]"   perimeter_se="(5.000, 8.3000]"   
   (   1)   % compactness_se="(0.00000, 0.0600]"   texture_worst="(34.0000, 40.7000]"   area_se="(482.00000, 534.1000]"   smoothness_worst="(0.000, 0.2000]"   perimeter_se="(5.000, 8.3000]"   
   (   1)))   % compactness_se="(0.0119, 0.0300]"   texture_worst="(34.0000, 40.7000]"   area_se="(482.00000, 534.1000]"   smoothness_worst="(0.000, 0.2000]"   perimeter_se="(5.000, 8.3000]"   
   (((   1)   % compactness_se="(0.0000, 0.1000]"   texture_worst="(15.000, 31.0000]"   area_se="(67.00000, 482.0000]"   smoothness_worst="(0.000, 0.2000]"   perimeter_se="(5.000, 8.3000]"   
   (   1)   % compactness_se="(0.00000, 0.0600]"   texture_worst="(15.000, 31.0000]"   area_se="(67.00000, 482.0000]"   smoothness_worst="(0.000, 0.2000]"   perimeter_se="(5.000, 8.3000]"   
   (   1))   % compactness_se="(0.0119, 0.0300]"   texture_worst="(15.000, 31.0000]"   area_se="(67.00000, 482.0000]"   smoothness_worst="(0.000, 0.2000]"   perimeter_se="(5.000, 8.3000]"   
   ((   1)   % compactness_se="(0.0000, 0.1000]"   texture_worst="(31.000, 34.6000]"   area_se="(67.00000, 482.0000]"   smoothness_worst="(0.000, 0.2000]"   perimeter_se="(5.000, 8.3000]"   
   (   1)   % compactness_se="(0.00000, 0.0600]"   texture_worst="(31.000, 34.6000]"   area_se="(67.00000, 482.0000]"   smoothness_worst="(0.000, 0.2000]"   perimeter_se="(5.000, 8.3000]"   
   (   1))   % compactness_se="(0.0119, 0.0300]"   texture_worst="(31.000, 34.6000]"   area_se="(67.00000, 482.0000]"   smoothness_worst="(0.000, 0.2000]"   perimeter_se="(5.000, 8.3000]"   
   ((   1)   % compactness_se="(0.0000, 0.1000]"   texture_worst="(34.0000, 40.7000]"   area_se="(67.00000, 482.0000]"   smoothness_worst="(0.000, 0.2000]"   perimeter_se="(5.000, 8.3000]"   
   (   1)   % compactness_se="(0.00000, 0.0600]"   texture_worst="(34.0000, 40.7000]"   area_se="(67.00000, 482.0000]"   smoothness_worst="(0.000, 0.2000]"   perimeter_se="(5.000, 8.3000]"   
   (   1))))   % compactness_se="(0.0119, 0.0300]"   texture_worst="(34.0000, 40.7000]"   area_se="(67.00000, 482.0000]"   smoothness_worst="(0.000, 0.2000]"   perimeter_se="(5.000, 8.3000]"   
   ((((   1)   % compactness_se="(0.0000, 0.1000]"   texture_worst="(15.000, 31.0000]"   area_se="(12.0000, 67.6000]"   smoothness_worst="(0.0750, 0.1000]"   perimeter_se="(5.000, 8.3000]"   
   (   1)   % compactness_se="(0.00000, 0.0600]"   texture_worst="(15.000, 31.0000]"   area_se="(12.0000, 67.6000]"   smoothness_worst="(0.0750, 0.1000]"   perimeter_se="(5.000, 8.3000]"   
   (   1))   % compactness_se="(0.0119, 0.0300]"   texture_worst="(15.000, 31.0000]"   area_se="(12.0000, 67.6000]"   smoothness_worst="(0.0750, 0.1000]"   perimeter_se="(5.000, 8.3000]"   
   ((   1)   % compactness_se="(0.0000, 0.1000]"   texture_worst="(31.000, 34.6000]"   area_se="(12.0000, 67.6000]"   smoothness_worst="(0.0750, 0.1000]"   perimeter_se="(5.000, 8.3000]"   
   (   1)   % compactness_se="(0.00000, 0.0600]"   texture_worst="(31.000, 34.6000]"   area_se="(12.0000, 67.6000]"   smoothness_worst="(0.0750, 0.1000]"   perimeter_se="(5.000, 8.3000]"   
   (   1))   % compactness_se="(0.0119, 0.0300]"   texture_worst="(31.000, 34.6000]"   area_se="(12.0000, 67.6000]"   smoothness_worst="(0.0750, 0.1000]"   perimeter_se="(5.000, 8.3000]"   
   ((   1)   % compactness_se="(0.0000, 0.1000]"   texture_worst="(34.0000, 40.7000]"   area_se="(12.0000, 67.6000]"   smoothness_worst="(0.0750, 0.1000]"   perimeter_se="(5.000, 8.3000]"   
   (   1)   % compactness_se="(0.00000, 0.0600]"   texture_worst="(34.0000, 40.7000]"   area_se="(12.0000, 67.6000]"   smoothness_worst="(0.0750, 0.1000]"   perimeter_se="(5.000, 8.3000]"   
   (   1)))   % compactness_se="(0.0119, 0.0300]"   texture_worst="(34.0000, 40.7000]"   area_se="(12.0000, 67.6000]"   smoothness_worst="(0.0750, 0.1000]"   perimeter_se="(5.000, 8.3000]"   
   (((   1)   % compactness_se="(0.0000, 0.1000]"   texture_worst="(15.000, 31.0000]"   area_se="(482.00000, 534.1000]"   smoothness_worst="(0.0750, 0.1000]"   perimeter_se="(5.000, 8.3000]"   
   (   1)   % compactness_se="(0.00000, 0.0600]"   texture_worst="(15.000, 31.0000]"   area_se="(482.00000, 534.1000]"   smoothness_worst="(0.0750, 0.1000]"   perimeter_se="(5.000, 8.3000]"   
   (   1))   % compactness_se="(0.0119, 0.0300]"   texture_worst="(15.000, 31.0000]"   area_se="(482.00000, 534.1000]"   smoothness_worst="(0.0750, 0.1000]"   perimeter_se="(5.000, 8.3000]"   
   ((   1)   % compactness_se="(0.0000, 0.1000]"   texture_worst="(31.000, 34.6000]"   area_se="(482.00000, 534.1000]"   smoothness_worst="(0.0750, 0.1000]"   perimeter_se="(5.000, 8.3000]"   
   (   1)   % compactness_se="(0.00000, 0.0600]"   texture_worst="(31.000, 34.6000]"   area_se="(482.00000, 534.1000]"   smoothness_worst="(0.0750, 0.1000]"   perimeter_se="(5.000, 8.3000]"   
   (   1))   % compactness_se="(0.0119, 0.0300]"   texture_worst="(31.000, 34.6000]"   area_se="(482.00000, 534.1000]"   smoothness_worst="(0.0750, 0.1000]"   perimeter_se="(5.000, 8.3000]"   
   ((   1)   % compactness_se="(0.0000, 0.1000]"   texture_worst="(34.0000, 40.7000]"   area_se="(482.00000, 534.1000]"   smoothness_worst="(0.0750, 0.1000]"   perimeter_se="(5.000, 8.3000]"   
   (   1)   % compactness_se="(0.00000, 0.0600]"   texture_worst="(34.0000, 40.7000]"   area_se="(482.00000, 534.1000]"   smoothness_worst="(0.0750, 0.1000]"   perimeter_se="(5.000, 8.3000]"   
   (   1)))   % compactness_se="(0.0119, 0.0300]"   texture_worst="(34.0000, 40.7000]"   area_se="(482.00000, 534.1000]"   smoothness_worst="(0.0750, 0.1000]"   perimeter_se="(5.000, 8.3000]"   
   (((   1)   % compactness_se="(0.0000, 0.1000]"   texture_worst="(15.000, 31.0000]"   area_se="(67.00000, 482.0000]"   smoothness_worst="(0.0750, 0.1000]"   perimeter_se="(5.000, 8.3000]"   
   (   1)   % compactness_se="(0.00000, 0.0600]"   texture_worst="(15.000, 31.0000]"   area_se="(67.00000, 482.0000]"   smoothness_worst="(0.0750, 0.1000]"   perimeter_se="(5.000, 8.3000]"   
   (   1))   % compactness_se="(0.0119, 0.0300]"   texture_worst="(15.000, 31.0000]"   area_se="(67.00000, 482.0000]"   smoothness_worst="(0.0750, 0.1000]"   perimeter_se="(5.000, 8.3000]"   
   ((   1)   % compactness_se="(0.0000, 0.1000]"   texture_worst="(31.000, 34.6000]"   area_se="(67.00000, 482.0000]"   smoothness_worst="(0.0750, 0.1000]"   perimeter_se="(5.000, 8.3000]"   
   (   1)   % compactness_se="(0.00000, 0.0600]"   texture_worst="(31.000, 34.6000]"   area_se="(67.00000, 482.0000]"   smoothness_worst="(0.0750, 0.1000]"   perimeter_se="(5.000, 8.3000]"   
   (   1))   % compactness_se="(0.0119, 0.0300]"   texture_worst="(31.000, 34.6000]"   area_se="(67.00000, 482.0000]"   smoothness_worst="(0.0750, 0.1000]"   perimeter_se="(5.000, 8.3000]"   
   ((   1)   % compactness_se="(0.0000, 0.1000]"   texture_worst="(34.0000, 40.7000]"   area_se="(67.00000, 482.0000]"   smoothness_worst="(0.0750, 0.1000]"   perimeter_se="(5.000, 8.3000]"   
   (   1)   % compactness_se="(0.00000, 0.0600]"   texture_worst="(34.0000, 40.7000]"   area_se="(67.00000, 482.0000]"   smoothness_worst="(0.0750, 0.1000]"   perimeter_se="(5.000, 8.3000]"   
   (   1)))))   % compactness_se="(0.0119, 0.0300]"   texture_worst="(34.0000, 40.7000]"   area_se="(67.00000, 482.0000]"   smoothness_worst="(0.0750, 0.1000]"   perimeter_se="(5.000, 8.3000]"   
   (((((   1)   % compactness_se="(0.0000, 0.1000]"   texture_worst="(15.000, 31.0000]"   area_se="(12.0000, 67.6000]"   smoothness_worst="(0.000, 0.2000]"   perimeter_se="(8.0000, 21.8000]"   
   (   1)   % compactness_se="(0.00000, 0.0600]"   texture_worst="(15.000, 31.0000]"   area_se="(12.0000, 67.6000]"   smoothness_worst="(0.000, 0.2000]"   perimeter_se="(8.0000, 21.8000]"   
   (   1))   % compactness_se="(0.0119, 0.0300]"   texture_worst="(15.000, 31.0000]"   area_se="(12.0000, 67.6000]"   smoothness_worst="(0.000, 0.2000]"   perimeter_se="(8.0000, 21.8000]"   
   ((   1)   % compactness_se="(0.0000, 0.1000]"   texture_worst="(31.000, 34.6000]"   area_se="(12.0000, 67.6000]"   smoothness_worst="(0.000, 0.2000]"   perimeter_se="(8.0000, 21.8000]"   
   (   1)   % compactness_se="(0.00000, 0.0600]"   texture_worst="(31.000, 34.6000]"   area_se="(12.0000, 67.6000]"   smoothness_worst="(0.000, 0.2000]"   perimeter_se="(8.0000, 21.8000]"   
   (   1))   % compactness_se="(0.0119, 0.0300]"   texture_worst="(31.000, 34.6000]"   area_se="(12.0000, 67.6000]"   smoothness_worst="(0.000, 0.2000]"   perimeter_se="(8.0000, 21.8000]"   
   ((   1)   % compactness_se="(0.0000, 0.1000]"   texture_worst="(34.0000, 40.7000]"   area_se="(12.0000, 67.6000]"   smoothness_worst="(0.000, 0.2000]"   perimeter_se="(8.0000, 21.8000]"   
   (   1)   % compactness_se="(0.00000, 0.0600]"   texture_worst="(34.0000, 40.7000]"   area_se="(12.0000, 67.6000]"   smoothness_worst="(0.000, 0.2000]"   perimeter_se="(8.0000, 21.8000]"   
   (   1)))   % compactness_se="(0.0119, 0.0300]"   texture_worst="(34.0000, 40.7000]"   area_se="(12.0000, 67.6000]"   smoothness_worst="(0.000, 0.2000]"   perimeter_se="(8.0000, 21.8000]"   
   (((   1)   % compactness_se="(0.0000, 0.1000]"   texture_worst="(15.000, 31.0000]"   area_se="(482.00000, 534.1000]"   smoothness_worst="(0.000, 0.2000]"   perimeter_se="(8.0000, 21.8000]"   
   (   1)   % compactness_se="(0.00000, 0.0600]"   texture_worst="(15.000, 31.0000]"   area_se="(482.00000, 534.1000]"   smoothness_worst="(0.000, 0.2000]"   perimeter_se="(8.0000, 21.8000]"   
   (   1))   % compactness_se="(0.0119, 0.0300]"   texture_worst="(15.000, 31.0000]"   area_se="(482.00000, 534.1000]"   smoothness_worst="(0.000, 0.2000]"   perimeter_se="(8.0000, 21.8000]"   
   ((   1)   % compactness_se="(0.0000, 0.1000]"   texture_worst="(31.000, 34.6000]"   area_se="(482.00000, 534.1000]"   smoothness_worst="(0.000, 0.2000]"   perimeter_se="(8.0000, 21.8000]"   
   (   1)   % compactness_se="(0.00000, 0.0600]"   texture_worst="(31.000, 34.6000]"   area_se="(482.00000, 534.1000]"   smoothness_worst="(0.000, 0.2000]"   perimeter_se="(8.0000, 21.8000]"   
   (   1))   % compactness_se="(0.0119, 0.0300]"   texture_worst="(31.000, 34.6000]"   area_se="(482.00000, 534.1000]"   smoothness_worst="(0.000, 0.2000]"   perimeter_se="(8.0000, 21.8000]"   
   ((   1)   % compactness_se="(0.0000, 0.1000]"   texture_worst="(34.0000, 40.7000]"   area_se="(482.00000, 534.1000]"   smoothness_worst="(0.000, 0.2000]"   perimeter_se="(8.0000, 21.8000]"   
   (   1)   % compactness_se="(0.00000, 0.0600]"   texture_worst="(34.0000, 40.7000]"   area_se="(482.00000, 534.1000]"   smoothness_worst="(0.000, 0.2000]"   perimeter_se="(8.0000, 21.8000]"   
   (   1)))   % compactness_se="(0.0119, 0.0300]"   texture_worst="(34.0000, 40.7000]"   area_se="(482.00000, 534.1000]"   smoothness_worst="(0.000, 0.2000]"   perimeter_se="(8.0000, 21.8000]"   
   (((   1)   % compactness_se="(0.0000, 0.1000]"   texture_worst="(15.000, 31.0000]"   area_se="(67.00000, 482.0000]"   smoothness_worst="(0.000, 0.2000]"   perimeter_se="(8.0000, 21.8000]"   
   (   1)   % compactness_se="(0.00000, 0.0600]"   texture_worst="(15.000, 31.0000]"   area_se="(67.00000, 482.0000]"   smoothness_worst="(0.000, 0.2000]"   perimeter_se="(8.0000, 21.8000]"   
   (   1))   % compactness_se="(0.0119, 0.0300]"   texture_worst="(15.000, 31.0000]"   area_se="(67.00000, 482.0000]"   smoothness_worst="(0.000, 0.2000]"   perimeter_se="(8.0000, 21.8000]"   
   ((   1)   % compactness_se="(0.0000, 0.1000]"   texture_worst="(31.000, 34.6000]"   area_se="(67.00000, 482.0000]"   smoothness_worst="(0.000, 0.2000]"   perimeter_se="(8.0000, 21.8000]"   
   (   1)   % compactness_se="(0.00000, 0.0600]"   texture_worst="(31.000, 34.6000]"   area_se="(67.00000, 482.0000]"   smoothness_worst="(0.000, 0.2000]"   perimeter_se="(8.0000, 21.8000]"   
   (   1))   % compactness_se="(0.0119, 0.0300]"   texture_worst="(31.000, 34.6000]"   area_se="(67.00000, 482.0000]"   smoothness_worst="(0.000, 0.2000]"   perimeter_se="(8.0000, 21.8000]"   
   ((   1)   % compactness_se="(0.0000, 0.1000]"   texture_worst="(34.0000, 40.7000]"   area_se="(67.00000, 482.0000]"   smoothness_worst="(0.000, 0.2000]"   perimeter_se="(8.0000, 21.8000]"   
   (   1)   % compactness_se="(0.00000, 0.0600]"   texture_worst="(34.0000, 40.7000]"   area_se="(67.00000, 482.0000]"   smoothness_worst="(0.000, 0.2000]"   perimeter_se="(8.0000, 21.8000]"   
   (   1))))   % compactness_se="(0.0119, 0.0300]"   texture_worst="(34.0000, 40.7000]"   area_se="(67.00000, 482.0000]"   smoothness_worst="(0.000, 0.2000]"   perimeter_se="(8.0000, 21.8000]"   
   ((((   1)   % compactness_se="(0.0000, 0.1000]"   texture_worst="(15.000, 31.0000]"   area_se="(12.0000, 67.6000]"   smoothness_worst="(0.0750, 0.1000]"   perimeter_se="(8.0000, 21.8000]"   
   (   1)   % compactness_se="(0.00000, 0.0600]"   texture_worst="(15.000, 31.0000]"   area_se="(12.0000, 67.6000]"   smoothness_worst="(0.0750, 0.1000]"   perimeter_se="(8.0000, 21.8000]"   
   (   1))   % compactness_se="(0.0119, 0.0300]"   texture_worst="(15.000, 31.0000]"   area_se="(12.0000, 67.6000]"   smoothness_worst="(0.0750, 0.1000]"   perimeter_se="(8.0000, 21.8000]"   
   ((   1)   % compactness_se="(0.0000, 0.1000]"   texture_worst="(31.000, 34.6000]"   area_se="(12.0000, 67.6000]"   smoothness_worst="(0.0750, 0.1000]"   perimeter_se="(8.0000, 21.8000]"   
   (   1)   % compactness_se="(0.00000, 0.0600]"   texture_worst="(31.000, 34.6000]"   area_se="(12.0000, 67.6000]"   smoothness_worst="(0.0750, 0.1000]"   perimeter_se="(8.0000, 21.8000]"   
   (   1))   % compactness_se="(0.0119, 0.0300]"   texture_worst="(31.000, 34.6000]"   area_se="(12.0000, 67.6000]"   smoothness_worst="(0.0750, 0.1000]"   perimeter_se="(8.0000, 21.8000]"   
   ((   1)   % compactness_se="(0.0000, 0.1000]"   texture_worst="(34.0000, 40.7000]"   area_se="(12.0000, 67.6000]"   smoothness_worst="(0.0750, 0.1000]"   perimeter_se="(8.0000, 21.8000]"   
   (   1)   % compactness_se="(0.00000, 0.0600]"   texture_worst="(34.0000, 40.7000]"   area_se="(12.0000, 67.6000]"   smoothness_worst="(0.0750, 0.1000]"   perimeter_se="(8.0000, 21.8000]"   
   (   1)))   % compactness_se="(0.0119, 0.0300]"   texture_worst="(34.0000, 40.7000]"   area_se="(12.0000, 67.6000]"   smoothness_worst="(0.0750, 0.1000]"   perimeter_se="(8.0000, 21.8000]"   
   (((   1)   % compactness_se="(0.0000, 0.1000]"   texture_worst="(15.000, 31.0000]"   area_se="(482.00000, 534.1000]"   smoothness_worst="(0.0750, 0.1000]"   perimeter_se="(8.0000, 21.8000]"   
   (   1)   % compactness_se="(0.00000, 0.0600]"   texture_worst="(15.000, 31.0000]"   area_se="(482.00000, 534.1000]"   smoothness_worst="(0.0750, 0.1000]"   perimeter_se="(8.0000, 21.8000]"   
   (   1))   % compactness_se="(0.0119, 0.0300]"   texture_worst="(15.000, 31.0000]"   area_se="(482.00000, 534.1000]"   smoothness_worst="(0.0750, 0.1000]"   perimeter_se="(8.0000, 21.8000]"   
   ((   1)   % compactness_se="(0.0000, 0.1000]"   texture_worst="(31.000, 34.6000]"   area_se="(482.00000, 534.1000]"   smoothness_worst="(0.0750, 0.1000]"   perimeter_se="(8.0000, 21.8000]"   
   (   1)   % compactness_se="(0.00000, 0.0600]"   texture_worst="(31.000, 34.6000]"   area_se="(482.00000, 534.1000]"   smoothness_worst="(0.0750, 0.1000]"   perimeter_se="(8.0000, 21.8000]"   
   (   1))   % compactness_se="(0.0119, 0.0300]"   texture_worst="(31.000, 34.6000]"   area_se="(482.00000, 534.1000]"   smoothness_worst="(0.0750, 0.1000]"   perimeter_se="(8.0000, 21.8000]"   
   ((   1)   % compactness_se="(0.0000, 0.1000]"   texture_worst="(34.0000, 40.7000]"   area_se="(482.00000, 534.1000]"   smoothness_worst="(0.0750, 0.1000]"   perimeter_se="(8.0000, 21.8000]"   
   (   1)   % compactness_se="(0.00000, 0.0600]"   texture_worst="(34.0000, 40.7000]"   area_se="(482.00000, 534.1000]"   smoothness_worst="(0.0750, 0.1000]"   perimeter_se="(8.0000, 21.8000]"   
   (   1)))   % compactness_se="(0.0119, 0.0300]"   texture_worst="(34.0000, 40.7000]"   area_se="(482.00000, 534.1000]"   smoothness_worst="(0.0750, 0.1000]"   perimeter_se="(8.0000, 21.8000]"   
   (((   1)   % compactness_se="(0.0000, 0.1000]"   texture_worst="(15.000, 31.0000]"   area_se="(67.00000, 482.0000]"   smoothness_worst="(0.0750, 0.1000]"   perimeter_se="(8.0000, 21.8000]"   
   (   1)   % compactness_se="(0.00000, 0.0600]"   texture_worst="(15.000, 31.0000]"   area_se="(67.00000, 482.0000]"   smoothness_worst="(0.0750, 0.1000]"   perimeter_se="(8.0000, 21.8000]"   
   (   1))   % compactness_se="(0.0119, 0.0300]"   texture_worst="(15.000, 31.0000]"   area_se="(67.00000, 482.0000]"   smoothness_worst="(0.0750, 0.1000]"   perimeter_se="(8.0000, 21.8000]"   
   ((   1)   % compactness_se="(0.0000, 0.1000]"   texture_worst="(31.000, 34.6000]"   area_se="(67.00000, 482.0000]"   smoothness_worst="(0.0750, 0.1000]"   perimeter_se="(8.0000, 21.8000]"   
   (   1)   % compactness_se="(0.00000, 0.0600]"   texture_worst="(31.000, 34.6000]"   area_se="(67.00000, 482.0000]"   smoothness_worst="(0.0750, 0.1000]"   perimeter_se="(8.0000, 21.8000]"   
   (   1))   % compactness_se="(0.0119, 0.0300]"   texture_worst="(31.000, 34.6000]"   area_se="(67.00000, 482.0000]"   smoothness_worst="(0.0750, 0.1000]"   perimeter_se="(8.0000, 21.8000]"   
   ((   1)   % compactness_se="(0.0000, 0.1000]"   texture_worst="(34.0000, 40.7000]"   area_se="(67.00000, 482.0000]"   smoothness_worst="(0.0750, 0.1000]"   perimeter_se="(8.0000, 21.8000]"   
   (   1)   % compactness_se="(0.00000, 0.0600]"   texture_worst="(34.0000, 40.7000]"   area_se="(67.00000, 482.0000]"   smoothness_worst="(0.0750, 0.1000]"   perimeter_se="(8.0000, 21.8000]"   
   (   1))))));   % compactness_se="(0.0119, 0.0300]"   texture_worst="(34.0000, 40.7000]"   area_se="(67.00000, 482.0000]"   smoothness_worst="(0.0750, 0.1000]"   perimeter_se="(8.0000, 21.8000]"   
}

potential ( symmetry_worst | concavity_worst   fractal_dimension_worst   ) {
   data = 
   (((   0.986486   0.0135135)   % concavity_worst="(0.000, 1.1000]"   fractal_dimension_worst="(0.0000, 0.1000]"   
   (   0.5   0.5))   % concavity_worst="(0.0029, 0.5000]"   fractal_dimension_worst="(0.0000, 0.1000]"   
   ((   0.836634   0.163366)   % concavity_worst="(0.000, 1.1000]"   fractal_dimension_worst="(0.00000, 0.0700]"   
   (   0.999532   0.000467727)));   % concavity_worst="(0.0029, 0.5000]"   fractal_dimension_worst="(0.00000, 0.0700]"   
}

potential ( fractal_dimension_worst | concavity_worst   ) {
   data = 
   ((   0.268116   0.731884)   % concavity_worst="(0.000, 1.1000]"   
   (   0.000934579   0.999065));   % concavity_worst="(0.0029, 0.5000]"   
}

potential ( diagnosis | texture_worst   area_se   smoothness_worst   perimeter_se   compactness_se   ) {
   data = 
   ((((((   1)   % texture_worst="(15.000, 31.0000]"   area_se="(12.0000, 67.6000]"   smoothness_worst="(0.000, 0.2000]"   perimeter_se="(2.0100, 5.2000]"   compactness_se="(0.0000, 0.1000]"   
   (   1)   % texture_worst="(31.000, 34.6000]"   area_se="(12.0000, 67.6000]"   smoothness_worst="(0.000, 0.2000]"   perimeter_se="(2.0100, 5.2000]"   compactness_se="(0.0000, 0.1000]"   
   (   1))   % texture_worst="(34.0000, 40.7000]"   area_se="(12.0000, 67.6000]"   smoothness_worst="(0.000, 0.2000]"   perimeter_se="(2.0100, 5.2000]"   compactness_se="(0.0000, 0.1000]"   
   ((   1)   % texture_worst="(15.000, 31.0000]"   area_se="(482.00000, 534.1000]"   smoothness_worst="(0.000, 0.2000]"   perimeter_se="(2.0100, 5.2000]"   compactness_se="(0.0000, 0.1000]"   
   (   1)   % texture_worst="(31.000, 34.6000]"   area_se="(482.00000, 534.1000]"   smoothness_worst="(0.000, 0.2000]"   perimeter_se="(2.0100, 5.2000]"   compactness_se="(0.0000, 0.1000]"   
   (   1))   % texture_worst="(34.0000, 40.7000]"   area_se="(482.00000, 534.1000]"   smoothness_worst="(0.000, 0.2000]"   perimeter_se="(2.0100, 5.2000]"   compactness_se="(0.0000, 0.1000]"   
   ((   1)   % texture_worst="(15.000, 31.0000]"   area_se="(67.00000, 482.0000]"   smoothness_worst="(0.000, 0.2000]"   perimeter_se="(2.0100, 5.2000]"   compactness_se="(0.0000, 0.1000]"   
   (   1)   % texture_worst="(31.000, 34.6000]"   area_se="(67.00000, 482.0000]"   smoothness_worst="(0.000, 0.2000]"   perimeter_se="(2.0100, 5.2000]"   compactness_se="(0.0000, 0.1000]"   
   (   1)))   % texture_worst="(34.0000, 40.7000]"   area_se="(67.00000, 482.0000]"   smoothness_worst="(0.000, 0.2000]"   perimeter_se="(2.0100, 5.2000]"   compactness_se="(0.0000, 0.1000]"   
   (((   1)   % texture_worst="(15.000, 31.0000]"   area_se="(12.0000, 67.6000]"   smoothness_worst="(0.0750, 0.1000]"   perimeter_se="(2.0100, 5.2000]"   compactness_se="(0.0000, 0.1000]"   
   (   1)   % texture_worst="(31.000, 34.6000]"   area_se="(12.0000, 67.6000]"   smoothness_worst="(0.0750, 0.1000]"   perimeter_se="(2.0100, 5.2000]"   compactness_se="(0.0000, 0.1000]"   
   (   1))   % texture_worst="(34.0000, 40.7000]"   area_se="(12.0000, 67.6000]"   smoothness_worst="(0.0750, 0.1000]"   perimeter_se="(2.0100, 5.2000]"   compactness_se="(0.0000, 0.1000]"   
   ((   1)   % texture_worst="(15.000, 31.0000]"   area_se="(482.00000, 534.1000]"   smoothness_worst="(0.0750, 0.1000]"   perimeter_se="(2.0100, 5.2000]"   compactness_se="(0.0000, 0.1000]"   
   (   1)   % texture_worst="(31.000, 34.6000]"   area_se="(482.00000, 534.1000]"   smoothness_worst="(0.0750, 0.1000]"   perimeter_se="(2.0100, 5.2000]"   compactness_se="(0.0000, 0.1000]"   
   (   1))   % texture_worst="(34.0000, 40.7000]"   area_se="(482.00000, 534.1000]"   smoothness_worst="(0.0750, 0.1000]"   perimeter_se="(2.0100, 5.2000]"   compactness_se="(0.0000, 0.1000]"   
   ((   1)   % texture_worst="(15.000, 31.0000]"   area_se="(67.00000, 482.0000]"   smoothness_worst="(0.0750, 0.1000]"   perimeter_se="(2.0100, 5.2000]"   compactness_se="(0.0000, 0.1000]"   
   (   1)   % texture_worst="(31.000, 34.6000]"   area_se="(67.00000, 482.0000]"   smoothness_worst="(0.0750, 0.1000]"   perimeter_se="(2.0100, 5.2000]"   compactness_se="(0.0000, 0.1000]"   
   (   1))))   % texture_worst="(34.0000, 40.7000]"   area_se="(67.00000, 482.0000]"   smoothness_worst="(0.0750, 0.1000]"   perimeter_se="(2.0100, 5.2000]"   compactness_se="(0.0000, 0.1000]"   
   ((((   1)   % texture_worst="(15.000, 31.0000]"   area_se="(12.0000, 67.6000]"   smoothness_worst="(0.000, 0.2000]"   perimeter_se="(5.000, 8.3000]"   compactness_se="(0.0000, 0.1000]"   
   (   1)   % texture_worst="(31.000, 34.6000]"   area_se="(12.0000, 67.6000]"   smoothness_worst="(0.000, 0.2000]"   perimeter_se="(5.000, 8.3000]"   compactness_se="(0.0000, 0.1000]"   
   (   1))   % texture_worst="(34.0000, 40.7000]"   area_se="(12.0000, 67.6000]"   smoothness_worst="(0.000, 0.2000]"   perimeter_se="(5.000, 8.3000]"   compactness_se="(0.0000, 0.1000]"   
   ((   1)   % texture_worst="(15.000, 31.0000]"   area_se="(482.00000, 534.1000]"   smoothness_worst="(0.000, 0.2000]"   perimeter_se="(5.000, 8.3000]"   compactness_se="(0.0000, 0.1000]"   
   (   1)   % texture_worst="(31.000, 34.6000]"   area_se="(482.00000, 534.1000]"   smoothness_worst="(0.000, 0.2000]"   perimeter_se="(5.000, 8.3000]"   compactness_se="(0.0000, 0.1000]"   
   (   1))   % texture_worst="(34.0000, 40.7000]"   area_se="(482.00000, 534.1000]"   smoothness_worst="(0.000, 0.2000]"   perimeter_se="(5.000, 8.3000]"   compactness_se="(0.0000, 0.1000]"   
   ((   1)   % texture_worst="(15.000, 31.0000]"   area_se="(67.00000, 482.0000]"   smoothness_worst="(0.000, 0.2000]"   perimeter_se="(5.000, 8.3000]"   compactness_se="(0.0000, 0.1000]"   
   (   1)   % texture_worst="(31.000, 34.6000]"   area_se="(67.00000, 482.0000]"   smoothness_worst="(0.000, 0.2000]"   perimeter_se="(5.000, 8.3000]"   compactness_se="(0.0000, 0.1000]"   
   (   1)))   % texture_worst="(34.0000, 40.7000]"   area_se="(67.00000, 482.0000]"   smoothness_worst="(0.000, 0.2000]"   perimeter_se="(5.000, 8.3000]"   compactness_se="(0.0000, 0.1000]"   
   (((   1)   % texture_worst="(15.000, 31.0000]"   area_se="(12.0000, 67.6000]"   smoothness_worst="(0.0750, 0.1000]"   perimeter_se="(5.000, 8.3000]"   compactness_se="(0.0000, 0.1000]"   
   (   1)   % texture_worst="(31.000, 34.6000]"   area_se="(12.0000, 67.6000]"   smoothness_worst="(0.0750, 0.1000]"   perimeter_se="(5.000, 8.3000]"   compactness_se="(0.0000, 0.1000]"   
   (   1))   % texture_worst="(34.0000, 40.7000]"   area_se="(12.0000, 67.6000]"   smoothness_worst="(0.0750, 0.1000]"   perimeter_se="(5.000, 8.3000]"   compactness_se="(0.0000, 0.1000]"   
   ((   1)   % texture_worst="(15.000, 31.0000]"   area_se="(482.00000, 534.1000]"   smoothness_worst="(0.0750, 0.1000]"   perimeter_se="(5.000, 8.3000]"   compactness_se="(0.0000, 0.1000]"   
   (   1)   % texture_worst="(31.000, 34.6000]"   area_se="(482.00000, 534.1000]"   smoothness_worst="(0.0750, 0.1000]"   perimeter_se="(5.000, 8.3000]"   compactness_se="(0.0000, 0.1000]"   
   (   1))   % texture_worst="(34.0000, 40.7000]"   area_se="(482.00000, 534.1000]"   smoothness_worst="(0.0750, 0.1000]"   perimeter_se="(5.000, 8.3000]"   compactness_se="(0.0000, 0.1000]"   
   ((   1)   % texture_worst="(15.000, 31.0000]"   area_se="(67.00000, 482.0000]"   smoothness_worst="(0.0750, 0.1000]"   perimeter_se="(5.000, 8.3000]"   compactness_se="(0.0000, 0.1000]"   
   (   1)   % texture_worst="(31.000, 34.6000]"   area_se="(67.00000, 482.0000]"   smoothness_worst="(0.0750, 0.1000]"   perimeter_se="(5.000, 8.3000]"   compactness_se="(0.0000, 0.1000]"   
   (   1))))   % texture_worst="(34.0000, 40.7000]"   area_se="(67.00000, 482.0000]"   smoothness_worst="(0.0750, 0.1000]"   perimeter_se="(5.000, 8.3000]"   compactness_se="(0.0000, 0.1000]"   
   ((((   1)   % texture_worst="(15.000, 31.0000]"   area_se="(12.0000, 67.6000]"   smoothness_worst="(0.000, 0.2000]"   perimeter_se="(8.0000, 21.8000]"   compactness_se="(0.0000, 0.1000]"   
   (   1)   % texture_worst="(31.000, 34.6000]"   area_se="(12.0000, 67.6000]"   smoothness_worst="(0.000, 0.2000]"   perimeter_se="(8.0000, 21.8000]"   compactness_se="(0.0000, 0.1000]"   
   (   1))   % texture_worst="(34.0000, 40.7000]"   area_se="(12.0000, 67.6000]"   smoothness_worst="(0.000, 0.2000]"   perimeter_se="(8.0000, 21.8000]"   compactness_se="(0.0000, 0.1000]"   
   ((   1)   % texture_worst="(15.000, 31.0000]"   area_se="(482.00000, 534.1000]"   smoothness_worst="(0.000, 0.2000]"   perimeter_se="(8.0000, 21.8000]"   compactness_se="(0.0000, 0.1000]"   
   (   1)   % texture_worst="(31.000, 34.6000]"   area_se="(482.00000, 534.1000]"   smoothness_worst="(0.000, 0.2000]"   perimeter_se="(8.0000, 21.8000]"   compactness_se="(0.0000, 0.1000]"   
   (   1))   % texture_worst="(34.0000, 40.7000]"   area_se="(482.00000, 534.1000]"   smoothness_worst="(0.000, 0.2000]"   perimeter_se="(8.0000, 21.8000]"   compactness_se="(0.0000, 0.1000]"   
   ((   1)   % texture_worst="(15.000, 31.0000]"   area_se="(67.00000, 482.0000]"   smoothness_worst="(0.000, 0.2000]"   perimeter_se="(8.0000, 21.8000]"   compactness_se="(0.0000, 0.1000]"   
   (   1)   % texture_worst="(31.000, 34.6000]"   area_se="(67.00000, 482.0000]"   smoothness_worst="(0.000, 0.2000]"   perimeter_se="(8.0000, 21.8000]"   compactness_se="(0.0000, 0.1000]"   
   (   1)))   % texture_worst="(34.0000, 40.7000]"   area_se="(67.00000, 482.0000]"   smoothness_worst="(0.000, 0.2000]"   perimeter_se="(8.0000, 21.8000]"   compactness_se="(0.0000, 0.1000]"   
   (((   1)   % texture_worst="(15.000, 31.0000]"   area_se="(12.0000, 67.6000]"   smoothness_worst="(0.0750, 0.1000]"   perimeter_se="(8.0000, 21.8000]"   compactness_se="(0.0000, 0.1000]"   
   (   1)   % texture_worst="(31.000, 34.6000]"   area_se="(12.0000, 67.6000]"   smoothness_worst="(0.0750, 0.1000]"   perimeter_se="(8.0000, 21.8000]"   compactness_se="(0.0000, 0.1000]"   
   (   1))   % texture_worst="(34.0000, 40.7000]"   area_se="(12.0000, 67.6000]"   smoothness_worst="(0.0750, 0.1000]"   perimeter_se="(8.0000, 21.8000]"   compactness_se="(0.0000, 0.1000]"   
   ((   1)   % texture_worst="(15.000, 31.0000]"   area_se="(482.00000, 534.1000]"   smoothness_worst="(0.0750, 0.1000]"   perimeter_se="(8.0000, 21.8000]"   compactness_se="(0.0000, 0.1000]"   
   (   1)   % texture_worst="(31.000, 34.6000]"   area_se="(482.00000, 534.1000]"   smoothness_worst="(0.0750, 0.1000]"   perimeter_se="(8.0000, 21.8000]"   compactness_se="(0.0000, 0.1000]"   
   (   1))   % texture_worst="(34.0000, 40.7000]"   area_se="(482.00000, 534.1000]"   smoothness_worst="(0.0750, 0.1000]"   perimeter_se="(8.0000, 21.8000]"   compactness_se="(0.0000, 0.1000]"   
   ((   1)   % texture_worst="(15.000, 31.0000]"   area_se="(67.00000, 482.0000]"   smoothness_worst="(0.0750, 0.1000]"   perimeter_se="(8.0000, 21.8000]"   compactness_se="(0.0000, 0.1000]"   
   (   1)   % texture_worst="(31.000, 34.6000]"   area_se="(67.00000, 482.0000]"   smoothness_worst="(0.0750, 0.1000]"   perimeter_se="(8.0000, 21.8000]"   compactness_se="(0.0000, 0.1000]"   
   (   1)))))   % texture_worst="(34.0000, 40.7000]"   area_se="(67.00000, 482.0000]"   smoothness_worst="(0.0750, 0.1000]"   perimeter_se="(8.0000, 21.8000]"   compactness_se="(0.0000, 0.1000]"   
   (((((   1)   % texture_worst="(15.000, 31.0000]"   area_se="(12.0000, 67.6000]"   smoothness_worst="(0.000, 0.2000]"   perimeter_se="(2.0100, 5.2000]"   compactness_se="(0.00000, 0.0600]"   
   (   1)   % texture_worst="(31.000, 34.6000]"   area_se="(12.0000, 67.6000]"   smoothness_worst="(0.000, 0.2000]"   perimeter_se="(2.0100, 5.2000]"   compactness_se="(0.00000, 0.0600]"   
   (   1))   % texture_worst="(34.0000, 40.7000]"   area_se="(12.0000, 67.6000]"   smoothness_worst="(0.000, 0.2000]"   perimeter_se="(2.0100, 5.2000]"   compactness_se="(0.00000, 0.0600]"   
   ((   1)   % texture_worst="(15.000, 31.0000]"   area_se="(482.00000, 534.1000]"   smoothness_worst="(0.000, 0.2000]"   perimeter_se="(2.0100, 5.2000]"   compactness_se="(0.00000, 0.0600]"   
   (   1)   % texture_worst="(31.000, 34.6000]"   area_se="(482.00000, 534.1000]"   smoothness_worst="(0.000, 0.2000]"   perimeter_se="(2.0100, 5.2000]"   compactness_se="(0.00000, 0.0600]"   
   (   1))   % texture_worst="(34.0000, 40.7000]"   area_se="(482.00000, 534.1000]"   smoothness_worst="(0.000, 0.2000]"   perimeter_se="(2.0100, 5.2000]"   compactness_se="(0.00000, 0.0600]"   
   ((   1)   % texture_worst="(15.000, 31.0000]"   area_se="(67.00000, 482.0000]"   smoothness_worst="(0.000, 0.2000]"   perimeter_se="(2.0100, 5.2000]"   compactness_se="(0.00000, 0.0600]"   
   (   1)   % texture_worst="(31.000, 34.6000]"   area_se="(67.00000, 482.0000]"   smoothness_worst="(0.000, 0.2000]"   perimeter_se="(2.0100, 5.2000]"   compactness_se="(0.00000, 0.0600]"   
   (   1)))   % texture_worst="(34.0000, 40.7000]"   area_se="(67.00000, 482.0000]"   smoothness_worst="(0.000, 0.2000]"   perimeter_se="(2.0100, 5.2000]"   compactness_se="(0.00000, 0.0600]"   
   (((   1)   % texture_worst="(15.000, 31.0000]"   area_se="(12.0000, 67.6000]"   smoothness_worst="(0.0750, 0.1000]"   perimeter_se="(2.0100, 5.2000]"   compactness_se="(0.00000, 0.0600]"   
