
net {
  name = unnamedBN;
  software = "aGrUM 0.17.0";
  node_size = (50 50);
}

node radius_mean {
   states = ("(8.0000, 27.2000]" );
   label = "radius_mean";
   ID = "radius_mean";
}

node texture_mean {
   states = ("(14.000, 34.0000]" "(34.000, 38.8000]" );
   label = "texture_mean";
   ID = "texture_mean";
}

node perimeter_mean {
   states = ("(163.00000, 188.4000]" "(62.00000, 163.4000]" );
   label = "perimeter_mean";
   ID = "perimeter_mean";
}

node area_mean {
   states = ("(1835.000000, 2235.5000]" "(197.8900, 1835.3000]" );
   label = "area_mean";
   ID = "area_mean";
}

node smoothness_mean {
   states = ("(0.000, 0.1000]" "(0.0000, 0.1000]" );
   label = "smoothness_mean";
   ID = "smoothness_mean";
}

node compactness_mean {
   states = ("(0.000, 0.3000]" "(0.0000, 0.2000]" );
   label = "compactness_mean";
   ID = "compactness_mean";
}

node concavity_mean {
   states = ("(0.0000, 0.4000]" );
   label = "concavity_mean";
   ID = "concavity_mean";
}

node concave points_mean {
   states = ("(-0.0059, 0.0000]" "(0.0000, 0.0900]" "(0.0000, 0.1000]" );
   label = "concave points_mean";
   ID = "concave points_mean";
}

node symmetry_mean {
   states = ("(0.00, 0.2000]" );
   label = "symmetry_mean";
   ID = "symmetry_mean";
}

node fractal_dimension_mean {
   states = ("(0.00000, 0.0700]" "(0.00000, 0.0900]" "(0.0419, 0.0500]" );
   label = "fractal_dimension_mean";
   ID = "fractal_dimension_mean";
}

node radius_se {
   states = ("(0.000, 0.2000]" "(0.000, 2.8000]" );
   label = "radius_se";
   ID = "radius_se";
}

node texture_se {
   states = ("(0.000, 1.7000]" "(1.000, 2.2000]" "(2.000, 3.7000]" );
   label = "texture_se";
   ID = "texture_se";
}

node perimeter_se {
   states = ("(2.000, 8.3000]" "(2.0100, 2.1000]" "(8.0000, 21.8000]" );
   label = "perimeter_se";
   ID = "perimeter_se";
}

node area_se {
   states = ("(12.000, 31.0000]" "(31.0000, 482.0000]" "(482.00000, 534.1000]" );
   label = "area_se";
   ID = "area_se";
}

node smoothness_se {
   states = ("(-0.0062, 0.0080]" "(0.0000, 0.0000]" "(0.0087, 0.0200]" );
   label = "smoothness_se";
   ID = "smoothness_se";
}

node compactness_se {
   states = ("(0.0000, 0.1000]" "(0.0119, 0.0600]" );
   label = "compactness_se";
   ID = "compactness_se";
}

node concavity_se {
   states = ("(0.0000, 0.2000]" "(0.00000, 0.0800]" );
   label = "concavity_se";
   ID = "concavity_se";
}

node concave points_se {
   states = ("(0.000, 0.0100]" "(0.00000, 0.0300]" );
   label = "concave points_se";
   ID = "concave points_se";
}

node symmetry_se {
   states = ("(-0.0017, 0.0200]" "(0.00000, 0.0500]" );
   label = "symmetry_se";
   ID = "symmetry_se";
}

node fractal_dimension_se {
   states = ("(-0.0088, 0.0050]" "(0.0054, 0.0060]" "(0.0064, 0.0090]" );
   label = "fractal_dimension_se";
   ID = "fractal_dimension_se";
}

node radius_worst {
   states = ("(11.0000, 15.7000]" "(15.0000, 33.4000]" "(33.0000, 35.2000]" );
   label = "radius_worst";
   ID = "radius_worst";
}

node texture_worst {
   states = ("(15.000, 31.0000]" "(31.000, 37.1000]" "(37.0000, 40.7000]" );
   label = "texture_worst";
   ID = "texture_worst";
}

node perimeter_worst {
   states = ("(106.00000, 144.5000]" "(144.00000, 236.5000]" );
   label = "perimeter_worst";
   ID = "perimeter_worst";
}

node area_worst {
   states = ("(257.00000, 762.4000]" "(762.000000, 3893.2000]" );
   label = "area_worst";
   ID = "area_worst";
}

node smoothness_worst {
   states = ("(0.000, 0.2000]" "(0.0750, 0.1000]" );
   label = "smoothness_worst";
   ID = "smoothness_worst";
}

node compactness_worst {
   states = ("(0.000, 0.9000]" );
   label = "compactness_worst";
   ID = "compactness_worst";
}

node concavity_worst {
   states = ("(0.000, 1.1000]" "(0.0029, 0.9000]" );
   label = "concavity_worst";
   ID = "concavity_worst";
}

node concave points_worst {
   states = ("(0.00, 0.0000]" "(0.0009, 0.1000]" );
   label = "concave points_worst";
   ID = "concave points_worst";
}

node symmetry_worst {
   states = ("(0.000, 0.5000]" "(0.000, 0.6000]" );
   label = "symmetry_worst";
   ID = "symmetry_worst";
}

node fractal_dimension_worst {
   states = ("(0.000, 0.1000]" "(0.0000, 0.1000]" );
   label = "fractal_dimension_worst";
   ID = "fractal_dimension_worst";
}

node diagnosis {
   states = (Yes );
   label = "diagnosis";
   ID = "diagnosis";
}

potential ( radius_mean | texture_se   symmetry_worst   ) {
   data = 
   (((   1)   % texture_se="(0.000, 1.7000]"   symmetry_worst="(0.000, 0.5000]"   
   (   1)   % texture_se="(1.000, 2.2000]"   symmetry_worst="(0.000, 0.5000]"   
   (   1))   % texture_se="(2.000, 3.7000]"   symmetry_worst="(0.000, 0.5000]"   
   ((   1)   % texture_se="(0.000, 1.7000]"   symmetry_worst="(0.000, 0.6000]"   
   (   1)   % texture_se="(1.000, 2.2000]"   symmetry_worst="(0.000, 0.6000]"   
   (   1)));   % texture_se="(2.000, 3.7000]"   symmetry_worst="(0.000, 0.6000]"   
}

potential ( texture_mean | compactness_mean   ) {
   data = 
   ((   0.977477   0.0225225)   % compactness_mean="(0.000, 0.3000]"   
   (   0.998986   0.0010142));   % compactness_mean="(0.0000, 0.2000]"   
}

potential ( perimeter_mean | compactness_mean   ) {
   data = 
   ((   0.0405405   0.959459)   % compactness_mean="(0.000, 0.3000]"   
   (   0.0010142   0.998986));   % compactness_mean="(0.0000, 0.2000]"   
}

potential ( area_mean | compactness_mean   ) {
   data = 
   ((   0.0585586   0.941441)   % compactness_mean="(0.000, 0.3000]"   
   (   0.0010142   0.998986));   % compactness_mean="(0.0000, 0.2000]"   
}

potential ( smoothness_mean | compactness_mean   ) {
   data = 
   ((   0.0945946   0.905405)   % compactness_mean="(0.000, 0.3000]"   
   (   0.0010142   0.998986));   % compactness_mean="(0.0000, 0.2000]"   
}

potential ( compactness_mean | concave points_mean   ) {
   data = 
   ((   0.722707   0.277293)   % concave points_mean="(-0.0059, 0.0000]"   
   (   0.000749625   0.99925)   % concave points_mean="(0.0000, 0.0900]"   
   (   0.05   0.95));   % concave points_mean="(0.0000, 0.1000]"   
}

potential ( concavity_mean | symmetry_worst   texture_se   ) {
   data = 
   (((   1)   % symmetry_worst="(0.000, 0.5000]"   texture_se="(0.000, 1.7000]"   
   (   1))   % symmetry_worst="(0.000, 0.6000]"   texture_se="(0.000, 1.7000]"   
   ((   1)   % symmetry_worst="(0.000, 0.5000]"   texture_se="(1.000, 2.2000]"   
   (   1))   % symmetry_worst="(0.000, 0.6000]"   texture_se="(1.000, 2.2000]"   
   ((   1)   % symmetry_worst="(0.000, 0.5000]"   texture_se="(2.000, 3.7000]"   
   (   1)));   % symmetry_worst="(0.000, 0.6000]"   texture_se="(2.000, 3.7000]"   
}

potential ( concave points_mean | fractal_dimension_mean   ) {
   data = 
   ((   0.824308   0.141998   0.0336943)   % fractal_dimension_mean="(0.00000, 0.0700]"   
   (   0.0151515   0.969697   0.0151515)   % fractal_dimension_mean="(0.00000, 0.0900]"   
   (   0.000549149   0.998902   0.000549149));   % fractal_dimension_mean="(0.0419, 0.0500]"   
}

potential ( symmetry_mean | texture_se   symmetry_worst   ) {
   data = 
   (((   1)   % texture_se="(0.000, 1.7000]"   symmetry_worst="(0.000, 0.5000]"   
   (   1)   % texture_se="(1.000, 2.2000]"   symmetry_worst="(0.000, 0.5000]"   
   (   1))   % texture_se="(2.000, 3.7000]"   symmetry_worst="(0.000, 0.5000]"   
   ((   1)   % texture_se="(0.000, 1.7000]"   symmetry_worst="(0.000, 0.6000]"   
   (   1)   % texture_se="(1.000, 2.2000]"   symmetry_worst="(0.000, 0.6000]"   
   (   1)));   % texture_se="(2.000, 3.7000]"   symmetry_worst="(0.000, 0.6000]"   
}

potential ( fractal_dimension_mean | radius_se   ) {
   data = 
   ((   0.899187   0.0699187   0.0308943)   % radius_se="(0.000, 0.2000]"   
   (   0.000835422   0.000835422   0.998329));   % radius_se="(0.000, 2.8000]"   
}

potential (radius_se) {
   data = (  0.339404 0.660596);
}

potential ( texture_se | radius_se   ) {
   data = 
   ((   0.996748   0.00162602   0.00162602)   % radius_se="(0.000, 0.2000]"   
   (   0.0659983   0.913116   0.0208855));   % radius_se="(0.000, 2.8000]"   
}

potential ( perimeter_se | texture_se   ) {
   data = 
   ((   0.000963391   0.998073   0.000963391)   % texture_se="(0.000, 1.7000]"   
   (   0.938452   0.0170628   0.0444851)   % texture_se="(1.000, 2.2000]"   
   (   0.025641   0.948718   0.025641));   % texture_se="(2.000, 3.7000]"   
}

potential ( area_se | perimeter_se   ) {
   data = 
   ((   0.0123217   0.981193   0.00648508)   % perimeter_se="(2.000, 8.3000]"   
   (   0.998183   0.000908265   0.000908265)   % perimeter_se="(2.0100, 2.1000]"   
   (   0.973333   0.0133333   0.0133333));   % perimeter_se="(8.0000, 21.8000]"   
}

potential ( smoothness_se | area_se   ) {
   data = 
   ((   0.998321   0.000839631   0.000839631)   % area_se="(12.000, 31.0000]"   
   (   0.0660066   0.00660066   0.927393)   % area_se="(31.0000, 482.0000]"   
   (   0.833333   0.0833333   0.0833333));   % area_se="(482.00000, 534.1000]"   
}

potential ( compactness_se | concavity_se   smoothness_se   ) {
   data = 
   (((   0.5   0.5)   % concavity_se="(0.0000, 0.2000]"   smoothness_se="(-0.0062, 0.0080]"   
   (   0.999422   0.000578035))   % concavity_se="(0.00000, 0.0800]"   smoothness_se="(-0.0062, 0.0080]"   
   ((   0.5   0.5)   % concavity_se="(0.0000, 0.2000]"   smoothness_se="(0.0000, 0.0000]"   
   (   0.928571   0.0714286))   % concavity_se="(0.00000, 0.0800]"   smoothness_se="(0.0000, 0.0000]"   
   ((   0.000616523   0.999383)   % concavity_se="(0.0000, 0.2000]"   smoothness_se="(0.0087, 0.0200]"   
   (   0.570866   0.429134)));   % concavity_se="(0.00000, 0.0800]"   smoothness_se="(0.0087, 0.0200]"   
}

potential ( concavity_se | smoothness_se   ) {
   data = 
   ((   0.00115473   0.998845)   % smoothness_se="(-0.0062, 0.0080]"   
   (   0.125   0.875)   % smoothness_se="(0.0000, 0.0000]"   
   (   0.864606   0.135394));   % smoothness_se="(0.0087, 0.0200]"   
}

potential ( concave points_se | concavity_se   ) {
   data = 
   ((   0.0535055   0.946494)   % concavity_se="(0.0000, 0.2000]"   
   (   0.998498   0.0015015));   % concavity_se="(0.00000, 0.0800]"   
}

potential ( symmetry_se | concave points_se   ) {
   data = 
   ((   0.00144092   0.998559)   % concave points_se="(0.000, 0.0100]"   
   (   0.881323   0.118677));   % concave points_se="(0.00000, 0.0300]"   
}

potential ( fractal_dimension_se | symmetry_se   ) {
   data = 
   ((   0.071953   0.891336   0.0367107)   % symmetry_se="(-0.0017, 0.0200]"   
   (   0.998232   0.000884173   0.000884173));   % symmetry_se="(0.00000, 0.0500]"   
}

potential ( radius_worst | fractal_dimension_se   ) {
   data = 
   ((   0.998868   0.000565931   0.000565931)   % fractal_dimension_se="(-0.0088, 0.0050]"   
   (   0.0208333   0.968202   0.0109649)   % fractal_dimension_se="(0.0054, 0.0060]"   
   (   0.948718   0.025641   0.025641));   % fractal_dimension_se="(0.0064, 0.0090]"   
}

potential ( texture_worst | radius_worst   ) {
   data = 
   ((   0.000549149   0.998902   0.000549149)   % radius_worst="(11.0000, 15.7000]"   
   (   0.875706   0.0926554   0.0316384)   % radius_worst="(15.0000, 33.4000]"   
   (   0.0833333   0.833333   0.0833333));   % radius_worst="(33.0000, 35.2000]"   
}

potential ( perimeter_worst | texture_worst   ) {
   data = 
   ((   0.916988   0.0830116)   % texture_worst="(15.000, 31.0000]"   
   (   0.999215   0.000784929)   % texture_worst="(31.000, 37.1000]"   
   (   0.95   0.05));   % texture_worst="(37.0000, 40.7000]"   
}

potential ( area_worst | texture_worst   perimeter_worst   ) {
   data = 
   (((   0.14   0.86)   % texture_worst="(15.000, 31.0000]"   perimeter_worst="(106.00000, 144.5000]"   
   (   0.999607   0.000392773)   % texture_worst="(31.000, 37.1000]"   perimeter_worst="(106.00000, 144.5000]"   
   (   0.973684   0.0263158))   % texture_worst="(37.0000, 40.7000]"   perimeter_worst="(106.00000, 144.5000]"   
   ((   0.988372   0.0116279)   % texture_worst="(15.000, 31.0000]"   perimeter_worst="(144.00000, 236.5000]"   
   (   0.5   0.5)   % texture_worst="(31.000, 37.1000]"   perimeter_worst="(144.00000, 236.5000]"   
   (   0.5   0.5)));   % texture_worst="(37.0000, 40.7000]"   perimeter_worst="(144.00000, 236.5000]"   
}

potential ( smoothness_worst | area_worst   ) {
   data = 
   ((   0.00107066   0.998929)   % area_worst="(257.00000, 762.4000]"   
   (   0.821168   0.178832));   % area_worst="(762.000000, 3893.2000]"   
}

potential ( compactness_worst | symmetry_worst   texture_se   ) {
   data = 
   (((   1)   % symmetry_worst="(0.000, 0.5000]"   texture_se="(0.000, 1.7000]"   
   (   1))   % symmetry_worst="(0.000, 0.6000]"   texture_se="(0.000, 1.7000]"   
   ((   1)   % symmetry_worst="(0.000, 0.5000]"   texture_se="(1.000, 2.2000]"   
   (   1))   % symmetry_worst="(0.000, 0.6000]"   texture_se="(1.000, 2.2000]"   
   ((   1)   % symmetry_worst="(0.000, 0.5000]"   texture_se="(2.000, 3.7000]"   
   (   1)));   % symmetry_worst="(0.000, 0.6000]"   texture_se="(2.000, 3.7000]"   
}

potential ( concavity_worst | smoothness_worst   ) {
   data = 
   ((   0.570796   0.429204)   % smoothness_worst="(0.000, 0.2000]"   
   (   0.00101833   0.998982));   % smoothness_worst="(0.0750, 0.1000]"   
}

potential ( concave points_worst | concavity_worst   ) {
   data = 
   ((   0.0384615   0.961538)   % concavity_worst="(0.000, 1.1000]"   
   (   0.000927644   0.999072));   % concavity_worst="(0.0029, 0.9000]"   
}

potential ( symmetry_worst | concavity_worst   ) {
   data = 
   ((   0.9   0.1)   % concavity_worst="(0.000, 1.1000]"   
   (   0.999072   0.000927644));   % concavity_worst="(0.0029, 0.9000]"   
}

potential ( fractal_dimension_worst | concavity_worst   ) {
   data = 
   ((   0.130769   0.869231)   % concavity_worst="(0.000, 1.1000]"   
   (   0.000927644   0.999072));   % concavity_worst="(0.0029, 0.9000]"   
}

potential ( diagnosis | symmetry_worst   texture_se   ) {
   data = 
   (((   1)   % symmetry_worst="(0.000, 0.5000]"   texture_se="(0.000, 1.7000]"   
   (   1))   % symmetry_worst="(0.000, 0.6000]"   texture_se="(0.000, 1.7000]"   
   ((   1)   % symmetry_worst="(0.000, 0.5000]"   texture_se="(1.000, 2.2000]"   
   (   1))   % symmetry_worst="(0.000, 0.6000]"   texture_se="(1.000, 2.2000]"   
   ((   1)   % symmetry_worst="(0.000, 0.5000]"   texture_se="(2.000, 3.7000]"   
   (   1)));   % symmetry_worst="(0.000, 0.6000]"   texture_se="(2.000, 3.7000]"   
}


