
net {
  name = unnamedBN;
  software = "aGrUM 0.17.0";
  node_size = (50 50);
}

node radius_mean {
   states = ("(8.0000, 27.2000]" );
   label = "radius_mean";
   ID = "radius_mean";
}

node texture_mean {
   states = ("(14.000, 34.0000]" "(34.000, 38.8000]" );
   label = "texture_mean";
   ID = "texture_mean";
}

node perimeter_mean {
   states = ("(163.00000, 188.4000]" "(62.00000, 163.4000]" );
   label = "perimeter_mean";
   ID = "perimeter_mean";
}

node area_mean {
   states = ("(1835.000000, 2235.5000]" "(197.8900, 1835.3000]" );
   label = "area_mean";
   ID = "area_mean";
}

node smoothness_mean {
   states = ("(0.000, 0.1000]" "(0.0000, 0.1000]" );
   label = "smoothness_mean";
   ID = "smoothness_mean";
}

node compactness_mean {
   states = ("(0.000, 0.3000]" "(0.0000, 0.2000]" );
   label = "compactness_mean";
   ID = "compactness_mean";
}

node concavity_mean {
   states = ("(0.0000, 0.4000]" );
   label = "concavity_mean";
   ID = "concavity_mean";
}

node concave points_mean {
   states = ("(-0.0059, 0.0000]" "(0.0000, 0.0900]" "(0.0000, 0.1000]" );
   label = "concave points_mean";
   ID = "concave points_mean";
}

node symmetry_mean {
   states = ("(0.00, 0.1000]" "(0.000, 0.2000]" );
   label = "symmetry_mean";
   ID = "symmetry_mean";
}

node fractal_dimension_mean {
   states = ("(0.00000, 0.0500]" "(0.00000, 0.0900]" "(0.0419, 0.0500]" );
   label = "fractal_dimension_mean";
   ID = "fractal_dimension_mean";
}

node radius_se {
   states = ("(0.000, 0.7000]" "(0.000, 2.8000]" );
   label = "radius_se";
   ID = "radius_se";
}

node texture_se {
   states = ("(0.000, 1.1000]" "(1.000, 2.2000]" "(2.000, 3.7000]" );
   label = "texture_se";
   ID = "texture_se";
}

node perimeter_se {
   states = ("(2.0100, 4.7000]" "(4.000, 8.3000]" "(8.0000, 21.8000]" );
   label = "perimeter_se";
   ID = "perimeter_se";
}

node area_se {
   states = ("(109.00000, 482.0000]" "(12.00000, 109.9000]" "(482.00000, 534.1000]" );
   label = "area_se";
   ID = "area_se";
}

node smoothness_se {
   states = ("(-0.0062, 0.0060]" "(0.0000, 0.0000]" "(0.0064, 0.0200]" );
   label = "smoothness_se";
   ID = "smoothness_se";
}

node compactness_se {
   states = ("(0.0000, 0.1000]" "(0.00000, 0.0600]" "(0.0119, 0.0200]" );
   label = "compactness_se";
   ID = "compactness_se";
}

node concavity_se {
   states = ("(0.000, 0.2000]" );
   label = "concavity_se";
   ID = "concavity_se";
}

node concave points_se {
   states = ("(-0.0016, 0.0300]" );
   label = "concave points_se";
   ID = "concave points_se";
}

node symmetry_se {
   states = ("(-0.0017, 0.0100]" "(0.00000, 0.0200]" "(0.00000, 0.0500]" );
   label = "symmetry_se";
   ID = "symmetry_se";
}

node fractal_dimension_se {
   states = ("(-0.0088, 0.0010]" "(0.0015, 0.0060]" "(0.0064, 0.0090]" );
   label = "fractal_dimension_se";
   ID = "fractal_dimension_se";
}

node radius_worst {
   states = ("(11.000, 27.0000]" "(27.000, 33.4000]" "(33.0000, 35.2000]" );
   label = "radius_worst";
   ID = "radius_worst";
}

node texture_worst {
   states = ("(15.000, 31.0000]" "(31.000, 45.4000]" );
   label = "texture_worst";
   ID = "texture_worst";
}

node perimeter_worst {
   states = ("(121.0899, 168.5000]" "(168.00000, 180.2000]" "(180.00000, 236.5000]" );
   label = "perimeter_worst";
   ID = "perimeter_worst";
}

node area_worst {
   states = ("(2477.00000, 3893.2000]" "(257.00000, 2477.0000]" );
   label = "area_worst";
   ID = "area_worst";
}

node smoothness_worst {
   states = ("(0.000, 0.2000]" "(0.0750, 0.1000]" );
   label = "smoothness_worst";
   ID = "smoothness_worst";
}

node compactness_worst {
   states = ("(0.000, 0.4000]" "(0.000, 0.9000]" );
   label = "compactness_worst";
   ID = "compactness_worst";
}

node concavity_worst {
   states = ("(0.000, 1.1000]" "(0.0029, 0.4000]" );
   label = "concavity_worst";
   ID = "concavity_worst";
}

node concave points_worst {
   states = ("(0.00, 0.0000]" "(0.0009, 0.1000]" );
   label = "concave points_worst";
   ID = "concave points_worst";
}

node symmetry_worst {
   states = ("(0.000, 0.2000]" "(0.000, 0.6000]" );
   label = "symmetry_worst";
   ID = "symmetry_worst";
}

node fractal_dimension_worst {
   states = ("(0.0000, 0.1000]" "(0.00000, 0.0700]" );
   label = "fractal_dimension_worst";
   ID = "fractal_dimension_worst";
}

node diagnosis {
   states = (Yes );
   label = "diagnosis";
   ID = "diagnosis";
}

potential ( radius_mean | texture_se   perimeter_worst   smoothness_se   compactness_se   area_worst   ) {
   data = 
   ((((((   1)   % texture_se="(0.000, 1.1000]"   perimeter_worst="(121.0899, 168.5000]"   smoothness_se="(-0.0062, 0.0060]"   compactness_se="(0.0000, 0.1000]"   area_worst="(2477.00000, 3893.2000]"   
   (   1)   % texture_se="(1.000, 2.2000]"   perimeter_worst="(121.0899, 168.5000]"   smoothness_se="(-0.0062, 0.0060]"   compactness_se="(0.0000, 0.1000]"   area_worst="(2477.00000, 3893.2000]"   
   (   1))   % texture_se="(2.000, 3.7000]"   perimeter_worst="(121.0899, 168.5000]"   smoothness_se="(-0.0062, 0.0060]"   compactness_se="(0.0000, 0.1000]"   area_worst="(2477.00000, 3893.2000]"   
   ((   1)   % texture_se="(0.000, 1.1000]"   perimeter_worst="(168.00000, 180.2000]"   smoothness_se="(-0.0062, 0.0060]"   compactness_se="(0.0000, 0.1000]"   area_worst="(2477.00000, 3893.2000]"   
   (   1)   % texture_se="(1.000, 2.2000]"   perimeter_worst="(168.00000, 180.2000]"   smoothness_se="(-0.0062, 0.0060]"   compactness_se="(0.0000, 0.1000]"   area_worst="(2477.00000, 3893.2000]"   
   (   1))   % texture_se="(2.000, 3.7000]"   perimeter_worst="(168.00000, 180.2000]"   smoothness_se="(-0.0062, 0.0060]"   compactness_se="(0.0000, 0.1000]"   area_worst="(2477.00000, 3893.2000]"   
   ((   1)   % texture_se="(0.000, 1.1000]"   perimeter_worst="(180.00000, 236.5000]"   smoothness_se="(-0.0062, 0.0060]"   compactness_se="(0.0000, 0.1000]"   area_worst="(2477.00000, 3893.2000]"   
   (   1)   % texture_se="(1.000, 2.2000]"   perimeter_worst="(180.00000, 236.5000]"   smoothness_se="(-0.0062, 0.0060]"   compactness_se="(0.0000, 0.1000]"   area_worst="(2477.00000, 3893.2000]"   
   (   1)))   % texture_se="(2.000, 3.7000]"   perimeter_worst="(180.00000, 236.5000]"   smoothness_se="(-0.0062, 0.0060]"   compactness_se="(0.0000, 0.1000]"   area_worst="(2477.00000, 3893.2000]"   
   (((   1)   % texture_se="(0.000, 1.1000]"   perimeter_worst="(121.0899, 168.5000]"   smoothness_se="(0.0000, 0.0000]"   compactness_se="(0.0000, 0.1000]"   area_worst="(2477.00000, 3893.2000]"   
   (   1)   % texture_se="(1.000, 2.2000]"   perimeter_worst="(121.0899, 168.5000]"   smoothness_se="(0.0000, 0.0000]"   compactness_se="(0.0000, 0.1000]"   area_worst="(2477.00000, 3893.2000]"   
   (   1))   % texture_se="(2.000, 3.7000]"   perimeter_worst="(121.0899, 168.5000]"   smoothness_se="(0.0000, 0.0000]"   compactness_se="(0.0000, 0.1000]"   area_worst="(2477.00000, 3893.2000]"   
   ((   1)   % texture_se="(0.000, 1.1000]"   perimeter_worst="(168.00000, 180.2000]"   smoothness_se="(0.0000, 0.0000]"   compactness_se="(0.0000, 0.1000]"   area_worst="(2477.00000, 3893.2000]"   
   (   1)   % texture_se="(1.000, 2.2000]"   perimeter_worst="(168.00000, 180.2000]"   smoothness_se="(0.0000, 0.0000]"   compactness_se="(0.0000, 0.1000]"   area_worst="(2477.00000, 3893.2000]"   
   (   1))   % texture_se="(2.000, 3.7000]"   perimeter_worst="(168.00000, 180.2000]"   smoothness_se="(0.0000, 0.0000]"   compactness_se="(0.0000, 0.1000]"   area_worst="(2477.00000, 3893.2000]"   
   ((   1)   % texture_se="(0.000, 1.1000]"   perimeter_worst="(180.00000, 236.5000]"   smoothness_se="(0.0000, 0.0000]"   compactness_se="(0.0000, 0.1000]"   area_worst="(2477.00000, 3893.2000]"   
   (   1)   % texture_se="(1.000, 2.2000]"   perimeter_worst="(180.00000, 236.5000]"   smoothness_se="(0.0000, 0.0000]"   compactness_se="(0.0000, 0.1000]"   area_worst="(2477.00000, 3893.2000]"   
   (   1)))   % texture_se="(2.000, 3.7000]"   perimeter_worst="(180.00000, 236.5000]"   smoothness_se="(0.0000, 0.0000]"   compactness_se="(0.0000, 0.1000]"   area_worst="(2477.00000, 3893.2000]"   
   (((   1)   % texture_se="(0.000, 1.1000]"   perimeter_worst="(121.0899, 168.5000]"   smoothness_se="(0.0064, 0.0200]"   compactness_se="(0.0000, 0.1000]"   area_worst="(2477.00000, 3893.2000]"   
   (   1)   % texture_se="(1.000, 2.2000]"   perimeter_worst="(121.0899, 168.5000]"   smoothness_se="(0.0064, 0.0200]"   compactness_se="(0.0000, 0.1000]"   area_worst="(2477.00000, 3893.2000]"   
   (   1))   % texture_se="(2.000, 3.7000]"   perimeter_worst="(121.0899, 168.5000]"   smoothness_se="(0.0064, 0.0200]"   compactness_se="(0.0000, 0.1000]"   area_worst="(2477.00000, 3893.2000]"   
   ((   1)   % texture_se="(0.000, 1.1000]"   perimeter_worst="(168.00000, 180.2000]"   smoothness_se="(0.0064, 0.0200]"   compactness_se="(0.0000, 0.1000]"   area_worst="(2477.00000, 3893.2000]"   
   (   1)   % texture_se="(1.000, 2.2000]"   perimeter_worst="(168.00000, 180.2000]"   smoothness_se="(0.0064, 0.0200]"   compactness_se="(0.0000, 0.1000]"   area_worst="(2477.00000, 3893.2000]"   
   (   1))   % texture_se="(2.000, 3.7000]"   perimeter_worst="(168.00000, 180.2000]"   smoothness_se="(0.0064, 0.0200]"   compactness_se="(0.0000, 0.1000]"   area_worst="(2477.00000, 3893.2000]"   
   ((   1)   % texture_se="(0.000, 1.1000]"   perimeter_worst="(180.00000, 236.5000]"   smoothness_se="(0.0064, 0.0200]"   compactness_se="(0.0000, 0.1000]"   area_worst="(2477.00000, 3893.2000]"   
   (   1)   % texture_se="(1.000, 2.2000]"   perimeter_worst="(180.00000, 236.5000]"   smoothness_se="(0.0064, 0.0200]"   compactness_se="(0.0000, 0.1000]"   area_worst="(2477.00000, 3893.2000]"   
   (   1))))   % texture_se="(2.000, 3.7000]"   perimeter_worst="(180.00000, 236.5000]"   smoothness_se="(0.0064, 0.0200]"   compactness_se="(0.0000, 0.1000]"   area_worst="(2477.00000, 3893.2000]"   
   ((((   1)   % texture_se="(0.000, 1.1000]"   perimeter_worst="(121.0899, 168.5000]"   smoothness_se="(-0.0062, 0.0060]"   compactness_se="(0.00000, 0.0600]"   area_worst="(2477.00000, 3893.2000]"   
   (   1)   % texture_se="(1.000, 2.2000]"   perimeter_worst="(121.0899, 168.5000]"   smoothness_se="(-0.0062, 0.0060]"   compactness_se="(0.00000, 0.0600]"   area_worst="(2477.00000, 3893.2000]"   
   (   1))   % texture_se="(2.000, 3.7000]"   perimeter_worst="(121.0899, 168.5000]"   smoothness_se="(-0.0062, 0.0060]"   compactness_se="(0.00000, 0.0600]"   area_worst="(2477.00000, 3893.2000]"   
   ((   1)   % texture_se="(0.000, 1.1000]"   perimeter_worst="(168.00000, 180.2000]"   smoothness_se="(-0.0062, 0.0060]"   compactness_se="(0.00000, 0.0600]"   area_worst="(2477.00000, 3893.2000]"   
   (   1)   % texture_se="(1.000, 2.2000]"   perimeter_worst="(168.00000, 180.2000]"   smoothness_se="(-0.0062, 0.0060]"   compactness_se="(0.00000, 0.0600]"   area_worst="(2477.00000, 3893.2000]"   
   (   1))   % texture_se="(2.000, 3.7000]"   perimeter_worst="(168.00000, 180.2000]"   smoothness_se="(-0.0062, 0.0060]"   compactness_se="(0.00000, 0.0600]"   area_worst="(2477.00000, 3893.2000]"   
   ((   1)   % texture_se="(0.000, 1.1000]"   perimeter_worst="(180.00000, 236.5000]"   smoothness_se="(-0.0062, 0.0060]"   compactness_se="(0.00000, 0.0600]"   area_worst="(2477.00000, 3893.2000]"   
   (   1)   % texture_se="(1.000, 2.2000]"   perimeter_worst="(180.00000, 236.5000]"   smoothness_se="(-0.0062, 0.0060]"   compactness_se="(0.00000, 0.0600]"   area_worst="(2477.00000, 3893.2000]"   
   (   1)))   % texture_se="(2.000, 3.7000]"   perimeter_worst="(180.00000, 236.5000]"   smoothness_se="(-0.0062, 0.0060]"   compactness_se="(0.00000, 0.0600]"   area_worst="(2477.00000, 3893.2000]"   
   (((   1)   % texture_se="(0.000, 1.1000]"   perimeter_worst="(121.0899, 168.5000]"   smoothness_se="(0.0000, 0.0000]"   compactness_se="(0.00000, 0.0600]"   area_worst="(2477.00000, 3893.2000]"   
   (   1)   % texture_se="(1.000, 2.2000]"   perimeter_worst="(121.0899, 168.5000]"   smoothness_se="(0.0000, 0.0000]"   compactness_se="(0.00000, 0.0600]"   area_worst="(2477.00000, 3893.2000]"   
   (   1))   % texture_se="(2.000, 3.7000]"   perimeter_worst="(121.0899, 168.5000]"   smoothness_se="(0.0000, 0.0000]"   compactness_se="(0.00000, 0.0600]"   area_worst="(2477.00000, 3893.2000]"   
   ((   1)   % texture_se="(0.000, 1.1000]"   perimeter_worst="(168.00000, 180.2000]"   smoothness_se="(0.0000, 0.0000]"   compactness_se="(0.00000, 0.0600]"   area_worst="(2477.00000, 3893.2000]"   
   (   1)   % texture_se="(1.000, 2.2000]"   perimeter_worst="(168.00000, 180.2000]"   smoothness_se="(0.0000, 0.0000]"   compactness_se="(0.00000, 0.0600]"   area_worst="(2477.00000, 3893.2000]"   
   (   1))   % texture_se="(2.000, 3.7000]"   perimeter_worst="(168.00000, 180.2000]"   smoothness_se="(0.0000, 0.0000]"   compactness_se="(0.00000, 0.0600]"   area_worst="(2477.00000, 3893.2000]"   
   ((   1)   % texture_se="(0.000, 1.1000]"   perimeter_worst="(180.00000, 236.5000]"   smoothness_se="(0.0000, 0.0000]"   compactness_se="(0.00000, 0.0600]"   area_worst="(2477.00000, 3893.2000]"   
   (   1)   % texture_se="(1.000, 2.2000]"   perimeter_worst="(180.00000, 236.5000]"   smoothness_se="(0.0000, 0.0000]"   compactness_se="(0.00000, 0.0600]"   area_worst="(2477.00000, 3893.2000]"   
   (   1)))   % texture_se="(2.000, 3.7000]"   perimeter_worst="(180.00000, 236.5000]"   smoothness_se="(0.0000, 0.0000]"   compactness_se="(0.00000, 0.0600]"   area_worst="(2477.00000, 3893.2000]"   
   (((   1)   % texture_se="(0.000, 1.1000]"   perimeter_worst="(121.0899, 168.5000]"   smoothness_se="(0.0064, 0.0200]"   compactness_se="(0.00000, 0.0600]"   area_worst="(2477.00000, 3893.2000]"   
   (   1)   % texture_se="(1.000, 2.2000]"   perimeter_worst="(121.0899, 168.5000]"   smoothness_se="(0.0064, 0.0200]"   compactness_se="(0.00000, 0.0600]"   area_worst="(2477.00000, 3893.2000]"   
   (   1))   % texture_se="(2.000, 3.7000]"   perimeter_worst="(121.0899, 168.5000]"   smoothness_se="(0.0064, 0.0200]"   compactness_se="(0.00000, 0.0600]"   area_worst="(2477.00000, 3893.2000]"   
   ((   1)   % texture_se="(0.000, 1.1000]"   perimeter_worst="(168.00000, 180.2000]"   smoothness_se="(0.0064, 0.0200]"   compactness_se="(0.00000, 0.0600]"   area_worst="(2477.00000, 3893.2000]"   
   (   1)   % texture_se="(1.000, 2.2000]"   perimeter_worst="(168.00000, 180.2000]"   smoothness_se="(0.0064, 0.0200]"   compactness_se="(0.00000, 0.0600]"   area_worst="(2477.00000, 3893.2000]"   
   (   1))   % texture_se="(2.000, 3.7000]"   perimeter_worst="(168.00000, 180.2000]"   smoothness_se="(0.0064, 0.0200]"   compactness_se="(0.00000, 0.0600]"   area_worst="(2477.00000, 3893.2000]"   
   ((   1)   % texture_se="(0.000, 1.1000]"   perimeter_worst="(180.00000, 236.5000]"   smoothness_se="(0.0064, 0.0200]"   compactness_se="(0.00000, 0.0600]"   area_worst="(2477.00000, 3893.2000]"   
   (   1)   % texture_se="(1.000, 2.2000]"   perimeter_worst="(180.00000, 236.5000]"   smoothness_se="(0.0064, 0.0200]"   compactness_se="(0.00000, 0.0600]"   area_worst="(2477.00000, 3893.2000]"   
   (   1))))   % texture_se="(2.000, 3.7000]"   perimeter_worst="(180.00000, 236.5000]"   smoothness_se="(0.0064, 0.0200]"   compactness_se="(0.00000, 0.0600]"   area_worst="(2477.00000, 3893.2000]"   
   ((((   1)   % texture_se="(0.000, 1.1000]"   perimeter_worst="(121.0899, 168.5000]"   smoothness_se="(-0.0062, 0.0060]"   compactness_se="(0.0119, 0.0200]"   area_worst="(2477.00000, 3893.2000]"   
   (   1)   % texture_se="(1.000, 2.2000]"   perimeter_worst="(121.0899, 168.5000]"   smoothness_se="(-0.0062, 0.0060]"   compactness_se="(0.0119, 0.0200]"   area_worst="(2477.00000, 3893.2000]"   
   (   1))   % texture_se="(2.000, 3.7000]"   perimeter_worst="(121.0899, 168.5000]"   smoothness_se="(-0.0062, 0.0060]"   compactness_se="(0.0119, 0.0200]"   area_worst="(2477.00000, 3893.2000]"   
   ((   1)   % texture_se="(0.000, 1.1000]"   perimeter_worst="(168.00000, 180.2000]"   smoothness_se="(-0.0062, 0.0060]"   compactness_se="(0.0119, 0.0200]"   area_worst="(2477.00000, 3893.2000]"   
   (   1)   % texture_se="(1.000, 2.2000]"   perimeter_worst="(168.00000, 180.2000]"   smoothness_se="(-0.0062, 0.0060]"   compactness_se="(0.0119, 0.0200]"   area_worst="(2477.00000, 3893.2000]"   
   (   1))   % texture_se="(2.000, 3.7000]"   perimeter_worst="(168.00000, 180.2000]"   smoothness_se="(-0.0062, 0.0060]"   compactness_se="(0.0119, 0.0200]"   area_worst="(2477.00000, 3893.2000]"   
   ((   1)   % texture_se="(0.000, 1.1000]"   perimeter_worst="(180.00000, 236.5000]"   smoothness_se="(-0.0062, 0.0060]"   compactness_se="(0.0119, 0.0200]"   area_worst="(2477.00000, 3893.2000]"   
   (   1)   % texture_se="(1.000, 2.2000]"   perimeter_worst="(180.00000, 236.5000]"   smoothness_se="(-0.0062, 0.0060]"   compactness_se="(0.0119, 0.0200]"   area_worst="(2477.00000, 3893.2000]"   
   (   1)))   % texture_se="(2.000, 3.7000]"   perimeter_worst="(180.00000, 236.5000]"   smoothness_se="(-0.0062, 0.0060]"   compactness_se="(0.0119, 0.0200]"   area_worst="(2477.00000, 3893.2000]"   
   (((   1)   % texture_se="(0.000, 1.1000]"   perimeter_worst="(121.0899, 168.5000]"   smoothness_se="(0.0000, 0.0000]"   compactness_se="(0.0119, 0.0200]"   area_worst="(2477.00000, 3893.2000]"   
   (   1)   % texture_se="(1.000, 2.2000]"   perimeter_worst="(121.0899, 168.5000]"   smoothness_se="(0.0000, 0.0000]"   compactness_se="(0.0119, 0.0200]"   area_worst="(2477.00000, 3893.2000]"   
   (   1))   % texture_se="(2.000, 3.7000]"   perimeter_worst="(121.0899, 168.5000]"   smoothness_se="(0.0000, 0.0000]"   compactness_se="(0.0119, 0.0200]"   area_worst="(2477.00000, 3893.2000]"   
   ((   1)   % texture_se="(0.000, 1.1000]"   perimeter_worst="(168.00000, 180.2000]"   smoothness_se="(0.0000, 0.0000]"   compactness_se="(0.0119, 0.0200]"   area_worst="(2477.00000, 3893.2000]"   
   (   1)   % texture_se="(1.000, 2.2000]"   perimeter_worst="(168.00000, 180.2000]"   smoothness_se="(0.0000, 0.0000]"   compactness_se="(0.0119, 0.0200]"   area_worst="(2477.00000, 3893.2000]"   
   (   1))   % texture_se="(2.000, 3.7000]"   perimeter_worst="(168.00000, 180.2000]"   smoothness_se="(0.0000, 0.0000]"   compactness_se="(0.0119, 0.0200]"   area_worst="(2477.00000, 3893.2000]"   
   ((   1)   % texture_se="(0.000, 1.1000]"   perimeter_worst="(180.00000, 236.5000]"   smoothness_se="(0.0000, 0.0000]"   compactness_se="(0.0119, 0.0200]"   area_worst="(2477.00000, 3893.2000]"   
   (   1)   % texture_se="(1.000, 2.2000]"   perimeter_worst="(180.00000, 236.5000]"   smoothness_se="(0.0000, 0.0000]"   compactness_se="(0.0119, 0.0200]"   area_worst="(2477.00000, 3893.2000]"   
   (   1)))   % texture_se="(2.000, 3.7000]"   perimeter_worst="(180.00000, 236.5000]"   smoothness_se="(0.0000, 0.0000]"   compactness_se="(0.0119, 0.0200]"   area_worst="(2477.00000, 3893.2000]"   
   (((   1)   % texture_se="(0.000, 1.1000]"   perimeter_worst="(121.0899, 168.5000]"   smoothness_se="(0.0064, 0.0200]"   compactness_se="(0.0119, 0.0200]"   area_worst="(2477.00000, 3893.2000]"   
   (   1)   % texture_se="(1.000, 2.2000]"   perimeter_worst="(121.0899, 168.5000]"   smoothness_se="(0.0064, 0.0200]"   compactness_se="(0.0119, 0.0200]"   area_worst="(2477.00000, 3893.2000]"   
   (   1))   % texture_se="(2.000, 3.7000]"   perimeter_worst="(121.0899, 168.5000]"   smoothness_se="(0.0064, 0.0200]"   compactness_se="(0.0119, 0.0200]"   area_worst="(2477.00000, 3893.2000]"   
   ((   1)   % texture_se="(0.000, 1.1000]"   perimeter_worst="(168.00000, 180.2000]"   smoothness_se="(0.0064, 0.0200]"   compactness_se="(0.0119, 0.0200]"   area_worst="(2477.00000, 3893.2000]"   
   (   1)   % texture_se="(1.000, 2.2000]"   perimeter_worst="(168.00000, 180.2000]"   smoothness_se="(0.0064, 0.0200]"   compactness_se="(0.0119, 0.0200]"   area_worst="(2477.00000, 3893.2000]"   
   (   1))   % texture_se="(2.000, 3.7000]"   perimeter_worst="(168.00000, 180.2000]"   smoothness_se="(0.0064, 0.0200]"   compactness_se="(0.0119, 0.0200]"   area_worst="(2477.00000, 3893.2000]"   
   ((   1)   % texture_se="(0.000, 1.1000]"   perimeter_worst="(180.00000, 236.5000]"   smoothness_se="(0.0064, 0.0200]"   compactness_se="(0.0119, 0.0200]"   area_worst="(2477.00000, 3893.2000]"   
   (   1)   % texture_se="(1.000, 2.2000]"   perimeter_worst="(180.00000, 236.5000]"   smoothness_se="(0.0064, 0.0200]"   compactness_se="(0.0119, 0.0200]"   area_worst="(2477.00000, 3893.2000]"   
   (   1)))))   % texture_se="(2.000, 3.7000]"   perimeter_worst="(180.00000, 236.5000]"   smoothness_se="(0.0064, 0.0200]"   compactness_se="(0.0119, 0.0200]"   area_worst="(2477.00000, 3893.2000]"   
   (((((   1)   % texture_se="(0.000, 1.1000]"   perimeter_worst="(121.0899, 168.5000]"   smoothness_se="(-0.0062, 0.0060]"   compactness_se="(0.0000, 0.1000]"   area_worst="(257.00000, 2477.0000]"   
   (   1)   % texture_se="(1.000, 2.2000]"   perimeter_worst="(121.0899, 168.5000]"   smoothness_se="(-0.0062, 0.0060]"   compactness_se="(0.0000, 0.1000]"   area_worst="(257.00000, 2477.0000]"   
   (   1))   % texture_se="(2.000, 3.7000]"   perimeter_worst="(121.0899, 168.5000]"   smoothness_se="(-0.0062, 0.0060]"   compactness_se="(0.0000, 0.1000]"   area_worst="(257.00000, 2477.0000]"   
   ((   1)   % texture_se="(0.000, 1.1000]"   perimeter_worst="(168.00000, 180.2000]"   smoothness_se="(-0.0062, 0.0060]"   compactness_se="(0.0000, 0.1000]"   area_worst="(257.00000, 2477.0000]"   
   (   1)   % texture_se="(1.000, 2.2000]"   perimeter_worst="(168.00000, 180.2000]"   smoothness_se="(-0.0062, 0.0060]"   compactness_se="(0.0000, 0.1000]"   area_worst="(257.00000, 2477.0000]"   
   (   1))   % texture_se="(2.000, 3.7000]"   perimeter_worst="(168.00000, 180.2000]"   smoothness_se="(-0.0062, 0.0060]"   compactness_se="(0.0000, 0.1000]"   area_worst="(257.00000, 2477.0000]"   
   ((   1)   % texture_se="(0.000, 1.1000]"   perimeter_worst="(180.00000, 236.5000]"   smoothness_se="(-0.0062, 0.0060]"   compactness_se="(0.0000, 0.1000]"   area_worst="(257.00000, 2477.0000]"   
   (   1)   % texture_se="(1.000, 2.2000]"   perimeter_worst="(180.00000, 236.5000]"   smoothness_se="(-0.0062, 0.0060]"   compactness_se="(0.0000, 0.1000]"   area_worst="(257.00000, 2477.0000]"   
   (   1)))   % texture_se="(2.000, 3.7000]"   perimeter_worst="(180.00000, 236.5000]"   smoothness_se="(-0.0062, 0.0060]"   compactness_se="(0.0000, 0.1000]"   area_worst="(257.00000, 2477.0000]"   
   (((   1)   % texture_se="(0.000, 1.1000]"   perimeter_worst="(121.0899, 168.5000]"   smoothness_se="(0.0000, 0.0000]"   compactness_se="(0.0000, 0.1000]"   area_worst="(257.00000, 2477.0000]"   
   (   1)   % texture_se="(1.000, 2.2000]"   perimeter_worst="(121.0899, 168.5000]"   smoothness_se="(0.0000, 0.0000]"   compactness_se="(0.0000, 0.1000]"   area_worst="(257.00000, 2477.0000]"   
   (   1))   % texture_se="(2.000, 3.7000]"   perimeter_worst="(121.0899, 168.5000]"   smoothness_se="(0.0000, 0.0000]"   compactness_se="(0.0000, 0.1000]"   area_worst="(257.00000, 2477.0000]"   
   ((   1)   % texture_se="(0.000, 1.1000]"   perimeter_worst="(168.00000, 180.2000]"   smoothness_se="(0.0000, 0.0000]"   compactness_se="(0.0000, 0.1000]"   area_worst="(257.00000, 2477.0000]"   
   (   1)   % texture_se="(1.000, 2.2000]"   perimeter_worst="(168.00000, 180.2000]"   smoothness_se="(0.0000, 0.0000]"   compactness_se="(0.0000, 0.1000]"   area_worst="(257.00000, 2477.0000]"   
   (   1))   % texture_se="(2.000, 3.7000]"   perimeter_worst="(168.00000, 180.2000]"   smoothness_se="(0.0000, 0.0000]"   compactness_se="(0.0000, 0.1000]"   area_worst="(257.00000, 2477.0000]"   
   ((   1)   % texture_se="(0.000, 1.1000]"   perimeter_worst="(180.00000, 236.5000]"   smoothness_se="(0.0000, 0.0000]"   compactness_se="(0.0000, 0.1000]"   area_worst="(257.00000, 2477.0000]"   
   (   1)   % texture_se="(1.000, 2.2000]"   perimeter_worst="(180.00000, 236.5000]"   smoothness_se="(0.0000, 0.0000]"   compactness_se="(0.0000, 0.1000]"   area_worst="(257.00000, 2477.0000]"   
   (   1)))   % texture_se="(2.000, 3.7000]"   perimeter_worst="(180.00000, 236.5000]"   smoothness_se="(0.0000, 0.0000]"   compactness_se="(0.0000, 0.1000]"   area_worst="(257.00000, 2477.0000]"   
   (((   1)   % texture_se="(0.000, 1.1000]"   perimeter_worst="(121.0899, 168.5000]"   smoothness_se="(0.0064, 0.0200]"   compactness_se="(0.0000, 0.1000]"   area_worst="(257.00000, 2477.0000]"   
   (   1)   % texture_se="(1.000, 2.2000]"   perimeter_worst="(121.0899, 168.5000]"   smoothness_se="(0.0064, 0.0200]"   compactness_se="(0.0000, 0.1000]"   area_worst="(257.00000, 2477.0000]"   
   (   1))   % texture_se="(2.000, 3.7000]"   perimeter_worst="(121.0899, 168.5000]"   smoothness_se="(0.0064, 0.0200]"   compactness_se="(0.0000, 0.1000]"   area_worst="(257.00000, 2477.0000]"   
   ((   1)   % texture_se="(0.000, 1.1000]"   perimeter_worst="(168.00000, 180.2000]"   smoothness_se="(0.0064, 0.0200]"   compactness_se="(0.0000, 0.1000]"   area_worst="(257.00000, 2477.0000]"   
   (   1)   % texture_se="(1.000, 2.2000]"   perimeter_worst="(168.00000, 180.2000]"   smoothness_se="(0.0064, 0.0200]"   compactness_se="(0.0000, 0.1000]"   area_worst="(257.00000, 2477.0000]"   
   (   1))   % texture_se="(2.000, 3.7000]"   perimeter_worst="(168.00000, 180.2000]"   smoothness_se="(0.0064, 0.0200]"   compactness_se="(0.0000, 0.1000]"   area_worst="(257.00000, 2477.0000]"   
   ((   1)   % texture_se="(0.000, 1.1000]"   perimeter_worst="(180.00000, 236.5000]"   smoothness_se="(0.0064, 0.0200]"   compactness_se="(0.0000, 0.1000]"   area_worst="(257.00000, 2477.0000]"   
   (   1)   % texture_se="(1.000, 2.2000]"   perimeter_worst="(180.00000, 236.5000]"   smoothness_se="(0.0064, 0.0200]"   compactness_se="(0.0000, 0.1000]"   area_worst="(257.00000, 2477.0000]"   
   (   1))))   % texture_se="(2.000, 3.7000]"   perimeter_worst="(180.00000, 236.5000]"   smoothness_se="(0.0064, 0.0200]"   compactness_se="(0.0000, 0.1000]"   area_worst="(257.00000, 2477.0000]"   
   ((((   1)   % texture_se="(0.000, 1.1000]"   perimeter_worst="(121.0899, 168.5000]"   smoothness_se="(-0.0062, 0.0060]"   compactness_se="(0.00000, 0.0600]"   area_worst="(257.00000, 2477.0000]"   
   (   1)   % texture_se="(1.000, 2.2000]"   perimeter_worst="(121.0899, 168.5000]"   smoothness_se="(-0.0062, 0.0060]"   compactness_se="(0.00000, 0.0600]"   area_worst="(257.00000, 2477.0000]"   
   (   1))   % texture_se="(2.000, 3.7000]"   perimeter_worst="(121.0899, 168.5000]"   smoothness_se="(-0.0062, 0.0060]"   compactness_se="(0.00000, 0.0600]"   area_worst="(257.00000, 2477.0000]"   
   ((   1)   % texture_se="(0.000, 1.1000]"   perimeter_worst="(168.00000, 180.2000]"   smoothness_se="(-0.0062, 0.0060]"   compactness_se="(0.00000, 0.0600]"   area_worst="(257.00000, 2477.0000]"   
   (   1)   % texture_se="(1.000, 2.2000]"   perimeter_worst="(168.00000, 180.2000]"   smoothness_se="(-0.0062, 0.0060]"   compactness_se="(0.00000, 0.0600]"   area_worst="(257.00000, 2477.0000]"   
   (   1))   % texture_se="(2.000, 3.7000]"   perimeter_worst="(168.00000, 180.2000]"   smoothness_se="(-0.0062, 0.0060]"   compactness_se="(0.00000, 0.0600]"   area_worst="(257.00000, 2477.0000]"   
   ((   1)   % texture_se="(0.000, 1.1000]"   perimeter_worst="(180.00000, 236.5000]"   smoothness_se="(-0.0062, 0.0060]"   compactness_se="(0.00000, 0.0600]"   area_worst="(257.00000, 2477.0000]"   
   (   1)   % texture_se="(1.000, 2.2000]"   perimeter_worst="(180.00000, 236.5000]"   smoothness_se="(-0.0062, 0.0060]"   compactness_se="(0.00000, 0.0600]"   area_worst="(257.00000, 2477.0000]"   
   (   1)))   % texture_se="(2.000, 3.7000]"   perimeter_worst="(180.00000, 236.5000]"   smoothness_se="(-0.0062, 0.0060]"   compactness_se="(0.00000, 0.0600]"   area_worst="(257.00000, 2477.0000]"   
   (((   1)   % texture_se="(0.000, 1.1000]"   perimeter_worst="(121.0899, 168.5000]"   smoothness_se="(0.0000, 0.0000]"   compactness_se="(0.00000, 0.0600]"   area_worst="(257.00000, 2477.0000]"   
   (   1)   % texture_se="(1.000, 2.2000]"   perimeter_worst="(121.0899, 168.5000]"   smoothness_se="(0.0000, 0.0000]"   compactness_se="(0.00000, 0.0600]"   area_worst="(257.00000, 2477.0000]"   
   (   1))   % texture_se="(2.000, 3.7000]"   perimeter_worst="(121.0899, 168.5000]"   smoothness_se="(0.0000, 0.0000]"   compactness_se="(0.00000, 0.0600]"   area_worst="(257.00000, 2477.0000]"   
   ((   1)   % texture_se="(0.000, 1.1000]"   perimeter_worst="(168.00000, 180.2000]"   smoothness_se="(0.0000, 0.0000]"   compactness_se="(0.00000, 0.0600]"   area_worst="(257.00000, 2477.0000]"   
   (   1)   % texture_se="(1.000, 2.2000]"   perimeter_worst="(168.00000, 180.2000]"   smoothness_se="(0.0000, 0.0000]"   compactness_se="(0.00000, 0.0600]"   area_worst="(257.00000, 2477.0000]"   
   (   1))   % texture_se="(2.000, 3.7000]"   perimeter_worst="(168.00000, 180.2000]"   smoothness_se="(0.0000, 0.0000]"   compactness_se="(0.00000, 0.0600]"   area_worst="(257.00000, 2477.0000]"   
   ((   1)   % texture_se="(0.000, 1.1000]"   perimeter_worst="(180.00000, 236.5000]"   smoothness_se="(0.0000, 0.0000]"   compactness_se="(0.00000, 0.0600]"   area_worst="(257.00000, 2477.0000]"   
   (   1)   % texture_se="(1.000, 2.2000]"   perimeter_worst="(180.00000, 236.5000]"   smoothness_se="(0.0000, 0.0000]"   compactness_se="(0.00000, 0.0600]"   area_worst="(257.00000, 2477.0000]"   
   (   1)))   % texture_se="(2.000, 3.7000]"   perimeter_worst="(180.00000, 236.5000]"   smoothness_se="(0.0000, 0.0000]"   compactness_se="(0.00000, 0.0600]"   area_worst="(257.00000, 2477.0000]"   
   (((   1)   % texture_se="(0.000, 1.1000]"   perimeter_worst="(121.0899, 168.5000]"   smoothness_se="(0.0064, 0.0200]"   compactness_se="(0.00000, 0.0600]"   area_worst="(257.00000, 2477.0000]"   
   (   1)   % texture_se="(1.000, 2.2000]"   perimeter_worst="(121.0899, 168.5000]"   smoothness_se="(0.0064, 0.0200]"   compactness_se="(0.00000, 0.0600]"   area_worst="(257.00000, 2477.0000]"   
   (   1))   % texture_se="(2.000, 3.7000]"   perimeter_worst="(121.0899, 168.5000]"   smoothness_se="(0.0064, 0.0200]"   compactness_se="(0.00000, 0.0600]"   area_worst="(257.00000, 2477.0000]"   
   ((   1)   % texture_se="(0.000, 1.1000]"   perimeter_worst="(168.00000, 180.2000]"   smoothness_se="(0.0064, 0.0200]"   compactness_se="(0.00000, 0.0600]"   area_worst="(257.00000, 2477.0000]"   
   (   1)   % texture_se="(1.000, 2.2000]"   perimeter_worst="(168.00000, 180.2000]"   smoothness_se="(0.0064, 0.0200]"   compactness_se="(0.00000, 0.0600]"   area_worst="(257.00000, 2477.0000]"   
   (   1))   % texture_se="(2.000, 3.7000]"   perimeter_worst="(168.00000, 180.2000]"   smoothness_se="(0.0064, 0.0200]"   compactness_se="(0.00000, 0.0600]"   area_worst="(257.00000, 2477.0000]"   
   ((   1)   % texture_se="(0.000, 1.1000]"   perimeter_worst="(180.00000, 236.5000]"   smoothness_se="(0.0064, 0.0200]"   compactness_se="(0.00000, 0.0600]"   area_worst="(257.00000, 2477.0000]"   
   (   1)   % texture_se="(1.000, 2.2000]"   perimeter_worst="(180.00000, 236.5000]"   smoothness_se="(0.0064, 0.0200]"   compactness_se="(0.00000, 0.0600]"   area_worst="(257.00000, 2477.0000]"   
   (   1))))   % texture_se="(2.000, 3.7000]"   perimeter_worst="(180.00000, 236.5000]"   smoothness_se="(0.0064, 0.0200]"   compactness_se="(0.00000, 0.0600]"   area_worst="(257.00000, 2477.0000]"   
   ((((   1)   % texture_se="(0.000, 1.1000]"   perimeter_worst="(121.0899, 168.5000]"   smoothness_se="(-0.0062, 0.0060]"   compactness_se="(0.0119, 0.0200]"   area_worst="(257.00000, 2477.0000]"   
   (   1)   % texture_se="(1.000, 2.2000]"   perimeter_worst="(121.0899, 168.5000]"   smoothness_se="(-0.0062, 0.0060]"   compactness_se="(0.0119, 0.0200]"   area_worst="(257.00000, 2477.0000]"   
   (   1))   % texture_se="(2.000, 3.7000]"   perimeter_worst="(121.0899, 168.5000]"   smoothness_se="(-0.0062, 0.0060]"   compactness_se="(0.0119, 0.0200]"   area_worst="(257.00000, 2477.0000]"   
   ((   1)   % texture_se="(0.000, 1.1000]"   perimeter_worst="(168.00000, 180.2000]"   smoothness_se="(-0.0062, 0.0060]"   compactness_se="(0.0119, 0.0200]"   area_worst="(257.00000, 2477.0000]"   
   (   1)   % texture_se="(1.000, 2.2000]"   perimeter_worst="(168.00000, 180.2000]"   smoothness_se="(-0.0062, 0.0060]"   compactness_se="(0.0119, 0.0200]"   area_worst="(257.00000, 2477.0000]"   
   (   1))   % texture_se="(2.000, 3.7000]"   perimeter_worst="(168.00000, 180.2000]"   smoothness_se="(-0.0062, 0.0060]"   compactness_se="(0.0119, 0.0200]"   area_worst="(257.00000, 2477.0000]"   
   ((   1)   % texture_se="(0.000, 1.1000]"   perimeter_worst="(180.00000, 236.5000]"   smoothness_se="(-0.0062, 0.0060]"   compactness_se="(0.0119, 0.0200]"   area_worst="(257.00000, 2477.0000]"   
   (   1)   % texture_se="(1.000, 2.2000]"   perimeter_worst="(180.00000, 236.5000]"   smoothness_se="(-0.0062, 0.0060]"   compactness_se="(0.0119, 0.0200]"   area_worst="(257.00000, 2477.0000]"   
   (   1)))   % texture_se="(2.000, 3.7000]"   perimeter_worst="(180.00000, 236.5000]"   smoothness_se="(-0.0062, 0.0060]"   compactness_se="(0.0119, 0.0200]"   area_worst="(257.00000, 2477.0000]"   
   (((   1)   % texture_se="(0.000, 1.1000]"   perimeter_worst="(121.0899, 168.5000]"   smoothness_se="(0.0000, 0.0000]"   compactness_se="(0.0119, 0.0200]"   area_worst="(257.00000, 2477.0000]"   
   (   1)   % texture_se="(1.000, 2.2000]"   perimeter_worst="(121.0899, 168.5000]"   smoothness_se="(0.0000, 0.0000]"   compactness_se="(0.0119, 0.0200]"   area_worst="(257.00000, 2477.0000]"   
   (   1))   % texture_se="(2.000, 3.7000]"   perimeter_worst="(121.0899, 168.5000]"   smoothness_se="(0.0000, 0.0000]"   compactness_se="(0.0119, 0.0200]"   area_worst="(257.00000, 2477.0000]"   
   ((   1)   % texture_se="(0.000, 1.1000]"   perimeter_worst="(168.00000, 180.2000]"   smoothness_se="(0.0000, 0.0000]"   compactness_se="(0.0119, 0.0200]"   area_worst="(257.00000, 2477.0000]"   
   (   1)   % texture_se="(1.000, 2.2000]"   perimeter_worst="(168.00000, 180.2000]"   smoothness_se="(0.0000, 0.0000]"   compactness_se="(0.0119, 0.0200]"   area_worst="(257.00000, 2477.0000]"   
   (   1))   % texture_se="(2.000, 3.7000]"   perimeter_worst="(168.00000, 180.2000]"   smoothness_se="(0.0000, 0.0000]"   compactness_se="(0.0119, 0.0200]"   area_worst="(257.00000, 2477.0000]"   
   ((   1)   % texture_se="(0.000, 1.1000]"   perimeter_worst="(180.00000, 236.5000]"   smoothness_se="(0.0000, 0.0000]"   compactness_se="(0.0119, 0.0200]"   area_worst="(257.00000, 2477.0000]"   
   (   1)   % texture_se="(1.000, 2.2000]"   perimeter_worst="(180.00000, 236.5000]"   smoothness_se="(0.0000, 0.0000]"   compactness_se="(0.0119, 0.0200]"   area_worst="(257.00000, 2477.0000]"   
   (   1)))   % texture_se="(2.000, 3.7000]"   perimeter_worst="(180.00000, 236.5000]"   smoothness_se="(0.0000, 0.0000]"   compactness_se="(0.0119, 0.0200]"   area_worst="(257.00000, 2477.0000]"   
   (((   1)   % texture_se="(0.000, 1.1000]"   perimeter_worst="(121.0899, 168.5000]"   smoothness_se="(0.0064, 0.0200]"   compactness_se="(0.0119, 0.0200]"   area_worst="(257.00000, 2477.0000]"   
   (   1)   % texture_se="(1.000, 2.2000]"   perimeter_worst="(121.0899, 168.5000]"   smoothness_se="(0.0064, 0.0200]"   compactness_se="(0.0119, 0.0200]"   area_worst="(257.00000, 2477.0000]"   
   (   1))   % texture_se="(2.000, 3.7000]"   perimeter_worst="(121.0899, 168.5000]"   smoothness_se="(0.0064, 0.0200]"   compactness_se="(0.0119, 0.0200]"   area_worst="(257.00000, 2477.0000]"   
   ((   1)   % texture_se="(0.000, 1.1000]"   perimeter_worst="(168.00000, 180.2000]"   smoothness_se="(0.0064, 0.0200]"   compactness_se="(0.0119, 0.0200]"   area_worst="(257.00000, 2477.0000]"   
   (   1)   % texture_se="(1.000, 2.2000]"   perimeter_worst="(168.00000, 180.2000]"   smoothness_se="(0.0064, 0.0200]"   compactness_se="(0.0119, 0.0200]"   area_worst="(257.00000, 2477.0000]"   
   (   1))   % texture_se="(2.000, 3.7000]"   perimeter_worst="(168.00000, 180.2000]"   smoothness_se="(0.0064, 0.0200]"   compactness_se="(0.0119, 0.0200]"   area_worst="(257.00000, 2477.0000]"   
   ((   1)   % texture_se="(0.000, 1.1000]"   perimeter_worst="(180.00000, 236.5000]"   smoothness_se="(0.0064, 0.0200]"   compactness_se="(0.0119, 0.0200]"   area_worst="(257.00000, 2477.0000]"   
   (   1)   % texture_se="(1.000, 2.2000]"   perimeter_worst="(180.00000, 236.5000]"   smoothness_se="(0.0064, 0.0200]"   compactness_se="(0.0119, 0.0200]"   area_worst="(257.00000, 2477.0000]"   
   (   1))))));   % texture_se="(2.000, 3.7000]"   perimeter_worst="(180.00000, 236.5000]"   smoothness_se="(0.0064, 0.0200]"   compactness_se="(0.0119, 0.0200]"   area_worst="(257.00000, 2477.0000]"   
}

potential ( texture_mean | radius_mean   ) {
   data = 
   ((   0.995033   0.00496689));   % radius_mean="(8.0000, 27.2000]"   
}

potential ( perimeter_mean | concave points_mean   ) {
   data = 
   ((   0.0283843   0.971616)   % concave points_mean="(-0.0059, 0.0000]"   
   (   0.000749625   0.99925)   % concave points_mean="(0.0000, 0.0900]"   
   (   0.05   0.95));   % concave points_mean="(0.0000, 0.1000]"   
}

potential ( area_mean | concave points_mean   ) {
   data = 
   ((   0.0414847   0.958515)   % concave points_mean="(-0.0059, 0.0000]"   
   (   0.000749625   0.99925)   % concave points_mean="(0.0000, 0.0900]"   
   (   0.05   0.95));   % concave points_mean="(0.0000, 0.1000]"   
}

potential ( smoothness_mean | concave points_mean   ) {
   data = 
   ((   0.0676856   0.932314)   % concave points_mean="(-0.0059, 0.0000]"   
   (   0.000749625   0.99925)   % concave points_mean="(0.0000, 0.0900]"   
   (   0.05   0.95));   % concave points_mean="(0.0000, 0.1000]"   
}

potential ( compactness_mean | concave points_mean   ) {
   data = 
   ((   0.0545852   0.945415)   % concave points_mean="(-0.0059, 0.0000]"   
   (   0.000749625   0.99925)   % concave points_mean="(0.0000, 0.0900]"   
   (   0.05   0.95));   % concave points_mean="(0.0000, 0.1000]"   
}

potential ( concavity_mean | perimeter_worst   smoothness_se   compactness_se   smoothness_worst   texture_se   ) {
   data = 
   ((((((   1)   % perimeter_worst="(121.0899, 168.5000]"   smoothness_se="(-0.0062, 0.0060]"   compactness_se="(0.0000, 0.1000]"   smoothness_worst="(0.000, 0.2000]"   texture_se="(0.000, 1.1000]"   
   (   1)   % perimeter_worst="(168.00000, 180.2000]"   smoothness_se="(-0.0062, 0.0060]"   compactness_se="(0.0000, 0.1000]"   smoothness_worst="(0.000, 0.2000]"   texture_se="(0.000, 1.1000]"   
   (   1))   % perimeter_worst="(180.00000, 236.5000]"   smoothness_se="(-0.0062, 0.0060]"   compactness_se="(0.0000, 0.1000]"   smoothness_worst="(0.000, 0.2000]"   texture_se="(0.000, 1.1000]"   
   ((   1)   % perimeter_worst="(121.0899, 168.5000]"   smoothness_se="(0.0000, 0.0000]"   compactness_se="(0.0000, 0.1000]"   smoothness_worst="(0.000, 0.2000]"   texture_se="(0.000, 1.1000]"   
   (   1)   % perimeter_worst="(168.00000, 180.2000]"   smoothness_se="(0.0000, 0.0000]"   compactness_se="(0.0000, 0.1000]"   smoothness_worst="(0.000, 0.2000]"   texture_se="(0.000, 1.1000]"   
   (   1))   % perimeter_worst="(180.00000, 236.5000]"   smoothness_se="(0.0000, 0.0000]"   compactness_se="(0.0000, 0.1000]"   smoothness_worst="(0.000, 0.2000]"   texture_se="(0.000, 1.1000]"   
   ((   1)   % perimeter_worst="(121.0899, 168.5000]"   smoothness_se="(0.0064, 0.0200]"   compactness_se="(0.0000, 0.1000]"   smoothness_worst="(0.000, 0.2000]"   texture_se="(0.000, 1.1000]"   
   (   1)   % perimeter_worst="(168.00000, 180.2000]"   smoothness_se="(0.0064, 0.0200]"   compactness_se="(0.0000, 0.1000]"   smoothness_worst="(0.000, 0.2000]"   texture_se="(0.000, 1.1000]"   
   (   1)))   % perimeter_worst="(180.00000, 236.5000]"   smoothness_se="(0.0064, 0.0200]"   compactness_se="(0.0000, 0.1000]"   smoothness_worst="(0.000, 0.2000]"   texture_se="(0.000, 1.1000]"   
   (((   1)   % perimeter_worst="(121.0899, 168.5000]"   smoothness_se="(-0.0062, 0.0060]"   compactness_se="(0.00000, 0.0600]"   smoothness_worst="(0.000, 0.2000]"   texture_se="(0.000, 1.1000]"   
   (   1)   % perimeter_worst="(168.00000, 180.2000]"   smoothness_se="(-0.0062, 0.0060]"   compactness_se="(0.00000, 0.0600]"   smoothness_worst="(0.000, 0.2000]"   texture_se="(0.000, 1.1000]"   
   (   1))   % perimeter_worst="(180.00000, 236.5000]"   smoothness_se="(-0.0062, 0.0060]"   compactness_se="(0.00000, 0.0600]"   smoothness_worst="(0.000, 0.2000]"   texture_se="(0.000, 1.1000]"   
   ((   1)   % perimeter_worst="(121.0899, 168.5000]"   smoothness_se="(0.0000, 0.0000]"   compactness_se="(0.00000, 0.0600]"   smoothness_worst="(0.000, 0.2000]"   texture_se="(0.000, 1.1000]"   
   (   1)   % perimeter_worst="(168.00000, 180.2000]"   smoothness_se="(0.0000, 0.0000]"   compactness_se="(0.00000, 0.0600]"   smoothness_worst="(0.000, 0.2000]"   texture_se="(0.000, 1.1000]"   
   (   1))   % perimeter_worst="(180.00000, 236.5000]"   smoothness_se="(0.0000, 0.0000]"   compactness_se="(0.00000, 0.0600]"   smoothness_worst="(0.000, 0.2000]"   texture_se="(0.000, 1.1000]"   
   ((   1)   % perimeter_worst="(121.0899, 168.5000]"   smoothness_se="(0.0064, 0.0200]"   compactness_se="(0.00000, 0.0600]"   smoothness_worst="(0.000, 0.2000]"   texture_se="(0.000, 1.1000]"   
   (   1)   % perimeter_worst="(168.00000, 180.2000]"   smoothness_se="(0.0064, 0.0200]"   compactness_se="(0.00000, 0.0600]"   smoothness_worst="(0.000, 0.2000]"   texture_se="(0.000, 1.1000]"   
   (   1)))   % perimeter_worst="(180.00000, 236.5000]"   smoothness_se="(0.0064, 0.0200]"   compactness_se="(0.00000, 0.0600]"   smoothness_worst="(0.000, 0.2000]"   texture_se="(0.000, 1.1000]"   
   (((   1)   % perimeter_worst="(121.0899, 168.5000]"   smoothness_se="(-0.0062, 0.0060]"   compactness_se="(0.0119, 0.0200]"   smoothness_worst="(0.000, 0.2000]"   texture_se="(0.000, 1.1000]"   
   (   1)   % perimeter_worst="(168.00000, 180.2000]"   smoothness_se="(-0.0062, 0.0060]"   compactness_se="(0.0119, 0.0200]"   smoothness_worst="(0.000, 0.2000]"   texture_se="(0.000, 1.1000]"   
   (   1))   % perimeter_worst="(180.00000, 236.5000]"   smoothness_se="(-0.0062, 0.0060]"   compactness_se="(0.0119, 0.0200]"   smoothness_worst="(0.000, 0.2000]"   texture_se="(0.000, 1.1000]"   
   ((   1)   % perimeter_worst="(121.0899, 168.5000]"   smoothness_se="(0.0000, 0.0000]"   compactness_se="(0.0119, 0.0200]"   smoothness_worst="(0.000, 0.2000]"   texture_se="(0.000, 1.1000]"   
   (   1)   % perimeter_worst="(168.00000, 180.2000]"   smoothness_se="(0.0000, 0.0000]"   compactness_se="(0.0119, 0.0200]"   smoothness_worst="(0.000, 0.2000]"   texture_se="(0.000, 1.1000]"   
   (   1))   % perimeter_worst="(180.00000, 236.5000]"   smoothness_se="(0.0000, 0.0000]"   compactness_se="(0.0119, 0.0200]"   smoothness_worst="(0.000, 0.2000]"   texture_se="(0.000, 1.1000]"   
   ((   1)   % perimeter_worst="(121.0899, 168.5000]"   smoothness_se="(0.0064, 0.0200]"   compactness_se="(0.0119, 0.0200]"   smoothness_worst="(0.000, 0.2000]"   texture_se="(0.000, 1.1000]"   
   (   1)   % perimeter_worst="(168.00000, 180.2000]"   smoothness_se="(0.0064, 0.0200]"   compactness_se="(0.0119, 0.0200]"   smoothness_worst="(0.000, 0.2000]"   texture_se="(0.000, 1.1000]"   
   (   1))))   % perimeter_worst="(180.00000, 236.5000]"   smoothness_se="(0.0064, 0.0200]"   compactness_se="(0.0119, 0.0200]"   smoothness_worst="(0.000, 0.2000]"   texture_se="(0.000, 1.1000]"   
   ((((   1)   % perimeter_worst="(121.0899, 168.5000]"   smoothness_se="(-0.0062, 0.0060]"   compactness_se="(0.0000, 0.1000]"   smoothness_worst="(0.0750, 0.1000]"   texture_se="(0.000, 1.1000]"   
   (   1)   % perimeter_worst="(168.00000, 180.2000]"   smoothness_se="(-0.0062, 0.0060]"   compactness_se="(0.0000, 0.1000]"   smoothness_worst="(0.0750, 0.1000]"   texture_se="(0.000, 1.1000]"   
   (   1))   % perimeter_worst="(180.00000, 236.5000]"   smoothness_se="(-0.0062, 0.0060]"   compactness_se="(0.0000, 0.1000]"   smoothness_worst="(0.0750, 0.1000]"   texture_se="(0.000, 1.1000]"   
   ((   1)   % perimeter_worst="(121.0899, 168.5000]"   smoothness_se="(0.0000, 0.0000]"   compactness_se="(0.0000, 0.1000]"   smoothness_worst="(0.0750, 0.1000]"   texture_se="(0.000, 1.1000]"   
   (   1)   % perimeter_worst="(168.00000, 180.2000]"   smoothness_se="(0.0000, 0.0000]"   compactness_se="(0.0000, 0.1000]"   smoothness_worst="(0.0750, 0.1000]"   texture_se="(0.000, 1.1000]"   
   (   1))   % perimeter_worst="(180.00000, 236.5000]"   smoothness_se="(0.0000, 0.0000]"   compactness_se="(0.0000, 0.1000]"   smoothness_worst="(0.0750, 0.1000]"   texture_se="(0.000, 1.1000]"   
   ((   1)   % perimeter_worst="(121.0899, 168.5000]"   smoothness_se="(0.0064, 0.0200]"   compactness_se="(0.0000, 0.1000]"   smoothness_worst="(0.0750, 0.1000]"   texture_se="(0.000, 1.1000]"   
   (   1)   % perimeter_worst="(168.00000, 180.2000]"   smoothness_se="(0.0064, 0.0200]"   compactness_se="(0.0000, 0.1000]"   smoothness_worst="(0.0750, 0.1000]"   texture_se="(0.000, 1.1000]"   
   (   1)))   % perimeter_worst="(180.00000, 236.5000]"   smoothness_se="(0.0064, 0.0200]"   compactness_se="(0.0000, 0.1000]"   smoothness_worst="(0.0750, 0.1000]"   texture_se="(0.000, 1.1000]"   
   (((   1)   % perimeter_worst="(121.0899, 168.5000]"   smoothness_se="(-0.0062, 0.0060]"   compactness_se="(0.00000, 0.0600]"   smoothness_worst="(0.0750, 0.1000]"   texture_se="(0.000, 1.1000]"   
   (   1)   % perimeter_worst="(168.00000, 180.2000]"   smoothness_se="(-0.0062, 0.0060]"   compactness_se="(0.00000, 0.0600]"   smoothness_worst="(0.0750, 0.1000]"   texture_se="(0.000, 1.1000]"   
   (   1))   % perimeter_worst="(180.00000, 236.5000]"   smoothness_se="(-0.0062, 0.0060]"   compactness_se="(0.00000, 0.0600]"   smoothness_worst="(0.0750, 0.1000]"   texture_se="(0.000, 1.1000]"   
   ((   1)   % perimeter_worst="(121.0899, 168.5000]"   smoothness_se="(0.0000, 0.0000]"   compactness_se="(0.00000, 0.0600]"   smoothness_worst="(0.0750, 0.1000]"   texture_se="(0.000, 1.1000]"   
   (   1)   % perimeter_worst="(168.00000, 180.2000]"   smoothness_se="(0.0000, 0.0000]"   compactness_se="(0.00000, 0.0600]"   smoothness_worst="(0.0750, 0.1000]"   texture_se="(0.000, 1.1000]"   
   (   1))   % perimeter_worst="(180.00000, 236.5000]"   smoothness_se="(0.0000, 0.0000]"   compactness_se="(0.00000, 0.0600]"   smoothness_worst="(0.0750, 0.1000]"   texture_se="(0.000, 1.1000]"   
   ((   1)   % perimeter_worst="(121.0899, 168.5000]"   smoothness_se="(0.0064, 0.0200]"   compactness_se="(0.00000, 0.0600]"   smoothness_worst="(0.0750, 0.1000]"   texture_se="(0.000, 1.1000]"   
   (   1)   % perimeter_worst="(168.00000, 180.2000]"   smoothness_se="(0.0064, 0.0200]"   compactness_se="(0.00000, 0.0600]"   smoothness_worst="(0.0750, 0.1000]"   texture_se="(0.000, 1.1000]"   
   (   1)))   % perimeter_worst="(180.00000, 236.5000]"   smoothness_se="(0.0064, 0.0200]"   compactness_se="(0.00000, 0.0600]"   smoothness_worst="(0.0750, 0.1000]"   texture_se="(0.000, 1.1000]"   
   (((   1)   % perimeter_worst="(121.0899, 168.5000]"   smoothness_se="(-0.0062, 0.0060]"   compactness_se="(0.0119, 0.0200]"   smoothness_worst="(0.0750, 0.1000]"   texture_se="(0.000, 1.1000]"   
   (   1)   % perimeter_worst="(168.00000, 180.2000]"   smoothness_se="(-0.0062, 0.0060]"   compactness_se="(0.0119, 0.0200]"   smoothness_worst="(0.0750, 0.1000]"   texture_se="(0.000, 1.1000]"   
   (   1))   % perimeter_worst="(180.00000, 236.5000]"   smoothness_se="(-0.0062, 0.0060]"   compactness_se="(0.0119, 0.0200]"   smoothness_worst="(0.0750, 0.1000]"   texture_se="(0.000, 1.1000]"   
   ((   1)   % perimeter_worst="(121.0899, 168.5000]"   smoothness_se="(0.0000, 0.0000]"   compactness_se="(0.0119, 0.0200]"   smoothness_worst="(0.0750, 0.1000]"   texture_se="(0.000, 1.1000]"   
   (   1)   % perimeter_worst="(168.00000, 180.2000]"   smoothness_se="(0.0000, 0.0000]"   compactness_se="(0.0119, 0.0200]"   smoothness_worst="(0.0750, 0.1000]"   texture_se="(0.000, 1.1000]"   
   (   1))   % perimeter_worst="(180.00000, 236.5000]"   smoothness_se="(0.0000, 0.0000]"   compactness_se="(0.0119, 0.0200]"   smoothness_worst="(0.0750, 0.1000]"   texture_se="(0.000, 1.1000]"   
   ((   1)   % perimeter_worst="(121.0899, 168.5000]"   smoothness_se="(0.0064, 0.0200]"   compactness_se="(0.0119, 0.0200]"   smoothness_worst="(0.0750, 0.1000]"   texture_se="(0.000, 1.1000]"   
   (   1)   % perimeter_worst="(168.00000, 180.2000]"   smoothness_se="(0.0064, 0.0200]"   compactness_se="(0.0119, 0.0200]"   smoothness_worst="(0.0750, 0.1000]"   texture_se="(0.000, 1.1000]"   
   (   1)))))   % perimeter_worst="(180.00000, 236.5000]"   smoothness_se="(0.0064, 0.0200]"   compactness_se="(0.0119, 0.0200]"   smoothness_worst="(0.0750, 0.1000]"   texture_se="(0.000, 1.1000]"   
   (((((   1)   % perimeter_worst="(121.0899, 168.5000]"   smoothness_se="(-0.0062, 0.0060]"   compactness_se="(0.0000, 0.1000]"   smoothness_worst="(0.000, 0.2000]"   texture_se="(1.000, 2.2000]"   
   (   1)   % perimeter_worst="(168.00000, 180.2000]"   smoothness_se="(-0.0062, 0.0060]"   compactness_se="(0.0000, 0.1000]"   smoothness_worst="(0.000, 0.2000]"   texture_se="(1.000, 2.2000]"   
   (   1))   % perimeter_worst="(180.00000, 236.5000]"   smoothness_se="(-0.0062, 0.0060]"   compactness_se="(0.0000, 0.1000]"   smoothness_worst="(0.000, 0.2000]"   texture_se="(1.000, 2.2000]"   
   ((   1)   % perimeter_worst="(121.0899, 168.5000]"   smoothness_se="(0.0000, 0.0000]"   compactness_se="(0.0000, 0.1000]"   smoothness_worst="(0.000, 0.2000]"   texture_se="(1.000, 2.2000]"   
   (   1)   % perimeter_worst="(168.00000, 180.2000]"   smoothness_se="(0.0000, 0.0000]"   compactness_se="(0.0000, 0.1000]"   smoothness_worst="(0.000, 0.2000]"   texture_se="(1.000, 2.2000]"   
   (   1))   % perimeter_worst="(180.00000, 236.5000]"   smoothness_se="(0.0000, 0.0000]"   compactness_se="(0.0000, 0.1000]"   smoothness_worst="(0.000, 0.2000]"   texture_se="(1.000, 2.2000]"   
   ((   1)   % perimeter_worst="(121.0899, 168.5000]"   smoothness_se="(0.0064, 0.0200]"   compactness_se="(0.0000, 0.1000]"   smoothness_worst="(0.000, 0.2000]"   texture_se="(1.000, 2.2000]"   
   (   1)   % perimeter_worst="(168.00000, 180.2000]"   smoothness_se="(0.0064, 0.0200]"   compactness_se="(0.0000, 0.1000]"   smoothness_worst="(0.000, 0.2000]"   texture_se="(1.000, 2.2000]"   
   (   1)))   % perimeter_worst="(180.00000, 236.5000]"   smoothness_se="(0.0064, 0.0200]"   compactness_se="(0.0000, 0.1000]"   smoothness_worst="(0.000, 0.2000]"   texture_se="(1.000, 2.2000]"   
   (((   1)   % perimeter_worst="(121.0899, 168.5000]"   smoothness_se="(-0.0062, 0.0060]"   compactness_se="(0.00000, 0.0600]"   smoothness_worst="(0.000, 0.2000]"   texture_se="(1.000, 2.2000]"   
   (   1)   % perimeter_worst="(168.00000, 180.2000]"   smoothness_se="(-0.0062, 0.0060]"   compactness_se="(0.00000, 0.0600]"   smoothness_worst="(0.000, 0.2000]"   texture_se="(1.000, 2.2000]"   
   (   1))   % perimeter_worst="(180.00000, 236.5000]"   smoothness_se="(-0.0062, 0.0060]"   compactness_se="(0.00000, 0.0600]"   smoothness_worst="(0.000, 0.2000]"   texture_se="(1.000, 2.2000]"   
   ((   1)   % perimeter_worst="(121.0899, 168.5000]"   smoothness_se="(0.0000, 0.0000]"   compactness_se="(0.00000, 0.0600]"   smoothness_worst="(0.000, 0.2000]"   texture_se="(1.000, 2.2000]"   
   (   1)   % perimeter_worst="(168.00000, 180.2000]"   smoothness_se="(0.0000, 0.0000]"   compactness_se="(0.00000, 0.0600]"   smoothness_worst="(0.000, 0.2000]"   texture_se="(1.000, 2.2000]"   
   (   1))   % perimeter_worst="(180.00000, 236.5000]"   smoothness_se="(0.0000, 0.0000]"   compactness_se="(0.00000, 0.0600]"   smoothness_worst="(0.000, 0.2000]"   texture_se="(1.000, 2.2000]"   
   ((   1)   % perimeter_worst="(121.0899, 168.5000]"   smoothness_se="(0.0064, 0.0200]"   compactness_se="(0.00000, 0.0600]"   smoothness_worst="(0.000, 0.2000]"   texture_se="(1.000, 2.2000]"   
   (   1)   % perimeter_worst="(168.00000, 180.2000]"   smoothness_se="(0.0064, 0.0200]"   compactness_se="(0.00000, 0.0600]"   smoothness_worst="(0.000, 0.2000]"   texture_se="(1.000, 2.2000]"   
   (   1)))   % perimeter_worst="(180.00000, 236.5000]"   smoothness_se="(0.0064, 0.0200]"   compactness_se="(0.00000, 0.0600]"   smoothness_worst="(0.000, 0.2000]"   texture_se="(1.000, 2.2000]"   
   (((   1)   % perimeter_worst="(121.0899, 168.5000]"   smoothness_se="(-0.0062, 0.0060]"   compactness_se="(0.0119, 0.0200]"   smoothness_worst="(0.000, 0.2000]"   texture_se="(1.000, 2.2000]"   
   (   1)   % perimeter_worst="(168.00000, 180.2000]"   smoothness_se="(-0.0062, 0.0060]"   compactness_se="(0.0119, 0.0200]"   smoothness_worst="(0.000, 0.2000]"   texture_se="(1.000, 2.2000]"   
   (   1))   % perimeter_worst="(180.00000, 236.5000]"   smoothness_se="(-0.0062, 0.0060]"   compactness_se="(0.0119, 0.0200]"   smoothness_worst="(0.000, 0.2000]"   texture_se="(1.000, 2.2000]"   
   ((   1)   % perimeter_worst="(121.0899, 168.5000]"   smoothness_se="(0.0000, 0.0000]"   compactness_se="(0.0119, 0.0200]"   smoothness_worst="(0.000, 0.2000]"   texture_se="(1.000, 2.2000]"   
   (   1)   % perimeter_worst="(168.00000, 180.2000]"   smoothness_se="(0.0000, 0.0000]"   compactness_se="(0.0119, 0.0200]"   smoothness_worst="(0.000, 0.2000]"   texture_se="(1.000, 2.2000]"   
   (   1))   % perimeter_worst="(180.00000, 236.5000]"   smoothness_se="(0.0000, 0.0000]"   compactness_se="(0.0119, 0.0200]"   smoothness_worst="(0.000, 0.2000]"   texture_se="(1.000, 2.2000]"   
   ((   1)   % perimeter_worst="(121.0899, 168.5000]"   smoothness_se="(0.0064, 0.0200]"   compactness_se="(0.0119, 0.0200]"   smoothness_worst="(0.000, 0.2000]"   texture_se="(1.000, 2.2000]"   
   (   1)   % perimeter_worst="(168.00000, 180.2000]"   smoothness_se="(0.0064, 0.0200]"   compactness_se="(0.0119, 0.0200]"   smoothness_worst="(0.000, 0.2000]"   texture_se="(1.000, 2.2000]"   
   (   1))))   % perimeter_worst="(180.00000, 236.5000]"   smoothness_se="(0.0064, 0.0200]"   compactness_se="(0.0119, 0.0200]"   smoothness_worst="(0.000, 0.2000]"   texture_se="(1.000, 2.2000]"   
   ((((   1)   % perimeter_worst="(121.0899, 168.5000]"   smoothness_se="(-0.0062, 0.0060]"   compactness_se="(0.0000, 0.1000]"   smoothness_worst="(0.0750, 0.1000]"   texture_se="(1.000, 2.2000]"   
   (   1)   % perimeter_worst="(168.00000, 180.2000]"   smoothness_se="(-0.0062, 0.0060]"   compactness_se="(0.0000, 0.1000]"   smoothness_worst="(0.0750, 0.1000]"   texture_se="(1.000, 2.2000]"   
   (   1))   % perimeter_worst="(180.00000, 236.5000]"   smoothness_se="(-0.0062, 0.0060]"   compactness_se="(0.0000, 0.1000]"   smoothness_worst="(0.0750, 0.1000]"   texture_se="(1.000, 2.2000]"   
   ((   1)   % perimeter_worst="(121.0899, 168.5000]"   smoothness_se="(0.0000, 0.0000]"   compactness_se="(0.0000, 0.1000]"   smoothness_worst="(0.0750, 0.1000]"   texture_se="(1.000, 2.2000]"   
   (   1)   % perimeter_worst="(168.00000, 180.2000]"   smoothness_se="(0.0000, 0.0000]"   compactness_se="(0.0000, 0.1000]"   smoothness_worst="(0.0750, 0.1000]"   texture_se="(1.000, 2.2000]"   
   (   1))   % perimeter_worst="(180.00000, 236.5000]"   smoothness_se="(0.0000, 0.0000]"   compactness_se="(0.0000, 0.1000]"   smoothness_worst="(0.0750, 0.1000]"   texture_se="(1.000, 2.2000]"   
   ((   1)   % perimeter_worst="(121.0899, 168.5000]"   smoothness_se="(0.0064, 0.0200]"   compactness_se="(0.0000, 0.1000]"   smoothness_worst="(0.0750, 0.1000]"   texture_se="(1.000, 2.2000]"   
   (   1)   % perimeter_worst="(168.00000, 180.2000]"   smoothness_se="(0.0064, 0.0200]"   compactness_se="(0.0000, 0.1000]"   smoothness_worst="(0.0750, 0.1000]"   texture_se="(1.000, 2.2000]"   
   (   1)))   % perimeter_worst="(180.00000, 236.5000]"   smoothness_se="(0.0064, 0.0200]"   compactness_se="(0.0000, 0.1000]"   smoothness_worst="(0.0750, 0.1000]"   texture_se="(1.000, 2.2000]"   
   (((   1)   % perimeter_worst="(121.0899, 168.5000]"   smoothness_se="(-0.0062, 0.0060]"   compactness_se="(0.00000, 0.0600]"   smoothness_worst="(0.0750, 0.1000]"   texture_se="(1.000, 2.2000]"   
   (   1)   % perimeter_worst="(168.00000, 180.2000]"   smoothness_se="(-0.0062, 0.0060]"   compactness_se="(0.00000, 0.0600]"   smoothness_worst="(0.0750, 0.1000]"   texture_se="(1.000, 2.2000]"   
   (   1))   % perimeter_worst="(180.00000, 236.5000]"   smoothness_se="(-0.0062, 0.0060]"   compactness_se="(0.00000, 0.0600]"   smoothness_worst="(0.0750, 0.1000]"   texture_se="(1.000, 2.2000]"   
   ((   1)   % perimeter_worst="(121.0899, 168.5000]"   smoothness_se="(0.0000, 0.0000]"   compactness_se="(0.00000, 0.0600]"   smoothness_worst="(0.0750, 0.1000]"   texture_se="(1.000, 2.2000]"   
   (   1)   % perimeter_worst="(168.00000, 180.2000]"   smoothness_se="(0.0000, 0.0000]"   compactness_se="(0.00000, 0.0600]"   smoothness_worst="(0.0750, 0.1000]"   texture_se="(1.000, 2.2000]"   
   (   1))   % perimeter_worst="(180.00000, 236.5000]"   smoothness_se="(0.0000, 0.0000]"   compactness_se="(0.00000, 0.0600]"   smoothness_worst="(0.0750, 0.1000]"   texture_se="(1.000, 2.2000]"   
   ((   1)   % perimeter_worst="(121.0899, 168.5000]"   smoothness_se="(0.0064, 0.0200]"   compactness_se="(0.00000, 0.0600]"   smoothness_worst="(0.0750, 0.1000]"   texture_se="(1.000, 2.2000]"   
   (   1)   % perimeter_worst="(168.00000, 180.2000]"   smoothness_se="(0.0064, 0.0200]"   compactness_se="(0.00000, 0.0600]"   smoothness_worst="(0.0750, 0.1000]"   texture_se="(1.000, 2.2000]"   
   (   1)))   % perimeter_worst="(180.00000, 236.5000]"   smoothness_se="(0.0064, 0.0200]"   compactness_se="(0.00000, 0.0600]"   smoothness_worst="(0.0750, 0.1000]"   texture_se="(1.000, 2.2000]"   
   (((   1)   % perimeter_worst="(121.0899, 168.5000]"   smoothness_se="(-0.0062, 0.0060]"   compactness_se="(0.0119, 0.0200]"   smoothness_worst="(0.0750, 0.1000]"   texture_se="(1.000, 2.2000]"   
   (   1)   % perimeter_worst="(168.00000, 180.2000]"   smoothness_se="(-0.0062, 0.0060]"   compactness_se="(0.0119, 0.0200]"   smoothness_worst="(0.0750, 0.1000]"   texture_se="(1.000, 2.2000]"   
   (   1))   % perimeter_worst="(180.00000, 236.5000]"   smoothness_se="(-0.0062, 0.0060]"   compactness_se="(0.0119, 0.0200]"   smoothness_worst="(0.0750, 0.1000]"   texture_se="(1.000, 2.2000]"   
   ((   1)   % perimeter_worst="(121.0899, 168.5000]"   smoothness_se="(0.0000, 0.0000]"   compactness_se="(0.0119, 0.0200]"   smoothness_worst="(0.0750, 0.1000]"   texture_se="(1.000, 2.2000]"   
   (   1)   % perimeter_worst="(168.00000, 180.2000]"   smoothness_se="(0.0000, 0.0000]"   compactness_se="(0.0119, 0.0200]"   smoothness_worst="(0.0750, 0.1000]"   texture_se="(1.000, 2.2000]"   
   (   1))   % perimeter_worst="(180.00000, 236.5000]"   smoothness_se="(0.0000, 0.0000]"   compactness_se="(0.0119, 0.0200]"   smoothness_worst="(0.0750, 0.1000]"   texture_se="(1.000, 2.2000]"   
   ((   1)   % perimeter_worst="(121.0899, 168.5000]"   smoothness_se="(0.0064, 0.0200]"   compactness_se="(0.0119, 0.0200]"   smoothness_worst="(0.0750, 0.1000]"   texture_se="(1.000, 2.2000]"   
   (   1)   % perimeter_worst="(168.00000, 180.2000]"   smoothness_se="(0.0064, 0.0200]"   compactness_se="(0.0119, 0.0200]"   smoothness_worst="(0.0750, 0.1000]"   texture_se="(1.000, 2.2000]"   
   (   1)))))   % perimeter_worst="(180.00000, 236.5000]"   smoothness_se="(0.0064, 0.0200]"   compactness_se="(0.0119, 0.0200]"   smoothness_worst="(0.0750, 0.1000]"   texture_se="(1.000, 2.2000]"   
   (((((   1)   % perimeter_worst="(121.0899, 168.5000]"   smoothness_se="(-0.0062, 0.0060]"   compactness_se="(0.0000, 0.1000]"   smoothness_worst="(0.000, 0.2000]"   texture_se="(2.000, 3.7000]"   
   (   1)   % perimeter_worst="(168.00000, 180.2000]"   smoothness_se="(-0.0062, 0.0060]"   compactness_se="(0.0000, 0.1000]"   smoothness_worst="(0.000, 0.2000]"   texture_se="(2.000, 3.7000]"   
   (   1))   % perimeter_worst="(180.00000, 236.5000]"   smoothness_se="(-0.0062, 0.0060]"   compactness_se="(0.0000, 0.1000]"   smoothness_worst="(0.000, 0.2000]"   texture_se="(2.000, 3.7000]"   
   ((   1)   % perimeter_worst="(121.0899, 168.5000]"   smoothness_se="(0.0000, 0.0000]"   compactness_se="(0.0000, 0.1000]"   smoothness_worst="(0.000, 0.2000]"   texture_se="(2.000, 3.7000]"   
   (   1)   % perimeter_worst="(168.00000, 180.2000]"   smoothness_se="(0.0000, 0.0000]"   compactness_se="(0.0000, 0.1000]"   smoothness_worst="(0.000, 0.2000]"   texture_se="(2.000, 3.7000]"   
   (   1))   % perimeter_worst="(180.00000, 236.5000]"   smoothness_se="(0.0000, 0.0000]"   compactness_se="(0.0000, 0.1000]"   smoothness_worst="(0.000, 0.2000]"   texture_se="(2.000, 3.7000]"   
   ((   1)   % perimeter_worst="(121.0899, 168.5000]"   smoothness_se="(0.0064, 0.0200]"   compactness_se="(0.0000, 0.1000]"   smoothness_worst="(0.000, 0.2000]"   texture_se="(2.000, 3.7000]"   
   (   1)   % perimeter_worst="(168.00000, 180.2000]"   smoothness_se="(0.0064, 0.0200]"   compactness_se="(0.0000, 0.1000]"   smoothness_worst="(0.000, 0.2000]"   texture_se="(2.000, 3.7000]"   
   (   1)))   % perimeter_worst="(180.00000, 236.5000]"   smoothness_se="(0.0064, 0.0200]"   compactness_se="(0.0000, 0.1000]"   smoothness_worst="(0.000, 0.2000]"   texture_se="(2.000, 3.7000]"   
   (((   1)   % perimeter_worst="(121.0899, 168.5000]"   smoothness_se="(-0.0062, 0.0060]"   compactness_se="(0.00000, 0.0600]"   smoothness_worst="(0.000, 0.2000]"   texture_se="(2.000, 3.7000]"   
   (   1)   % perimeter_worst="(168.00000, 180.2000]"   smoothness_se="(-0.0062, 0.0060]"   compactness_se="(0.00000, 0.0600]"   smoothness_worst="(0.000, 0.2000]"   texture_se="(2.000, 3.7000]"   
   (   1))   % perimeter_worst="(180.00000, 236.5000]"   smoothness_se="(-0.0062, 0.0060]"   compactness_se="(0.00000, 0.0600]"   smoothness_worst="(0.000, 0.2000]"   texture_se="(2.000, 3.7000]"   
   ((   1)   % perimeter_worst="(121.0899, 168.5000]"   smoothness_se="(0.0000, 0.0000]"   compactness_se="(0.00000, 0.0600]"   smoothness_worst="(0.000, 0.2000]"   texture_se="(2.000, 3.7000]"   
   (   1)   % perimeter_worst="(168.00000, 180.2000]"   smoothness_se="(0.0000, 0.0000]"   compactness_se="(0.00000, 0.0600]"   smoothness_worst="(0.000, 0.2000]"   texture_se="(2.000, 3.7000]"   
   (   1))   % perimeter_worst="(180.00000, 236.5000]"   smoothness_se="(0.0000, 0.0000]"   compactness_se="(0.00000, 0.0600]"   smoothness_worst="(0.000, 0.2000]"   texture_se="(2.000, 3.7000]"   
   ((   1)   % perimeter_worst="(121.0899, 168.5000]"   smoothness_se="(0.0064, 0.0200]"   compactness_se="(0.00000, 0.0600]"   smoothness_worst="(0.000, 0.2000]"   texture_se="(2.000, 3.7000]"   
   (   1)   % perimeter_worst="(168.00000, 180.2000]"   smoothness_se="(0.0064, 0.0200]"   compactness_se="(0.00000, 0.0600]"   smoothness_worst="(0.000, 0.2000]"   texture_se="(2.000, 3.7000]"   
   (   1)))   % perimeter_worst="(180.00000, 236.5000]"   smoothness_se="(0.0064, 0.0200]"   compactness_se="(0.00000, 0.0600]"   smoothness_worst="(0.000, 0.2000]"   texture_se="(2.000, 3.7000]"   
   (((   1)   % perimeter_worst="(121.0899, 168.5000]"   smoothness_se="(-0.0062, 0.0060]"   compactness_se="(0.0119, 0.0200]"   smoothness_worst="(0.000, 0.2000]"   texture_se="(2.000, 3.7000]"   
   (   1)   % perimeter_worst="(168.00000, 180.2000]"   smoothness_se="(-0.0062, 0.0060]"   compactness_se="(0.0119, 0.0200]"   smoothness_worst="(0.000, 0.2000]"   texture_se="(2.000, 3.7000]"   
   (   1))   % perimeter_worst="(180.00000, 236.5000]"   smoothness_se="(-0.0062, 0.0060]"   compactness_se="(0.0119, 0.0200]"   smoothness_worst="(0.000, 0.2000]"   texture_se="(2.000, 3.7000]"   
   ((   1)   % perimeter_worst="(121.0899, 168.5000]"   smoothness_se="(0.0000, 0.0000]"   compactness_se="(0.0119, 0.0200]"   smoothness_worst="(0.000, 0.2000]"   texture_se="(2.000, 3.7000]"   
   (   1)   % perimeter_worst="(168.00000, 180.2000]"   smoothness_se="(0.0000, 0.0000]"   compactness_se="(0.0119, 0.0200]"   smoothness_worst="(0.000, 0.2000]"   texture_se="(2.000, 3.7000]"   
   (   1))   % perimeter_worst="(180.00000, 236.5000]"   smoothness_se="(0.0000, 0.0000]"   compactness_se="(0.0119, 0.0200]"   smoothness_worst="(0.000, 0.2000]"   texture_se="(2.000, 3.7000]"   
   ((   1)   % perimeter_worst="(121.0899, 168.5000]"   smoothness_se="(0.0064, 0.0200]"   compactness_se="(0.0119, 0.0200]"   smoothness_worst="(0.000, 0.2000]"   texture_se="(2.000, 3.7000]"   
   (   1)   % perimeter_worst="(168.00000, 180.2000]"   smoothness_se="(0.0064, 0.0200]"   compactness_se="(0.0119, 0.0200]"   smoothness_worst="(0.000, 0.2000]"   texture_se="(2.000, 3.7000]"   
   (   1))))   % perimeter_worst="(180.00000, 236.5000]"   smoothness_se="(0.0064, 0.0200]"   compactness_se="(0.0119, 0.0200]"   smoothness_worst="(0.000, 0.2000]"   texture_se="(2.000, 3.7000]"   
   ((((   1)   % perimeter_worst="(121.0899, 168.5000]"   smoothness_se="(-0.0062, 0.0060]"   compactness_se="(0.0000, 0.1000]"   smoothness_worst="(0.0750, 0.1000]"   texture_se="(2.000, 3.7000]"   
   (   1)   % perimeter_worst="(168.00000, 180.2000]"   smoothness_se="(-0.0062, 0.0060]"   compactness_se="(0.0000, 0.1000]"   smoothness_worst="(0.0750, 0.1000]"   texture_se="(2.000, 3.7000]"   
   (   1))   % perimeter_worst="(180.00000, 236.5000]"   smoothness_se="(-0.0062, 0.0060]"   compactness_se="(0.0000, 0.1000]"   smoothness_worst="(0.0750, 0.1000]"   texture_se="(2.000, 3.7000]"   
   ((   1)   % perimeter_worst="(121.0899, 168.5000]"   smoothness_se="(0.0000, 0.0000]"   compactness_se="(0.0000, 0.1000]"   smoothness_worst="(0.0750, 0.1000]"   texture_se="(2.000, 3.7000]"   
   (   1)   % perimeter_worst="(168.00000, 180.2000]"   smoothness_se="(0.0000, 0.0000]"   compactness_se="(0.0000, 0.1000]"   smoothness_worst="(0.0750, 0.1000]"   texture_se="(2.000, 3.7000]"   
   (   1))   % perimeter_worst="(180.00000, 236.5000]"   smoothness_se="(0.0000, 0.0000]"   compactness_se="(0.0000, 0.1000]"   smoothness_worst="(0.0750, 0.1000]"   texture_se="(2.000, 3.7000]"   
   ((   1)   % perimeter_worst="(121.0899, 168.5000]"   smoothness_se="(0.0064, 0.0200]"   compactness_se="(0.0000, 0.1000]"   smoothness_worst="(0.0750, 0.1000]"   texture_se="(2.000, 3.7000]"   
   (   1)   % perimeter_worst="(168.00000, 180.2000]"   smoothness_se="(0.0064, 0.0200]"   compactness_se="(0.0000, 0.1000]"   smoothness_worst="(0.0750, 0.1000]"   texture_se="(2.000, 3.7000]"   
   (   1)))   % perimeter_worst="(180.00000, 236.5000]"   smoothness_se="(0.0064, 0.0200]"   compactness_se="(0.0000, 0.1000]"   smoothness_worst="(0.0750, 0.1000]"   texture_se="(2.000, 3.7000]"   
   (((   1)   % perimeter_worst="(121.0899, 168.5000]"   smoothness_se="(-0.0062, 0.0060]"   compactness_se="(0.00000, 0.0600]"   smoothness_worst="(0.0750, 0.1000]"   texture_se="(2.000, 3.7000]"   
   (   1)   % perimeter_worst="(168.00000, 180.2000]"   smoothness_se="(-0.0062, 0.0060]"   compactness_se="(0.00000, 0.0600]"   smoothness_worst="(0.0750, 0.1000]"   texture_se="(2.000, 3.7000]"   
   (   1))   % perimeter_worst="(180.00000, 236.5000]"   smoothness_se="(-0.0062, 0.0060]"   compactness_se="(0.00000, 0.0600]"   smoothness_worst="(0.0750, 0.1000]"   texture_se="(2.000, 3.7000]"   
   ((   1)   % perimeter_worst="(121.0899, 168.5000]"   smoothness_se="(0.0000, 0.0000]"   compactness_se="(0.00000, 0.0600]"   smoothness_worst="(0.0750, 0.1000]"   texture_se="(2.000, 3.7000]"   
   (   1)   % perimeter_worst="(168.00000, 180.2000]"   smoothness_se="(0.0000, 0.0000]"   compactness_se="(0.00000, 0.0600]"   smoothness_worst="(0.0750, 0.1000]"   texture_se="(2.000, 3.7000]"   
   (   1))   % perimeter_worst="(180.00000, 236.5000]"   smoothness_se="(0.0000, 0.0000]"   compactness_se="(0.00000, 0.0600]"   smoothness_worst="(0.0750, 0.1000]"   texture_se="(2.000, 3.7000]"   
   ((   1)   % perimeter_worst="(121.0899, 168.5000]"   smoothness_se="(0.0064, 0.0200]"   compactness_se="(0.00000, 0.0600]"   smoothness_worst="(0.0750, 0.1000]"   texture_se="(2.000, 3.7000]"   
   (   1)   % perimeter_worst="(168.00000, 180.2000]"   smoothness_se="(0.0064, 0.0200]"   compactness_se="(0.00000, 0.0600]"   smoothness_worst="(0.0750, 0.1000]"   texture_se="(2.000, 3.7000]"   
   (   1)))   % perimeter_worst="(180.00000, 236.5000]"   smoothness_se="(0.0064, 0.0200]"   compactness_se="(0.00000, 0.0600]"   smoothness_worst="(0.0750, 0.1000]"   texture_se="(2.000, 3.7000]"   
   (((   1)   % perimeter_worst="(121.0899, 168.5000]"   smoothness_se="(-0.0062, 0.0060]"   compactness_se="(0.0119, 0.0200]"   smoothness_worst="(0.0750, 0.1000]"   texture_se="(2.000, 3.7000]"   
   (   1)   % perimeter_worst="(168.00000, 180.2000]"   smoothness_se="(-0.0062, 0.0060]"   compactness_se="(0.0119, 0.0200]"   smoothness_worst="(0.0750, 0.1000]"   texture_se="(2.000, 3.7000]"   
   (   1))   % perimeter_worst="(180.00000, 236.5000]"   smoothness_se="(-0.0062, 0.0060]"   compactness_se="(0.0119, 0.0200]"   smoothness_worst="(0.0750, 0.1000]"   texture_se="(2.000, 3.7000]"   
   ((   1)   % perimeter_worst="(121.0899, 168.5000]"   smoothness_se="(0.0000, 0.0000]"   compactness_se="(0.0119, 0.0200]"   smoothness_worst="(0.0750, 0.1000]"   texture_se="(2.000, 3.7000]"   
   (   1)   % perimeter_worst="(168.00000, 180.2000]"   smoothness_se="(0.0000, 0.0000]"   compactness_se="(0.0119, 0.0200]"   smoothness_worst="(0.0750, 0.1000]"   texture_se="(2.000, 3.7000]"   
   (   1))   % perimeter_worst="(180.00000, 236.5000]"   smoothness_se="(0.0000, 0.0000]"   compactness_se="(0.0119, 0.0200]"   smoothness_worst="(0.0750, 0.1000]"   texture_se="(2.000, 3.7000]"   
   ((   1)   % perimeter_worst="(121.0899, 168.5000]"   smoothness_se="(0.0064, 0.0200]"   compactness_se="(0.0119, 0.0200]"   smoothness_worst="(0.0750, 0.1000]"   texture_se="(2.000, 3.7000]"   
   (   1)   % perimeter_worst="(168.00000, 180.2000]"   smoothness_se="(0.0064, 0.0200]"   compactness_se="(0.0119, 0.0200]"   smoothness_worst="(0.0750, 0.1000]"   texture_se="(2.000, 3.7000]"   
   (   1))))));   % perimeter_worst="(180.00000, 236.5000]"   smoothness_se="(0.0064, 0.0200]"   compactness_se="(0.0119, 0.0200]"   smoothness_worst="(0.0750, 0.1000]"   texture_se="(2.000, 3.7000]"   
}

potential ( concave points_mean | symmetry_mean   fractal_dimension_mean   ) {
   data = 
   (((   0.000276167   0.999448   0.000276167)   % symmetry_mean="(0.00, 0.1000]"   fractal_dimension_mean="(0.00000, 0.0500]"   
   (   0.333333   0.333333   0.333333))   % symmetry_mean="(0.000, 0.2000]"   fractal_dimension_mean="(0.00000, 0.0500]"   
   ((   0.00680272   0.986395   0.00680272)   % symmetry_mean="(0.00, 0.1000]"   fractal_dimension_mean="(0.00000, 0.0900]"   
   (   0.333333   0.333333   0.333333))   % symmetry_mean="(0.000, 0.2000]"   fractal_dimension_mean="(0.00000, 0.0900]"   
   ((   0.89302   0.0711024   0.0358774)   % symmetry_mean="(0.00, 0.1000]"   fractal_dimension_mean="(0.0419, 0.0500]"   
   (   0.00775194   0.984496   0.00775194)));   % symmetry_mean="(0.000, 0.2000]"   fractal_dimension_mean="(0.0419, 0.0500]"   
}

potential ( symmetry_mean | fractal_dimension_mean   ) {
   data = 
   ((   0.999172   0.000827815)   % fractal_dimension_mean="(0.00000, 0.0500]"   
   (   0.98   0.02)   % fractal_dimension_mean="(0.00000, 0.0900]"   
   (   0.922383   0.0776173));   % fractal_dimension_mean="(0.0419, 0.0500]"   
}

potential ( fractal_dimension_mean | radius_se   ) {
   data = 
   ((   0.0211382   0.0796748   0.899187)   % radius_se="(0.000, 0.7000]"   
   (   0.998329   0.000835422   0.000835422));   % radius_se="(0.000, 2.8000]"   
}

potential ( radius_se | texture_se   ) {
   data = 
   ((   0.893586   0.106414)   % texture_se="(0.000, 1.1000]"   
   (   0.000909091   0.999091)   % texture_se="(1.000, 2.2000]"   
   (   0.0384615   0.961538));   % texture_se="(2.000, 3.7000]"   
}

potential ( texture_se | perimeter_se   ) {
   data = 
   ((   0.932788   0.0336058   0.0336058)   % perimeter_se="(2.0100, 4.7000]"   
   (   0.000648508   0.998703   0.000648508)   % perimeter_se="(4.000, 8.3000]"   
   (   0.0133333   0.973333   0.0133333));   % perimeter_se="(8.0000, 21.8000]"   
}

potential ( perimeter_se | area_se   ) {
   data = 
   ((   0.000660066   0.99868   0.000660066)   % area_se="(109.00000, 482.0000]"   
   (   0.922754   0.015953   0.061293)   % area_se="(12.00000, 109.9000]"   
   (   0.0833333   0.833333   0.0833333));   % area_se="(482.00000, 534.1000]"   
}

potential ( area_se | smoothness_se   ) {
   data = 
   ((   0.0769823   0.915319   0.00769823)   % smoothness_se="(-0.0062, 0.0060]"   
   (   0.833333   0.0833333   0.0833333)   % smoothness_se="(0.0000, 0.0000]"   
   (   0.998579   0.000710732   0.000710732));   % smoothness_se="(0.0064, 0.0200]"   
}

potential ( smoothness_se | compactness_se   ) {
   data = 
   ((   0.0175439   0.0175439   0.964912)   % compactness_se="(0.0000, 0.1000]"   
   (   0.000775194   0.000775194   0.99845)   % compactness_se="(0.00000, 0.0600]"   
   (   0.946025   0.00729395   0.0466813));   % compactness_se="(0.0119, 0.0200]"   
}

potential ( compactness_se | symmetry_se   ) {
   data = 
   ((   0.0335161   0.132236   0.834247)   % symmetry_se="(-0.0017, 0.0100]"   
   (   0.00098912   0.998022   0.00098912)   % symmetry_se="(0.00000, 0.0200]"   
   (   0.0151515   0.969697   0.0151515));   % symmetry_se="(0.00000, 0.0500]"   
}

potential ( concavity_se | texture_se   perimeter_worst   smoothness_se   compactness_se   smoothness_worst   ) {
   data = 
   ((((((   1)   % texture_se="(0.000, 1.1000]"   perimeter_worst="(121.0899, 168.5000]"   smoothness_se="(-0.0062, 0.0060]"   compactness_se="(0.0000, 0.1000]"   smoothness_worst="(0.000, 0.2000]"   
   (   1)   % texture_se="(1.000, 2.2000]"   perimeter_worst="(121.0899, 168.5000]"   smoothness_se="(-0.0062, 0.0060]"   compactness_se="(0.0000, 0.1000]"   smoothness_worst="(0.000, 0.2000]"   
   (   1))   % texture_se="(2.000, 3.7000]"   perimeter_worst="(121.0899, 168.5000]"   smoothness_se="(-0.0062, 0.0060]"   compactness_se="(0.0000, 0.1000]"   smoothness_worst="(0.000, 0.2000]"   
   ((   1)   % texture_se="(0.000, 1.1000]"   perimeter_worst="(168.00000, 180.2000]"   smoothness_se="(-0.0062, 0.0060]"   compactness_se="(0.0000, 0.1000]"   smoothness_worst="(0.000, 0.2000]"   
   (   1)   % texture_se="(1.000, 2.2000]"   perimeter_worst="(168.00000, 180.2000]"   smoothness_se="(-0.0062, 0.0060]"   compactness_se="(0.0000, 0.1000]"   smoothness_worst="(0.000, 0.2000]"   
   (   1))   % texture_se="(2.000, 3.7000]"   perimeter_worst="(168.00000, 180.2000]"   smoothness_se="(-0.0062, 0.0060]"   compactness_se="(0.0000, 0.1000]"   smoothness_worst="(0.000, 0.2000]"   
   ((   1)   % texture_se="(0.000, 1.1000]"   perimeter_worst="(180.00000, 236.5000]"   smoothness_se="(-0.0062, 0.0060]"   compactness_se="(0.0000, 0.1000]"   smoothness_worst="(0.000, 0.2000]"   
   (   1)   % texture_se="(1.000, 2.2000]"   perimeter_worst="(180.00000, 236.5000]"   smoothness_se="(-0.0062, 0.0060]"   compactness_se="(0.0000, 0.1000]"   smoothness_worst="(0.000, 0.2000]"   
   (   1)))   % texture_se="(2.000, 3.7000]"   perimeter_worst="(180.00000, 236.5000]"   smoothness_se="(-0.0062, 0.0060]"   compactness_se="(0.0000, 0.1000]"   smoothness_worst="(0.000, 0.2000]"   
   (((   1)   % texture_se="(0.000, 1.1000]"   perimeter_worst="(121.0899, 168.5000]"   smoothness_se="(0.0000, 0.0000]"   compactness_se="(0.0000, 0.1000]"   smoothness_worst="(0.000, 0.2000]"   
   (   1)   % texture_se="(1.000, 2.2000]"   perimeter_worst="(121.0899, 168.5000]"   smoothness_se="(0.0000, 0.0000]"   compactness_se="(0.0000, 0.1000]"   smoothness_worst="(0.000, 0.2000]"   
   (   1))   % texture_se="(2.000, 3.7000]"   perimeter_worst="(121.0899, 168.5000]"   smoothness_se="(0.0000, 0.0000]"   compactness_se="(0.0000, 0.1000]"   smoothness_worst="(0.000, 0.2000]"   
   ((   1)   % texture_se="(0.000, 1.1000]"   perimeter_worst="(168.00000, 180.2000]"   smoothness_se="(0.0000, 0.0000]"   compactness_se="(0.0000, 0.1000]"   smoothness_worst="(0.000, 0.2000]"   
   (   1)   % texture_se="(1.000, 2.2000]"   perimeter_worst="(168.00000, 180.2000]"   smoothness_se="(0.0000, 0.0000]"   compactness_se="(0.0000, 0.1000]"   smoothness_worst="(0.000, 0.2000]"   
   (   1))   % texture_se="(2.000, 3.7000]"   perimeter_worst="(168.00000, 180.2000]"   smoothness_se="(0.0000, 0.0000]"   compactness_se="(0.0000, 0.1000]"   smoothness_worst="(0.000, 0.2000]"   
   ((   1)   % texture_se="(0.000, 1.1000]"   perimeter_worst="(180.00000, 236.5000]"   smoothness_se="(0.0000, 0.0000]"   compactness_se="(0.0000, 0.1000]"   smoothness_worst="(0.000, 0.2000]"   
   (   1)   % texture_se="(1.000, 2.2000]"   perimeter_worst="(180.00000, 236.5000]"   smoothness_se="(0.0000, 0.0000]"   compactness_se="(0.0000, 0.1000]"   smoothness_worst="(0.000, 0.2000]"   
   (   1)))   % texture_se="(2.000, 3.7000]"   perimeter_worst="(180.00000, 236.5000]"   smoothness_se="(0.0000, 0.0000]"   compactness_se="(0.0000, 0.1000]"   smoothness_worst="(0.000, 0.2000]"   
   (((   1)   % texture_se="(0.000, 1.1000]"   perimeter_worst="(121.0899, 168.5000]"   smoothness_se="(0.0064, 0.0200]"   compactness_se="(0.0000, 0.1000]"   smoothness_worst="(0.000, 0.2000]"   
   (   1)   % texture_se="(1.000, 2.2000]"   perimeter_worst="(121.0899, 168.5000]"   smoothness_se="(0.0064, 0.0200]"   compactness_se="(0.0000, 0.1000]"   smoothness_worst="(0.000, 0.2000]"   
   (   1))   % texture_se="(2.000, 3.7000]"   perimeter_worst="(121.0899, 168.5000]"   smoothness_se="(0.0064, 0.0200]"   compactness_se="(0.0000, 0.1000]"   smoothness_worst="(0.000, 0.2000]"   
   ((   1)   % texture_se="(0.000, 1.1000]"   perimeter_worst="(168.00000, 180.2000]"   smoothness_se="(0.0064, 0.0200]"   compactness_se="(0.0000, 0.1000]"   smoothness_worst="(0.000, 0.2000]"   
   (   1)   % texture_se="(1.000, 2.2000]"   perimeter_worst="(168.00000, 180.2000]"   smoothness_se="(0.0064, 0.0200]"   compactness_se="(0.0000, 0.1000]"   smoothness_worst="(0.000, 0.2000]"   
   (   1))   % texture_se="(2.000, 3.7000]"   perimeter_worst="(168.00000, 180.2000]"   smoothness_se="(0.0064, 0.0200]"   compactness_se="(0.0000, 0.1000]"   smoothness_worst="(0.000, 0.2000]"   
   ((   1)   % texture_se="(0.000, 1.1000]"   perimeter_worst="(180.00000, 236.5000]"   smoothness_se="(0.0064, 0.0200]"   compactness_se="(0.0000, 0.1000]"   smoothness_worst="(0.000, 0.2000]"   
   (   1)   % texture_se="(1.000, 2.2000]"   perimeter_worst="(180.00000, 236.5000]"   smoothness_se="(0.0064, 0.0200]"   compactness_se="(0.0000, 0.1000]"   smoothness_worst="(0.000, 0.2000]"   
   (   1))))   % texture_se="(2.000, 3.7000]"   perimeter_worst="(180.00000, 236.5000]"   smoothness_se="(0.0064, 0.0200]"   compactness_se="(0.0000, 0.1000]"   smoothness_worst="(0.000, 0.2000]"   
   ((((   1)   % texture_se="(0.000, 1.1000]"   perimeter_worst="(121.0899, 168.5000]"   smoothness_se="(-0.0062, 0.0060]"   compactness_se="(0.00000, 0.0600]"   smoothness_worst="(0.000, 0.2000]"   
   (   1)   % texture_se="(1.000, 2.2000]"   perimeter_worst="(121.0899, 168.5000]"   smoothness_se="(-0.0062, 0.0060]"   compactness_se="(0.00000, 0.0600]"   smoothness_worst="(0.000, 0.2000]"   
   (   1))   % texture_se="(2.000, 3.7000]"   perimeter_worst="(121.0899, 168.5000]"   smoothness_se="(-0.0062, 0.0060]"   compactness_se="(0.00000, 0.0600]"   smoothness_worst="(0.000, 0.2000]"   
   ((   1)   % texture_se="(0.000, 1.1000]"   perimeter_worst="(168.00000, 180.2000]"   smoothness_se="(-0.0062, 0.0060]"   compactness_se="(0.00000, 0.0600]"   smoothness_worst="(0.000, 0.2000]"   
   (   1)   % texture_se="(1.000, 2.2000]"   perimeter_worst="(168.00000, 180.2000]"   smoothness_se="(-0.0062, 0.0060]"   compactness_se="(0.00000, 0.0600]"   smoothness_worst="(0.000, 0.2000]"   
   (   1))   % texture_se="(2.000, 3.7000]"   perimeter_worst="(168.00000, 180.2000]"   smoothness_se="(-0.0062, 0.0060]"   compactness_se="(0.00000, 0.0600]"   smoothness_worst="(0.000, 0.2000]"   
   ((   1)   % texture_se="(0.000, 1.1000]"   perimeter_worst="(180.00000, 236.5000]"   smoothness_se="(-0.0062, 0.0060]"   compactness_se="(0.00000, 0.0600]"   smoothness_worst="(0.000, 0.2000]"   
   (   1)   % texture_se="(1.000, 2.2000]"   perimeter_worst="(180.00000, 236.5000]"   smoothness_se="(-0.0062, 0.0060]"   compactness_se="(0.00000, 0.0600]"   smoothness_worst="(0.000, 0.2000]"   
   (   1)))   % texture_se="(2.000, 3.7000]"   perimeter_worst="(180.00000, 236.5000]"   smoothness_se="(-0.0062, 0.0060]"   compactness_se="(0.00000, 0.0600]"   smoothness_worst="(0.000, 0.2000]"   
   (((   1)   % texture_se="(0.000, 1.1000]"   perimeter_worst="(121.0899, 168.5000]"   smoothness_se="(0.0000, 0.0000]"   compactness_se="(0.00000, 0.0600]"   smoothness_worst="(0.000, 0.2000]"   
   (   1)   % texture_se="(1.000, 2.2000]"   perimeter_worst="(121.0899, 168.5000]"   smoothness_se="(0.0000, 0.0000]"   compactness_se="(0.00000, 0.0600]"   smoothness_worst="(0.000, 0.2000]"   
   (   1))   % texture_se="(2.000, 3.7000]"   perimeter_worst="(121.0899, 168.5000]"   smoothness_se="(0.0000, 0.0000]"   compactness_se="(0.00000, 0.0600]"   smoothness_worst="(0.000, 0.2000]"   
   ((   1)   % texture_se="(0.000, 1.1000]"   perimeter_worst="(168.00000, 180.2000]"   smoothness_se="(0.0000, 0.0000]"   compactness_se="(0.00000, 0.0600]"   smoothness_worst="(0.000, 0.2000]"   
   (   1)   % texture_se="(1.000, 2.2000]"   perimeter_worst="(168.00000, 180.2000]"   smoothness_se="(0.0000, 0.0000]"   compactness_se="(0.00000, 0.0600]"   smoothness_worst="(0.000, 0.2000]"   
   (   1))   % texture_se="(2.000, 3.7000]"   perimeter_worst="(168.00000, 180.2000]"   smoothness_se="(0.0000, 0.0000]"   compactness_se="(0.00000, 0.0600]"   smoothness_worst="(0.000, 0.2000]"   
   ((   1)   % texture_se="(0.000, 1.1000]"   perimeter_worst="(180.00000, 236.5000]"   smoothness_se="(0.0000, 0.0000]"   compactness_se="(0.00000, 0.0600]"   smoothness_worst="(0.000, 0.2000]"   
   (   1)   % texture_se="(1.000, 2.2000]"   perimeter_worst="(180.00000, 236.5000]"   smoothness_se="(0.0000, 0.0000]"   compactness_se="(0.00000, 0.0600]"   smoothness_worst="(0.000, 0.2000]"   
   (   1)))   % texture_se="(2.000, 3.7000]"   perimeter_worst="(180.00000, 236.5000]"   smoothness_se="(0.0000, 0.0000]"   compactness_se="(0.00000, 0.0600]"   smoothness_worst="(0.000, 0.2000]"   
   (((   1)   % texture_se="(0.000, 1.1000]"   perimeter_worst="(121.0899, 168.5000]"   smoothness_se="(0.0064, 0.0200]"   compactness_se="(0.00000, 0.0600]"   smoothness_worst="(0.000, 0.2000]"   
   (   1)   % texture_se="(1.000, 2.2000]"   perimeter_worst="(121.0899, 168.5000]"   smoothness_se="(0.0064, 0.0200]"   compactness_se="(0.00000, 0.0600]"   smoothness_worst="(0.000, 0.2000]"   
   (   1))   % texture_se="(2.000, 3.7000]"   perimeter_worst="(121.0899, 168.5000]"   smoothness_se="(0.0064, 0.0200]"   compactness_se="(0.00000, 0.0600]"   smoothness_worst="(0.000, 0.2000]"   
   ((   1)   % texture_se="(0.000, 1.1000]"   perimeter_worst="(168.00000, 180.2000]"   smoothness_se="(0.0064, 0.0200]"   compactness_se="(0.00000, 0.0600]"   smoothness_worst="(0.000, 0.2000]"   
   (   1)   % texture_se="(1.000, 2.2000]"   perimeter_worst="(168.00000, 180.2000]"   smoothness_se="(0.0064, 0.0200]"   compactness_se="(0.00000, 0.0600]"   smoothness_worst="(0.000, 0.2000]"   
   (   1))   % texture_se="(2.000, 3.7000]"   perimeter_worst="(168.00000, 180.2000]"   smoothness_se="(0.0064, 0.0200]"   compactness_se="(0.00000, 0.0600]"   smoothness_worst="(0.000, 0.2000]"   
   ((   1)   % texture_se="(0.000, 1.1000]"   perimeter_worst="(180.00000, 236.5000]"   smoothness_se="(0.0064, 0.0200]"   compactness_se="(0.00000, 0.0600]"   smoothness_worst="(0.000, 0.2000]"   
   (   1)   % texture_se="(1.000, 2.2000]"   perimeter_worst="(180.00000, 236.5000]"   smoothness_se="(0.0064, 0.0200]"   compactness_se="(0.00000, 0.0600]"   smoothness_worst="(0.000, 0.2000]"   
   (   1))))   % texture_se="(2.000, 3.7000]"   perimeter_worst="(180.00000, 236.5000]"   smoothness_se="(0.0064, 0.0200]"   compactness_se="(0.00000, 0.0600]"   smoothness_worst="(0.000, 0.2000]"   
   ((((   1)   % texture_se="(0.000, 1.1000]"   perimeter_worst="(121.0899, 168.5000]"   smoothness_se="(-0.0062, 0.0060]"   compactness_se="(0.0119, 0.0200]"   smoothness_worst="(0.000, 0.2000]"   
   (   1)   % texture_se="(1.000, 2.2000]"   perimeter_worst="(121.0899, 168.5000]"   smoothness_se="(-0.0062, 0.0060]"   compactness_se="(0.0119, 0.0200]"   smoothness_worst="(0.000, 0.2000]"   
   (   1))   % texture_se="(2.000, 3.7000]"   perimeter_worst="(121.0899, 168.5000]"   smoothness_se="(-0.0062, 0.0060]"   compactness_se="(0.0119, 0.0200]"   smoothness_worst="(0.000, 0.2000]"   
   ((   1)   % texture_se="(0.000, 1.1000]"   perimeter_worst="(168.00000, 180.2000]"   smoothness_se="(-0.0062, 0.0060]"   compactness_se="(0.0119, 0.0200]"   smoothness_worst="(0.000, 0.2000]"   
   (   1)   % texture_se="(1.000, 2.2000]"   perimeter_worst="(168.00000, 180.2000]"   smoothness_se="(-0.0062, 0.0060]"   compactness_se="(0.0119, 0.0200]"   smoothness_worst="(0.000, 0.2000]"   
   (   1))   % texture_se="(2.000, 3.7000]"   perimeter_worst="(168.00000, 180.2000]"   smoothness_se="(-0.0062, 0.0060]"   compactness_se="(0.0119, 0.0200]"   smoothness_worst="(0.000, 0.2000]"   
   ((   1)   % texture_se="(0.000, 1.1000]"   perimeter_worst="(180.00000, 236.5000]"   smoothness_se="(-0.0062, 0.0060]"   compactness_se="(0.0119, 0.0200]"   smoothness_worst="(0.000, 0.2000]"   
   (   1)   % texture_se="(1.000, 2.2000]"   perimeter_worst="(180.00000, 236.5000]"   smoothness_se="(-0.0062, 0.0060]"   compactness_se="(0.0119, 0.0200]"   smoothness_worst="(0.000, 0.2000]"   
   (   1)))   % texture_se="(2.000, 3.7000]"   perimeter_worst="(180.00000, 236.5000]"   smoothness_se="(-0.0062, 0.0060]"   compactness_se="(0.0119, 0.0200]"   smoothness_worst="(0.000, 0.2000]"   
   (((   1)   % texture_se="(0.000, 1.1000]"   perimeter_worst="(121.0899, 168.5000]"   smoothness_se="(0.0000, 0.0000]"   compactness_se="(0.0119, 0.0200]"   smoothness_worst="(0.000, 0.2000]"   
   (   1)   % texture_se="(1.000, 2.2000]"   perimeter_worst="(121.0899, 168.5000]"   smoothness_se="(0.0000, 0.0000]"   compactness_se="(0.0119, 0.0200]"   smoothness_worst="(0.000, 0.2000]"   
   (   1))   % texture_se="(2.000, 3.7000]"   perimeter_worst="(121.0899, 168.5000]"   smoothness_se="(0.0000, 0.0000]"   compactness_se="(0.0119, 0.0200]"   smoothness_worst="(0.000, 0.2000]"   
   ((   1)   % texture_se="(0.000, 1.1000]"   perimeter_worst="(168.00000, 180.2000]"   smoothness_se="(0.0000, 0.0000]"   compactness_se="(0.0119, 0.0200]"   smoothness_worst="(0.000, 0.2000]"   
   (   1)   % texture_se="(1.000, 2.2000]"   perimeter_worst="(168.00000, 180.2000]"   smoothness_se="(0.0000, 0.0000]"   compactness_se="(0.0119, 0.0200]"   smoothness_worst="(0.000, 0.2000]"   
   (   1))   % texture_se="(2.000, 3.7000]"   perimeter_worst="(168.00000, 180.2000]"   smoothness_se="(0.0000, 0.0000]"   compactness_se="(0.0119, 0.0200]"   smoothness_worst="(0.000, 0.2000]"   
   ((   1)   % texture_se="(0.000, 1.1000]"   perimeter_worst="(180.00000, 236.5000]"   smoothness_se="(0.0000, 0.0000]"   compactness_se="(0.0119, 0.0200]"   smoothness_worst="(0.000, 0.2000]"   
   (   1)   % texture_se="(1.000, 2.2000]"   perimeter_worst="(180.00000, 236.5000]"   smoothness_se="(0.0000, 0.0000]"   compactness_se="(0.0119, 0.0200]"   smoothness_worst="(0.000, 0.2000]"   
   (   1)))   % texture_se="(2.000, 3.7000]"   perimeter_worst="(180.00000, 236.5000]"   smoothness_se="(0.0000, 0.0000]"   compactness_se="(0.0119, 0.0200]"   smoothness_worst="(0.000, 0.2000]"   
   (((   1)   % texture_se="(0.000, 1.1000]"   perimeter_worst="(121.0899, 168.5000]"   smoothness_se="(0.0064, 0.0200]"   compactness_se="(0.0119, 0.0200]"   smoothness_worst="(0.000, 0.2000]"   
   (   1)   % texture_se="(1.000, 2.2000]"   perimeter_worst="(121.0899, 168.5000]"   smoothness_se="(0.0064, 0.0200]"   compactness_se="(0.0119, 0.0200]"   smoothness_worst="(0.000, 0.2000]"   
   (   1))   % texture_se="(2.000, 3.7000]"   perimeter_worst="(121.0899, 168.5000]"   smoothness_se="(0.0064, 0.0200]"   compactness_se="(0.0119, 0.0200]"   smoothness_worst="(0.000, 0.2000]"   
   ((   1)   % texture_se="(0.000, 1.1000]"   perimeter_worst="(168.00000, 180.2000]"   smoothness_se="(0.0064, 0.0200]"   compactness_se="(0.0119, 0.0200]"   smoothness_worst="(0.000, 0.2000]"   
   (   1)   % texture_se="(1.000, 2.2000]"   perimeter_worst="(168.00000, 180.2000]"   smoothness_se="(0.0064, 0.0200]"   compactness_se="(0.0119, 0.0200]"   smoothness_worst="(0.000, 0.2000]"   
   (   1))   % texture_se="(2.000, 3.7000]"   perimeter_worst="(168.00000, 180.2000]"   smoothness_se="(0.0064, 0.0200]"   compactness_se="(0.0119, 0.0200]"   smoothness_worst="(0.000, 0.2000]"   
   ((   1)   % texture_se="(0.000, 1.1000]"   perimeter_worst="(180.00000, 236.5000]"   smoothness_se="(0.0064, 0.0200]"   compactness_se="(0.0119, 0.0200]"   smoothness_worst="(0.000, 0.2000]"   
   (   1)   % texture_se="(1.000, 2.2000]"   perimeter_worst="(180.00000, 236.5000]"   smoothness_se="(0.0064, 0.0200]"   compactness_se="(0.0119, 0.0200]"   smoothness_worst="(0.000, 0.2000]"   
   (   1)))))   % texture_se="(2.000, 3.7000]"   perimeter_worst="(180.00000, 236.5000]"   smoothness_se="(0.0064, 0.0200]"   compactness_se="(0.0119, 0.0200]"   smoothness_worst="(0.000, 0.2000]"   
   (((((   1)   % texture_se="(0.000, 1.1000]"   perimeter_worst="(121.0899, 168.5000]"   smoothness_se="(-0.0062, 0.0060]"   compactness_se="(0.0000, 0.1000]"   smoothness_worst="(0.0750, 0.1000]"   
   (   1)   % texture_se="(1.000, 2.2000]"   perimeter_worst="(121.0899, 168.5000]"   smoothness_se="(-0.0062, 0.0060]"   compactness_se="(0.0000, 0.1000]"   smoothness_worst="(0.0750, 0.1000]"   
   (   1))   % texture_se="(2.000, 3.7000]"   perimeter_worst="(121.0899, 168.5000]"   smoothness_se="(-0.0062, 0.0060]"   compactness_se="(0.0000, 0.1000]"   smoothness_worst="(0.0750, 0.1000]"   
   ((   1)   % texture_se="(0.000, 1.1000]"   perimeter_worst="(168.00000, 180.2000]"   smoothness_se="(-0.0062, 0.0060]"   compactness_se="(0.0000, 0.1000]"   smoothness_worst="(0.0750, 0.1000]"   
   (   1)   % texture_se="(1.000, 2.2000]"   perimeter_worst="(168.00000, 180.2000]"   smoothness_se="(-0.0062, 0.0060]"   compactness_se="(0.0000, 0.1000]"   smoothness_worst="(0.0750, 0.1000]"   
   (   1))   % texture_se="(2.000, 3.7000]"   perimeter_worst="(168.00000, 180.2000]"   smoothness_se="(-0.0062, 0.0060]"   compactness_se="(0.0000, 0.1000]"   smoothness_worst="(0.0750, 0.1000]"   
   ((   1)   % texture_se="(0.000, 1.1000]"   perimeter_worst="(180.00000, 236.5000]"   smoothness_se="(-0.0062, 0.0060]"   compactness_se="(0.0000, 0.1000]"   smoothness_worst="(0.0750, 0.1000]"   
   (   1)   % texture_se="(1.000, 2.2000]"   perimeter_worst="(180.00000, 236.5000]"   smoothness_se="(-0.0062, 0.0060]"   compactness_se="(0.0000, 0.1000]"   smoothness_worst="(0.0750, 0.1000]"   
   (   1)))   % texture_se="(2.000, 3.7000]"   perimeter_worst="(180.00000, 236.5000]"   smoothness_se="(-0.0062, 0.0060]"   compactness_se="(0.0000, 0.1000]"   smoothness_worst="(0.0750, 0.1000]"   
   (((   1)   % texture_se="(0.000, 1.1000]"   perimeter_worst="(121.0899, 168.5000]"   smoothness_se="(0.0000, 0.0000]"   compactness_se="(0.0000, 0.1000]"   smoothness_worst="(0.0750, 0.1000]"   
   (   1)   % texture_se="(1.000, 2.2000]"   perimeter_worst="(121.0899, 168.5000]"   smoothness_se="(0.0000, 0.0000]"   compactness_se="(0.0000, 0.1000]"   smoothness_worst="(0.0750, 0.1000]"   
   (   1))   % texture_se="(2.000, 3.7000]"   perimeter_worst="(121.0899, 168.5000]"   smoothness_se="(0.0000, 0.0000]"   compactness_se="(0.0000, 0.1000]"   smoothness_worst="(0.0750, 0.1000]"   
   ((   1)   % texture_se="(0.000, 1.1000]"   perimeter_worst="(168.00000, 180.2000]"   smoothness_se="(0.0000, 0.0000]"   compactness_se="(0.0000, 0.1000]"   smoothness_worst="(0.0750, 0.1000]"   
   (   1)   % texture_se="(1.000, 2.2000]"   perimeter_worst="(168.00000, 180.2000]"   smoothness_se="(0.0000, 0.0000]"   compactness_se="(0.0000, 0.1000]"   smoothness_worst="(0.0750, 0.1000]"   
   (   1))   % texture_se="(2.000, 3.7000]"   perimeter_worst="(168.00000, 180.2000]"   smoothness_se="(0.0000, 0.0000]"   compactness_se="(0.0000, 0.1000]"   smoothness_worst="(0.0750, 0.1000]"   
   ((   1)   % texture_se="(0.000, 1.1000]"   perimeter_worst="(180.00000, 236.5000]"   smoothness_se="(0.0000, 0.0000]"   compactness_se="(0.0000, 0.1000]"   smoothness_worst="(0.0750, 0.1000]"   
   (   1)   % texture_se="(1.000, 2.2000]"   perimeter_worst="(180.00000, 236.5000]"   smoothness_se="(0.0000, 0.0000]"   compactness_se="(0.0000, 0.1000]"   smoothness_worst="(0.0750, 0.1000]"   
   (   1)))   % texture_se="(2.000, 3.7000]"   perimeter_worst="(180.00000, 236.5000]"   smoothness_se="(0.0000, 0.0000]"   compactness_se="(0.0000, 0.1000]"   smoothness_worst="(0.0750, 0.1000]"   
   (((   1)   % texture_se="(0.000, 1.1000]"   perimeter_worst="(121.0899, 168.5000]"   smoothness_se="(0.0064, 0.0200]"   compactness_se="(0.0000, 0.1000]"   smoothness_worst="(0.0750, 0.1000]"   
   (   1)   % texture_se="(1.000, 2.2000]"   perimeter_worst="(121.0899, 168.5000]"   smoothness_se="(0.0064, 0.0200]"   compactness_se="(0.0000, 0.1000]"   smoothness_worst="(0.0750, 0.1000]"   
   (   1))   % texture_se="(2.000, 3.7000]"   perimeter_worst="(121.0899, 168.5000]"   smoothness_se="(0.0064, 0.0200]"   compactness_se="(0.0000, 0.1000]"   smoothness_worst="(0.0750, 0.1000]"   
   ((   1)   % texture_se="(0.000, 1.1000]"   perimeter_worst="(168.00000, 180.2000]"   smoothness_se="(0.0064, 0.0200]"   compactness_se="(0.0000, 0.1000]"   smoothness_worst="(0.0750, 0.1000]"   
   (   1)   % texture_se="(1.000, 2.2000]"   perimeter_worst="(168.00000, 180.2000]"   smoothness_se="(0.0064, 0.0200]"   compactness_se="(0.0000, 0.1000]"   smoothness_worst="(0.0750, 0.1000]"   
   (   1))   % texture_se="(2.000, 3.7000]"   perimeter_worst="(168.00000, 180.2000]"   smoothness_se="(0.0064, 0.0200]"   compactness_se="(0.0000, 0.1000]"   smoothness_worst="(0.0750, 0.1000]"   
   ((   1)   % texture_se="(0.000, 1.1000]"   perimeter_worst="(180.00000, 236.5000]"   smoothness_se="(0.0064, 0.0200]"   compactness_se="(0.0000, 0.1000]"   smoothness_worst="(0.0750, 0.1000]"   
   (   1)   % texture_se="(1.000, 2.2000]"   perimeter_worst="(180.00000, 236.5000]"   smoothness_se="(0.0064, 0.0200]"   compactness_se="(0.0000, 0.1000]"   smoothness_worst="(0.0750, 0.1000]"   
   (   1))))   % texture_se="(2.000, 3.7000]"   perimeter_worst="(180.00000, 236.5000]"   smoothness_se="(0.0064, 0.0200]"   compactness_se="(0.0000, 0.1000]"   smoothness_worst="(0.0750, 0.1000]"   
   ((((   1)   % texture_se="(0.000, 1.1000]"   perimeter_worst="(121.0899, 168.5000]"   smoothness_se="(-0.0062, 0.0060]"   compactness_se="(0.00000, 0.0600]"   smoothness_worst="(0.0750, 0.1000]"   
   (   1)   % texture_se="(1.000, 2.2000]"   perimeter_worst="(121.0899, 168.5000]"   smoothness_se="(-0.0062, 0.0060]"   compactness_se="(0.00000, 0.0600]"   smoothness_worst="(0.0750, 0.1000]"   
   (   1))   % texture_se="(2.000, 3.7000]"   perimeter_worst="(121.0899, 168.5000]"   smoothness_se="(-0.0062, 0.0060]"   compactness_se="(0.00000, 0.0600]"   smoothness_worst="(0.0750, 0.1000]"   
   ((   1)   % texture_se="(0.000, 1.1000]"   perimeter_worst="(168.00000, 180.2000]"   smoothness_se="(-0.0062, 0.0060]"   compactness_se="(0.00000, 0.0600]"   smoothness_worst="(0.0750, 0.1000]"   
   (   1)   % texture_se="(1.000, 2.2000]"   perimeter_worst="(168.00000, 180.2000]"   smoothness_se="(-0.0062, 0.0060]"   compactness_se="(0.00000, 0.0600]"   smoothness_worst="(0.0750, 0.1000]"   
   (   1))   % texture_se="(2.000, 3.7000]"   perimeter_worst="(168.00000, 180.2000]"   smoothness_se="(-0.0062, 0.0060]"   compactness_se="(0.00000, 0.0600]"   smoothness_worst="(0.0750, 0.1000]"   
   ((   1)   % texture_se="(0.000, 1.1000]"   perimeter_worst="(180.00000, 236.5000]"   smoothness_se="(-0.0062, 0.0060]"   compactness_se="(0.00000, 0.0600]"   smoothness_worst="(0.0750, 0.1000]"   
   (   1)   % texture_se="(1.000, 2.2000]"   perimeter_worst="(180.00000, 236.5000]"   smoothness_se="(-0.0062, 0.0060]"   compactness_se="(0.00000, 0.0600]"   smoothness_worst="(0.0750, 0.1000]"   
   (   1)))   % texture_se="(2.000, 3.7000]"   perimeter_worst="(180.00000, 236.5000]"   smoothness_se="(-0.0062, 0.0060]"   compactness_se="(0.00000, 0.0600]"   smoothness_worst="(0.0750, 0.1000]"   
   (((   1)   % texture_se="(0.000, 1.1000]"   perimeter_worst="(121.0899, 168.5000]"   smoothness_se="(0.0000, 0.0000]"   compactness_se="(0.00000, 0.0600]"   smoothness_worst="(0.0750, 0.1000]"   
   (   1)   % texture_se="(1.000, 2.2000]"   perimeter_worst="(121.0899, 168.5000]"   smoothness_se="(0.0000, 0.0000]"   compactness_se="(0.00000, 0.0600]"   smoothness_worst="(0.0750, 0.1000]"   
   (   1))   % texture_se="(2.000, 3.7000]"   perimeter_worst="(121.0899, 168.5000]"   smoothness_se="(0.0000, 0.0000]"   compactness_se="(0.00000, 0.0600]"   smoothness_worst="(0.0750, 0.1000]"   
   ((   1)   % texture_se="(0.000, 1.1000]"   perimeter_worst="(168.00000, 180.2000]"   smoothness_se="(0.0000, 0.0000]"   compactness_se="(0.00000, 0.0600]"   smoothness_worst="(0.0750, 0.1000]"   
   (   1)   % texture_se="(1.000, 2.2000]"   perimeter_worst="(168.00000, 180.2000]"   smoothness_se="(0.0000, 0.0000]"   compactness_se="(0.00000, 0.0600]"   smoothness_worst="(0.0750, 0.1000]"   
   (   1))   % texture_se="(2.000, 3.7000]"   perimeter_worst="(168.00000, 180.2000]"   smoothness_se="(0.0000, 0.0000]"   compactness_se="(0.00000, 0.0600]"   smoothness_worst="(0.0750, 0.1000]"   
   ((   1)   % texture_se="(0.000, 1.1000]"   perimeter_worst="(180.00000, 236.5000]"   smoothness_se="(0.0000, 0.0000]"   compactness_se="(0.00000, 0.0600]"   smoothness_worst="(0.0750, 0.1000]"   
   (   1)   % texture_se="(1.000, 2.2000]"   perimeter_worst="(180.00000, 236.5000]"   smoothness_se="(0.0000, 0.0000]"   compactness_se="(0.00000, 0.0600]"   smoothness_worst="(0.0750, 0.1000]"   
   (   1)))   % texture_se="(2.000, 3.7000]"   perimeter_worst="(180.00000, 236.5000]"   smoothness_se="(0.0000, 0.0000]"   compactness_se="(0.00000, 0.0600]"   smoothness_worst="(0.0750, 0.1000]"   
   (((   1)   % texture_se="(0.000, 1.1000]"   perimeter_worst="(121.0899, 168.5000]"   smoothness_se="(0.0064, 0.0200]"   compactness_se="(0.00000, 0.0600]"   smoothness_worst="(0.0750, 0.1000]"   
   (   1)   % texture_se="(1.000, 2.2000]"   perimeter_worst="(121.0899, 168.5000]"   smoothness_se="(0.0064, 0.0200]"   compactness_se="(0.00000, 0.0600]"   smoothness_worst="(0.0750, 0.1000]"   
   (   1))   % texture_se="(2.000, 3.7000]"   perimeter_worst="(121.0899, 168.5000]"   smoothness_se="(0.0064, 0.0200]"   compactness_se="(0.00000, 0.0600]"   smoothness_worst="(0.0750, 0.1000]"   
   ((   1)   % texture_se="(0.000, 1.1000]"   perimeter_worst="(168.00000, 180.2000]"   smoothness_se="(0.0064, 0.0200]"   compactness_se="(0.00000, 0.0600]"   smoothness_worst="(0.0750, 0.1000]"   
   (   1)   % texture_se="(1.000, 2.2000]"   perimeter_worst="(168.00000, 180.2000]"   smoothness_se="(0.0064, 0.0200]"   compactness_se="(0.00000, 0.0600]"   smoothness_worst="(0.0750, 0.1000]"   
   (   1))   % texture_se="(2.000, 3.7000]"   perimeter_worst="(168.00000, 180.2000]"   smoothness_se="(0.0064, 0.0200]"   compactness_se="(0.00000, 0.0600]"   smoothness_worst="(0.0750, 0.1000]"   
   ((   1)   % texture_se="(0.000, 1.1000]"   perimeter_worst="(180.00000, 236.5000]"   smoothness_se="(0.0064, 0.0200]"   compactness_se="(0.00000, 0.0600]"   smoothness_worst="(0.0750, 0.1000]"   
   (   1)   % texture_se="(1.000, 2.2000]"   perimeter_worst="(180.00000, 236.5000]"   smoothness_se="(0.0064, 0.0200]"   compactness_se="(0.00000, 0.0600]"   smoothness_worst="(0.0750, 0.1000]"   
