
net {
  name = unnamedBN;
  software = "aGrUM 0.17.0";
  node_size = (50 50);
}

node radius_mean {
   states = ("(8.0000, 27.2000]" );
   label = "radius_mean";
   ID = "radius_mean";
}

node texture_mean {
   states = ("(14.000, 34.0000]" "(34.000, 38.8000]" );
   label = "texture_mean";
   ID = "texture_mean";
}

node perimeter_mean {
   states = ("(163.00000, 188.4000]" "(62.00000, 163.4000]" );
   label = "perimeter_mean";
   ID = "perimeter_mean";
}

node area_mean {
   states = ("(1835.000000, 2235.5000]" "(197.8900, 1835.3000]" );
   label = "area_mean";
   ID = "area_mean";
}

node smoothness_mean {
   states = ("(0.000, 0.1000]" "(0.0000, 0.1000]" );
   label = "smoothness_mean";
   ID = "smoothness_mean";
}

node compactness_mean {
   states = ("(0.000, 0.3000]" "(0.0000, 0.2000]" );
   label = "compactness_mean";
   ID = "compactness_mean";
}

node concavity_mean {
   states = ("(0.0000, 0.4000]" );
   label = "concavity_mean";
   ID = "concavity_mean";
}

node concave points_mean {
   states = ("(-0.0059, 0.0000]" "(0.0000, 0.0900]" "(0.0000, 0.1000]" );
   label = "concave points_mean";
   ID = "concave points_mean";
}

node symmetry_mean {
   states = ("(0.00, 0.2000]" "(0.000, 0.2000]" );
   label = "symmetry_mean";
   ID = "symmetry_mean";
}

node fractal_dimension_mean {
   states = ("(0.00000, 0.0600]" "(0.00000, 0.0900]" "(0.0419, 0.0500]" );
   label = "fractal_dimension_mean";
   ID = "fractal_dimension_mean";
}

node radius_se {
   states = ("(0.000, 0.1000]" "(0.000, 2.8000]" );
   label = "radius_se";
   ID = "radius_se";
}

node texture_se {
   states = ("(0.00, 0.0000]" "(0.00, 2.2000]" "(2.000, 3.7000]" );
   label = "texture_se";
   ID = "texture_se";
}

node perimeter_se {
   states = ("(1.000, 8.3000]" "(8.0000, 21.8000]" );
   label = "perimeter_se";
   ID = "perimeter_se";
}

node area_se {
   states = ("(12.0000, 12.5000]" "(12.00000, 482.0000]" "(482.00000, 534.1000]" );
   label = "area_se";
   ID = "area_se";
}

node smoothness_se {
   states = ("(-0.0062, 0.0070]" "(0.0000, 0.0000]" "(0.0071, 0.0200]" );
   label = "smoothness_se";
   ID = "smoothness_se";
}

node compactness_se {
   states = ("(0.0000, 0.1000]" "(0.00000, 0.0600]" "(0.0119, 0.0200]" );
   label = "compactness_se";
   ID = "compactness_se";
}

node concavity_se {
   states = ("(0.0199, 0.2000]" );
   label = "concavity_se";
   ID = "concavity_se";
}

node concave points_se {
   states = ("(-0.0023, 0.0300]" );
   label = "concave points_se";
   ID = "concave points_se";
}

node symmetry_se {
   states = ("(-0.0017, 0.0100]" "(0.00000, 0.0200]" "(0.00000, 0.0500]" );
   label = "symmetry_se";
   ID = "symmetry_se";
}

node fractal_dimension_se {
   states = ("(-0.0088, 0.0020]" "(0.0021, 0.0060]" "(0.0064, 0.0090]" );
   label = "fractal_dimension_se";
   ID = "fractal_dimension_se";
}

node radius_worst {
   states = ("(11.0000, 13.1000]" "(13.0000, 33.4000]" "(33.0000, 35.2000]" );
   label = "radius_worst";
   ID = "radius_worst";
}

node texture_worst {
   states = ("(15.0000, 24.1000]" "(24.000, 31.0000]" "(31.000, 40.7000]" );
   label = "texture_worst";
   ID = "texture_worst";
}

node perimeter_worst {
   states = ("(144.00000, 236.5000]" "(85.00000, 144.5000]" );
   label = "perimeter_worst";
   ID = "perimeter_worst";
}

node area_worst {
   states = ("(257.0000, 515.0000]" "(515.00000, 3893.2000]" );
   label = "area_worst";
   ID = "area_worst";
}

node smoothness_worst {
   states = ("(0.000, 0.2000]" "(0.0750, 0.1000]" );
   label = "smoothness_worst";
   ID = "smoothness_worst";
}

node compactness_worst {
   states = ("(0.000, 0.2000]" "(0.000, 0.9000]" );
   label = "compactness_worst";
   ID = "compactness_worst";
}

node concavity_worst {
   states = ("(0.000, 1.1000]" "(0.0029, 0.3000]" );
   label = "concavity_worst";
   ID = "concavity_worst";
}

node concave points_worst {
   states = ("(0.000, 0.0000]" "(0.0009, 0.0800]" );
   label = "concave points_worst";
   ID = "concave points_worst";
}

node symmetry_worst {
   states = ("(0.000, 0.2000]" "(0.000, 0.6000]" );
   label = "symmetry_worst";
   ID = "symmetry_worst";
}

node fractal_dimension_worst {
   states = ("(0.0000, 0.1000]" "(0.00000, 0.0800]" );
   label = "fractal_dimension_worst";
   ID = "fractal_dimension_worst";
}

node diagnosis {
   states = (No Yes );
   label = "diagnosis";
   ID = "diagnosis";
}

potential ( radius_mean | smoothness_se   diagnosis   fractal_dimension_mean   concave points_mean   compactness_se   ) {
   data = 
   ((((((   1)   % smoothness_se="(-0.0062, 0.0070]"   diagnosis=No   fractal_dimension_mean="(0.00000, 0.0600]"   concave points_mean="(-0.0059, 0.0000]"   compactness_se="(0.0000, 0.1000]"   
   (   1)   % smoothness_se="(0.0000, 0.0000]"   diagnosis=No   fractal_dimension_mean="(0.00000, 0.0600]"   concave points_mean="(-0.0059, 0.0000]"   compactness_se="(0.0000, 0.1000]"   
   (   1))   % smoothness_se="(0.0071, 0.0200]"   diagnosis=No   fractal_dimension_mean="(0.00000, 0.0600]"   concave points_mean="(-0.0059, 0.0000]"   compactness_se="(0.0000, 0.1000]"   
   ((   1)   % smoothness_se="(-0.0062, 0.0070]"   diagnosis=Yes   fractal_dimension_mean="(0.00000, 0.0600]"   concave points_mean="(-0.0059, 0.0000]"   compactness_se="(0.0000, 0.1000]"   
   (   1)   % smoothness_se="(0.0000, 0.0000]"   diagnosis=Yes   fractal_dimension_mean="(0.00000, 0.0600]"   concave points_mean="(-0.0059, 0.0000]"   compactness_se="(0.0000, 0.1000]"   
   (   1)))   % smoothness_se="(0.0071, 0.0200]"   diagnosis=Yes   fractal_dimension_mean="(0.00000, 0.0600]"   concave points_mean="(-0.0059, 0.0000]"   compactness_se="(0.0000, 0.1000]"   
   (((   1)   % smoothness_se="(-0.0062, 0.0070]"   diagnosis=No   fractal_dimension_mean="(0.00000, 0.0900]"   concave points_mean="(-0.0059, 0.0000]"   compactness_se="(0.0000, 0.1000]"   
   (   1)   % smoothness_se="(0.0000, 0.0000]"   diagnosis=No   fractal_dimension_mean="(0.00000, 0.0900]"   concave points_mean="(-0.0059, 0.0000]"   compactness_se="(0.0000, 0.1000]"   
   (   1))   % smoothness_se="(0.0071, 0.0200]"   diagnosis=No   fractal_dimension_mean="(0.00000, 0.0900]"   concave points_mean="(-0.0059, 0.0000]"   compactness_se="(0.0000, 0.1000]"   
   ((   1)   % smoothness_se="(-0.0062, 0.0070]"   diagnosis=Yes   fractal_dimension_mean="(0.00000, 0.0900]"   concave points_mean="(-0.0059, 0.0000]"   compactness_se="(0.0000, 0.1000]"   
   (   1)   % smoothness_se="(0.0000, 0.0000]"   diagnosis=Yes   fractal_dimension_mean="(0.00000, 0.0900]"   concave points_mean="(-0.0059, 0.0000]"   compactness_se="(0.0000, 0.1000]"   
   (   1)))   % smoothness_se="(0.0071, 0.0200]"   diagnosis=Yes   fractal_dimension_mean="(0.00000, 0.0900]"   concave points_mean="(-0.0059, 0.0000]"   compactness_se="(0.0000, 0.1000]"   
   (((   1)   % smoothness_se="(-0.0062, 0.0070]"   diagnosis=No   fractal_dimension_mean="(0.0419, 0.0500]"   concave points_mean="(-0.0059, 0.0000]"   compactness_se="(0.0000, 0.1000]"   
   (   1)   % smoothness_se="(0.0000, 0.0000]"   diagnosis=No   fractal_dimension_mean="(0.0419, 0.0500]"   concave points_mean="(-0.0059, 0.0000]"   compactness_se="(0.0000, 0.1000]"   
   (   1))   % smoothness_se="(0.0071, 0.0200]"   diagnosis=No   fractal_dimension_mean="(0.0419, 0.0500]"   concave points_mean="(-0.0059, 0.0000]"   compactness_se="(0.0000, 0.1000]"   
   ((   1)   % smoothness_se="(-0.0062, 0.0070]"   diagnosis=Yes   fractal_dimension_mean="(0.0419, 0.0500]"   concave points_mean="(-0.0059, 0.0000]"   compactness_se="(0.0000, 0.1000]"   
   (   1)   % smoothness_se="(0.0000, 0.0000]"   diagnosis=Yes   fractal_dimension_mean="(0.0419, 0.0500]"   concave points_mean="(-0.0059, 0.0000]"   compactness_se="(0.0000, 0.1000]"   
   (   1))))   % smoothness_se="(0.0071, 0.0200]"   diagnosis=Yes   fractal_dimension_mean="(0.0419, 0.0500]"   concave points_mean="(-0.0059, 0.0000]"   compactness_se="(0.0000, 0.1000]"   
   ((((   1)   % smoothness_se="(-0.0062, 0.0070]"   diagnosis=No   fractal_dimension_mean="(0.00000, 0.0600]"   concave points_mean="(0.0000, 0.0900]"   compactness_se="(0.0000, 0.1000]"   
   (   1)   % smoothness_se="(0.0000, 0.0000]"   diagnosis=No   fractal_dimension_mean="(0.00000, 0.0600]"   concave points_mean="(0.0000, 0.0900]"   compactness_se="(0.0000, 0.1000]"   
   (   1))   % smoothness_se="(0.0071, 0.0200]"   diagnosis=No   fractal_dimension_mean="(0.00000, 0.0600]"   concave points_mean="(0.0000, 0.0900]"   compactness_se="(0.0000, 0.1000]"   
   ((   1)   % smoothness_se="(-0.0062, 0.0070]"   diagnosis=Yes   fractal_dimension_mean="(0.00000, 0.0600]"   concave points_mean="(0.0000, 0.0900]"   compactness_se="(0.0000, 0.1000]"   
   (   1)   % smoothness_se="(0.0000, 0.0000]"   diagnosis=Yes   fractal_dimension_mean="(0.00000, 0.0600]"   concave points_mean="(0.0000, 0.0900]"   compactness_se="(0.0000, 0.1000]"   
   (   1)))   % smoothness_se="(0.0071, 0.0200]"   diagnosis=Yes   fractal_dimension_mean="(0.00000, 0.0600]"   concave points_mean="(0.0000, 0.0900]"   compactness_se="(0.0000, 0.1000]"   
   (((   1)   % smoothness_se="(-0.0062, 0.0070]"   diagnosis=No   fractal_dimension_mean="(0.00000, 0.0900]"   concave points_mean="(0.0000, 0.0900]"   compactness_se="(0.0000, 0.1000]"   
   (   1)   % smoothness_se="(0.0000, 0.0000]"   diagnosis=No   fractal_dimension_mean="(0.00000, 0.0900]"   concave points_mean="(0.0000, 0.0900]"   compactness_se="(0.0000, 0.1000]"   
   (   1))   % smoothness_se="(0.0071, 0.0200]"   diagnosis=No   fractal_dimension_mean="(0.00000, 0.0900]"   concave points_mean="(0.0000, 0.0900]"   compactness_se="(0.0000, 0.1000]"   
   ((   1)   % smoothness_se="(-0.0062, 0.0070]"   diagnosis=Yes   fractal_dimension_mean="(0.00000, 0.0900]"   concave points_mean="(0.0000, 0.0900]"   compactness_se="(0.0000, 0.1000]"   
   (   1)   % smoothness_se="(0.0000, 0.0000]"   diagnosis=Yes   fractal_dimension_mean="(0.00000, 0.0900]"   concave points_mean="(0.0000, 0.0900]"   compactness_se="(0.0000, 0.1000]"   
   (   1)))   % smoothness_se="(0.0071, 0.0200]"   diagnosis=Yes   fractal_dimension_mean="(0.00000, 0.0900]"   concave points_mean="(0.0000, 0.0900]"   compactness_se="(0.0000, 0.1000]"   
   (((   1)   % smoothness_se="(-0.0062, 0.0070]"   diagnosis=No   fractal_dimension_mean="(0.0419, 0.0500]"   concave points_mean="(0.0000, 0.0900]"   compactness_se="(0.0000, 0.1000]"   
   (   1)   % smoothness_se="(0.0000, 0.0000]"   diagnosis=No   fractal_dimension_mean="(0.0419, 0.0500]"   concave points_mean="(0.0000, 0.0900]"   compactness_se="(0.0000, 0.1000]"   
   (   1))   % smoothness_se="(0.0071, 0.0200]"   diagnosis=No   fractal_dimension_mean="(0.0419, 0.0500]"   concave points_mean="(0.0000, 0.0900]"   compactness_se="(0.0000, 0.1000]"   
   ((   1)   % smoothness_se="(-0.0062, 0.0070]"   diagnosis=Yes   fractal_dimension_mean="(0.0419, 0.0500]"   concave points_mean="(0.0000, 0.0900]"   compactness_se="(0.0000, 0.1000]"   
   (   1)   % smoothness_se="(0.0000, 0.0000]"   diagnosis=Yes   fractal_dimension_mean="(0.0419, 0.0500]"   concave points_mean="(0.0000, 0.0900]"   compactness_se="(0.0000, 0.1000]"   
   (   1))))   % smoothness_se="(0.0071, 0.0200]"   diagnosis=Yes   fractal_dimension_mean="(0.0419, 0.0500]"   concave points_mean="(0.0000, 0.0900]"   compactness_se="(0.0000, 0.1000]"   
   ((((   1)   % smoothness_se="(-0.0062, 0.0070]"   diagnosis=No   fractal_dimension_mean="(0.00000, 0.0600]"   concave points_mean="(0.0000, 0.1000]"   compactness_se="(0.0000, 0.1000]"   
   (   1)   % smoothness_se="(0.0000, 0.0000]"   diagnosis=No   fractal_dimension_mean="(0.00000, 0.0600]"   concave points_mean="(0.0000, 0.1000]"   compactness_se="(0.0000, 0.1000]"   
   (   1))   % smoothness_se="(0.0071, 0.0200]"   diagnosis=No   fractal_dimension_mean="(0.00000, 0.0600]"   concave points_mean="(0.0000, 0.1000]"   compactness_se="(0.0000, 0.1000]"   
   ((   1)   % smoothness_se="(-0.0062, 0.0070]"   diagnosis=Yes   fractal_dimension_mean="(0.00000, 0.0600]"   concave points_mean="(0.0000, 0.1000]"   compactness_se="(0.0000, 0.1000]"   
   (   1)   % smoothness_se="(0.0000, 0.0000]"   diagnosis=Yes   fractal_dimension_mean="(0.00000, 0.0600]"   concave points_mean="(0.0000, 0.1000]"   compactness_se="(0.0000, 0.1000]"   
   (   1)))   % smoothness_se="(0.0071, 0.0200]"   diagnosis=Yes   fractal_dimension_mean="(0.00000, 0.0600]"   concave points_mean="(0.0000, 0.1000]"   compactness_se="(0.0000, 0.1000]"   
   (((   1)   % smoothness_se="(-0.0062, 0.0070]"   diagnosis=No   fractal_dimension_mean="(0.00000, 0.0900]"   concave points_mean="(0.0000, 0.1000]"   compactness_se="(0.0000, 0.1000]"   
   (   1)   % smoothness_se="(0.0000, 0.0000]"   diagnosis=No   fractal_dimension_mean="(0.00000, 0.0900]"   concave points_mean="(0.0000, 0.1000]"   compactness_se="(0.0000, 0.1000]"   
   (   1))   % smoothness_se="(0.0071, 0.0200]"   diagnosis=No   fractal_dimension_mean="(0.00000, 0.0900]"   concave points_mean="(0.0000, 0.1000]"   compactness_se="(0.0000, 0.1000]"   
   ((   1)   % smoothness_se="(-0.0062, 0.0070]"   diagnosis=Yes   fractal_dimension_mean="(0.00000, 0.0900]"   concave points_mean="(0.0000, 0.1000]"   compactness_se="(0.0000, 0.1000]"   
   (   1)   % smoothness_se="(0.0000, 0.0000]"   diagnosis=Yes   fractal_dimension_mean="(0.00000, 0.0900]"   concave points_mean="(0.0000, 0.1000]"   compactness_se="(0.0000, 0.1000]"   
   (   1)))   % smoothness_se="(0.0071, 0.0200]"   diagnosis=Yes   fractal_dimension_mean="(0.00000, 0.0900]"   concave points_mean="(0.0000, 0.1000]"   compactness_se="(0.0000, 0.1000]"   
   (((   1)   % smoothness_se="(-0.0062, 0.0070]"   diagnosis=No   fractal_dimension_mean="(0.0419, 0.0500]"   concave points_mean="(0.0000, 0.1000]"   compactness_se="(0.0000, 0.1000]"   
   (   1)   % smoothness_se="(0.0000, 0.0000]"   diagnosis=No   fractal_dimension_mean="(0.0419, 0.0500]"   concave points_mean="(0.0000, 0.1000]"   compactness_se="(0.0000, 0.1000]"   
   (   1))   % smoothness_se="(0.0071, 0.0200]"   diagnosis=No   fractal_dimension_mean="(0.0419, 0.0500]"   concave points_mean="(0.0000, 0.1000]"   compactness_se="(0.0000, 0.1000]"   
   ((   1)   % smoothness_se="(-0.0062, 0.0070]"   diagnosis=Yes   fractal_dimension_mean="(0.0419, 0.0500]"   concave points_mean="(0.0000, 0.1000]"   compactness_se="(0.0000, 0.1000]"   
   (   1)   % smoothness_se="(0.0000, 0.0000]"   diagnosis=Yes   fractal_dimension_mean="(0.0419, 0.0500]"   concave points_mean="(0.0000, 0.1000]"   compactness_se="(0.0000, 0.1000]"   
   (   1)))))   % smoothness_se="(0.0071, 0.0200]"   diagnosis=Yes   fractal_dimension_mean="(0.0419, 0.0500]"   concave points_mean="(0.0000, 0.1000]"   compactness_se="(0.0000, 0.1000]"   
   (((((   1)   % smoothness_se="(-0.0062, 0.0070]"   diagnosis=No   fractal_dimension_mean="(0.00000, 0.0600]"   concave points_mean="(-0.0059, 0.0000]"   compactness_se="(0.00000, 0.0600]"   
   (   1)   % smoothness_se="(0.0000, 0.0000]"   diagnosis=No   fractal_dimension_mean="(0.00000, 0.0600]"   concave points_mean="(-0.0059, 0.0000]"   compactness_se="(0.00000, 0.0600]"   
   (   1))   % smoothness_se="(0.0071, 0.0200]"   diagnosis=No   fractal_dimension_mean="(0.00000, 0.0600]"   concave points_mean="(-0.0059, 0.0000]"   compactness_se="(0.00000, 0.0600]"   
   ((   1)   % smoothness_se="(-0.0062, 0.0070]"   diagnosis=Yes   fractal_dimension_mean="(0.00000, 0.0600]"   concave points_mean="(-0.0059, 0.0000]"   compactness_se="(0.00000, 0.0600]"   
   (   1)   % smoothness_se="(0.0000, 0.0000]"   diagnosis=Yes   fractal_dimension_mean="(0.00000, 0.0600]"   concave points_mean="(-0.0059, 0.0000]"   compactness_se="(0.00000, 0.0600]"   
   (   1)))   % smoothness_se="(0.0071, 0.0200]"   diagnosis=Yes   fractal_dimension_mean="(0.00000, 0.0600]"   concave points_mean="(-0.0059, 0.0000]"   compactness_se="(0.00000, 0.0600]"   
   (((   1)   % smoothness_se="(-0.0062, 0.0070]"   diagnosis=No   fractal_dimension_mean="(0.00000, 0.0900]"   concave points_mean="(-0.0059, 0.0000]"   compactness_se="(0.00000, 0.0600]"   
   (   1)   % smoothness_se="(0.0000, 0.0000]"   diagnosis=No   fractal_dimension_mean="(0.00000, 0.0900]"   concave points_mean="(-0.0059, 0.0000]"   compactness_se="(0.00000, 0.0600]"   
   (   1))   % smoothness_se="(0.0071, 0.0200]"   diagnosis=No   fractal_dimension_mean="(0.00000, 0.0900]"   concave points_mean="(-0.0059, 0.0000]"   compactness_se="(0.00000, 0.0600]"   
   ((   1)   % smoothness_se="(-0.0062, 0.0070]"   diagnosis=Yes   fractal_dimension_mean="(0.00000, 0.0900]"   concave points_mean="(-0.0059, 0.0000]"   compactness_se="(0.00000, 0.0600]"   
   (   1)   % smoothness_se="(0.0000, 0.0000]"   diagnosis=Yes   fractal_dimension_mean="(0.00000, 0.0900]"   concave points_mean="(-0.0059, 0.0000]"   compactness_se="(0.00000, 0.0600]"   
   (   1)))   % smoothness_se="(0.0071, 0.0200]"   diagnosis=Yes   fractal_dimension_mean="(0.00000, 0.0900]"   concave points_mean="(-0.0059, 0.0000]"   compactness_se="(0.00000, 0.0600]"   
   (((   1)   % smoothness_se="(-0.0062, 0.0070]"   diagnosis=No   fractal_dimension_mean="(0.0419, 0.0500]"   concave points_mean="(-0.0059, 0.0000]"   compactness_se="(0.00000, 0.0600]"   
   (   1)   % smoothness_se="(0.0000, 0.0000]"   diagnosis=No   fractal_dimension_mean="(0.0419, 0.0500]"   concave points_mean="(-0.0059, 0.0000]"   compactness_se="(0.00000, 0.0600]"   
   (   1))   % smoothness_se="(0.0071, 0.0200]"   diagnosis=No   fractal_dimension_mean="(0.0419, 0.0500]"   concave points_mean="(-0.0059, 0.0000]"   compactness_se="(0.00000, 0.0600]"   
   ((   1)   % smoothness_se="(-0.0062, 0.0070]"   diagnosis=Yes   fractal_dimension_mean="(0.0419, 0.0500]"   concave points_mean="(-0.0059, 0.0000]"   compactness_se="(0.00000, 0.0600]"   
   (   1)   % smoothness_se="(0.0000, 0.0000]"   diagnosis=Yes   fractal_dimension_mean="(0.0419, 0.0500]"   concave points_mean="(-0.0059, 0.0000]"   compactness_se="(0.00000, 0.0600]"   
   (   1))))   % smoothness_se="(0.0071, 0.0200]"   diagnosis=Yes   fractal_dimension_mean="(0.0419, 0.0500]"   concave points_mean="(-0.0059, 0.0000]"   compactness_se="(0.00000, 0.0600]"   
   ((((   1)   % smoothness_se="(-0.0062, 0.0070]"   diagnosis=No   fractal_dimension_mean="(0.00000, 0.0600]"   concave points_mean="(0.0000, 0.0900]"   compactness_se="(0.00000, 0.0600]"   
   (   1)   % smoothness_se="(0.0000, 0.0000]"   diagnosis=No   fractal_dimension_mean="(0.00000, 0.0600]"   concave points_mean="(0.0000, 0.0900]"   compactness_se="(0.00000, 0.0600]"   
   (   1))   % smoothness_se="(0.0071, 0.0200]"   diagnosis=No   fractal_dimension_mean="(0.00000, 0.0600]"   concave points_mean="(0.0000, 0.0900]"   compactness_se="(0.00000, 0.0600]"   
   ((   1)   % smoothness_se="(-0.0062, 0.0070]"   diagnosis=Yes   fractal_dimension_mean="(0.00000, 0.0600]"   concave points_mean="(0.0000, 0.0900]"   compactness_se="(0.00000, 0.0600]"   
   (   1)   % smoothness_se="(0.0000, 0.0000]"   diagnosis=Yes   fractal_dimension_mean="(0.00000, 0.0600]"   concave points_mean="(0.0000, 0.0900]"   compactness_se="(0.00000, 0.0600]"   
   (   1)))   % smoothness_se="(0.0071, 0.0200]"   diagnosis=Yes   fractal_dimension_mean="(0.00000, 0.0600]"   concave points_mean="(0.0000, 0.0900]"   compactness_se="(0.00000, 0.0600]"   
   (((   1)   % smoothness_se="(-0.0062, 0.0070]"   diagnosis=No   fractal_dimension_mean="(0.00000, 0.0900]"   concave points_mean="(0.0000, 0.0900]"   compactness_se="(0.00000, 0.0600]"   
   (   1)   % smoothness_se="(0.0000, 0.0000]"   diagnosis=No   fractal_dimension_mean="(0.00000, 0.0900]"   concave points_mean="(0.0000, 0.0900]"   compactness_se="(0.00000, 0.0600]"   
   (   1))   % smoothness_se="(0.0071, 0.0200]"   diagnosis=No   fractal_dimension_mean="(0.00000, 0.0900]"   concave points_mean="(0.0000, 0.0900]"   compactness_se="(0.00000, 0.0600]"   
   ((   1)   % smoothness_se="(-0.0062, 0.0070]"   diagnosis=Yes   fractal_dimension_mean="(0.00000, 0.0900]"   concave points_mean="(0.0000, 0.0900]"   compactness_se="(0.00000, 0.0600]"   
   (   1)   % smoothness_se="(0.0000, 0.0000]"   diagnosis=Yes   fractal_dimension_mean="(0.00000, 0.0900]"   concave points_mean="(0.0000, 0.0900]"   compactness_se="(0.00000, 0.0600]"   
   (   1)))   % smoothness_se="(0.0071, 0.0200]"   diagnosis=Yes   fractal_dimension_mean="(0.00000, 0.0900]"   concave points_mean="(0.0000, 0.0900]"   compactness_se="(0.00000, 0.0600]"   
   (((   1)   % smoothness_se="(-0.0062, 0.0070]"   diagnosis=No   fractal_dimension_mean="(0.0419, 0.0500]"   concave points_mean="(0.0000, 0.0900]"   compactness_se="(0.00000, 0.0600]"   
   (   1)   % smoothness_se="(0.0000, 0.0000]"   diagnosis=No   fractal_dimension_mean="(0.0419, 0.0500]"   concave points_mean="(0.0000, 0.0900]"   compactness_se="(0.00000, 0.0600]"   
   (   1))   % smoothness_se="(0.0071, 0.0200]"   diagnosis=No   fractal_dimension_mean="(0.0419, 0.0500]"   concave points_mean="(0.0000, 0.0900]"   compactness_se="(0.00000, 0.0600]"   
   ((   1)   % smoothness_se="(-0.0062, 0.0070]"   diagnosis=Yes   fractal_dimension_mean="(0.0419, 0.0500]"   concave points_mean="(0.0000, 0.0900]"   compactness_se="(0.00000, 0.0600]"   
   (   1)   % smoothness_se="(0.0000, 0.0000]"   diagnosis=Yes   fractal_dimension_mean="(0.0419, 0.0500]"   concave points_mean="(0.0000, 0.0900]"   compactness_se="(0.00000, 0.0600]"   
   (   1))))   % smoothness_se="(0.0071, 0.0200]"   diagnosis=Yes   fractal_dimension_mean="(0.0419, 0.0500]"   concave points_mean="(0.0000, 0.0900]"   compactness_se="(0.00000, 0.0600]"   
   ((((   1)   % smoothness_se="(-0.0062, 0.0070]"   diagnosis=No   fractal_dimension_mean="(0.00000, 0.0600]"   concave points_mean="(0.0000, 0.1000]"   compactness_se="(0.00000, 0.0600]"   
   (   1)   % smoothness_se="(0.0000, 0.0000]"   diagnosis=No   fractal_dimension_mean="(0.00000, 0.0600]"   concave points_mean="(0.0000, 0.1000]"   compactness_se="(0.00000, 0.0600]"   
   (   1))   % smoothness_se="(0.0071, 0.0200]"   diagnosis=No   fractal_dimension_mean="(0.00000, 0.0600]"   concave points_mean="(0.0000, 0.1000]"   compactness_se="(0.00000, 0.0600]"   
   ((   1)   % smoothness_se="(-0.0062, 0.0070]"   diagnosis=Yes   fractal_dimension_mean="(0.00000, 0.0600]"   concave points_mean="(0.0000, 0.1000]"   compactness_se="(0.00000, 0.0600]"   
   (   1)   % smoothness_se="(0.0000, 0.0000]"   diagnosis=Yes   fractal_dimension_mean="(0.00000, 0.0600]"   concave points_mean="(0.0000, 0.1000]"   compactness_se="(0.00000, 0.0600]"   
   (   1)))   % smoothness_se="(0.0071, 0.0200]"   diagnosis=Yes   fractal_dimension_mean="(0.00000, 0.0600]"   concave points_mean="(0.0000, 0.1000]"   compactness_se="(0.00000, 0.0600]"   
   (((   1)   % smoothness_se="(-0.0062, 0.0070]"   diagnosis=No   fractal_dimension_mean="(0.00000, 0.0900]"   concave points_mean="(0.0000, 0.1000]"   compactness_se="(0.00000, 0.0600]"   
   (   1)   % smoothness_se="(0.0000, 0.0000]"   diagnosis=No   fractal_dimension_mean="(0.00000, 0.0900]"   concave points_mean="(0.0000, 0.1000]"   compactness_se="(0.00000, 0.0600]"   
   (   1))   % smoothness_se="(0.0071, 0.0200]"   diagnosis=No   fractal_dimension_mean="(0.00000, 0.0900]"   concave points_mean="(0.0000, 0.1000]"   compactness_se="(0.00000, 0.0600]"   
   ((   1)   % smoothness_se="(-0.0062, 0.0070]"   diagnosis=Yes   fractal_dimension_mean="(0.00000, 0.0900]"   concave points_mean="(0.0000, 0.1000]"   compactness_se="(0.00000, 0.0600]"   
   (   1)   % smoothness_se="(0.0000, 0.0000]"   diagnosis=Yes   fractal_dimension_mean="(0.00000, 0.0900]"   concave points_mean="(0.0000, 0.1000]"   compactness_se="(0.00000, 0.0600]"   
   (   1)))   % smoothness_se="(0.0071, 0.0200]"   diagnosis=Yes   fractal_dimension_mean="(0.00000, 0.0900]"   concave points_mean="(0.0000, 0.1000]"   compactness_se="(0.00000, 0.0600]"   
   (((   1)   % smoothness_se="(-0.0062, 0.0070]"   diagnosis=No   fractal_dimension_mean="(0.0419, 0.0500]"   concave points_mean="(0.0000, 0.1000]"   compactness_se="(0.00000, 0.0600]"   
   (   1)   % smoothness_se="(0.0000, 0.0000]"   diagnosis=No   fractal_dimension_mean="(0.0419, 0.0500]"   concave points_mean="(0.0000, 0.1000]"   compactness_se="(0.00000, 0.0600]"   
   (   1))   % smoothness_se="(0.0071, 0.0200]"   diagnosis=No   fractal_dimension_mean="(0.0419, 0.0500]"   concave points_mean="(0.0000, 0.1000]"   compactness_se="(0.00000, 0.0600]"   
   ((   1)   % smoothness_se="(-0.0062, 0.0070]"   diagnosis=Yes   fractal_dimension_mean="(0.0419, 0.0500]"   concave points_mean="(0.0000, 0.1000]"   compactness_se="(0.00000, 0.0600]"   
   (   1)   % smoothness_se="(0.0000, 0.0000]"   diagnosis=Yes   fractal_dimension_mean="(0.0419, 0.0500]"   concave points_mean="(0.0000, 0.1000]"   compactness_se="(0.00000, 0.0600]"   
   (   1)))))   % smoothness_se="(0.0071, 0.0200]"   diagnosis=Yes   fractal_dimension_mean="(0.0419, 0.0500]"   concave points_mean="(0.0000, 0.1000]"   compactness_se="(0.00000, 0.0600]"   
   (((((   1)   % smoothness_se="(-0.0062, 0.0070]"   diagnosis=No   fractal_dimension_mean="(0.00000, 0.0600]"   concave points_mean="(-0.0059, 0.0000]"   compactness_se="(0.0119, 0.0200]"   
   (   1)   % smoothness_se="(0.0000, 0.0000]"   diagnosis=No   fractal_dimension_mean="(0.00000, 0.0600]"   concave points_mean="(-0.0059, 0.0000]"   compactness_se="(0.0119, 0.0200]"   
   (   1))   % smoothness_se="(0.0071, 0.0200]"   diagnosis=No   fractal_dimension_mean="(0.00000, 0.0600]"   concave points_mean="(-0.0059, 0.0000]"   compactness_se="(0.0119, 0.0200]"   
   ((   1)   % smoothness_se="(-0.0062, 0.0070]"   diagnosis=Yes   fractal_dimension_mean="(0.00000, 0.0600]"   concave points_mean="(-0.0059, 0.0000]"   compactness_se="(0.0119, 0.0200]"   
   (   1)   % smoothness_se="(0.0000, 0.0000]"   diagnosis=Yes   fractal_dimension_mean="(0.00000, 0.0600]"   concave points_mean="(-0.0059, 0.0000]"   compactness_se="(0.0119, 0.0200]"   
   (   1)))   % smoothness_se="(0.0071, 0.0200]"   diagnosis=Yes   fractal_dimension_mean="(0.00000, 0.0600]"   concave points_mean="(-0.0059, 0.0000]"   compactness_se="(0.0119, 0.0200]"   
   (((   1)   % smoothness_se="(-0.0062, 0.0070]"   diagnosis=No   fractal_dimension_mean="(0.00000, 0.0900]"   concave points_mean="(-0.0059, 0.0000]"   compactness_se="(0.0119, 0.0200]"   
   (   1)   % smoothness_se="(0.0000, 0.0000]"   diagnosis=No   fractal_dimension_mean="(0.00000, 0.0900]"   concave points_mean="(-0.0059, 0.0000]"   compactness_se="(0.0119, 0.0200]"   
   (   1))   % smoothness_se="(0.0071, 0.0200]"   diagnosis=No   fractal_dimension_mean="(0.00000, 0.0900]"   concave points_mean="(-0.0059, 0.0000]"   compactness_se="(0.0119, 0.0200]"   
   ((   1)   % smoothness_se="(-0.0062, 0.0070]"   diagnosis=Yes   fractal_dimension_mean="(0.00000, 0.0900]"   concave points_mean="(-0.0059, 0.0000]"   compactness_se="(0.0119, 0.0200]"   
   (   1)   % smoothness_se="(0.0000, 0.0000]"   diagnosis=Yes   fractal_dimension_mean="(0.00000, 0.0900]"   concave points_mean="(-0.0059, 0.0000]"   compactness_se="(0.0119, 0.0200]"   
   (   1)))   % smoothness_se="(0.0071, 0.0200]"   diagnosis=Yes   fractal_dimension_mean="(0.00000, 0.0900]"   concave points_mean="(-0.0059, 0.0000]"   compactness_se="(0.0119, 0.0200]"   
   (((   1)   % smoothness_se="(-0.0062, 0.0070]"   diagnosis=No   fractal_dimension_mean="(0.0419, 0.0500]"   concave points_mean="(-0.0059, 0.0000]"   compactness_se="(0.0119, 0.0200]"   
   (   1)   % smoothness_se="(0.0000, 0.0000]"   diagnosis=No   fractal_dimension_mean="(0.0419, 0.0500]"   concave points_mean="(-0.0059, 0.0000]"   compactness_se="(0.0119, 0.0200]"   
   (   1))   % smoothness_se="(0.0071, 0.0200]"   diagnosis=No   fractal_dimension_mean="(0.0419, 0.0500]"   concave points_mean="(-0.0059, 0.0000]"   compactness_se="(0.0119, 0.0200]"   
   ((   1)   % smoothness_se="(-0.0062, 0.0070]"   diagnosis=Yes   fractal_dimension_mean="(0.0419, 0.0500]"   concave points_mean="(-0.0059, 0.0000]"   compactness_se="(0.0119, 0.0200]"   
   (   1)   % smoothness_se="(0.0000, 0.0000]"   diagnosis=Yes   fractal_dimension_mean="(0.0419, 0.0500]"   concave points_mean="(-0.0059, 0.0000]"   compactness_se="(0.0119, 0.0200]"   
   (   1))))   % smoothness_se="(0.0071, 0.0200]"   diagnosis=Yes   fractal_dimension_mean="(0.0419, 0.0500]"   concave points_mean="(-0.0059, 0.0000]"   compactness_se="(0.0119, 0.0200]"   
   ((((   1)   % smoothness_se="(-0.0062, 0.0070]"   diagnosis=No   fractal_dimension_mean="(0.00000, 0.0600]"   concave points_mean="(0.0000, 0.0900]"   compactness_se="(0.0119, 0.0200]"   
   (   1)   % smoothness_se="(0.0000, 0.0000]"   diagnosis=No   fractal_dimension_mean="(0.00000, 0.0600]"   concave points_mean="(0.0000, 0.0900]"   compactness_se="(0.0119, 0.0200]"   
   (   1))   % smoothness_se="(0.0071, 0.0200]"   diagnosis=No   fractal_dimension_mean="(0.00000, 0.0600]"   concave points_mean="(0.0000, 0.0900]"   compactness_se="(0.0119, 0.0200]"   
   ((   1)   % smoothness_se="(-0.0062, 0.0070]"   diagnosis=Yes   fractal_dimension_mean="(0.00000, 0.0600]"   concave points_mean="(0.0000, 0.0900]"   compactness_se="(0.0119, 0.0200]"   
   (   1)   % smoothness_se="(0.0000, 0.0000]"   diagnosis=Yes   fractal_dimension_mean="(0.00000, 0.0600]"   concave points_mean="(0.0000, 0.0900]"   compactness_se="(0.0119, 0.0200]"   
   (   1)))   % smoothness_se="(0.0071, 0.0200]"   diagnosis=Yes   fractal_dimension_mean="(0.00000, 0.0600]"   concave points_mean="(0.0000, 0.0900]"   compactness_se="(0.0119, 0.0200]"   
   (((   1)   % smoothness_se="(-0.0062, 0.0070]"   diagnosis=No   fractal_dimension_mean="(0.00000, 0.0900]"   concave points_mean="(0.0000, 0.0900]"   compactness_se="(0.0119, 0.0200]"   
   (   1)   % smoothness_se="(0.0000, 0.0000]"   diagnosis=No   fractal_dimension_mean="(0.00000, 0.0900]"   concave points_mean="(0.0000, 0.0900]"   compactness_se="(0.0119, 0.0200]"   
   (   1))   % smoothness_se="(0.0071, 0.0200]"   diagnosis=No   fractal_dimension_mean="(0.00000, 0.0900]"   concave points_mean="(0.0000, 0.0900]"   compactness_se="(0.0119, 0.0200]"   
   ((   1)   % smoothness_se="(-0.0062, 0.0070]"   diagnosis=Yes   fractal_dimension_mean="(0.00000, 0.0900]"   concave points_mean="(0.0000, 0.0900]"   compactness_se="(0.0119, 0.0200]"   
   (   1)   % smoothness_se="(0.0000, 0.0000]"   diagnosis=Yes   fractal_dimension_mean="(0.00000, 0.0900]"   concave points_mean="(0.0000, 0.0900]"   compactness_se="(0.0119, 0.0200]"   
   (   1)))   % smoothness_se="(0.0071, 0.0200]"   diagnosis=Yes   fractal_dimension_mean="(0.00000, 0.0900]"   concave points_mean="(0.0000, 0.0900]"   compactness_se="(0.0119, 0.0200]"   
   (((   1)   % smoothness_se="(-0.0062, 0.0070]"   diagnosis=No   fractal_dimension_mean="(0.0419, 0.0500]"   concave points_mean="(0.0000, 0.0900]"   compactness_se="(0.0119, 0.0200]"   
   (   1)   % smoothness_se="(0.0000, 0.0000]"   diagnosis=No   fractal_dimension_mean="(0.0419, 0.0500]"   concave points_mean="(0.0000, 0.0900]"   compactness_se="(0.0119, 0.0200]"   
   (   1))   % smoothness_se="(0.0071, 0.0200]"   diagnosis=No   fractal_dimension_mean="(0.0419, 0.0500]"   concave points_mean="(0.0000, 0.0900]"   compactness_se="(0.0119, 0.0200]"   
   ((   1)   % smoothness_se="(-0.0062, 0.0070]"   diagnosis=Yes   fractal_dimension_mean="(0.0419, 0.0500]"   concave points_mean="(0.0000, 0.0900]"   compactness_se="(0.0119, 0.0200]"   
   (   1)   % smoothness_se="(0.0000, 0.0000]"   diagnosis=Yes   fractal_dimension_mean="(0.0419, 0.0500]"   concave points_mean="(0.0000, 0.0900]"   compactness_se="(0.0119, 0.0200]"   
   (   1))))   % smoothness_se="(0.0071, 0.0200]"   diagnosis=Yes   fractal_dimension_mean="(0.0419, 0.0500]"   concave points_mean="(0.0000, 0.0900]"   compactness_se="(0.0119, 0.0200]"   
   ((((   1)   % smoothness_se="(-0.0062, 0.0070]"   diagnosis=No   fractal_dimension_mean="(0.00000, 0.0600]"   concave points_mean="(0.0000, 0.1000]"   compactness_se="(0.0119, 0.0200]"   
   (   1)   % smoothness_se="(0.0000, 0.0000]"   diagnosis=No   fractal_dimension_mean="(0.00000, 0.0600]"   concave points_mean="(0.0000, 0.1000]"   compactness_se="(0.0119, 0.0200]"   
   (   1))   % smoothness_se="(0.0071, 0.0200]"   diagnosis=No   fractal_dimension_mean="(0.00000, 0.0600]"   concave points_mean="(0.0000, 0.1000]"   compactness_se="(0.0119, 0.0200]"   
   ((   1)   % smoothness_se="(-0.0062, 0.0070]"   diagnosis=Yes   fractal_dimension_mean="(0.00000, 0.0600]"   concave points_mean="(0.0000, 0.1000]"   compactness_se="(0.0119, 0.0200]"   
   (   1)   % smoothness_se="(0.0000, 0.0000]"   diagnosis=Yes   fractal_dimension_mean="(0.00000, 0.0600]"   concave points_mean="(0.0000, 0.1000]"   compactness_se="(0.0119, 0.0200]"   
   (   1)))   % smoothness_se="(0.0071, 0.0200]"   diagnosis=Yes   fractal_dimension_mean="(0.00000, 0.0600]"   concave points_mean="(0.0000, 0.1000]"   compactness_se="(0.0119, 0.0200]"   
   (((   1)   % smoothness_se="(-0.0062, 0.0070]"   diagnosis=No   fractal_dimension_mean="(0.00000, 0.0900]"   concave points_mean="(0.0000, 0.1000]"   compactness_se="(0.0119, 0.0200]"   
   (   1)   % smoothness_se="(0.0000, 0.0000]"   diagnosis=No   fractal_dimension_mean="(0.00000, 0.0900]"   concave points_mean="(0.0000, 0.1000]"   compactness_se="(0.0119, 0.0200]"   
   (   1))   % smoothness_se="(0.0071, 0.0200]"   diagnosis=No   fractal_dimension_mean="(0.00000, 0.0900]"   concave points_mean="(0.0000, 0.1000]"   compactness_se="(0.0119, 0.0200]"   
   ((   1)   % smoothness_se="(-0.0062, 0.0070]"   diagnosis=Yes   fractal_dimension_mean="(0.00000, 0.0900]"   concave points_mean="(0.0000, 0.1000]"   compactness_se="(0.0119, 0.0200]"   
   (   1)   % smoothness_se="(0.0000, 0.0000]"   diagnosis=Yes   fractal_dimension_mean="(0.00000, 0.0900]"   concave points_mean="(0.0000, 0.1000]"   compactness_se="(0.0119, 0.0200]"   
   (   1)))   % smoothness_se="(0.0071, 0.0200]"   diagnosis=Yes   fractal_dimension_mean="(0.00000, 0.0900]"   concave points_mean="(0.0000, 0.1000]"   compactness_se="(0.0119, 0.0200]"   
   (((   1)   % smoothness_se="(-0.0062, 0.0070]"   diagnosis=No   fractal_dimension_mean="(0.0419, 0.0500]"   concave points_mean="(0.0000, 0.1000]"   compactness_se="(0.0119, 0.0200]"   
   (   1)   % smoothness_se="(0.0000, 0.0000]"   diagnosis=No   fractal_dimension_mean="(0.0419, 0.0500]"   concave points_mean="(0.0000, 0.1000]"   compactness_se="(0.0119, 0.0200]"   
   (   1))   % smoothness_se="(0.0071, 0.0200]"   diagnosis=No   fractal_dimension_mean="(0.0419, 0.0500]"   concave points_mean="(0.0000, 0.1000]"   compactness_se="(0.0119, 0.0200]"   
   ((   1)   % smoothness_se="(-0.0062, 0.0070]"   diagnosis=Yes   fractal_dimension_mean="(0.0419, 0.0500]"   concave points_mean="(0.0000, 0.1000]"   compactness_se="(0.0119, 0.0200]"   
   (   1)   % smoothness_se="(0.0000, 0.0000]"   diagnosis=Yes   fractal_dimension_mean="(0.0419, 0.0500]"   concave points_mean="(0.0000, 0.1000]"   compactness_se="(0.0119, 0.0200]"   
   (   1))))));   % smoothness_se="(0.0071, 0.0200]"   diagnosis=Yes   fractal_dimension_mean="(0.0419, 0.0500]"   concave points_mean="(0.0000, 0.1000]"   compactness_se="(0.0119, 0.0200]"   
}

potential ( texture_mean | diagnosis   ) {
   data = 
   ((   0.986188   0.0138122)   % diagnosis=No   
   (   0.998818   0.00118203));   % diagnosis=Yes   
}

potential ( perimeter_mean | diagnosis   ) {
   data = 
   ((   0.0248619   0.975138)   % diagnosis=No   
   (   0.00118203   0.998818));   % diagnosis=Yes   
}

potential ( area_mean | concave points_mean   ) {
   data = 
   ((   0.0414847   0.958515)   % concave points_mean="(-0.0059, 0.0000]"   
   (   0.000749625   0.99925)   % concave points_mean="(0.0000, 0.0900]"   
   (   0.05   0.95));   % concave points_mean="(0.0000, 0.1000]"   
}

potential ( smoothness_mean | concave points_mean   ) {
   data = 
   ((   0.0676856   0.932314)   % concave points_mean="(-0.0059, 0.0000]"   
   (   0.000749625   0.99925)   % concave points_mean="(0.0000, 0.0900]"   
   (   0.05   0.95));   % concave points_mean="(0.0000, 0.1000]"   
}

potential ( compactness_mean | concave points_mean   ) {
   data = 
   ((   0.0545852   0.945415)   % concave points_mean="(-0.0059, 0.0000]"   
   (   0.000749625   0.99925)   % concave points_mean="(0.0000, 0.0900]"   
   (   0.05   0.95));   % concave points_mean="(0.0000, 0.1000]"   
}

potential ( concavity_mean | smoothness_se   fractal_dimension_mean   compactness_se   radius_se   texture_se   ) {
   data = 
   ((((((   1)   % smoothness_se="(-0.0062, 0.0070]"   fractal_dimension_mean="(0.00000, 0.0600]"   compactness_se="(0.0000, 0.1000]"   radius_se="(0.000, 0.1000]"   texture_se="(0.00, 0.0000]"   
   (   1)   % smoothness_se="(0.0000, 0.0000]"   fractal_dimension_mean="(0.00000, 0.0600]"   compactness_se="(0.0000, 0.1000]"   radius_se="(0.000, 0.1000]"   texture_se="(0.00, 0.0000]"   
   (   1))   % smoothness_se="(0.0071, 0.0200]"   fractal_dimension_mean="(0.00000, 0.0600]"   compactness_se="(0.0000, 0.1000]"   radius_se="(0.000, 0.1000]"   texture_se="(0.00, 0.0000]"   
   ((   1)   % smoothness_se="(-0.0062, 0.0070]"   fractal_dimension_mean="(0.00000, 0.0900]"   compactness_se="(0.0000, 0.1000]"   radius_se="(0.000, 0.1000]"   texture_se="(0.00, 0.0000]"   
   (   1)   % smoothness_se="(0.0000, 0.0000]"   fractal_dimension_mean="(0.00000, 0.0900]"   compactness_se="(0.0000, 0.1000]"   radius_se="(0.000, 0.1000]"   texture_se="(0.00, 0.0000]"   
   (   1))   % smoothness_se="(0.0071, 0.0200]"   fractal_dimension_mean="(0.00000, 0.0900]"   compactness_se="(0.0000, 0.1000]"   radius_se="(0.000, 0.1000]"   texture_se="(0.00, 0.0000]"   
   ((   1)   % smoothness_se="(-0.0062, 0.0070]"   fractal_dimension_mean="(0.0419, 0.0500]"   compactness_se="(0.0000, 0.1000]"   radius_se="(0.000, 0.1000]"   texture_se="(0.00, 0.0000]"   
   (   1)   % smoothness_se="(0.0000, 0.0000]"   fractal_dimension_mean="(0.0419, 0.0500]"   compactness_se="(0.0000, 0.1000]"   radius_se="(0.000, 0.1000]"   texture_se="(0.00, 0.0000]"   
   (   1)))   % smoothness_se="(0.0071, 0.0200]"   fractal_dimension_mean="(0.0419, 0.0500]"   compactness_se="(0.0000, 0.1000]"   radius_se="(0.000, 0.1000]"   texture_se="(0.00, 0.0000]"   
   (((   1)   % smoothness_se="(-0.0062, 0.0070]"   fractal_dimension_mean="(0.00000, 0.0600]"   compactness_se="(0.00000, 0.0600]"   radius_se="(0.000, 0.1000]"   texture_se="(0.00, 0.0000]"   
   (   1)   % smoothness_se="(0.0000, 0.0000]"   fractal_dimension_mean="(0.00000, 0.0600]"   compactness_se="(0.00000, 0.0600]"   radius_se="(0.000, 0.1000]"   texture_se="(0.00, 0.0000]"   
   (   1))   % smoothness_se="(0.0071, 0.0200]"   fractal_dimension_mean="(0.00000, 0.0600]"   compactness_se="(0.00000, 0.0600]"   radius_se="(0.000, 0.1000]"   texture_se="(0.00, 0.0000]"   
   ((   1)   % smoothness_se="(-0.0062, 0.0070]"   fractal_dimension_mean="(0.00000, 0.0900]"   compactness_se="(0.00000, 0.0600]"   radius_se="(0.000, 0.1000]"   texture_se="(0.00, 0.0000]"   
   (   1)   % smoothness_se="(0.0000, 0.0000]"   fractal_dimension_mean="(0.00000, 0.0900]"   compactness_se="(0.00000, 0.0600]"   radius_se="(0.000, 0.1000]"   texture_se="(0.00, 0.0000]"   
   (   1))   % smoothness_se="(0.0071, 0.0200]"   fractal_dimension_mean="(0.00000, 0.0900]"   compactness_se="(0.00000, 0.0600]"   radius_se="(0.000, 0.1000]"   texture_se="(0.00, 0.0000]"   
   ((   1)   % smoothness_se="(-0.0062, 0.0070]"   fractal_dimension_mean="(0.0419, 0.0500]"   compactness_se="(0.00000, 0.0600]"   radius_se="(0.000, 0.1000]"   texture_se="(0.00, 0.0000]"   
   (   1)   % smoothness_se="(0.0000, 0.0000]"   fractal_dimension_mean="(0.0419, 0.0500]"   compactness_se="(0.00000, 0.0600]"   radius_se="(0.000, 0.1000]"   texture_se="(0.00, 0.0000]"   
   (   1)))   % smoothness_se="(0.0071, 0.0200]"   fractal_dimension_mean="(0.0419, 0.0500]"   compactness_se="(0.00000, 0.0600]"   radius_se="(0.000, 0.1000]"   texture_se="(0.00, 0.0000]"   
   (((   1)   % smoothness_se="(-0.0062, 0.0070]"   fractal_dimension_mean="(0.00000, 0.0600]"   compactness_se="(0.0119, 0.0200]"   radius_se="(0.000, 0.1000]"   texture_se="(0.00, 0.0000]"   
   (   1)   % smoothness_se="(0.0000, 0.0000]"   fractal_dimension_mean="(0.00000, 0.0600]"   compactness_se="(0.0119, 0.0200]"   radius_se="(0.000, 0.1000]"   texture_se="(0.00, 0.0000]"   
   (   1))   % smoothness_se="(0.0071, 0.0200]"   fractal_dimension_mean="(0.00000, 0.0600]"   compactness_se="(0.0119, 0.0200]"   radius_se="(0.000, 0.1000]"   texture_se="(0.00, 0.0000]"   
   ((   1)   % smoothness_se="(-0.0062, 0.0070]"   fractal_dimension_mean="(0.00000, 0.0900]"   compactness_se="(0.0119, 0.0200]"   radius_se="(0.000, 0.1000]"   texture_se="(0.00, 0.0000]"   
   (   1)   % smoothness_se="(0.0000, 0.0000]"   fractal_dimension_mean="(0.00000, 0.0900]"   compactness_se="(0.0119, 0.0200]"   radius_se="(0.000, 0.1000]"   texture_se="(0.00, 0.0000]"   
   (   1))   % smoothness_se="(0.0071, 0.0200]"   fractal_dimension_mean="(0.00000, 0.0900]"   compactness_se="(0.0119, 0.0200]"   radius_se="(0.000, 0.1000]"   texture_se="(0.00, 0.0000]"   
   ((   1)   % smoothness_se="(-0.0062, 0.0070]"   fractal_dimension_mean="(0.0419, 0.0500]"   compactness_se="(0.0119, 0.0200]"   radius_se="(0.000, 0.1000]"   texture_se="(0.00, 0.0000]"   
   (   1)   % smoothness_se="(0.0000, 0.0000]"   fractal_dimension_mean="(0.0419, 0.0500]"   compactness_se="(0.0119, 0.0200]"   radius_se="(0.000, 0.1000]"   texture_se="(0.00, 0.0000]"   
   (   1))))   % smoothness_se="(0.0071, 0.0200]"   fractal_dimension_mean="(0.0419, 0.0500]"   compactness_se="(0.0119, 0.0200]"   radius_se="(0.000, 0.1000]"   texture_se="(0.00, 0.0000]"   
   ((((   1)   % smoothness_se="(-0.0062, 0.0070]"   fractal_dimension_mean="(0.00000, 0.0600]"   compactness_se="(0.0000, 0.1000]"   radius_se="(0.000, 2.8000]"   texture_se="(0.00, 0.0000]"   
   (   1)   % smoothness_se="(0.0000, 0.0000]"   fractal_dimension_mean="(0.00000, 0.0600]"   compactness_se="(0.0000, 0.1000]"   radius_se="(0.000, 2.8000]"   texture_se="(0.00, 0.0000]"   
   (   1))   % smoothness_se="(0.0071, 0.0200]"   fractal_dimension_mean="(0.00000, 0.0600]"   compactness_se="(0.0000, 0.1000]"   radius_se="(0.000, 2.8000]"   texture_se="(0.00, 0.0000]"   
   ((   1)   % smoothness_se="(-0.0062, 0.0070]"   fractal_dimension_mean="(0.00000, 0.0900]"   compactness_se="(0.0000, 0.1000]"   radius_se="(0.000, 2.8000]"   texture_se="(0.00, 0.0000]"   
   (   1)   % smoothness_se="(0.0000, 0.0000]"   fractal_dimension_mean="(0.00000, 0.0900]"   compactness_se="(0.0000, 0.1000]"   radius_se="(0.000, 2.8000]"   texture_se="(0.00, 0.0000]"   
   (   1))   % smoothness_se="(0.0071, 0.0200]"   fractal_dimension_mean="(0.00000, 0.0900]"   compactness_se="(0.0000, 0.1000]"   radius_se="(0.000, 2.8000]"   texture_se="(0.00, 0.0000]"   
   ((   1)   % smoothness_se="(-0.0062, 0.0070]"   fractal_dimension_mean="(0.0419, 0.0500]"   compactness_se="(0.0000, 0.1000]"   radius_se="(0.000, 2.8000]"   texture_se="(0.00, 0.0000]"   
   (   1)   % smoothness_se="(0.0000, 0.0000]"   fractal_dimension_mean="(0.0419, 0.0500]"   compactness_se="(0.0000, 0.1000]"   radius_se="(0.000, 2.8000]"   texture_se="(0.00, 0.0000]"   
   (   1)))   % smoothness_se="(0.0071, 0.0200]"   fractal_dimension_mean="(0.0419, 0.0500]"   compactness_se="(0.0000, 0.1000]"   radius_se="(0.000, 2.8000]"   texture_se="(0.00, 0.0000]"   
   (((   1)   % smoothness_se="(-0.0062, 0.0070]"   fractal_dimension_mean="(0.00000, 0.0600]"   compactness_se="(0.00000, 0.0600]"   radius_se="(0.000, 2.8000]"   texture_se="(0.00, 0.0000]"   
   (   1)   % smoothness_se="(0.0000, 0.0000]"   fractal_dimension_mean="(0.00000, 0.0600]"   compactness_se="(0.00000, 0.0600]"   radius_se="(0.000, 2.8000]"   texture_se="(0.00, 0.0000]"   
   (   1))   % smoothness_se="(0.0071, 0.0200]"   fractal_dimension_mean="(0.00000, 0.0600]"   compactness_se="(0.00000, 0.0600]"   radius_se="(0.000, 2.8000]"   texture_se="(0.00, 0.0000]"   
   ((   1)   % smoothness_se="(-0.0062, 0.0070]"   fractal_dimension_mean="(0.00000, 0.0900]"   compactness_se="(0.00000, 0.0600]"   radius_se="(0.000, 2.8000]"   texture_se="(0.00, 0.0000]"   
   (   1)   % smoothness_se="(0.0000, 0.0000]"   fractal_dimension_mean="(0.00000, 0.0900]"   compactness_se="(0.00000, 0.0600]"   radius_se="(0.000, 2.8000]"   texture_se="(0.00, 0.0000]"   
   (   1))   % smoothness_se="(0.0071, 0.0200]"   fractal_dimension_mean="(0.00000, 0.0900]"   compactness_se="(0.00000, 0.0600]"   radius_se="(0.000, 2.8000]"   texture_se="(0.00, 0.0000]"   
   ((   1)   % smoothness_se="(-0.0062, 0.0070]"   fractal_dimension_mean="(0.0419, 0.0500]"   compactness_se="(0.00000, 0.0600]"   radius_se="(0.000, 2.8000]"   texture_se="(0.00, 0.0000]"   
   (   1)   % smoothness_se="(0.0000, 0.0000]"   fractal_dimension_mean="(0.0419, 0.0500]"   compactness_se="(0.00000, 0.0600]"   radius_se="(0.000, 2.8000]"   texture_se="(0.00, 0.0000]"   
   (   1)))   % smoothness_se="(0.0071, 0.0200]"   fractal_dimension_mean="(0.0419, 0.0500]"   compactness_se="(0.00000, 0.0600]"   radius_se="(0.000, 2.8000]"   texture_se="(0.00, 0.0000]"   
   (((   1)   % smoothness_se="(-0.0062, 0.0070]"   fractal_dimension_mean="(0.00000, 0.0600]"   compactness_se="(0.0119, 0.0200]"   radius_se="(0.000, 2.8000]"   texture_se="(0.00, 0.0000]"   
   (   1)   % smoothness_se="(0.0000, 0.0000]"   fractal_dimension_mean="(0.00000, 0.0600]"   compactness_se="(0.0119, 0.0200]"   radius_se="(0.000, 2.8000]"   texture_se="(0.00, 0.0000]"   
   (   1))   % smoothness_se="(0.0071, 0.0200]"   fractal_dimension_mean="(0.00000, 0.0600]"   compactness_se="(0.0119, 0.0200]"   radius_se="(0.000, 2.8000]"   texture_se="(0.00, 0.0000]"   
   ((   1)   % smoothness_se="(-0.0062, 0.0070]"   fractal_dimension_mean="(0.00000, 0.0900]"   compactness_se="(0.0119, 0.0200]"   radius_se="(0.000, 2.8000]"   texture_se="(0.00, 0.0000]"   
   (   1)   % smoothness_se="(0.0000, 0.0000]"   fractal_dimension_mean="(0.00000, 0.0900]"   compactness_se="(0.0119, 0.0200]"   radius_se="(0.000, 2.8000]"   texture_se="(0.00, 0.0000]"   
   (   1))   % smoothness_se="(0.0071, 0.0200]"   fractal_dimension_mean="(0.00000, 0.0900]"   compactness_se="(0.0119, 0.0200]"   radius_se="(0.000, 2.8000]"   texture_se="(0.00, 0.0000]"   
   ((   1)   % smoothness_se="(-0.0062, 0.0070]"   fractal_dimension_mean="(0.0419, 0.0500]"   compactness_se="(0.0119, 0.0200]"   radius_se="(0.000, 2.8000]"   texture_se="(0.00, 0.0000]"   
   (   1)   % smoothness_se="(0.0000, 0.0000]"   fractal_dimension_mean="(0.0419, 0.0500]"   compactness_se="(0.0119, 0.0200]"   radius_se="(0.000, 2.8000]"   texture_se="(0.00, 0.0000]"   
   (   1)))))   % smoothness_se="(0.0071, 0.0200]"   fractal_dimension_mean="(0.0419, 0.0500]"   compactness_se="(0.0119, 0.0200]"   radius_se="(0.000, 2.8000]"   texture_se="(0.00, 0.0000]"   
   (((((   1)   % smoothness_se="(-0.0062, 0.0070]"   fractal_dimension_mean="(0.00000, 0.0600]"   compactness_se="(0.0000, 0.1000]"   radius_se="(0.000, 0.1000]"   texture_se="(0.00, 2.2000]"   
   (   1)   % smoothness_se="(0.0000, 0.0000]"   fractal_dimension_mean="(0.00000, 0.0600]"   compactness_se="(0.0000, 0.1000]"   radius_se="(0.000, 0.1000]"   texture_se="(0.00, 2.2000]"   
   (   1))   % smoothness_se="(0.0071, 0.0200]"   fractal_dimension_mean="(0.00000, 0.0600]"   compactness_se="(0.0000, 0.1000]"   radius_se="(0.000, 0.1000]"   texture_se="(0.00, 2.2000]"   
   ((   1)   % smoothness_se="(-0.0062, 0.0070]"   fractal_dimension_mean="(0.00000, 0.0900]"   compactness_se="(0.0000, 0.1000]"   radius_se="(0.000, 0.1000]"   texture_se="(0.00, 2.2000]"   
   (   1)   % smoothness_se="(0.0000, 0.0000]"   fractal_dimension_mean="(0.00000, 0.0900]"   compactness_se="(0.0000, 0.1000]"   radius_se="(0.000, 0.1000]"   texture_se="(0.00, 2.2000]"   
   (   1))   % smoothness_se="(0.0071, 0.0200]"   fractal_dimension_mean="(0.00000, 0.0900]"   compactness_se="(0.0000, 0.1000]"   radius_se="(0.000, 0.1000]"   texture_se="(0.00, 2.2000]"   
   ((   1)   % smoothness_se="(-0.0062, 0.0070]"   fractal_dimension_mean="(0.0419, 0.0500]"   compactness_se="(0.0000, 0.1000]"   radius_se="(0.000, 0.1000]"   texture_se="(0.00, 2.2000]"   
   (   1)   % smoothness_se="(0.0000, 0.0000]"   fractal_dimension_mean="(0.0419, 0.0500]"   compactness_se="(0.0000, 0.1000]"   radius_se="(0.000, 0.1000]"   texture_se="(0.00, 2.2000]"   
   (   1)))   % smoothness_se="(0.0071, 0.0200]"   fractal_dimension_mean="(0.0419, 0.0500]"   compactness_se="(0.0000, 0.1000]"   radius_se="(0.000, 0.1000]"   texture_se="(0.00, 2.2000]"   
   (((   1)   % smoothness_se="(-0.0062, 0.0070]"   fractal_dimension_mean="(0.00000, 0.0600]"   compactness_se="(0.00000, 0.0600]"   radius_se="(0.000, 0.1000]"   texture_se="(0.00, 2.2000]"   
   (   1)   % smoothness_se="(0.0000, 0.0000]"   fractal_dimension_mean="(0.00000, 0.0600]"   compactness_se="(0.00000, 0.0600]"   radius_se="(0.000, 0.1000]"   texture_se="(0.00, 2.2000]"   
   (   1))   % smoothness_se="(0.0071, 0.0200]"   fractal_dimension_mean="(0.00000, 0.0600]"   compactness_se="(0.00000, 0.0600]"   radius_se="(0.000, 0.1000]"   texture_se="(0.00, 2.2000]"   
   ((   1)   % smoothness_se="(-0.0062, 0.0070]"   fractal_dimension_mean="(0.00000, 0.0900]"   compactness_se="(0.00000, 0.0600]"   radius_se="(0.000, 0.1000]"   texture_se="(0.00, 2.2000]"   
   (   1)   % smoothness_se="(0.0000, 0.0000]"   fractal_dimension_mean="(0.00000, 0.0900]"   compactness_se="(0.00000, 0.0600]"   radius_se="(0.000, 0.1000]"   texture_se="(0.00, 2.2000]"   
   (   1))   % smoothness_se="(0.0071, 0.0200]"   fractal_dimension_mean="(0.00000, 0.0900]"   compactness_se="(0.00000, 0.0600]"   radius_se="(0.000, 0.1000]"   texture_se="(0.00, 2.2000]"   
   ((   1)   % smoothness_se="(-0.0062, 0.0070]"   fractal_dimension_mean="(0.0419, 0.0500]"   compactness_se="(0.00000, 0.0600]"   radius_se="(0.000, 0.1000]"   texture_se="(0.00, 2.2000]"   
   (   1)   % smoothness_se="(0.0000, 0.0000]"   fractal_dimension_mean="(0.0419, 0.0500]"   compactness_se="(0.00000, 0.0600]"   radius_se="(0.000, 0.1000]"   texture_se="(0.00, 2.2000]"   
   (   1)))   % smoothness_se="(0.0071, 0.0200]"   fractal_dimension_mean="(0.0419, 0.0500]"   compactness_se="(0.00000, 0.0600]"   radius_se="(0.000, 0.1000]"   texture_se="(0.00, 2.2000]"   
   (((   1)   % smoothness_se="(-0.0062, 0.0070]"   fractal_dimension_mean="(0.00000, 0.0600]"   compactness_se="(0.0119, 0.0200]"   radius_se="(0.000, 0.1000]"   texture_se="(0.00, 2.2000]"   
   (   1)   % smoothness_se="(0.0000, 0.0000]"   fractal_dimension_mean="(0.00000, 0.0600]"   compactness_se="(0.0119, 0.0200]"   radius_se="(0.000, 0.1000]"   texture_se="(0.00, 2.2000]"   
   (   1))   % smoothness_se="(0.0071, 0.0200]"   fractal_dimension_mean="(0.00000, 0.0600]"   compactness_se="(0.0119, 0.0200]"   radius_se="(0.000, 0.1000]"   texture_se="(0.00, 2.2000]"   
   ((   1)   % smoothness_se="(-0.0062, 0.0070]"   fractal_dimension_mean="(0.00000, 0.0900]"   compactness_se="(0.0119, 0.0200]"   radius_se="(0.000, 0.1000]"   texture_se="(0.00, 2.2000]"   
   (   1)   % smoothness_se="(0.0000, 0.0000]"   fractal_dimension_mean="(0.00000, 0.0900]"   compactness_se="(0.0119, 0.0200]"   radius_se="(0.000, 0.1000]"   texture_se="(0.00, 2.2000]"   
   (   1))   % smoothness_se="(0.0071, 0.0200]"   fractal_dimension_mean="(0.00000, 0.0900]"   compactness_se="(0.0119, 0.0200]"   radius_se="(0.000, 0.1000]"   texture_se="(0.00, 2.2000]"   
   ((   1)   % smoothness_se="(-0.0062, 0.0070]"   fractal_dimension_mean="(0.0419, 0.0500]"   compactness_se="(0.0119, 0.0200]"   radius_se="(0.000, 0.1000]"   texture_se="(0.00, 2.2000]"   
   (   1)   % smoothness_se="(0.0000, 0.0000]"   fractal_dimension_mean="(0.0419, 0.0500]"   compactness_se="(0.0119, 0.0200]"   radius_se="(0.000, 0.1000]"   texture_se="(0.00, 2.2000]"   
   (   1))))   % smoothness_se="(0.0071, 0.0200]"   fractal_dimension_mean="(0.0419, 0.0500]"   compactness_se="(0.0119, 0.0200]"   radius_se="(0.000, 0.1000]"   texture_se="(0.00, 2.2000]"   
   ((((   1)   % smoothness_se="(-0.0062, 0.0070]"   fractal_dimension_mean="(0.00000, 0.0600]"   compactness_se="(0.0000, 0.1000]"   radius_se="(0.000, 2.8000]"   texture_se="(0.00, 2.2000]"   
   (   1)   % smoothness_se="(0.0000, 0.0000]"   fractal_dimension_mean="(0.00000, 0.0600]"   compactness_se="(0.0000, 0.1000]"   radius_se="(0.000, 2.8000]"   texture_se="(0.00, 2.2000]"   
   (   1))   % smoothness_se="(0.0071, 0.0200]"   fractal_dimension_mean="(0.00000, 0.0600]"   compactness_se="(0.0000, 0.1000]"   radius_se="(0.000, 2.8000]"   texture_se="(0.00, 2.2000]"   
   ((   1)   % smoothness_se="(-0.0062, 0.0070]"   fractal_dimension_mean="(0.00000, 0.0900]"   compactness_se="(0.0000, 0.1000]"   radius_se="(0.000, 2.8000]"   texture_se="(0.00, 2.2000]"   
   (   1)   % smoothness_se="(0.0000, 0.0000]"   fractal_dimension_mean="(0.00000, 0.0900]"   compactness_se="(0.0000, 0.1000]"   radius_se="(0.000, 2.8000]"   texture_se="(0.00, 2.2000]"   
   (   1))   % smoothness_se="(0.0071, 0.0200]"   fractal_dimension_mean="(0.00000, 0.0900]"   compactness_se="(0.0000, 0.1000]"   radius_se="(0.000, 2.8000]"   texture_se="(0.00, 2.2000]"   
   ((   1)   % smoothness_se="(-0.0062, 0.0070]"   fractal_dimension_mean="(0.0419, 0.0500]"   compactness_se="(0.0000, 0.1000]"   radius_se="(0.000, 2.8000]"   texture_se="(0.00, 2.2000]"   
   (   1)   % smoothness_se="(0.0000, 0.0000]"   fractal_dimension_mean="(0.0419, 0.0500]"   compactness_se="(0.0000, 0.1000]"   radius_se="(0.000, 2.8000]"   texture_se="(0.00, 2.2000]"   
   (   1)))   % smoothness_se="(0.0071, 0.0200]"   fractal_dimension_mean="(0.0419, 0.0500]"   compactness_se="(0.0000, 0.1000]"   radius_se="(0.000, 2.8000]"   texture_se="(0.00, 2.2000]"   
   (((   1)   % smoothness_se="(-0.0062, 0.0070]"   fractal_dimension_mean="(0.00000, 0.0600]"   compactness_se="(0.00000, 0.0600]"   radius_se="(0.000, 2.8000]"   texture_se="(0.00, 2.2000]"   
   (   1)   % smoothness_se="(0.0000, 0.0000]"   fractal_dimension_mean="(0.00000, 0.0600]"   compactness_se="(0.00000, 0.0600]"   radius_se="(0.000, 2.8000]"   texture_se="(0.00, 2.2000]"   
   (   1))   % smoothness_se="(0.0071, 0.0200]"   fractal_dimension_mean="(0.00000, 0.0600]"   compactness_se="(0.00000, 0.0600]"   radius_se="(0.000, 2.8000]"   texture_se="(0.00, 2.2000]"   
   ((   1)   % smoothness_se="(-0.0062, 0.0070]"   fractal_dimension_mean="(0.00000, 0.0900]"   compactness_se="(0.00000, 0.0600]"   radius_se="(0.000, 2.8000]"   texture_se="(0.00, 2.2000]"   
   (   1)   % smoothness_se="(0.0000, 0.0000]"   fractal_dimension_mean="(0.00000, 0.0900]"   compactness_se="(0.00000, 0.0600]"   radius_se="(0.000, 2.8000]"   texture_se="(0.00, 2.2000]"   
   (   1))   % smoothness_se="(0.0071, 0.0200]"   fractal_dimension_mean="(0.00000, 0.0900]"   compactness_se="(0.00000, 0.0600]"   radius_se="(0.000, 2.8000]"   texture_se="(0.00, 2.2000]"   
   ((   1)   % smoothness_se="(-0.0062, 0.0070]"   fractal_dimension_mean="(0.0419, 0.0500]"   compactness_se="(0.00000, 0.0600]"   radius_se="(0.000, 2.8000]"   texture_se="(0.00, 2.2000]"   
   (   1)   % smoothness_se="(0.0000, 0.0000]"   fractal_dimension_mean="(0.0419, 0.0500]"   compactness_se="(0.00000, 0.0600]"   radius_se="(0.000, 2.8000]"   texture_se="(0.00, 2.2000]"   
   (   1)))   % smoothness_se="(0.0071, 0.0200]"   fractal_dimension_mean="(0.0419, 0.0500]"   compactness_se="(0.00000, 0.0600]"   radius_se="(0.000, 2.8000]"   texture_se="(0.00, 2.2000]"   
   (((   1)   % smoothness_se="(-0.0062, 0.0070]"   fractal_dimension_mean="(0.00000, 0.0600]"   compactness_se="(0.0119, 0.0200]"   radius_se="(0.000, 2.8000]"   texture_se="(0.00, 2.2000]"   
   (   1)   % smoothness_se="(0.0000, 0.0000]"   fractal_dimension_mean="(0.00000, 0.0600]"   compactness_se="(0.0119, 0.0200]"   radius_se="(0.000, 2.8000]"   texture_se="(0.00, 2.2000]"   
   (   1))   % smoothness_se="(0.0071, 0.0200]"   fractal_dimension_mean="(0.00000, 0.0600]"   compactness_se="(0.0119, 0.0200]"   radius_se="(0.000, 2.8000]"   texture_se="(0.00, 2.2000]"   
   ((   1)   % smoothness_se="(-0.0062, 0.0070]"   fractal_dimension_mean="(0.00000, 0.0900]"   compactness_se="(0.0119, 0.0200]"   radius_se="(0.000, 2.8000]"   texture_se="(0.00, 2.2000]"   
   (   1)   % smoothness_se="(0.0000, 0.0000]"   fractal_dimension_mean="(0.00000, 0.0900]"   compactness_se="(0.0119, 0.0200]"   radius_se="(0.000, 2.8000]"   texture_se="(0.00, 2.2000]"   
   (   1))   % smoothness_se="(0.0071, 0.0200]"   fractal_dimension_mean="(0.00000, 0.0900]"   compactness_se="(0.0119, 0.0200]"   radius_se="(0.000, 2.8000]"   texture_se="(0.00, 2.2000]"   
   ((   1)   % smoothness_se="(-0.0062, 0.0070]"   fractal_dimension_mean="(0.0419, 0.0500]"   compactness_se="(0.0119, 0.0200]"   radius_se="(0.000, 2.8000]"   texture_se="(0.00, 2.2000]"   
   (   1)   % smoothness_se="(0.0000, 0.0000]"   fractal_dimension_mean="(0.0419, 0.0500]"   compactness_se="(0.0119, 0.0200]"   radius_se="(0.000, 2.8000]"   texture_se="(0.00, 2.2000]"   
   (   1)))))   % smoothness_se="(0.0071, 0.0200]"   fractal_dimension_mean="(0.0419, 0.0500]"   compactness_se="(0.0119, 0.0200]"   radius_se="(0.000, 2.8000]"   texture_se="(0.00, 2.2000]"   
   (((((   1)   % smoothness_se="(-0.0062, 0.0070]"   fractal_dimension_mean="(0.00000, 0.0600]"   compactness_se="(0.0000, 0.1000]"   radius_se="(0.000, 0.1000]"   texture_se="(2.000, 3.7000]"   
   (   1)   % smoothness_se="(0.0000, 0.0000]"   fractal_dimension_mean="(0.00000, 0.0600]"   compactness_se="(0.0000, 0.1000]"   radius_se="(0.000, 0.1000]"   texture_se="(2.000, 3.7000]"   
   (   1))   % smoothness_se="(0.0071, 0.0200]"   fractal_dimension_mean="(0.00000, 0.0600]"   compactness_se="(0.0000, 0.1000]"   radius_se="(0.000, 0.1000]"   texture_se="(2.000, 3.7000]"   
   ((   1)   % smoothness_se="(-0.0062, 0.0070]"   fractal_dimension_mean="(0.00000, 0.0900]"   compactness_se="(0.0000, 0.1000]"   radius_se="(0.000, 0.1000]"   texture_se="(2.000, 3.7000]"   
   (   1)   % smoothness_se="(0.0000, 0.0000]"   fractal_dimension_mean="(0.00000, 0.0900]"   compactness_se="(0.0000, 0.1000]"   radius_se="(0.000, 0.1000]"   texture_se="(2.000, 3.7000]"   
   (   1))   % smoothness_se="(0.0071, 0.0200]"   fractal_dimension_mean="(0.00000, 0.0900]"   compactness_se="(0.0000, 0.1000]"   radius_se="(0.000, 0.1000]"   texture_se="(2.000, 3.7000]"   
   ((   1)   % smoothness_se="(-0.0062, 0.0070]"   fractal_dimension_mean="(0.0419, 0.0500]"   compactness_se="(0.0000, 0.1000]"   radius_se="(0.000, 0.1000]"   texture_se="(2.000, 3.7000]"   
   (   1)   % smoothness_se="(0.0000, 0.0000]"   fractal_dimension_mean="(0.0419, 0.0500]"   compactness_se="(0.0000, 0.1000]"   radius_se="(0.000, 0.1000]"   texture_se="(2.000, 3.7000]"   
   (   1)))   % smoothness_se="(0.0071, 0.0200]"   fractal_dimension_mean="(0.0419, 0.0500]"   compactness_se="(0.0000, 0.1000]"   radius_se="(0.000, 0.1000]"   texture_se="(2.000, 3.7000]"   
   (((   1)   % smoothness_se="(-0.0062, 0.0070]"   fractal_dimension_mean="(0.00000, 0.0600]"   compactness_se="(0.00000, 0.0600]"   radius_se="(0.000, 0.1000]"   texture_se="(2.000, 3.7000]"   
   (   1)   % smoothness_se="(0.0000, 0.0000]"   fractal_dimension_mean="(0.00000, 0.0600]"   compactness_se="(0.00000, 0.0600]"   radius_se="(0.000, 0.1000]"   texture_se="(2.000, 3.7000]"   
   (   1))   % smoothness_se="(0.0071, 0.0200]"   fractal_dimension_mean="(0.00000, 0.0600]"   compactness_se="(0.00000, 0.0600]"   radius_se="(0.000, 0.1000]"   texture_se="(2.000, 3.7000]"   
   ((   1)   % smoothness_se="(-0.0062, 0.0070]"   fractal_dimension_mean="(0.00000, 0.0900]"   compactness_se="(0.00000, 0.0600]"   radius_se="(0.000, 0.1000]"   texture_se="(2.000, 3.7000]"   
   (   1)   % smoothness_se="(0.0000, 0.0000]"   fractal_dimension_mean="(0.00000, 0.0900]"   compactness_se="(0.00000, 0.0600]"   radius_se="(0.000, 0.1000]"   texture_se="(2.000, 3.7000]"   
   (   1))   % smoothness_se="(0.0071, 0.0200]"   fractal_dimension_mean="(0.00000, 0.0900]"   compactness_se="(0.00000, 0.0600]"   radius_se="(0.000, 0.1000]"   texture_se="(2.000, 3.7000]"   
   ((   1)   % smoothness_se="(-0.0062, 0.0070]"   fractal_dimension_mean="(0.0419, 0.0500]"   compactness_se="(0.00000, 0.0600]"   radius_se="(0.000, 0.1000]"   texture_se="(2.000, 3.7000]"   
   (   1)   % smoothness_se="(0.0000, 0.0000]"   fractal_dimension_mean="(0.0419, 0.0500]"   compactness_se="(0.00000, 0.0600]"   radius_se="(0.000, 0.1000]"   texture_se="(2.000, 3.7000]"   
   (   1)))   % smoothness_se="(0.0071, 0.0200]"   fractal_dimension_mean="(0.0419, 0.0500]"   compactness_se="(0.00000, 0.0600]"   radius_se="(0.000, 0.1000]"   texture_se="(2.000, 3.7000]"   
   (((   1)   % smoothness_se="(-0.0062, 0.0070]"   fractal_dimension_mean="(0.00000, 0.0600]"   compactness_se="(0.0119, 0.0200]"   radius_se="(0.000, 0.1000]"   texture_se="(2.000, 3.7000]"   
   (   1)   % smoothness_se="(0.0000, 0.0000]"   fractal_dimension_mean="(0.00000, 0.0600]"   compactness_se="(0.0119, 0.0200]"   radius_se="(0.000, 0.1000]"   texture_se="(2.000, 3.7000]"   
   (   1))   % smoothness_se="(0.0071, 0.0200]"   fractal_dimension_mean="(0.00000, 0.0600]"   compactness_se="(0.0119, 0.0200]"   radius_se="(0.000, 0.1000]"   texture_se="(2.000, 3.7000]"   
   ((   1)   % smoothness_se="(-0.0062, 0.0070]"   fractal_dimension_mean="(0.00000, 0.0900]"   compactness_se="(0.0119, 0.0200]"   radius_se="(0.000, 0.1000]"   texture_se="(2.000, 3.7000]"   
   (   1)   % smoothness_se="(0.0000, 0.0000]"   fractal_dimension_mean="(0.00000, 0.0900]"   compactness_se="(0.0119, 0.0200]"   radius_se="(0.000, 0.1000]"   texture_se="(2.000, 3.7000]"   
   (   1))   % smoothness_se="(0.0071, 0.0200]"   fractal_dimension_mean="(0.00000, 0.0900]"   compactness_se="(0.0119, 0.0200]"   radius_se="(0.000, 0.1000]"   texture_se="(2.000, 3.7000]"   
   ((   1)   % smoothness_se="(-0.0062, 0.0070]"   fractal_dimension_mean="(0.0419, 0.0500]"   compactness_se="(0.0119, 0.0200]"   radius_se="(0.000, 0.1000]"   texture_se="(2.000, 3.7000]"   
   (   1)   % smoothness_se="(0.0000, 0.0000]"   fractal_dimension_mean="(0.0419, 0.0500]"   compactness_se="(0.0119, 0.0200]"   radius_se="(0.000, 0.1000]"   texture_se="(2.000, 3.7000]"   
   (   1))))   % smoothness_se="(0.0071, 0.0200]"   fractal_dimension_mean="(0.0419, 0.0500]"   compactness_se="(0.0119, 0.0200]"   radius_se="(0.000, 0.1000]"   texture_se="(2.000, 3.7000]"   
   ((((   1)   % smoothness_se="(-0.0062, 0.0070]"   fractal_dimension_mean="(0.00000, 0.0600]"   compactness_se="(0.0000, 0.1000]"   radius_se="(0.000, 2.8000]"   texture_se="(2.000, 3.7000]"   
   (   1)   % smoothness_se="(0.0000, 0.0000]"   fractal_dimension_mean="(0.00000, 0.0600]"   compactness_se="(0.0000, 0.1000]"   radius_se="(0.000, 2.8000]"   texture_se="(2.000, 3.7000]"   
   (   1))   % smoothness_se="(0.0071, 0.0200]"   fractal_dimension_mean="(0.00000, 0.0600]"   compactness_se="(0.0000, 0.1000]"   radius_se="(0.000, 2.8000]"   texture_se="(2.000, 3.7000]"   
   ((   1)   % smoothness_se="(-0.0062, 0.0070]"   fractal_dimension_mean="(0.00000, 0.0900]"   compactness_se="(0.0000, 0.1000]"   radius_se="(0.000, 2.8000]"   texture_se="(2.000, 3.7000]"   
   (   1)   % smoothness_se="(0.0000, 0.0000]"   fractal_dimension_mean="(0.00000, 0.0900]"   compactness_se="(0.0000, 0.1000]"   radius_se="(0.000, 2.8000]"   texture_se="(2.000, 3.7000]"   
   (   1))   % smoothness_se="(0.0071, 0.0200]"   fractal_dimension_mean="(0.00000, 0.0900]"   compactness_se="(0.0000, 0.1000]"   radius_se="(0.000, 2.8000]"   texture_se="(2.000, 3.7000]"   
   ((   1)   % smoothness_se="(-0.0062, 0.0070]"   fractal_dimension_mean="(0.0419, 0.0500]"   compactness_se="(0.0000, 0.1000]"   radius_se="(0.000, 2.8000]"   texture_se="(2.000, 3.7000]"   
   (   1)   % smoothness_se="(0.0000, 0.0000]"   fractal_dimension_mean="(0.0419, 0.0500]"   compactness_se="(0.0000, 0.1000]"   radius_se="(0.000, 2.8000]"   texture_se="(2.000, 3.7000]"   
   (   1)))   % smoothness_se="(0.0071, 0.0200]"   fractal_dimension_mean="(0.0419, 0.0500]"   compactness_se="(0.0000, 0.1000]"   radius_se="(0.000, 2.8000]"   texture_se="(2.000, 3.7000]"   
   (((   1)   % smoothness_se="(-0.0062, 0.0070]"   fractal_dimension_mean="(0.00000, 0.0600]"   compactness_se="(0.00000, 0.0600]"   radius_se="(0.000, 2.8000]"   texture_se="(2.000, 3.7000]"   
   (   1)   % smoothness_se="(0.0000, 0.0000]"   fractal_dimension_mean="(0.00000, 0.0600]"   compactness_se="(0.00000, 0.0600]"   radius_se="(0.000, 2.8000]"   texture_se="(2.000, 3.7000]"   
   (   1))   % smoothness_se="(0.0071, 0.0200]"   fractal_dimension_mean="(0.00000, 0.0600]"   compactness_se="(0.00000, 0.0600]"   radius_se="(0.000, 2.8000]"   texture_se="(2.000, 3.7000]"   
   ((   1)   % smoothness_se="(-0.0062, 0.0070]"   fractal_dimension_mean="(0.00000, 0.0900]"   compactness_se="(0.00000, 0.0600]"   radius_se="(0.000, 2.8000]"   texture_se="(2.000, 3.7000]"   
   (   1)   % smoothness_se="(0.0000, 0.0000]"   fractal_dimension_mean="(0.00000, 0.0900]"   compactness_se="(0.00000, 0.0600]"   radius_se="(0.000, 2.8000]"   texture_se="(2.000, 3.7000]"   
   (   1))   % smoothness_se="(0.0071, 0.0200]"   fractal_dimension_mean="(0.00000, 0.0900]"   compactness_se="(0.00000, 0.0600]"   radius_se="(0.000, 2.8000]"   texture_se="(2.000, 3.7000]"   
   ((   1)   % smoothness_se="(-0.0062, 0.0070]"   fractal_dimension_mean="(0.0419, 0.0500]"   compactness_se="(0.00000, 0.0600]"   radius_se="(0.000, 2.8000]"   texture_se="(2.000, 3.7000]"   
   (   1)   % smoothness_se="(0.0000, 0.0000]"   fractal_dimension_mean="(0.0419, 0.0500]"   compactness_se="(0.00000, 0.0600]"   radius_se="(0.000, 2.8000]"   texture_se="(2.000, 3.7000]"   
   (   1)))   % smoothness_se="(0.0071, 0.0200]"   fractal_dimension_mean="(0.0419, 0.0500]"   compactness_se="(0.00000, 0.0600]"   radius_se="(0.000, 2.8000]"   texture_se="(2.000, 3.7000]"   
   (((   1)   % smoothness_se="(-0.0062, 0.0070]"   fractal_dimension_mean="(0.00000, 0.0600]"   compactness_se="(0.0119, 0.0200]"   radius_se="(0.000, 2.8000]"   texture_se="(2.000, 3.7000]"   
   (   1)   % smoothness_se="(0.0000, 0.0000]"   fractal_dimension_mean="(0.00000, 0.0600]"   compactness_se="(0.0119, 0.0200]"   radius_se="(0.000, 2.8000]"   texture_se="(2.000, 3.7000]"   
   (   1))   % smoothness_se="(0.0071, 0.0200]"   fractal_dimension_mean="(0.00000, 0.0600]"   compactness_se="(0.0119, 0.0200]"   radius_se="(0.000, 2.8000]"   texture_se="(2.000, 3.7000]"   
   ((   1)   % smoothness_se="(-0.0062, 0.0070]"   fractal_dimension_mean="(0.00000, 0.0900]"   compactness_se="(0.0119, 0.0200]"   radius_se="(0.000, 2.8000]"   texture_se="(2.000, 3.7000]"   
   (   1)   % smoothness_se="(0.0000, 0.0000]"   fractal_dimension_mean="(0.00000, 0.0900]"   compactness_se="(0.0119, 0.0200]"   radius_se="(0.000, 2.8000]"   texture_se="(2.000, 3.7000]"   
   (   1))   % smoothness_se="(0.0071, 0.0200]"   fractal_dimension_mean="(0.00000, 0.0900]"   compactness_se="(0.0119, 0.0200]"   radius_se="(0.000, 2.8000]"   texture_se="(2.000, 3.7000]"   
   ((   1)   % smoothness_se="(-0.0062, 0.0070]"   fractal_dimension_mean="(0.0419, 0.0500]"   compactness_se="(0.0119, 0.0200]"   radius_se="(0.000, 2.8000]"   texture_se="(2.000, 3.7000]"   
   (   1)   % smoothness_se="(0.0000, 0.0000]"   fractal_dimension_mean="(0.0419, 0.0500]"   compactness_se="(0.0119, 0.0200]"   radius_se="(0.000, 2.8000]"   texture_se="(2.000, 3.7000]"   
   (   1))))));   % smoothness_se="(0.0071, 0.0200]"   fractal_dimension_mean="(0.0419, 0.0500]"   compactness_se="(0.0119, 0.0200]"   radius_se="(0.000, 2.8000]"   texture_se="(2.000, 3.7000]"   
}

potential ( concave points_mean | symmetry_mean   fractal_dimension_mean   ) {
   data = 
   (((   0.834247   0.132236   0.0335161)   % symmetry_mean="(0.00, 0.2000]"   fractal_dimension_mean="(0.00000, 0.0600]"   
   (   0.047619   0.904762   0.047619))   % symmetry_mean="(0.000, 0.2000]"   fractal_dimension_mean="(0.00000, 0.0600]"   
   ((   0.00775194   0.984496   0.00775194)   % symmetry_mean="(0.00, 0.2000]"   fractal_dimension_mean="(0.00000, 0.0900]"   
   (   0.333333   0.333333   0.333333))   % symmetry_mean="(0.000, 0.2000]"   fractal_dimension_mean="(0.00000, 0.0900]"   
   ((   0.000274801   0.99945   0.000274801)   % symmetry_mean="(0.00, 0.2000]"   fractal_dimension_mean="(0.0419, 0.0500]"   
   (   0.333333   0.333333   0.333333)));   % symmetry_mean="(0.000, 0.2000]"   fractal_dimension_mean="(0.0419, 0.0500]"   
}

potential ( symmetry_mean | concavity_mean   ) {
   data = 
   ((   0.995033   0.00496689));   % concavity_mean="(0.0000, 0.4000]"   
}

potential ( fractal_dimension_mean | radius_se   ) {
   data = 
   ((   0.899187   0.0699187   0.0308943)   % radius_se="(0.000, 0.1000]"   
   (   0.000835422   0.000835422   0.998329));   % radius_se="(0.000, 2.8000]"   
}

potential (radius_se) {
   data = (  0.339404 0.660596);
}

potential ( texture_se | radius_se   ) {
   data = 
   ((   0.996748   0.00162602   0.00162602)   % radius_se="(0.000, 0.1000]"   
   (   0.0559733   0.923141   0.0208855));   % radius_se="(0.000, 2.8000]"   
}

potential ( perimeter_se | area_se   texture_se   ) {
   data = 
   (((   0.999509   0.000491159)   % area_se="(12.0000, 12.5000]"   texture_se="(0.00, 0.0000]"   
   (   0.5   0.5)   % area_se="(12.00000, 482.0000]"   texture_se="(0.00, 0.0000]"   
   (   0.5   0.5))   % area_se="(482.00000, 534.1000]"   texture_se="(0.00, 0.0000]"   
   ((   0.466912   0.533088)   % area_se="(12.0000, 12.5000]"   texture_se="(0.00, 2.2000]"   
   (   0.99967   0.000330469)   % area_se="(12.00000, 482.0000]"   texture_se="(0.00, 2.2000]"   
   (   0.95   0.05))   % area_se="(482.00000, 534.1000]"   texture_se="(0.00, 2.2000]"   
   ((   0.986486   0.0135135)   % area_se="(12.0000, 12.5000]"   texture_se="(2.000, 3.7000]"   
   (   0.5   0.5)   % area_se="(12.00000, 482.0000]"   texture_se="(2.000, 3.7000]"   
   (   0.5   0.5)));   % area_se="(482.00000, 534.1000]"   texture_se="(2.000, 3.7000]"   
}

potential ( area_se | texture_se   ) {
   data = 
   ((   0.998039   0.000980392   0.000980392)   % texture_se="(0.00, 0.0000]"   
   (   0.0819771   0.911995   0.00602773)   % texture_se="(0.00, 2.2000]"   
   (   0.948718   0.025641   0.025641));   % texture_se="(2.000, 3.7000]"   
}

potential ( smoothness_se | area_se   ) {
   data = 
   ((   0.998321   0.000839631   0.000839631)   % area_se="(12.0000, 12.5000]"   
   (   0.0660066   0.00660066   0.927393)   % area_se="(12.00000, 482.0000]"   
   (   0.833333   0.0833333   0.0833333));   % area_se="(482.00000, 534.1000]"   
}

potential ( compactness_se | smoothness_se   ) {
   data = 
   ((   0.000769823   0.000769823   0.99846)   % smoothness_se="(-0.0062, 0.0070]"   
   (   0.0833333   0.0833333   0.833333)   % smoothness_se="(0.0000, 0.0000]"   
   (   0.0390903   0.915423   0.0454869));   % smoothness_se="(0.0071, 0.0200]"   
}

potential ( concavity_se | smoothness_se   fractal_dimension_mean   concave points_mean   compactness_se   concavity_worst   ) {
   data = 
   ((((((   1)   % smoothness_se="(-0.0062, 0.0070]"   fractal_dimension_mean="(0.00000, 0.0600]"   concave points_mean="(-0.0059, 0.0000]"   compactness_se="(0.0000, 0.1000]"   concavity_worst="(0.000, 1.1000]"   
   (   1)   % smoothness_se="(0.0000, 0.0000]"   fractal_dimension_mean="(0.00000, 0.0600]"   concave points_mean="(-0.0059, 0.0000]"   compactness_se="(0.0000, 0.1000]"   concavity_worst="(0.000, 1.1000]"   
   (   1))   % smoothness_se="(0.0071, 0.0200]"   fractal_dimension_mean="(0.00000, 0.0600]"   concave points_mean="(-0.0059, 0.0000]"   compactness_se="(0.0000, 0.1000]"   concavity_worst="(0.000, 1.1000]"   
   ((   1)   % smoothness_se="(-0.0062, 0.0070]"   fractal_dimension_mean="(0.00000, 0.0900]"   concave points_mean="(-0.0059, 0.0000]"   compactness_se="(0.0000, 0.1000]"   concavity_worst="(0.000, 1.1000]"   
   (   1)   % smoothness_se="(0.0000, 0.0000]"   fractal_dimension_mean="(0.00000, 0.0900]"   concave points_mean="(-0.0059, 0.0000]"   compactness_se="(0.0000, 0.1000]"   concavity_worst="(0.000, 1.1000]"   
   (   1))   % smoothness_se="(0.0071, 0.0200]"   fractal_dimension_mean="(0.00000, 0.0900]"   concave points_mean="(-0.0059, 0.0000]"   compactness_se="(0.0000, 0.1000]"   concavity_worst="(0.000, 1.1000]"   
   ((   1)   % smoothness_se="(-0.0062, 0.0070]"   fractal_dimension_mean="(0.0419, 0.0500]"   concave points_mean="(-0.0059, 0.0000]"   compactness_se="(0.0000, 0.1000]"   concavity_worst="(0.000, 1.1000]"   
   (   1)   % smoothness_se="(0.0000, 0.0000]"   fractal_dimension_mean="(0.0419, 0.0500]"   concave points_mean="(-0.0059, 0.0000]"   compactness_se="(0.0000, 0.1000]"   concavity_worst="(0.000, 1.1000]"   
   (   1)))   % smoothness_se="(0.0071, 0.0200]"   fractal_dimension_mean="(0.0419, 0.0500]"   concave points_mean="(-0.0059, 0.0000]"   compactness_se="(0.0000, 0.1000]"   concavity_worst="(0.000, 1.1000]"   
   (((   1)   % smoothness_se="(-0.0062, 0.0070]"   fractal_dimension_mean="(0.00000, 0.0600]"   concave points_mean="(0.0000, 0.0900]"   compactness_se="(0.0000, 0.1000]"   concavity_worst="(0.000, 1.1000]"   
   (   1)   % smoothness_se="(0.0000, 0.0000]"   fractal_dimension_mean="(0.00000, 0.0600]"   concave points_mean="(0.0000, 0.0900]"   compactness_se="(0.0000, 0.1000]"   concavity_worst="(0.000, 1.1000]"   
   (   1))   % smoothness_se="(0.0071, 0.0200]"   fractal_dimension_mean="(0.00000, 0.0600]"   concave points_mean="(0.0000, 0.0900]"   compactness_se="(0.0000, 0.1000]"   concavity_worst="(0.000, 1.1000]"   
   ((   1)   % smoothness_se="(-0.0062, 0.0070]"   fractal_dimension_mean="(0.00000, 0.0900]"   concave points_mean="(0.0000, 0.0900]"   compactness_se="(0.0000, 0.1000]"   concavity_worst="(0.000, 1.1000]"   
   (   1)   % smoothness_se="(0.0000, 0.0000]"   fractal_dimension_mean="(0.00000, 0.0900]"   concave points_mean="(0.0000, 0.0900]"   compactness_se="(0.0000, 0.1000]"   concavity_worst="(0.000, 1.1000]"   
   (   1))   % smoothness_se="(0.0071, 0.0200]"   fractal_dimension_mean="(0.00000, 0.0900]"   concave points_mean="(0.0000, 0.0900]"   compactness_se="(0.0000, 0.1000]"   concavity_worst="(0.000, 1.1000]"   
   ((   1)   % smoothness_se="(-0.0062, 0.0070]"   fractal_dimension_mean="(0.0419, 0.0500]"   concave points_mean="(0.0000, 0.0900]"   compactness_se="(0.0000, 0.1000]"   concavity_worst="(0.000, 1.1000]"   
   (   1)   % smoothness_se="(0.0000, 0.0000]"   fractal_dimension_mean="(0.0419, 0.0500]"   concave points_mean="(0.0000, 0.0900]"   compactness_se="(0.0000, 0.1000]"   concavity_worst="(0.000, 1.1000]"   
   (   1)))   % smoothness_se="(0.0071, 0.0200]"   fractal_dimension_mean="(0.0419, 0.0500]"   concave points_mean="(0.0000, 0.0900]"   compactness_se="(0.0000, 0.1000]"   concavity_worst="(0.000, 1.1000]"   
   (((   1)   % smoothness_se="(-0.0062, 0.0070]"   fractal_dimension_mean="(0.00000, 0.0600]"   concave points_mean="(0.0000, 0.1000]"   compactness_se="(0.0000, 0.1000]"   concavity_worst="(0.000, 1.1000]"   
   (   1)   % smoothness_se="(0.0000, 0.0000]"   fractal_dimension_mean="(0.00000, 0.0600]"   concave points_mean="(0.0000, 0.1000]"   compactness_se="(0.0000, 0.1000]"   concavity_worst="(0.000, 1.1000]"   
   (   1))   % smoothness_se="(0.0071, 0.0200]"   fractal_dimension_mean="(0.00000, 0.0600]"   concave points_mean="(0.0000, 0.1000]"   compactness_se="(0.0000, 0.1000]"   concavity_worst="(0.000, 1.1000]"   
   ((   1)   % smoothness_se="(-0.0062, 0.0070]"   fractal_dimension_mean="(0.00000, 0.0900]"   concave points_mean="(0.0000, 0.1000]"   compactness_se="(0.0000, 0.1000]"   concavity_worst="(0.000, 1.1000]"   
   (   1)   % smoothness_se="(0.0000, 0.0000]"   fractal_dimension_mean="(0.00000, 0.0900]"   concave points_mean="(0.0000, 0.1000]"   compactness_se="(0.0000, 0.1000]"   concavity_worst="(0.000, 1.1000]"   
   (   1))   % smoothness_se="(0.0071, 0.0200]"   fractal_dimension_mean="(0.00000, 0.0900]"   concave points_mean="(0.0000, 0.1000]"   compactness_se="(0.0000, 0.1000]"   concavity_worst="(0.000, 1.1000]"   
   ((   1)   % smoothness_se="(-0.0062, 0.0070]"   fractal_dimension_mean="(0.0419, 0.0500]"   concave points_mean="(0.0000, 0.1000]"   compactness_se="(0.0000, 0.1000]"   concavity_worst="(0.000, 1.1000]"   
   (   1)   % smoothness_se="(0.0000, 0.0000]"   fractal_dimension_mean="(0.0419, 0.0500]"   concave points_mean="(0.0000, 0.1000]"   compactness_se="(0.0000, 0.1000]"   concavity_worst="(0.000, 1.1000]"   
   (   1))))   % smoothness_se="(0.0071, 0.0200]"   fractal_dimension_mean="(0.0419, 0.0500]"   concave points_mean="(0.0000, 0.1000]"   compactness_se="(0.0000, 0.1000]"   concavity_worst="(0.000, 1.1000]"   
   ((((   1)   % smoothness_se="(-0.0062, 0.0070]"   fractal_dimension_mean="(0.00000, 0.0600]"   concave points_mean="(-0.0059, 0.0000]"   compactness_se="(0.00000, 0.0600]"   concavity_worst="(0.000, 1.1000]"   
   (   1)   % smoothness_se="(0.0000, 0.0000]"   fractal_dimension_mean="(0.00000, 0.0600]"   concave points_mean="(-0.0059, 0.0000]"   compactness_se="(0.00000, 0.0600]"   concavity_worst="(0.000, 1.1000]"   
   (   1))   % smoothness_se="(0.0071, 0.0200]"   fractal_dimension_mean="(0.00000, 0.0600]"   concave points_mean="(-0.0059, 0.0000]"   compactness_se="(0.00000, 0.0600]"   concavity_worst="(0.000, 1.1000]"   
   ((   1)   % smoothness_se="(-0.0062, 0.0070]"   fractal_dimension_mean="(0.00000, 0.0900]"   concave points_mean="(-0.0059, 0.0000]"   compactness_se="(0.00000, 0.0600]"   concavity_worst="(0.000, 1.1000]"   
   (   1)   % smoothness_se="(0.0000, 0.0000]"   fractal_dimension_mean="(0.00000, 0.0900]"   concave points_mean="(-0.0059, 0.0000]"   compactness_se="(0.00000, 0.0600]"   concavity_worst="(0.000, 1.1000]"   
   (   1))   % smoothness_se="(0.0071, 0.0200]"   fractal_dimension_mean="(0.00000, 0.0900]"   concave points_mean="(-0.0059, 0.0000]"   compactness_se="(0.00000, 0.0600]"   concavity_worst="(0.000, 1.1000]"   
   ((   1)   % smoothness_se="(-0.0062, 0.0070]"   fractal_dimension_mean="(0.0419, 0.0500]"   concave points_mean="(-0.0059, 0.0000]"   compactness_se="(0.00000, 0.0600]"   concavity_worst="(0.000, 1.1000]"   
   (   1)   % smoothness_se="(0.0000, 0.0000]"   fractal_dimension_mean="(0.0419, 0.0500]"   concave points_mean="(-0.0059, 0.0000]"   compactness_se="(0.00000, 0.0600]"   concavity_worst="(0.000, 1.1000]"   
   (   1)))   % smoothness_se="(0.0071, 0.0200]"   fractal_dimension_mean="(0.0419, 0.0500]"   concave points_mean="(-0.0059, 0.0000]"   compactness_se="(0.00000, 0.0600]"   concavity_worst="(0.000, 1.1000]"   
   (((   1)   % smoothness_se="(-0.0062, 0.0070]"   fractal_dimension_mean="(0.00000, 0.0600]"   concave points_mean="(0.0000, 0.0900]"   compactness_se="(0.00000, 0.0600]"   concavity_worst="(0.000, 1.1000]"   
   (   1)   % smoothness_se="(0.0000, 0.0000]"   fractal_dimension_mean="(0.00000, 0.0600]"   concave points_mean="(0.0000, 0.0900]"   compactness_se="(0.00000, 0.0600]"   concavity_worst="(0.000, 1.1000]"   
   (   1))   % smoothness_se="(0.0071, 0.0200]"   fractal_dimension_mean="(0.00000, 0.0600]"   concave points_mean="(0.0000, 0.0900]"   compactness_se="(0.00000, 0.0600]"   concavity_worst="(0.000, 1.1000]"   
   ((   1)   % smoothness_se="(-0.0062, 0.0070]"   fractal_dimension_mean="(0.00000, 0.0900]"   concave points_mean="(0.0000, 0.0900]"   compactness_se="(0.00000, 0.0600]"   concavity_worst="(0.000, 1.1000]"   
   (   1)   % smoothness_se="(0.0000, 0.0000]"   fractal_dimension_mean="(0.00000, 0.0900]"   concave points_mean="(0.0000, 0.0900]"   compactness_se="(0.00000, 0.0600]"   concavity_worst="(0.000, 1.1000]"   
   (   1))   % smoothness_se="(0.0071, 0.0200]"   fractal_dimension_mean="(0.00000, 0.0900]"   concave points_mean="(0.0000, 0.0900]"   compactness_se="(0.00000, 0.0600]"   concavity_worst="(0.000, 1.1000]"   
   ((   1)   % smoothness_se="(-0.0062, 0.0070]"   fractal_dimension_mean="(0.0419, 0.0500]"   concave points_mean="(0.0000, 0.0900]"   compactness_se="(0.00000, 0.0600]"   concavity_worst="(0.000, 1.1000]"   
   (   1)   % smoothness_se="(0.0000, 0.0000]"   fractal_dimension_mean="(0.0419, 0.0500]"   concave points_mean="(0.0000, 0.0900]"   compactness_se="(0.00000, 0.0600]"   concavity_worst="(0.000, 1.1000]"   
   (   1)))   % smoothness_se="(0.0071, 0.0200]"   fractal_dimension_mean="(0.0419, 0.0500]"   concave points_mean="(0.0000, 0.0900]"   compactness_se="(0.00000, 0.0600]"   concavity_worst="(0.000, 1.1000]"   
   (((   1)   % smoothness_se="(-0.0062, 0.0070]"   fractal_dimension_mean="(0.00000, 0.0600]"   concave points_mean="(0.0000, 0.1000]"   compactness_se="(0.00000, 0.0600]"   concavity_worst="(0.000, 1.1000]"   
   (   1)   % smoothness_se="(0.0000, 0.0000]"   fractal_dimension_mean="(0.00000, 0.0600]"   concave points_mean="(0.0000, 0.1000]"   compactness_se="(0.00000, 0.0600]"   concavity_worst="(0.000, 1.1000]"   
   (   1))   % smoothness_se="(0.0071, 0.0200]"   fractal_dimension_mean="(0.00000, 0.0600]"   concave points_mean="(0.0000, 0.1000]"   compactness_se="(0.00000, 0.0600]"   concavity_worst="(0.000, 1.1000]"   
   ((   1)   % smoothness_se="(-0.0062, 0.0070]"   fractal_dimension_mean="(0.00000, 0.0900]"   concave points_mean="(0.0000, 0.1000]"   compactness_se="(0.00000, 0.0600]"   concavity_worst="(0.000, 1.1000]"   
   (   1)   % smoothness_se="(0.0000, 0.0000]"   fractal_dimension_mean="(0.00000, 0.0900]"   concave points_mean="(0.0000, 0.1000]"   compactness_se="(0.00000, 0.0600]"   concavity_worst="(0.000, 1.1000]"   
   (   1))   % smoothness_se="(0.0071, 0.0200]"   fractal_dimension_mean="(0.00000, 0.0900]"   concave points_mean="(0.0000, 0.1000]"   compactness_se="(0.00000, 0.0600]"   concavity_worst="(0.000, 1.1000]"   
   ((   1)   % smoothness_se="(-0.0062, 0.0070]"   fractal_dimension_mean="(0.0419, 0.0500]"   concave points_mean="(0.0000, 0.1000]"   compactness_se="(0.00000, 0.0600]"   concavity_worst="(0.000, 1.1000]"   
   (   1)   % smoothness_se="(0.0000, 0.0000]"   fractal_dimension_mean="(0.0419, 0.0500]"   concave points_mean="(0.0000, 0.1000]"   compactness_se="(0.00000, 0.0600]"   concavity_worst="(0.000, 1.1000]"   
   (   1))))   % smoothness_se="(0.0071, 0.0200]"   fractal_dimension_mean="(0.0419, 0.0500]"   concave points_mean="(0.0000, 0.1000]"   compactness_se="(0.00000, 0.0600]"   concavity_worst="(0.000, 1.1000]"   
   ((((   1)   % smoothness_se="(-0.0062, 0.0070]"   fractal_dimension_mean="(0.00000, 0.0600]"   concave points_mean="(-0.0059, 0.0000]"   compactness_se="(0.0119, 0.0200]"   concavity_worst="(0.000, 1.1000]"   
   (   1)   % smoothness_se="(0.0000, 0.0000]"   fractal_dimension_mean="(0.00000, 0.0600]"   concave points_mean="(-0.0059, 0.0000]"   compactness_se="(0.0119, 0.0200]"   concavity_worst="(0.000, 1.1000]"   
   (   1))   % smoothness_se="(0.0071, 0.0200]"   fractal_dimension_mean="(0.00000, 0.0600]"   concave points_mean="(-0.0059, 0.0000]"   compactness_se="(0.0119, 0.0200]"   concavity_worst="(0.000, 1.1000]"   
   ((   1)   % smoothness_se="(-0.0062, 0.0070]"   fractal_dimension_mean="(0.00000, 0.0900]"   concave points_mean="(-0.0059, 0.0000]"   compactness_se="(0.0119, 0.0200]"   concavity_worst="(0.000, 1.1000]"   
   (   1)   % smoothness_se="(0.0000, 0.0000]"   fractal_dimension_mean="(0.00000, 0.0900]"   concave points_mean="(-0.0059, 0.0000]"   compactness_se="(0.0119, 0.0200]"   concavity_worst="(0.000, 1.1000]"   
   (   1))   % smoothness_se="(0.0071, 0.0200]"   fractal_dimension_mean="(0.00000, 0.0900]"   concave points_mean="(-0.0059, 0.0000]"   compactness_se="(0.0119, 0.0200]"   concavity_worst="(0.000, 1.1000]"   
   ((   1)   % smoothness_se="(-0.0062, 0.0070]"   fractal_dimension_mean="(0.0419, 0.0500]"   concave points_mean="(-0.0059, 0.0000]"   compactness_se="(0.0119, 0.0200]"   concavity_worst="(0.000, 1.1000]"   
   (   1)   % smoothness_se="(0.0000, 0.0000]"   fractal_dimension_mean="(0.0419, 0.0500]"   concave points_mean="(-0.0059, 0.0000]"   compactness_se="(0.0119, 0.0200]"   concavity_worst="(0.000, 1.1000]"   
   (   1)))   % smoothness_se="(0.0071, 0.0200]"   fractal_dimension_mean="(0.0419, 0.0500]"   concave points_mean="(-0.0059, 0.0000]"   compactness_se="(0.0119, 0.0200]"   concavity_worst="(0.000, 1.1000]"   
   (((   1)   % smoothness_se="(-0.0062, 0.0070]"   fractal_dimension_mean="(0.00000, 0.0600]"   concave points_mean="(0.0000, 0.0900]"   compactness_se="(0.0119, 0.0200]"   concavity_worst="(0.000, 1.1000]"   
   (   1)   % smoothness_se="(0.0000, 0.0000]"   fractal_dimension_mean="(0.00000, 0.0600]"   concave points_mean="(0.0000, 0.0900]"   compactness_se="(0.0119, 0.0200]"   concavity_worst="(0.000, 1.1000]"   
   (   1))   % smoothness_se="(0.0071, 0.0200]"   fractal_dimension_mean="(0.00000, 0.0600]"   concave points_mean="(0.0000, 0.0900]"   compactness_se="(0.0119, 0.0200]"   concavity_worst="(0.000, 1.1000]"   
   ((   1)   % smoothness_se="(-0.0062, 0.0070]"   fractal_dimension_mean="(0.00000, 0.0900]"   concave points_mean="(0.0000, 0.0900]"   compactness_se="(0.0119, 0.0200]"   concavity_worst="(0.000, 1.1000]"   
   (   1)   % smoothness_se="(0.0000, 0.0000]"   fractal_dimension_mean="(0.00000, 0.0900]"   concave points_mean="(0.0000, 0.0900]"   compactness_se="(0.0119, 0.0200]"   concavity_worst="(0.000, 1.1000]"   
   (   1))   % smoothness_se="(0.0071, 0.0200]"   fractal_dimension_mean="(0.00000, 0.0900]"   concave points_mean="(0.0000, 0.0900]"   compactness_se="(0.0119, 0.0200]"   concavity_worst="(0.000, 1.1000]"   
   ((   1)   % smoothness_se="(-0.0062, 0.0070]"   fractal_dimension_mean="(0.0419, 0.0500]"   concave points_mean="(0.0000, 0.0900]"   compactness_se="(0.0119, 0.0200]"   concavity_worst="(0.000, 1.1000]"   
   (   1)   % smoothness_se="(0.0000, 0.0000]"   fractal_dimension_mean="(0.0419, 0.0500]"   concave points_mean="(0.0000, 0.0900]"   compactness_se="(0.0119, 0.0200]"   concavity_worst="(0.000, 1.1000]"   
   (   1)))   % smoothness_se="(0.0071, 0.0200]"   fractal_dimension_mean="(0.0419, 0.0500]"   concave points_mean="(0.0000, 0.0900]"   compactness_se="(0.0119, 0.0200]"   concavity_worst="(0.000, 1.1000]"   
   (((   1)   % smoothness_se="(-0.0062, 0.0070]"   fractal_dimension_mean="(0.00000, 0.0600]"   concave points_mean="(0.0000, 0.1000]"   compactness_se="(0.0119, 0.0200]"   concavity_worst="(0.000, 1.1000]"   
   (   1)   % smoothness_se="(0.0000, 0.0000]"   fractal_dimension_mean="(0.00000, 0.0600]"   concave points_mean="(0.0000, 0.1000]"   compactness_se="(0.0119, 0.0200]"   concavity_worst="(0.000, 1.1000]"   
   (   1))   % smoothness_se="(0.0071, 0.0200]"   fractal_dimension_mean="(0.00000, 0.0600]"   concave points_mean="(0.0000, 0.1000]"   compactness_se="(0.0119, 0.0200]"   concavity_worst="(0.000, 1.1000]"   
   ((   1)   % smoothness_se="(-0.0062, 0.0070]"   fractal_dimension_mean="(0.00000, 0.0900]"   concave points_mean="(0.0000, 0.1000]"   compactness_se="(0.0119, 0.0200]"   concavity_worst="(0.000, 1.1000]"   
   (   1)   % smoothness_se="(0.0000, 0.0000]"   fractal_dimension_mean="(0.00000, 0.0900]"   concave points_mean="(0.0000, 0.1000]"   compactness_se="(0.0119, 0.0200]"   concavity_worst="(0.000, 1.1000]"   
   (   1))   % smoothness_se="(0.0071, 0.0200]"   fractal_dimension_mean="(0.00000, 0.0900]"   concave points_mean="(0.0000, 0.1000]"   compactness_se="(0.0119, 0.0200]"   concavity_worst="(0.000, 1.1000]"   
   ((   1)   % smoothness_se="(-0.0062, 0.0070]"   fractal_dimension_mean="(0.0419, 0.0500]"   concave points_mean="(0.0000, 0.1000]"   compactness_se="(0.0119, 0.0200]"   concavity_worst="(0.000, 1.1000]"   
   (   1)   % smoothness_se="(0.0000, 0.0000]"   fractal_dimension_mean="(0.0419, 0.0500]"   concave points_mean="(0.0000, 0.1000]"   compactness_se="(0.0119, 0.0200]"   concavity_worst="(0.000, 1.1000]"   
   (   1)))))   % smoothness_se="(0.0071, 0.0200]"   fractal_dimension_mean="(0.0419, 0.0500]"   concave points_mean="(0.0000, 0.1000]"   compactness_se="(0.0119, 0.0200]"   concavity_worst="(0.000, 1.1000]"   
   (((((   1)   % smoothness_se="(-0.0062, 0.0070]"   fractal_dimension_mean="(0.00000, 0.0600]"   concave points_mean="(-0.0059, 0.0000]"   compactness_se="(0.0000, 0.1000]"   concavity_worst="(0.0029, 0.3000]"   
   (   1)   % smoothness_se="(0.0000, 0.0000]"   fractal_dimension_mean="(0.00000, 0.0600]"   concave points_mean="(-0.0059, 0.0000]"   compactness_se="(0.0000, 0.1000]"   concavity_worst="(0.0029, 0.3000]"   
   (   1))   % smoothness_se="(0.0071, 0.0200]"   fractal_dimension_mean="(0.00000, 0.0600]"   concave points_mean="(-0.0059, 0.0000]"   compactness_se="(0.0000, 0.1000]"   concavity_worst="(0.0029, 0.3000]"   
   ((   1)   % smoothness_se="(-0.0062, 0.0070]"   fractal_dimension_mean="(0.00000, 0.0900]"   concave points_mean="(-0.0059, 0.0000]"   compactness_se="(0.0000, 0.1000]"   concavity_worst="(0.0029, 0.3000]"   
   (   1)   % smoothness_se="(0.0000, 0.0000]"   fractal_dimension_mean="(0.00000, 0.0900]"   concave points_mean="(-0.0059, 0.0000]"   compactness_se="(0.0000, 0.1000]"   concavity_worst="(0.0029, 0.3000]"   
   (   1))   % smoothness_se="(0.0071, 0.0200]"   fractal_dimension_mean="(0.00000, 0.0900]"   concave points_mean="(-0.0059, 0.0000]"   compactness_se="(0.0000, 0.1000]"   concavity_worst="(0.0029, 0.3000]"   
   ((   1)   % smoothness_se="(-0.0062, 0.0070]"   fractal_dimension_mean="(0.0419, 0.0500]"   concave points_mean="(-0.0059, 0.0000]"   compactness_se="(0.0000, 0.1000]"   concavity_worst="(0.0029, 0.3000]"   
   (   1)   % smoothness_se="(0.0000, 0.0000]"   fractal_dimension_mean="(0.0419, 0.0500]"   concave points_mean="(-0.0059, 0.0000]"   compactness_se="(0.0000, 0.1000]"   concavity_worst="(0.0029, 0.3000]"   
   (   1)))   % smoothness_se="(0.0071, 0.0200]"   fractal_dimension_mean="(0.0419, 0.0500]"   concave points_mean="(-0.0059, 0.0000]"   compactness_se="(0.0000, 0.1000]"   concavity_worst="(0.0029, 0.3000]"   
   (((   1)   % smoothness_se="(-0.0062, 0.0070]"   fractal_dimension_mean="(0.00000, 0.0600]"   concave points_mean="(0.0000, 0.0900]"   compactness_se="(0.0000, 0.1000]"   concavity_worst="(0.0029, 0.3000]"   
   (   1)   % smoothness_se="(0.0000, 0.0000]"   fractal_dimension_mean="(0.00000, 0.0600]"   concave points_mean="(0.0000, 0.0900]"   compactness_se="(0.0000, 0.1000]"   concavity_worst="(0.0029, 0.3000]"   
   (   1))   % smoothness_se="(0.0071, 0.0200]"   fractal_dimension_mean="(0.00000, 0.0600]"   concave points_mean="(0.0000, 0.0900]"   compactness_se="(0.0000, 0.1000]"   concavity_worst="(0.0029, 0.3000]"   
   ((   1)   % smoothness_se="(-0.0062, 0.0070]"   fractal_dimension_mean="(0.00000, 0.0900]"   concave points_mean="(0.0000, 0.0900]"   compactness_se="(0.0000, 0.1000]"   concavity_worst="(0.0029, 0.3000]"   
   (   1)   % smoothness_se="(0.0000, 0.0000]"   fractal_dimension_mean="(0.00000, 0.0900]"   concave points_mean="(0.0000, 0.0900]"   compactness_se="(0.0000, 0.1000]"   concavity_worst="(0.0029, 0.3000]"   
   (   1))   % smoothness_se="(0.0071, 0.0200]"   fractal_dimension_mean="(0.00000, 0.0900]"   concave points_mean="(0.0000, 0.0900]"   compactness_se="(0.0000, 0.1000]"   concavity_worst="(0.0029, 0.3000]"   
   ((   1)   % smoothness_se="(-0.0062, 0.0070]"   fractal_dimension_mean="(0.0419, 0.0500]"   concave points_mean="(0.0000, 0.0900]"   compactness_se="(0.0000, 0.1000]"   concavity_worst="(0.0029, 0.3000]"   
   (   1)   % smoothness_se="(0.0000, 0.0000]"   fractal_dimension_mean="(0.0419, 0.0500]"   concave points_mean="(0.0000, 0.0900]"   compactness_se="(0.0000, 0.1000]"   concavity_worst="(0.0029, 0.3000]"   
   (   1)))   % smoothness_se="(0.0071, 0.0200]"   fractal_dimension_mean="(0.0419, 0.0500]"   concave points_mean="(0.0000, 0.0900]"   compactness_se="(0.0000, 0.1000]"   concavity_worst="(0.0029, 0.3000]"   
   (((   1)   % smoothness_se="(-0.0062, 0.0070]"   fractal_dimension_mean="(0.00000, 0.0600]"   concave points_mean="(0.0000, 0.1000]"   compactness_se="(0.0000, 0.1000]"   concavity_worst="(0.0029, 0.3000]"   
   (   1)   % smoothness_se="(0.0000, 0.0000]"   fractal_dimension_mean="(0.00000, 0.0600]"   concave points_mean="(0.0000, 0.1000]"   compactness_se="(0.0000, 0.1000]"   concavity_worst="(0.0029, 0.3000]"   
   (   1))   % smoothness_se="(0.0071, 0.0200]"   fractal_dimension_mean="(0.00000, 0.0600]"   concave points_mean="(0.0000, 0.1000]"   compactness_se="(0.0000, 0.1000]"   concavity_worst="(0.0029, 0.3000]"   
   ((   1)   % smoothness_se="(-0.0062, 0.0070]"   fractal_dimension_mean="(0.00000, 0.0900]"   concave points_mean="(0.0000, 0.1000]"   compactness_se="(0.0000, 0.1000]"   concavity_worst="(0.0029, 0.3000]"   
   (   1)   % smoothness_se="(0.0000, 0.0000]"   fractal_dimension_mean="(0.00000, 0.0900]"   concave points_mean="(0.0000, 0.1000]"   compactness_se="(0.0000, 0.1000]"   concavity_worst="(0.0029, 0.3000]"   
   (   1))   % smoothness_se="(0.0071, 0.0200]"   fractal_dimension_mean="(0.00000, 0.0900]"   concave points_mean="(0.0000, 0.1000]"   compactness_se="(0.0000, 0.1000]"   concavity_worst="(0.0029, 0.3000]"   
   ((   1)   % smoothness_se="(-0.0062, 0.0070]"   fractal_dimension_mean="(0.0419, 0.0500]"   concave points_mean="(0.0000, 0.1000]"   compactness_se="(0.0000, 0.1000]"   concavity_worst="(0.0029, 0.3000]"   
   (   1)   % smoothness_se="(0.0000, 0.0000]"   fractal_dimension_mean="(0.0419, 0.0500]"   concave points_mean="(0.0000, 0.1000]"   compactness_se="(0.0000, 0.1000]"   concavity_worst="(0.0029, 0.3000]"   
   (   1))))   % smoothness_se="(0.0071, 0.0200]"   fractal_dimension_mean="(0.0419, 0.0500]"   concave points_mean="(0.0000, 0.1000]"   compactness_se="(0.0000, 0.1000]"   concavity_worst="(0.0029, 0.3000]"   
   ((((   1)   % smoothness_se="(-0.0062, 0.0070]"   fractal_dimension_mean="(0.00000, 0.0600]"   concave points_mean="(-0.0059, 0.0000]"   compactness_se="(0.00000, 0.0600]"   concavity_worst="(0.0029, 0.3000]"   
   (   1)   % smoothness_se="(0.0000, 0.0000]"   fractal_dimension_mean="(0.00000, 0.0600]"   concave points_mean="(-0.0059, 0.0000]"   compactness_se="(0.00000, 0.0600]"   concavity_worst="(0.0029, 0.3000]"   
   (   1))   % smoothness_se="(0.0071, 0.0200]"   fractal_dimension_mean="(0.00000, 0.0600]"   concave points_mean="(-0.0059, 0.0000]"   compactness_se="(0.00000, 0.0600]"   concavity_worst="(0.0029, 0.3000]"   
   ((   1)   % smoothness_se="(-0.0062, 0.0070]"   fractal_dimension_mean="(0.00000, 0.0900]"   concave points_mean="(-0.0059, 0.0000]"   compactness_se="(0.00000, 0.0600]"   concavity_worst="(0.0029, 0.3000]"   
   (   1)   % smoothness_se="(0.0000, 0.0000]"   fractal_dimension_mean="(0.00000, 0.0900]"   concave points_mean="(-0.0059, 0.0000]"   compactness_se="(0.00000, 0.0600]"   concavity_worst="(0.0029, 0.3000]"   
   (   1))   % smoothness_se="(0.0071, 0.0200]"   fractal_dimension_mean="(0.00000, 0.0900]"   concave points_mean="(-0.0059, 0.0000]"   compactness_se="(0.00000, 0.0600]"   concavity_worst="(0.0029, 0.3000]"   
   ((   1)   % smoothness_se="(-0.0062, 0.0070]"   fractal_dimension_mean="(0.0419, 0.0500]"   concave points_mean="(-0.0059, 0.0000]"   compactness_se="(0.00000, 0.0600]"   concavity_worst="(0.0029, 0.3000]"   
   (   1)   % smoothness_se="(0.0000, 0.0000]"   fractal_dimension_mean="(0.0419, 0.0500]"   concave points_mean="(-0.0059, 0.0000]"   compactness_se="(0.00000, 0.0600]"   concavity_worst="(0.0029, 0.3000]"   
   (   1)))   % smoothness_se="(0.0071, 0.0200]"   fractal_dimension_mean="(0.0419, 0.0500]"   concave points_mean="(-0.0059, 0.0000]"   compactness_se="(0.00000, 0.0600]"   concavity_worst="(0.0029, 0.3000]"   
   (((   1)   % smoothness_se="(-0.0062, 0.0070]"   fractal_dimension_mean="(0.00000, 0.0600]"   concave points_mean="(0.0000, 0.0900]"   compactness_se="(0.00000, 0.0600]"   concavity_worst="(0.0029, 0.3000]"   
   (   1)   % smoothness_se="(0.0000, 0.0000]"   fractal_dimension_mean="(0.00000, 0.0600]"   concave points_mean="(0.0000, 0.0900]"   compactness_se="(0.00000, 0.0600]"   concavity_worst="(0.0029, 0.3000]"   
   (   1))   % smoothness_se="(0.0071, 0.0200]"   fractal_dimension_mean="(0.00000, 0.0600]"   concave points_mean="(0.0000, 0.0900]"   compactness_se="(0.00000, 0.0600]"   concavity_worst="(0.0029, 0.3000]"   
   ((   1)   % smoothness_se="(-0.0062, 0.0070]"   fractal_dimension_mean="(0.00000, 0.0900]"   concave points_mean="(0.0000, 0.0900]"   compactness_se="(0.00000, 0.0600]"   concavity_worst="(0.0029, 0.3000]"   
   (   1)   % smoothness_se="(0.0000, 0.0000]"   fractal_dimension_mean="(0.00000, 0.0900]"   concave points_mean="(0.0000, 0.0900]"   compactness_se="(0.00000, 0.0600]"   concavity_worst="(0.0029, 0.3000]"   
   (   1))   % smoothness_se="(0.0071, 0.0200]"   fractal_dimension_mean="(0.00000, 0.0900]"   concave points_mean="(0.0000, 0.0900]"   compactness_se="(0.00000, 0.0600]"   concavity_worst="(0.0029, 0.3000]"   
   ((   1)   % smoothness_se="(-0.0062, 0.0070]"   fractal_dimension_mean="(0.0419, 0.0500]"   concave points_mean="(0.0000, 0.0900]"   compactness_se="(0.00000, 0.0600]"   concavity_worst="(0.0029, 0.3000]"   
   (   1)   % smoothness_se="(0.0000, 0.0000]"   fractal_dimension_mean="(0.0419, 0.0500]"   concave points_mean="(0.0000, 0.0900]"   compactness_se="(0.00000, 0.0600]"   concavity_worst="(0.0029, 0.3000]"   
   (   1)))   % smoothness_se="(0.0071, 0.0200]"   fractal_dimension_mean="(0.0419, 0.0500]"   concave points_mean="(0.0000, 0.0900]"   compactness_se="(0.00000, 0.0600]"   concavity_worst="(0.0029, 0.3000]"   
   (((   1)   % smoothness_se="(-0.0062, 0.0070]"   fractal_dimension_mean="(0.00000, 0.0600]"   concave points_mean="(0.0000, 0.1000]"   compactness_se="(0.00000, 0.0600]"   concavity_worst="(0.0029, 0.3000]"   
   (   1)   % smoothness_se="(0.0000, 0.0000]"   fractal_dimension_mean="(0.00000, 0.0600]"   concave points_mean="(0.0000, 0.1000]"   compactness_se="(0.00000, 0.0600]"   concavity_worst="(0.0029, 0.3000]"   
   (   1))   % smoothness_se="(0.0071, 0.0200]"   fractal_dimension_mean="(0.00000, 0.0600]"   concave points_mean="(0.0000, 0.1000]"   compactness_se="(0.00000, 0.0600]"   concavity_worst="(0.0029, 0.3000]"   
   ((   1)   % smoothness_se="(-0.0062, 0.0070]"   fractal_dimension_mean="(0.00000, 0.0900]"   concave points_mean="(0.0000, 0.1000]"   compactness_se="(0.00000, 0.0600]"   concavity_worst="(0.0029, 0.3000]"   
   (   1)   % smoothness_se="(0.0000, 0.0000]"   fractal_dimension_mean="(0.00000, 0.0900]"   concave points_mean="(0.0000, 0.1000]"   compactness_se="(0.00000, 0.0600]"   concavity_worst="(0.0029, 0.3000]"   
   (   1))   % smoothness_se="(0.0071, 0.0200]"   fractal_dimension_mean="(0.00000, 0.0900]"   concave points_mean="(0.0000, 0.1000]"   compactness_se="(0.00000, 0.0600]"   concavity_worst="(0.0029, 0.3000]"   
   ((   1)   % smoothness_se="(-0.0062, 0.0070]"   fractal_dimension_mean="(0.0419, 0.0500]"   concave points_mean="(0.0000, 0.1000]"   compactness_se="(0.00000, 0.0600]"   concavity_worst="(0.0029, 0.3000]"   
   (   1)   % smoothness_se="(0.0000, 0.0000]"   fractal_dimension_mean="(0.0419, 0.0500]"   concave points_mean="(0.0000, 0.1000]"   compactness_se="(0.00000, 0.0600]"   concavity_worst="(0.0029, 0.3000]"   
   (   1))))   % smoothness_se="(0.0071, 0.0200]"   fractal_dimension_mean="(0.0419, 0.0500]"   concave points_mean="(0.0000, 0.1000]"   compactness_se="(0.00000, 0.0600]"   concavity_worst="(0.0029, 0.3000]"   
   ((((   1)   % smoothness_se="(-0.0062, 0.0070]"   fractal_dimension_mean="(0.00000, 0.0600]"   concave points_mean="(-0.0059, 0.0000]"   compactness_se="(0.0119, 0.0200]"   concavity_worst="(0.0029, 0.3000]"   
   (   1)   % smoothness_se="(0.0000, 0.0000]"   fractal_dimension_mean="(0.00000, 0.0600]"   concave points_mean="(-0.0059, 0.0000]"   compactness_se="(0.0119, 0.0200]"   concavity_worst="(0.0029, 0.3000]"   
