
net {
  name = unnamedBN;
  software = "aGrUM 0.18.2";
  node_size = (50 50);
}

node radius_mean {
   states = ("(10.0000, 14.3000]" );
   label = "radius_mean";
   ID = "radius_mean";
}

node texture_mean {
   states = ("(14.0400, 17.9000]" "(17.0000, 18.8000]" );
   label = "texture_mean";
   ID = "texture_mean";
}

node perimeter_mean {
   states = ("(68.0000, 89.3000]" "(89.000, 94.0000]" );
   label = "perimeter_mean";
   ID = "perimeter_mean";
}

node area_mean {
   states = ("(260.0000, 591.0000]" "(591.0000, 672.7000]" );
   label = "area_mean";
   ID = "area_mean";
}

node smoothness_mean {
   states = ("(0.00, 0.1000]" "(0.0860, 0.0000]" );
   label = "smoothness_mean";
   ID = "smoothness_mean";
}

node compactness_mean {
   states = ("(0.0000, 0.1000]" "(0.0349, 0.0800]" );
   label = "compactness_mean";
   ID = "compactness_mean";
}

node concavity_mean {
   states = ("(0.0190, 0.0000]" );
   label = "concavity_mean";
   ID = "concavity_mean";
}

node concave points_mean {
   states = ("(0.00000, 0.0300]" "(0.00000, 0.0400]" );
   label = "concave points_mean";
   ID = "concave points_mean";
}

node symmetry_mean {
   states = ("(0.00000, 0.1600]" );
   label = "symmetry_mean";
   ID = "symmetry_mean";
}

node fractal_dimension_mean {
   states = ("(0.00000, 0.0600]" "(0.0499, 0.0600]" );
   label = "fractal_dimension_mean";
   ID = "fractal_dimension_mean";
}

node radius_se {
   states = ("(0.000, 0.2000]" "(0.000, 0.4000]" );
   label = "radius_se";
   ID = "radius_se";
}

node texture_se {
   states = ("(0.000, 0.7000]" "(0.000, 0.8000]" "(0.000, 1.1000]" );
   label = "texture_se";
   ID = "texture_se";
}

node perimeter_se {
   states = ("(0.000, 1.2000]" "(1.00, 1.0000]" "(1.00, 3.3000]" );
   label = "perimeter_se";
   ID = "perimeter_se";
}

node area_se {
   states = ("(17.0000, 63.9000]" "(63.0000, 70.2000]" "(7.4300, 17.6000]" );
   label = "area_se";
   ID = "area_se";
}

node smoothness_se {
   states = ("(0.0050, 0.0087]" "(0.0087, 0.0100]" "(0.0107, 0.0110]" );
   label = "smoothness_se";
   ID = "smoothness_se";
}

node compactness_se {
   states = ("(-0.0002, 0.0100]" "(0.00000, 0.0100]" "(0.00000, 0.0200]" );
   label = "compactness_se";
   ID = "compactness_se";
}

node concavity_se {
   states = ("(-0.0048, 0.0100]" "(0.00000, 0.0400]" );
   label = "concavity_se";
   ID = "concavity_se";
}

node concave points_se {
   states = ("(-0.0032, 0.0080]" "(0.0088, 0.0100]" );
   label = "concave points_se";
   ID = "concave points_se";
}

node symmetry_se {
   states = ("(0.00000, 0.0200]" );
   label = "symmetry_se";
   ID = "symmetry_se";
}

node fractal_dimension_se {
   states = ("(-0.0082, 0.0030]" "(0.0035, 0.0030]" "(0.0037, 0.0040]" );
   label = "fractal_dimension_se";
   ID = "fractal_dimension_se";
}

node radius_worst {
   states = ("(10.0000, 13.1000]" "(13.000, 15.0000]" "(15.000, 15.7000]" );
   label = "radius_worst";
   ID = "radius_worst";
}

node texture_worst {
   states = ("(16.8499, 19.9000]" "(19.0000, 20.1000]" "(20.0000, 21.9000]" );
   label = "texture_worst";
   ID = "texture_worst";
}

node perimeter_worst {
   states = ("(78.9499, 85.4000]" "(85.00000, 102.5000]" );
   label = "perimeter_worst";
   ID = "perimeter_worst";
}

node area_worst {
   states = ("(191.7000, 550.5000]" "(550.00000, 888.2000]" );
   label = "area_worst";
   ID = "area_worst";
}

node smoothness_worst {
   states = ("(0.000, 0.1000]" "(0.1200, 0.1000]" );
   label = "smoothness_worst";
   ID = "smoothness_worst";
}

node compactness_worst {
   states = ("(0.000, 0.2000]" );
   label = "compactness_worst";
   ID = "compactness_worst";
}

node concavity_worst {
   states = ("(0.000, 0.2000]" "(0.000, 0.3000]" );
   label = "concavity_worst";
   ID = "concavity_worst";
}

node concave points_worst {
   states = ("(0.000, 0.1000]" "(0.0000, 0.1000]" );
   label = "concave points_worst";
   ID = "concave points_worst";
}

node symmetry_worst {
   states = ("(0.000, 0.3000]" "(0.2799, 0.3000]" );
   label = "symmetry_worst";
   ID = "symmetry_worst";
}

node fractal_dimension_worst {
   states = ("(0.0000, 0.1000]" "(0.0750, 0.0900]" );
   label = "fractal_dimension_worst";
   ID = "fractal_dimension_worst";
}

node diagnosis {
   states = (No );
   label = "diagnosis";
   ID = "diagnosis";
}

potential ( radius_mean | smoothness_se   perimeter_worst   ) {
   data = 
   (((   1)   % perimeter_worst="(78.9499, 85.4000]"   smoothness_se="(0.0050, 0.0087]"   
   (   1))   % perimeter_worst="(85.00000, 102.5000]"   smoothness_se="(0.0050, 0.0087]"   
   ((   1)   % perimeter_worst="(78.9499, 85.4000]"   smoothness_se="(0.0087, 0.0100]"   
   (   1))   % perimeter_worst="(85.00000, 102.5000]"   smoothness_se="(0.0087, 0.0100]"   
   ((   1)   % perimeter_worst="(78.9499, 85.4000]"   smoothness_se="(0.0107, 0.0110]"   
   (   1)));   % perimeter_worst="(85.00000, 102.5000]"   smoothness_se="(0.0107, 0.0110]"   
}

potential ( texture_mean | concave points_mean   ) {
   data = 
   ((   0.998901   0.0010989)   % concave points_mean="(0.00000, 0.0300]"   
   (   0.983221   0.0167785));   % concave points_mean="(0.00000, 0.0400]"   
}

potential ( perimeter_mean | concave points_mean   ) {
   data = 
   ((   0.998901   0.0010989)   % concave points_mean="(0.00000, 0.0300]"   
   (   0.969799   0.0302013));   % concave points_mean="(0.00000, 0.0400]"   
}

potential ( area_mean | concave points_mean   ) {
   data = 
   ((   0.998901   0.0010989)   % concave points_mean="(0.00000, 0.0300]"   
   (   0.956376   0.0436242));   % concave points_mean="(0.00000, 0.0400]"   
}

potential ( smoothness_mean | concave points_mean   ) {
   data = 
   ((   0.0010989   0.998901)   % concave points_mean="(0.00000, 0.0300]"   
   (   0.0704698   0.92953));   % concave points_mean="(0.00000, 0.0400]"   
}

potential ( compactness_mean | concave points_mean   ) {
   data = 
   ((   0.0010989   0.998901)   % concave points_mean="(0.00000, 0.0300]"   
   (   0.057047   0.942953));   % concave points_mean="(0.00000, 0.0400]"   
}

potential ( concavity_mean | smoothness_se   perimeter_worst   ) {
   data = 
   (((   1)   % perimeter_worst="(78.9499, 85.4000]"   smoothness_se="(0.0050, 0.0087]"   
   (   1))   % perimeter_worst="(85.00000, 102.5000]"   smoothness_se="(0.0050, 0.0087]"   
   ((   1)   % perimeter_worst="(78.9499, 85.4000]"   smoothness_se="(0.0087, 0.0100]"   
   (   1))   % perimeter_worst="(85.00000, 102.5000]"   smoothness_se="(0.0087, 0.0100]"   
   ((   1)   % perimeter_worst="(78.9499, 85.4000]"   smoothness_se="(0.0107, 0.0110]"   
   (   1)));   % perimeter_worst="(85.00000, 102.5000]"   smoothness_se="(0.0107, 0.0110]"   
}

potential ( concave points_mean | fractal_dimension_mean   ) {
   data = 
   ((   0.253769   0.746231)   % fractal_dimension_mean="(0.00000, 0.0600]"   
   (   0.998765   0.00123457));   % fractal_dimension_mean="(0.0499, 0.0600]"   
}

potential ( symmetry_mean | smoothness_se   perimeter_worst   ) {
   data = 
   (((   1)   % perimeter_worst="(78.9499, 85.4000]"   smoothness_se="(0.0050, 0.0087]"   
   (   1))   % perimeter_worst="(85.00000, 102.5000]"   smoothness_se="(0.0050, 0.0087]"   
   ((   1)   % perimeter_worst="(78.9499, 85.4000]"   smoothness_se="(0.0087, 0.0100]"   
   (   1))   % perimeter_worst="(85.00000, 102.5000]"   smoothness_se="(0.0087, 0.0100]"   
   ((   1)   % perimeter_worst="(78.9499, 85.4000]"   smoothness_se="(0.0107, 0.0110]"   
   (   1)));   % perimeter_worst="(85.00000, 102.5000]"   smoothness_se="(0.0107, 0.0110]"   
}

potential ( fractal_dimension_mean | radius_se   ) {
   data = 
   ((   0.968293   0.0317073)   % radius_se="(0.000, 0.2000]"   
   (   0.00125313   0.998747));   % radius_se="(0.000, 0.4000]"   
}

potential ( radius_se | texture_se   ) {
   data = 
   ((   0.885838   0.114162)   % texture_se="(0.000, 0.7000]"   
   (   0.000914077   0.999086)   % texture_se="(0.000, 0.8000]"   
   (   0.0384615   0.961538));   % texture_se="(0.000, 1.1000]"   
}

potential ( texture_se | perimeter_se   ) {
   data = 
   ((   0.940963   0.0254314   0.0336058)   % perimeter_se="(0.000, 1.2000]"   
   (   0.000648508   0.998703   0.000648508)   % perimeter_se="(1.00, 1.0000]"   
   (   0.0133333   0.973333   0.0133333));   % perimeter_se="(1.00, 3.3000]"   
}

potential (perimeter_se) {
   data = (  0.405077 0.567329 0.0275938);
}

potential ( area_se | perimeter_se   smoothness_se   ) {
   data = 
   (((   0.000303306   0.000303306   0.999393)   % smoothness_se="(0.0050, 0.0087]"   perimeter_se="(0.000, 1.2000]"   
   (   0.333333   0.333333   0.333333)   % smoothness_se="(0.0087, 0.0100]"   perimeter_se="(0.000, 1.2000]"   
   (   0.333333   0.333333   0.333333))   % smoothness_se="(0.0107, 0.0110]"   perimeter_se="(0.000, 1.2000]"   
   ((   0.809195   0.0643678   0.126437)   % smoothness_se="(0.0050, 0.0087]"   perimeter_se="(1.00, 1.0000]"   
   (   0.999519   0.000240327   0.000240327)   % smoothness_se="(0.0087, 0.0100]"   perimeter_se="(1.00, 1.0000]"   
   (   0.933333   0.0333333   0.0333333))   % smoothness_se="(0.0107, 0.0110]"   perimeter_se="(1.00, 1.0000]"   
   ((   0.00456621   0.00456621   0.990868)   % smoothness_se="(0.0050, 0.0087]"   perimeter_se="(1.00, 3.3000]"   
   (   0.333333   0.333333   0.333333)   % smoothness_se="(0.0087, 0.0100]"   perimeter_se="(1.00, 3.3000]"   
   (   0.333333   0.333333   0.333333)));   % smoothness_se="(0.0107, 0.0110]"   perimeter_se="(1.00, 3.3000]"   
}

potential ( smoothness_se | perimeter_se   ) {
   data = 
   ((   0.998183   0.000908265   0.000908265)   % perimeter_se="(0.000, 1.2000]"   
   (   0.0940337   0.899481   0.00648508)   % perimeter_se="(1.00, 1.0000]"   
   (   0.973333   0.0133333   0.0133333));   % perimeter_se="(1.00, 3.3000]"   
}

potential ( compactness_se | smoothness_se   ) {
   data = 
   ((   0.000759301   0.998481   0.000759301)   % smoothness_se="(0.0050, 0.0087]"   
   (   0.933765   0.0331174   0.0331174)   % smoothness_se="(0.0087, 0.0100]"   
   (   0.0833333   0.833333   0.0833333));   % smoothness_se="(0.0107, 0.0110]"   
}

potential ( concavity_se | compactness_se   ) {
   data = 
   ((   0.0704388   0.929561)   % compactness_se="(-0.0002, 0.0100]"   
   (   0.998906   0.00109409)   % compactness_se="(0.00000, 0.0100]"   
   (   0.96875   0.03125));   % compactness_se="(0.00000, 0.0200]"   
}

potential ( concave points_se | concavity_se   ) {
   data = 
   ((   0.998507   0.00149254)   % concavity_se="(-0.0048, 0.0100]"   
   (   0.0687732   0.931227));   % concavity_se="(0.00000, 0.0400]"   
}

potential ( symmetry_se | smoothness_se   perimeter_worst   ) {
   data = 
   (((   1)   % perimeter_worst="(78.9499, 85.4000]"   smoothness_se="(0.0050, 0.0087]"   
   (   1))   % perimeter_worst="(85.00000, 102.5000]"   smoothness_se="(0.0050, 0.0087]"   
   ((   1)   % perimeter_worst="(78.9499, 85.4000]"   smoothness_se="(0.0087, 0.0100]"   
   (   1))   % perimeter_worst="(85.00000, 102.5000]"   smoothness_se="(0.0087, 0.0100]"   
   ((   1)   % perimeter_worst="(78.9499, 85.4000]"   smoothness_se="(0.0107, 0.0110]"   
   (   1)));   % perimeter_worst="(85.00000, 102.5000]"   smoothness_se="(0.0107, 0.0110]"   
}

potential ( fractal_dimension_se | concave points_se   radius_worst   ) {
   data = 
   (((   0.000315358   0.999369   0.000315358)   % radius_worst="(10.0000, 13.1000]"   concave points_se="(-0.0032, 0.0080]"   
   (   0.333333   0.333333   0.333333)   % radius_worst="(13.000, 15.0000]"   concave points_se="(-0.0032, 0.0080]"   
   (   0.333333   0.333333   0.333333))   % radius_worst="(15.000, 15.7000]"   concave points_se="(-0.0032, 0.0080]"   
   ((   0.321499   0.57002   0.108481)   % radius_worst="(10.0000, 13.1000]"   concave points_se="(0.0088, 0.0100]"   
   (   0.998845   0.000577701   0.000577701)   % radius_worst="(13.000, 15.0000]"   concave points_se="(0.0088, 0.0100]"   
   (   0.904762   0.047619   0.047619)));   % radius_worst="(15.000, 15.7000]"   concave points_se="(0.0088, 0.0100]"   
}

potential ( radius_worst | concave points_se   ) {
   data = 
   ((   0.998111   0.000944287   0.000944287)   % concave points_se="(-0.0032, 0.0080]"   
   (   0.224436   0.766268   0.00929615));   % concave points_se="(0.0088, 0.0100]"   
}

potential ( texture_worst | radius_worst   ) {
   data = 
   ((   0.998912   0.000543774   0.000543774)   % radius_worst="(10.0000, 13.1000]"   
   (   0.10496   0.852364   0.0426759)   % radius_worst="(13.000, 15.0000]"   
   (   0.833333   0.0833333   0.0833333));   % radius_worst="(15.000, 15.7000]"   
}

potential ( perimeter_worst | texture_worst   ) {
   data = 
   ((   0.999226   0.000773994)   % texture_worst="(16.8499, 19.9000]"   
   (   0.925101   0.0748988)   % texture_worst="(19.0000, 20.1000]"   
   (   0.961538   0.0384615));   % texture_worst="(20.0000, 21.9000]"   
}

potential ( area_worst | texture_worst   perimeter_worst   ) {
   data = 
   (((   0.999613   0.000387297)   % perimeter_worst="(78.9499, 85.4000]"   texture_worst="(16.8499, 19.9000]"   
   (   0.5   0.5))   % perimeter_worst="(85.00000, 102.5000]"   texture_worst="(16.8499, 19.9000]"   
   ((   0.132385   0.867615)   % perimeter_worst="(78.9499, 85.4000]"   texture_worst="(19.0000, 20.1000]"   
   (   0.986486   0.0135135))   % perimeter_worst="(85.00000, 102.5000]"   texture_worst="(19.0000, 20.1000]"   
   ((   0.98   0.02)   % perimeter_worst="(78.9499, 85.4000]"   texture_worst="(20.0000, 21.9000]"   
   (   0.5   0.5)));   % perimeter_worst="(85.00000, 102.5000]"   texture_worst="(20.0000, 21.9000]"   
}

potential ( smoothness_worst | area_worst   symmetry_mean   ) {
   data = 
   (((   0.00106157   0.998938))   % symmetry_mean="(0.00000, 0.1600]"   area_worst="(191.7000, 550.5000]"   
   ((   0.845865   0.154135)));   % symmetry_mean="(0.00000, 0.1600]"   area_worst="(550.00000, 888.2000]"   
}

potential ( compactness_worst | smoothness_se   perimeter_worst   ) {
   data = 
   (((   1)   % perimeter_worst="(78.9499, 85.4000]"   smoothness_se="(0.0050, 0.0087]"   
   (   1))   % perimeter_worst="(85.00000, 102.5000]"   smoothness_se="(0.0050, 0.0087]"   
   ((   1)   % perimeter_worst="(78.9499, 85.4000]"   smoothness_se="(0.0087, 0.0100]"   
   (   1))   % perimeter_worst="(85.00000, 102.5000]"   smoothness_se="(0.0087, 0.0100]"   
   ((   1)   % perimeter_worst="(78.9499, 85.4000]"   smoothness_se="(0.0107, 0.0110]"   
   (   1)));   % perimeter_worst="(85.00000, 102.5000]"   smoothness_se="(0.0107, 0.0110]"   
}

potential ( concavity_worst | smoothness_worst   ) {
   data = 
   ((   0.411504   0.588496)   % smoothness_worst="(0.000, 0.1000]"   
   (   0.998982   0.00101833));   % smoothness_worst="(0.1200, 0.1000]"   
}

potential ( concave points_worst | concavity_worst   ) {
   data = 
   ((   0.000931099   0.999069)   % concavity_worst="(0.000, 0.2000]"   
   (   0.0671642   0.932836));   % concavity_worst="(0.000, 0.3000]"   
}

potential ( symmetry_worst | fractal_dimension_worst   concavity_worst   ) {
   data = 
   (((   0.5   0.5)   % concavity_worst="(0.000, 0.2000]"   fractal_dimension_worst="(0.0000, 0.1000]"   
   (   0.0238095   0.97619))   % concavity_worst="(0.000, 0.3000]"   fractal_dimension_worst="(0.0000, 0.1000]"   
   ((   0.000465983   0.999534)   % concavity_worst="(0.000, 0.2000]"   fractal_dimension_worst="(0.0750, 0.0900]"   
   (   0.146018   0.853982)));   % concavity_worst="(0.000, 0.3000]"   fractal_dimension_worst="(0.0750, 0.0900]"   
}

potential ( fractal_dimension_worst | concavity_worst   ) {
   data = 
   ((   0.000931099   0.999069)   % concavity_worst="(0.000, 0.2000]"   
   (   0.156716   0.843284));   % concavity_worst="(0.000, 0.3000]"   
}

potential ( diagnosis | smoothness_se   perimeter_worst   ) {
   data = 
   (((   1)   % perimeter_worst="(78.9499, 85.4000]"   smoothness_se="(0.0050, 0.0087]"   
   (   1))   % perimeter_worst="(85.00000, 102.5000]"   smoothness_se="(0.0050, 0.0087]"   
   ((   1)   % perimeter_worst="(78.9499, 85.4000]"   smoothness_se="(0.0087, 0.0100]"   
   (   1))   % perimeter_worst="(85.00000, 102.5000]"   smoothness_se="(0.0087, 0.0100]"   
   ((   1)   % perimeter_worst="(78.9499, 85.4000]"   smoothness_se="(0.0107, 0.0110]"   
   (   1)));   % perimeter_worst="(85.00000, 102.5000]"   smoothness_se="(0.0107, 0.0110]"   
}


