
net {
  name = unnamedBN;
  software = "aGrUM 0.18.2";
  node_size = (50 50);
}

node radius_mean {
   states = ("(8.0000, 12.8000]" );
   label = "radius_mean";
   ID = "radius_mean";
}

node texture_mean {
   states = ("(12.0000, 16.5000]" "(16.0000, 17.4000]" );
   label = "texture_mean";
   ID = "texture_mean";
}

node perimeter_mean {
   states = ("(59.000, 79.9000]" "(79.0000, 85.0000]" );
   label = "perimeter_mean";
   ID = "perimeter_mean";
}

node area_mean {
   states = ("(150.0000, 481.0000]" "(481.0000, 562.6000]" );
   label = "area_mean";
   ID = "area_mean";
}

node smoothness_mean {
   states = ("(0.00, 0.1000]" "(0.0890, 0.0000]" );
   label = "smoothness_mean";
   ID = "smoothness_mean";
}

node compactness_mean {
   states = ("(0.000, 0.1000]" "(0.0000, 0.0000]" );
   label = "compactness_mean";
   ID = "compactness_mean";
}

node concavity_mean {
   states = ("(0.0000, 0.0900]" );
   label = "concavity_mean";
   ID = "concavity_mean";
}

node concave points_mean {
   states = ("(-0.0092, 0.0000]" "(0.0000, 0.0300]" );
   label = "concave points_mean";
   ID = "concave points_mean";
}

node symmetry_mean {
   states = ("(0.0000, 0.1700]" "(0.00000, 0.1700]" );
   label = "symmetry_mean";
   ID = "symmetry_mean";
}

node fractal_dimension_mean {
   states = ("(0.0000, 0.0000]" "(0.00000, 0.0600]" );
   label = "fractal_dimension_mean";
   ID = "fractal_dimension_mean";
}

node radius_se {
   states = ("(0.00, 0.0000]" "(0.00, 0.4000]" );
   label = "radius_se";
   ID = "radius_se";
}

node texture_se {
   states = ("(0.00, 1.1000]" "(1.00, 1.0000]" "(1.00, 1.5000]" );
   label = "texture_se";
   ID = "texture_se";
}

node perimeter_se {
   states = ("(0.000, 1.5000]" "(1.000, 1.8000]" "(1.000, 3.6000]" );
   label = "perimeter_se";
   ID = "perimeter_se";
}

node area_se {
   states = ("(14.0000, 61.0000]" "(61.0000, 66.9000]" "(7.4300, 14.3000]" );
   label = "area_se";
   ID = "area_se";
}

node smoothness_se {
   states = ("(-0.0077, 0.0000]" "(0.000000, 0.0060]" "(0.0069, 0.0070]" );
   label = "smoothness_se";
   ID = "smoothness_se";
}

node compactness_se {
   states = ("(0.000, 0.0000]" "(0.0000, 0.0000]" "(0.0009, 0.0100]" );
   label = "compactness_se";
   ID = "compactness_se";
}

node concavity_se {
   states = ("(-0.0019, 0.0300]" "(0.00000, 0.0500]" );
   label = "concavity_se";
   ID = "concavity_se";
}

node concave points_se {
   states = ("(-0.0058, 0.0060]" "(0.0062, 0.0090]" );
   label = "concave points_se";
   ID = "concave points_se";
}

node symmetry_se {
   states = ("(0.00000, 0.0100]" "(0.00000, 0.0200]" "(0.0009, 0.0100]" );
   label = "symmetry_se";
   ID = "symmetry_se";
}

node fractal_dimension_se {
   states = ("(-0.0089, 0.0020]" "(0.0028, 0.0020]" "(0.0029, 0.0030]" );
   label = "fractal_dimension_se";
   ID = "fractal_dimension_se";
}

node radius_worst {
   states = ("(11.0000, 14.0000]" "(14.000, 14.0000]" "(9.0000, 11.7000]" );
   label = "radius_worst";
   ID = "radius_worst";
}

node texture_worst {
   states = ("(18.8199, 21.0000]" "(21.00, 22.0000]" "(22.000, 23.8000]" );
   label = "texture_worst";
   ID = "texture_worst";
}

node perimeter_worst {
   states = ("(72.0000, 78.5000]" "(78.0000, 95.6000]" );
   label = "perimeter_worst";
   ID = "perimeter_worst";
}

node area_worst {
   states = ("(190.8900, 431.3000]" "(431.00000, 779.6000]" );
   label = "area_worst";
   ID = "area_worst";
}

node smoothness_worst {
   states = ("(0.000, 0.1000]" );
   label = "smoothness_worst";
   ID = "smoothness_worst";
}

node compactness_worst {
   states = ("(0.00, 0.0000]" "(0.00, 0.2000]" );
   label = "compactness_worst";
   ID = "compactness_worst";
}

node concavity_worst {
   states = ("(0.000, 0.2000]" "(0.000, 0.3000]" );
   label = "concavity_worst";
   ID = "concavity_worst";
}

node concave points_worst {
   states = ("(0.00000, 0.0700]" "(0.00000, 0.0800]" );
   label = "concave points_worst";
   ID = "concave points_worst";
}

node symmetry_worst {
   states = ("(0.000, 0.2000]" "(0.000, 0.3000]" );
   label = "symmetry_worst";
   ID = "symmetry_worst";
}

node fractal_dimension_worst {
   states = ("(0.000, 0.0000]" "(0.0710, 0.0900]" );
   label = "fractal_dimension_worst";
   ID = "fractal_dimension_worst";
}

node diagnosis {
   states = (No );
   label = "diagnosis";
   ID = "diagnosis";
}

potential ( radius_mean | fractal_dimension_se   perimeter_worst   radius_worst   symmetry_se   area_se   texture_worst   ) {
   data = 
   (((((((   1)   % texture_worst="(18.8199, 21.0000]"   area_se="(14.0000, 61.0000]"   symmetry_se="(0.00000, 0.0100]"   radius_worst="(11.0000, 14.0000]"   perimeter_worst="(72.0000, 78.5000]"   fractal_dimension_se="(-0.0089, 0.0020]"   
   (   1)   % texture_worst="(21.00, 22.0000]"   area_se="(14.0000, 61.0000]"   symmetry_se="(0.00000, 0.0100]"   radius_worst="(11.0000, 14.0000]"   perimeter_worst="(72.0000, 78.5000]"   fractal_dimension_se="(-0.0089, 0.0020]"   
   (   1))   % texture_worst="(22.000, 23.8000]"   area_se="(14.0000, 61.0000]"   symmetry_se="(0.00000, 0.0100]"   radius_worst="(11.0000, 14.0000]"   perimeter_worst="(72.0000, 78.5000]"   fractal_dimension_se="(-0.0089, 0.0020]"   
   ((   1)   % texture_worst="(18.8199, 21.0000]"   area_se="(61.0000, 66.9000]"   symmetry_se="(0.00000, 0.0100]"   radius_worst="(11.0000, 14.0000]"   perimeter_worst="(72.0000, 78.5000]"   fractal_dimension_se="(-0.0089, 0.0020]"   
   (   1)   % texture_worst="(21.00, 22.0000]"   area_se="(61.0000, 66.9000]"   symmetry_se="(0.00000, 0.0100]"   radius_worst="(11.0000, 14.0000]"   perimeter_worst="(72.0000, 78.5000]"   fractal_dimension_se="(-0.0089, 0.0020]"   
   (   1))   % texture_worst="(22.000, 23.8000]"   area_se="(61.0000, 66.9000]"   symmetry_se="(0.00000, 0.0100]"   radius_worst="(11.0000, 14.0000]"   perimeter_worst="(72.0000, 78.5000]"   fractal_dimension_se="(-0.0089, 0.0020]"   
   ((   1)   % texture_worst="(18.8199, 21.0000]"   area_se="(7.4300, 14.3000]"   symmetry_se="(0.00000, 0.0100]"   radius_worst="(11.0000, 14.0000]"   perimeter_worst="(72.0000, 78.5000]"   fractal_dimension_se="(-0.0089, 0.0020]"   
   (   1)   % texture_worst="(21.00, 22.0000]"   area_se="(7.4300, 14.3000]"   symmetry_se="(0.00000, 0.0100]"   radius_worst="(11.0000, 14.0000]"   perimeter_worst="(72.0000, 78.5000]"   fractal_dimension_se="(-0.0089, 0.0020]"   
   (   1)))   % texture_worst="(22.000, 23.8000]"   area_se="(7.4300, 14.3000]"   symmetry_se="(0.00000, 0.0100]"   radius_worst="(11.0000, 14.0000]"   perimeter_worst="(72.0000, 78.5000]"   fractal_dimension_se="(-0.0089, 0.0020]"   
   (((   1)   % texture_worst="(18.8199, 21.0000]"   area_se="(14.0000, 61.0000]"   symmetry_se="(0.00000, 0.0200]"   radius_worst="(11.0000, 14.0000]"   perimeter_worst="(72.0000, 78.5000]"   fractal_dimension_se="(-0.0089, 0.0020]"   
   (   1)   % texture_worst="(21.00, 22.0000]"   area_se="(14.0000, 61.0000]"   symmetry_se="(0.00000, 0.0200]"   radius_worst="(11.0000, 14.0000]"   perimeter_worst="(72.0000, 78.5000]"   fractal_dimension_se="(-0.0089, 0.0020]"   
   (   1))   % texture_worst="(22.000, 23.8000]"   area_se="(14.0000, 61.0000]"   symmetry_se="(0.00000, 0.0200]"   radius_worst="(11.0000, 14.0000]"   perimeter_worst="(72.0000, 78.5000]"   fractal_dimension_se="(-0.0089, 0.0020]"   
   ((   1)   % texture_worst="(18.8199, 21.0000]"   area_se="(61.0000, 66.9000]"   symmetry_se="(0.00000, 0.0200]"   radius_worst="(11.0000, 14.0000]"   perimeter_worst="(72.0000, 78.5000]"   fractal_dimension_se="(-0.0089, 0.0020]"   
   (   1)   % texture_worst="(21.00, 22.0000]"   area_se="(61.0000, 66.9000]"   symmetry_se="(0.00000, 0.0200]"   radius_worst="(11.0000, 14.0000]"   perimeter_worst="(72.0000, 78.5000]"   fractal_dimension_se="(-0.0089, 0.0020]"   
   (   1))   % texture_worst="(22.000, 23.8000]"   area_se="(61.0000, 66.9000]"   symmetry_se="(0.00000, 0.0200]"   radius_worst="(11.0000, 14.0000]"   perimeter_worst="(72.0000, 78.5000]"   fractal_dimension_se="(-0.0089, 0.0020]"   
   ((   1)   % texture_worst="(18.8199, 21.0000]"   area_se="(7.4300, 14.3000]"   symmetry_se="(0.00000, 0.0200]"   radius_worst="(11.0000, 14.0000]"   perimeter_worst="(72.0000, 78.5000]"   fractal_dimension_se="(-0.0089, 0.0020]"   
   (   1)   % texture_worst="(21.00, 22.0000]"   area_se="(7.4300, 14.3000]"   symmetry_se="(0.00000, 0.0200]"   radius_worst="(11.0000, 14.0000]"   perimeter_worst="(72.0000, 78.5000]"   fractal_dimension_se="(-0.0089, 0.0020]"   
   (   1)))   % texture_worst="(22.000, 23.8000]"   area_se="(7.4300, 14.3000]"   symmetry_se="(0.00000, 0.0200]"   radius_worst="(11.0000, 14.0000]"   perimeter_worst="(72.0000, 78.5000]"   fractal_dimension_se="(-0.0089, 0.0020]"   
   (((   1)   % texture_worst="(18.8199, 21.0000]"   area_se="(14.0000, 61.0000]"   symmetry_se="(0.0009, 0.0100]"   radius_worst="(11.0000, 14.0000]"   perimeter_worst="(72.0000, 78.5000]"   fractal_dimension_se="(-0.0089, 0.0020]"   
   (   1)   % texture_worst="(21.00, 22.0000]"   area_se="(14.0000, 61.0000]"   symmetry_se="(0.0009, 0.0100]"   radius_worst="(11.0000, 14.0000]"   perimeter_worst="(72.0000, 78.5000]"   fractal_dimension_se="(-0.0089, 0.0020]"   
   (   1))   % texture_worst="(22.000, 23.8000]"   area_se="(14.0000, 61.0000]"   symmetry_se="(0.0009, 0.0100]"   radius_worst="(11.0000, 14.0000]"   perimeter_worst="(72.0000, 78.5000]"   fractal_dimension_se="(-0.0089, 0.0020]"   
   ((   1)   % texture_worst="(18.8199, 21.0000]"   area_se="(61.0000, 66.9000]"   symmetry_se="(0.0009, 0.0100]"   radius_worst="(11.0000, 14.0000]"   perimeter_worst="(72.0000, 78.5000]"   fractal_dimension_se="(-0.0089, 0.0020]"   
   (   1)   % texture_worst="(21.00, 22.0000]"   area_se="(61.0000, 66.9000]"   symmetry_se="(0.0009, 0.0100]"   radius_worst="(11.0000, 14.0000]"   perimeter_worst="(72.0000, 78.5000]"   fractal_dimension_se="(-0.0089, 0.0020]"   
   (   1))   % texture_worst="(22.000, 23.8000]"   area_se="(61.0000, 66.9000]"   symmetry_se="(0.0009, 0.0100]"   radius_worst="(11.0000, 14.0000]"   perimeter_worst="(72.0000, 78.5000]"   fractal_dimension_se="(-0.0089, 0.0020]"   
   ((   1)   % texture_worst="(18.8199, 21.0000]"   area_se="(7.4300, 14.3000]"   symmetry_se="(0.0009, 0.0100]"   radius_worst="(11.0000, 14.0000]"   perimeter_worst="(72.0000, 78.5000]"   fractal_dimension_se="(-0.0089, 0.0020]"   
   (   1)   % texture_worst="(21.00, 22.0000]"   area_se="(7.4300, 14.3000]"   symmetry_se="(0.0009, 0.0100]"   radius_worst="(11.0000, 14.0000]"   perimeter_worst="(72.0000, 78.5000]"   fractal_dimension_se="(-0.0089, 0.0020]"   
   (   1))))   % texture_worst="(22.000, 23.8000]"   area_se="(7.4300, 14.3000]"   symmetry_se="(0.0009, 0.0100]"   radius_worst="(11.0000, 14.0000]"   perimeter_worst="(72.0000, 78.5000]"   fractal_dimension_se="(-0.0089, 0.0020]"   
   ((((   1)   % texture_worst="(18.8199, 21.0000]"   area_se="(14.0000, 61.0000]"   symmetry_se="(0.00000, 0.0100]"   radius_worst="(14.000, 14.0000]"   perimeter_worst="(72.0000, 78.5000]"   fractal_dimension_se="(-0.0089, 0.0020]"   
   (   1)   % texture_worst="(21.00, 22.0000]"   area_se="(14.0000, 61.0000]"   symmetry_se="(0.00000, 0.0100]"   radius_worst="(14.000, 14.0000]"   perimeter_worst="(72.0000, 78.5000]"   fractal_dimension_se="(-0.0089, 0.0020]"   
   (   1))   % texture_worst="(22.000, 23.8000]"   area_se="(14.0000, 61.0000]"   symmetry_se="(0.00000, 0.0100]"   radius_worst="(14.000, 14.0000]"   perimeter_worst="(72.0000, 78.5000]"   fractal_dimension_se="(-0.0089, 0.0020]"   
   ((   1)   % texture_worst="(18.8199, 21.0000]"   area_se="(61.0000, 66.9000]"   symmetry_se="(0.00000, 0.0100]"   radius_worst="(14.000, 14.0000]"   perimeter_worst="(72.0000, 78.5000]"   fractal_dimension_se="(-0.0089, 0.0020]"   
   (   1)   % texture_worst="(21.00, 22.0000]"   area_se="(61.0000, 66.9000]"   symmetry_se="(0.00000, 0.0100]"   radius_worst="(14.000, 14.0000]"   perimeter_worst="(72.0000, 78.5000]"   fractal_dimension_se="(-0.0089, 0.0020]"   
   (   1))   % texture_worst="(22.000, 23.8000]"   area_se="(61.0000, 66.9000]"   symmetry_se="(0.00000, 0.0100]"   radius_worst="(14.000, 14.0000]"   perimeter_worst="(72.0000, 78.5000]"   fractal_dimension_se="(-0.0089, 0.0020]"   
   ((   1)   % texture_worst="(18.8199, 21.0000]"   area_se="(7.4300, 14.3000]"   symmetry_se="(0.00000, 0.0100]"   radius_worst="(14.000, 14.0000]"   perimeter_worst="(72.0000, 78.5000]"   fractal_dimension_se="(-0.0089, 0.0020]"   
   (   1)   % texture_worst="(21.00, 22.0000]"   area_se="(7.4300, 14.3000]"   symmetry_se="(0.00000, 0.0100]"   radius_worst="(14.000, 14.0000]"   perimeter_worst="(72.0000, 78.5000]"   fractal_dimension_se="(-0.0089, 0.0020]"   
   (   1)))   % texture_worst="(22.000, 23.8000]"   area_se="(7.4300, 14.3000]"   symmetry_se="(0.00000, 0.0100]"   radius_worst="(14.000, 14.0000]"   perimeter_worst="(72.0000, 78.5000]"   fractal_dimension_se="(-0.0089, 0.0020]"   
   (((   1)   % texture_worst="(18.8199, 21.0000]"   area_se="(14.0000, 61.0000]"   symmetry_se="(0.00000, 0.0200]"   radius_worst="(14.000, 14.0000]"   perimeter_worst="(72.0000, 78.5000]"   fractal_dimension_se="(-0.0089, 0.0020]"   
   (   1)   % texture_worst="(21.00, 22.0000]"   area_se="(14.0000, 61.0000]"   symmetry_se="(0.00000, 0.0200]"   radius_worst="(14.000, 14.0000]"   perimeter_worst="(72.0000, 78.5000]"   fractal_dimension_se="(-0.0089, 0.0020]"   
   (   1))   % texture_worst="(22.000, 23.8000]"   area_se="(14.0000, 61.0000]"   symmetry_se="(0.00000, 0.0200]"   radius_worst="(14.000, 14.0000]"   perimeter_worst="(72.0000, 78.5000]"   fractal_dimension_se="(-0.0089, 0.0020]"   
   ((   1)   % texture_worst="(18.8199, 21.0000]"   area_se="(61.0000, 66.9000]"   symmetry_se="(0.00000, 0.0200]"   radius_worst="(14.000, 14.0000]"   perimeter_worst="(72.0000, 78.5000]"   fractal_dimension_se="(-0.0089, 0.0020]"   
   (   1)   % texture_worst="(21.00, 22.0000]"   area_se="(61.0000, 66.9000]"   symmetry_se="(0.00000, 0.0200]"   radius_worst="(14.000, 14.0000]"   perimeter_worst="(72.0000, 78.5000]"   fractal_dimension_se="(-0.0089, 0.0020]"   
   (   1))   % texture_worst="(22.000, 23.8000]"   area_se="(61.0000, 66.9000]"   symmetry_se="(0.00000, 0.0200]"   radius_worst="(14.000, 14.0000]"   perimeter_worst="(72.0000, 78.5000]"   fractal_dimension_se="(-0.0089, 0.0020]"   
   ((   1)   % texture_worst="(18.8199, 21.0000]"   area_se="(7.4300, 14.3000]"   symmetry_se="(0.00000, 0.0200]"   radius_worst="(14.000, 14.0000]"   perimeter_worst="(72.0000, 78.5000]"   fractal_dimension_se="(-0.0089, 0.0020]"   
   (   1)   % texture_worst="(21.00, 22.0000]"   area_se="(7.4300, 14.3000]"   symmetry_se="(0.00000, 0.0200]"   radius_worst="(14.000, 14.0000]"   perimeter_worst="(72.0000, 78.5000]"   fractal_dimension_se="(-0.0089, 0.0020]"   
   (   1)))   % texture_worst="(22.000, 23.8000]"   area_se="(7.4300, 14.3000]"   symmetry_se="(0.00000, 0.0200]"   radius_worst="(14.000, 14.0000]"   perimeter_worst="(72.0000, 78.5000]"   fractal_dimension_se="(-0.0089, 0.0020]"   
   (((   1)   % texture_worst="(18.8199, 21.0000]"   area_se="(14.0000, 61.0000]"   symmetry_se="(0.0009, 0.0100]"   radius_worst="(14.000, 14.0000]"   perimeter_worst="(72.0000, 78.5000]"   fractal_dimension_se="(-0.0089, 0.0020]"   
   (   1)   % texture_worst="(21.00, 22.0000]"   area_se="(14.0000, 61.0000]"   symmetry_se="(0.0009, 0.0100]"   radius_worst="(14.000, 14.0000]"   perimeter_worst="(72.0000, 78.5000]"   fractal_dimension_se="(-0.0089, 0.0020]"   
   (   1))   % texture_worst="(22.000, 23.8000]"   area_se="(14.0000, 61.0000]"   symmetry_se="(0.0009, 0.0100]"   radius_worst="(14.000, 14.0000]"   perimeter_worst="(72.0000, 78.5000]"   fractal_dimension_se="(-0.0089, 0.0020]"   
   ((   1)   % texture_worst="(18.8199, 21.0000]"   area_se="(61.0000, 66.9000]"   symmetry_se="(0.0009, 0.0100]"   radius_worst="(14.000, 14.0000]"   perimeter_worst="(72.0000, 78.5000]"   fractal_dimension_se="(-0.0089, 0.0020]"   
   (   1)   % texture_worst="(21.00, 22.0000]"   area_se="(61.0000, 66.9000]"   symmetry_se="(0.0009, 0.0100]"   radius_worst="(14.000, 14.0000]"   perimeter_worst="(72.0000, 78.5000]"   fractal_dimension_se="(-0.0089, 0.0020]"   
   (   1))   % texture_worst="(22.000, 23.8000]"   area_se="(61.0000, 66.9000]"   symmetry_se="(0.0009, 0.0100]"   radius_worst="(14.000, 14.0000]"   perimeter_worst="(72.0000, 78.5000]"   fractal_dimension_se="(-0.0089, 0.0020]"   
   ((   1)   % texture_worst="(18.8199, 21.0000]"   area_se="(7.4300, 14.3000]"   symmetry_se="(0.0009, 0.0100]"   radius_worst="(14.000, 14.0000]"   perimeter_worst="(72.0000, 78.5000]"   fractal_dimension_se="(-0.0089, 0.0020]"   
   (   1)   % texture_worst="(21.00, 22.0000]"   area_se="(7.4300, 14.3000]"   symmetry_se="(0.0009, 0.0100]"   radius_worst="(14.000, 14.0000]"   perimeter_worst="(72.0000, 78.5000]"   fractal_dimension_se="(-0.0089, 0.0020]"   
   (   1))))   % texture_worst="(22.000, 23.8000]"   area_se="(7.4300, 14.3000]"   symmetry_se="(0.0009, 0.0100]"   radius_worst="(14.000, 14.0000]"   perimeter_worst="(72.0000, 78.5000]"   fractal_dimension_se="(-0.0089, 0.0020]"   
   ((((   1)   % texture_worst="(18.8199, 21.0000]"   area_se="(14.0000, 61.0000]"   symmetry_se="(0.00000, 0.0100]"   radius_worst="(9.0000, 11.7000]"   perimeter_worst="(72.0000, 78.5000]"   fractal_dimension_se="(-0.0089, 0.0020]"   
   (   1)   % texture_worst="(21.00, 22.0000]"   area_se="(14.0000, 61.0000]"   symmetry_se="(0.00000, 0.0100]"   radius_worst="(9.0000, 11.7000]"   perimeter_worst="(72.0000, 78.5000]"   fractal_dimension_se="(-0.0089, 0.0020]"   
   (   1))   % texture_worst="(22.000, 23.8000]"   area_se="(14.0000, 61.0000]"   symmetry_se="(0.00000, 0.0100]"   radius_worst="(9.0000, 11.7000]"   perimeter_worst="(72.0000, 78.5000]"   fractal_dimension_se="(-0.0089, 0.0020]"   
   ((   1)   % texture_worst="(18.8199, 21.0000]"   area_se="(61.0000, 66.9000]"   symmetry_se="(0.00000, 0.0100]"   radius_worst="(9.0000, 11.7000]"   perimeter_worst="(72.0000, 78.5000]"   fractal_dimension_se="(-0.0089, 0.0020]"   
   (   1)   % texture_worst="(21.00, 22.0000]"   area_se="(61.0000, 66.9000]"   symmetry_se="(0.00000, 0.0100]"   radius_worst="(9.0000, 11.7000]"   perimeter_worst="(72.0000, 78.5000]"   fractal_dimension_se="(-0.0089, 0.0020]"   
   (   1))   % texture_worst="(22.000, 23.8000]"   area_se="(61.0000, 66.9000]"   symmetry_se="(0.00000, 0.0100]"   radius_worst="(9.0000, 11.7000]"   perimeter_worst="(72.0000, 78.5000]"   fractal_dimension_se="(-0.0089, 0.0020]"   
   ((   1)   % texture_worst="(18.8199, 21.0000]"   area_se="(7.4300, 14.3000]"   symmetry_se="(0.00000, 0.0100]"   radius_worst="(9.0000, 11.7000]"   perimeter_worst="(72.0000, 78.5000]"   fractal_dimension_se="(-0.0089, 0.0020]"   
   (   1)   % texture_worst="(21.00, 22.0000]"   area_se="(7.4300, 14.3000]"   symmetry_se="(0.00000, 0.0100]"   radius_worst="(9.0000, 11.7000]"   perimeter_worst="(72.0000, 78.5000]"   fractal_dimension_se="(-0.0089, 0.0020]"   
   (   1)))   % texture_worst="(22.000, 23.8000]"   area_se="(7.4300, 14.3000]"   symmetry_se="(0.00000, 0.0100]"   radius_worst="(9.0000, 11.7000]"   perimeter_worst="(72.0000, 78.5000]"   fractal_dimension_se="(-0.0089, 0.0020]"   
   (((   1)   % texture_worst="(18.8199, 21.0000]"   area_se="(14.0000, 61.0000]"   symmetry_se="(0.00000, 0.0200]"   radius_worst="(9.0000, 11.7000]"   perimeter_worst="(72.0000, 78.5000]"   fractal_dimension_se="(-0.0089, 0.0020]"   
   (   1)   % texture_worst="(21.00, 22.0000]"   area_se="(14.0000, 61.0000]"   symmetry_se="(0.00000, 0.0200]"   radius_worst="(9.0000, 11.7000]"   perimeter_worst="(72.0000, 78.5000]"   fractal_dimension_se="(-0.0089, 0.0020]"   
   (   1))   % texture_worst="(22.000, 23.8000]"   area_se="(14.0000, 61.0000]"   symmetry_se="(0.00000, 0.0200]"   radius_worst="(9.0000, 11.7000]"   perimeter_worst="(72.0000, 78.5000]"   fractal_dimension_se="(-0.0089, 0.0020]"   
   ((   1)   % texture_worst="(18.8199, 21.0000]"   area_se="(61.0000, 66.9000]"   symmetry_se="(0.00000, 0.0200]"   radius_worst="(9.0000, 11.7000]"   perimeter_worst="(72.0000, 78.5000]"   fractal_dimension_se="(-0.0089, 0.0020]"   
   (   1)   % texture_worst="(21.00, 22.0000]"   area_se="(61.0000, 66.9000]"   symmetry_se="(0.00000, 0.0200]"   radius_worst="(9.0000, 11.7000]"   perimeter_worst="(72.0000, 78.5000]"   fractal_dimension_se="(-0.0089, 0.0020]"   
   (   1))   % texture_worst="(22.000, 23.8000]"   area_se="(61.0000, 66.9000]"   symmetry_se="(0.00000, 0.0200]"   radius_worst="(9.0000, 11.7000]"   perimeter_worst="(72.0000, 78.5000]"   fractal_dimension_se="(-0.0089, 0.0020]"   
   ((   1)   % texture_worst="(18.8199, 21.0000]"   area_se="(7.4300, 14.3000]"   symmetry_se="(0.00000, 0.0200]"   radius_worst="(9.0000, 11.7000]"   perimeter_worst="(72.0000, 78.5000]"   fractal_dimension_se="(-0.0089, 0.0020]"   
   (   1)   % texture_worst="(21.00, 22.0000]"   area_se="(7.4300, 14.3000]"   symmetry_se="(0.00000, 0.0200]"   radius_worst="(9.0000, 11.7000]"   perimeter_worst="(72.0000, 78.5000]"   fractal_dimension_se="(-0.0089, 0.0020]"   
   (   1)))   % texture_worst="(22.000, 23.8000]"   area_se="(7.4300, 14.3000]"   symmetry_se="(0.00000, 0.0200]"   radius_worst="(9.0000, 11.7000]"   perimeter_worst="(72.0000, 78.5000]"   fractal_dimension_se="(-0.0089, 0.0020]"   
   (((   1)   % texture_worst="(18.8199, 21.0000]"   area_se="(14.0000, 61.0000]"   symmetry_se="(0.0009, 0.0100]"   radius_worst="(9.0000, 11.7000]"   perimeter_worst="(72.0000, 78.5000]"   fractal_dimension_se="(-0.0089, 0.0020]"   
   (   1)   % texture_worst="(21.00, 22.0000]"   area_se="(14.0000, 61.0000]"   symmetry_se="(0.0009, 0.0100]"   radius_worst="(9.0000, 11.7000]"   perimeter_worst="(72.0000, 78.5000]"   fractal_dimension_se="(-0.0089, 0.0020]"   
   (   1))   % texture_worst="(22.000, 23.8000]"   area_se="(14.0000, 61.0000]"   symmetry_se="(0.0009, 0.0100]"   radius_worst="(9.0000, 11.7000]"   perimeter_worst="(72.0000, 78.5000]"   fractal_dimension_se="(-0.0089, 0.0020]"   
   ((   1)   % texture_worst="(18.8199, 21.0000]"   area_se="(61.0000, 66.9000]"   symmetry_se="(0.0009, 0.0100]"   radius_worst="(9.0000, 11.7000]"   perimeter_worst="(72.0000, 78.5000]"   fractal_dimension_se="(-0.0089, 0.0020]"   
   (   1)   % texture_worst="(21.00, 22.0000]"   area_se="(61.0000, 66.9000]"   symmetry_se="(0.0009, 0.0100]"   radius_worst="(9.0000, 11.7000]"   perimeter_worst="(72.0000, 78.5000]"   fractal_dimension_se="(-0.0089, 0.0020]"   
   (   1))   % texture_worst="(22.000, 23.8000]"   area_se="(61.0000, 66.9000]"   symmetry_se="(0.0009, 0.0100]"   radius_worst="(9.0000, 11.7000]"   perimeter_worst="(72.0000, 78.5000]"   fractal_dimension_se="(-0.0089, 0.0020]"   
   ((   1)   % texture_worst="(18.8199, 21.0000]"   area_se="(7.4300, 14.3000]"   symmetry_se="(0.0009, 0.0100]"   radius_worst="(9.0000, 11.7000]"   perimeter_worst="(72.0000, 78.5000]"   fractal_dimension_se="(-0.0089, 0.0020]"   
   (   1)   % texture_worst="(21.00, 22.0000]"   area_se="(7.4300, 14.3000]"   symmetry_se="(0.0009, 0.0100]"   radius_worst="(9.0000, 11.7000]"   perimeter_worst="(72.0000, 78.5000]"   fractal_dimension_se="(-0.0089, 0.0020]"   
   (   1)))))   % texture_worst="(22.000, 23.8000]"   area_se="(7.4300, 14.3000]"   symmetry_se="(0.0009, 0.0100]"   radius_worst="(9.0000, 11.7000]"   perimeter_worst="(72.0000, 78.5000]"   fractal_dimension_se="(-0.0089, 0.0020]"   
   (((((   1)   % texture_worst="(18.8199, 21.0000]"   area_se="(14.0000, 61.0000]"   symmetry_se="(0.00000, 0.0100]"   radius_worst="(11.0000, 14.0000]"   perimeter_worst="(78.0000, 95.6000]"   fractal_dimension_se="(-0.0089, 0.0020]"   
   (   1)   % texture_worst="(21.00, 22.0000]"   area_se="(14.0000, 61.0000]"   symmetry_se="(0.00000, 0.0100]"   radius_worst="(11.0000, 14.0000]"   perimeter_worst="(78.0000, 95.6000]"   fractal_dimension_se="(-0.0089, 0.0020]"   
   (   1))   % texture_worst="(22.000, 23.8000]"   area_se="(14.0000, 61.0000]"   symmetry_se="(0.00000, 0.0100]"   radius_worst="(11.0000, 14.0000]"   perimeter_worst="(78.0000, 95.6000]"   fractal_dimension_se="(-0.0089, 0.0020]"   
   ((   1)   % texture_worst="(18.8199, 21.0000]"   area_se="(61.0000, 66.9000]"   symmetry_se="(0.00000, 0.0100]"   radius_worst="(11.0000, 14.0000]"   perimeter_worst="(78.0000, 95.6000]"   fractal_dimension_se="(-0.0089, 0.0020]"   
   (   1)   % texture_worst="(21.00, 22.0000]"   area_se="(61.0000, 66.9000]"   symmetry_se="(0.00000, 0.0100]"   radius_worst="(11.0000, 14.0000]"   perimeter_worst="(78.0000, 95.6000]"   fractal_dimension_se="(-0.0089, 0.0020]"   
   (   1))   % texture_worst="(22.000, 23.8000]"   area_se="(61.0000, 66.9000]"   symmetry_se="(0.00000, 0.0100]"   radius_worst="(11.0000, 14.0000]"   perimeter_worst="(78.0000, 95.6000]"   fractal_dimension_se="(-0.0089, 0.0020]"   
   ((   1)   % texture_worst="(18.8199, 21.0000]"   area_se="(7.4300, 14.3000]"   symmetry_se="(0.00000, 0.0100]"   radius_worst="(11.0000, 14.0000]"   perimeter_worst="(78.0000, 95.6000]"   fractal_dimension_se="(-0.0089, 0.0020]"   
   (   1)   % texture_worst="(21.00, 22.0000]"   area_se="(7.4300, 14.3000]"   symmetry_se="(0.00000, 0.0100]"   radius_worst="(11.0000, 14.0000]"   perimeter_worst="(78.0000, 95.6000]"   fractal_dimension_se="(-0.0089, 0.0020]"   
   (   1)))   % texture_worst="(22.000, 23.8000]"   area_se="(7.4300, 14.3000]"   symmetry_se="(0.00000, 0.0100]"   radius_worst="(11.0000, 14.0000]"   perimeter_worst="(78.0000, 95.6000]"   fractal_dimension_se="(-0.0089, 0.0020]"   
   (((   1)   % texture_worst="(18.8199, 21.0000]"   area_se="(14.0000, 61.0000]"   symmetry_se="(0.00000, 0.0200]"   radius_worst="(11.0000, 14.0000]"   perimeter_worst="(78.0000, 95.6000]"   fractal_dimension_se="(-0.0089, 0.0020]"   
   (   1)   % texture_worst="(21.00, 22.0000]"   area_se="(14.0000, 61.0000]"   symmetry_se="(0.00000, 0.0200]"   radius_worst="(11.0000, 14.0000]"   perimeter_worst="(78.0000, 95.6000]"   fractal_dimension_se="(-0.0089, 0.0020]"   
   (   1))   % texture_worst="(22.000, 23.8000]"   area_se="(14.0000, 61.0000]"   symmetry_se="(0.00000, 0.0200]"   radius_worst="(11.0000, 14.0000]"   perimeter_worst="(78.0000, 95.6000]"   fractal_dimension_se="(-0.0089, 0.0020]"   
   ((   1)   % texture_worst="(18.8199, 21.0000]"   area_se="(61.0000, 66.9000]"   symmetry_se="(0.00000, 0.0200]"   radius_worst="(11.0000, 14.0000]"   perimeter_worst="(78.0000, 95.6000]"   fractal_dimension_se="(-0.0089, 0.0020]"   
   (   1)   % texture_worst="(21.00, 22.0000]"   area_se="(61.0000, 66.9000]"   symmetry_se="(0.00000, 0.0200]"   radius_worst="(11.0000, 14.0000]"   perimeter_worst="(78.0000, 95.6000]"   fractal_dimension_se="(-0.0089, 0.0020]"   
   (   1))   % texture_worst="(22.000, 23.8000]"   area_se="(61.0000, 66.9000]"   symmetry_se="(0.00000, 0.0200]"   radius_worst="(11.0000, 14.0000]"   perimeter_worst="(78.0000, 95.6000]"   fractal_dimension_se="(-0.0089, 0.0020]"   
   ((   1)   % texture_worst="(18.8199, 21.0000]"   area_se="(7.4300, 14.3000]"   symmetry_se="(0.00000, 0.0200]"   radius_worst="(11.0000, 14.0000]"   perimeter_worst="(78.0000, 95.6000]"   fractal_dimension_se="(-0.0089, 0.0020]"   
   (   1)   % texture_worst="(21.00, 22.0000]"   area_se="(7.4300, 14.3000]"   symmetry_se="(0.00000, 0.0200]"   radius_worst="(11.0000, 14.0000]"   perimeter_worst="(78.0000, 95.6000]"   fractal_dimension_se="(-0.0089, 0.0020]"   
   (   1)))   % texture_worst="(22.000, 23.8000]"   area_se="(7.4300, 14.3000]"   symmetry_se="(0.00000, 0.0200]"   radius_worst="(11.0000, 14.0000]"   perimeter_worst="(78.0000, 95.6000]"   fractal_dimension_se="(-0.0089, 0.0020]"   
   (((   1)   % texture_worst="(18.8199, 21.0000]"   area_se="(14.0000, 61.0000]"   symmetry_se="(0.0009, 0.0100]"   radius_worst="(11.0000, 14.0000]"   perimeter_worst="(78.0000, 95.6000]"   fractal_dimension_se="(-0.0089, 0.0020]"   
   (   1)   % texture_worst="(21.00, 22.0000]"   area_se="(14.0000, 61.0000]"   symmetry_se="(0.0009, 0.0100]"   radius_worst="(11.0000, 14.0000]"   perimeter_worst="(78.0000, 95.6000]"   fractal_dimension_se="(-0.0089, 0.0020]"   
   (   1))   % texture_worst="(22.000, 23.8000]"   area_se="(14.0000, 61.0000]"   symmetry_se="(0.0009, 0.0100]"   radius_worst="(11.0000, 14.0000]"   perimeter_worst="(78.0000, 95.6000]"   fractal_dimension_se="(-0.0089, 0.0020]"   
   ((   1)   % texture_worst="(18.8199, 21.0000]"   area_se="(61.0000, 66.9000]"   symmetry_se="(0.0009, 0.0100]"   radius_worst="(11.0000, 14.0000]"   perimeter_worst="(78.0000, 95.6000]"   fractal_dimension_se="(-0.0089, 0.0020]"   
   (   1)   % texture_worst="(21.00, 22.0000]"   area_se="(61.0000, 66.9000]"   symmetry_se="(0.0009, 0.0100]"   radius_worst="(11.0000, 14.0000]"   perimeter_worst="(78.0000, 95.6000]"   fractal_dimension_se="(-0.0089, 0.0020]"   
   (   1))   % texture_worst="(22.000, 23.8000]"   area_se="(61.0000, 66.9000]"   symmetry_se="(0.0009, 0.0100]"   radius_worst="(11.0000, 14.0000]"   perimeter_worst="(78.0000, 95.6000]"   fractal_dimension_se="(-0.0089, 0.0020]"   
   ((   1)   % texture_worst="(18.8199, 21.0000]"   area_se="(7.4300, 14.3000]"   symmetry_se="(0.0009, 0.0100]"   radius_worst="(11.0000, 14.0000]"   perimeter_worst="(78.0000, 95.6000]"   fractal_dimension_se="(-0.0089, 0.0020]"   
   (   1)   % texture_worst="(21.00, 22.0000]"   area_se="(7.4300, 14.3000]"   symmetry_se="(0.0009, 0.0100]"   radius_worst="(11.0000, 14.0000]"   perimeter_worst="(78.0000, 95.6000]"   fractal_dimension_se="(-0.0089, 0.0020]"   
   (   1))))   % texture_worst="(22.000, 23.8000]"   area_se="(7.4300, 14.3000]"   symmetry_se="(0.0009, 0.0100]"   radius_worst="(11.0000, 14.0000]"   perimeter_worst="(78.0000, 95.6000]"   fractal_dimension_se="(-0.0089, 0.0020]"   
   ((((   1)   % texture_worst="(18.8199, 21.0000]"   area_se="(14.0000, 61.0000]"   symmetry_se="(0.00000, 0.0100]"   radius_worst="(14.000, 14.0000]"   perimeter_worst="(78.0000, 95.6000]"   fractal_dimension_se="(-0.0089, 0.0020]"   
   (   1)   % texture_worst="(21.00, 22.0000]"   area_se="(14.0000, 61.0000]"   symmetry_se="(0.00000, 0.0100]"   radius_worst="(14.000, 14.0000]"   perimeter_worst="(78.0000, 95.6000]"   fractal_dimension_se="(-0.0089, 0.0020]"   
   (   1))   % texture_worst="(22.000, 23.8000]"   area_se="(14.0000, 61.0000]"   symmetry_se="(0.00000, 0.0100]"   radius_worst="(14.000, 14.0000]"   perimeter_worst="(78.0000, 95.6000]"   fractal_dimension_se="(-0.0089, 0.0020]"   
   ((   1)   % texture_worst="(18.8199, 21.0000]"   area_se="(61.0000, 66.9000]"   symmetry_se="(0.00000, 0.0100]"   radius_worst="(14.000, 14.0000]"   perimeter_worst="(78.0000, 95.6000]"   fractal_dimension_se="(-0.0089, 0.0020]"   
   (   1)   % texture_worst="(21.00, 22.0000]"   area_se="(61.0000, 66.9000]"   symmetry_se="(0.00000, 0.0100]"   radius_worst="(14.000, 14.0000]"   perimeter_worst="(78.0000, 95.6000]"   fractal_dimension_se="(-0.0089, 0.0020]"   
   (   1))   % texture_worst="(22.000, 23.8000]"   area_se="(61.0000, 66.9000]"   symmetry_se="(0.00000, 0.0100]"   radius_worst="(14.000, 14.0000]"   perimeter_worst="(78.0000, 95.6000]"   fractal_dimension_se="(-0.0089, 0.0020]"   
   ((   1)   % texture_worst="(18.8199, 21.0000]"   area_se="(7.4300, 14.3000]"   symmetry_se="(0.00000, 0.0100]"   radius_worst="(14.000, 14.0000]"   perimeter_worst="(78.0000, 95.6000]"   fractal_dimension_se="(-0.0089, 0.0020]"   
   (   1)   % texture_worst="(21.00, 22.0000]"   area_se="(7.4300, 14.3000]"   symmetry_se="(0.00000, 0.0100]"   radius_worst="(14.000, 14.0000]"   perimeter_worst="(78.0000, 95.6000]"   fractal_dimension_se="(-0.0089, 0.0020]"   
   (   1)))   % texture_worst="(22.000, 23.8000]"   area_se="(7.4300, 14.3000]"   symmetry_se="(0.00000, 0.0100]"   radius_worst="(14.000, 14.0000]"   perimeter_worst="(78.0000, 95.6000]"   fractal_dimension_se="(-0.0089, 0.0020]"   
   (((   1)   % texture_worst="(18.8199, 21.0000]"   area_se="(14.0000, 61.0000]"   symmetry_se="(0.00000, 0.0200]"   radius_worst="(14.000, 14.0000]"   perimeter_worst="(78.0000, 95.6000]"   fractal_dimension_se="(-0.0089, 0.0020]"   
   (   1)   % texture_worst="(21.00, 22.0000]"   area_se="(14.0000, 61.0000]"   symmetry_se="(0.00000, 0.0200]"   radius_worst="(14.000, 14.0000]"   perimeter_worst="(78.0000, 95.6000]"   fractal_dimension_se="(-0.0089, 0.0020]"   
   (   1))   % texture_worst="(22.000, 23.8000]"   area_se="(14.0000, 61.0000]"   symmetry_se="(0.00000, 0.0200]"   radius_worst="(14.000, 14.0000]"   perimeter_worst="(78.0000, 95.6000]"   fractal_dimension_se="(-0.0089, 0.0020]"   
   ((   1)   % texture_worst="(18.8199, 21.0000]"   area_se="(61.0000, 66.9000]"   symmetry_se="(0.00000, 0.0200]"   radius_worst="(14.000, 14.0000]"   perimeter_worst="(78.0000, 95.6000]"   fractal_dimension_se="(-0.0089, 0.0020]"   
   (   1)   % texture_worst="(21.00, 22.0000]"   area_se="(61.0000, 66.9000]"   symmetry_se="(0.00000, 0.0200]"   radius_worst="(14.000, 14.0000]"   perimeter_worst="(78.0000, 95.6000]"   fractal_dimension_se="(-0.0089, 0.0020]"   
   (   1))   % texture_worst="(22.000, 23.8000]"   area_se="(61.0000, 66.9000]"   symmetry_se="(0.00000, 0.0200]"   radius_worst="(14.000, 14.0000]"   perimeter_worst="(78.0000, 95.6000]"   fractal_dimension_se="(-0.0089, 0.0020]"   
   ((   1)   % texture_worst="(18.8199, 21.0000]"   area_se="(7.4300, 14.3000]"   symmetry_se="(0.00000, 0.0200]"   radius_worst="(14.000, 14.0000]"   perimeter_worst="(78.0000, 95.6000]"   fractal_dimension_se="(-0.0089, 0.0020]"   
   (   1)   % texture_worst="(21.00, 22.0000]"   area_se="(7.4300, 14.3000]"   symmetry_se="(0.00000, 0.0200]"   radius_worst="(14.000, 14.0000]"   perimeter_worst="(78.0000, 95.6000]"   fractal_dimension_se="(-0.0089, 0.0020]"   
   (   1)))   % texture_worst="(22.000, 23.8000]"   area_se="(7.4300, 14.3000]"   symmetry_se="(0.00000, 0.0200]"   radius_worst="(14.000, 14.0000]"   perimeter_worst="(78.0000, 95.6000]"   fractal_dimension_se="(-0.0089, 0.0020]"   
   (((   1)   % texture_worst="(18.8199, 21.0000]"   area_se="(14.0000, 61.0000]"   symmetry_se="(0.0009, 0.0100]"   radius_worst="(14.000, 14.0000]"   perimeter_worst="(78.0000, 95.6000]"   fractal_dimension_se="(-0.0089, 0.0020]"   
   (   1)   % texture_worst="(21.00, 22.0000]"   area_se="(14.0000, 61.0000]"   symmetry_se="(0.0009, 0.0100]"   radius_worst="(14.000, 14.0000]"   perimeter_worst="(78.0000, 95.6000]"   fractal_dimension_se="(-0.0089, 0.0020]"   
   (   1))   % texture_worst="(22.000, 23.8000]"   area_se="(14.0000, 61.0000]"   symmetry_se="(0.0009, 0.0100]"   radius_worst="(14.000, 14.0000]"   perimeter_worst="(78.0000, 95.6000]"   fractal_dimension_se="(-0.0089, 0.0020]"   
   ((   1)   % texture_worst="(18.8199, 21.0000]"   area_se="(61.0000, 66.9000]"   symmetry_se="(0.0009, 0.0100]"   radius_worst="(14.000, 14.0000]"   perimeter_worst="(78.0000, 95.6000]"   fractal_dimension_se="(-0.0089, 0.0020]"   
   (   1)   % texture_worst="(21.00, 22.0000]"   area_se="(61.0000, 66.9000]"   symmetry_se="(0.0009, 0.0100]"   radius_worst="(14.000, 14.0000]"   perimeter_worst="(78.0000, 95.6000]"   fractal_dimension_se="(-0.0089, 0.0020]"   
   (   1))   % texture_worst="(22.000, 23.8000]"   area_se="(61.0000, 66.9000]"   symmetry_se="(0.0009, 0.0100]"   radius_worst="(14.000, 14.0000]"   perimeter_worst="(78.0000, 95.6000]"   fractal_dimension_se="(-0.0089, 0.0020]"   
   ((   1)   % texture_worst="(18.8199, 21.0000]"   area_se="(7.4300, 14.3000]"   symmetry_se="(0.0009, 0.0100]"   radius_worst="(14.000, 14.0000]"   perimeter_worst="(78.0000, 95.6000]"   fractal_dimension_se="(-0.0089, 0.0020]"   
   (   1)   % texture_worst="(21.00, 22.0000]"   area_se="(7.4300, 14.3000]"   symmetry_se="(0.0009, 0.0100]"   radius_worst="(14.000, 14.0000]"   perimeter_worst="(78.0000, 95.6000]"   fractal_dimension_se="(-0.0089, 0.0020]"   
   (   1))))   % texture_worst="(22.000, 23.8000]"   area_se="(7.4300, 14.3000]"   symmetry_se="(0.0009, 0.0100]"   radius_worst="(14.000, 14.0000]"   perimeter_worst="(78.0000, 95.6000]"   fractal_dimension_se="(-0.0089, 0.0020]"   
   ((((   1)   % texture_worst="(18.8199, 21.0000]"   area_se="(14.0000, 61.0000]"   symmetry_se="(0.00000, 0.0100]"   radius_worst="(9.0000, 11.7000]"   perimeter_worst="(78.0000, 95.6000]"   fractal_dimension_se="(-0.0089, 0.0020]"   
   (   1)   % texture_worst="(21.00, 22.0000]"   area_se="(14.0000, 61.0000]"   symmetry_se="(0.00000, 0.0100]"   radius_worst="(9.0000, 11.7000]"   perimeter_worst="(78.0000, 95.6000]"   fractal_dimension_se="(-0.0089, 0.0020]"   
   (   1))   % texture_worst="(22.000, 23.8000]"   area_se="(14.0000, 61.0000]"   symmetry_se="(0.00000, 0.0100]"   radius_worst="(9.0000, 11.7000]"   perimeter_worst="(78.0000, 95.6000]"   fractal_dimension_se="(-0.0089, 0.0020]"   
   ((   1)   % texture_worst="(18.8199, 21.0000]"   area_se="(61.0000, 66.9000]"   symmetry_se="(0.00000, 0.0100]"   radius_worst="(9.0000, 11.7000]"   perimeter_worst="(78.0000, 95.6000]"   fractal_dimension_se="(-0.0089, 0.0020]"   
   (   1)   % texture_worst="(21.00, 22.0000]"   area_se="(61.0000, 66.9000]"   symmetry_se="(0.00000, 0.0100]"   radius_worst="(9.0000, 11.7000]"   perimeter_worst="(78.0000, 95.6000]"   fractal_dimension_se="(-0.0089, 0.0020]"   
   (   1))   % texture_worst="(22.000, 23.8000]"   area_se="(61.0000, 66.9000]"   symmetry_se="(0.00000, 0.0100]"   radius_worst="(9.0000, 11.7000]"   perimeter_worst="(78.0000, 95.6000]"   fractal_dimension_se="(-0.0089, 0.0020]"   
   ((   1)   % texture_worst="(18.8199, 21.0000]"   area_se="(7.4300, 14.3000]"   symmetry_se="(0.00000, 0.0100]"   radius_worst="(9.0000, 11.7000]"   perimeter_worst="(78.0000, 95.6000]"   fractal_dimension_se="(-0.0089, 0.0020]"   
   (   1)   % texture_worst="(21.00, 22.0000]"   area_se="(7.4300, 14.3000]"   symmetry_se="(0.00000, 0.0100]"   radius_worst="(9.0000, 11.7000]"   perimeter_worst="(78.0000, 95.6000]"   fractal_dimension_se="(-0.0089, 0.0020]"   
   (   1)))   % texture_worst="(22.000, 23.8000]"   area_se="(7.4300, 14.3000]"   symmetry_se="(0.00000, 0.0100]"   radius_worst="(9.0000, 11.7000]"   perimeter_worst="(78.0000, 95.6000]"   fractal_dimension_se="(-0.0089, 0.0020]"   
   (((   1)   % texture_worst="(18.8199, 21.0000]"   area_se="(14.0000, 61.0000]"   symmetry_se="(0.00000, 0.0200]"   radius_worst="(9.0000, 11.7000]"   perimeter_worst="(78.0000, 95.6000]"   fractal_dimension_se="(-0.0089, 0.0020]"   
   (   1)   % texture_worst="(21.00, 22.0000]"   area_se="(14.0000, 61.0000]"   symmetry_se="(0.00000, 0.0200]"   radius_worst="(9.0000, 11.7000]"   perimeter_worst="(78.0000, 95.6000]"   fractal_dimension_se="(-0.0089, 0.0020]"   
   (   1))   % texture_worst="(22.000, 23.8000]"   area_se="(14.0000, 61.0000]"   symmetry_se="(0.00000, 0.0200]"   radius_worst="(9.0000, 11.7000]"   perimeter_worst="(78.0000, 95.6000]"   fractal_dimension_se="(-0.0089, 0.0020]"   
   ((   1)   % texture_worst="(18.8199, 21.0000]"   area_se="(61.0000, 66.9000]"   symmetry_se="(0.00000, 0.0200]"   radius_worst="(9.0000, 11.7000]"   perimeter_worst="(78.0000, 95.6000]"   fractal_dimension_se="(-0.0089, 0.0020]"   
   (   1)   % texture_worst="(21.00, 22.0000]"   area_se="(61.0000, 66.9000]"   symmetry_se="(0.00000, 0.0200]"   radius_worst="(9.0000, 11.7000]"   perimeter_worst="(78.0000, 95.6000]"   fractal_dimension_se="(-0.0089, 0.0020]"   
   (   1))   % texture_worst="(22.000, 23.8000]"   area_se="(61.0000, 66.9000]"   symmetry_se="(0.00000, 0.0200]"   radius_worst="(9.0000, 11.7000]"   perimeter_worst="(78.0000, 95.6000]"   fractal_dimension_se="(-0.0089, 0.0020]"   
   ((   1)   % texture_worst="(18.8199, 21.0000]"   area_se="(7.4300, 14.3000]"   symmetry_se="(0.00000, 0.0200]"   radius_worst="(9.0000, 11.7000]"   perimeter_worst="(78.0000, 95.6000]"   fractal_dimension_se="(-0.0089, 0.0020]"   
   (   1)   % texture_worst="(21.00, 22.0000]"   area_se="(7.4300, 14.3000]"   symmetry_se="(0.00000, 0.0200]"   radius_worst="(9.0000, 11.7000]"   perimeter_worst="(78.0000, 95.6000]"   fractal_dimension_se="(-0.0089, 0.0020]"   
   (   1)))   % texture_worst="(22.000, 23.8000]"   area_se="(7.4300, 14.3000]"   symmetry_se="(0.00000, 0.0200]"   radius_worst="(9.0000, 11.7000]"   perimeter_worst="(78.0000, 95.6000]"   fractal_dimension_se="(-0.0089, 0.0020]"   
   (((   1)   % texture_worst="(18.8199, 21.0000]"   area_se="(14.0000, 61.0000]"   symmetry_se="(0.0009, 0.0100]"   radius_worst="(9.0000, 11.7000]"   perimeter_worst="(78.0000, 95.6000]"   fractal_dimension_se="(-0.0089, 0.0020]"   
   (   1)   % texture_worst="(21.00, 22.0000]"   area_se="(14.0000, 61.0000]"   symmetry_se="(0.0009, 0.0100]"   radius_worst="(9.0000, 11.7000]"   perimeter_worst="(78.0000, 95.6000]"   fractal_dimension_se="(-0.0089, 0.0020]"   
   (   1))   % texture_worst="(22.000, 23.8000]"   area_se="(14.0000, 61.0000]"   symmetry_se="(0.0009, 0.0100]"   radius_worst="(9.0000, 11.7000]"   perimeter_worst="(78.0000, 95.6000]"   fractal_dimension_se="(-0.0089, 0.0020]"   
   ((   1)   % texture_worst="(18.8199, 21.0000]"   area_se="(61.0000, 66.9000]"   symmetry_se="(0.0009, 0.0100]"   radius_worst="(9.0000, 11.7000]"   perimeter_worst="(78.0000, 95.6000]"   fractal_dimension_se="(-0.0089, 0.0020]"   
   (   1)   % texture_worst="(21.00, 22.0000]"   area_se="(61.0000, 66.9000]"   symmetry_se="(0.0009, 0.0100]"   radius_worst="(9.0000, 11.7000]"   perimeter_worst="(78.0000, 95.6000]"   fractal_dimension_se="(-0.0089, 0.0020]"   
   (   1))   % texture_worst="(22.000, 23.8000]"   area_se="(61.0000, 66.9000]"   symmetry_se="(0.0009, 0.0100]"   radius_worst="(9.0000, 11.7000]"   perimeter_worst="(78.0000, 95.6000]"   fractal_dimension_se="(-0.0089, 0.0020]"   
   ((   1)   % texture_worst="(18.8199, 21.0000]"   area_se="(7.4300, 14.3000]"   symmetry_se="(0.0009, 0.0100]"   radius_worst="(9.0000, 11.7000]"   perimeter_worst="(78.0000, 95.6000]"   fractal_dimension_se="(-0.0089, 0.0020]"   
   (   1)   % texture_worst="(21.00, 22.0000]"   area_se="(7.4300, 14.3000]"   symmetry_se="(0.0009, 0.0100]"   radius_worst="(9.0000, 11.7000]"   perimeter_worst="(78.0000, 95.6000]"   fractal_dimension_se="(-0.0089, 0.0020]"   
   (   1))))))   % texture_worst="(22.000, 23.8000]"   area_se="(7.4300, 14.3000]"   symmetry_se="(0.0009, 0.0100]"   radius_worst="(9.0000, 11.7000]"   perimeter_worst="(78.0000, 95.6000]"   fractal_dimension_se="(-0.0089, 0.0020]"   
   ((((((   1)   % texture_worst="(18.8199, 21.0000]"   area_se="(14.0000, 61.0000]"   symmetry_se="(0.00000, 0.0100]"   radius_worst="(11.0000, 14.0000]"   perimeter_worst="(72.0000, 78.5000]"   fractal_dimension_se="(0.0028, 0.0020]"   
   (   1)   % texture_worst="(21.00, 22.0000]"   area_se="(14.0000, 61.0000]"   symmetry_se="(0.00000, 0.0100]"   radius_worst="(11.0000, 14.0000]"   perimeter_worst="(72.0000, 78.5000]"   fractal_dimension_se="(0.0028, 0.0020]"   
   (   1))   % texture_worst="(22.000, 23.8000]"   area_se="(14.0000, 61.0000]"   symmetry_se="(0.00000, 0.0100]"   radius_worst="(11.0000, 14.0000]"   perimeter_worst="(72.0000, 78.5000]"   fractal_dimension_se="(0.0028, 0.0020]"   
   ((   1)   % texture_worst="(18.8199, 21.0000]"   area_se="(61.0000, 66.9000]"   symmetry_se="(0.00000, 0.0100]"   radius_worst="(11.0000, 14.0000]"   perimeter_worst="(72.0000, 78.5000]"   fractal_dimension_se="(0.0028, 0.0020]"   
   (   1)   % texture_worst="(21.00, 22.0000]"   area_se="(61.0000, 66.9000]"   symmetry_se="(0.00000, 0.0100]"   radius_worst="(11.0000, 14.0000]"   perimeter_worst="(72.0000, 78.5000]"   fractal_dimension_se="(0.0028, 0.0020]"   
   (   1))   % texture_worst="(22.000, 23.8000]"   area_se="(61.0000, 66.9000]"   symmetry_se="(0.00000, 0.0100]"   radius_worst="(11.0000, 14.0000]"   perimeter_worst="(72.0000, 78.5000]"   fractal_dimension_se="(0.0028, 0.0020]"   
   ((   1)   % texture_worst="(18.8199, 21.0000]"   area_se="(7.4300, 14.3000]"   symmetry_se="(0.00000, 0.0100]"   radius_worst="(11.0000, 14.0000]"   perimeter_worst="(72.0000, 78.5000]"   fractal_dimension_se="(0.0028, 0.0020]"   
   (   1)   % texture_worst="(21.00, 22.0000]"   area_se="(7.4300, 14.3000]"   symmetry_se="(0.00000, 0.0100]"   radius_worst="(11.0000, 14.0000]"   perimeter_worst="(72.0000, 78.5000]"   fractal_dimension_se="(0.0028, 0.0020]"   
   (   1)))   % texture_worst="(22.000, 23.8000]"   area_se="(7.4300, 14.3000]"   symmetry_se="(0.00000, 0.0100]"   radius_worst="(11.0000, 14.0000]"   perimeter_worst="(72.0000, 78.5000]"   fractal_dimension_se="(0.0028, 0.0020]"   
   (((   1)   % texture_worst="(18.8199, 21.0000]"   area_se="(14.0000, 61.0000]"   symmetry_se="(0.00000, 0.0200]"   radius_worst="(11.0000, 14.0000]"   perimeter_worst="(72.0000, 78.5000]"   fractal_dimension_se="(0.0028, 0.0020]"   
   (   1)   % texture_worst="(21.00, 22.0000]"   area_se="(14.0000, 61.0000]"   symmetry_se="(0.00000, 0.0200]"   radius_worst="(11.0000, 14.0000]"   perimeter_worst="(72.0000, 78.5000]"   fractal_dimension_se="(0.0028, 0.0020]"   
   (   1))   % texture_worst="(22.000, 23.8000]"   area_se="(14.0000, 61.0000]"   symmetry_se="(0.00000, 0.0200]"   radius_worst="(11.0000, 14.0000]"   perimeter_worst="(72.0000, 78.5000]"   fractal_dimension_se="(0.0028, 0.0020]"   
   ((   1)   % texture_worst="(18.8199, 21.0000]"   area_se="(61.0000, 66.9000]"   symmetry_se="(0.00000, 0.0200]"   radius_worst="(11.0000, 14.0000]"   perimeter_worst="(72.0000, 78.5000]"   fractal_dimension_se="(0.0028, 0.0020]"   
   (   1)   % texture_worst="(21.00, 22.0000]"   area_se="(61.0000, 66.9000]"   symmetry_se="(0.00000, 0.0200]"   radius_worst="(11.0000, 14.0000]"   perimeter_worst="(72.0000, 78.5000]"   fractal_dimension_se="(0.0028, 0.0020]"   
   (   1))   % texture_worst="(22.000, 23.8000]"   area_se="(61.0000, 66.9000]"   symmetry_se="(0.00000, 0.0200]"   radius_worst="(11.0000, 14.0000]"   perimeter_worst="(72.0000, 78.5000]"   fractal_dimension_se="(0.0028, 0.0020]"   
   ((   1)   % texture_worst="(18.8199, 21.0000]"   area_se="(7.4300, 14.3000]"   symmetry_se="(0.00000, 0.0200]"   radius_worst="(11.0000, 14.0000]"   perimeter_worst="(72.0000, 78.5000]"   fractal_dimension_se="(0.0028, 0.0020]"   
   (   1)   % texture_worst="(21.00, 22.0000]"   area_se="(7.4300, 14.3000]"   symmetry_se="(0.00000, 0.0200]"   radius_worst="(11.0000, 14.0000]"   perimeter_worst="(72.0000, 78.5000]"   fractal_dimension_se="(0.0028, 0.0020]"   
   (   1)))   % texture_worst="(22.000, 23.8000]"   area_se="(7.4300, 14.3000]"   symmetry_se="(0.00000, 0.0200]"   radius_worst="(11.0000, 14.0000]"   perimeter_worst="(72.0000, 78.5000]"   fractal_dimension_se="(0.0028, 0.0020]"   
   (((   1)   % texture_worst="(18.8199, 21.0000]"   area_se="(14.0000, 61.0000]"   symmetry_se="(0.0009, 0.0100]"   radius_worst="(11.0000, 14.0000]"   perimeter_worst="(72.0000, 78.5000]"   fractal_dimension_se="(0.0028, 0.0020]"   
   (   1)   % texture_worst="(21.00, 22.0000]"   area_se="(14.0000, 61.0000]"   symmetry_se="(0.0009, 0.0100]"   radius_worst="(11.0000, 14.0000]"   perimeter_worst="(72.0000, 78.5000]"   fractal_dimension_se="(0.0028, 0.0020]"   
   (   1))   % texture_worst="(22.000, 23.8000]"   area_se="(14.0000, 61.0000]"   symmetry_se="(0.0009, 0.0100]"   radius_worst="(11.0000, 14.0000]"   perimeter_worst="(72.0000, 78.5000]"   fractal_dimension_se="(0.0028, 0.0020]"   
   ((   1)   % texture_worst="(18.8199, 21.0000]"   area_se="(61.0000, 66.9000]"   symmetry_se="(0.0009, 0.0100]"   radius_worst="(11.0000, 14.0000]"   perimeter_worst="(72.0000, 78.5000]"   fractal_dimension_se="(0.0028, 0.0020]"   
   (   1)   % texture_worst="(21.00, 22.0000]"   area_se="(61.0000, 66.9000]"   symmetry_se="(0.0009, 0.0100]"   radius_worst="(11.0000, 14.0000]"   perimeter_worst="(72.0000, 78.5000]"   fractal_dimension_se="(0.0028, 0.0020]"   
   (   1))   % texture_worst="(22.000, 23.8000]"   area_se="(61.0000, 66.9000]"   symmetry_se="(0.0009, 0.0100]"   radius_worst="(11.0000, 14.0000]"   perimeter_worst="(72.0000, 78.5000]"   fractal_dimension_se="(0.0028, 0.0020]"   
   ((   1)   % texture_worst="(18.8199, 21.0000]"   area_se="(7.4300, 14.3000]"   symmetry_se="(0.0009, 0.0100]"   radius_worst="(11.0000, 14.0000]"   perimeter_worst="(72.0000, 78.5000]"   fractal_dimension_se="(0.0028, 0.0020]"   
   (   1)   % texture_worst="(21.00, 22.0000]"   area_se="(7.4300, 14.3000]"   symmetry_se="(0.0009, 0.0100]"   radius_worst="(11.0000, 14.0000]"   perimeter_worst="(72.0000, 78.5000]"   fractal_dimension_se="(0.0028, 0.0020]"   
   (   1))))   % texture_worst="(22.000, 23.8000]"   area_se="(7.4300, 14.3000]"   symmetry_se="(0.0009, 0.0100]"   radius_worst="(11.0000, 14.0000]"   perimeter_worst="(72.0000, 78.5000]"   fractal_dimension_se="(0.0028, 0.0020]"   
   ((((   1)   % texture_worst="(18.8199, 21.0000]"   area_se="(14.0000, 61.0000]"   symmetry_se="(0.00000, 0.0100]"   radius_worst="(14.000, 14.0000]"   perimeter_worst="(72.0000, 78.5000]"   fractal_dimension_se="(0.0028, 0.0020]"   
   (   1)   % texture_worst="(21.00, 22.0000]"   area_se="(14.0000, 61.0000]"   symmetry_se="(0.00000, 0.0100]"   radius_worst="(14.000, 14.0000]"   perimeter_worst="(72.0000, 78.5000]"   fractal_dimension_se="(0.0028, 0.0020]"   
   (   1))   % texture_worst="(22.000, 23.8000]"   area_se="(14.0000, 61.0000]"   symmetry_se="(0.00000, 0.0100]"   radius_worst="(14.000, 14.0000]"   perimeter_worst="(72.0000, 78.5000]"   fractal_dimension_se="(0.0028, 0.0020]"   
   ((   1)   % texture_worst="(18.8199, 21.0000]"   area_se="(61.0000, 66.9000]"   symmetry_se="(0.00000, 0.0100]"   radius_worst="(14.000, 14.0000]"   perimeter_worst="(72.0000, 78.5000]"   fractal_dimension_se="(0.0028, 0.0020]"   
   (   1)   % texture_worst="(21.00, 22.0000]"   area_se="(61.0000, 66.9000]"   symmetry_se="(0.00000, 0.0100]"   radius_worst="(14.000, 14.0000]"   perimeter_worst="(72.0000, 78.5000]"   fractal_dimension_se="(0.0028, 0.0020]"   
   (   1))   % texture_worst="(22.000, 23.8000]"   area_se="(61.0000, 66.9000]"   symmetry_se="(0.00000, 0.0100]"   radius_worst="(14.000, 14.0000]"   perimeter_worst="(72.0000, 78.5000]"   fractal_dimension_se="(0.0028, 0.0020]"   
   ((   1)   % texture_worst="(18.8199, 21.0000]"   area_se="(7.4300, 14.3000]"   symmetry_se="(0.00000, 0.0100]"   radius_worst="(14.000, 14.0000]"   perimeter_worst="(72.0000, 78.5000]"   fractal_dimension_se="(0.0028, 0.0020]"   
   (   1)   % texture_worst="(21.00, 22.0000]"   area_se="(7.4300, 14.3000]"   symmetry_se="(0.00000, 0.0100]"   radius_worst="(14.000, 14.0000]"   perimeter_worst="(72.0000, 78.5000]"   fractal_dimension_se="(0.0028, 0.0020]"   
   (   1)))   % texture_worst="(22.000, 23.8000]"   area_se="(7.4300, 14.3000]"   symmetry_se="(0.00000, 0.0100]"   radius_worst="(14.000, 14.0000]"   perimeter_worst="(72.0000, 78.5000]"   fractal_dimension_se="(0.0028, 0.0020]"   
   (((   1)   % texture_worst="(18.8199, 21.0000]"   area_se="(14.0000, 61.0000]"   symmetry_se="(0.00000, 0.0200]"   radius_worst="(14.000, 14.0000]"   perimeter_worst="(72.0000, 78.5000]"   fractal_dimension_se="(0.0028, 0.0020]"   
   (   1)   % texture_worst="(21.00, 22.0000]"   area_se="(14.0000, 61.0000]"   symmetry_se="(0.00000, 0.0200]"   radius_worst="(14.000, 14.0000]"   perimeter_worst="(72.0000, 78.5000]"   fractal_dimension_se="(0.0028, 0.0020]"   
   (   1))   % texture_worst="(22.000, 23.8000]"   area_se="(14.0000, 61.0000]"   symmetry_se="(0.00000, 0.0200]"   radius_worst="(14.000, 14.0000]"   perimeter_worst="(72.0000, 78.5000]"   fractal_dimension_se="(0.0028, 0.0020]"   
   ((   1)   % texture_worst="(18.8199, 21.0000]"   area_se="(61.0000, 66.9000]"   symmetry_se="(0.00000, 0.0200]"   radius_worst="(14.000, 14.0000]"   perimeter_worst="(72.0000, 78.5000]"   fractal_dimension_se="(0.0028, 0.0020]"   
   (   1)   % texture_worst="(21.00, 22.0000]"   area_se="(61.0000, 66.9000]"   symmetry_se="(0.00000, 0.0200]"   radius_worst="(14.000, 14.0000]"   perimeter_worst="(72.0000, 78.5000]"   fractal_dimension_se="(0.0028, 0.0020]"   
   (   1))   % texture_worst="(22.000, 23.8000]"   area_se="(61.0000, 66.9000]"   symmetry_se="(0.00000, 0.0200]"   radius_worst="(14.000, 14.0000]"   perimeter_worst="(72.0000, 78.5000]"   fractal_dimension_se="(0.0028, 0.0020]"   
   ((   1)   % texture_worst="(18.8199, 21.0000]"   area_se="(7.4300, 14.3000]"   symmetry_se="(0.00000, 0.0200]"   radius_worst="(14.000, 14.0000]"   perimeter_worst="(72.0000, 78.5000]"   fractal_dimension_se="(0.0028, 0.0020]"   
   (   1)   % texture_worst="(21.00, 22.0000]"   area_se="(7.4300, 14.3000]"   symmetry_se="(0.00000, 0.0200]"   radius_worst="(14.000, 14.0000]"   perimeter_worst="(72.0000, 78.5000]"   fractal_dimension_se="(0.0028, 0.0020]"   
   (   1)))   % texture_worst="(22.000, 23.8000]"   area_se="(7.4300, 14.3000]"   symmetry_se="(0.00000, 0.0200]"   radius_worst="(14.000, 14.0000]"   perimeter_worst="(72.0000, 78.5000]"   fractal_dimension_se="(0.0028, 0.0020]"   
   (((   1)   % texture_worst="(18.8199, 21.0000]"   area_se="(14.0000, 61.0000]"   symmetry_se="(0.0009, 0.0100]"   radius_worst="(14.000, 14.0000]"   perimeter_worst="(72.0000, 78.5000]"   fractal_dimension_se="(0.0028, 0.0020]"   
   (   1)   % texture_worst="(21.00, 22.0000]"   area_se="(14.0000, 61.0000]"   symmetry_se="(0.0009, 0.0100]"   radius_worst="(14.000, 14.0000]"   perimeter_worst="(72.0000, 78.5000]"   fractal_dimension_se="(0.0028, 0.0020]"   
   (   1))   % texture_worst="(22.000, 23.8000]"   area_se="(14.0000, 61.0000]"   symmetry_se="(0.0009, 0.0100]"   radius_worst="(14.000, 14.0000]"   perimeter_worst="(72.0000, 78.5000]"   fractal_dimension_se="(0.0028, 0.0020]"   
   ((   1)   % texture_worst="(18.8199, 21.0000]"   area_se="(61.0000, 66.9000]"   symmetry_se="(0.0009, 0.0100]"   radius_worst="(14.000, 14.0000]"   perimeter_worst="(72.0000, 78.5000]"   fractal_dimension_se="(0.0028, 0.0020]"   
   (   1)   % texture_worst="(21.00, 22.0000]"   area_se="(61.0000, 66.9000]"   symmetry_se="(0.0009, 0.0100]"   radius_worst="(14.000, 14.0000]"   perimeter_worst="(72.0000, 78.5000]"   fractal_dimension_se="(0.0028, 0.0020]"   
   (   1))   % texture_worst="(22.000, 23.8000]"   area_se="(61.0000, 66.9000]"   symmetry_se="(0.0009, 0.0100]"   radius_worst="(14.000, 14.0000]"   perimeter_worst="(72.0000, 78.5000]"   fractal_dimension_se="(0.0028, 0.0020]"   
   ((   1)   % texture_worst="(18.8199, 21.0000]"   area_se="(7.4300, 14.3000]"   symmetry_se="(0.0009, 0.0100]"   radius_worst="(14.000, 14.0000]"   perimeter_worst="(72.0000, 78.5000]"   fractal_dimension_se="(0.0028, 0.0020]"   
   (   1)   % texture_worst="(21.00, 22.0000]"   area_se="(7.4300, 14.3000]"   symmetry_se="(0.0009, 0.0100]"   radius_worst="(14.000, 14.0000]"   perimeter_worst="(72.0000, 78.5000]"   fractal_dimension_se="(0.0028, 0.0020]"   
   (   1))))   % texture_worst="(22.000, 23.8000]"   area_se="(7.4300, 14.3000]"   symmetry_se="(0.0009, 0.0100]"   radius_worst="(14.000, 14.0000]"   perimeter_worst="(72.0000, 78.5000]"   fractal_dimension_se="(0.0028, 0.0020]"   
   ((((   1)   % texture_worst="(18.8199, 21.0000]"   area_se="(14.0000, 61.0000]"   symmetry_se="(0.00000, 0.0100]"   radius_worst="(9.0000, 11.7000]"   perimeter_worst="(72.0000, 78.5000]"   fractal_dimension_se="(0.0028, 0.0020]"   
   (   1)   % texture_worst="(21.00, 22.0000]"   area_se="(14.0000, 61.0000]"   symmetry_se="(0.00000, 0.0100]"   radius_worst="(9.0000, 11.7000]"   perimeter_worst="(72.0000, 78.5000]"   fractal_dimension_se="(0.0028, 0.0020]"   
   (   1))   % texture_worst="(22.000, 23.8000]"   area_se="(14.0000, 61.0000]"   symmetry_se="(0.00000, 0.0100]"   radius_worst="(9.0000, 11.7000]"   perimeter_worst="(72.0000, 78.5000]"   fractal_dimension_se="(0.0028, 0.0020]"   
   ((   1)   % texture_worst="(18.8199, 21.0000]"   area_se="(61.0000, 66.9000]"   symmetry_se="(0.00000, 0.0100]"   radius_worst="(9.0000, 11.7000]"   perimeter_worst="(72.0000, 78.5000]"   fractal_dimension_se="(0.0028, 0.0020]"   
   (   1)   % texture_worst="(21.00, 22.0000]"   area_se="(61.0000, 66.9000]"   symmetry_se="(0.00000, 0.0100]"   radius_worst="(9.0000, 11.7000]"   perimeter_worst="(72.0000, 78.5000]"   fractal_dimension_se="(0.0028, 0.0020]"   
   (   1))   % texture_worst="(22.000, 23.8000]"   area_se="(61.0000, 66.9000]"   symmetry_se="(0.00000, 0.0100]"   radius_worst="(9.0000, 11.7000]"   perimeter_worst="(72.0000, 78.5000]"   fractal_dimension_se="(0.0028, 0.0020]"   
   ((   1)   % texture_worst="(18.8199, 21.0000]"   area_se="(7.4300, 14.3000]"   symmetry_se="(0.00000, 0.0100]"   radius_worst="(9.0000, 11.7000]"   perimeter_worst="(72.0000, 78.5000]"   fractal_dimension_se="(0.0028, 0.0020]"   
   (   1)   % texture_worst="(21.00, 22.0000]"   area_se="(7.4300, 14.3000]"   symmetry_se="(0.00000, 0.0100]"   radius_worst="(9.0000, 11.7000]"   perimeter_worst="(72.0000, 78.5000]"   fractal_dimension_se="(0.0028, 0.0020]"   
   (   1)))   % texture_worst="(22.000, 23.8000]"   area_se="(7.4300, 14.3000]"   symmetry_se="(0.00000, 0.0100]"   radius_worst="(9.0000, 11.7000]"   perimeter_worst="(72.0000, 78.5000]"   fractal_dimension_se="(0.0028, 0.0020]"   
   (((   1)   % texture_worst="(18.8199, 21.0000]"   area_se="(14.0000, 61.0000]"   symmetry_se="(0.00000, 0.0200]"   radius_worst="(9.0000, 11.7000]"   perimeter_worst="(72.0000, 78.5000]"   fractal_dimension_se="(0.0028, 0.0020]"   
   (   1)   % texture_worst="(21.00, 22.0000]"   area_se="(14.0000, 61.0000]"   symmetry_se="(0.00000, 0.0200]"   radius_worst="(9.0000, 11.7000]"   perimeter_worst="(72.0000, 78.5000]"   fractal_dimension_se="(0.0028, 0.0020]"   
   (   1))   % texture_worst="(22.000, 23.8000]"   area_se="(14.0000, 61.0000]"   symmetry_se="(0.00000, 0.0200]"   radius_worst="(9.0000, 11.7000]"   perimeter_worst="(72.0000, 78.5000]"   fractal_dimension_se="(0.0028, 0.0020]"   
   ((   1)   % texture_worst="(18.8199, 21.0000]"   area_se="(61.0000, 66.9000]"   symmetry_se="(0.00000, 0.0200]"   radius_worst="(9.0000, 11.7000]"   perimeter_worst="(72.0000, 78.5000]"   fractal_dimension_se="(0.0028, 0.0020]"   
   (   1)   % texture_worst="(21.00, 22.0000]"   area_se="(61.0000, 66.9000]"   symmetry_se="(0.00000, 0.0200]"   radius_worst="(9.0000, 11.7000]"   perimeter_worst="(72.0000, 78.5000]"   fractal_dimension_se="(0.0028, 0.0020]"   
   (   1))   % texture_worst="(22.000, 23.8000]"   area_se="(61.0000, 66.9000]"   symmetry_se="(0.00000, 0.0200]"   radius_worst="(9.0000, 11.7000]"   perimeter_worst="(72.0000, 78.5000]"   fractal_dimension_se="(0.0028, 0.0020]"   
   ((   1)   % texture_worst="(18.8199, 21.0000]"   area_se="(7.4300, 14.3000]"   symmetry_se="(0.00000, 0.0200]"   radius_worst="(9.0000, 11.7000]"   perimeter_worst="(72.0000, 78.5000]"   fractal_dimension_se="(0.0028, 0.0020]"   
   (   1)   % texture_worst="(21.00, 22.0000]"   area_se="(7.4300, 14.3000]"   symmetry_se="(0.00000, 0.0200]"   radius_worst="(9.0000, 11.7000]"   perimeter_worst="(72.0000, 78.5000]"   fractal_dimension_se="(0.0028, 0.0020]"   
   (   1)))   % texture_worst="(22.000, 23.8000]"   area_se="(7.4300, 14.3000]"   symmetry_se="(0.00000, 0.0200]"   radius_worst="(9.0000, 11.7000]"   perimeter_worst="(72.0000, 78.5000]"   fractal_dimension_se="(0.0028, 0.0020]"   
   (((   1)   % texture_worst="(18.8199, 21.0000]"   area_se="(14.0000, 61.0000]"   symmetry_se="(0.0009, 0.0100]"   radius_worst="(9.0000, 11.7000]"   perimeter_worst="(72.0000, 78.5000]"   fractal_dimension_se="(0.0028, 0.0020]"   
   (   1)   % texture_worst="(21.00, 22.0000]"   area_se="(14.0000, 61.0000]"   symmetry_se="(0.0009, 0.0100]"   radius_worst="(9.0000, 11.7000]"   perimeter_worst="(72.0000, 78.5000]"   fractal_dimension_se="(0.0028, 0.0020]"   
   (   1))   % texture_worst="(22.000, 23.8000]"   area_se="(14.0000, 61.0000]"   symmetry_se="(0.0009, 0.0100]"   radius_worst="(9.0000, 11.7000]"   perimeter_worst="(72.0000, 78.5000]"   fractal_dimension_se="(0.0028, 0.0020]"   
   ((   1)   % texture_worst="(18.8199, 21.0000]"   area_se="(61.0000, 66.9000]"   symmetry_se="(0.0009, 0.0100]"   radius_worst="(9.0000, 11.7000]"   perimeter_worst="(72.0000, 78.5000]"   fractal_dimension_se="(0.0028, 0.0020]"   
   (   1)   % texture_worst="(21.00, 22.0000]"   area_se="(61.0000, 66.9000]"   symmetry_se="(0.0009, 0.0100]"   radius_worst="(9.0000, 11.7000]"   perimeter_worst="(72.0000, 78.5000]"   fractal_dimension_se="(0.0028, 0.0020]"   
   (   1))   % texture_worst="(22.000, 23.8000]"   area_se="(61.0000, 66.9000]"   symmetry_se="(0.0009, 0.0100]"   radius_worst="(9.0000, 11.7000]"   perimeter_worst="(72.0000, 78.5000]"   fractal_dimension_se="(0.0028, 0.0020]"   
   ((   1)   % texture_worst="(18.8199, 21.0000]"   area_se="(7.4300, 14.3000]"   symmetry_se="(0.0009, 0.0100]"   radius_worst="(9.0000, 11.7000]"   perimeter_worst="(72.0000, 78.5000]"   fractal_dimension_se="(0.0028, 0.0020]"   
   (   1)   % texture_worst="(21.00, 22.0000]"   area_se="(7.4300, 14.3000]"   symmetry_se="(0.0009, 0.0100]"   radius_worst="(9.0000, 11.7000]"   perimeter_worst="(72.0000, 78.5000]"   fractal_dimension_se="(0.0028, 0.0020]"   
   (   1)))))   % texture_worst="(22.000, 23.8000]"   area_se="(7.4300, 14.3000]"   symmetry_se="(0.0009, 0.0100]"   radius_worst="(9.0000, 11.7000]"   perimeter_worst="(72.0000, 78.5000]"   fractal_dimension_se="(0.0028, 0.0020]"   
   (((((   1)   % texture_worst="(18.8199, 21.0000]"   area_se="(14.0000, 61.0000]"   symmetry_se="(0.00000, 0.0100]"   radius_worst="(11.0000, 14.0000]"   perimeter_worst="(78.0000, 95.6000]"   fractal_dimension_se="(0.0028, 0.0020]"   
   (   1)   % texture_worst="(21.00, 22.0000]"   area_se="(14.0000, 61.0000]"   symmetry_se="(0.00000, 0.0100]"   radius_worst="(11.0000, 14.0000]"   perimeter_worst="(78.0000, 95.6000]"   fractal_dimension_se="(0.0028, 0.0020]"   
   (   1))   % texture_worst="(22.000, 23.8000]"   area_se="(14.0000, 61.0000]"   symmetry_se="(0.00000, 0.0100]"   radius_worst="(11.0000, 14.0000]"   perimeter_worst="(78.0000, 95.6000]"   fractal_dimension_se="(0.0028, 0.0020]"   
   ((   1)   % texture_worst="(18.8199, 21.0000]"   area_se="(61.0000, 66.9000]"   symmetry_se="(0.00000, 0.0100]"   radius_worst="(11.0000, 14.0000]"   perimeter_worst="(78.0000, 95.6000]"   fractal_dimension_se="(0.0028, 0.0020]"   
   (   1)   % texture_worst="(21.00, 22.0000]"   area_se="(61.0000, 66.9000]"   symmetry_se="(0.00000, 0.0100]"   radius_worst="(11.0000, 14.0000]"   perimeter_worst="(78.0000, 95.6000]"   fractal_dimension_se="(0.0028, 0.0020]"   
   (   1))   % texture_worst="(22.000, 23.8000]"   area_se="(61.0000, 66.9000]"   symmetry_se="(0.00000, 0.0100]"   radius_worst="(11.0000, 14.0000]"   perimeter_worst="(78.0000, 95.6000]"   fractal_dimension_se="(0.0028, 0.0020]"   
   ((   1)   % texture_worst="(18.8199, 21.0000]"   area_se="(7.4300, 14.3000]"   symmetry_se="(0.00000, 0.0100]"   radius_worst="(11.0000, 14.0000]"   perimeter_worst="(78.0000, 95.6000]"   fractal_dimension_se="(0.0028, 0.0020]"   
   (   1)   % texture_worst="(21.00, 22.0000]"   area_se="(7.4300, 14.3000]"   symmetry_se="(0.00000, 0.0100]"   radius_worst="(11.0000, 14.0000]"   perimeter_worst="(78.0000, 95.6000]"   fractal_dimension_se="(0.0028, 0.0020]"   
   (   1)))   % texture_worst="(22.000, 23.8000]"   area_se="(7.4300, 14.3000]"   symmetry_se="(0.00000, 0.0100]"   radius_worst="(11.0000, 14.0000]"   perimeter_worst="(78.0000, 95.6000]"   fractal_dimension_se="(0.0028, 0.0020]"   
   (((   1)   % texture_worst="(18.8199, 21.0000]"   area_se="(14.0000, 61.0000]"   symmetry_se="(0.00000, 0.0200]"   radius_worst="(11.0000, 14.0000]"   perimeter_worst="(78.0000, 95.6000]"   fractal_dimension_se="(0.0028, 0.0020]"   
   (   1)   % texture_worst="(21.00, 22.0000]"   area_se="(14.0000, 61.0000]"   symmetry_se="(0.00000, 0.0200]"   radius_worst="(11.0000, 14.0000]"   perimeter_worst="(78.0000, 95.6000]"   fractal_dimension_se="(0.0028, 0.0020]"   
   (   1))   % texture_worst="(22.000, 23.8000]"   area_se="(14.0000, 61.0000]"   symmetry_se="(0.00000, 0.0200]"   radius_worst="(11.0000, 14.0000]"   perimeter_worst="(78.0000, 95.6000]"   fractal_dimension_se="(0.0028, 0.0020]"   
   ((   1)   % texture_worst="(18.8199, 21.0000]"   area_se="(61.0000, 66.9000]"   symmetry_se="(0.00000, 0.0200]"   radius_worst="(11.0000, 14.0000]"   perimeter_worst="(78.0000, 95.6000]"   fractal_dimension_se="(0.0028, 0.0020]"   
   (   1)   % texture_worst="(21.00, 22.0000]"   area_se="(61.0000, 66.9000]"   symmetry_se="(0.00000, 0.0200]"   radius_worst="(11.0000, 14.0000]"   perimeter_worst="(78.0000, 95.6000]"   fractal_dimension_se="(0.0028, 0.0020]"   
   (   1))   % texture_worst="(22.000, 23.8000]"   area_se="(61.0000, 66.9000]"   symmetry_se="(0.00000, 0.0200]"   radius_worst="(11.0000, 14.0000]"   perimeter_worst="(78.0000, 95.6000]"   fractal_dimension_se="(0.0028, 0.0020]"   
   ((   1)   % texture_worst="(18.8199, 21.0000]"   area_se="(7.4300, 14.3000]"   symmetry_se="(0.00000, 0.0200]"   radius_worst="(11.0000, 14.0000]"   perimeter_worst="(78.0000, 95.6000]"   fractal_dimension_se="(0.0028, 0.0020]"   
   (   1)   % texture_worst="(21.00, 22.0000]"   area_se="(7.4300, 14.3000]"   symmetry_se="(0.00000, 0.0200]"   radius_worst="(11.0000, 14.0000]"   perimeter_worst="(78.0000, 95.6000]"   fractal_dimension_se="(0.0028, 0.0020]"   
   (   1)))   % texture_worst="(22.000, 23.8000]"   area_se="(7.4300, 14.3000]"   symmetry_se="(0.00000, 0.0200]"   radius_worst="(11.0000, 14.0000]"   perimeter_worst="(78.0000, 95.6000]"   fractal_dimension_se="(0.0028, 0.0020]"   
   (((   1)   % texture_worst="(18.8199, 21.0000]"   area_se="(14.0000, 61.0000]"   symmetry_se="(0.0009, 0.0100]"   radius_worst="(11.0000, 14.0000]"   perimeter_worst="(78.0000, 95.6000]"   fractal_dimension_se="(0.0028, 0.0020]"   
   (   1)   % texture_worst="(21.00, 22.0000]"   area_se="(14.0000, 61.0000]"   symmetry_se="(0.0009, 0.0100]"   radius_worst="(11.0000, 14.0000]"   perimeter_worst="(78.0000, 95.6000]"   fractal_dimension_se="(0.0028, 0.0020]"   
   (   1))   % texture_worst="(22.000, 23.8000]"   area_se="(14.0000, 61.0000]"   symmetry_se="(0.0009, 0.0100]"   radius_worst="(11.0000, 14.0000]"   perimeter_worst="(78.0000, 95.6000]"   fractal_dimension_se="(0.0028, 0.0020]"   
   ((   1)   % texture_worst="(18.8199, 21.0000]"   area_se="(61.0000, 66.9000]"   symmetry_se="(0.0009, 0.0100]"   radius_worst="(11.0000, 14.0000]"   perimeter_worst="(78.0000, 95.6000]"   fractal_dimension_se="(0.0028, 0.0020]"   
   (   1)   % texture_worst="(21.00, 22.0000]"   area_se="(61.0000, 66.9000]"   symmetry_se="(0.0009, 0.0100]"   radius_worst="(11.0000, 14.0000]"   perimeter_worst="(78.0000, 95.6000]"   fractal_dimension_se="(0.0028, 0.0020]"   
   (   1))   % texture_worst="(22.000, 23.8000]"   area_se="(61.0000, 66.9000]"   symmetry_se="(0.0009, 0.0100]"   radius_worst="(11.0000, 14.0000]"   perimeter_worst="(78.0000, 95.6000]"   fractal_dimension_se="(0.0028, 0.0020]"   
   ((   1)   % texture_worst="(18.8199, 21.0000]"   area_se="(7.4300, 14.3000]"   symmetry_se="(0.0009, 0.0100]"   radius_worst="(11.0000, 14.0000]"   perimeter_worst="(78.0000, 95.6000]"   fractal_dimension_se="(0.0028, 0.0020]"   
   (   1)   % texture_worst="(21.00, 22.0000]"   area_se="(7.4300, 14.3000]"   symmetry_se="(0.0009, 0.0100]"   radius_worst="(11.0000, 14.0000]"   perimeter_worst="(78.0000, 95.6000]"   fractal_dimension_se="(0.0028, 0.0020]"   
   (   1))))   % texture_worst="(22.000, 23.8000]"   area_se="(7.4300, 14.3000]"   symmetry_se="(0.0009, 0.0100]"   radius_worst="(11.0000, 14.0000]"   perimeter_worst="(78.0000, 95.6000]"   fractal_dimension_se="(0.0028, 0.0020]"   
   ((((   1)   % texture_worst="(18.8199, 21.0000]"   area_se="(14.0000, 61.0000]"   symmetry_se="(0.00000, 0.0100]"   radius_worst="(14.000, 14.0000]"   perimeter_worst="(78.0000, 95.6000]"   fractal_dimension_se="(0.0028, 0.0020]"   
   (   1)   % texture_worst="(21.00, 22.0000]"   area_se="(14.0000, 61.0000]"   symmetry_se="(0.00000, 0.0100]"   radius_worst="(14.000, 14.0000]"   perimeter_worst="(78.0000, 95.6000]"   fractal_dimension_se="(0.0028, 0.0020]"   
   (   1))   % texture_worst="(22.000, 23.8000]"   area_se="(14.0000, 61.0000]"   symmetry_se="(0.00000, 0.0100]"   radius_worst="(14.000, 14.0000]"   perimeter_worst="(78.0000, 95.6000]"   fractal_dimension_se="(0.0028, 0.0020]"   
   ((   1)   % texture_worst="(18.8199, 21.0000]"   area_se="(61.0000, 66.9000]"   symmetry_se="(0.00000, 0.0100]"   radius_worst="(14.000, 14.0000]"   perimeter_worst="(78.0000, 95.6000]"   fractal_dimension_se="(0.0028, 0.0020]"   
   (   1)   % texture_worst="(21.00, 22.0000]"   area_se="(61.0000, 66.9000]"   symmetry_se="(0.00000, 0.0100]"   radius_worst="(14.000, 14.0000]"   perimeter_worst="(78.0000, 95.6000]"   fractal_dimension_se="(0.0028, 0.0020]"   
   (   1))   % texture_worst="(22.000, 23.8000]"   area_se="(61.0000, 66.9000]"   symmetry_se="(0.00000, 0.0100]"   radius_worst="(14.000, 14.0000]"   perimeter_worst="(78.0000, 95.6000]"   fractal_dimension_se="(0.0028, 0.0020]"   
   ((   1)   % texture_worst="(18.8199, 21.0000]"   area_se="(7.4300, 14.3000]"   symmetry_se="(0.00000, 0.0100]"   radius_worst="(14.000, 14.0000]"   perimeter_worst="(78.0000, 95.6000]"   fractal_dimension_se="(0.0028, 0.0020]"   
   (   1)   % texture_worst="(21.00, 22.0000]"   area_se="(7.4300, 14.3000]"   symmetry_se="(0.00000, 0.0100]"   radius_worst="(14.000, 14.0000]"   perimeter_worst="(78.0000, 95.6000]"   fractal_dimension_se="(0.0028, 0.0020]"   
   (   1)))   % texture_worst="(22.000, 23.8000]"   area_se="(7.4300, 14.3000]"   symmetry_se="(0.00000, 0.0100]"   radius_worst="(14.000, 14.0000]"   perimeter_worst="(78.0000, 95.6000]"   fractal_dimension_se="(0.0028, 0.0020]"   
   (((   1)   % texture_worst="(18.8199, 21.0000]"   area_se="(14.0000, 61.0000]"   symmetry_se="(0.00000, 0.0200]"   radius_worst="(14.000, 14.0000]"   perimeter_worst="(78.0000, 95.6000]"   fractal_dimension_se="(0.0028, 0.0020]"   
   (   1)   % texture_worst="(21.00, 22.0000]"   area_se="(14.0000, 61.0000]"   symmetry_se="(0.00000, 0.0200]"   radius_worst="(14.000, 14.0000]"   perimeter_worst="(78.0000, 95.6000]"   fractal_dimension_se="(0.0028, 0.0020]"   
   (   1))   % texture_worst="(22.000, 23.8000]"   area_se="(14.0000, 61.0000]"   symmetry_se="(0.00000, 0.0200]"   radius_worst="(14.000, 14.0000]"   perimeter_worst="(78.0000, 95.6000]"   fractal_dimension_se="(0.0028, 0.0020]"   
   ((   1)   % texture_worst="(18.8199, 21.0000]"   area_se="(61.0000, 66.9000]"   symmetry_se="(0.00000, 0.0200]"   radius_worst="(14.000, 14.0000]"   perimeter_worst="(78.0000, 95.6000]"   fractal_dimension_se="(0.0028, 0.0020]"   
   (   1)   % texture_worst="(21.00, 22.0000]"   area_se="(61.0000, 66.9000]"   symmetry_se="(0.00000, 0.0200]"   radius_worst="(14.000, 14.0000]"   perimeter_worst="(78.0000, 95.6000]"   fractal_dimension_se="(0.0028, 0.0020]"   
   (   1))   % texture_worst="(22.000, 23.8000]"   area_se="(61.0000, 66.9000]"   symmetry_se="(0.00000, 0.0200]"   radius_worst="(14.000, 14.0000]"   perimeter_worst="(78.0000, 95.6000]"   fractal_dimension_se="(0.0028, 0.0020]"   
   ((   1)   % texture_worst="(18.8199, 21.0000]"   area_se="(7.4300, 14.3000]"   symmetry_se="(0.00000, 0.0200]"   radius_worst="(14.000, 14.0000]"   perimeter_worst="(78.0000, 95.6000]"   fractal_dimension_se="(0.0028, 0.0020]"   
   (   1)   % texture_worst="(21.00, 22.0000]"   area_se="(7.4300, 14.3000]"   symmetry_se="(0.00000, 0.0200]"   radius_worst="(14.000, 14.0000]"   perimeter_worst="(78.0000, 95.6000]"   fractal_dimension_se="(0.0028, 0.0020]"   
   (   1)))   % texture_worst="(22.000, 23.8000]"   area_se="(7.4300, 14.3000]"   symmetry_se="(0.00000, 0.0200]"   radius_worst="(14.000, 14.0000]"   perimeter_worst="(78.0000, 95.6000]"   fractal_dimension_se="(0.0028, 0.0020]"   
   (((   1)   % texture_worst="(18.8199, 21.0000]"   area_se="(14.0000, 61.0000]"   symmetry_se="(0.0009, 0.0100]"   radius_worst="(14.000, 14.0000]"   perimeter_worst="(78.0000, 95.6000]"   fractal_dimension_se="(0.0028, 0.0020]"   
   (   1)   % texture_worst="(21.00, 22.0000]"   area_se="(14.0000, 61.0000]"   symmetry_se="(0.0009, 0.0100]"   radius_worst="(14.000, 14.0000]"   perimeter_worst="(78.0000, 95.6000]"   fractal_dimension_se="(0.0028, 0.0020]"   
   (   1))   % texture_worst="(22.000, 23.8000]"   area_se="(14.0000, 61.0000]"   symmetry_se="(0.0009, 0.0100]"   radius_worst="(14.000, 14.0000]"   perimeter_worst="(78.0000, 95.6000]"   fractal_dimension_se="(0.0028, 0.0020]"   
   ((   1)   % texture_worst="(18.8199, 21.0000]"   area_se="(61.0000, 66.9000]"   symmetry_se="(0.0009, 0.0100]"   radius_worst="(14.000, 14.0000]"   perimeter_worst="(78.0000, 95.6000]"   fractal_dimension_se="(0.0028, 0.0020]"   
   (   1)   % texture_worst="(21.00, 22.0000]"   area_se="(61.0000, 66.9000]"   symmetry_se="(0.0009, 0.0100]"   radius_worst="(14.000, 14.0000]"   perimeter_worst="(78.0000, 95.6000]"   fractal_dimension_se="(0.0028, 0.0020]"   
   (   1))   % texture_worst="(22.000, 23.8000]"   area_se="(61.0000, 66.9000]"   symmetry_se="(0.0009, 0.0100]"   radius_worst="(14.000, 14.0000]"   perimeter_worst="(78.0000, 95.6000]"   fractal_dimension_se="(0.0028, 0.0020]"   
   ((   1)   % texture_worst="(18.8199, 21.0000]"   area_se="(7.4300, 14.3000]"   symmetry_se="(0.0009, 0.0100]"   radius_worst="(14.000, 14.0000]"   perimeter_worst="(78.0000, 95.6000]"   fractal_dimension_se="(0.0028, 0.0020]"   
   (   1)   % texture_worst="(21.00, 22.0000]"   area_se="(7.4300, 14.3000]"   symmetry_se="(0.0009, 0.0100]"   radius_worst="(14.000, 14.0000]"   perimeter_worst="(78.0000, 95.6000]"   fractal_dimension_se="(0.0028, 0.0020]"   
   (   1))))   % texture_worst="(22.000, 23.8000]"   area_se="(7.4300, 14.3000]"   symmetry_se="(0.0009, 0.0100]"   radius_worst="(14.000, 14.0000]"   perimeter_worst="(78.0000, 95.6000]"   fractal_dimension_se="(0.0028, 0.0020]"   
   ((((   1)   % texture_worst="(18.8199, 21.0000]"   area_se="(14.0000, 61.0000]"   symmetry_se="(0.00000, 0.0100]"   radius_worst="(9.0000, 11.7000]"   perimeter_worst="(78.0000, 95.6000]"   fractal_dimension_se="(0.0028, 0.0020]"   
   (   1)   % texture_worst="(21.00, 22.0000]"   area_se="(14.0000, 61.0000]"   symmetry_se="(0.00000, 0.0100]"   radius_worst="(9.0000, 11.7000]"   perimeter_worst="(78.0000, 95.6000]"   fractal_dimension_se="(0.0028, 0.0020]"   
   (   1))   % texture_worst="(22.000, 23.8000]"   area_se="(14.0000, 61.0000]"   symmetry_se="(0.00000, 0.0100]"   radius_worst="(9.0000, 11.7000]"   perimeter_worst="(78.0000, 95.6000]"   fractal_dimension_se="(0.0028, 0.0020]"   
   ((   1)   % texture_worst="(18.8199, 21.0000]"   area_se="(61.0000, 66.9000]"   symmetry_se="(0.00000, 0.0100]"   radius_worst="(9.0000, 11.7000]"   perimeter_worst="(78.0000, 95.6000]"   fractal_dimension_se="(0.0028, 0.0020]"   
   (   1)   % texture_worst="(21.00, 22.0000]"   area_se="(61.0000, 66.9000]"   symmetry_se="(0.00000, 0.0100]"   radius_worst="(9.0000, 11.7000]"   perimeter_worst="(78.0000, 95.6000]"   fractal_dimension_se="(0.0028, 0.0020]"   
   (   1))   % texture_worst="(22.000, 23.8000]"   area_se="(61.0000, 66.9000]"   symmetry_se="(0.00000, 0.0100]"   radius_worst="(9.0000, 11.7000]"   perimeter_worst="(78.0000, 95.6000]"   fractal_dimension_se="(0.0028, 0.0020]"   
   ((   1)   % texture_worst="(18.8199, 21.0000]"   area_se="(7.4300, 14.3000]"   symmetry_se="(0.00000, 0.0100]"   radius_worst="(9.0000, 11.7000]"   perimeter_worst="(78.0000, 95.6000]"   fractal_dimension_se="(0.0028, 0.0020]"   
   (   1)   % texture_worst="(21.00, 22.0000]"   area_se="(7.4300, 14.3000]"   symmetry_se="(0.00000, 0.0100]"   radius_worst="(9.0000, 11.7000]"   perimeter_worst="(78.0000, 95.6000]"   fractal_dimension_se="(0.0028, 0.0020]"   
   (   1)))   % texture_worst="(22.000, 23.8000]"   area_se="(7.4300, 14.3000]"   symmetry_se="(0.00000, 0.0100]"   radius_worst="(9.0000, 11.7000]"   perimeter_worst="(78.0000, 95.6000]"   fractal_dimension_se="(0.0028, 0.0020]"   
   (((   1)   % texture_worst="(18.8199, 21.0000]"   area_se="(14.0000, 61.0000]"   symmetry_se="(0.00000, 0.0200]"   radius_worst="(9.0000, 11.7000]"   perimeter_worst="(78.0000, 95.6000]"   fractal_dimension_se="(0.0028, 0.0020]"   
   (   1)   % texture_worst="(21.00, 22.0000]"   area_se="(14.0000, 61.0000]"   symmetry_se="(0.00000, 0.0200]"   radius_worst="(9.0000, 11.7000]"   perimeter_worst="(78.0000, 95.6000]"   fractal_dimension_se="(0.0028, 0.0020]"   
   (   1))   % texture_worst="(22.000, 23.8000]"   area_se="(14.0000, 61.0000]"   symmetry_se="(0.00000, 0.0200]"   radius_worst="(9.0000, 11.7000]"   perimeter_worst="(78.0000, 95.6000]"   fractal_dimension_se="(0.0028, 0.0020]"   
   ((   1)   % texture_worst="(18.8199, 21.0000]"   area_se="(61.0000, 66.9000]"   symmetry_se="(0.00000, 0.0200]"   radius_worst="(9.0000, 11.7000]"   perimeter_worst="(78.0000, 95.6000]"   fractal_dimension_se="(0.0028, 0.0020]"   
   (   1)   % texture_worst="(21.00, 22.0000]"   area_se="(61.0000, 66.9000]"   symmetry_se="(0.00000, 0.0200]"   radius_worst="(9.0000, 11.7000]"   perimeter_worst="(78.0000, 95.6000]"   fractal_dimension_se="(0.0028, 0.0020]"   
   (   1))   % texture_worst="(22.000, 23.8000]"   area_se="(61.0000, 66.9000]"   symmetry_se="(0.00000, 0.0200]"   radius_worst="(9.0000, 11.7000]"   perimeter_worst="(78.0000, 95.6000]"   fractal_dimension_se="(0.0028, 0.0020]"   
   ((   1)   % texture_worst="(18.8199, 21.0000]"   area_se="(7.4300, 14.3000]"   symmetry_se="(0.00000, 0.0200]"   radius_worst="(9.0000, 11.7000]"   perimeter_worst="(78.0000, 95.6000]"   fractal_dimension_se="(0.0028, 0.0020]"   
   (   1)   % texture_worst="(21.00, 22.0000]"   area_se="(7.4300, 14.3000]"   symmetry_se="(0.00000, 0.0200]"   radius_worst="(9.0000, 11.7000]"   perimeter_worst="(78.0000, 95.6000]"   fractal_dimension_se="(0.0028, 0.0020]"   
   (   1)))   % texture_worst="(22.000, 23.8000]"   area_se="(7.4300, 14.3000]"   symmetry_se="(0.00000, 0.0200]"   radius_worst="(9.0000, 11.7000]"   perimeter_worst="(78.0000, 95.6000]"   fractal_dimension_se="(0.0028, 0.0020]"   
   (((   1)   % texture_worst="(18.8199, 21.0000]"   area_se="(14.0000, 61.0000]"   symmetry_se="(0.0009, 0.0100]"   radius_worst="(9.0000, 11.7000]"   perimeter_worst="(78.0000, 95.6000]"   fractal_dimension_se="(0.0028, 0.0020]"   
   (   1)   % texture_worst="(21.00, 22.0000]"   area_se="(14.0000, 61.0000]"   symmetry_se="(0.0009, 0.0100]"   radius_worst="(9.0000, 11.7000]"   perimeter_worst="(78.0000, 95.6000]"   fractal_dimension_se="(0.0028, 0.0020]"   
   (   1))   % texture_worst="(22.000, 23.8000]"   area_se="(14.0000, 61.0000]"   symmetry_se="(0.0009, 0.0100]"   radius_worst="(9.0000, 11.7000]"   perimeter_worst="(78.0000, 95.6000]"   fractal_dimension_se="(0.0028, 0.0020]"   
   ((   1)   % texture_worst="(18.8199, 21.0000]"   area_se="(61.0000, 66.9000]"   symmetry_se="(0.0009, 0.0100]"   radius_worst="(9.0000, 11.7000]"   perimeter_worst="(78.0000, 95.6000]"   fractal_dimension_se="(0.0028, 0.0020]"   
   (   1)   % texture_worst="(21.00, 22.0000]"   area_se="(61.0000, 66.9000]"   symmetry_se="(0.0009, 0.0100]"   radius_worst="(9.0000, 11.7000]"   perimeter_worst="(78.0000, 95.6000]"   fractal_dimension_se="(0.0028, 0.0020]"   
   (   1))   % texture_worst="(22.000, 23.8000]"   area_se="(61.0000, 66.9000]"   symmetry_se="(0.0009, 0.0100]"   radius_worst="(9.0000, 11.7000]"   perimeter_worst="(78.0000, 95.6000]"   fractal_dimension_se="(0.0028, 0.0020]"   
   ((   1)   % texture_worst="(18.8199, 21.0000]"   area_se="(7.4300, 14.3000]"   symmetry_se="(0.0009, 0.0100]"   radius_worst="(9.0000, 11.7000]"   perimeter_worst="(78.0000, 95.6000]"   fractal_dimension_se="(0.0028, 0.0020]"   
   (   1)   % texture_worst="(21.00, 22.0000]"   area_se="(7.4300, 14.3000]"   symmetry_se="(0.0009, 0.0100]"   radius_worst="(9.0000, 11.7000]"   perimeter_worst="(78.0000, 95.6000]"   fractal_dimension_se="(0.0028, 0.0020]"   
   (   1))))))   % texture_worst="(22.000, 23.8000]"   area_se="(7.4300, 14.3000]"   symmetry_se="(0.0009, 0.0100]"   radius_worst="(9.0000, 11.7000]"   perimeter_worst="(78.0000, 95.6000]"   fractal_dimension_se="(0.0028, 0.0020]"   
   ((((((   1)   % texture_worst="(18.8199, 21.0000]"   area_se="(14.0000, 61.0000]"   symmetry_se="(0.00000, 0.0100]"   radius_worst="(11.0000, 14.0000]"   perimeter_worst="(72.0000, 78.5000]"   fractal_dimension_se="(0.0029, 0.0030]"   
   (   1)   % texture_worst="(21.00, 22.0000]"   area_se="(14.0000, 61.0000]"   symmetry_se="(0.00000, 0.0100]"   radius_worst="(11.0000, 14.0000]"   perimeter_worst="(72.0000, 78.5000]"   fractal_dimension_se="(0.0029, 0.0030]"   
   (   1))   % texture_worst="(22.000, 23.8000]"   area_se="(14.0000, 61.0000]"   symmetry_se="(0.00000, 0.0100]"   radius_worst="(11.0000, 14.0000]"   perimeter_worst="(72.0000, 78.5000]"   fractal_dimension_se="(0.0029, 0.0030]"   
   ((   1)   % texture_worst="(18.8199, 21.0000]"   area_se="(61.0000, 66.9000]"   symmetry_se="(0.00000, 0.0100]"   radius_worst="(11.0000, 14.0000]"   perimeter_worst="(72.0000, 78.5000]"   fractal_dimension_se="(0.0029, 0.0030]"   
   (   1)   % texture_worst="(21.00, 22.0000]"   area_se="(61.0000, 66.9000]"   symmetry_se="(0.00000, 0.0100]"   radius_worst="(11.0000, 14.0000]"   perimeter_worst="(72.0000, 78.5000]"   fractal_dimension_se="(0.0029, 0.0030]"   
   (   1))   % texture_worst="(22.000, 23.8000]"   area_se="(61.0000, 66.9000]"   symmetry_se="(0.00000, 0.0100]"   radius_worst="(11.0000, 14.0000]"   perimeter_worst="(72.0000, 78.5000]"   fractal_dimension_se="(0.0029, 0.0030]"   
   ((   1)   % texture_worst="(18.8199, 21.0000]"   area_se="(7.4300, 14.3000]"   symmetry_se="(0.00000, 0.0100]"   radius_worst="(11.0000, 14.0000]"   perimeter_worst="(72.0000, 78.5000]"   fractal_dimension_se="(0.0029, 0.0030]"   
   (   1)   % texture_worst="(21.00, 22.0000]"   area_se="(7.4300, 14.3000]"   symmetry_se="(0.00000, 0.0100]"   radius_worst="(11.0000, 14.0000]"   perimeter_worst="(72.0000, 78.5000]"   fractal_dimension_se="(0.0029, 0.0030]"   
   (   1)))   % texture_worst="(22.000, 23.8000]"   area_se="(7.4300, 14.3000]"   symmetry_se="(0.00000, 0.0100]"   radius_worst="(11.0000, 14.0000]"   perimeter_worst="(72.0000, 78.5000]"   fractal_dimension_se="(0.0029, 0.0030]"   
   (((   1)   % texture_worst="(18.8199, 21.0000]"   area_se="(14.0000, 61.0000]"   symmetry_se="(0.00000, 0.0200]"   radius_worst="(11.0000, 14.0000]"   perimeter_worst="(72.0000, 78.5000]"   fractal_dimension_se="(0.0029, 0.0030]"   
   (   1)   % texture_worst="(21.00, 22.0000]"   area_se="(14.0000, 61.0000]"   symmetry_se="(0.00000, 0.0200]"   radius_worst="(11.0000, 14.0000]"   perimeter_worst="(72.0000, 78.5000]"   fractal_dimension_se="(0.0029, 0.0030]"   
   (   1))   % texture_worst="(22.000, 23.8000]"   area_se="(14.0000, 61.0000]"   symmetry_se="(0.00000, 0.0200]"   radius_worst="(11.0000, 14.0000]"   perimeter_worst="(72.0000, 78.5000]"   fractal_dimension_se="(0.0029, 0.0030]"   
   ((   1)   % texture_worst="(18.8199, 21.0000]"   area_se="(61.0000, 66.9000]"   symmetry_se="(0.00000, 0.0200]"   radius_worst="(11.0000, 14.0000]"   perimeter_worst="(72.0000, 78.5000]"   fractal_dimension_se="(0.0029, 0.0030]"   
   (   1)   % texture_worst="(21.00, 22.0000]"   area_se="(61.0000, 66.9000]"   symmetry_se="(0.00000, 0.0200]"   radius_worst="(11.0000, 14.0000]"   perimeter_worst="(72.0000, 78.5000]"   fractal_dimension_se="(0.0029, 0.0030]"   
   (   1))   % texture_worst="(22.000, 23.8000]"   area_se="(61.0000, 66.9000]"   symmetry_se="(0.00000, 0.0200]"   radius_worst="(11.0000, 14.0000]"   perimeter_worst="(72.0000, 78.5000]"   fractal_dimension_se="(0.0029, 0.0030]"   
   ((   1)   % texture_worst="(18.8199, 21.0000]"   area_se="(7.4300, 14.3000]"   symmetry_se="(0.00000, 0.0200]"   radius_worst="(11.0000, 14.0000]"   perimeter_worst="(72.0000, 78.5000]"   fractal_dimension_se="(0.0029, 0.0030]"   
   (   1)   % texture_worst="(21.00, 22.0000]"   area_se="(7.4300, 14.3000]"   symmetry_se="(0.00000, 0.0200]"   radius_worst="(11.0000, 14.0000]"   perimeter_worst="(72.0000, 78.5000]"   fractal_dimension_se="(0.0029, 0.0030]"   
   (   1)))   % texture_worst="(22.000, 23.8000]"   area_se="(7.4300, 14.3000]"   symmetry_se="(0.00000, 0.0200]"   radius_worst="(11.0000, 14.0000]"   perimeter_worst="(72.0000, 78.5000]"   fractal_dimension_se="(0.0029, 0.0030]"   
   (((   1)   % texture_worst="(18.8199, 21.0000]"   area_se="(14.0000, 61.0000]"   symmetry_se="(0.0009, 0.0100]"   radius_worst="(11.0000, 14.0000]"   perimeter_worst="(72.0000, 78.5000]"   fractal_dimension_se="(0.0029, 0.0030]"   
   (   1)   % texture_worst="(21.00, 22.0000]"   area_se="(14.0000, 61.0000]"   symmetry_se="(0.0009, 0.0100]"   radius_worst="(11.0000, 14.0000]"   perimeter_worst="(72.0000, 78.5000]"   fractal_dimension_se="(0.0029, 0.0030]"   
   (   1))   % texture_worst="(22.000, 23.8000]"   area_se="(14.0000, 61.0000]"   symmetry_se="(0.0009, 0.0100]"   radius_worst="(11.0000, 14.0000]"   perimeter_worst="(72.0000, 78.5000]"   fractal_dimension_se="(0.0029, 0.0030]"   
   ((   1)   % texture_worst="(18.8199, 21.0000]"   area_se="(61.0000, 66.9000]"   symmetry_se="(0.0009, 0.0100]"   radius_worst="(11.0000, 14.0000]"   perimeter_worst="(72.0000, 78.5000]"   fractal_dimension_se="(0.0029, 0.0030]"   
   (   1)   % texture_worst="(21.00, 22.0000]"   area_se="(61.0000, 66.9000]"   symmetry_se="(0.0009, 0.0100]"   radius_worst="(11.0000, 14.0000]"   perimeter_worst="(72.0000, 78.5000]"   fractal_dimension_se="(0.0029, 0.0030]"   
   (   1))   % texture_worst="(22.000, 23.8000]"   area_se="(61.0000, 66.9000]"   symmetry_se="(0.0009, 0.0100]"   radius_worst="(11.0000, 14.0000]"   perimeter_worst="(72.0000, 78.5000]"   fractal_dimension_se="(0.0029, 0.0030]"   
   ((   1)   % texture_worst="(18.8199, 21.0000]"   area_se="(7.4300, 14.3000]"   symmetry_se="(0.0009, 0.0100]"   radius_worst="(11.0000, 14.0000]"   perimeter_worst="(72.0000, 78.5000]"   fractal_dimension_se="(0.0029, 0.0030]"   
   (   1)   % texture_worst="(21.00, 22.0000]"   area_se="(7.4300, 14.3000]"   symmetry_se="(0.0009, 0.0100]"   radius_worst="(11.0000, 14.0000]"   perimeter_worst="(72.0000, 78.5000]"   fractal_dimension_se="(0.0029, 0.0030]"   
   (   1))))   % texture_worst="(22.000, 23.8000]"   area_se="(7.4300, 14.3000]"   symmetry_se="(0.0009, 0.0100]"   radius_worst="(11.0000, 14.0000]"   perimeter_worst="(72.0000, 78.5000]"   fractal_dimension_se="(0.0029, 0.0030]"   
   ((((   1)   % texture_worst="(18.8199, 21.0000]"   area_se="(14.0000, 61.0000]"   symmetry_se="(0.00000, 0.0100]"   radius_worst="(14.000, 14.0000]"   perimeter_worst="(72.0000, 78.5000]"   fractal_dimension_se="(0.0029, 0.0030]"   
   (   1)   % texture_worst="(21.00, 22.0000]"   area_se="(14.0000, 61.0000]"   symmetry_se="(0.00000, 0.0100]"   radius_worst="(14.000, 14.0000]"   perimeter_worst="(72.0000, 78.5000]"   fractal_dimension_se="(0.0029, 0.0030]"   
   (   1))   % texture_worst="(22.000, 23.8000]"   area_se="(14.0000, 61.0000]"   symmetry_se="(0.00000, 0.0100]"   radius_worst="(14.000, 14.0000]"   perimeter_worst="(72.0000, 78.5000]"   fractal_dimension_se="(0.0029, 0.0030]"   
   ((   1)   % texture_worst="(18.8199, 21.0000]"   area_se="(61.0000, 66.9000]"   symmetry_se="(0.00000, 0.0100]"   radius_worst="(14.000, 14.0000]"   perimeter_worst="(72.0000, 78.5000]"   fractal_dimension_se="(0.0029, 0.0030]"   
   (   1)   % texture_worst="(21.00, 22.0000]"   area_se="(61.0000, 66.9000]"   symmetry_se="(0.00000, 0.0100]"   radius_worst="(14.000, 14.0000]"   perimeter_worst="(72.0000, 78.5000]"   fractal_dimension_se="(0.0029, 0.0030]"   
   (   1))   % texture_worst="(22.000, 23.8000]"   area_se="(61.0000, 66.9000]"   symmetry_se="(0.00000, 0.0100]"   radius_worst="(14.000, 14.0000]"   perimeter_worst="(72.0000, 78.5000]"   fractal_dimension_se="(0.0029, 0.0030]"   
   ((   1)   % texture_worst="(18.8199, 21.0000]"   area_se="(7.4300, 14.3000]"   symmetry_se="(0.00000, 0.0100]"   radius_worst="(14.000, 14.0000]"   perimeter_worst="(72.0000, 78.5000]"   fractal_dimension_se="(0.0029, 0.0030]"   
   (   1)   % texture_worst="(21.00, 22.0000]"   area_se="(7.4300, 14.3000]"   symmetry_se="(0.00000, 0.0100]"   radius_worst="(14.000, 14.0000]"   perimeter_worst="(72.0000, 78.5000]"   fractal_dimension_se="(0.0029, 0.0030]"   
   (   1)))   % texture_worst="(22.000, 23.8000]"   area_se="(7.4300, 14.3000]"   symmetry_se="(0.00000, 0.0100]"   radius_worst="(14.000, 14.0000]"   perimeter_worst="(72.0000, 78.5000]"   fractal_dimension_se="(0.0029, 0.0030]"   
   (((   1)   % texture_worst="(18.8199, 21.0000]"   area_se="(14.0000, 61.0000]"   symmetry_se="(0.00000, 0.0200]"   radius_worst="(14.000, 14.0000]"   perimeter_worst="(72.0000, 78.5000]"   fractal_dimension_se="(0.0029, 0.0030]"   
   (   1)   % texture_worst="(21.00, 22.0000]"   area_se="(14.0000, 61.0000]"   symmetry_se="(0.00000, 0.0200]"   radius_worst="(14.000, 14.0000]"   perimeter_worst="(72.0000, 78.5000]"   fractal_dimension_se="(0.0029, 0.0030]"   
   (   1))   % texture_worst="(22.000, 23.8000]"   area_se="(14.0000, 61.0000]"   symmetry_se="(0.00000, 0.0200]"   radius_worst="(14.000, 14.0000]"   perimeter_worst="(72.0000, 78.5000]"   fractal_dimension_se="(0.0029, 0.0030]"   
   ((   1)   % texture_worst="(18.8199, 21.0000]"   area_se="(61.0000, 66.9000]"   symmetry_se="(0.00000, 0.0200]"   radius_worst="(14.000, 14.0000]"   perimeter_worst="(72.0000, 78.5000]"   fractal_dimension_se="(0.0029, 0.0030]"   
   (   1)   % texture_worst="(21.00, 22.0000]"   area_se="(61.0000, 66.9000]"   symmetry_se="(0.00000, 0.0200]"   radius_worst="(14.000, 14.0000]"   perimeter_worst="(72.0000, 78.5000]"   fractal_dimension_se="(0.0029, 0.0030]"   
   (   1))   % texture_worst="(22.000, 23.8000]"   area_se="(61.0000, 66.9000]"   symmetry_se="(0.00000, 0.0200]"   radius_worst="(14.000, 14.0000]"   perimeter_worst="(72.0000, 78.5000]"   fractal_dimension_se="(0.0029, 0.0030]"   
   ((   1)   % texture_worst="(18.8199, 21.0000]"   area_se="(7.4300, 14.3000]"   symmetry_se="(0.00000, 0.0200]"   radius_worst="(14.000, 14.0000]"   perimeter_worst="(72.0000, 78.5000]"   fractal_dimension_se="(0.0029, 0.0030]"   
   (   1)   % texture_worst="(21.00, 22.0000]"   area_se="(7.4300, 14.3000]"   symmetry_se="(0.00000, 0.0200]"   radius_worst="(14.000, 14.0000]"   perimeter_worst="(72.0000, 78.5000]"   fractal_dimension_se="(0.0029, 0.0030]"   
   (   1)))   % texture_worst="(22.000, 23.8000]"   area_se="(7.4300, 14.3000]"   symmetry_se="(0.00000, 0.0200]"   radius_worst="(14.000, 14.0000]"   perimeter_worst="(72.0000, 78.5000]"   fractal_dimension_se="(0.0029, 0.0030]"   
   (((   1)   % texture_worst="(18.8199, 21.0000]"   area_se="(14.0000, 61.0000]"   symmetry_se="(0.0009, 0.0100]"   radius_worst="(14.000, 14.0000]"   perimeter_worst="(72.0000, 78.5000]"   fractal_dimension_se="(0.0029, 0.0030]"   
   (   1)   % texture_worst="(21.00, 22.0000]"   area_se="(14.0000, 61.0000]"   symmetry_se="(0.0009, 0.0100]"   radius_worst="(14.000, 14.0000]"   perimeter_worst="(72.0000, 78.5000]"   fractal_dimension_se="(0.0029, 0.0030]"   
   (   1))   % texture_worst="(22.000, 23.8000]"   area_se="(14.0000, 61.0000]"   symmetry_se="(0.0009, 0.0100]"   radius_worst="(14.000, 14.0000]"   perimeter_worst="(72.0000, 78.5000]"   fractal_dimension_se="(0.0029, 0.0030]"   
   ((   1)   % texture_worst="(18.8199, 21.0000]"   area_se="(61.0000, 66.9000]"   symmetry_se="(0.0009, 0.0100]"   radius_worst="(14.000, 14.0000]"   perimeter_worst="(72.0000, 78.5000]"   fractal_dimension_se="(0.0029, 0.0030]"   
   (   1)   % texture_worst="(21.00, 22.0000]"   area_se="(61.0000, 66.9000]"   symmetry_se="(0.0009, 0.0100]"   radius_worst="(14.000, 14.0000]"   perimeter_worst="(72.0000, 78.5000]"   fractal_dimension_se="(0.0029, 0.0030]"   
   (   1))   % texture_worst="(22.000, 23.8000]"   area_se="(61.0000, 66.9000]"   symmetry_se="(0.0009, 0.0100]"   radius_worst="(14.000, 14.0000]"   perimeter_worst="(72.0000, 78.5000]"   fractal_dimension_se="(0.0029, 0.0030]"   
   ((   1)   % texture_worst="(18.8199, 21.0000]"   area_se="(7.4300, 14.3000]"   symmetry_se="(0.0009, 0.0100]"   radius_worst="(14.000, 14.0000]"   perimeter_worst="(72.0000, 78.5000]"   fractal_dimension_se="(0.0029, 0.0030]"   
   (   1)   % texture_worst="(21.00, 22.0000]"   area_se="(7.4300, 14.3000]"   symmetry_se="(0.0009, 0.0100]"   radius_worst="(14.000, 14.0000]"   perimeter_worst="(72.0000, 78.5000]"   fractal_dimension_se="(0.0029, 0.0030]"   
   (   1))))   % texture_worst="(22.000, 23.8000]"   area_se="(7.4300, 14.3000]"   symmetry_se="(0.0009, 0.0100]"   radius_worst="(14.000, 14.0000]"   perimeter_worst="(72.0000, 78.5000]"   fractal_dimension_se="(0.0029, 0.0030]"   
   ((((   1)   % texture_worst="(18.8199, 21.0000]"   area_se="(14.0000, 61.0000]"   symmetry_se="(0.00000, 0.0100]"   radius_worst="(9.0000, 11.7000]"   perimeter_worst="(72.0000, 78.5000]"   fractal_dimension_se="(0.0029, 0.0030]"   
   (   1)   % texture_worst="(21.00, 22.0000]"   area_se="(14.0000, 61.0000]"   symmetry_se="(0.00000, 0.0100]"   radius_worst="(9.0000, 11.7000]"   perimeter_worst="(72.0000, 78.5000]"   fractal_dimension_se="(0.0029, 0.0030]"   
   (   1))   % texture_worst="(22.000, 23.8000]"   area_se="(14.0000, 61.0000]"   symmetry_se="(0.00000, 0.0100]"   radius_worst="(9.0000, 11.7000]"   perimeter_worst="(72.0000, 78.5000]"   fractal_dimension_se="(0.0029, 0.0030]"   
   ((   1)   % texture_worst="(18.8199, 21.0000]"   area_se="(61.0000, 66.9000]"   symmetry_se="(0.00000, 0.0100]"   radius_worst="(9.0000, 11.7000]"   perimeter_worst="(72.0000, 78.5000]"   fractal_dimension_se="(0.0029, 0.0030]"   
   (   1)   % texture_worst="(21.00, 22.0000]"   area_se="(61.0000, 66.9000]"   symmetry_se="(0.00000, 0.0100]"   radius_worst="(9.0000, 11.7000]"   perimeter_worst="(72.0000, 78.5000]"   fractal_dimension_se="(0.0029, 0.0030]"   
   (   1))   % texture_worst="(22.000, 23.8000]"   area_se="(61.0000, 66.9000]"   symmetry_se="(0.00000, 0.0100]"   radius_worst="(9.0000, 11.7000]"   perimeter_worst="(72.0000, 78.5000]"   fractal_dimension_se="(0.0029, 0.0030]"   
   ((   1)   % texture_worst="(18.8199, 21.0000]"   area_se="(7.4300, 14.3000]"   symmetry_se="(0.00000, 0.0100]"   radius_worst="(9.0000, 11.7000]"   perimeter_worst="(72.0000, 78.5000]"   fractal_dimension_se="(0.0029, 0.0030]"   
   (   1)   % texture_worst="(21.00, 22.0000]"   area_se="(7.4300, 14.3000]"   symmetry_se="(0.00000, 0.0100]"   radius_worst="(9.0000, 11.7000]"   perimeter_worst="(72.0000, 78.5000]"   fractal_dimension_se="(0.0029, 0.0030]"   
   (   1)))   % texture_worst="(22.000, 23.8000]"   area_se="(7.4300, 14.3000]"   symmetry_se="(0.00000, 0.0100]"   radius_worst="(9.0000, 11.7000]"   perimeter_worst="(72.0000, 78.5000]"   fractal_dimension_se="(0.0029, 0.0030]"   
   (((   1)   % texture_worst="(18.8199, 21.0000]"   area_se="(14.0000, 61.0000]"   symmetry_se="(0.00000, 0.0200]"   radius_worst="(9.0000, 11.7000]"   perimeter_worst="(72.0000, 78.5000]"   fractal_dimension_se="(0.0029, 0.0030]"   
   (   1)   % texture_worst="(21.00, 22.0000]"   area_se="(14.0000, 61.0000]"   symmetry_se="(0.00000, 0.0200]"   radius_worst="(9.0000, 11.7000]"   perimeter_worst="(72.0000, 78.5000]"   fractal_dimension_se="(0.0029, 0.0030]"   
   (   1))   % texture_worst="(22.000, 23.8000]"   area_se="(14.0000, 61.0000]"   symmetry_se="(0.00000, 0.0200]"   radius_worst="(9.0000, 11.7000]"   perimeter_worst="(72.0000, 78.5000]"   fractal_dimension_se="(0.0029, 0.0030]"   
   ((   1)   % texture_worst="(18.8199, 21.0000]"   area_se="(61.0000, 66.9000]"   symmetry_se="(0.00000, 0.0200]"   radius_worst="(9.0000, 11.7000]"   perimeter_worst="(72.0000, 78.5000]"   fractal_dimension_se="(0.0029, 0.0030]"   
   (   1)   % texture_worst="(21.00, 22.0000]"   area_se="(61.0000, 66.9000]"   symmetry_se="(0.00000, 0.0200]"   radius_worst="(9.0000, 11.7000]"   perimeter_worst="(72.0000, 78.5000]"   fractal_dimension_se="(0.0029, 0.0030]"   
   (   1))   % texture_worst="(22.000, 23.8000]"   area_se="(61.0000, 66.9000]"   symmetry_se="(0.00000, 0.0200]"   radius_worst="(9.0000, 11.7000]"   perimeter_worst="(72.0000, 78.5000]"   fractal_dimension_se="(0.0029, 0.0030]"   
   ((   1)   % texture_worst="(18.8199, 21.0000]"   area_se="(7.4300, 14.3000]"   symmetry_se="(0.00000, 0.0200]"   radius_worst="(9.0000, 11.7000]"   perimeter_worst="(72.0000, 78.5000]"   fractal_dimension_se="(0.0029, 0.0030]"   
   (   1)   % texture_worst="(21.00, 22.0000]"   area_se="(7.4300, 14.3000]"   symmetry_se="(0.00000, 0.0200]"   radius_worst="(9.0000, 11.7000]"   perimeter_worst="(72.0000, 78.5000]"   fractal_dimension_se="(0.0029, 0.0030]"   
   (   1)))   % texture_worst="(22.000, 23.8000]"   area_se="(7.4300, 14.3000]"   symmetry_se="(0.00000, 0.0200]"   radius_worst="(9.0000, 11.7000]"   perimeter_worst="(72.0000, 78.5000]"   fractal_dimension_se="(0.0029, 0.0030]"   
   (((   1)   % texture_worst="(18.8199, 21.0000]"   area_se="(14.0000, 61.0000]"   symmetry_se="(0.0009, 0.0100]"   radius_worst="(9.0000, 11.7000]"   perimeter_worst="(72.0000, 78.5000]"   fractal_dimension_se="(0.0029, 0.0030]"   
   (   1)   % texture_worst="(21.00, 22.0000]"   area_se="(14.0000, 61.0000]"   symmetry_se="(0.0009, 0.0100]"   radius_worst="(9.0000, 11.7000]"   perimeter_worst="(72.0000, 78.5000]"   fractal_dimension_se="(0.0029, 0.0030]"   
   (   1))   % texture_worst="(22.000, 23.8000]"   area_se="(14.0000, 61.0000]"   symmetry_se="(0.0009, 0.0100]"   radius_worst="(9.0000, 11.7000]"   perimeter_worst="(72.0000, 78.5000]"   fractal_dimension_se="(0.0029, 0.0030]"   
   ((   1)   % texture_worst="(18.8199, 21.0000]"   area_se="(61.0000, 66.9000]"   symmetry_se="(0.0009, 0.0100]"   radius_worst="(9.0000, 11.7000]"   perimeter_worst="(72.0000, 78.5000]"   fractal_dimension_se="(0.0029, 0.0030]"   
   (   1)   % texture_worst="(21.00, 22.0000]"   area_se="(61.0000, 66.9000]"   symmetry_se="(0.0009, 0.0100]"   radius_worst="(9.0000, 11.7000]"   perimeter_worst="(72.0000, 78.5000]"   fractal_dimension_se="(0.0029, 0.0030]"   
   (   1))   % texture_worst="(22.000, 23.8000]"   area_se="(61.0000, 66.9000]"   symmetry_se="(0.0009, 0.0100]"   radius_worst="(9.0000, 11.7000]"   perimeter_worst="(72.0000, 78.5000]"   fractal_dimension_se="(0.0029, 0.0030]"   
   ((   1)   % texture_worst="(18.8199, 21.0000]"   area_se="(7.4300, 14.3000]"   symmetry_se="(0.0009, 0.0100]"   radius_worst="(9.0000, 11.7000]"   perimeter_worst="(72.0000, 78.5000]"   fractal_dimension_se="(0.0029, 0.0030]"   
   (   1)   % texture_worst="(21.00, 22.0000]"   area_se="(7.4300, 14.3000]"   symmetry_se="(0.0009, 0.0100]"   radius_worst="(9.0000, 11.7000]"   perimeter_worst="(72.0000, 78.5000]"   fractal_dimension_se="(0.0029, 0.0030]"   
   (   1)))))   % texture_worst="(22.000, 23.8000]"   area_se="(7.4300, 14.3000]"   symmetry_se="(0.0009, 0.0100]"   radius_worst="(9.0000, 11.7000]"   perimeter_worst="(72.0000, 78.5000]"   fractal_dimension_se="(0.0029, 0.0030]"   
   (((((   1)   % texture_worst="(18.8199, 21.0000]"   area_se="(14.0000, 61.0000]"   symmetry_se="(0.00000, 0.0100]"   radius_worst="(11.0000, 14.0000]"   perimeter_worst="(78.0000, 95.6000]"   fractal_dimension_se="(0.0029, 0.0030]"   
   (   1)   % texture_worst="(21.00, 22.0000]"   area_se="(14.0000, 61.0000]"   symmetry_se="(0.00000, 0.0100]"   radius_worst="(11.0000, 14.0000]"   perimeter_worst="(78.0000, 95.6000]"   fractal_dimension_se="(0.0029, 0.0030]"   
   (   1))   % texture_worst="(22.000, 23.8000]"   area_se="(14.0000, 61.0000]"   symmetry_se="(0.00000, 0.0100]"   radius_worst="(11.0000, 14.0000]"   perimeter_worst="(78.0000, 95.6000]"   fractal_dimension_se="(0.0029, 0.0030]"   
   ((   1)   % texture_worst="(18.8199, 21.0000]"   area_se="(61.0000, 66.9000]"   symmetry_se="(0.00000, 0.0100]"   radius_worst="(11.0000, 14.0000]"   perimeter_worst="(78.0000, 95.6000]"   fractal_dimension_se="(0.0029, 0.0030]"   
