
net {
  name = unnamedBN;
  software = "aGrUM 0.18.2";
  node_size = (50 50);
}

node radius_mean {
   states = ("(9.0000, 13.5000]" );
   label = "radius_mean";
   ID = "radius_mean";
}

node texture_mean {
   states = ("(13.0000, 17.1000]" "(17.0000, 18.0000]" );
   label = "texture_mean";
   ID = "texture_mean";
}

node perimeter_mean {
   states = ("(63.0000, 84.0000]" "(84.0000, 89.2000]" );
   label = "perimeter_mean";
   ID = "perimeter_mean";
}

node area_mean {
   states = ("(204.00000, 535.5000]" "(535.00000, 616.4000]" );
   label = "area_mean";
   ID = "area_mean";
}

node smoothness_mean {
   states = ("(0.0000, 0.0000]" "(0.0000, 0.0900]" );
   label = "smoothness_mean";
   ID = "smoothness_mean";
}

node compactness_mean {
   states = ("(0.00000, 0.0900]" "(0.0199, 0.0700]" );
   label = "compactness_mean";
   ID = "compactness_mean";
}

node concavity_mean {
   states = ("(-0.0029, 0.0000]" );
   label = "concavity_mean";
   ID = "concavity_mean";
}

node concave points_mean {
   states = ("(-0.0092, 0.0100]" "(0.00000, 0.0100]" "(0.00000, 0.0300]" );
   label = "concave points_mean";
   ID = "concave points_mean";
}

node symmetry_mean {
   states = ("(0.00000, 0.1500]" );
   label = "symmetry_mean";
   ID = "symmetry_mean";
}

node fractal_dimension_mean {
   states = ("(0.00000, 0.0500]" "(0.00000, 0.0600]" );
   label = "fractal_dimension_mean";
   ID = "fractal_dimension_mean";
}

node radius_se {
   states = ("(0.000, 0.2000]" "(0.000, 0.5000]" );
   label = "radius_se";
   ID = "radius_se";
}

node texture_se {
   states = ("(0.000, 0.8000]" "(0.000, 1.2000]" );
   label = "texture_se";
   ID = "texture_se";
}

node perimeter_se {
   states = ("(0.000, 1.9000]" "(1.000, 1.9000]" "(1.000, 4.0000]" );
   label = "perimeter_se";
   ID = "perimeter_se";
}

node area_se {
   states = ("(19.0000, 65.1000]" "(65.0000, 71.5000]" "(7.0000, 19.0000]" );
   label = "area_se";
   ID = "area_se";
}

node smoothness_se {
   states = ("(-0.0073, 0.0050]" "(0.0054, 0.0070]" "(0.0074, 0.0080]" );
   label = "smoothness_se";
   ID = "smoothness_se";
}

node compactness_se {
   states = ("(-0.0043, 0.0100]" "(0.00000, 0.0100]" "(0.00000, 0.0200]" );
   label = "compactness_se";
   ID = "compactness_se";
}

node concavity_se {
   states = ("(-0.0058, 0.0080]" "(0.0081, 0.0300]" );
   label = "concavity_se";
   ID = "concavity_se";
}

node concave points_se {
   states = ("(-0.00000, 0.0000]" "(0.000000, 0.0070]" );
   label = "concave points_se";
   ID = "concave points_se";
}

node symmetry_se {
   states = ("(-0.0020, 0.0100]" "(0.00000, 0.0100]" );
   label = "symmetry_se";
   ID = "symmetry_se";
}

node fractal_dimension_se {
   states = ("(-0.0089, 0.0010]" "(0.0018, 0.0020]" "(0.0023, 0.0000]" );
   label = "fractal_dimension_se";
   ID = "fractal_dimension_se";
}

node radius_worst {
   states = ("(10.8700, 13.1000]" "(13.0000, 15.4000]" "(15.0000, 15.7000]" );
   label = "radius_worst";
   ID = "radius_worst";
}

node texture_worst {
   states = ("(18.2999, 21.3000]" "(21.0000, 21.5000]" "(21.0000, 23.3000]" );
   label = "texture_worst";
   ID = "texture_worst";
}

node perimeter_worst {
   states = ("(81.00, 87.0000]" "(87.0000, 104.8000]" );
   label = "perimeter_worst";
   ID = "perimeter_worst";
}

node area_worst {
   states = ("(191.7000, 548.1000]" "(548.00000, 886.2000]" );
   label = "area_worst";
   ID = "area_worst";
}

node smoothness_worst {
   states = ("(0.00, 0.1000]" "(0.000, 0.1000]" );
   label = "smoothness_worst";
   ID = "smoothness_worst";
}

node compactness_worst {
   states = ("(0.00, 0.1000]" "(0.000, 0.2000]" );
   label = "compactness_worst";
   ID = "compactness_worst";
}

node concavity_worst {
   states = ("(-0.0074, 0.1000]" "(0.000, 0.2000]" );
   label = "concavity_worst";
   ID = "concavity_worst";
}

node concave points_worst {
   states = ("(0.00000, 0.0600]" "(0.0190, 0.0500]" );
   label = "concave points_worst";
   ID = "concave points_worst";
}

node symmetry_worst {
   states = ("(0.000, 0.2000]" "(0.000, 0.3000]" );
   label = "symmetry_worst";
   ID = "symmetry_worst";
}

node fractal_dimension_worst {
   states = ("(0.000, 0.0000]" "(0.0000, 0.0000]" );
   label = "fractal_dimension_worst";
   ID = "fractal_dimension_worst";
}

node diagnosis {
   states = (No );
   label = "diagnosis";
   ID = "diagnosis";
}

potential ( radius_mean | smoothness_se   smoothness_worst   ) {
   data = 
   (((   1)   % smoothness_worst="(0.00, 0.1000]"   smoothness_se="(-0.0073, 0.0050]"   
   (   1))   % smoothness_worst="(0.000, 0.1000]"   smoothness_se="(-0.0073, 0.0050]"   
   ((   1)   % smoothness_worst="(0.00, 0.1000]"   smoothness_se="(0.0054, 0.0070]"   
   (   1))   % smoothness_worst="(0.000, 0.1000]"   smoothness_se="(0.0054, 0.0070]"   
   ((   1)   % smoothness_worst="(0.00, 0.1000]"   smoothness_se="(0.0074, 0.0080]"   
   (   1)));   % smoothness_worst="(0.000, 0.1000]"   smoothness_se="(0.0074, 0.0080]"   
}

potential ( texture_mean | radius_mean   ) {
   data = 
   ((   0.995033   0.00496689));   % radius_mean="(9.0000, 13.5000]"   
}

potential ( perimeter_mean | concave points_mean   ) {
   data = 
   ((   0.971983   0.0280172)   % concave points_mean="(-0.0092, 0.0100]"   
   (   0.999247   0.000753012)   % concave points_mean="(0.00000, 0.0100]"   
   (   0.95   0.05));   % concave points_mean="(0.00000, 0.0300]"   
}

potential ( area_mean | concave points_mean   ) {
   data = 
   ((   0.959052   0.0409483)   % concave points_mean="(-0.0092, 0.0100]"   
   (   0.999247   0.000753012)   % concave points_mean="(0.00000, 0.0100]"   
   (   0.95   0.05));   % concave points_mean="(0.00000, 0.0300]"   
}

potential ( smoothness_mean | concave points_mean   ) {
   data = 
   ((   0.93319   0.0668103)   % concave points_mean="(-0.0092, 0.0100]"   
   (   0.999247   0.000753012)   % concave points_mean="(0.00000, 0.0100]"   
   (   0.95   0.05));   % concave points_mean="(0.00000, 0.0300]"   
}

potential ( compactness_mean | concave points_mean   ) {
   data = 
   ((   0.0538793   0.946121)   % concave points_mean="(-0.0092, 0.0100]"   
   (   0.000753012   0.999247)   % concave points_mean="(0.00000, 0.0100]"   
   (   0.05   0.95));   % concave points_mean="(0.00000, 0.0300]"   
}

potential ( concavity_mean | smoothness_se   smoothness_worst   ) {
   data = 
   (((   1)   % smoothness_worst="(0.00, 0.1000]"   smoothness_se="(-0.0073, 0.0050]"   
   (   1))   % smoothness_worst="(0.000, 0.1000]"   smoothness_se="(-0.0073, 0.0050]"   
   ((   1)   % smoothness_worst="(0.00, 0.1000]"   smoothness_se="(0.0054, 0.0070]"   
   (   1))   % smoothness_worst="(0.000, 0.1000]"   smoothness_se="(0.0054, 0.0070]"   
   ((   1)   % smoothness_worst="(0.00, 0.1000]"   smoothness_se="(0.0074, 0.0080]"   
   (   1)));   % smoothness_worst="(0.000, 0.1000]"   smoothness_se="(0.0074, 0.0080]"   
}

potential ( concave points_mean | fractal_dimension_mean   ) {
   data = 
   ((   0.000823045   0.998354   0.000823045)   % fractal_dimension_mean="(0.00000, 0.0500]"   
   (   0.775544   0.19263   0.0318258));   % fractal_dimension_mean="(0.00000, 0.0600]"   
}

potential ( symmetry_mean | smoothness_se   smoothness_worst   ) {
   data = 
   (((   1)   % smoothness_worst="(0.00, 0.1000]"   smoothness_se="(-0.0073, 0.0050]"   
   (   1))   % smoothness_worst="(0.000, 0.1000]"   smoothness_se="(-0.0073, 0.0050]"   
   ((   1)   % smoothness_worst="(0.00, 0.1000]"   smoothness_se="(0.0054, 0.0070]"   
   (   1))   % smoothness_worst="(0.000, 0.1000]"   smoothness_se="(0.0054, 0.0070]"   
   ((   1)   % smoothness_worst="(0.00, 0.1000]"   smoothness_se="(0.0074, 0.0080]"   
   (   1)));   % smoothness_worst="(0.000, 0.1000]"   smoothness_se="(0.0074, 0.0080]"   
}

potential ( fractal_dimension_mean | perimeter_se   ) {
   data = 
   ((   0.999033   0.000967118)   % perimeter_se="(0.000, 1.9000]"   
   (   0.182692   0.817308)   % perimeter_se="(1.000, 1.9000]"   
   (   0.98   0.02));   % perimeter_se="(1.000, 4.0000]"   
}

potential ( radius_se | perimeter_se   fractal_dimension_mean   ) {
   data = 
   (((   0.000484027   0.999516)   % fractal_dimension_mean="(0.00000, 0.0500]"   perimeter_se="(0.000, 1.9000]"   
   (   0.5   0.5))   % fractal_dimension_mean="(0.00000, 0.0600]"   perimeter_se="(0.000, 1.9000]"   
   ((   0.139098   0.860902)   % fractal_dimension_mean="(0.00000, 0.0500]"   perimeter_se="(1.000, 1.9000]"   
   (   0.99916   0.000840336))   % fractal_dimension_mean="(0.00000, 0.0600]"   perimeter_se="(1.000, 1.9000]"   
   ((   0.0102041   0.989796)   % fractal_dimension_mean="(0.00000, 0.0500]"   perimeter_se="(1.000, 4.0000]"   
   (   0.5   0.5)));   % fractal_dimension_mean="(0.00000, 0.0600]"   perimeter_se="(1.000, 4.0000]"   
}

potential ( texture_se | radius_se   perimeter_se   ) {
   data = 
   (((   0.5   0.5)   % perimeter_se="(0.000, 1.9000]"   radius_se="(0.000, 0.2000]"   
   (   0.999184   0.000815661)   % perimeter_se="(1.000, 1.9000]"   radius_se="(0.000, 0.2000]"   
   (   0.5   0.5))   % perimeter_se="(1.000, 4.0000]"   radius_se="(0.000, 0.2000]"   
   ((   0.999516   0.000484027)   % perimeter_se="(0.000, 1.9000]"   radius_se="(0.000, 0.5000]"   
   (   0.786957   0.213043)   % perimeter_se="(1.000, 1.9000]"   radius_se="(0.000, 0.5000]"   
   (   0.989796   0.0102041)));   % perimeter_se="(1.000, 4.0000]"   radius_se="(0.000, 0.5000]"   
}

potential ( perimeter_se | area_se   ) {
   data = 
   ((   0.99868   0.000660066   0.000660066)   % area_se="(19.0000, 65.1000]"   
   (   0.833333   0.0833333   0.0833333)   % area_se="(65.0000, 71.5000]"   
   (   0.0235097   0.915197   0.061293));   % area_se="(7.0000, 19.0000]"   
}

potential ( area_se | smoothness_se   ) {
   data = 
   ((   0.0895976   0.00759301   0.902809)   % smoothness_se="(-0.0073, 0.0050]"   
   (   0.99856   0.000719942   0.000719942)   % smoothness_se="(0.0054, 0.0070]"   
   (   0.833333   0.0833333   0.0833333));   % smoothness_se="(0.0074, 0.0080]"   
}

potential ( smoothness_se | compactness_se   ) {
   data = 
   ((   0.946724   0.0460763   0.00719942)   % compactness_se="(-0.0043, 0.0100]"   
   (   0.000786164   0.998428   0.000786164)   % compactness_se="(0.00000, 0.0100]"   
   (   0.0175439   0.964912   0.0175439));   % compactness_se="(0.00000, 0.0200]"   
}

potential ( compactness_se | concavity_se   ) {
   data = 
   ((   0.931521   0.0312185   0.0372608)   % concavity_se="(-0.0058, 0.0080]"   
   (   0.001221   0.997558   0.001221));   % concavity_se="(0.0081, 0.0300]"   
}

potential ( concavity_se | concave points_se   ) {
   data = 
   ((   0.936261   0.0637394)   % concave points_se="(-0.00000, 0.0000]"   
   (   0.00199203   0.998008));   % concave points_se="(0.000000, 0.0070]"   
}

potential ( concave points_se | symmetry_se   ) {
   data = 
   ((   0.00220264   0.997797)   % symmetry_se="(-0.0020, 0.0100]"   
   (   0.935013   0.0649867));   % symmetry_se="(0.00000, 0.0100]"   
}

potential ( symmetry_se | fractal_dimension_se   ) {
   data = 
   ((   0.0317324   0.968268)   % fractal_dimension_se="(-0.0089, 0.0010]"   
   (   0.998387   0.0016129)   % fractal_dimension_se="(0.0018, 0.0020]"   
   (   0.961538   0.0384615));   % fractal_dimension_se="(0.0023, 0.0000]"   
}

potential ( fractal_dimension_se | radius_worst   ) {
   data = 
   ((   0.949973   0.0299076   0.0201196)   % radius_worst="(10.8700, 13.1000]"   
   (   0.0011534   0.997693   0.0011534)   % radius_worst="(13.0000, 15.4000]"   
   (   0.0833333   0.833333   0.0833333));   % radius_worst="(15.0000, 15.7000]"   
}

potential ( radius_worst | texture_worst   ) {
   data = 
   ((   0.947884   0.0469556   0.00515996)   % texture_worst="(18.2999, 21.3000]"   
   (   0.00134953   0.997301   0.00134953)   % texture_worst="(21.0000, 21.5000]"   
   (   0.025641   0.948718   0.025641));   % texture_worst="(21.0000, 23.3000]"   
}

potential ( texture_worst | perimeter_worst   ) {
   data = 
   ((   0.728144   0.257755   0.0141004)   % perimeter_worst="(81.00, 87.0000]"   
   (   0.025641   0.948718   0.025641));   % perimeter_worst="(87.0000, 104.8000]"   
}

potential (perimeter_worst) {
   data = (  0.978477 0.0215232);
}

potential ( area_worst | texture_worst   perimeter_worst   ) {
   data = 
   (((   0.999613   0.000387297)   % perimeter_worst="(81.00, 87.0000]"   texture_worst="(18.2999, 21.3000]"   
   (   0.5   0.5))   % perimeter_worst="(87.0000, 104.8000]"   texture_worst="(18.2999, 21.3000]"   
   ((   0.132385   0.867615)   % perimeter_worst="(81.00, 87.0000]"   texture_worst="(21.0000, 21.5000]"   
   (   0.986486   0.0135135))   % perimeter_worst="(87.0000, 104.8000]"   texture_worst="(21.0000, 21.5000]"   
   ((   0.98   0.02)   % perimeter_worst="(81.00, 87.0000]"   texture_worst="(21.0000, 23.3000]"   
   (   0.5   0.5)));   % perimeter_worst="(87.0000, 104.8000]"   texture_worst="(21.0000, 23.3000]"   
}

potential ( smoothness_worst | area_worst   ) {
   data = 
   ((   0.998938   0.00106157)   % area_worst="(191.7000, 548.1000]"   
   (   0.154135   0.845865));   % area_worst="(548.00000, 886.2000]"   
}

potential ( compactness_worst | smoothness_worst   ) {
   data = 
   ((   0.998982   0.00101833)   % smoothness_worst="(0.00, 0.1000]"   
   (   0.181416   0.818584));   % smoothness_worst="(0.000, 0.1000]"   
}

potential ( concavity_worst | compactness_worst   ) {
   data = 
   ((   0.999022   0.000978474)   % compactness_worst="(0.00, 0.1000]"   
   (   0.284946   0.715054));   % compactness_worst="(0.000, 0.2000]"   
}

potential ( concave points_worst | concavity_worst   ) {
   data = 
   ((   0.000931099   0.999069)   % concavity_worst="(-0.0074, 0.1000]"   
   (   0.0671642   0.932836));   % concavity_worst="(0.000, 0.2000]"   
}

potential ( symmetry_worst | fractal_dimension_worst   concavity_worst   ) {
   data = 
   (((   0.5   0.5)   % concavity_worst="(-0.0074, 0.1000]"   fractal_dimension_worst="(0.000, 0.0000]"   
   (   0.97619   0.0238095))   % concavity_worst="(0.000, 0.2000]"   fractal_dimension_worst="(0.000, 0.0000]"   
   ((   0.999534   0.000465983)   % concavity_worst="(-0.0074, 0.1000]"   fractal_dimension_worst="(0.0000, 0.0000]"   
   (   0.853982   0.146018)));   % concavity_worst="(0.000, 0.2000]"   fractal_dimension_worst="(0.0000, 0.0000]"   
}

potential ( fractal_dimension_worst | concavity_worst   ) {
   data = 
   ((   0.000931099   0.999069)   % concavity_worst="(-0.0074, 0.1000]"   
   (   0.156716   0.843284));   % concavity_worst="(0.000, 0.2000]"   
}

potential ( diagnosis | smoothness_se   smoothness_worst   ) {
   data = 
   (((   1)   % smoothness_worst="(0.00, 0.1000]"   smoothness_se="(-0.0073, 0.0050]"   
   (   1))   % smoothness_worst="(0.000, 0.1000]"   smoothness_se="(-0.0073, 0.0050]"   
   ((   1)   % smoothness_worst="(0.00, 0.1000]"   smoothness_se="(0.0054, 0.0070]"   
   (   1))   % smoothness_worst="(0.000, 0.1000]"   smoothness_se="(0.0054, 0.0070]"   
   ((   1)   % smoothness_worst="(0.00, 0.1000]"   smoothness_se="(0.0074, 0.0080]"   
   (   1)));   % smoothness_worst="(0.000, 0.1000]"   smoothness_se="(0.0074, 0.0080]"   
}


