
net {
  name = unnamedBN;
  software = "aGrUM 0.18.2";
  node_size = (50 50);
}

node Pregnancies {
   states = ("(0.0000, 2.3000]" "(2.00, 2.0000]" );
   label = "Pregnancies";
   ID = "Pregnancies";
}

node Glucose {
   states = ("(79.0000, 93.3000]" "(93.00000, 118.4000]" );
   label = "Glucose";
   ID = "Glucose";
}

node BloodPressure {
   states = ("(60.000, 72.0000]" "(72.000, 74.5000]" "(74.0000, 84.0000]" );
   label = "BloodPressure";
   ID = "BloodPressure";
}

node SkinThickness {
   states = ("(20.1199, 25.5000]" "(25.000, 30.0000]" "(30.000, 39.7000]" );
   label = "SkinThickness";
   ID = "SkinThickness";
}

node Insulin {
   states = ("(0.0000, 18.0000]" "(18.0000, 26.6000]" "(26.0000, 94.1000]" );
   label = "Insulin";
   ID = "Insulin";
}

node BMI {
   states = ("(32.000, 38.0000]" "(38.000, 41.3000]" "(41.0000, 44.9000]" );
   label = "BMI";
   ID = "BMI";
}

node DiabetesPedigreeFunction {
   states = ("(0.00, 0.0000]" "(0.1699, 0.4000]" );
   label = "DiabetesPedigreeFunction";
   ID = "DiabetesPedigreeFunction";
}

node Age {
   states = ("(20.0000, 26.9000]" );
   label = "Age";
   ID = "Age";
}

node Diabetes? {
   states = (No );
   label = "Diabetes?";
   ID = "Diabetes?";
}

potential ( Pregnancies | Glucose   ) {
   data = 
   ((   0.998952   0.00104822)   % Glucose="(79.0000, 93.3000]"   
   (   0.907407   0.0925926));   % Glucose="(93.00000, 118.4000]"   
}

potential ( Glucose | BloodPressure   ) {
   data = 
   ((   0.295455   0.704545)   % BloodPressure="(60.000, 72.0000]"   
   (   0.999138   0.000862069)   % BloodPressure="(72.000, 74.5000]"   
   (   0.990385   0.00961538));   % BloodPressure="(74.0000, 84.0000]"   
}

potential ( BloodPressure | SkinThickness   ) {
   data = 
   ((   0.000688705   0.998623   0.000688705)   % SkinThickness="(20.1199, 25.5000]"   
   (   0.790397   0.0674054   0.142198)   % SkinThickness="(25.000, 30.0000]"   
   (   0.00456621   0.990868   0.00456621));   % SkinThickness="(30.000, 39.7000]"   
}

potential (SkinThickness) {
   data = (  0.527233 0.393246 0.0795207);
}

potential ( Insulin | SkinThickness   ) {
   data = 
   ((   0.0998623   0.725895   0.174242)   % SkinThickness="(20.1199, 25.5000]"   
   (   0.998153   0.000923361   0.000923361)   % SkinThickness="(25.000, 30.0000]"   
   (   0.990868   0.00456621   0.00456621));   % SkinThickness="(30.000, 39.7000]"   
}

potential ( BMI | Insulin   ) {
   data = 
   ((   0.998614   0.000693001   0.000693001)   % Insulin="(0.0000, 18.0000]"   
   (   0.171402   0.75947   0.0691288)   % Insulin="(18.0000, 26.6000]"   
   (   0.992157   0.00392157   0.00392157));   % Insulin="(26.0000, 94.1000]"   
}

potential ( DiabetesPedigreeFunction | BMI   ) {
   data = 
   ((   0.0008   0.9992)   % BMI="(32.000, 38.0000]"   
   (   0.214552   0.785448)   % BMI="(38.000, 41.3000]"   
   (   0.02   0.98));   % BMI="(41.0000, 44.9000]"   
}

potential ( Age | Pregnancies   BloodPressure   ) {
   data = 
   (((   1)   % BloodPressure="(60.000, 72.0000]"   Pregnancies="(0.0000, 2.3000]"   
   (   1)   % BloodPressure="(72.000, 74.5000]"   Pregnancies="(0.0000, 2.3000]"   
   (   1))   % BloodPressure="(74.0000, 84.0000]"   Pregnancies="(0.0000, 2.3000]"   
   ((   1)   % BloodPressure="(60.000, 72.0000]"   Pregnancies="(2.00, 2.0000]"   
   (   1)   % BloodPressure="(72.000, 74.5000]"   Pregnancies="(2.00, 2.0000]"   
   (   1)));   % BloodPressure="(74.0000, 84.0000]"   Pregnancies="(2.00, 2.0000]"   
}

potential ( Diabetes? | Pregnancies   BloodPressure   ) {
   data = 
   (((   1)   % BloodPressure="(60.000, 72.0000]"   Pregnancies="(0.0000, 2.3000]"   
   (   1)   % BloodPressure="(72.000, 74.5000]"   Pregnancies="(0.0000, 2.3000]"   
   (   1))   % BloodPressure="(74.0000, 84.0000]"   Pregnancies="(0.0000, 2.3000]"   
   ((   1)   % BloodPressure="(60.000, 72.0000]"   Pregnancies="(2.00, 2.0000]"   
   (   1)   % BloodPressure="(72.000, 74.5000]"   Pregnancies="(2.00, 2.0000]"   
   (   1)));   % BloodPressure="(74.0000, 84.0000]"   Pregnancies="(2.00, 2.0000]"   
}


