
net {
  name = unnamedBN;
  software = "aGrUM 0.18.2";
  node_size = (50 50);
}

node Pregnancies {
   states = ("(3.000, 6.3000]" "(6.00, 6.0000]" );
   label = "Pregnancies";
   ID = "Pregnancies";
}

node Glucose {
   states = ("(79.0000, 93.3000]" "(93.00000, 118.4000]" );
   label = "Glucose";
   ID = "Glucose";
}

node BloodPressure {
   states = ("(42.000, 54.0000]" "(54.000, 56.5000]" "(56.0000, 66.0000]" );
   label = "BloodPressure";
   ID = "BloodPressure";
}

node SkinThickness {
   states = ("(18.1199, 23.5000]" "(23.000, 28.0000]" "(28.000, 37.7000]" );
   label = "SkinThickness";
   ID = "SkinThickness";
}

node Insulin {
   states = ("(0.0000, 43.5000]" "(43.0000, 82.9000]" "(82.0000, 153.0000]" );
   label = "Insulin";
   ID = "Insulin";
}

node BMI {
   states = ("(27.000, 34.0000]" "(34.000, 36.7000]" "(36.0000, 40.3000]" );
   label = "BMI";
   ID = "BMI";
}

node DiabetesPedigreeFunction {
   states = ("(0.00, 0.0000]" "(0.00, 0.6000]" );
   label = "DiabetesPedigreeFunction";
   ID = "DiabetesPedigreeFunction";
}

node Age {
   states = ("(26.0000, 31.5000]" "(31.0000, 37.4000]" );
   label = "Age";
   ID = "Age";
}

node Diabetes? {
   states = (No Yes );
   label = "Diabetes?";
   ID = "Diabetes?";
}

potential ( Pregnancies | Glucose   Diabetes?   ) {
   data = 
   (((   0.999417   0.000583431)   % Diabetes?=No   Glucose="(79.0000, 93.3000]"   
   (   0.994845   0.00515464))   % Diabetes?=Yes   Glucose="(79.0000, 93.3000]"   
   ((   0.85503   0.14497)   % Diabetes?=No   Glucose="(93.00000, 118.4000]"   
   (   0.99505   0.0049505)));   % Diabetes?=Yes   Glucose="(93.00000, 118.4000]"   
}

potential ( Glucose | BloodPressure   ) {
   data = 
   ((   0.295455   0.704545)   % BloodPressure="(42.000, 54.0000]"   
   (   0.999138   0.000862069)   % BloodPressure="(54.000, 56.5000]"   
   (   0.990385   0.00961538));   % BloodPressure="(56.0000, 66.0000]"   
}

potential ( BloodPressure | SkinThickness   ) {
   data = 
   ((   0.000688705   0.998623   0.000688705)   % SkinThickness="(18.1199, 23.5000]"   
   (   0.790397   0.0674054   0.142198)   % SkinThickness="(23.000, 28.0000]"   
   (   0.00456621   0.990868   0.00456621));   % SkinThickness="(28.000, 37.7000]"   
}

potential (SkinThickness) {
   data = (  0.527233 0.393246 0.0795207);
}

potential ( Insulin | SkinThickness   ) {
   data = 
   ((   0.769284   0.130854   0.0998623)   % SkinThickness="(18.1199, 23.5000]"   
   (   0.000923361   0.998153   0.000923361)   % SkinThickness="(23.000, 28.0000]"   
   (   0.00456621   0.990868   0.00456621));   % SkinThickness="(28.000, 37.7000]"   
}

potential ( BMI | Insulin   ) {
   data = 
   ((   0.218052   0.716711   0.0652368)   % Insulin="(0.0000, 43.5000]"   
   (   0.998656   0.000672043   0.000672043)   % Insulin="(43.0000, 82.9000]"   
   (   0.986395   0.00680272   0.00680272));   % Insulin="(82.0000, 153.0000]"   
}

potential ( DiabetesPedigreeFunction | BMI   Age   Diabetes?   ) {
   data = 
   ((((   0.999761   0.000239349)   % Diabetes?=No   Age="(26.0000, 31.5000]"   BMI="(27.000, 34.0000]"   
   (   0.998778   0.00122249))   % Diabetes?=Yes   Age="(26.0000, 31.5000]"   BMI="(27.000, 34.0000]"   
   ((   0.5   0.5)   % Diabetes?=No   Age="(31.0000, 37.4000]"   BMI="(27.000, 34.0000]"   
   (   0.5   0.5)))   % Diabetes?=Yes   Age="(31.0000, 37.4000]"   BMI="(27.000, 34.0000]"   
   (((   0.845711   0.154289)   % Diabetes?=No   Age="(26.0000, 31.5000]"   BMI="(34.000, 36.7000]"   
   (   0.00458716   0.995413))   % Diabetes?=Yes   Age="(26.0000, 31.5000]"   BMI="(34.000, 36.7000]"   
   ((   0.995413   0.00458716)   % Diabetes?=No   Age="(31.0000, 37.4000]"   BMI="(34.000, 36.7000]"   
   (   0.993151   0.00684932)))   % Diabetes?=Yes   Age="(31.0000, 37.4000]"   BMI="(34.000, 36.7000]"   
   (((   0.994845   0.00515464)   % Diabetes?=No   Age="(26.0000, 31.5000]"   BMI="(36.0000, 40.3000]"   
   (   0.5   0.5))   % Diabetes?=Yes   Age="(26.0000, 31.5000]"   BMI="(36.0000, 40.3000]"   
   ((   0.5   0.5)   % Diabetes?=No   Age="(31.0000, 37.4000]"   BMI="(36.0000, 40.3000]"   
   (   0.5   0.5))));   % Diabetes?=Yes   Age="(31.0000, 37.4000]"   BMI="(36.0000, 40.3000]"   
}

potential ( Age | BMI   ) {
   data = 
   ((   0.9992   0.0008)   % BMI="(27.000, 34.0000]"   
   (   0.830224   0.169776)   % BMI="(34.000, 36.7000]"   
   (   0.98   0.02));   % BMI="(36.0000, 40.3000]"   
}

potential ( Diabetes? | BloodPressure   BMI   ) {
   data = 
   (((   0.641939   0.358061)   % BMI="(27.000, 34.0000]"   BloodPressure="(42.000, 54.0000]"   
   (   0.5   0.5)   % BMI="(34.000, 36.7000]"   BloodPressure="(42.000, 54.0000]"   
   (   0.5   0.5))   % BMI="(36.0000, 40.3000]"   BloodPressure="(42.000, 54.0000]"   
   ((   0.999422   0.000578035)   % BMI="(27.000, 34.0000]"   BloodPressure="(54.000, 56.5000]"   
   (   0.831047   0.168953)   % BMI="(34.000, 36.7000]"   BloodPressure="(54.000, 56.5000]"   
   (   0.993151   0.00684932))   % BMI="(36.0000, 40.3000]"   BloodPressure="(54.000, 56.5000]"   
   ((   0.996753   0.00324675)   % BMI="(27.000, 34.0000]"   BloodPressure="(56.0000, 66.0000]"   
   (   0.5   0.5)   % BMI="(34.000, 36.7000]"   BloodPressure="(56.0000, 66.0000]"   
   (   0.5   0.5)));   % BMI="(36.0000, 40.3000]"   BloodPressure="(56.0000, 66.0000]"   
}


