
net {
  name = unnamedBN;
  software = "aGrUM 0.17.0";
  node_size = (50 50);
}

node Pregnancies {
   states = ("(0.0000, 15.0000]" "(15.0000, 16.9000]" );
   label = "Pregnancies";
   ID = "Pregnancies";
}

node Glucose {
   states = ("(3.000, 71.0000]" "(71.0000, 196.9000]" );
   label = "Glucose";
   ID = "Glucose";
}

node BloodPressure {
   states = ("(5.0000, 75.5000]" "(75.0000, 77.9000]" "(77.0000, 121.0000]" );
   label = "BloodPressure";
   ID = "BloodPressure";
}

node SkinThickness {
   states = ("(0.0000, 23.6000]" "(23.000, 26.0000]" "(26.000, 84.8000]" );
   label = "SkinThickness";
   ID = "SkinThickness";
}

node Insulin {
   states = ("(150.00000, 531.0000]" "(2.6100, 70.9000]" "(70.00000, 150.4000]" );
   label = "Insulin";
   ID = "Insulin";
}

node BMI {
   states = ("(1.000, 29.0000]" "(29.000, 47.1000]" "(47.000, 65.0000]" );
   label = "BMI";
   ID = "BMI";
}

node DiabetesPedigreeFunction {
   states = ("(0.000, 1.9000]" "(0.0860, 0.7000]" );
   label = "DiabetesPedigreeFunction";
   ID = "DiabetesPedigreeFunction";
}

node Age {
   states = ("(22.0000, 38.6000]" "(38.0000, 73.9000]" );
   label = "Age";
   ID = "Age";
}

node Diabetes? {
   states = (No Yes );
   label = "Diabetes?";
   ID = "Diabetes?";
}

potential ( Pregnancies | Glucose   Diabetes?   ) {
   data = 
   (((   0.997041   0.00295858)   % Glucose="(3.000, 71.0000]"   Diabetes?=No   
   (   0.994118   0.00588235))   % Glucose="(71.0000, 196.9000]"   Diabetes?=No   
   ((   0.999363   0.000636943)   % Glucose="(3.000, 71.0000]"   Diabetes?=Yes   
   (   0.867568   0.132432)));   % Glucose="(71.0000, 196.9000]"   Diabetes?=Yes   
}

potential ( Glucose | BloodPressure   ) {
   data = 
   ((   0.999211   0.000788644)   % BloodPressure="(5.0000, 75.5000]"   
   (   0.142553   0.857447)   % BloodPressure="(75.0000, 77.9000]"   
   (   0.989796   0.0102041));   % BloodPressure="(77.0000, 121.0000]"   
}

potential ( BloodPressure | SkinThickness   ) {
   data = 
   ((   0.998623   0.000688705   0.000688705)   % SkinThickness="(0.0000, 23.6000]"   
   (   0.183044   0.677264   0.139692)   % SkinThickness="(23.000, 26.0000]"   
   (   0.992424   0.00378788   0.00378788));   % SkinThickness="(26.000, 84.8000]"   
}

potential ( SkinThickness | Insulin   ) {
   data = 
   ((   0.992157   0.00392157   0.00392157)   % Insulin="(150.00000, 531.0000]"   
   (   0.0774698   0.736318   0.186212)   % Insulin="(2.6100, 70.9000]"   
   (   0.998168   0.000915751   0.000915751));   % Insulin="(70.00000, 150.4000]"   
}

potential (Insulin) {
   data = (  0.0925926 0.510893 0.396514);
}

potential ( BMI | Insulin   ) {
   data = 
   ((   0.992157   0.00392157   0.00392157)   % Insulin="(150.00000, 531.0000]"   
   (   0.998579   0.000710732   0.000710732)   % Insulin="(2.6100, 70.9000]"   
   (   0.149267   0.783883   0.0668498));   % Insulin="(70.00000, 150.4000]"   
}

potential ( DiabetesPedigreeFunction | BMI   ) {
   data = 
   ((   0.000823723   0.999176)   % BMI="(1.000, 29.0000]"   
   (   0.694056   0.305944)   % BMI="(29.000, 47.1000]"   
   (   0.02   0.98));   % BMI="(47.000, 65.0000]"   
}

potential ( Age | DiabetesPedigreeFunction   ) {
   data = 
   ((   0.620301   0.379699)   % DiabetesPedigreeFunction="(0.000, 1.9000]"   
   (   0.998956   0.00104384));   % DiabetesPedigreeFunction="(0.0860, 0.7000]"   
}

potential ( Diabetes? | SkinThickness   DiabetesPedigreeFunction   ) {
   data = 
   (((   0.00125945   0.998741)   % SkinThickness="(0.0000, 23.6000]"   DiabetesPedigreeFunction="(0.000, 1.9000]"   
   (   0.5   0.5)   % SkinThickness="(23.000, 26.0000]"   DiabetesPedigreeFunction="(0.000, 1.9000]"   
   (   0.5   0.5))   % SkinThickness="(26.000, 84.8000]"   DiabetesPedigreeFunction="(0.000, 1.9000]"   
   ((   0.0954466   0.904553)   % SkinThickness="(0.0000, 23.6000]"   DiabetesPedigreeFunction="(0.0860, 0.7000]"   
   (   0.365412   0.634588)   % SkinThickness="(23.000, 26.0000]"   DiabetesPedigreeFunction="(0.0860, 0.7000]"   
   (   0.414286   0.585714)));   % SkinThickness="(26.000, 84.8000]"   DiabetesPedigreeFunction="(0.0860, 0.7000]"   
}


