
net {
  name = unnamedBN;
  software = "aGrUM 0.17.0";
  node_size = (50 50);
}

node Pregnancies {
   states = ("(0.0000, 15.0000]" "(15.0000, 16.9000]" );
   label = "Pregnancies";
   ID = "Pregnancies";
}

node Glucose {
   states = ("(3.0900, 65.0000]" "(65.0000, 179.0000]" );
   label = "Glucose";
   ID = "Glucose";
}

node BloodPressure {
   states = ("(5.0000, 75.5000]" "(75.0000, 77.9000]" "(77.0000, 121.0000]" );
   label = "BloodPressure";
   ID = "BloodPressure";
}

node SkinThickness {
   states = ("(-0.0000, 16.4000]" "(16.000, 59.0000]" );
   label = "SkinThickness";
   ID = "SkinThickness";
}

node Insulin {
   states = ("(-0.00000, 131.9000]" "(131.00000, 465.8000]" );
   label = "Insulin";
   ID = "Insulin";
}

node BMI {
   states = ("(1.000, 32.0000]" "(32.000, 47.1000]" "(47.000, 65.0000]" );
   label = "BMI";
   ID = "BMI";
}

node DiabetesPedigreeFunction {
   states = ("(0.000, 1.6000]" "(0.0000, 0.3000]" );
   label = "DiabetesPedigreeFunction";
   ID = "DiabetesPedigreeFunction";
}

node Age {
   states = ("(23.0000, 44.5000]" "(44.0000, 79.8000]" );
   label = "Age";
   ID = "Age";
}

node Diabetes? {
   states = (No Yes );
   label = "Diabetes?";
   ID = "Diabetes?";
}

potential ( Pregnancies | BloodPressure   Diabetes?   ) {
   data = 
   (((   0.998233   0.00176678)   % BloodPressure="(5.0000, 75.5000]"   Diabetes?=No   
   (   0.997872   0.00212766)   % BloodPressure="(75.0000, 77.9000]"   Diabetes?=No   
   (   0.994505   0.00549451))   % BloodPressure="(77.0000, 121.0000]"   Diabetes?=No   
   ((   0.999492   0.000507614)   % BloodPressure="(5.0000, 75.5000]"   Diabetes?=Yes   
   (   0.844681   0.155319)   % BloodPressure="(75.0000, 77.9000]"   Diabetes?=Yes   
   (   0.928571   0.0714286)));   % BloodPressure="(77.0000, 121.0000]"   Diabetes?=Yes   
}

potential ( Glucose | Diabetes?   BloodPressure   Pregnancies   ) {
   data = 
   ((((   0.999115   0.000884956)   % Diabetes?=No   BloodPressure="(5.0000, 75.5000]"   Pregnancies="(0.0000, 15.0000]"   
   (   0.999746   0.000253936))   % Diabetes?=Yes   BloodPressure="(5.0000, 75.5000]"   Pregnancies="(0.0000, 15.0000]"   
   ((   0.998934   0.0010661)   % Diabetes?=No   BloodPressure="(75.0000, 77.9000]"   Pregnancies="(0.0000, 15.0000]"   
   (   0.152393   0.847607))   % Diabetes?=Yes   BloodPressure="(75.0000, 77.9000]"   Pregnancies="(0.0000, 15.0000]"   
   ((   0.997238   0.00276243)   % Diabetes?=No   BloodPressure="(77.0000, 121.0000]"   Pregnancies="(0.0000, 15.0000]"   
   (   0.961538   0.0384615)))   % Diabetes?=Yes   BloodPressure="(77.0000, 121.0000]"   Pregnancies="(0.0000, 15.0000]"   
   (((   0.5   0.5)   % Diabetes?=No   BloodPressure="(5.0000, 75.5000]"   Pregnancies="(15.0000, 16.9000]"   
   (   0.5   0.5))   % Diabetes?=Yes   BloodPressure="(5.0000, 75.5000]"   Pregnancies="(15.0000, 16.9000]"   
   ((   0.5   0.5)   % Diabetes?=No   BloodPressure="(75.0000, 77.9000]"   Pregnancies="(15.0000, 16.9000]"   
   (   0.993151   0.00684932))   % Diabetes?=Yes   BloodPressure="(75.0000, 77.9000]"   Pregnancies="(15.0000, 16.9000]"   
   ((   0.5   0.5)   % Diabetes?=No   BloodPressure="(77.0000, 121.0000]"   Pregnancies="(15.0000, 16.9000]"   
   (   0.5   0.5))));   % Diabetes?=Yes   BloodPressure="(77.0000, 121.0000]"   Pregnancies="(15.0000, 16.9000]"   
}

potential ( BloodPressure | Diabetes?   BMI   SkinThickness   ) {
   data = 
   ((((   0.250096   0.541426   0.208478)   % Diabetes?=No   BMI="(1.000, 32.0000]"   SkinThickness="(-0.0000, 16.4000]"   
   (   0.618821   0.371398   0.0097806))   % Diabetes?=Yes   BMI="(1.000, 32.0000]"   SkinThickness="(-0.0000, 16.4000]"   
   ((   0.333333   0.333333   0.333333)   % Diabetes?=No   BMI="(32.000, 47.1000]"   SkinThickness="(-0.0000, 16.4000]"   
   (   0.99939   0.000304971   0.000304971))   % Diabetes?=Yes   BMI="(32.000, 47.1000]"   SkinThickness="(-0.0000, 16.4000]"   
   ((   0.333333   0.333333   0.333333)   % Diabetes?=No   BMI="(47.000, 65.0000]"   SkinThickness="(-0.0000, 16.4000]"   
   (   0.993127   0.00343643   0.00343643)))   % Diabetes?=Yes   BMI="(47.000, 65.0000]"   SkinThickness="(-0.0000, 16.4000]"   
   (((   0.99809   0.00095511   0.00095511)   % Diabetes?=No   BMI="(1.000, 32.0000]"   SkinThickness="(16.000, 59.0000]"   
   (   0.333333   0.333333   0.333333))   % Diabetes?=Yes   BMI="(1.000, 32.0000]"   SkinThickness="(16.000, 59.0000]"   
   ((   0.333333   0.333333   0.333333)   % Diabetes?=No   BMI="(32.000, 47.1000]"   SkinThickness="(16.000, 59.0000]"   
   (   0.333333   0.333333   0.333333))   % Diabetes?=Yes   BMI="(32.000, 47.1000]"   SkinThickness="(16.000, 59.0000]"   
   ((   0.333333   0.333333   0.333333)   % Diabetes?=No   BMI="(47.000, 65.0000]"   SkinThickness="(16.000, 59.0000]"   
   (   0.333333   0.333333   0.333333))));   % Diabetes?=Yes   BMI="(47.000, 65.0000]"   SkinThickness="(16.000, 59.0000]"   
}

potential ( SkinThickness | Diabetes?   ) {
   data = 
   ((   0.711823   0.288177)   % Diabetes?=No   
   (   0.998778   0.00122249));   % Diabetes?=Yes   
}

potential ( Insulin | BMI   Diabetes?   BloodPressure   ) {
   data = 
   ((((   0.99941   0.000590319)   % BMI="(1.000, 32.0000]"   Diabetes?=No   BloodPressure="(5.0000, 75.5000]"   
   (   0.5   0.5)   % BMI="(32.000, 47.1000]"   Diabetes?=No   BloodPressure="(5.0000, 75.5000]"   
   (   0.5   0.5))   % BMI="(47.000, 65.0000]"   Diabetes?=No   BloodPressure="(5.0000, 75.5000]"   
   ((   0.569172   0.430828)   % BMI="(1.000, 32.0000]"   Diabetes?=Yes   BloodPressure="(5.0000, 75.5000]"   
   (   0.999695   0.000305064)   % BMI="(32.000, 47.1000]"   Diabetes?=Yes   BloodPressure="(5.0000, 75.5000]"   
   (   0.996552   0.00344828)))   % BMI="(47.000, 65.0000]"   Diabetes?=Yes   BloodPressure="(5.0000, 75.5000]"   
   (((   0.999289   0.000711238)   % BMI="(1.000, 32.0000]"   Diabetes?=No   BloodPressure="(75.0000, 77.9000]"   
   (   0.5   0.5)   % BMI="(32.000, 47.1000]"   Diabetes?=No   BloodPressure="(75.0000, 77.9000]"   
   (   0.5   0.5))   % BMI="(47.000, 65.0000]"   Diabetes?=No   BloodPressure="(75.0000, 77.9000]"   
   ((   0.999289   0.000711238)   % BMI="(1.000, 32.0000]"   Diabetes?=Yes   BloodPressure="(75.0000, 77.9000]"   
   (   0.5   0.5)   % BMI="(32.000, 47.1000]"   Diabetes?=Yes   BloodPressure="(75.0000, 77.9000]"   
   (   0.5   0.5)))   % BMI="(47.000, 65.0000]"   Diabetes?=Yes   BloodPressure="(75.0000, 77.9000]"   
   (((   0.998155   0.00184502)   % BMI="(1.000, 32.0000]"   Diabetes?=No   BloodPressure="(77.0000, 121.0000]"   
   (   0.5   0.5)   % BMI="(32.000, 47.1000]"   Diabetes?=No   BloodPressure="(77.0000, 121.0000]"   
   (   0.5   0.5))   % BMI="(47.000, 65.0000]"   Diabetes?=No   BloodPressure="(77.0000, 121.0000]"   
   ((   0.973684   0.0263158)   % BMI="(1.000, 32.0000]"   Diabetes?=Yes   BloodPressure="(77.0000, 121.0000]"   
   (   0.5   0.5)   % BMI="(32.000, 47.1000]"   Diabetes?=Yes   BloodPressure="(77.0000, 121.0000]"   
   (   0.5   0.5))));   % BMI="(47.000, 65.0000]"   Diabetes?=Yes   BloodPressure="(77.0000, 121.0000]"   
}

potential ( BMI | DiabetesPedigreeFunction   ) {
   data = 
   ((   0.00239808   0.995204   0.00239808)   % DiabetesPedigreeFunction="(0.000, 1.6000]"   
   (   0.871741   0.093728   0.0345314));   % DiabetesPedigreeFunction="(0.0000, 0.3000]"   
}

potential (DiabetesPedigreeFunction) {
   data = (  0.227124 0.772876);
}

potential ( Age | DiabetesPedigreeFunction   ) {
   data = 
   ((   0.751799   0.248201)   % DiabetesPedigreeFunction="(0.000, 1.6000]"   
   (   0.998943   0.00105708));   % DiabetesPedigreeFunction="(0.0000, 0.3000]"   
}

potential ( Diabetes? | BMI   ) {
   data = 
   ((   0.490307   0.509693)   % BMI="(1.000, 32.0000]"   
   (   0.00182482   0.998175)   % BMI="(32.000, 47.1000]"   
   (   0.02   0.98));   % BMI="(47.000, 65.0000]"   
}


