
net {
  name = unnamedBN;
  software = "aGrUM 0.18.2";
  node_size = (50 50);
}

node Pregnancies {
   states = ("(2.000, 5.3000]" "(5.00, 5.0000]" );
   label = "Pregnancies";
   ID = "Pregnancies";
}

node Glucose {
   states = ("(63.0000, 77.3000]" "(77.00000, 102.4000]" );
   label = "Glucose";
   ID = "Glucose";
}

node BloodPressure {
   states = ("(74.000, 86.0000]" "(86.000, 88.5000]" "(88.0000, 98.0000]" );
   label = "BloodPressure";
   ID = "BloodPressure";
}

node SkinThickness {
   states = ("(14.000, 19.0000]" "(19.000, 28.7000]" "(9.1200, 14.5000]" );
   label = "SkinThickness";
   ID = "SkinThickness";
}

node Insulin {
   states = ("(-0.000, 22.0000]" "(22.000, 77.6000]" );
   label = "Insulin";
   ID = "Insulin";
}

node BMI {
   states = ("(22.000, 29.0000]" "(29.000, 32.0000]" "(32.0000, 35.6000]" );
   label = "BMI";
   ID = "BMI";
}

node DiabetesPedigreeFunction {
   states = ("(0.000, 0.5000]" "(0.0000, 0.3000]" );
   label = "DiabetesPedigreeFunction";
   ID = "DiabetesPedigreeFunction";
}

node Age {
   states = ("(30.0000, 36.2000]" "(36.0000, 42.1000]" );
   label = "Age";
   ID = "Age";
}

node Diabetes? {
   states = (No );
   label = "Diabetes?";
   ID = "Diabetes?";
}

potential ( Pregnancies | Glucose   ) {
   data = 
   ((   0.998952   0.00104822)   % Glucose="(63.0000, 77.3000]"   
   (   0.907407   0.0925926));   % Glucose="(77.00000, 102.4000]"   
}

potential ( Glucose | BloodPressure   ) {
   data = 
   ((   0.295455   0.704545)   % BloodPressure="(74.000, 86.0000]"   
   (   0.999138   0.000862069)   % BloodPressure="(86.000, 88.5000]"   
   (   0.990385   0.00961538));   % BloodPressure="(88.0000, 98.0000]"   
}

potential ( BloodPressure | SkinThickness   ) {
   data = 
   ((   0.790397   0.0674054   0.142198)   % SkinThickness="(14.000, 19.0000]"   
   (   0.00456621   0.990868   0.00456621)   % SkinThickness="(19.000, 28.7000]"   
   (   0.000688705   0.998623   0.000688705));   % SkinThickness="(9.1200, 14.5000]"   
}

potential ( SkinThickness | Insulin   BMI   ) {
   data = 
   (((   0.666358   0.133518   0.200123)   % BMI="(22.000, 29.0000]"   Insulin="(-0.000, 22.0000]"   
   (   0.000623053   0.000623053   0.998754)   % BMI="(29.000, 32.0000]"   Insulin="(-0.000, 22.0000]"   
   (   0.00680272   0.00680272   0.986395))   % BMI="(32.0000, 35.6000]"   Insulin="(-0.000, 22.0000]"   
   ((   0.00197239   0.00197239   0.996055)   % BMI="(22.000, 29.0000]"   Insulin="(22.000, 77.6000]"   
   (   0.333333   0.333333   0.333333)   % BMI="(29.000, 32.0000]"   Insulin="(22.000, 77.6000]"   
   (   0.333333   0.333333   0.333333)));   % BMI="(32.0000, 35.6000]"   Insulin="(22.000, 77.6000]"   
}

potential (Insulin) {
   data = (  0.906863 0.0931373);
}

potential ( BMI | Insulin   ) {
   data = 
   ((   0.649249   0.321321   0.0294294)   % Insulin="(-0.000, 22.0000]"   
   (   0.988304   0.00584795   0.00584795));   % Insulin="(22.000, 77.6000]"   
}

potential ( DiabetesPedigreeFunction | BMI   Age   ) {
   data = 
   (((   0.00040032   0.9996)   % Age="(30.0000, 36.2000]"   BMI="(22.000, 29.0000]"   
   (   0.5   0.5))   % Age="(36.0000, 42.1000]"   BMI="(22.000, 29.0000]"   
   ((   0.257303   0.742697)   % Age="(30.0000, 36.2000]"   BMI="(29.000, 32.0000]"   
   (   0.00549451   0.994505))   % Age="(36.0000, 42.1000]"   BMI="(29.000, 32.0000]"   
   ((   0.0102041   0.989796)   % Age="(30.0000, 36.2000]"   BMI="(32.0000, 35.6000]"   
   (   0.5   0.5)));   % Age="(36.0000, 42.1000]"   BMI="(32.0000, 35.6000]"   
}

potential ( Age | BMI   ) {
   data = 
   ((   0.9992   0.0008)   % BMI="(22.000, 29.0000]"   
   (   0.830224   0.169776)   % BMI="(29.000, 32.0000]"   
   (   0.98   0.02));   % BMI="(32.0000, 35.6000]"   
}

potential ( Diabetes? | Pregnancies   BloodPressure   ) {
   data = 
   (((   1)   % BloodPressure="(74.000, 86.0000]"   Pregnancies="(2.000, 5.3000]"   
   (   1)   % BloodPressure="(86.000, 88.5000]"   Pregnancies="(2.000, 5.3000]"   
   (   1))   % BloodPressure="(88.0000, 98.0000]"   Pregnancies="(2.000, 5.3000]"   
   ((   1)   % BloodPressure="(74.000, 86.0000]"   Pregnancies="(5.00, 5.0000]"   
   (   1)   % BloodPressure="(86.000, 88.5000]"   Pregnancies="(5.00, 5.0000]"   
   (   1)));   % BloodPressure="(88.0000, 98.0000]"   Pregnancies="(5.00, 5.0000]"   
}


